0.0859033736886905,-0.004217352610964627,-0.008435711496886076,-0.012343448808321208,-0.004907813674000571,-0.0020533280668452204,0.0020979690994514105,0.005494047377624715,0.014739082254681003,-0.005170897021852611,0.012779153091680612,0.00949364331407736,0.015618706556049132,0.00747509939947202,0.0094379406417463,-0.008411281961764425,0.015234034025633208,0.014341235465588673,0.0058603921947239235,0.007720564436131002,0.009487892281974015,-0.005516488552724314,-0.010140223166264884,0.006604977719111789,-0.00421937293770001,-0.0027376624203150554,0.009048491123795719,0.015286872800596481,-0.0014364584698254128,0.013000287104694707,-0.012794572506936167,0.0002293710498349269,0.010707326624563123,-0.0024956593253100436,0.011279804178580297,0.0021695713286954826,-0.003713102050161238,0.01291098605022203,0.001987136631415664,-0.0020058029999377755,0.0016014682748566168,-0.014956945706384022,0.005415882905524775,0.015477060221395424,0.010452395028995858,-0.010686487049515019,-0.006991454579608817,-0.008849340141220137,0.011390507229901797,-0.01110338448078799,0.009251848132375885,0.014429729431264384,-0.0033272926928790865,-0.00560879434357817,0.008451553307379615,0.008640317728317061,-0.0017375694216524053,-0.003527035248084922,-0.005272804597836727,-0.013090540861463572,0.0020614786436338774,-0.015459248065409908,0.015198582553994545,0.013999771026680412,-0.005588031612991447,0.0022606008856114967,-0.0014667881890467528,0.007819141285937976,0.006402509003045888,-0.004006746317237137,-0.0030918589986841973,-0.009138356314449316,-0.013757270626229728,-0.014452915823782117,-0.00023174047356908315,0.012792220809881114,0.0020837694943231884,-0.01474613728486215,-0.004481402209105842,0.014720716420352664,-0.008331111857584051,-0.0121203578461004,0.009853871554499655,-0.00775250008382793,0.009608409669717002,-0.009354775036828689,0.005391371228885909,0.000996370848372296,-0.014572396582160366,0.012813304034540902,-0.0054712324579413345,0.009263250945351947,0.002271150179807904,-0.016918178272950536,-0.006816961502811884,0.02024126956811628,0.012689614483292325,0.008956473754260919,0.003305490484625342,-0.0038082155154529197,-0.010073598387970877,0.0038806307943100894,0.0077013421508954245,0.016520964981046205,-0.009478767876040144,0.0013180469948912178,-0.007219708336302046,0.01299672287241415,0.009141925288839592,0.015211319682547363,-0.015386109553637266,0.01356985583170571,0.013677089752705918,-0.008893882634707584,-0.013550684810005688,-0.014066505524643533,-0.012296174122102804,-0.0076846628106370185,0.0010053625561207856,0.02450347894031505,0.022128406526958144,-0.002621061905201367,-0.00807187294264267,-0.0014213456112168192,-0.013888171437779597,-0.013497861872673135,0.006732948382559614,-0.0172018435478604,0.008379320998911373,-0.010632938684135902,0.012054664319488857,0.009062072426531944,0.0031763858212096514,0.0023849483872275595,0.022042751713830733,0.016144043522250417,-0.0032204555946881296,-0.001296168315508819,-0.008127216710273466,-0.014792579890615236,-0.0022528991185874828,0.009206451257872176,-0.00022396057878908832,0.006885550051711094,0.014047037482323114,0.016832774457000214,0.01519656358973609,0.029188164114901126,0.0348056403300886,-0.0021972337416176426,-0.009166937892832747,-0.0030824523785340395,0.005759786421399258,-0.01880226583966513,-0.011011107699039475,-0.013524305988913354,-0.005829285791918227,-0.01389395048302544,-0.00811871877185451,-0.009618056299996507,0.0046570647488748534,0.008370014982265455,0.01643431634509729,0.005507464898903084,-0.008264300023283227,0.013784071841344172,-0.015741089354380514,-0.004080426134255772,-0.011817298313742383,-0.012740148922740786,-0.0063070607054819955,-0.0118125461036757,0.01398323278152437,0.007280707017824412,0.004271900135235653,0.01703192552650436,0.03118847681482766,0.011530404514005731,-0.0005538499715007413,0.00985209159479271,-0.036685630439704464,-0.02191592788725684,-0.008476921120048726,-0.01670244319021188,-0.024789199204540178,-0.01961725973284578,-0.00939463212390029,-0.019432259341074478,-0.0009231366828103732,0.005980387919770639,0.021637908225382536,0.037965990368461204,0.0031920073283451724,-0.0010135616341583008,0.0010173748909104855,-0.0023815959772992175,-0.011687426279300155,0.015096342764703844,0.01544921228371374,0.003429080250191829,-0.002386166429043448,0.0070531232401136535,-0.0011928060199907612,0.0004845914140130399,0.021471866591918,-0.005709365304814214,0.013408205591452671,0.02609000252480278,-0.0151603098280073,-0.034005096980129636,-0.03660604011843182,-0.017129463777805148,-0.0022118903117255015,-0.015507818855636936,-0.01895860939637033,-0.003761939050455301,0.009699053418234573,0.021073102242247836,0.029066712810826033,0.03841702499840324,0.0053298865423914215,0.005112781773511383,0.013624967816127936,-0.007114256618285306,0.00046005938908191027,-0.011978710767286148,0.011033190770205623,0.01062074526909317,-0.002692559404295481,0.014869063851223949,0.028907041212274005,0.005940998660693226,-0.001692186751807707,-0.0032424431489870525,-0.020055151366920942,-0.006756797294558647,-0.03593291910730196,-0.06615159894082588,-0.05595539291522122,-0.024120765097994934,0.0018976281919368691,-0.020157082069346313,-0.045475884762784774,-0.01605480669993965,0.02653980014833464,0.045459043837567936,0.046717490560772235,0.044946796920335104,0.0313850198362513,0.010579821755314302,0.013019596015566516,-0.004015501941320518,0.0004126617744361617,-0.00383190355570609,0.003996681942479082,-0.010205308502960116,0.01629543008084705,0.018026333428782626,0.024255545715248506,-0.0023429438197024974,0.029868620737319374,0.018584673489804682,-0.032328056884849375,-0.05564472085896724,-0.026933692611756484,-0.042942338584673924,-0.02684804577411053,-0.0023708996912836875,0.008067933479899429,0.0052582957594389645,-0.009456407581274764,-0.014199939929606636,-0.012123833514478868,0.013148449286561491,0.03714972971514056,0.030449816618547024,0.04386853911913501,-0.028189170028168627,0.03723889696136344,0.017793086234718897,0.014727584805493086,0.010722808431260906,0.0033517241944117622,-0.004980619747142601,0.010986810209563968,0.03797219170766293,0.03132608752580757,0.009229401504745886,0.05379724544403375,-0.01382448621210854,-0.0412413238518626,-0.01901139240037281,-0.027337205508475168,-0.06333677294443597,-0.04082118361159581,-0.009097227173279503,0.015343656008467172,-0.0014217682026147237,-0.03602329477695827,-0.01119902359831971,-0.025587194268507103,0.062113392590879495,0.014993532570891687,0.013074755842451212,0.024827315532765928,-0.0016972447834149684,0.010283844741068906,0.0012812078490827361,-0.012687440291178468,0.002175221759217999,-0.0007818381278977318,-0.006464494476617494,-0.008369336096146214,0.03078016630221925,0.05457461482968024,0.05826817288452867,0.03314513802093296,0.01688519209682236,-0.03901460079030001,-0.0629890588374487,-0.07444064947538123,-0.0701287360858765,-0.051775753679422484,-0.0029957685648425787,0.03623565057964286,-0.0222217716230932,-0.02690764459071184,-0.03836384113739451,-0.007650406975132266,0.02372005451535113,0.03680049651861,0.04496953313321356,0.02362003876387311,-0.020356384531634984,0.012057621698771502,0.012475530003100336,-0.00835254745511917,-0.003617807706416166,0.0010860255426675142,-0.005684372435029641,0.009621802179081788,0.050339340792093616,0.022969497685802545,0.0016561863363439022,0.05445942365077496,-7.3484896138915085e-06,-0.058430419901076315,-0.06448072920063455,-0.06922345242506,-0.049569572093063376,-0.021554996338197793,-0.020723124685387315,-0.020762326917091695,-0.024939378256515092,-0.028906389907304424,-0.021783068001005032,0.028378974623897553,0.019072902705011108,0.023775843493364583,0.013497973605165954,0.024952844441713,-0.028074146568414806,0.0026458535579367377,-0.005220237262783292,-0.011419057332948254,0.008467944825004223,0.0012754025673821136,-0.011371271003013403,0.030483542539357807,0.05861367689695616,0.03823752852700996,0.06896247238106358,0.05744640529034471,0.05020019546256724,-0.02613746062856078,-0.058378830999896915,-0.04479767632631906,-0.034202156977173125,-0.013903815763600723,-0.035138092725330285,-0.026800057083487733,-0.03511302121894768,-0.06408666537551758,-0.04521584805325873,-0.006631601940914011,0.040020696620187736,0.019970169131481808,0.010942520829063752,0.013679907210454069,0.028637715224759015,-0.005596362915003934,-0.0022276126080178604,-0.0151690618504612,0.010462275772746967,0.01565926233917006,-0.006416210295657703,0.026688656467497945,0.021522597669561633,0.04849046170130998,0.04901650603227479,0.03384581161079268,0.028901230395651824,-0.015538985075079545,-0.03766826051575089,-0.08870973846082114,-0.08457987957900455,-0.04954076644953927,-0.03457174236468206,-0.015420884307175333,-0.06221345999774217,-0.04696456446684082,-0.0013649716898982479,0.019771601993059967,0.04663071946871707,0.023988400119049017,0.06912835788589841,0.007451187666205263,0.029024100149665555,0.0068409397867426214,0.02217037320494739,-0.0036464635891103126,0.013194129538441072,0.004465601672609808,0.009922012944989265,0.0356058266593224,0.020448603116873215,0.01642672740077618,0.04447029289965791,0.047219615567687646,0.018850634016093683,0.006625749130587743,-0.004361556064146438,-0.06666939463181427,-0.0689790199731047,-0.02451289338787296,-0.04554074897558308,-0.048208847834076377,-0.03503472715577688,-0.022450480607772102,-0.010814426222392948,0.002271388611941256,0.03006823026150043,0.031368773406066745,0.007960535770136827,-0.009241301424273271,0.01843643423324109,-0.015477481346042894,0.012531571933335902,0.0024113500792193503,-0.014106326243493193,0.003669307093564538,0.0007340937849717178,0.016946506395566597,0.023725497032747272,0.033890356254030356,0.031086021884252628,0.060835956777664,0.02432669918013694,0.006943513265141605,0.013313296169837098,-0.0017555944303628967,-0.019671470809371174,-0.01712830850547831,-0.02205821210439107,-0.027074624110610096,-0.041980072793654837,-0.014435698894163964,-0.0038487013228479996,0.01038178646295794,0.014415230274736365,0.0004932648325475224,0.0028411836587959854,0.0014106867283169046,0.01458463760442076,-0.0031878218192129093,0.016887994609228196,-0.015379972050665804,0.001823843549231173,-0.011489593449594394,-0.0002332986286995413,0.021973989628425367,0.022163446215109642,0.02178385355895159,0.03312307568259233,0.04615684359444155,0.049884598635317835,0.04719408091293275,0.012477373837656328,-0.015293216592506216,-0.03565526069670887,-0.04074503749961313,-0.047682835043244436,-0.03765501268058694,-0.006439234878580422,0.015273586606608137,0.041934649705847635,-0.006448278203657225,-0.011968421351452468,-0.0009198196649145773,0.0050446861457028825,0.004803384258172752,-0.005948141485369649,0.002563291175846797,0.0031890335406097327,0.004002902688921588,0.0005848532603656906,-0.01430885578161239,-0.005204260989679503,-0.012904002169126332,0.03501706934483736,-0.0001879786023570998,0.023978674539100447,0.0186195315304287,0.015753658335722627,0.035133085724443916,0.02866317385615369,0.00626306571810915,-0.019397812192039315,-0.04765670274820041,-0.04770097832378408,-0.015314375991833742,0.04007855092166932,0.024953125342979367,0.02602892997891861,0.020705667693389537,0.033533315021465074,0.00543940033751013,0.02673262846343784,0.0034670837764096524,0.0023128266594662807,-0.0012934343703299462,0.009353688726040877,-0.003994112262302148,-0.006088389383725797,0.004238687163298147,0.0026451963107342706,-0.023541077107534693,-0.0029910555797185777,0.005465893472072998,0.026463815693371643,0.03610692499449559,0.004007059482224525,-0.008870098987542983,-0.018933953538230547,0.004622143574660297,0.008792754024702852,-0.040518320558443885,-0.02269352970194073,-0.013695605335593757,0.01127661074544094,0.017299994374641754,0.004599874498797953,-0.011749996191446928,-0.02412734622424603,0.0019626588619884,0.0002524223365310131,0.008623547206488917,0.00854140174008874,-0.002869947310438456,0.0067027833419594385,-0.003171160819364934,-0.010372732310471724,-0.0028923662386936035,-0.0051405702053778325,-0.030150383877582083,-0.03748038539404232,-0.011446505522668618,-0.00459206614381926,0.041368044716625085,0.02648862201386891,0.040136613041944186,0.04181816286563343,0.017308395851771862,0.00048734418725311765,-0.005335683320137951,0.0016327092673078978,-0.022146725313133064,-0.019535240845716114,-0.021809998565025423,-0.015507894837886345,0.019403981166813102,0.022955247000468363,0.011042140406505335,0.014342265784943187,0.009051430398728794,-0.01815741020450463,-0.003985662227904571,0.001520802023085191,0.004695553018084435,-0.004164310838919431,0.010055975684499154,-0.012519591292153008,-0.025549658652788926,-0.007996904884276967,0.014865696961933815,0.03053747647373996,0.0024568341105562154,-0.004950449443027057,-0.0005084055925628952,-0.019960244883688305,0.006526189963881378,0.004138671828690341,0.007997881451787904,0.007182269439185555,0.000696612691212457,-0.022091536387905904,0.0047944751439499955,-0.01661889302590476,-0.0038861045726241846,0.013356899505625377,0.030138887451277754,0.010397635063420948,-0.00367193845782031,-0.013331850524657343,-0.0040249682347169745,0.012719601076283,-0.006005453672697049,-0.0049498332192492965,-0.006110979559817611,-0.009327952358883352,-0.014779570153486807,-0.010780848460762351,0.018930840080073705,0.014326760669954579,0.020371297606608562,0.0015677680463223112,-0.010377399682265235,-0.007365446231768258,-0.0016959881050085965,-0.013845738616992417,-0.007171153077730998,-0.023164845017683452,0.005989779772598598,-0.020841716682993058,-0.0267196661457977,-0.02031188389080038,0.02288536582480272,0.02092582612312527,0.017531311155381195,0.010193374221670002,0.000481184773511437,-0.005956531212881449,-0.00929748888571464,-0.0006226184325064922,0.010622765289971473,0.006467027575207035,-0.014573291197268284,0.011531441834366607,-0.023966531945900718,-0.017056066871198164,0.004355270762684614,0.004707302186153108,0.0017057274132764742,-0.015814395768268853,-0.015606723271944883,-0.0006326431487949599,-0.014301911895241793,-0.014217900063687837,-0.012490804638571242,-0.017528447154055073,-0.033948941320120815,-0.015999491432289233,-0.016977338133038398,0.030936513082084973,0.027865188658604934,0.010192688762544394,0.006721535157993538,-0.00410024833783587,-0.0038339832811313825,0.007239136644956329,-0.012661705919941818,-0.008064563438355953,-0.007027485884738682,-0.00557523673067609,0.009252320093036715,-0.004344208315717543,-0.02515014507627833,-0.002596073296436155,-0.006790247819093281,-0.012196353173184496,-0.025282051485318844,-0.008844339464544857,-0.010646408665303638,-0.010777676531339568,-0.0024718820303472337,0.009847240867944132,0.0026122232817625936,-0.020442544695014882,0.006367070495338319,-0.00197694975878736,-0.010099379556401805,0.010023993528234375,0.001957408802604045,0.013723562436871093,0.02069916808446103,-0.008482038440042004,0.0013215689372767403,-0.009028995500282166,-0.004123449686378049,-0.005213133104924567,0.012962013601018597,0.008219637256427052,0.009482090397520848,0.00484740870564725,0.006334221872347697,0.004437375209158869,0.013374782358553047,0.012049219205012519,0.005925634471326494,-0.002315152372627981,-0.004772949295588854,0.014087418767674387,-0.005012388943754893,-0.0022456707115189097,0.008424969672091822,-0.007506400682206993,0.011531374316396443,-0.003995427764324424,0.0021412522556818257,0.01733119301141422,0.01634844498092447,0.00414504706000552,-0.009306872272525414,-0.0035680288786809817,-0.0037443338433868645,-0.002469931740844585,0.0012324517342122351,-0.0009038804933262853,-0.01066698942164844,0.011592511837815855,0.01196667939670298,0.014164602571401237,0.013986005525448441,-0.009063542850754846,0.01510731738504678,0.0027113603813249984,0.00032756084082824775,-0.006521585055846513,-0.015222667964027485,0.00043137131758291754,-0.006057209020658761,-0.005313522620965251,0.0008934798488952775,0.01105454649337245,-0.0013157591522462934,-0.004395585146003878,0.012214162105394213,-0.003747499416178319,4.012469852263448e-05,-0.0017308353214859579,0.012142493953333097,-0.0030325780448550374,0.0060525522248510676,-0.01383164544825942,0.005261045375616249,-0.0038405424993074033,0.0007968453703512644,-0.007562049490240377,0.012447852214757308,-0.01403372385178562,-0.006959397103272494,0.013875705684070483,0.0058273799589046785,-0.012119870405541697,0.005264900953489151,0.009682507488325439,-0.0012371002416552007,0.013993025173497542,-0.010075089581307723,-0.012908036636855868,0.0018895705347041353,-0.015069720965144324,0.008320823543976341,0.0034265348569182375,0.013119916586083918,0.01388928277301008,-0.005620286369271814,0.011394640640058712,-0.0108076118070062,-0.014923865198780091,-0.002630748776289927,0.0032887062905623612,0.014023867340549081,0.009959726042473343,-4.5797124005163975e-05
0.2613393025860324,-0.007483497253251356,-0.0030665464764588306,0.004906568554884878,-0.0018995019879521693,0.00870076342841962,0.0038605498677371196,-0.004645565565788712,0.008593229262655672,0.004441628500979355,0.005114731786136057,-0.0017127175862156835,-0.009032115315193868,-0.006316388817495924,-0.013410127832119364,-0.00802372096347408,-0.004364944311475029,0.014264936172700346,0.008638009080552896,-0.0129963465548372,-0.002734788955977306,0.015190814174400498,-0.010783037504969763,0.0029736346350862745,0.0012256142768942851,-0.006843285068998596,-0.0022351128568413314,-0.006781380647828024,0.011599043150110518,-0.009561073729713841,-0.011569191020873521,-0.013305893700127927,-0.003769333964038054,-0.013717827553288802,0.008577295935194577,0.0131249431237934,-0.012145359054076228,-0.012534157561707076,0.00529630928435155,0.00495628161772179,0.01497365919112508,0.010193591805263948,-0.015531971015277217,-0.01399200285539708,-0.0041080933431856086,-0.010476071209582709,0.006900562293122976,-0.0038132045751786484,-0.003872692195597032,0.00306857362197107,-0.011216647239434989,0.008751382736641708,-0.0012363149758935037,0.00571723699090881,-0.011156138096245181,-0.0052320343683864845,0.002939997703550308,0.01487401382742174,0.015384737461333883,0.009324934346506237,0.007035550942421965,-0.0068366408859267605,-0.0035245247354139812,-0.002106656607216543,-0.0031153909755132583,0.010360695750582873,0.00361411379250996,0.0087251600275856,-0.001319464886880467,0.0015636181472037393,0.009462151718025459,-0.007194283408881783,-0.00590951977974469,-0.006959086791305035,-0.003262771916333945,-0.007315505139888092,0.006987028026162119,-0.003957547831422983,0.007153583271895008,-0.002597119766317598,-0.013357762474126931,-0.010721770808920467,0.013373764953366288,0.0052242650943209665,0.0022723794999645226,-0.0024682687926483975,0.006378444321447855,-0.00016936761634343128,0.006592942483318518,0.004777851237078251,0.004755951596335919,-0.008339048760608966,0.015229433410181764,0.01795806461726866,0.00287628793420087,0.011407943763394214,0.009236627923324685,0.003328165454581605,-0.008142688417558936,-0.012530818863048819,-0.0006735696267091481,0.018728951660756388,-0.007852041988667968,-0.002127159764267215,0.0004154982324322877,-0.0068980325601375615,-0.008975642425159892,0.010855068195975408,-0.010541204808497427,-0.004353910730417174,0.0003741793411732204,0.005163208853548373,0.0025528664785053543,0.014971128538866854,0.009516631819396139,0.005932794018279158,-0.0030990868737101203,-0.011650293014213896,0.0003136601997889064,0.0027538904116570146,0.013537906812272044,0.003990747742052608,-0.0010714528947969753,0.0034179022865368407,0.014268077486638019,-0.0057735353697196444,0.006050731370224655,-0.011651360575165873,0.0041412230098377915,0.018474239761025475,0.009392539013466992,-0.00818587969521332,0.005637466260686589,-0.004366557368425655,0.0079788287554362,0.011758055389656696,-0.00014506131825173913,4.0180934034630074e-05,0.01042802872292809,0.008402325303331024,-0.006787968758371163,0.00358251848841561,0.009064043025689476,0.007913652953344579,0.007827239900439141,-0.006925944786371019,0.010416354869820526,-0.011870030093804732,0.013443959128599244,0.0029642568267618605,0.021351200599323602,0.028222652405037695,-0.008229598214856042,-0.0068678688511196575,-0.018608269783567086,-0.004151170917683874,-0.009689695235155947,0.0021102731571494265,0.0016585326595072404,0.009263489878924653,-0.011683681122851215,0.006601330295650851,-0.0016435232436948768,-0.004146476282959759,-0.01897785930189933,-0.010741072871546284,-0.006686403712773153,-0.008477917347619041,0.0069912176053773395,0.011983180700476152,-0.013264989557107532,-0.00047150912211951453,-0.010317377032870827,0.005291675998444127,0.00782113116707319,0.012437222503283975,0.01766195908321529,0.008906192583648548,0.0162057896977251,0.03236347645542928,-0.005535497887373791,-0.0020521360832371073,-0.009106219192020983,-0.010736497496271901,-0.024097187820684308,-0.016278028224939428,-0.011988157419492884,-0.0032285432207066283,0.007875914907366261,-0.008024762963722948,0.009001508506963305,0.000542871292386341,-0.021075969477380954,-0.002783053107827837,-0.01836893948245414,0.0007929729158933867,0.0121767150254324,-0.010441771149141844,0.012256903431536483,0.003403225796240078,0.0013383132566643047,-0.012802915965482657,-0.0008844526590375093,0.014481031700051994,0.00448977792253139,-0.00831388498669112,-0.010213701347100387,0.023798222561256296,0.002718360709964883,-0.0041993818373623065,-0.0113652056324891,-0.05052864099508871,-0.021236104623513337,-0.025343832684046937,-0.020754127897622706,-0.015012534441706901,-0.02455190784757767,-0.006067617853338101,-0.0034356840573161853,0.010454870515582925,-0.0271705460414789,-0.022406769583818265,-0.007907304770472086,0.017782536249495426,-0.007969084297862274,-0.008543400882652874,-0.005242220229873724,0.008606335599850717,-0.006294913586664318,0.005447876916126725,0.013591212252862424,0.022828430102154542,0.004821219144253164,0.0072809734520488,-0.018155299804536628,0.007361477571221188,-0.005398832370721535,-0.027636151330949692,-0.006624934892107353,-0.046240107090754816,-0.010844561740425968,-0.02819114002756776,-0.020806886102644192,-0.0008756904739648652,-0.0072447139927809,-0.019028213014213632,0.013665394268260862,-0.01735696483240484,0.00286042179442434,-0.016452338247034837,-0.027689793365604877,0.004237768419455242,0.009010280075765624,0.00417662521645043,0.012367822070557043,0.0015251189465370152,0.001889491415577572,-0.009724644212967256,-0.006609473457438992,-0.013568811304382446,0.01224837278534259,0.01543715848488584,-0.017574098183469854,-0.00886295687730755,0.009212209566331562,-0.013637425701338579,-0.042436912841327536,-0.04242343602080977,-0.013460875884312693,-0.010540028498949765,-0.02306027737668371,0.010945817544990355,-0.012485080114195428,0.001965057426221442,-0.0037298672690335207,-0.0025224661510766474,-0.007181686758250025,-0.0163109639687824,-0.006389706001174679,0.008685395359960628,-0.012088052534626605,0.007708777921328146,0.015027582386909785,-0.012121526227242512,-0.030236947013346928,-0.023016449474702445,0.014285749304565451,0.01459022366322104,0.03188736179323743,-0.003689891669344659,-0.005363222160530143,0.0035564357118966004,-0.011192563622427737,-0.03453220744766914,-0.04974516560239384,-0.057401022062587036,0.009394421561981517,-0.03774540568068638,-0.024547311909219573,-0.014319356473634049,0.002299610143193067,0.011620379107004884,0.022708964827448434,-0.012488146586022058,-0.023463471267174137,-0.021481958386367336,0.022854563425452293,0.009943350051630417,0.015488669225866383,0.014074543880067174,0.0023473597539859616,0.0012275586588240766,-0.03455745137306244,0.0013979911130155972,0.024428870895830186,0.006499809202602035,0.036825664094789226,0.005798170766958162,0.02401743140688762,-0.025000967218654916,-0.012524808005288462,-0.0393810278786756,-0.061674322550398814,-0.04530920768541577,0.01689100521516979,-0.006882928491193545,0.010285358074978126,0.005023583554311666,0.02544229386079431,0.01809970518207796,-0.0011949861888881652,-0.006993757949674224,-0.018552313123558713,-0.012801355516631816,0.0021765903949720225,0.005608022560123635,0.017907295844339578,-0.012265146701510486,-0.0085309121739253,-0.009982963647556811,-0.02280238971936028,-0.0012210432439017085,-0.023182554792964015,-0.0016477177043549933,0.020166975449631454,0.009131403388607523,0.004189113204265317,-0.028224496747784125,-0.03325193846064549,-0.05498721475230659,-0.0720477857978258,-0.01332568544648746,-0.008732532077764282,0.02843361002033968,0.009755642900033395,0.01783430656616913,0.005258265089779749,0.017929258860882685,-0.012992989046999975,-0.012537592779625045,-0.004610555335149053,-0.019862587528073117,0.009487993608065163,-0.011278922703231045,-0.009325489058817655,-0.012861249170568703,0.011647713829340007,0.0069248991543997655,-0.01618883547479614,-0.003054995710553307,-0.0077775279408132695,-0.017008666070028322,-0.014761951538628153,0.014903338642038147,-0.014866541612624594,-0.026624928328832932,-0.013938127566321335,-0.05691209396227309,-0.07654351562888388,-0.032212974815954844,-0.019203930940689853,0.006723879986898042,-0.020572965892694566,-0.0044812902927529406,0.041707655303428466,0.005614036054923208,-0.008469987952034729,0.008672375524900152,0.014684787511434623,-0.015613214254459513,-0.009708241716878918,-0.006721081945048471,-0.006711346809016372,0.002023630185179346,0.01354719649073533,0.01629449991133444,-0.0053799600738348,0.0033527901530271535,-0.0009107195551617729,-0.029049067752914576,-0.02049756257819757,0.0156294831350124,-0.0018105533677616867,-0.0029169790763870895,-0.005699505738177408,-0.05280655173289013,-0.035276462072884714,-0.014947502732870719,0.01908456829670644,0.0335055668525132,0.0282254788277678,0.02217931052014084,0.005951280685070445,0.018056003853772852,-0.0014233841407980193,0.031838418066721205,0.0018826467487280155,-0.008059645686304863,-0.025246487605578165,-0.003953680295938042,0.015804172733639318,-0.0013929673002561309,-0.013298589654428514,-0.00465030945134491,0.020878812255690153,0.0036804331135782955,0.011388057220227454,-0.014978182107039724,-0.03653535937721375,-0.005816644964956312,0.01535088371425146,0.03132827835379212,0.003906831169444016,0.004574793271474014,-0.022039811238220176,-0.0018421158871203248,0.038728264180488255,0.007746390585631079,0.02729689401620195,0.020121364790088216,-0.010177929299554859,0.0074485153968950075,0.005061653211421066,0.011360732603196654,-0.014670034629559073,-0.0016060949406492405,0.006674713917677714,-0.0033843168882961194,0.009646796531324185,-0.005308246763786613,0.011450120063167587,0.0037258552497769644,0.004821923861325423,-0.007396699221030253,0.003967625027850528,0.00488321551398823,0.010844387506579265,0.020995095299134008,0.007281451106215244,0.029613401337420745,0.0194134636277003,0.011553569407506691,-0.002223189812236021,0.005128089543780689,0.0068994183226415776,0.020631923997412822,0.01738598440802549,-0.021947047653108398,-0.03224539303757198,-0.03194382127056787,-0.003815767059096115,-0.017434724904723333,-0.007299364962845245,-0.0035133320742244175,0.006367968050277787,-0.011822203109977185,-0.015690705862934147,0.01313392636703099,0.004794055025660097,-0.015949224527858706,0.02156081496898603,-0.006207335134889034,0.0010332891524861777,0.013816159043945524,0.0024405347790123783,0.012095746007371079,0.030550203606150586,0.012055442584507374,0.00447071529780572,0.018704201678613575,-0.009731270609849624,0.006493569298440389,0.0047252553109175645,0.004555719253284883,-0.011857580758829471,-0.03073509565328295,-0.03878378329768332,-0.032610947073891554,-0.02649697517927452,-0.005186197898577435,0.003349166590808173,0.005143188278736111,0.026441702234485432,0.01770648581858041,0.0008093790190929569,-0.0020013776254793787,0.005687635453261424,-0.01784880329740841,0.007283905598596142,0.013043204011512363,0.0017275206523234183,0.015560464895285111,0.000810135147816145,-0.016619027091177668,-0.012278093146663742,0.011134510376010747,0.0062995280024830645,-0.0033964626440004257,-0.011152899685720504,0.01656893162674016,0.01936206195232817,0.012674892879979381,-0.0325596170212728,-0.02668459482015486,-0.04195806250998481,-0.0034063048926967388,0.0012130571631543186,0.01495564678548009,0.0226766972956726,-0.013940868577309844,-0.01453039563239882,-0.005806246305378696,-0.008486549296234162,0.00473544607931561,0.009682521511593104,0.0012118617098925751,-0.01106320016336862,-0.001442162303757873,-0.023575004453726296,0.01600830744059426,0.029500581268891424,0.004274248270486712,0.005579702005048222,0.006454704340699505,0.0006834020014334818,-0.036089733963029724,-0.016581758535985983,0.002515444580219734,0.005549960533809192,-0.030591368216362744,-0.013279502019738824,-0.05328828667890958,-0.026367590472512137,-0.02679563032693699,0.011052806451075778,0.0015114590340293587,0.01396410953919749,-0.002522525029889177,-0.017375067034095335,0.008385273341879875,0.016129862554040447,0.0027568627050114577,-0.0065589134132237395,-0.0009897781248107888,0.007238607651422687,0.007422364130202324,0.00560827924027654,0.004839812332847016,0.02761998327219266,0.006566321598729301,-0.0022067629573505536,-0.018217634965027492,-0.02455245904559068,0.000898298882946629,-0.012849323510837939,-0.0031643335156033995,0.008242492582240574,-0.013923084643061783,-0.019225045560759785,-0.036220065809152,0.0013835038362477593,-0.011111203084780993,0.011060805320241115,0.03918358600500257,0.013555856787892161,-0.006608955214047941,0.0075950116914380306,0.0024591702830179868,-0.0048986112980528825,-0.005290499346704752,-0.005350425880541521,-0.00031182158807738876,-0.0168615795797391,1.6419735433644918e-05,-0.013262082068448785,-0.009466098655473884,0.0006971311898882229,-0.005357341189907023,-0.012538591114563688,0.0051796428156425205,-0.0029687207981737487,-0.023489658721896876,-0.007721082722538752,0.0019380332162405528,0.010334459684889006,0.005909287588873767,-0.024536452755666956,-0.03832944106604359,-0.011592261516851266,-0.0056620336121218666,0.03196920825483817,0.002470946400376925,-0.002212523699075165,0.015611618623585972,-0.00620216105953996,0.009531102732294267,-0.004529527120240698,0.008032883256751305,-0.0031112248922049238,0.015599647643471957,-0.001808717716001916,-0.004883846374579792,0.0030720739027160003,-0.015191396150935305,-0.004632925099569303,0.008983924836785666,-0.009235373419153906,0.004256626591371412,-0.007182369476057382,-0.020715191757990543,-0.02336742387661525,-0.008172297031285245,-0.0008897145082087558,-0.02376864523975042,-0.019349696162203757,-0.01608576651856034,-0.008209819071533574,0.016118621643899305,-0.004875388555629589,0.009288007681759006,0.007930319997928849,-0.008902226128575283,-0.0015639894921844644,-0.011696338682727235,-0.012507058105413419,0.012224409549069625,-0.013372647440478981,-0.01121395645025163,0.009095414351369248,0.0009389719173139319,0.008606399320475317,-0.019489624033748768,-0.014389760426073468,-0.009783921240108196,0.0035839909844957614,-0.013446012231138107,-0.016600186217425792,-0.02151847108570465,-0.02483871722435355,-0.006063332512634301,0.0012400852321962472,-0.01782157013447992,-0.006751846703247912,0.022911022026354755,-0.004995714451684456,-0.019264374627003474,-0.002702179401321233,0.013563362992303912,-0.006861983647964747,0.0011827058579482335,-0.014885485471499779,-0.0071999388349972444,-0.004197450904372183,0.006285586872660752,0.006660151529248471,0.011148795616538008,0.013755110474844706,-0.006402267077155582,-0.0013796485419210974,-0.0004064493622481756,0.004205688832055439,0.006922275196639535,0.005036164019881607,0.000567827380342701,-0.008128118634019197,-0.006960189454365441,-0.014487533650724105,0.010034991620341755,0.015901943128805676,0.002750948460378073,-0.007737736806095004,0.004084425793496514,0.007992417389078433,-0.006855813339023064,0.01639136958700046,0.003762105384646639,0.007885451277573742,-0.0005813211456194774,-0.0015013996338606034,0.0037318921693250684,-0.014970596304397763,0.008118231487308981,-0.013506667846421804,-0.0036557109631471033,0.007189302362367523,-0.013754731465035868,-0.013210863333453957,-0.0019350727695124797,0.00862355116976717,-0.01613858874243345,-0.008511404929351775,0.004717964960051587,-0.004159532920465982,-0.01102653555552417,0.011533773397077044,-0.0027278349718912742,-0.010730884400409545,0.012050707678982541,0.020179049472807263,-0.008039309613581,0.0020260971595990203,-0.004934669765975258,-0.007899639157311653,-0.00220677412603944,0.005440107623906541,0.013292022934405337,0.0063155397075086925,-0.005749219580094778,0.0010395909923616373,-0.0014774903147591958,-0.0069447895318050165,-0.0019212875654119749,0.00842435044186059,-0.01461782154249125,0.010343039465485777,0.00627673312753814,0.006905928481779823,0.007825093169440517,0.004351012706567299,0.0026855884047745438,0.009418502111020445,-0.012557991503388398,0.01049774983475245,-0.0022452742611322055,-0.0021011267927783677,-0.0061684882576471655,0.018380455754792344,0.014769277378005163,0.012091566690820649,0.003533628991171292,-0.00444031782473119,0.006449760108422412,-0.004574618310948391,0.006210311350147359,0.006754266989014029,0.003895165513763215,-0.0012733450899635873,0.004142005606996516,0.006719868053820032,-0.008862217369495422,-0.00025298640323241986,0.008392318406301051,-0.010367173675445214,0.000570232347350633,0.0016800891073502227,0.012744636987568746,-0.009774285315421707,0.01169059421883353,-0.00267367557549578,0.01070934571565181,0.00846316990251873,-0.012765029817579071,-0.0016389054106674614,0.017230845823143277,-0.013171601826468305,-0.002434109813018512,0.002072412972704767,-0.012018724836895464,0.008711108907172235,0.008938419737866667,-0.01510620509409124,-0.0038997007029396152,0.0005896686695146917,0.007223573536476364,-0.014366688994744786
-0.538760110627956,0.009600687044312037,-0.009045140028136694,0.0053554757727060885,-0.00857020478709216,-0.010469933233243998,0.006503312732377257,0.009239411253960973,-0.0020907011910338245,0.009652848161289248,0.008193456837254483,0.0050452552590270275,0.004443161139148347,-0.010855473118895734,0.003062026656896543,0.0010661065649856666,0.015255651136858929,-0.015333106681701923,-0.007834350070163369,-0.008993388652137488,-0.003063340229498026,-0.006066118981404182,1.087647149860399e-05,0.0006421576327217092,-0.006764109404970971,-0.011105258399163886,-0.0008629778798051463,-0.0008792149565625372,-0.01132089594510522,0.010392405271987863,5.8524262423947926e-05,0.014004977401272652,-0.004826887153491971,0.005091730380081219,0.013738196946562357,0.004812769994370518,-0.0017679862515754367,-0.013168880749061817,0.006582666150859461,-0.0005989721381780763,0.001130023012423178,-0.003940536524720435,-0.008455813508091974,-0.01415150377151339,0.008616380600133169,0.0012305224441304594,0.002972748083823102,0.014470468135539292,0.00896745140933524,-0.001877735829992816,-0.0057394213174600875,-0.005268514543321289,0.00128984771972733,0.0027632853683748695,0.009778017767402739,0.007199011229431895,0.009219279470752267,-0.007492838589299031,0.006394798493745035,-0.011596114950881732,0.012092347422503435,0.013015108288012122,-0.0009589668648086885,0.0014723807139779867,-0.002043603884427106,-0.006616491998488953,0.011893458037059022,0.006913933021393575,0.014877667471853411,0.004139610500912355,0.0007743967167116832,0.0037522663540418,-0.0006834372480404097,0.013776307872805114,0.011171301207261779,0.0006189887039077073,0.0004677508719608259,-0.0008795356606882722,0.002192743226435541,-0.00570745718190193,0.0026429256017474964,0.003971845862277643,-0.008163185496199151,-0.005225577258984419,0.004168762527263125,-0.0024940178840280706,-0.0012301300807601064,-0.012696096307135894,0.0067729251482518925,-0.007703891155990315,0.008295050962162029,-0.010961585603292901,-0.0015184727871200808,-0.015300352284632251,-0.013010351465079801,-0.003805887483686713,-0.008574179197022639,-0.01508154779283281,-0.00013665757183430743,-0.013115250607566381,0.015259712650409804,-0.010447961603234093,-0.0007706699838625417,-0.007915196019121162,0.006490524364753177,0.01251119883458001,0.012766007987240362,-0.007870835452590666,-0.009288553724607865,-0.0036555490833943445,-0.0067061839599552,-0.007523933377151345,-0.00716568990425788,0.006306139379990243,0.010786196329626022,0.0034446759046772336,0.005113672865226182,-0.0064348118059019965,-0.0009706045222826268,-0.012688538260693046,0.0008969701092111509,-0.007998958091415782,0.0008863021519683843,0.014557377292513465,-0.0077693280103305964,-0.004571905780568517,-0.007596527256140528,0.004683796904696502,-0.013418648747768831,0.011505219566884259,0.0033293860662270934,-0.010544728666958929,-0.007846838736035339,-0.00036066434739851633,0.0008757317644632126,0.004900369941624374,-0.015404381298427028,-0.0026057966846570954,-0.009328384877417772,-0.015449688507967019,0.0003043893088402576,0.01383287449764822,0.0031101043647666186,0.0065361297298104325,-0.0011098636083413799,0.011483573195335089,-0.001375717821108572,-0.004791227210410105,0.006664450654940486,0.0006323422579924236,-0.008791968778549646,0.0009355432377251664,-0.006630188901231526,0.010926019545686668,-0.006448974430043254,0.005412336156266694,0.014594607359468024,-0.0025834570000599286,-0.004779974720127311,-0.0013230446307419402,0.01195723013449181,-0.013535006615964858,-0.0009562557725631589,0.013198852132850887,0.013263192330268903,-0.008105042656742327,0.0040939215327008074,0.007029840961945671,-0.005951011268697553,-0.0032028596438177515,0.008101881853680201,0.015259105430313197,0.0035414740571090113,-0.006428810684609727,0.013236760407274669,0.01354945997633273,-0.005296524456980409,-0.011059538377342248,-0.010012635769697999,0.004110002643432593,-0.0034198105537078527,-0.007470832730368474,-0.00919808783540808,0.010599511298479847,0.013923132498273011,0.007251399363633403,-0.010508671734251435,0.0036027645481521396,-0.008057937666445657,0.010662764422503405,0.008666181303737582,-0.010497150887323212,-0.00861659377782703,0.004876345967631018,-0.01355287519687971,0.004582270919207605,-0.011773367655244567,0.00042154845325529863,-0.009927212244521415,-0.014607279527660121,-0.0038593692209969513,0.00018658308476765875,-0.01122655478195237,-0.00855859891626208,0.001880593469531868,0.01054535513925738,0.00667642620615571,-0.006594789358717212,-0.014738549474406799,0.003866765472846957,-0.006981297868345931,-0.01032574542372175,-0.013622221024538937,-0.010736074276110643,0.011964392302642988,0.012925408067619576,-0.008868737599354016,-0.014160240539578806,0.0037429399189374234,-0.006983508045326756,-0.00181225149352068,-0.008917397078722196,0.0012922766652037725,-0.005186829224479661,0.006199547799611873,-0.011429224497611475,-0.005118500055870744,0.00339740156134782,0.015554701609967865,0.008805919601968033,0.004310430887424412,0.011054632520099434,0.0018385811129942586,-0.0008524292013838489,0.003611890976220656,0.005646453644069748,0.006892253898403401,-0.006151343997180845,-0.0013346288418488624,-0.003465165204623151,0.01483811703892583,-0.004697221683695459,-0.0010080488590278776,0.0059324603839117085,0.005426499855543925,-0.015451453120140284,-0.014455046093068729,-0.00908090859185361,0.002858730296323813,-0.004758611319925211,0.0051466351329365195,-0.006929609679698166,-0.012462642676835611,-0.005790897320940486,0.013638338876310847,0.014490005498276889,-0.005709043051446212,0.0048217416873199935,0.0015251871600195886,-0.0028777221114580365,-0.0008882106060759017,-0.010159386536774704,0.004618694397971759,-0.014621539943323377,-0.00874573323867877,0.00129859598712765,-0.013124889257001286,-0.006290192011834041,-0.007533598056665043,0.006693259081655474,0.008101434734740207,-0.008319011865111737,-0.0006304798268111679,-0.0029049674276558357,-0.0018246039266789117,-0.009783583355260896,-0.01415059611567647,-0.015052851739544983,-0.009146474792336316,0.005387543964232185,0.008232509811413786,0.014441144519229631,-0.009449215153681089,0.013553433972156002,0.007592755454645626,-0.001273431984872262,-0.009257241103047289,-0.005624085502494942,0.0026019889042475687,-0.013322990582058502,-0.010439759446176828,0.00783091620153624,-0.00497522534675493,-0.013830068883420008,-0.00875521868257104,0.0024351913883152616,0.005206898309770922,0.008368553801392151,-0.006852982766839221,0.002259508555481668,0.0141121945290234,0.004801323352170459,-0.005682667568263976,-0.005169199023070607,0.003426180615502039,-0.00643905290483221,-0.0014100288049884793,-0.001609545395146593,-0.002692274141615672,-0.0008029513058540882,-0.0028986681073727948,-0.0010991587716758476,0.01006316059089682,0.0011881973954467363,-0.015153689016079639,0.006805959805670135,0.0028061853254244956,0.0146793489507753,-0.002941808168985975,-0.014707239771321916,-0.01553090095571806,0.0021911742482191993,0.012555730308443598,-0.0074942956687669045,-0.00542820551157772,0.00913870556207401,0.0011853877750440632,0.0122565385122454,-0.010871529690231498,-0.0023118001147139945,-0.00018385030605283514,0.0008309864699262148,-0.0010064004431302453,-0.0024442738576423116,0.002227094037182159,0.0013093199392798446,0.006754279851161962,-0.014700236008876724,-0.004264357115522564,-0.0003514462547948814,0.0146372769271122,-0.0016745457380034391,-0.013555271888421865,0.004447251586552018,-0.014562750694108895,0.006587522054472241,0.011707639041360077,-0.014040400345276507,0.0032346177129530702,0.0014900682706569662,0.010038794992649255,-0.015434007154829815,0.009314205874562338,-0.00175511612098226,0.002659940013715112,0.005429161705906117,0.00888250241445324,0.007789367827795476,-0.003571031153208795,-0.00860190437695334,-0.014993748339442045,0.000518206414986875,-0.0015190520811721384,-0.013094695105633974,-0.011132754149336586,-0.01041118188387655,-0.00975526884827476,0.00019277411949961826,-0.006685705218933233,0.015431975723597877,0.015014972849467949,-0.003360839272404631,-0.013164247132973095,0.0023126203934067877,0.009489317224425777,0.0018319209900048636,-0.0038446988265582217,-0.013098389886332745,-0.0016041883089710114,0.009950703320415574,0.000357206651973023,0.009128999417566234,0.014884175637057656,-0.004428282152760296,-0.013699736797346838,0.01453603315985334,-0.0019082062215794206,-0.0047605262217880265,0.001718070772181047,-0.005070813424422491,-0.005675544540035285,-0.0021970301462883486,-0.012612512826775224,-0.014708113876585414,0.004911655631700922,0.012748596180999858,0.006487516970088161,0.011125135742053798,0.005398511981060918,0.0016706650373999148,0.0050486590883507335,0.0006169432625165693,-0.00519792547114941,-0.014141389820032421,-0.014691659894852133,-0.0031607636170361553,0.005386474535682077,-0.0015969835543093482,0.010350837755684156,0.0018745354055365593,0.002199711762943476,0.005177653628842562,0.006076814819207497,-0.015278923232607357,0.0031667064414393244,-0.008059041772964112,-0.015092328481231106,0.012342657724598576,-0.009002055812483041,-0.0073106453726220315,-0.005849220206469542,-0.015452700458989773,-0.014122683451739056,0.0068099787147528935,0.01168154663406653,0.010279961649174073,0.011059518411352571,-0.011422850759869763,0.010873957363754922,-0.008311862622547937,-0.007514238158236111,0.01501782009062727,-0.004768341866161967,-0.0131653297190872,0.00783700409230547,-0.006511727772304632,0.010082469698415863,0.010015486588674391,-0.008877768423657628,-0.014619106466011236,-0.00914504702351316,-0.010326693347382513,-0.006651856749923458,-0.013030640239485549,0.006166672649778129,0.006728864124995841,-0.012905069836721954,-0.013444966688579758,0.01326801824109497,0.00953552525399784,0.011808414561734867,0.0073126278582038365,-0.010004456762596273,-0.005738064140233482,-0.008368365202472697,0.0030556945706054495,0.007715475900701523,-0.0027613554695268307,0.013169616318703309,0.004474513313612753,0.0037059611842689202,-0.012041679229054806,0.009243595322726544,0.007058483915584092,-0.006113642574082881,-0.014984978231645803,0.004438920998721542,0.01457042628900592,-0.0037317114737284475,-0.003841179906508195,-0.002965576018463808,0.01281160513966646,-0.005910786085709566,0.00701131566689266,0.010762146503235741,0.00936296472438693,-0.003647272642251051,0.0002436891884172003,0.015431396919446495,-0.003300896588050252,-0.004911200249796709,0.003305328876138918,-0.009633306101352004,0.011859642190118612,0.007529771179565943,0.0005143494261053046,-0.0030832718540847737,-0.007394804238042622,0.013251984599730777,-0.014683465461675229,0.011599856181493586,0.0013818365048382276,-0.0031801176776649516,-0.015116362999000016,0.012526070302098926,0.002574611186080711,0.011325265455464504,0.001909664759477743,0.005740313254519156,0.004685500861198615,0.011751154393783395,-0.005931708723472009,0.00394016345325883,-0.015297713989556993,0.007428310586231435,0.0014460808155153625,-0.0048042263982818155,0.0062805071725189,0.0004736012683574861,-0.004728575107575003,0.005404158078956108,0.004884040211839195,-0.005106473287105964,-0.011723544796459876,0.009221607398256362,-0.005713533917560267,0.013357016213986092,0.014140766955069047,0.007435089797845646,0.002819754134698753,0.014267079065097114,0.001476038394231858,0.011277619178568312,0.010494438992990896,0.006182898436054816,0.01231879666847657,-0.015540466798533853,-0.008888065971423584,-0.012037048009299993,0.009103185900706287,-0.01268993753022165,-0.01051734650184177,0.010504248912463775,-0.01292992620618355,-0.0036929631806799403,-0.014652268465625229,0.014935967358931337,0.003993383594368995,-0.008883413615155607,6.32510350535645e-05,-0.009550370951977239,-0.00871447389720878,0.014804168705223927,-0.002027985629116387,-0.002750209781055602,0.003015245800726568,-0.014512620724629336,0.006564335102411674,0.006964768514097382,0.008924726418114377,0.013996843723242034,0.007579416105218246,0.00040419972215771996,0.00010735586367395869,-0.003156010644575609,-0.014842454210696725,-0.000352187874951556,0.0026150461643946674,0.008670973399596733,-0.0026373175944117977,-0.004492013118063746,-0.0010304642224616758,-0.013022023296486721,-0.0010359161883160654,-0.011999661546064258,0.011179012138057103,0.00197510530021891,-0.012428416012322342,-0.0004914466236693449,-0.0030293681013491905,-0.013270875386447323,-0.008317203538319658,0.014847894062733104,0.011480087197747516,-0.01053988105521609,-0.007861246604337048,0.004708627060040656,0.0020427415392806243,0.0054506945769708035,-0.00661645839729872,0.015172250203923703,-0.009063227103361,0.013520603024347832,0.013456458576420957,-0.006689375765054351,-0.002945163086757876,0.0027194516695322017,-0.004116729816290771,-1.0968756948243757e-05,-0.00048205134568472113,-0.015538711027051316,0.009496298110541132,0.009723727571942481,-0.0022819833240780366,-0.005812871814812437,-0.007448398353969057,0.0030663190473063373,0.012487319148133794,-0.007578459377072886,-0.009672812173256832,0.014635771456051855,0.006504517376393456,-0.0031960446023601707,-0.007220739330499125,0.0047974378721826125,0.005067636769891047,0.008448291457726576,0.003626003014492455,-0.01277546013342713,0.005310910082175345,-0.012130230394201018,0.005154915166812168,0.005143833064600117,0.009453992487156816,0.002666065290593593,-0.014671439338155415,0.010598482157558365,0.01098584401617082,0.013698765729517077,-0.009611597667650795,0.0005855857083678292,-0.006220707915324801,0.004898451577037763,-0.014366276196008356,0.012462037574144408,0.006296478646121779,-0.0041242288834044995,-0.013661826350789538,-0.015431124784593821,-0.002620825818023073,-0.009155621193127881,-0.013536078481083898,0.015539781785066816,0.013507319485597538,0.0060996548804864575,0.0010720488074520002,-0.007511941995546702,0.006210495348574662,-0.010540829534291224,-0.002652303263418001,-0.01405186736344433,-0.010989818813963975,-0.012696277141753323,0.014195449255263302,-0.012852625282304672,0.010290638840662805,-0.01032410978428663,0.00449729367166744,-0.006484884640077369,-0.010285693228237334,-0.00024288141822566278,0.01022073205862456,-0.0017707259759704719,-0.01090779858603954,-0.006903426062261138,0.0024030339369126436,-0.007652486755719667,-0.009842615290877356,-0.01470418535598536,-0.014128763328854453,-0.015436331401195238,-0.005520021031752521,0.01184415714082451,-0.005481161231434762,0.010768861515832357,0.009174428503189662,0.010667638709277987,0.0038957028531646162,0.0021591573555939138,0.0003043207163930667,-0.008005906042528523,-0.00281006910535744,-0.0035095021158634207,-0.005320822519821192,-0.014641497720415286,-0.009302069767165886,0.01193291901537603,-0.010659399451769913,0.015010198188442004,0.006316813039711065,-0.006755592676101919,0.0021904816746702027,-0.008017197502813357,-0.00950995404007697,0.00501419697963568,0.0010500305302249824,-0.004718324956362648,-0.01519974688474807,0.013166639765997114,-0.015234698998217631,-0.0019288129256101183,0.005064769905271122,0.005781078774955182,-0.003634949291376789,0.014642315792944997,-0.009039102129374206,-0.010263590749563237,-0.013685099630088716,-0.013656011932084607,-0.0012511813711668755,-0.00946810372594234,-0.0014697249332429017,-0.006424621892848981,-0.0025910517065953487,0.0038393465656931386,-0.011770053205614799,0.003299575241273514,-0.006159263510977186,0.009881600032907806,-0.006125845221547181,-0.009489844227160722,0.012271978273599531,-0.009870345620256932,-0.005006262500658179,-0.007558064333954156,-0.0048245248418253665,-0.010691340170651167,-0.013823730376440045,-0.0013799247790140037,-0.01313175407907662,-0.013227697581807616,0.009862229956046024,-0.012262357965089517,0.007879348541609703,0.009760794773440398,-0.013380162614638275,0.012946492511546559,0.009156882274746342,-0.01533234318554482,-0.010734687087010503,0.011171365190126136,-0.006836340251480007,-0.00605648113916404,-0.0037437200752948735,0.006009524419592547,-0.005534120137247585,0.0013564771004319146,-0.007752681027682656,-0.0008623945965798886,-0.00014630071729616542,0.007154951339200688,0.0008743319435408452,0.00385272155628082,-0.006464558122005051,0.008380985115803371,0.011728604734469735,0.0039129965367297355,0.008247170960153236,0.01434549585452647,-0.009525704171799411,0.00800293612584321,-0.00013922218167471134,0.003324981362759837,0.00202389232398123,-0.013225281426281335,-0.01222559770866162,-0.005508889253475199,-0.0030826801246779494,0.010185656748120487,0.012073752604438274,0.010043886350933035,-0.0006120487176066586,0.007421016547176213,0.004532555042227018,-9.708054827783572e-05,0.009358448021379494,-0.001822345086483771,-0.008437279264756507,0.007986867783287811,-0.007472223138846386,0.009147044883686041,-0.014124057695410135,-0.013345213203916444,-0.00908280919210315,0.010350599708669684,-0.007234081987400564,0.004567370846046859,-0.008862017304442964,-0.002791110475565465,-0.004932974017330626,0.015172187580801414,0.013968273447890239,-0.01340231236669058,0.001271741102520884,-0.003737290246432358
0.3398181828481964,-0.005624011908362075,-0.005148178028166441,0.015431320835766357,-0.013284122088182294,-0.009975103250909473,0.010319772285336714,-0.004977377738414595,0.004627927383324858,0.01488537454598864,0.006830547275228127,-0.013548194933602858,-0.0011412608293581673,0.010327770066247289,-0.014188913806907184,-0.0015406274050499338,0.00883452758762766,0.005297008228949893,0.00047468754894914103,-0.013522760934816528,-0.012347929765130487,-0.0071886996451144235,0.014161208292082096,0.010354753641106315,-0.0018703737891003873,0.013998043574426178,0.013820593709693806,0.008524986760266293,-0.008907094278739782,-0.008595722724268604,-0.006938912738304871,0.002870909916134305,0.014584757168365058,0.00490917311613482,-0.0019284168359693307,-0.007927383222054312,0.012302627267834633,0.003438022366766247,0.006058261968420556,-0.005585573584818605,-0.0031947167642508998,-0.006304450093563527,0.005298588464822966,0.010471666175946668,-0.0062740407011182,-0.0049632122197063935,0.009771057855874957,-0.007129812464308848,-0.0012841793567733156,-0.006435638977864373,-0.004787208325591846,-0.0012619172113911975,0.002754033127520032,0.0038347606604807946,0.005462537089353493,-0.0036756198595049444,-0.014628814341127686,-0.012244992379797277,-0.004779066418445596,0.0012573102245144532,-0.009572026248476483,0.004566499959250247,0.013895861116780615,-0.008273371648228537,0.0004253956873120388,-0.0007603567403434499,-0.0019146631099581383,0.0073101440651304195,-0.01618548008135988,-0.019901421061284223,-0.0004646099219378078,-0.014661503353111225,0.00727812128801097,0.0003025146591476929,-0.008268846144266106,-0.008006373821432607,-0.009994591705330916,0.0028278887512449163,-0.00491893928269549,-0.009916045097237015,-0.00942557393004691,-0.007596139223495849,0.0123494357225069,-0.0029800757390909018,0.0015893954507507357,0.002480227847902014,0.009513691476793876,-0.0031542064532071347,0.0038443793350972297,0.016230101298844935,0.0015335914498964187,0.006331945348598422,-0.007245072615805341,-0.012068681040858441,-0.028802878881055902,-0.030115307816515946,-0.0010856800448943843,-0.010935615820377826,0.007955566683293521,-0.003415274069324482,0.01298005241876254,0.0028082433633260843,0.0009953494179783247,-0.02112946196778992,-0.01583488984989848,0.004663131405327623,-0.01546323926935037,-0.009801593979043496,0.012414269797920954,-0.0072567848634481555,-0.0012347681338171664,-0.003898884084509207,0.004746266104495116,0.010140030769213201,0.007673811454299028,-0.010940253821554249,-0.014122261219889617,-0.007679924538650177,-0.0033264307427868095,-0.006167491947768247,-0.007812274486515164,-0.023281140410354343,-0.01609725721645197,-0.022476095231088383,0.0031440809832060128,-0.024521719747405833,0.011368825215413483,0.011672264867610253,0.0105664320377502,-0.027199147449938784,-0.0036520887858625547,-0.02451122485238894,-0.01716413655251642,-0.005685118750945062,0.007357181169037976,-0.009857012309298063,-0.016389749046673452,0.012955869655887017,0.006669368245898393,-0.0007705107257196996,-0.00922983777920832,0.013499131467828263,-0.0012655521663783066,0.0003893898041687156,-0.010954246470824849,-0.008704685096243872,-0.005395617296579963,-0.00918081905014052,-0.008827883174088122,0.006554276933042904,0.0037516000347819394,0.011792486289099905,-0.004674418685748081,0.01961742525570802,0.030687966198672062,0.012808918572518452,0.004968264756643819,-0.004117695370808614,0.006257740005520545,-0.023136855911214196,-0.005545059089660506,-0.01301165261112812,-0.009004730323387163,-0.0026302173214811683,-0.014286258343885779,-0.01723827619953713,0.007929402915875383,0.009165143494958526,0.006894043032186697,-0.0007290402332499335,-0.012710973729545778,-0.0014147205147022458,-0.015997124071250046,-0.01337702384521065,-0.010769318291401622,0.010427148267541656,0.013768518077563624,0.007375681185789346,0.008176993033797169,0.022425414264281896,-0.004082176321326672,0.014104094054360583,0.02234875009732517,0.03147714897063029,0.02826656843357474,-0.0036484058196318936,0.023751229368251345,0.015281099988136367,-0.0013531432483946438,-0.011134780311868655,-0.03276832096542262,-0.004464790999846317,0.003116059587345207,0.0016861255852100173,-0.01136752803590581,0.01244904276708848,0.007098611214524517,-0.012036045888645257,-0.011020838080161355,0.0025903896472678,-0.0103446843807569,-0.011490142411563957,-0.0020057085497202287,0.023429369701004787,0.013465429973643764,-0.010864932364672784,0.0035205526940270647,-0.005934433113688648,4.6702515883888235e-05,-0.02634032537616942,-0.004897161989540686,0.01580075289313163,0.02464507655181273,0.03549364941492876,0.011355620261627076,0.05101741251095186,0.035543847184048634,0.004082307308519903,-0.01846572868657921,-0.031115267508959685,-0.0038407224601471938,-0.019086853239755296,-0.02474122308423065,-0.00524300347754097,-0.00699099900852568,0.011960300906822978,0.014889947476461236,0.013980967208229667,-0.014818132687070235,-0.01437407913434331,-0.012830551214124629,0.0020274891038715376,-0.006511207337410292,0.011294846863950497,-0.001354760244616225,0.009784231815444595,0.027541177259761514,0.016767380393794832,-0.00790122937438063,-0.021767225135495314,-0.0005377179402101379,0.03294983248613841,0.04544919315475671,0.02176007897994023,0.019175711484789647,-0.011737880131447585,-0.007874473260979812,0.005293006511059421,0.003886360291790917,-0.043318188726864305,-0.014698451218862183,-0.009932908235256659,-0.014878574545957018,0.0015809584546483055,0.004229868264418581,-0.0018584587205470865,-0.004130111239246636,-0.042156704997234555,-0.038070760383438665,-0.01242159963888486,0.016853571992788852,-0.027517233670673456,-0.0056166982094667545,-0.007558517284743656,0.009271084320122837,0.005448580696111739,0.011164989193877536,-0.023891326564485144,0.02636255332062717,0.03440766381156284,0.06713714351819465,0.041197920994356894,0.03993981931488476,0.0013760581854944801,-0.010186933452151695,-0.015025428081964678,0.022436230504895262,-0.030974943945959784,-0.014239920595410552,-0.007593920595062979,0.0005275797000787114,-0.011045889112979462,-0.004212679991758381,-0.020132178360528125,-0.01585100940067688,-0.026648755436501484,-0.042679700564059,-0.035591456613197105,0.002358045828525648,-0.03420420039170795,-0.019905181392988514,0.006266295190119453,0.0013012752480436771,-0.028843448353021803,-0.0007637457040531772,0.0022246099210441275,0.0447718515151183,0.022158007221916357,0.013170730194449951,0.017267980110448885,0.04021752561040523,-0.013716590425615282,0.03860153784210464,-0.02812186895062008,-0.03537542993518251,0.004750268778914155,-0.036749823893651626,-0.009356774823661639,-0.00031923400441126606,-0.013522297512627839,-0.000923136679028495,-0.0010096957782575614,-0.002607500891731619,-0.021828039758863164,-0.002181529942682891,-0.023560807628809275,-0.02891609672500137,-0.00043218951095928165,-0.023530825743741286,0.01998673645468701,-0.0021821922104714067,0.0044309454936556384,0.03572535713886221,0.03623609454049327,0.03232260431758907,0.031043926296762423,0.008130919765208014,-0.007431136033376571,0.0030734588723729393,-0.0380116650132689,0.008489146748592566,0.05504208528383937,-0.014857848836060531,0.015847119485701694,-0.05713846046444722,-0.011230339792932186,-0.01506848875593063,0.015370799004774019,0.011186617548978517,0.0032687570188544984,-0.028663229201868326,-0.04171885851559839,-0.04289616267907782,-0.05136933164909372,-0.04639037621381599,0.0028188693379799117,-0.010863505791852066,-0.010295456341250515,-0.009712937666862953,0.018884623658880172,0.011504602599778617,-0.0072612172317566785,-0.026415540331898652,-0.034896363372397286,-0.08593157240014009,-0.06774681369424339,-0.04235495872827203,-0.028377962864517187,-0.0014381946312901682,0.023301358811451307,-0.0011438130179348156,-0.00463155512937177,-0.04834839134829428,-0.039482016712888666,-0.001033817171398478,-0.013037366271127743,0.011055382551335346,-0.016155862765524467,-0.028064006386062042,-0.03608913528524902,-0.023665062125017237,0.010383481628175092,-0.018592160379816734,0.00854713075930699,-0.004842173001403366,-0.018334947551637285,-0.045322989137938884,-0.013821411442516435,-0.02725136841347781,-0.0561265534542373,-0.057887387516100605,-0.08820579646442835,-0.1271155211435837,-0.07694209232903862,-0.03279842333766554,-0.00074497856001011,0.01949193504406341,0.0066234823367253585,0.008567503217469165,0.024878206555426274,-0.0257227451059441,-0.026657296811505794,0.00551859945729423,0.004178943758441404,0.0015957568517840051,-0.0014768539242083502,-0.031178851758009447,0.00022742216678165814,-0.019090327002153386,0.006011068046905155,0.004032243028329641,0.005398827350718897,0.019376159692856595,-0.022492083653545616,-0.034009227439224125,-0.056048929501726096,-0.0441337024229194,-0.019739323856667806,-0.04281284338050566,-0.052671491462059884,-0.06216297882163809,-0.008717979401110262,-0.003397459242240762,-0.025001783001426078,-0.018427274794244476,-0.025649859524862442,-0.0339783604601093,-0.00966106957734317,-0.0417301005705338,-0.019747871677489336,-0.005003695027652932,0.0039928454460310125,-0.007725435752627826,-0.02181366227458351,-0.003184354039761657,-0.013078701354755529,-0.01058832972373871,0.03415647161485943,0.014431191497792989,0.016763790433156123,0.012034033028597325,-0.010806152802915608,0.001691396810787665,-0.04187758850394182,-0.03941235408706523,-0.011055629964443401,0.023270100158362454,0.04398136385394025,0.0227019164642538,0.02987896161667166,0.006193626423141449,0.008820262054560176,-0.02133064269926083,-0.025544116178587647,-0.017391379855253318,-0.009165806175365025,-0.012132324333105942,-0.021401964678822338,-0.00021757483876289757,-0.004721477335406593,0.011392291925688898,-0.019494992477095283,0.0073697978198040085,-0.025256239170126885,0.02134570765131047,0.016336776105996213,0.00035287562900057715,-0.002403793718210254,-0.001127052773811352,-0.027399889105722386,0.041267630476762754,0.015147605397165287,-0.02840094826662749,0.02278951187536801,0.0027448065762422113,0.01740448620466164,0.03462135796036463,0.011533293186063066,-0.005104340015139289,-0.015623980069021447,-0.025096693151129182,0.019639153884286855,0.02804891307446566,-0.002588332542265705,-0.01841677512588902,-0.019102041683181314,0.007411724353452653,-0.004346635866900917,0.013861745863921674,-0.010670832816018603,-0.008666069792221951,0.009464950254606275,0.008352713098056512,0.005860646038545692,-0.023847070481942203,-0.01048433777199737,0.01228473512309545,0.006493667171871389,0.04803693507515023,0.05094885389586673,0.024720105282309248,0.04103569074835,-0.012247406713718973,-0.023299032757983246,0.0042164108077206745,-0.008578499033113385,0.010852081264531627,0.03668033192052663,0.006644195748300025,0.019078442267246455,0.0036860827825898317,-0.006771791351515533,-0.028716975112339886,-0.004410804796947435,-0.0036703566659320327,0.014958415731532487,0.004288414439409224,0.009866291034943507,-0.015271107451315725,0.01108120859320213,0.003230649987753131,-0.02531367277020046,-0.030442454760032638,-0.030770875368082172,0.012318586333567815,0.021086649893065492,0.027255918102864436,0.015724681636681583,0.007337764805080417,0.02906662618858234,-0.02241677341201347,-0.0012658781172336874,0.006337264029805715,-0.024120812837755808,-0.02614885127255492,0.030613609604520736,0.04516910949395592,0.006851253610183629,0.016504478960957324,-0.008343438987334278,-0.024719117674397988,-0.014869894781357461,-0.004183236406780493,-0.006153302780896389,0.006981473987742379,0.000200578395757213,0.0017808476046021627,-0.00041862772440920594,-0.01887835456957027,-0.005960806508970518,-0.03363010505180976,-0.02736461745758546,-0.01548613881406132,0.021497803372452818,0.01460220713583555,-0.026167836758615164,-0.016772723689193983,-0.01282010524326561,-0.016001304041713398,-0.015365503045076235,-0.019007706490531958,-0.012135218765613078,0.00024209084574380535,-0.02680911541946946,0.004220764135052458,0.005794498949539101,0.002305241830080187,-0.004044903646403536,-0.01150026887719887,0.010761405947574978,0.007413443057679017,-0.01023876126105899,0.0033568562167814314,0.0004077377105606147,-0.004647043019785206,-0.0011282434116067367,0.00977113719675281,0.010313916197458061,0.0143583462116535,0.006351063852201744,0.023574352526577986,0.027530901316133866,0.024997563017224736,-0.028565489571644585,0.0015645892090230178,0.01202519972651005,-0.007035472148979759,0.01638789452627663,0.0016704932940432664,-0.004846786235586058,-0.030944072323858717,-0.0044741899631924285,0.006801200603288482,0.008152897532501858,0.021581242695795234,0.0031399939102878176,0.001591252359062384,0.006721709022178488,0.0032281938900448085,-0.012926697907804548,0.000646637828413784,0.010897227027632675,-0.018678419767936993,0.0061522945977509355,0.0006167537091850305,0.009934304724057933,0.008643216075687618,-0.004263736571355335,-0.030173382455420717,0.007335600821076651,0.033162400255246596,0.021709659580441052,0.022852832161749364,0.0008259674403952169,-0.008033163014707485,-0.0035150693283199906,-0.012547703910750803,-0.04321458368668372,-0.013589375360939838,-0.015933054991772614,-0.04152522699853708,-0.005508238267279782,0.0014577208341613745,-0.006441620181245061,-0.014837563711943615,-0.014130740721346345,0.0035544578569448692,0.01273502430808389,-0.008471668666221038,0.002052108235199724,-0.0076248656582333695,-0.021100776619062095,-0.0011161490046883574,-0.00707595641872227,0.02118566173151611,0.0031786314882959184,-0.01222199752841642,0.016799350859319072,0.01858745934136222,0.015311144094594744,0.030628622670679468,0.03770932195494296,0.03184968317717023,-0.023815213087999103,-0.018080658475817878,-0.006291536532514413,-0.005574956140345375,-0.018845054637898692,-0.039173630573920384,-0.009903315767894825,0.00517529631714732,-0.004680223001560369,0.011463148878448999,0.01451670707883555,-0.0025663192365734215,-0.004459344889883362,0.0005152439827923079,0.00101540858536322,0.0043826683457897295,-0.022240281822126874,-0.01596286015808823,0.004499332993012427,0.0008733837236983423,-0.015017347624888487,-0.03832515470963896,-0.010391267807552108,0.019044742915594826,0.04648976285685324,0.02012525916725946,0.030519548723579797,0.033158016506983246,-0.00684923496332066,-0.0068983824470983685,0.0013965146202684362,-0.03227457413558688,-0.019034341503416888,-0.01742928059789575,-0.008885075360605225,0.010955462903652055,-0.002895342072812906,-0.010973699264628963,-0.0011744962714784583,-0.0025237690879904365,0.0012196171893915086,0.0010370775902762523,0.0033892961677256684,-0.011087870993516753,0.003990833623043644,-0.020213818706571032,-0.007237363456682547,0.003406599889387029,-0.025890404100120036,-0.046104589410548354,-0.014557432976179958,0.0006546871739676756,0.01358035747345008,0.018413240870143732,-0.01073661066311717,-0.011967052879436143,-0.005821121846005434,-0.002094120650967866,-0.00036254948919343043,0.006682390819113653,-0.009833615079342963,-0.016191303135612543,-0.017580808617734946,-0.009946369272245572,0.009100668972647991,-0.013542027452123913,0.0021946428624022365,-0.01097745181180548,0.009940229433377287,0.011677035981408759,-0.00893218860935941,-0.006966095488491228,-0.0027375304548460495,0.004361125656870622,0.003983289775492751,-0.007146969773014888,-0.023962127970425406,-0.02677685235121497,-0.021912626224164924,-0.0020730896581138275,-0.016253173795020386,0.007031968518179059,-0.018585639512175747,-0.005284239188135575,0.0008100673623176857,-0.023755479816613932,0.0012141971289404785,0.009638951057790451,-0.004719181005951175,0.008630616799889652,0.013524526400012034,0.011866212566342403,-0.007073312128099844,-0.0016816360243815179,0.0059538355515206705,0.01424312730367893,-0.01559484152280852,0.01136855730761309,-0.005986956000428097,0.0072180112448461675,-0.0146444292680033,0.0036496464336066665,-0.00014990658707445583,-0.0025304437996153746,-0.0003156897806400956,-0.008586520122028408,-0.020117478400627366,-0.008646898413505773,-0.003616963186463132,-0.0030867635521262472,0.005525045653526451,0.00677070266523047,0.008031279254657018,-0.004375897082260781,-0.014903153139658816,0.009976715959232867,-0.004075752183762001,0.002328388878660321,0.004454992682217114,0.00836222812689244,-0.011162699213612775,-0.003360221267218789,-0.005501979500243056,0.013026521604949607,-0.014876469380791606,-0.011219041617512006,-0.011351159828664418,-0.003587822876965848,0.002513173282214641,-0.00997964337761464,0.014139085885275404,0.010727868498126186,0.013547809854714973,-0.014319688296604807,0.0018564210773079383,0.0136902408424282,0.0017332350304530633,0.0048452737626770125,-0.0014900474237197793,0.006634743309580363,-0.013753727884831599,-0.001845704675354519,-0.012656955962897887,-0.013358623308403535,0.0010616192551728097,-0.01119573350220765,-0.003051289481722237,-0.011060769599835707,-0.00015052752010420375,0.008917546872967436,0.002941675445680851,-0.010740755785670134
-0.14428631046267384,-0.004419773645788477,-0.0012611659744950592,-0.006094068014742465,-0.014316724412050792,0.009572537803496605,0.009250598787673904,0.003911944677834622,-0.014825633640832198,-0.014389201682951932,-0.009864154062930511,-0.012676928957901984,-0.01511985316695496,-0.00831210179191377,-0.012190124580700751,0.01232497814245143,0.01481709207239841,0.0010767733048986164,-0.008191137873601161,0.015538583173348598,-0.0005576509194698577,-0.002249466117117481,0.0023590669570029664,-0.007990076446556516,-0.0008086581494879848,0.011966740303293002,0.010066400620212752,0.006359830284012283,0.015054917142792789,-0.009058067915241753,0.009308287399625297,0.002832085973459804,0.012031286244299798,-0.013670935241487294,-0.0036264411606366474,-0.008287484195861412,-0.012173468061817478,0.010778092783478938,-0.010360937783306996,0.0065772143345217155,-0.006549059979955,-0.008995242429579596,0.0046202393324529445,0.011599035482604575,-0.012362918571506499,-0.00867019020810545,-0.003544693058210417,-0.009989844616985256,0.01086623558702247,-0.009682621750064433,0.014567047356565065,0.008423157108419819,0.0021375501012450143,0.012016890877397959,-0.007870492103075784,0.004088752681635017,-0.0021603821212079106,-0.00493921475674752,0.0016668175368400769,-0.002917112706214642,-0.01014923860554905,0.006868328014152002,-0.01238370185715923,-0.0024542705413804614,0.007693492556795593,-0.0072767597790188146,-0.00469205752053388,0.013888365415851148,-0.008349911803586579,0.004926329996266329,-0.010124064408702853,-0.01195619511922458,-0.0022239707602747932,0.011139675009852912,-0.00813984641050651,-0.0016481530228974438,-0.002229887241717937,-0.006332344091208399,0.011252363328818678,-0.0011502093239102486,-0.011510617310352963,0.012332629218180034,-0.006423656053820597,0.011090193358323702,0.009602978044974994,0.006588862572560715,-0.005328440617784983,-0.003948937670830072,0.015126685502905766,-0.001532723451095324,0.013466976060205995,0.007287910247029769,0.00247275623421016,0.006522265647537147,-0.009771527203186097,-0.0019358954037189127,-0.014863460708592258,0.007966639331128312,0.007487890611316883,-0.009537635904040198,-0.0019916380183311595,-0.006785218407985761,0.009732179594408374,0.00603665019432548,-0.011127537789659312,0.014867341825970925,0.013524693207657845,-0.0020439937262384036,0.008064205092719216,0.006571547747524133,-0.001221160782511152,-0.0016830918640825983,0.01311529339779309,-0.008567335031340838,0.010041161405714632,-0.013910286484032992,-0.004417901882163691,-0.005579506174356621,-0.01426526584063631,0.0062748669944552625,4.836381882128953e-06,0.012975013253642257,0.007895696659758651,-0.009290311084407496,0.004022426285038861,-0.007145480829940898,0.009537424165718573,-0.0004038525154559788,0.0031743147756329772,0.01190593208105562,0.013734572430544986,0.009475511836255007,0.005499079168227136,-0.0030966353691335834,-0.013801796369399039,-0.012587750217706518,0.0096914097320639,0.007455527743560474,0.003677771112424018,-0.01189716233185234,-0.010839075279882,0.015143709653495253,0.011791613495673911,0.005000137848066546,0.007482088826564103,0.009372617571781384,0.00543092067257102,-0.012554754519221008,-0.009478734223279378,-0.005063454840491338,0.0001884006963696776,0.008964196708719585,0.0036924955497809925,-0.01444863003177976,0.0033145430544551766,-0.0002578907628151598,-0.004785106639552821,0.010644797008274982,-0.0015199393897873349,-0.0045474763070670905,-0.002327236510417057,-0.006030339263676173,-0.010211532721852707,-0.013185064295188717,-0.015636108604412936,0.014903000521803041,0.014983859981569418,0.008464743129794925,-0.011157602091538675,0.013416295826933058,-0.01426379547895663,0.011564909202156214,0.008042288770588012,-0.011814328000630104,0.004750029859806775,0.008455451161906546,-0.015841101105850103,-0.014477209817271006,0.008651019107662737,-0.013661679929299696,0.013336392519011801,-0.006341445106040994,-0.007941036885048807,0.009190076283318516,-0.01263427743117754,-0.013675212081482915,-0.004981262715147494,-0.008122328015465913,0.0010526323353046644,-0.012570334111455214,0.0020822774538323905,0.015516078172124633,0.007782486937640939,-0.011591413512944064,0.010932220814711822,-0.015519786071773626,0.002229297620344503,-0.007852674131951079,0.007307456071479559,0.0006214049007197818,0.013172465545093581,0.004395966478582055,0.006775138852899492,0.012174063341507347,-0.013701715140982323,-0.01478226931897986,0.012903957828673034,-0.0012645388715287148,0.002934670257164541,0.014653517843650274,0.015809145964481113,0.00822023612273464,-0.0012221728696547283,-0.005206865435877603,-0.00885692333858393,0.006250134386500234,-0.0032933141187011473,0.006111810044138811,0.012658794340172714,0.010653546347567006,0.00435551881413687,-0.002234849916755959,-0.002192187473924752,0.013070881275087598,0.004381854386082344,-0.002051326174333807,0.006104297031425978,0.006698292509900485,0.008167552119503846,-0.012338653056627048,-0.006111886581138005,-0.001351499365023978,-0.004797780242073762,-0.0003710084129620568,-0.0062062696063872,0.0042100215113098785,0.009051761953008093,0.001389005975827072,-0.0062756368174719905,0.011186547393374264,0.004185101178528104,-0.011545487444414112,0.010339620388947032,0.0134609491443109,-0.010676323549843101,-0.003111509345999685,-0.010385844175097681,-0.0137242927995865,0.012925983154477225,-0.014987514538398397,-0.0067387599217417285,0.007929943989145549,0.008011681791712869,-0.015506873260827975,0.009783496704093298,-0.006809175064290484,0.0005984848160432322,-0.012119300261114062,0.00181494931630337,0.003682589781902442,0.012004127526624562,0.004578774606196744,0.005306715222409659,-0.012905399287168542,-0.010133116014057846,0.004798021841710579,-0.003326895337649155,0.01235219297002725,0.010542403248707033,0.006004779878186664,0.008539006327068588,0.00326936512071491,0.007953555379830477,-0.010209057778066776,0.010481396913928503,-0.010669500179499636,0.009817636942358673,0.008608108371461566,-0.00875583290821925,-0.011583586429893919,0.015090135949879596,0.010618511223563758,0.006397361322629211,0.002163193794017036,0.012147514874874043,-0.0016834039088957594,-0.0018381670060001803,0.012983843617704775,-0.00703813084987451,-0.0012919649918112356,0.0011663998656727733,-0.013512352387022824,-0.0016816142039956196,0.0022459518056382514,0.00473018908914764,0.006237257273030126,0.002929519881336546,0.0028769271000913966,0.010297138894886539,0.013260910427418695,-0.0022696026376989174,-0.0018151254662116636,-0.010323803539228514,-0.015886793483761402,0.008014999050820608,0.006179535522573268,0.00483632914580797,-0.0026290353092983283,-0.01100313932090297,0.01262254108419772,0.006286149261644277,0.0029858680207035452,-0.0020431340358766504,0.013282053799195071,-0.0037174906109218066,-0.0017126486509706999,-0.01455202520064372,0.004393735153717758,-0.01504733133714128,0.016585739031635783,0.006976841596447308,0.005334336293344204,-0.012760045532289233,-0.01302654311790517,-0.012685134788079687,0.006578385184052441,-0.007804673080395045,-0.010223820400133813,-0.004687415340130171,0.012533966566189518,-0.011513846891797002,0.0014650787048124498,-0.015685627571649846,-0.00871054906197439,-0.003052674475246501,-0.014992495141977383,0.0037148273290849784,-0.01132051916809726,0.00500315931266174,0.009468336652498148,0.005591337466343396,0.002239161112444431,-0.008399659216708993,-0.0030484966216229063,-0.006928450804723476,-0.014127115941923164,7.236174836415231e-05,0.004656539802360901,0.011415101916946167,0.016015442016848503,0.008817140347095593,-0.011301640435192571,-0.01264155741801557,0.006299108184517457,0.011722638003506446,0.016053943115529108,0.007892062412899147,-0.011051464912678373,-0.0009493236483232704,-0.00784899288227358,0.006830124140992677,0.005383194510420369,0.005653936754272666,0.014035427449416236,0.014641734036326553,0.011095456382351807,0.004241670012395092,-0.011360654738377723,-0.004445083326279478,0.013310078130720394,-0.009561597508370953,-0.013958813270901375,0.012615140565043086,-0.00953343831654234,0.014283688263377937,-0.011237522675585735,0.006173341120985335,-0.011639430705825748,0.009104678175031682,-0.002375071105847137,0.0010039885772542884,0.007152285284730113,0.00475473125316606,-3.5492674444829465e-05,-0.008274247427266006,0.0008569750947351797,-0.008553605578690386,0.006485479766436272,-0.012543151718466995,0.010411256247844138,-0.005917515616242138,-0.0003195467010245684,0.011881756694237099,0.003551044248781391,-0.005791135657452138,-0.015802269018924522,0.009403878860874907,0.0010911056144928565,-0.001880864640834922,0.003958095721481978,-0.008631434635256084,-0.008081759619352093,0.0014657465220275225,-0.0028124979882964167,0.0007125804358625864,-0.009299472315793849,0.009232486432919192,0.0052309710747394465,0.005297210035789959,0.003615122116869328,0.005434238975241743,-0.01429473630433092,-0.0020320343912940565,-0.013482537468224639,0.008008085043289167,-0.012863882539028003,0.006726655323464131,0.004005419666038842,-0.013305737502216645,0.009340963123484012,0.008649613447243121,0.00937985015657183,0.004896979140295893,0.01301947758742353,0.0012055351151075114,-0.015943019892883156,-0.011952226190798963,0.003171366426129349,-0.01304198422124384,-0.0011519211004368394,0.01060738038455438,-0.011206051208773684,-0.0018373922157338479,-0.008188035812235752,-0.0005939424174793359,-0.004450240362015754,0.007135547802401352,0.012476688688630562,-0.012948114723903049,0.001981471134865441,0.009254491506345712,0.006341642452260778,0.012701318351590656,0.004686678039034399,-0.006555446973252436,-0.0058662392454901435,0.00260074825057296,0.007683637514460817,-0.0035811054040359052,-0.010220239941004145,-0.008046966470994354,-0.005229554293062576,0.006061625882806968,-0.0028501232789606987,0.011109537046561214,0.006437036833283708,0.008723409142664678,0.006908674589043763,-0.002220912724817216,-0.008207369566908698,0.0015945208583287762,-0.011671702852952926,-0.009161032329165335,0.012941354958396161,0.01089663971788916,0.012340352844958111,0.01172770123504782,-0.008743295676748962,0.006733833429696504,-0.010459664743027711,-0.004391910086536379,-0.009756470993910122,-0.013783061852809956,-0.00030002387683929335,-0.008324506639506193,0.008660792104079313,-0.013704325345883587,-0.012631194232659636,-0.006188744233900763,-0.010134987620584773,-0.0016490148503473668,0.011187655553239551,-0.004524312381319465,0.01604664829228823,-0.010709847713394905,-0.014139521062111759,-0.002949344306240979,-0.009579100823033527,0.00433311336005608,0.004180115501292702,0.015037613381917678,-0.012631783508782813,0.014838465741477154,0.008976379387319319,-0.0024539103141527907,0.003503218090223324,0.007260819485300726,-0.0007925761551799215,0.014535400009212327,-0.0037578440068727,0.015281353023164022,0.006239158124610853,0.004820703643485072,-0.0031028840175031007,-0.007879286077534593,-0.005949517105644193,0.005062613914147258,-0.00879827734038434,-0.014822745752949978,0.004117438687346488,-0.0002525817305750356,0.001060682332866567,0.016149415080207962,-0.009387236032913606,0.006203836515907593,0.004784962143389942,-0.004848217214941415,-0.0039020863450779093,0.0036506539280528705,0.011313701529601629,0.011505298220038328,0.0011217145687519184,0.011365303918886056,0.012637484858450575,0.002594257686225529,0.011589534445219266,-0.011853689042395924,0.011047393956172248,-0.0015905685144511166,-0.012739746195748771,-0.01215042532235176,-0.00878455396751631,0.003444570029724321,-0.010251398260339478,-0.005169302092573814,0.006414706479334332,0.01350138514066859,0.0021660890176376595,-0.004929109553470832,0.00281999092983086,0.01472343554133781,0.010846876146168975,-0.004329946340875415,0.015980394140003386,0.005862597549935709,-0.00968431648805694,0.003851503971587729,-0.013866577493760688,-0.011780691284720287,0.011938913988997959,-0.004207325444448014,-0.010897194746144121,0.0017034257519154407,-0.0027646219559002466,0.007546765036770764,0.01396630009119695,0.00451100244733141,-0.0008082938107504159,-0.0006446715017324098,-0.001461234395081073,0.008684350257378824,0.0004058099058211542,-0.013597361501838254,0.004023293271781295,-0.007061935312100933,0.01475655724569697,0.01198349818075165,-0.010096808708531175,0.01464191896643076,0.008241755204587592,0.00898882431336819,-0.006076780724183432,-0.0020890814244894163,0.003949982179208651,0.005367614677064789,0.003401300623605092,0.006960970813101851,-0.00029276427795774926,0.005470562995244746,0.00035987023164671904,0.00484643475404283,0.012533049893436012,-0.013645900796773322,-0.0004448212103827796,-0.0019020119817737542,0.005744046827906595,-0.0023685301349142406,0.0027220067984965795,0.011027678659767188,0.005171217244380022,0.0007342317173938788,-0.009778663974287397,0.010378318723894213,-0.004580214956604227,0.007776220347709032,-0.004472716764130524,-0.01347648331004619,-0.01176586227666511,-0.0004306836074271092,-0.013457235966617397,-0.007225290358055026,-0.010442127289519687,0.011092301943657762,0.009740598491805967,-0.015174844137509092,0.005187289859203134,0.006567279717994539,-0.00385478120030534,-0.006808704970003908,0.009933082375370801,0.007327823797396691,0.010731302743789065,-0.013146066588417743,-0.009628886778364614,0.014701613590730874,0.0023743218708394643,-0.01311157872256483,-0.006475558701916132,-0.005977578655372066,0.011721490330108587,-0.006556195885581557,0.006155605920151248,0.01124839661867562,0.007655854671786194,-0.01271456742076318,-0.007459270970938732,-0.008466409929141093,0.009623816637535714,-0.011761562508052645,0.003313416055104538,0.0054988815038213715,-0.011767326476757349,-0.006221910675146074,0.0021255177741428383,0.012278741514454098,0.010514058335840962,-0.0018826464681135674,0.010473178049195552,0.005690984478130958,0.009381340213593414,0.002677357991488458,0.008866982224930795,0.007444800463830584,-0.005478866810004028,0.01203136969546335,0.006804375437079242,0.015420818537239055,0.01136897414464888,-0.0103675534226293,0.014364774893345386,0.012403961809844372,-0.004158755395420226,0.008834446471070564,-0.006635260762448508,-0.001768819340814903,0.005913158767648828,-0.006300959370212695,-0.0016143337207861724,-0.0035550253693845016,0.014836802999818878,0.009178777849110246,0.006223179399674881,-0.008597819129600037,-0.013360854008874334,0.005974245652324905,0.0034501735799474125,-0.012614753798533041,0.008053594459015162,-0.0013681871521037995,0.002972965895084863,0.005980273207109965,-0.005476624374821815,-0.013168151389385693,-0.008600547456058046,-0.005362521998403442,0.0075500429490407,-0.000933731766534004,-0.008346909807244588,-0.0034846873534620385,-0.0036317058840063822,0.013178804860035628,-0.00887398905230285,0.011882929643022821,-0.003765090093890049,0.0034323972686391823,-0.014307643369191058,0.0018617532506000605,-0.015474642459854623,-0.008711704682161814,-0.012836362854893455,-0.006057784893270236,-0.009211325798352706,0.0028991045176144643,0.004681487776431264,-0.005828178207875045,0.0002831660569192332,0.01064530742103724,-0.008600726447340234,-0.005784866590248034,-0.0051519562732295805,-0.011629521187472375,0.011375082673430341,-0.003306939201655739,-0.013907690656059988,-0.01275435411850126,0.009360713548586277,0.003144100247981764,-0.0008311899873502852,0.001494662340483184,-0.012024297727339676,-0.003234028313698616,0.0018325965431280438,0.003729199686692511,0.01521326097346325,-0.003094129933898539,0.005424310332381002,-0.015009830430698524,-0.007651938367920316,-0.012796499602133698,0.003612416763960149,0.011495578923855485,-0.008774661304354382,0.0022339696127490656,0.004646708142506457,0.0006275203400193073,-0.0046848447240270645,0.001052789650153315,-0.011426653980042042,0.002254625430314048,-0.014788029934533969,0.011355768520916,0.014722685101362137,-0.0134817038920548,-0.015123052797938873,-0.0011252247199817003,0.001114794680315917,-0.002234414044592903,-0.004383257871493917,-0.00475634252039641,-0.003542107664032273,0.014598885595129757,0.00010229328833034207,-0.006587822152394635,-0.012737706091412646,0.009099692932234983,-0.012175631055498105,0.0012487437784408882,-0.0058935564280267715,-0.005213244570586792,0.008309413571666938,0.013064945282758478,0.009489608185490696,0.0055127088629058525,-0.0013555419527345007,0.014316718526456138,0.009020489635801862,-0.010889267411483782,-0.003263979694157662,0.005129304723677331,-0.010802558976213579,0.005549189120226696,0.00836550984191644,0.006676779550764723,0.006576304786749244,-0.008413657187430947,-0.006397784776823293,0.004996011599698782,0.004094590801054888,0.0022348253998464816,-0.006672799661741408,-0.015105702604510964,-0.006733814923316324,-0.0033884764762720405,-0.004858486685089106,0.007404849619308745,-0.007952924956948403,-0.008358386826440582,0.01070533975877885,0.006656997883464074,-0.004709439856457706,-0.009860665890652608,0.003974050871103699,-0.003547151996219536,0.013391212301826591,-0.0016731402033154513
