-0.4647171357701677,0.01243164549779284,-0.014416616863033783,-0.0029376487089013484,0.012334011695274254,-0.0045260908420386055,0.009457500015244594,0.0017739547541429958,0.009013652472879118,0.0018741439470084283,-0.008925445106100827,0.006676874739830547,-0.003651682623028542,-0.012775194463944664,0.012755883171498276,0.004694104358708609,-0.0005538644597287042,-0.007769190033205451,0.0018171004323045414,-0.014955999843435604,0.008645199180762824,0.009646349489614448,-0.011558282519349192,-0.013224834234241794,0.006053045476620469,0.010364029005300222,-0.005594332037603376,0.012214312785800756,0.011294191288932498,0.014035991393015108,0.007593929446143826,0.010540036055365683,-0.009781383377618958,-0.0011868404492729814,-0.0052076962688779,-0.0045230807776770535,-0.00858715271362066,0.010603632014019114,0.008241403522842628,-0.0005945696689994111,-0.008884298168944444,-0.008003752527328701,0.008442620967023348,0.0060911800870957905,0.0144044807905266,0.003864921394720014,-0.005392719721901997,-0.0038852426207474193,0.0015405053339426766,-0.007664344225142908,-0.01072661186874553,0.01338837205156905,-0.009828989348089609,0.003277172173370157,-0.014535015176898057,-0.011182804072479038,0.01160550878674265,-0.010953330620470773,0.01146717054721512,0.006137221375226189,-0.008877791026658276,-0.001519506836256592,-0.0025042844161698684,0.0037314252546591826,0.0005200240613593976,0.008651599275519242,-0.009368825084751533,-0.014824454456697233,-0.01474675230857491,-0.0033736154092382335,-0.006626560957063592,0.008724385861472606,0.012310064870533401,0.010583674529038488,0.01050993002516918,-0.008403620434465735,-0.01241485068414366,-0.00830268299223973,0.014233062062203695,0.00653334064735309,-0.0035624699577705074,0.004567688666155926,0.014901256283013628,-0.000505961526896994,0.0016665558468991377,0.004807519186695069,-0.006525135220079584,-0.004027783814559923,-0.006052566345402584,0.0028147768672089762,0.011559048922920506,-0.013760409468134015,0.015039816292853687,-0.007324457074059952,0.0143976429932611,-0.0037309219062860548,-0.011115640521239707,-0.012738792164670644,-0.0007100956285268252,-0.0029933608274564337,-0.0028094737777848364,-0.014446957369232568,-0.0019692928912330085,0.007625854552259139,-0.0035959259062245605,0.014331208146708307,0.013311524148410529,-0.013565210990043833,-0.0086268188859282,0.0019834955995717586,-0.00310694792906354,0.0033985393333259735,0.014886655584154293,0.006594278009738129,-0.0034631268694630124,0.0018554036423260208,-0.0035080138722342474,-0.0066739188886241925,0.004131352127912224,-0.006653233824840014,0.011933991026330762,0.011481123632251393,0.01342747567495783,0.0019248347101046698,-0.007963678189740225,-0.009560020733189803,0.014014700046490938,0.015550336780838732,-0.008049963489027409,-0.005696752374123235,-0.009490129136765061,0.011642341999912365,0.012172019540818028,0.009562721932636627,-0.0056621605775897255,-0.007307610764491889,0.01396440779889516,0.001889431216944102,0.00383460524035727,0.014625701995909832,0.013356552343401336,-0.006879838104438232,-0.013640227368154647,0.0020635836573566005,0.0012875158836488584,0.0005096888200655236,-0.01527084417082028,0.00012835584761622387,0.000611574850341079,0.002882231519919412,0.010018340004058796,-0.003983199579489272,0.001512883810220262,0.0026677082485944623,-0.013850954203796971,0.012750138567036478,-0.01123252995698858,0.00455464823596451,0.004918846403954902,0.010971106781510788,0.012475861524925639,-0.01267417775071189,0.001591963571180948,-0.000302765827919986,-0.008880390233257544,0.005752793603926259,0.0053536348968693075,-0.0018979199617298013,-0.01060014120210312,-0.0002731987701601983,-0.014556598309638177,-0.0021592084756400405,0.00908389891653456,-0.002173508231335112,-0.003380210602403063,-0.015598773696738039,-0.008745155889454858,-0.007256669237688161,0.005456391615351303,0.01430060296459329,-0.007870345277147906,-0.007850493202809828,-0.01227541954038024,0.015045625606786392,0.003321560905683675,-0.008568727827650967,0.014724977533870878,0.004056568685859473,-0.002100176614491703,0.0035384731920017967,0.007893656317908206,0.003240488806810063,0.014012140496922964,0.007989951033216775,-0.010314111667446123,-0.014507578469649715,-0.004282636914587079,-0.008208707557327416,0.007621343628843525,-0.002982787757296143,0.002692773787102549,-0.012686376310016522,0.002874050940750831,0.006036828192471491,0.0029002857667530142,-0.010559540042199833,-0.012290887089421512,-0.0018318020572240662,-0.004613006047133283,0.009345507091136525,0.014832173966243187,0.009549039951774484,-0.013500979803289372,-0.013633532236368515,0.013086835064055741,-0.01021972457691753,-0.005565310297136913,-0.0038157942699416428,-0.013614803302076716,-0.0040890025410062515,-0.011575321767197177,0.0010554623440136024,-0.015320242932921696,-0.004141927851876236,-0.009170189048913754,0.006184270289475373,0.011748074087964248,0.009257354734262358,-0.0019272332843112208,-0.012726887766449792,0.0082149113669857,0.01203273848048093,0.007598509778372113,-0.013883738526628456,-0.002640925394925636,0.005319359441921242,-0.007384356085438363,-0.012164426944175192,0.008554127075347504,0.014738782368895052,0.006684516043089506,-0.009211874190887415,0.010866993813454243,-0.004350869874152428,-0.004901860274403133,0.0060775801779199175,-0.0013224248446642196,-0.005513343794814229,0.013825421850292972,0.0024342798999979556,0.008827912276278632,0.0006631980220694819,-0.0023367806268439033,0.00021340138667166886,-0.0025845244471098885,-0.0016316739107675622,0.015312297021630339,-0.0052107017626541845,-0.00566624225841874,0.0052914991769734965,0.013043682535508801,-0.002480532814965901,-0.007404696730606692,0.012049426138083227,-0.007233743519934308,-0.010455494708845218,-0.00574101532081989,-0.010562224964638257,0.004774700429944739,0.010114619107277931,-0.0056780954990923865,0.004698929613672704,0.0018547063364544904,-0.010767272115564858,-0.006254076361978944,-0.004078119352605398,-0.0028053432878880104,-0.0026450751952660397,-0.002678679917309572,-0.009981238040593348,-0.0041190720093664465,-0.008207948174842685,0.0117641806438228,-0.003954008927971802,-0.007217127822349262,0.011983840180632064,0.010439007648129713,-0.008890585280510045,-0.0006140615712489708,-0.009532121490872101,0.008419312510170498,-0.013360619801243843,-0.0022213898858337126,-0.002229677768309419,-0.013517424865581273,0.011493329641602577,-0.008268460769603747,-0.001850776792028306,-0.008947006258826204,0.008204270885005954,-0.012569202299035805,-0.013638331579008626,0.015189740742353134,-0.01541579230452787,-0.012469319506515884,0.007415650240852289,-0.006657166118649891,-0.0020195515818211725,-0.013657261253867799,-0.003010754316102645,0.00043276446258766824,0.01340092443230275,0.014260774531774954,0.007074056771750218,0.010125855373321255,0.01222919441860561,0.002547165218557749,-0.0075252233032473,-0.004850239450275632,0.0028987356814936457,-0.007560606621682325,-0.014115898983136962,0.00157966675307359,0.003918153887060426,0.013705892248485046,-0.010981477232462882,0.009562264422428295,-0.009738238572750801,-0.012414377482249262,-0.01260203903747949,-0.013478041588213169,-0.014924965049628144,0.012779508680328195,-0.0008198797303243834,0.008582325587859155,-0.013230330621170155,0.009524024870302294,0.015532592869025644,0.006096916470059534,-0.0003054659348717542,0.007850538338734551,0.00014009171061775405,-0.0016389114227219406,-0.0028997286305392674,0.004809319909967014,0.01031831257317356,0.0050130332445410195,0.013341226315434943,-0.0015263876988377,0.004922956329483055,0.005440164498644356,0.014141963412895715,0.005363727780422465,-0.013765073694297286,0.011491816990609725,-0.0012876466130328883,-0.0062451549592136175,0.01349577465931883,-0.011716329014377691,-0.008206127618238877,0.00255547630495891,-0.014683461418629508,-0.002861422350607549,0.0042229407697154005,-0.006552625044781508,-0.007886390245559795,0.015474256888514538,-0.0006823819573147684,0.00116723563646743,0.01025692124609516,-0.0026881753067074764,8.081755321032863e-05,0.007777250431500477,0.014113951020741821,-0.002423708216261273,-0.00042299321064633716,0.012899617640575973,-0.004918883656047465,0.0035680969608432173,0.012142083324863842,0.004499073759069137,0.005119989692789803,-0.007851494272949774,-0.007038566609488303,0.002136268112561155,0.009155682705416435,0.00940968768742773,-0.0050158489749021935,0.0020335230922790826,-0.0010348277217542487,0.007196683530473213,-0.0014035046809985248,0.0034527270818233216,0.006989303318040398,-0.010459596540558263,0.006766216439739799,0.005592974844912033,0.0072361921273142275,0.011478837345532386,0.012118693993814725,0.007670086470079548,-0.009256946748780033,-0.012135012250464424,0.013737287139522582,-0.010621470341990673,0.00848304967465045,-0.004314414366212532,0.014822126044647606,0.005689337477075607,-0.00029411214261072446,0.0015370833043196405,0.0019158227379288545,0.012214918170189878,-0.004628403165328181,-0.011298732065185224,0.010191234831231872,-0.008441634912645005,-0.004027255264149862,0.01504281467060594,-0.0005920733670506453,-0.001065009909498791,0.012467695047863863,-0.009512470708388902,0.00988825017439366,0.0029131025139118097,-0.013097774169575846,0.010163637179870611,0.007158647279910078,-0.007421515918717914,-0.008371332436932728,-0.0016956686734730456,-0.001314804259568772,0.0010271141885633064,0.012370054322624061,-0.002099304495613328,-0.005828684497658242,0.014102592157477018,0.00840267754561462,-0.013893918411555847,0.0033948366160984414,-0.013112629374683396,0.003825791032416953,0.006499673440658438,0.010980931246985213,-0.008989526761130687,-0.011008378499172196,0.00839380916766597,0.002609335206067747,-0.012077608609170037,-0.01081715431796983,-0.001632491579992592,0.0010144671618725135,-0.007513979477457019,0.0004769698969682469,-0.014041907008820183,-0.004280095786456845,0.011506440296068402,-0.006600128932693232,-0.0035745111617960477,-0.007569601377455049,0.008245200038469125,-0.013379410597058723,0.008504129862693739,0.007359716705904424,-0.006794363336499635,0.0019030944000655269,0.004469818885404046,0.006373511721014167,0.005519419845508428,-0.01128312736869477,-0.003809738574200229,0.011788331531864826,-0.003523711413775381,-0.008528647380732002,-0.011845173933711348,0.010788553372437962,0.0005739661463478006,-0.004277589533413565,0.01434348238287917,0.014769067833738984,0.0022673504504111194,0.0025762879189487435,0.014880800718450032,-0.010348239111013516,-0.014742739730693389,-0.009427376878144478,-0.009817238967082465,-0.0054116418704913405,0.0022764786003610163,-0.004484240360646687,0.011311552591816952,0.0027118075825531066,0.0036287888675925715,-0.008071547568578315,0.011096097087954636,-0.0067231376077582505,-0.002669796092971466,0.007367301288815381,0.00016257344872298157,0.014336225729635506,0.012835760021226394,0.00021992350158096807,-0.007683970080017238,-0.01102822044527138,0.003586017177331785,-0.0013228309773817837,-0.006306606800509179,0.006700264318557976,-0.008627128131928216,0.00486745896522665,-0.005299005887470554,-0.015612119139157225,0.01414234043598972,0.015474237877148977,0.009367726951798602,0.008736180377916212,-0.002123537360025095,-0.0008407114956417265,0.0052355716037724015,-0.005492688371380651,0.009779730334196539,0.002841103670539861,0.005554488210144721,0.009229958333260003,0.008633523523498384,-0.013863990227316578,-0.009151428221406462,0.0037910084699828844,0.006473451204854156,0.004980166422976003,-0.012303450343021643,-0.004864230815821373,-0.015083900311171058,0.015254046284189731,0.0067771789372263955,0.004330269395357897,-0.013748866819897634,-0.01396145629057783,-0.0019851730838592457,0.004498628859815359,0.00554271463849957,0.014194304030666485,-0.008820826107610449,-0.008497922043435732,0.011397241564446273,-0.00910147105363869,0.011140433651937117,0.009398887117021582,0.0037563655907744825,-0.0032421664271685413,0.004803561928776755,0.007669713257612568,0.011778306936507058,0.010703427289670445,-0.005601880859884875,0.014654819344165376,-0.004517856966979143,0.015448357503847935,0.008787635358412687,-0.011563861792357251,-0.008419944936805337,0.011797872001805307,-0.001207982007531163,-0.008804822433577154,-0.008050994443009364,-0.014249536410151857,-0.00414310801497841,0.002641039803508983,-0.004777754335486075,0.003185332208001452,0.006492903427259777,-0.008928124250845743,0.00373422201698987,-0.013346606997041793,0.005409784942496956,0.014838260197778522,0.01309102517835337,-0.004146905499632158,0.009657741476116925,-0.003754141839069025,-0.005067528792324461,-0.011166585868855515,-0.012996188334109541,-0.013459029472250156,0.012744673551318038,-0.007383044709710747,-0.012931702097671863,0.0059680049487035175,0.008949124302565871,-0.006138210861804619,-0.008361254150202509,-0.004885632593736977,-0.012742912964602972,-0.013014987319477672,-0.002919717255127633,0.013748958488938257,-0.0014563918867103488,-0.013628389556239115,-0.013186793605300437,-0.006809248383347451,-0.012188375526249209,-0.007496432996250975,0.007318653154882206,-0.004877413513401558,0.0028906755436133268,-0.010141462572737986,-0.0064001385023492695,0.0034004286013602537,0.00689712205579791,-0.013242646294813042,0.0019356071071159504,-0.007887272459636933,-0.009590128775006337,-0.0002845827489722612,0.015536293961109338,-0.014899725868626434,0.00041134830207867346,-0.007435518929790809,-0.006982988172017968,-0.011393926749775306,0.012996012751213839,0.0043462661048806785,-0.00957826132605354,-0.001732741294548288,0.00017196854685575663,0.0029306533806954423,-0.01137096618649585,-0.004916576017184392,0.014692296778975617,-0.006701044029781677,-0.008922162554831754,0.013313385648032878,0.0039513718261660925,-0.003999253003196784,-0.012071848660477759,-0.0018060305784544338,0.00633968030408746,0.0019423492457453194,0.009649801494804322,0.0073361533090049655,0.013242404206642692,0.0059804101733171855,0.0026174262823927576,-0.00217269700344605,-0.0002407485013465535,-0.009451361769132156,-0.008753919448523072,0.013988699530577096,-0.006105092251730067,0.00877101738477467,0.010247292388198843,0.007508657881408323,-0.007094962248952612,-0.013599573961142034,0.0019257434339575615,-0.003020033395027096,0.00651830737302404,0.000776842416942234,0.004512456064047939,0.010862475882349606,-0.010314334407823863,-0.007836378109920012,-0.0017280082466000594,-0.0011822105464433415,-0.0019480381621807714,0.00948308821085566,0.0040762357353202085,0.006845455070768759,-0.006288195227435886,0.011033879871141475,-0.011726828570855462,0.00958837262708618,0.0019246382975588172,0.00019417884518803386,0.012700521994990693,0.0003057802996708145,-0.0030624180357257634,-0.014026995816566579,-0.002447278694716934,-0.011023189369778336,-0.00246837593990909,-0.0017955612970141088,0.010969161376736761,0.000986329551983571,0.0033846927966340833,0.010672371073840396,-0.013522778279080178,0.010119202858986674,-0.0011865468227676146,-0.000981925747643702,-0.0031049255260662927,-0.00388787933180032,-0.006709870139744549,0.0032981515746841744,0.007114475285590085,-0.007392456429613885,-0.004067326255755659,-0.002999645283141783,-0.005215522282340627,-0.015285386356256023,-0.01007464429086333,0.011729277985455693,0.014890666346692557,0.015327979167892039,0.01206601739963072,0.0017097675973497505,0.01127639171405605,-0.0006213066906161253,-0.007378247062236314,-0.002008661850386423,-0.008429068115306214,-0.007799982320483529,-0.012720339918448436,0.012504284834516498,0.0005982183467555038,0.005225744687531078,0.014449011435613088,0.0024320113965988835,-4.604084040737977e-06,0.013929107058471384,0.010008886856605486,0.008061430098712744,0.004446849288018636,0.0006164238759271967,-0.0011112524902471763,0.01102920194995954,0.00633756523113875,-0.011951897963296557,-0.004240047151244972,-0.00519548936416429,-0.014825174424984638,0.0006867623973262488,0.014456788130740427,0.014852978381435095,0.00984283623563851,0.0016347309952166877,-0.004970689478826711,0.013228086353911143,0.008278688682687274,-0.0004944400250293211,0.0034688515279290913,0.0028617655445294134,-0.011647637973654992,0.003147784655930956,0.000991555158878353,-0.005366249681370745,0.0008412531291667226,-0.0030792844314975545,0.012633302603161794,0.004356026477178129,-0.009131296131298657,0.012547886087628211,-0.012433148041092107,0.010461335638140917,0.004343812252292644,0.006268929398109149,0.01269431253107272,-0.015603931307315421,0.0027133128081702033,-0.003118513891635942,-0.011702800904539058,0.009799432446661604,-0.0038104944919681964,-0.002946859208538804,-0.0017555685441600147,-0.010376424348753702,0.002302153977160753,-0.01389393500934855,0.012319540774691103,0.013914783016218346,-0.004974924198052694,-0.013902942720008478,-0.00010224692932515184,0.015615749297127064,-0.003111740109176607,0.0031942200633385265,0.002209141500985907,0.013662018433708178,-0.013417676251047308,0.007966905965848238,-0.005118149142843888,0.007429401203408712,-0.014520955607790549,0.015306624760094801,-0.013913419706657354
-0.709131180026769,0.00484784883579633,0.0018442623512236467,0.002083621401515981,0.00870159427077595,0.010137991550820843,0.009444497481646122,0.007816658378575557,0.01025166904807152,-0.002222677542033046,-0.007735563364015586,-0.008660942597372098,0.015057479171310988,-0.013679731902321326,0.011542047696656961,0.004706490930140524,0.006178557406554097,-0.00041313077857121905,-0.005678719277219333,-0.001672118163681225,0.0077336910432352635,0.012684788160179566,-0.014957127368502094,-0.01468030265509759,0.00967682206284503,-0.004732436044248039,-0.0008548221354048868,0.013785240598802342,-0.009403448606105508,-0.015589692969712608,0.0002467699031266646,-0.006640217192606681,-0.010531057544650467,-0.0038833574568718117,0.005919788533961606,-0.005209776805709564,0.009956851433105835,-0.010249644059042447,-0.010277443756589438,-0.006973494129948611,-0.011587237619387191,-0.011818191462143746,-0.013297994543507826,0.0003863058997548019,-0.012320319886257512,-0.010121887570769622,0.01039486045214941,-0.0009262606813842146,0.005591656021893817,-0.015499888453840927,0.008143117798559175,-0.014439959546289138,0.0065709708273820056,0.008797116824682077,0.015353220594519577,-0.013258683888007345,0.012450134045198145,-5.926625432344651e-05,0.0032448117738052076,0.012368893644073061,-0.006565292064883609,-0.0019044779880623731,-0.015430558222300265,0.015593330476407773,-0.004486016168312623,-0.009909396163635318,-0.008808840814474746,0.012602648085260425,-0.01433587208695327,-0.014918003601081448,0.00802345606264173,-0.0003569968251592934,0.0008996939770676733,0.004799257083112234,0.010927439436961377,0.002355135856795091,0.0027169058600742674,-0.007941503622574102,-0.01226621314188165,-0.013041320002933513,-0.01172978727207561,0.010058974378759956,-0.012656461888038251,-0.0063535851188595595,-0.015115160934245506,0.010846668447429236,-0.00736449836577064,-0.007616111027725879,-0.006050971237290519,0.004663881929080006,0.0069179710556108165,0.014641887883671548,0.005735063691425582,0.007876692662280856,-0.013265234323065322,0.000833790441723159,-0.011398696044609125,0.00885448625340678,0.009553600150868265,0.009076275739081725,0.0013461485762258397,0.008508808489037928,-0.006509909235407816,0.0034908632651483966,0.014700887056280566,0.007892299093384663,0.008402026256978685,0.010615609225227599,0.007490219519892732,-0.013114785839304522,-0.01217898256346022,-0.01504015263987583,0.011775681504085388,-0.0036329948522661713,-0.0011676455703170142,0.0014759432741505499,0.001580669106358918,0.00833068282160239,0.005687575902416083,0.009040478319720477,0.006888685570700544,-0.009809688511768704,0.0034707193379385527,-0.007651762085427009,0.0058383550911077185,-0.0014668261482743972,-0.014114341019390065,-0.0031033349586263304,-0.012539473788928134,0.0035968627466079588,0.003271000170640099,0.003642415236552371,-0.008573161940901314,0.013150082990053533,0.013254623948014289,-0.006078636754582534,-0.008475231432888312,-0.005040039520519943,0.009835167210195846,0.009651983997666865,0.01377375359928441,0.004825906393284288,-0.0018850097762715297,-0.0018459124273317445,0.011755001249721887,0.004297808776586327,-0.012817493003399742,-0.006302015649800208,-0.014762114003016764,0.012998736360314362,-0.0007150235097215969,-0.005151226071224927,0.00901119623005062,0.0084580931187592,0.007154402377205819,0.006985991686330236,-0.004216610188371984,-0.0011956619418686948,-0.0066975867899141325,0.003809275382699682,-0.0066573013177580395,-0.007107769622353773,-0.006717653703484726,-0.013297471076102414,-0.002857020955955747,0.011280366433108542,-0.010229428040145934,0.005522759948026094,0.0035948793195377977,0.014748190154472006,0.0045022616596989105,-0.006823572956504428,0.010361270466166281,-0.013816250495760424,-0.003937164517713549,0.009499373795569113,-0.0023493476299340267,-0.0022751193690126077,-0.011337256460080505,-0.01050335249900566,-0.013471058559911472,-0.002821943273787021,-0.00619750406447216,0.003817972645932203,0.010394947904986684,0.013549126756902116,-0.006527548650527192,-0.013763221591893648,0.011111050178282622,-0.002069993245350607,-0.0040920077968274945,0.010467810095929071,0.015416479152536137,0.006675930548390854,-0.010006437354600797,0.007229435475324779,-0.009396311489118372,-0.0010982131888565075,-0.012553898008424925,-0.0027168944754008065,-0.007576537783463341,-0.0059815561233357226,-0.0026151526591294966,-0.0025772709019794143,-0.013686204404767172,-0.007153108735026541,0.01112640468336002,-0.0042286535638196565,-0.011815640572983534,-0.006771794573089476,-0.008086064069673791,-0.0095948599555007,-0.007653672436783894,0.012945119083300084,-0.011560650284098379,-0.007205416130831855,-0.01273498561907899,0.011550850437659858,-0.010528764060077293,0.0007819070278274817,-0.011560770721556625,0.0042754641468723265,0.003084552966619483,0.00520274477344319,0.003830799303389136,0.01120319054104078,0.0071725591554416546,-0.012472423506133371,0.014316329391831563,0.008811043386177851,0.006662626536147385,0.002315001345643105,-0.01255107516269096,-0.012834637969192163,0.011344425240638913,0.010562218529562288,0.009219238923029394,-0.001482973007312715,-0.0024620692412070447,-0.011493995166339456,0.014771902558778405,0.0026291398724870955,-0.0013800521613478549,0.01031125849206585,-0.005924085184443095,0.004781124694707994,0.009129731712204773,0.01553744252479361,0.006672469243733999,-0.0001676934030889303,0.0073809445763891555,-0.002130835638328006,-0.0022428411671641425,-0.003660021236992047,-0.0044957856688869376,-0.015415282705064714,-0.005388613681356926,0.01102354373841559,-0.012399296376386086,-0.0014524663467614524,-0.012181916917905333,-0.004281015853829683,0.0027582051559468454,-0.006980530744703683,-0.01218826268595832,0.0030913151076075313,-0.013434197621316622,-0.011528726897262625,0.0018543605990601342,-0.006506737581647645,0.009178615294030624,0.0023635183159472044,-0.013416496736968493,0.015435495753772732,0.00851621860765188,0.0011653641169470062,0.002614196658414683,-0.011773024161658832,0.001675946902404895,-0.014757199034174252,-0.003283673563022834,-0.0027246277671410628,0.006465216731819063,0.014236660316027362,0.0032668212441661,0.007048494725130423,-0.00426779406311209,0.006961249289771647,0.0002524581994399165,0.00883909506174211,-0.008352669715785913,0.008432178468680197,0.01541968498508538,-0.0054948705939115924,-0.012322353176006825,0.0030838926925424136,0.012382602873151214,0.007114486178356479,-0.006504534388246042,0.01112476110466153,-0.014174824149003493,-0.006150535045319653,0.012922688122866646,-0.0034154719480906717,-0.0048465647141266305,-0.006576823385513235,-0.012972449211541948,-0.006181045061064219,-0.012745918078532936,-0.0009558921214870009,0.004741732012087319,-0.00941803384973973,0.0038729754436835004,-0.0036289195775022834,0.009680806129286436,-0.015401964297295168,-0.007920645310372045,-0.008381813961457579,-0.013462622932168974,0.01270550594044315,0.010052978525059042,-0.007384873624296209,0.008432171350508187,-0.010798696771312035,0.0033680334812864546,0.007603120755709788,-0.0004790381786596472,-0.0135347818721905,0.002043523155033429,-0.006964738347941011,-0.0028096737853099962,0.010876222653124587,0.0031967425492888182,-0.00613172032486602,0.0033389524306151087,0.01437364093556193,-0.007526195796857357,0.010157648002828878,0.0019288347367731155,0.013080935899557933,-0.012324486246654706,-0.0021444186903632582,-0.0050943035954732,-0.015248068075583331,0.005021912379284052,0.010707329342918175,-0.0043545553033391,0.013917415625204158,0.0005578597205702952,-0.002193320904658985,0.0012335805720834515,0.004633695464846273,0.0027565975718540255,-0.003038352444919009,0.009075816259342433,0.006581001931810718,-0.0023452618350722314,0.01083752169537137,-0.010671749679704249,-0.013789962457768406,-0.008370310765963292,0.01375214115370959,0.007396438108183311,-0.011859180849540792,-0.009062024613307271,0.0021504586722774846,-0.004631799685161132,-0.007518987656763572,-0.0024760058674647353,0.009166161484335696,-0.013603455944610435,-0.010078799295038653,0.013420864130404456,-0.0038257301787304777,0.015212885486160291,-0.0020374134271560103,0.009573305435033073,-0.00641608736154662,-0.001134645412992949,0.013728931325745024,-0.010201205829225905,0.004996011606805555,-0.009894660111856426,-0.0023272817564666606,0.01414272724196098,0.010416010090657877,-0.00811807504144595,0.0018674869268344788,-0.008236707618012089,-0.009390150832261683,-0.014377681999126882,-0.014587864791016293,0.006630290818738449,-0.010100803185389577,-0.013225211154424623,0.0002582998386302139,0.004958982087032573,-0.008223656861384324,0.0017757901325326925,-0.010186800882010405,0.0031915872445186302,0.005437227368255384,0.012413758794100095,-0.007756512216558778,0.007846015979920434,0.006972013360412362,-0.0014948612600450342,-0.0031370084367906177,0.006415114100296562,-0.007280872262854322,-0.015143085862931505,0.011622575372348391,-0.011207248738595316,-0.004018908730428424,-0.0008152599092965812,0.007855429373120174,0.002923820139560128,-0.009948325874421404,-0.00539596604900144,-0.014191532352474646,-0.00445327917718083,0.014400410634471946,-0.005271585888188667,-0.013737255370335887,-0.006911421537994955,0.00702899451126425,-0.009104851054110755,0.008425669917747534,0.011491488646391494,-0.015592750482480523,-0.012732114139204848,-0.012308817866761829,0.012359268021539482,-0.0032785982199663548,-0.011760524836433552,0.01353342975899922,-0.008510806896297001,0.002179270622128821,0.012408918442960652,-0.0019216551612838313,0.009734831928233077,0.01234804725064842,-0.005713709319706328,-0.012583616500453827,-0.015561148741860594,0.0027934051116638853,-0.0009419190429951659,-0.014855380932176834,0.006184000271440771,0.009152897066477993,-0.011188713160078148,-0.01526976654358014,0.007749401584563671,-0.011463950932489659,-0.012483358210922349,0.014998623630320118,0.00724812594104968,0.004278067899089601,0.005866940908982911,0.011993473702228124,-0.011045850824958198,-0.008517094981371074,0.0007984168041995261,0.007881369223044454,0.012456664625624166,0.007939716879398047,0.0049722364665573705,0.012571975993610072,-0.0024347338537045633,0.009318300515656831,0.0129483687445336,-0.00027565546161799695,-0.00974570076702529,0.008774508157851565,0.014995992352381943,0.003533451939533482,0.006299732174250557,0.00981123254063199,-0.005430047756525544,0.006379807694797349,0.007011559645018289,-0.0014182951502746156,0.0014793737291112531,0.013227074317532467,-0.015319690484367952,-0.014979594949680892,-0.011187161514773291,0.001885787827430152,-0.0056620693706113945,-0.009394934609454682,-4.0061216582665954e-05,-0.0078015628566569205,0.005385445169503979,-0.005749455024632526,-0.014666339467912907,0.012626497672306225,-0.012717613593293757,0.008813486242653136,-0.010934587867334054,0.012259288290822144,-0.005726343375518996,-0.007040128422576765,-0.006729517490444242,-0.00353505508214114,-0.0006884883785844044,0.004965682651926789,-0.0024261177994760255,-0.0061790823573404235,-0.004757846253070977,-0.0012877216773619984,0.001173130087386471,-0.007312674533249193,-0.014971453853303184,-0.0029255769608669095,0.012031183555222306,-0.013628700970524304,-0.008414663559711374,0.007800428183408689,0.01084567033484075,0.007209409470845602,0.002807589821858192,-0.007449202049078743,0.009054531022549283,0.005022083813552236,0.009207265083510715,-0.011316914622141589,0.008469206644441035,0.008934603758605837,0.0030213686346975376,-0.01458642874449962,-0.0056386527273872625,0.014986431111209071,0.006179123573303438,0.0003441999571680496,-0.007106323511384863,-0.0007346725949260759,-0.0009823537177132587,0.0036782655564426385,-0.01122504522572634,-0.00328774270150594,-0.013641769836902122,-0.005120199183347211,-0.0023662183118345857,0.0013857640631259917,-0.004292337952159022,-0.0010013242889755948,0.0014733388589039075,0.014441800889070714,0.008130447446886346,0.0015776221738377783,-0.009670829628071333,-0.012246885942243851,-0.007420340373043965,0.007421625956812179,0.0022647501345469077,-0.00015050002311730107,0.008014216829757795,-0.0076604037016627415,-0.013391864299534484,0.0023105647968560683,0.0023538418056058344,0.004446250388716901,0.0012649808564582123,0.0032689227677780777,0.011546072112244742,0.001332427707122854,-0.009751734066058011,0.0069786668329635225,0.006680580579079026,0.011147432341914062,0.004613902658221897,0.014609477316886301,0.004664683629239524,-0.007794252841945161,0.014409237325326715,-0.010732829614794267,-0.010231639047942876,-0.011732868577184911,-0.011665223424575946,-0.0007595698253147487,-0.008320307077635525,-0.010287891853615203,0.0040463440372655556,-0.007205534064410397,0.011371347652925787,0.009359756534829098,0.0046918687574530014,0.010242360723138978,0.004830748047574128,0.0076786748230937875,0.007183510766795034,-0.006459939965010715,0.0022940482844982825,-0.014768475719778427,0.004191777056647961,-0.008519908032384633,-0.0042424425134816104,0.0050275331368663904,-0.006241209798418038,-0.0077195993367836085,-0.009941500794673794,0.004876517704887624,0.004005205551477875,0.002567614947687282,-0.010441006287022804,0.005485308956115424,0.007688078124168711,0.0025977812700960085,0.013597736462851045,0.013360310531913413,0.0028750065973524377,0.0037949378608682603,0.009653076382255796,-0.0032909742942456716,-0.013188889523827789,-0.010925008270139386,-0.004619603605654662,0.0075656391817549296,-0.00927065464635703,0.01440733493121802,-0.008040373340795673,-0.010634933561377412,0.004483533212267656,-0.012332618581434862,-0.015543167745363306,-0.005346165181100159,0.012554011346316955,0.0003326158754089481,0.013413333513107278,0.0076142095526386434,0.005007225133361513,-0.013907362079759795,-0.009958115561387728,-0.0007984452195976335,-0.015601145635007887,0.005209479386940535,0.009928090194839829,0.003775241022055488,-0.011002906961323954,0.013736396158800835,-0.0023933553642254135,0.0005346619422464255,0.002986556950106068,0.010968583281663623,-0.000568998100601955,-0.010091717797850796,-0.001078529601865389,0.013354063835190482,-0.001159717740232935,0.010787295170723611,-0.0015729567307581002,0.0026783921050183776,-0.007940329816092374,0.006425121606986599,-0.014442438940443596,-0.013437415094275398,-0.0005439620058876847,-0.007760459168637761,-0.006358135725150371,0.003281613012964795,-0.0051939589092968065,0.004140437620045217,0.009760396823556172,-0.00904172061597755,0.007370638092790947,0.014472307348163096,0.00027780230911608056,-0.009606113534297606,-0.012341741840961314,-0.0032115608637081385,-0.012794542509157968,-0.01082438329725656,0.0005813257656181424,0.011975772104301723,0.005212854374913211,-0.0072689332849349315,-0.013874962305978452,0.00653515032713654,0.012888637239806721,0.013849792545559386,0.011474294108884557,0.011611109273588927,0.008978551712621685,0.009221821691610128,0.0003490872861000374,0.010729758603447881,-0.0007251864130243188,-0.010609894659233333,0.0004051505933169268,0.0034045405340086196,0.012060216091928897,-0.008905348816014916,0.011696892323375726,-0.00927642472244699,-0.011377868130376827,-0.0023000084064708666,0.007589148800533057,-0.010876548531623821,0.01184230207257973,0.0027212199304190374,0.0011343816700812755,-0.012591778299839467,-0.008521738789210278,0.0007253268724234582,0.014646640523173889,0.00825846063086184,0.006778648383179615,-0.009771033580646495,-0.001309127444824837,0.007735072088531785,-0.01249698088811051,0.015319781994070442,0.006100664983440914,0.005322686108856084,0.014641535515997565,-0.009060804686360748,-0.0027320145126679685,0.0052499444376859425,0.009822341879402324,-0.0035576889272901646,-0.012719721871689176,-0.0038324771670150033,-0.009517622286121189,0.0003335562279598789,0.004765866767129322,-0.008955057609196192,-0.015221540858544259,-0.007577602527363402,0.012419168125080485,-0.004793928693626926,0.00818442338870216,-0.0003477544374811854,0.01261583684387603,-0.0005475691393569647,0.004935157134808698,-0.008287155069911734,0.0024439565594466563,-0.013568125871750283,0.00024073689415081423,-0.01073624500703086,0.00977851359816025,0.0010238065748846698,0.014599408578554119,-0.007900084364275476,0.00582235038259863,-0.0015189236280441845,-0.0008942747818536621,0.01099564432753461,0.008425096512861541,0.0007583557833324012,0.014410224926584912,0.015397429332217879,0.0016136522778877754,0.013151419489406558,-0.012135535278874919,-0.013191897079715013,0.006213101978072781,0.008739895937952342,0.011868744403526355,0.00997952334163071,-0.014525305833164331,0.0034436815739768943,-0.01311899283238233,-0.00041425811105288285,-0.014782001024944005,0.0011197894942055753,0.008454561883906066,0.01119639097260974,-0.007022513722054299,0.0063177074713049244,0.012177589619272136,-0.0028122850903584337,-0.003208589660482101,0.010738382968960382,0.0030902398109887777,-0.0019241356403279786,-0.0014057009602667613,-0.0002689944821340183,-0.004413553568740455,-0.012692813424369485,-0.002324294064649967,-0.007760570304679321,0.002961722434699162,0.007775367458299945,0.00700508633767535
-0.35313585446202667,0.009072578995112091,-0.013402043287965414,0.009002338377437226,-0.013613946679961717,-0.01319606475759174,0.014843841430932241,0.010378047454724263,-0.0020649078027405385,0.011463966060006728,0.012648288984905668,0.006776962503033404,-0.013720681315991006,-0.0104594222383123,-0.008891951696485628,-0.008690623350404308,0.0005609198336213941,0.00977818025321069,0.0059471664096035805,-0.007621850833467683,0.0018341589734252317,0.008401894132838678,-0.004063048706479933,-0.0030107029552715776,0.0021848677567539755,0.014957818314062957,-0.0017616876923166568,0.009027190627466899,-0.007077013734228789,-0.0027807493299174257,-0.0012030398662953058,-0.006507210231802885,-0.005963451142150581,-0.013190843067685653,-0.003711151022677186,-0.011985933115557065,-0.012214854612391003,-0.009294922683488614,0.009784890367997599,-0.015415898776437911,0.014351725549955525,0.013626278686128465,-0.010445828672620807,-0.012582885659170664,-0.00712332717893854,-0.01110484897443487,-0.0047935281122157385,0.00411650465130366,-0.01405049867888206,-0.010759449651048539,0.013491926588796499,-0.014556240079679063,-0.006801213645070248,0.01534342864353172,-0.0036767094563825396,0.009627983108769729,0.0015257370764524616,0.0088461870679101,-0.0005695097384573536,-0.000818382130185244,-0.0031075874189987578,0.0068316372389837995,-0.013584650655085916,-0.006376712080536671,0.002030390833621498,-0.005971531469190675,0.0034804639667585097,-0.009932841181283507,-0.01345062513001103,0.0145238216390558,0.00026836015043466693,-0.006756446071410415,-0.015582566429035664,-0.007626738058861961,-0.005128129622320555,-0.001940614496042218,0.0024892526547832597,-0.007491030516070557,0.0017060524075808298,0.004678205486571614,-0.013164964467307326,-0.012752794705143115,-0.007963266750145827,-0.013970725506563527,0.013736850353801875,-0.003945000443168211,-0.012864956544823346,-0.0038370080191675003,-0.009361003345756371,0.015436914759703171,-0.009924706162977446,0.00826672868011704,-0.0027740327290286144,0.003026291990148585,-0.007348568069192405,0.011653293938951106,0.01164084274460801,-0.00799369195634091,0.001789788154782243,-0.014161022242446843,-0.015060604495124644,-0.012664667103771895,-0.004788094035715656,0.0027483999043991063,0.014228389191845117,-0.007978160336830444,0.009052624769811914,-0.0007785399501522294,-0.0024121823607028137,0.015239006253747515,-0.0018323602376834822,0.002674256334396656,-0.0150711383960903,-0.007736829051101735,0.008776773984538556,0.009589816833911257,-0.005882036638281216,-0.012237495001503097,0.015442141054276153,0.0024083732719526636,-0.01455477701448402,-0.0005343526982847652,-0.007683193075043181,-0.00532790104833001,0.00355593663870285,-0.0025833671936819347,-0.003468786150066773,-0.0022592863522411105,0.015210660990761866,0.0018268665066929098,0.0052029919062986825,-0.003317393355883009,0.008597042530014844,-0.012513886390910903,-0.008918232470799595,0.00894761973061662,0.006955174818019709,-0.0045113475261246185,0.004193910855245477,-0.003937059731024151,-0.004516076109097482,0.012435106844717533,0.00490283216837676,0.004906091370177765,-0.0003993976659964586,-0.004404481503458065,-0.006973540136175654,0.0027237934304195667,-0.004053265023904396,0.004175131632547586,0.01153562237795452,0.01120328789823843,-0.009244214245521833,0.007076076539047564,0.0047507360396603915,0.0005291686662490525,0.0006360699519264643,-0.012266968953168707,-0.0010665798713181754,0.001603017561423812,8.279989309908226e-06,0.015131532736518568,-0.00013811968925635937,0.0064415925338176805,0.0045158513757575895,0.003241983153156578,0.015608221940684393,0.014831283596836536,-0.009558122833555765,0.012768097814999994,-0.008929933444253444,0.0026006467901075157,0.00032432829662766213,-0.006349756709945659,0.01371635882979344,0.00688403420177644,-0.011536251094739217,-0.015167598749694769,-0.0011430630522638145,-0.0015844235679209305,-0.00928430653964181,-0.015429412339560154,-0.014780484068100983,0.008339590764379914,-0.009339959624810622,0.011351840412895924,0.009908759988783818,-0.010643917300800297,0.00941894636235413,-0.010050722896177224,0.015056700833456425,0.004957995928637878,-0.01540786221716588,-0.013211321130566618,-0.015492646200376468,-0.005366434104061436,-0.005634639839815551,0.002736055721891166,-0.008420739373158882,0.0036621002805078164,0.01069705645397263,-0.0046439533113773225,-0.005368784552750094,-0.013993987556074939,-0.003902455652103301,0.0029599134307224523,-0.0034215947968493712,0.006451328848344012,-0.0014167242846656047,0.013539919298119117,0.015499231538790043,0.011267939945179231,-0.009415945101435574,0.011220234918579021,-0.004665256442621578,0.0050559278191170225,-0.006175859610172824,-0.0018578135730321146,-0.00822664957569498,-0.0033824527580983317,-0.015461158758606899,0.0025539892376816274,0.005979500709196131,-0.002702919740199757,-0.009046768091812072,0.0069875457111940285,-0.007333495860703282,-0.011444259381788752,-0.011193125961998101,-0.007326500751281141,0.0007923437270213052,0.00998164554576907,0.012736736227155328,0.004076460911980811,-0.0049763790951540265,0.004885461669548091,-0.006664602254921201,0.005810041878207838,-0.012620260611331913,0.015490852254434369,0.00834443585553589,-0.01283198273175452,-0.000407698871013714,-0.008643753018025325,-0.012455714863893307,0.01324205807125211,0.002209299766277914,0.011772269790106097,-0.0077248655314366595,0.008016643070320819,0.005017220257103869,0.015118481804177079,0.003490228898705705,0.014534021918482888,-0.0035681963932481554,3.012129662342128e-05,-0.00908820560848951,0.011501158821590425,-0.006185037463302505,0.009046989475629999,-0.0019648455778528175,0.009899469046970828,0.011758556112420118,-0.00015882897285472708,-0.013288325794630722,-0.006537094349768041,0.001011324831653622,0.006096421448024591,0.013913784115687333,-0.0050053834642809596,0.004370433919607265,-0.00906573717170188,0.006455184318045908,0.0068868272914423025,-0.005938804491404812,0.01529341360013178,-0.00953492359364986,-0.007258249835963564,0.006009645037205205,0.007594752078577214,0.001142998874487964,-0.00765898301091188,-0.010133480621008148,0.0097461683921439,-0.0005160325282986995,0.006062751228110095,-0.0037966398385300554,-0.015211035202650502,0.015517160696773866,-0.011249286743475983,0.007048015007648206,-0.013280273044358519,0.00195399617322849,0.004868508806222142,-0.006969054082862674,-0.003374094955795187,0.006657177308746192,0.0025490599440839215,0.0047220324714197445,0.00971929054697833,-0.007105704520022502,0.00911163350328488,0.012855985464318091,0.003922100135161345,-0.003845677733735925,0.0015439042399081684,0.01129046904818911,0.014503155391290604,0.008541780200639164,0.01179888422720447,-0.0002911258355346204,0.015134107781779666,0.01518152129475353,0.004804040582728163,0.0034019338432579593,-0.01065911764054868,0.015238675827151063,-0.0018480120080994755,-0.004186276585864918,-0.0018884966403819627,0.0033278515003395508,0.013959702304671064,0.003338639820011608,0.007440419547215662,0.006893558777197134,-0.01480390291948308,-0.011936872805464193,0.002792932928714107,-0.008514777069330143,0.0113874442261781,-0.007529532781914903,-0.007227521887226057,0.013460373602396151,0.0043339825906341806,0.01349718096250917,0.015268410686144616,-0.008884969617158674,0.0058274620080115,0.015024861713309304,-0.009273770830292832,0.005990789999116012,-0.0019388871018065391,0.011550083095129109,-0.010101273474130677,-0.001063425797921562,0.011522962825561603,-0.01464544859900815,0.010059724869046924,0.011561314465104607,-0.011713072229049337,0.01488475166037954,-8.018566122675388e-05,0.006071181981462205,0.010401359673482768,-0.013018545917412756,0.0065101221558410555,-0.005244129086723566,-0.0027126817210576352,-0.012109725951906795,-0.009685608504806091,0.0049436751220010115,0.013783402470938226,-0.01406433304797379,-0.007432205767057578,-0.008528938796329287,0.0039199796395491295,0.01051644866338899,0.011707030917403782,0.014036760836315141,0.011607583922346284,-0.014642540541517837,-0.002335037627840514,0.009264780438500743,0.00015784077856332082,0.0021563868748545635,0.0027425178231554187,-0.0030923546228613097,-0.004849764394194902,0.010324088752492702,0.0002057585701933408,-0.010357087716671903,0.012609740461130305,-0.009709908782826453,-0.0003229222547189922,0.010146738700864032,0.006978143626142245,0.015464299507841714,0.005965813530051798,0.006162239892564501,0.005320398115174353,0.00842783365571059,0.0029211680123759805,0.014550936123466768,0.0062222783643006985,0.0031970409840824665,0.010633920704744393,0.0013836131755597426,-0.00707139014550439,-0.015069688893447345,-0.004006828996373772,-0.010440875363987853,-0.008513237297109098,-0.0013596584471636114,-0.0025135539112990622,-0.006416109559060395,-0.0010432694897593194,0.004620940122542858,0.0132021439377949,0.0037649109371456387,-0.0003145430328940352,-0.013676538959783002,-0.0029926611317101885,0.008132816096182788,-0.010388788063716743,0.009091026513543675,-0.01027939323956405,0.010872230934664377,0.013960955013170222,-0.0071877025804267455,-0.008449460134469337,0.005758074673173994,0.006102829508646133,0.013517129345567432,0.006995918142053206,0.007447053764477404,-0.009462677085915333,0.006066965201275962,-0.010097200573967721,0.005371205263387167,0.0031565498070583037,-0.009713600718926754,-0.009846101376371694,0.013399274324035697,0.008969598596977251,0.012261161884824259,-0.010460695541511793,-0.013275786003095019,-0.012412340323240775,-0.005765362071086074,0.00787738358910434,0.004065246111333434,0.0033162303073629197,0.00793631957437339,-0.006792681551963074,0.003980326466163326,-0.008323285065666,0.014320919299476487,-0.009800827002941846,0.012842700670321186,-0.007586409760021676,0.008861930166959579,0.007635207331915101,-0.005491641111460142,-0.012370362129484502,-0.007007941029964007,0.0035563244644247934,0.002126141565344717,-0.0054466601497286556,-0.0016852866736189569,-0.0010381437097896316,0.0015309179060174032,-0.009881186711476135,-0.008645744123683432,0.008025737656227029,-0.011370254968648876,-0.009986753794903675,-0.005878124378604979,-0.004370737066547711,-0.013629045611693875,-0.015142445737795704,-0.002896453915799204,-0.0032355731968362784,-0.01522303688101035,-0.004279252857243364,-0.0031637441131761312,-0.01058744235228954,0.00879495631066289,0.008296751651070869,-0.007008765757414482,-0.0005688676502994608,-0.0031454946491755974,-0.01424403942922595,0.012564940190908619,0.0004983399784515632,0.0061440336188886245,0.00023858661962396915,0.008541145394901542,0.01426501814255218,-0.013334832171410863,-0.012895129810783609,-0.011112299435909474,-0.014034505847351938,-0.005594775292397061,0.014534121080176952,0.007987555366757708,-0.004224078317183407,-0.012698199999813503,-0.008610674196142424,-0.014507519537541959,0.0016701500451331078,0.014669248270386345,-0.011112018239316214,0.0073088597879233455,0.011369374623029987,-0.00884299085537173,-0.013471154175262255,-0.014177567239426054,0.0009760306555886382,0.013283911046363978,0.006621639730870259,-0.006515721497323278,-0.005138485637215431,-0.004850207797284782,0.00530555215657914,-0.008891245925761623,-0.014046922327508489,-0.009769784369266586,-0.0003788687816173829,-0.007357759070404771,0.009622616331549028,-0.009814436026739759,-0.00786104055060807,0.007208291837236924,0.011981793945798395,-0.0019119273493607668,-0.0012368302476858037,-0.011892994462280492,0.01424211093054538,0.014073207475792483,0.00113160259169506,-0.011199427919709834,0.008732922004564794,-0.008579445452989366,-0.0029665109387974516,0.011525101492196661,-0.007064685192096024,-0.007279775042229743,0.011933165603491898,-0.006685918194814046,0.00493702361091326,0.005050300403511055,0.0009372268727848264,-0.003502177831118943,-0.011848092238889323,-0.013842215097727852,0.011481151463507155,-0.014880345574175266,0.0007847114649387026,-0.0028675351104196917,0.012252102455870596,-0.010130255599665891,0.0029504493178460454,0.012344585321867246,-0.012523009751812166,0.0041932423383601175,-0.0056046069160935776,-0.013476734452111772,-0.0034764668955424086,0.008515841670436359,0.006565132224218284,0.006224049662665685,0.0054563330712993074,0.0015423552971671854,0.0007537923269194703,0.0001284077352895277,-0.008014926371991641,-0.011644313579023902,0.011479871669562658,0.006569273642082051,0.01327716189899579,0.0005208929423278635,0.01175790711141305,0.00489604677836563,-0.0057909661383881705,0.004890714496259031,0.009519308001551739,0.004747374933500036,-0.006245054717526326,-0.00997936406443722,0.000802240170356204,-0.007306906474189627,0.0003276240910291481,-0.008699145588921375,0.011557738732531093,0.009769564155883634,0.005543247103318837,0.013135233648008261,0.01466270045464985,0.0035440556467994343,0.00046144130706865863,-0.007143342144388096,-0.0035668653325976046,-0.009161917672412277,-0.010549734430053137,-0.013703942697873433,0.01507692600308547,-0.01400536543442265,-0.004882966322717917,0.010199742087316898,0.006372748616628111,0.011119371092608469,-0.003946927056448436,0.00800519313871547,0.007729282774724688,-0.003848107680148063,0.0032236701119912822,0.0038690396746223904,0.008685812874673644,-0.006129304935959791,0.0011093135256483137,0.004453517017655537,0.006390597614811651,0.015220441906374615,0.0049371798361981176,0.010576682433734098,0.004752671622708409,-0.003751614494286487,0.008363566239099243,-0.0016639341788784977,-0.011307689087111918,-0.013661392138119247,0.0010603652982289317,0.013766178677365015,-0.007829290532244619,0.01110896037346756,0.013348397818475456,0.004742359263279119,0.01230217711745761,-0.0028616087540120176,-0.011655332551107647,-0.014018466137674487,-0.0057703997949822075,-0.015383297926167154,-0.010059635627824578,0.009392117663691607,-0.01071400091812411,-0.009999103886991503,0.007447522437134146,-0.0038875576976132864,0.008631248345017231,-0.005949530713487885,-0.0031039979446982197,0.004814324371150938,0.011712944956432665,0.007943625011168135,-0.006162515671321464,-0.007699506766704757,0.004071920673286818,0.00015519181068559054,-0.014305208766781315,0.012990739252546062,0.015127948706082538,-0.015179611560935426,0.008060838119281693,-0.01161635226429105,-0.007279400732545398,0.007184691448859401,-0.010252655607562326,0.00845702089084242,-0.000998119633715381,0.010143535722017337,-0.012267601912692574,-0.010093838339293934,-0.003674701704262061,-3.97311385499817e-05,0.014175024803155897,-0.004196727379692972,-0.008595295423085358,0.015130995476631198,-0.00020189475375994095,0.004588684470301044,0.0035608553838483784,0.01544440344846846,6.5932798968181e-05,0.005764272830952148,-0.004278148666107397,-0.007286751606145746,-0.0026065371311085467,-0.0059179982287581034,-0.008735606263160119,0.007117716208125385,-0.0008291006961740413,0.003823307361852768,-0.011973957716531043,0.0029477350048332136,0.014200764103024878,0.004345958804416825,-0.003830967035816476,0.0011048152733896324,0.010972340001075914,0.012101270387626314,-0.01076393387774053,-0.009554636847715375,0.015333401428452565,0.004325114044757859,0.007666405128141977,-0.006676904915843395,-0.007328930278942464,0.004924994054953381,0.014315272184863947,-0.01330348274884148,0.0002569563057299197,0.0068955557424352255,-0.012328206674077535,-0.015127932184356603,-0.012286675767692191,0.004598980653705433,0.004110250898911417,-0.015437007198222854,-0.0035196735067067678,0.0020188166470500625,-0.01351384339201829,0.0014585918045266558,0.0008272150214196569,-0.009882006985784002,0.002715179663970179,0.004241414592751659,0.0011629460144880407,-0.0058674072528298905,-0.01157783544498956,-0.0038422386965211337,-0.004522715942948976,0.007071385769351592,-0.014852466869426654,-0.004142385228145553,0.0026172862929938166,-0.014601191057243681,-0.004445403145846325,0.0020645512757650405,0.014673417679106682,-0.014661802041347836,-0.014369777861990403,-0.011572940602061252,-0.01075748015375843,0.009896823641868984,-0.0008426928184137872,0.014746887564339149,0.0029042925337062764,-0.006339183509708118,-0.013758474394590978,-0.009093318755151202,0.0065607892846966075,0.0006647793988540374,-0.010177717205381263,8.311211333747112e-05,0.0008669192485901769,-0.003110849814303363,-0.005807530829209179,-0.000772129559643165,-0.015547119899021179,-0.0007293745666046014,0.003521960913185438,-0.0037103018003006583,-0.0032516361659976484,0.008807409730388228,0.0015563556252571158,-4.170343947976912e-05,0.013697860502107098,0.01114892227425733,0.00026996527593523,-0.009049610061829211,0.014751883361753895,0.009042227305444551,0.011866349109029513,-0.007510487269321946,-0.013445042298116574,-0.008796021805800455,0.004531371501046263,-0.0007491359061908148,0.010999803534298021,0.008077909693716606,-0.001766701223534825,0.015531103850031525,-0.0010702252250972127,0.003197686302535408,-0.015346393352477162,0.004288404394476128,-0.008576266238095948,-0.00035893744351278567,0.006673707176963962,-0.010629503810399961,-0.0024580233550817628,-0.010171091748918032,-0.004754235389649641,-0.006204594827866183
-0.3665254569638311,-0.0003933689551986058,0.015026362979816181,0.012470714495911545,0.0038282854095232598,0.004525477463756648,-0.008570250991488313,-0.007339788361802723,0.015561020525509346,-0.013823832458065302,0.00546878161969571,0.003468449205467853,-0.009492120787021812,-0.0021707990098347937,0.0072829491800430815,-0.0031840135185585913,0.00050099507316698,0.006195035344521926,-0.0036975018983696345,0.009908574369205583,-0.010255164473831936,-0.001350161948370024,0.009677900502522613,-0.01216586461951951,0.014769074418024684,0.0023401069272142513,0.011360282718088414,-0.010104232205027416,0.0004996562721908716,-0.014142654612730728,0.005545821374189269,-0.0033049886934439048,0.014923503095740868,0.009906262877511052,0.015213357548294875,-0.011610294402972003,0.006468093052262199,0.008794646023345905,-0.0018202056298650855,-0.008788050576399201,0.0149481499227682,-0.004759721828966192,0.011298625237873228,0.0017746974395898112,-0.007668775050471248,0.013865894837808826,0.009012999838544176,-0.0010924498290569885,-0.013882974058083208,0.00883426321239273,-0.007241754430895791,0.0007490235011794188,0.0028346612822243537,-0.00718465762851005,-0.008310954385537975,-0.011480681907851023,-0.005621070935417333,-0.011946248583468821,-0.008291877687854068,-0.011133613709984967,-0.00674544948885723,0.00044740239507314733,0.0012945722333024233,0.01372459265273484,0.01302440509669111,0.0023036147768911025,0.00904328822746778,0.0036101924474228123,0.008494633654857482,-0.015240946186937884,0.004791620063221473,-0.007208435557638084,0.008403745263122403,-0.009621426876710304,0.0027305270247584765,-0.014868250102697152,0.006335844022627185,0.008006378301429109,0.014869928904207727,0.004084264583517228,-0.005652989743688469,0.00022028567432832297,0.000791714160831819,0.013810963416401534,0.00022366873163532155,0.0108661998672126,0.006284859728558596,0.012732261032994935,-0.01236806575379,0.006766916845767766,0.009636208727781582,-0.002062297162459769,0.010769331889929814,0.002347391128882617,-0.009282870266794925,-0.011330808723019073,-0.007510320942666942,0.014772530816051246,0.008067472992259461,-0.004361886254647257,-0.015461317015696707,-0.012120260638127638,-0.0031746639383697928,-0.007723667451678309,-0.0034067129314671006,0.0029778100532617605,-0.0039022225859289376,-0.0034213324134106764,0.0027551077523025533,0.012867367674623587,-0.010885888244414756,0.0034687630247008383,0.014504412897496682,-0.015242839140287331,0.005596502502867074,-0.0004017578911312998,-0.00863471290121385,0.012037499140465452,-0.011214850338767918,0.0020075898077250715,-0.00968425574186271,0.0015687723741495477,0.006536249268391383,0.0036494539685874433,-0.014786671293077532,-0.007309989172881608,-0.013392782022734407,0.0013696183619774961,-0.0026607950162867884,-0.012836003039123505,-0.01225119301461721,-0.007469873417031099,-0.007228745889461367,0.006751793339444402,0.004215129890030828,0.007734953288323597,-0.009757451237488494,0.0016850189658123328,0.002360192804352814,0.01492641218593226,0.01109520665515076,-0.008947152615706326,0.0104464970877804,-0.0037571286039913485,-0.01148743770188835,0.015162630402496352,0.0018053557691057494,-0.01366382654826374,-0.006327920173509128,-0.01135298152694457,0.007707576604245512,-0.010463084414891893,0.0018595863291432993,-0.010603355398475432,0.006605773507025306,0.011032616417748713,0.0048998348130362135,0.011213693321469025,0.006666178735637643,-0.014734243701644539,0.002362105359375085,-0.00428228719378191,-0.011551601466627894,-0.014178976242334627,0.009187777427435838,0.008599001806335885,0.0036491022143014702,0.0029488038616397177,0.014598235213306904,0.00996819613625317,-0.0012234086125246998,-0.004362105636655678,0.011756976560439447,-0.003824850698766591,0.008164698540357538,-0.013482986679223739,0.009580598516106972,0.011707554307330108,-0.009147692347172963,0.004419374902446663,0.0022132249758278696,-0.012055335245554879,-0.014369908962327312,-0.001440493035092645,0.005869611992762792,0.012948647046499343,-0.004198976992724292,-0.0038131461338949887,-0.01371649487552078,-0.004010503260251735,0.0016143714250666033,0.014026268342251541,-0.014214925276042508,0.01046415980979857,0.004195747479754375,0.012054654639483783,0.01259765811111814,-0.006664557514106627,0.0006606636073087022,0.014749784307621635,-0.0022626078597388806,-0.004118120345282087,0.013655594376317363,-0.009003409211155802,-0.010785268658721408,0.012884994980248182,-0.007790629921158056,-0.010659801236669049,0.010631615971537195,0.010349987874173669,0.012361521708706722,0.006333028569215877,0.004212979393616149,-0.008078742762819974,-0.009447548337629084,-0.007161599310920766,-0.008322501477683854,0.007245946705799762,0.008787450790746651,0.009019997372947272,-0.006507331721395629,0.01535568424333512,0.00831586673540979,0.015061399874104663,0.015328952565011173,0.005592618474980174,0.0010964282059033117,-0.006243446457099216,-0.0053633236845792645,-0.007750670653771535,0.005358372044950224,-0.003787360761322106,-0.007527080150189332,0.010478447820394279,-0.005726501005782859,-0.009575649133791813,0.0036940901645362775,0.004234682335703861,0.008760094193825431,-0.006429859053156826,0.004067081839620377,0.00973382931161932,0.012242364405918967,0.008718955519177507,-0.01178577873325556,0.005369785182019266,-0.0026138907490719267,0.011747910096403403,0.013884395001121229,0.015028941329746727,0.014844548185138189,-0.011822539297564001,0.007812636832944773,0.015609779147890468,-0.0037784374155344982,-0.013227156447100045,0.00889647913752194,-0.003855293683357356,0.013018560558692684,-0.00013886722394987339,-0.0034704136437778005,-0.012118028033313463,-0.00746745476531567,-0.004730265731697686,0.0036565862022290216,0.007938163894735221,-0.000569918007897529,0.013678739357436985,0.010919463754506083,0.014007686702035931,-0.0021399797913025966,0.007242652108110398,0.010503228199876626,-0.0013161519141935661,-0.015012141577155733,-0.0066200068060935265,-0.009382745894805589,0.007242948909792504,0.012581997788330464,-0.0017459578569291381,-0.0012961539737269927,-0.011790373717609604,0.00920028279835397,0.008551122732422482,-0.009363413512171015,-0.005469003597837613,0.006838518706936879,-0.0055988753783943745,-0.0007069829904279672,0.015428065194451255,-0.009668264204912923,0.013072834132296159,-0.006632375697007704,0.005506395703125125,0.007429808676781325,-0.0028920812216204454,-0.002817746632820209,-0.0018315214348848773,-0.0068854150328089316,-0.01207380142195115,0.011021374277829718,0.004481482117449087,-0.012288866202260287,-0.008678662638737896,-0.0110386558023906,-0.0011526130109733856,-0.0029828272329521996,0.004712141536172925,0.008635165415266731,0.00419817868156476,0.00011089520955397808,-0.0017303926658625672,0.006967445900052528,-0.00395495639288182,-0.008051956665955935,-0.008526574356164579,0.0032621487895235154,0.012403603279709359,-0.012477952412520567,0.011756732919405738,0.0010337499927004466,-0.012389001746705871,0.010359766751251272,0.014762103237035612,0.009112185464036134,0.01027243758887528,-0.011337601877911632,0.011585398080394285,-0.006192880778287144,-0.00819153134213995,0.009790440457375187,0.0017182329844935736,0.00373991809528847,0.0037198505346405716,-0.006295075651759362,-0.00855047656405715,0.0015278987035972809,-0.008783436222472994,-0.0033706112324043656,0.007047368425645465,-0.005867792258251965,0.010951629917066077,-0.012597882268224898,-0.013295020298851688,0.0038665183516111146,0.00495701538980238,-0.006378970196819381,0.006069779184172994,-0.004382538864750436,0.002568784188503103,-0.013884860693951239,0.013209113597260545,0.0010346486471590997,0.003906127439894075,0.002649350336464216,0.012632184808988648,0.0036537590002943023,0.004786622930062569,-0.00017895262024181235,0.004817655539933616,0.0031768798162505954,0.013894427107702043,-0.005758106694252228,-0.015512609759699102,0.011649779700527916,0.006413837680515483,0.014180357300499737,0.004662885584543204,0.005966197143188939,-0.009035699242735569,0.00872015047204103,0.002083086481914676,-0.01402483300332089,-0.0007443948174080083,0.0027093065282951315,-0.007794564441242154,-0.0054512342657670465,0.010486373875537327,-0.004595497213510536,0.009224040853999117,0.011438305692521113,-0.012292947233581434,-0.004914473882816489,0.012697249094509047,0.000510304481528407,0.007632550156026017,0.013565618285179153,0.001433651926650438,-0.012029067933529407,0.0010728964547415884,0.006055938590933091,0.011159505132806703,-0.012436659809462274,0.00441869779490945,0.0006839209853838624,-0.002212839846003664,-0.00927007274217544,0.008230401657418982,0.014785417403989209,0.010288893858386564,-0.013739532826088547,0.011179088917333112,-0.0052271294763073205,-0.004877166220246924,-0.013329914273228789,0.009786258833256165,0.005732644656126124,0.011943810319230107,0.007200399844371489,-0.003170916483210943,0.010767103709737741,0.011250700129365365,0.01403711584252294,-0.006844748963297665,0.008446946656718878,0.005789536732724775,0.011375668977963237,-0.008952646470495002,0.014027229177502584,-0.0018229560616782568,0.011782106762755446,0.014912141679239838,-0.007320850896325056,-0.0053521095286811725,0.009551964743622257,0.004852136893615331,0.0019551748050030855,0.01051922810950721,-0.011125340667365799,-0.013599627975454099,0.0009622668356352657,-0.010494181381036811,0.013414811797292616,-0.011339086792291769,-0.001221427044492164,-0.015444107301780606,-0.014166815612396438,0.0150943035340531,0.011317153613454974,0.0025795221919946362,0.009533321536778223,0.0007033245361041558,-0.014331465214775563,0.012301176692028022,-0.009550207375542012,-0.013601680246636681,-0.003089304232191687,0.005658660238392902,-0.011301327334562065,-0.006537760473015925,-0.003554442135414917,0.012111492536700293,0.005690532320847843,-0.002456300971910127,-0.0061417268501576874,0.015570079025124643,0.00834013278497139,0.009487769005108834,-0.0021797838043791373,-0.013644988845175735,-0.006820917689870597,0.009643156398109073,-0.010198640490136836,0.01125426588412776,0.007806108888271608,0.002267253943637148,-0.00711144661786688,0.008301121917345774,-0.006794704740747379,-0.004997347491562415,0.011120830504742555,0.014018796509238138,-0.013512251616096614,0.002592048132201267,-0.006821148272874122,0.012212666788732285,-0.001088349926657052,-0.004706638703431045,-0.005404730482383727,-0.006557145957802511,-0.006309201286314747,-0.005826356375870579,0.0006767260193188823,-0.005469696761819343,0.014313463341622295,0.0019541717430443077,0.013501031999342512,0.01128226138571798,-0.0055740593561136205,-0.007858566708640592,-0.00441193908126726,0.0022496466835372937,-0.0075244308047244385,0.006093742704783318,-0.0025108911556668695,-0.015250656310981079,0.01529934895532361,0.008993266227388112,0.0039862890474644565,0.00887643570808291,-0.010305803706114582,-0.009372003697727886,-0.006751806617259215,0.0007472350018625749,-0.009596427398164055,0.006849781466720269,0.011288745019903425,-0.0071138390776588276,-0.011224335430295166,0.00644100279375406,0.00027398791960609944,-0.012706534902698068,-0.012795907379029466,0.0078232078584398,0.01153543405437733,0.008957320052802174,0.013972262883952168,0.00778700235263706,-0.015249656294411964,0.01273673130145448,0.009198849958180485,0.014873635909657158,-0.006360202143542007,-0.007966498547038084,0.009245611427022671,-0.006807680244419332,0.0005845921877347705,-0.011803435994686869,-0.002582242037301386,0.0005121770770149976,-0.01002522940505575,-0.013271062677913188,0.0034379764014937676,0.00462438195068943,0.002547016870623052,-0.008945371545021952,0.004775862434062153,-0.006545691805941507,0.015322216920558893,-0.011984097894872744,0.010283583416223804,-0.007901001751768583,-0.011238004631447623,-0.011547612994515098,0.006504684724520846,0.0012662920601920757,-0.014517515201624386,-0.0021659547053091664,-0.008645282798597862,-0.0018511224799744389,0.007177091575749979,0.008569600457324526,0.0060090732664946425,0.001852004422864699,0.003502689845661742,0.002775917227916421,0.014141908252480958,-0.007700284076576868,0.0045548389289826186,0.010415269684155747,0.010738584550198597,0.0028805542830491124,0.014888818258619648,0.013094071636159103,-0.003486148092701362,-0.014072247910930948,0.010717411528906488,0.0004438845733126147,-0.011609369289340147,-0.0033469189597755654,0.015485569309271838,0.01128459890173818,0.01327019197994542,-0.013584858038145759,0.01159569230221345,0.010241834350138566,-0.006242328984802113,-0.0011502383642947797,0.012884328917933216,0.015020788674860397,0.010595309148317855,0.013070920784740148,-0.0010241819045692935,-0.008524241607622194,0.014857582924498808,-0.006539667099333183,0.014717770715665435,-0.0011353330881808468,0.0003683488319061422,-0.012111549427093065,0.00674294244789151,-0.003564695434917397,0.004322543581687589,0.003843412550262843,0.014563311219201146,-0.011992599986636775,-0.002575066160264875,-0.011605734234552394,0.003886063834311289,0.01336837187022618,0.014696094729163837,0.004456125043704209,0.005354135145227815,-0.0039798834179862776,-0.008722706954447962,-0.0023930494199821788,0.010572703040020285,0.010120309970270684,-0.011588746040015606,-0.001647261836067157,0.006002698633891489,0.004665788797367624,-0.011881401077744443,0.0023338314668576304,0.008917262617058188,-0.012387776052637491,0.0018601570201593441,-0.0021859998578002693,0.007846593706979332,-0.007585106955895194,0.0010453983372607188,-0.014460886237644983,0.014088478517186781,0.005738731724523428,-0.010571787845459684,0.014493098248787476,0.010932885496198273,0.009940703712772229,0.0036845492006989944,0.009097778707644624,-0.005741560106866977,0.01168033027519741,0.005122784765175751,0.00795973230802453,0.01544206734074018,0.013202070184398132,0.007492717516584445,0.010154991811605816,-0.011518052720118174,-0.0010228272507464865,0.00370983361917172,-0.010683839592553486,-0.007097362376682039,-0.000664736945737137,-0.008025760011435693,0.004106588085941502,-0.01537172541476509,0.014236305963347375,0.005010231769045467,-0.0025635518667438233,0.0036994496057920455,-0.011151948354835801,-0.00051455262384641,0.0007436337315294833,0.013686079521212542,0.010786373939253042,0.006390501612264371,0.008589568817714003,0.005383342654281493,-0.006400879234127091,-0.012688466813965536,-0.010058119964119174,-3.403577662108859e-05,-0.014293598577547799,-0.010432534299263961,0.013130995215903402,0.004626645055966317,-0.010768078185499508,0.00857426161352113,0.010752145199490533,-0.011524131460657665,-0.006291698001256188,-0.013832208513892004,-0.002163941497142323,-0.013557628421382903,-0.004792637331450071,-0.003353652468972592,0.0010740045817673703,0.012923220982446977,0.007522274248566149,-0.0015305531123804457,-0.011786134133285608,0.006641991488377567,-0.005947456254285822,-0.015439641283414577,-0.004250360468789655,-0.010757288994160081,-0.012794144982166165,-0.007908789070474626,0.013055860410475257,0.002427666255668457,0.011751711482579766,0.001404332152035212,-0.011473012395601275,-0.0008091972209109365,-0.0035670416266426405,-0.010960083769150364,0.0038584781090457883,-0.008644342515033088,0.006681030594548977,-1.2410236940599978e-05,-0.0043931293137086,-0.013580844864744448,-0.00729981107077118,-0.006865360392358567,-0.012326390766581714,0.00986045981394322,-0.01521242990824527,0.0059552691539719455,-0.0018513200134182284,0.013410467456613593,0.000539785537294616,0.007840939643405365,0.00536600514473878,0.010320905233302341,-0.014756378241940662,0.0007049871715319664,0.006146466348154186,0.008757445519388597,-0.009660641380986521,0.006039418905888119,0.0075394286652349235,-0.0010263810124817828,0.011166974488347376,0.0060839001044742345,0.01488126974389719,0.0028244224045917456,0.01488060935329609,-0.010389327181481178,-0.014220396835316371,-0.004153075158440201,0.014996914981087139,-0.009557233955828713,-0.0010886349568248084,-0.009384934923289321,-0.004588046040911585,-0.006776107039883909,0.004386394503286782,-0.01009575255723133,0.004801168723040258,0.002291180063855369,-0.015321477988059915,-0.005723029236702235,-0.002692595482824224,-0.01256855230362779,-0.012348617690121466,-0.0037460361021834504,-0.010154072448176066,0.011230225656603192,-0.011429320846954787,0.014441599950732915,0.008298198859386728,0.013482355550004186,0.005122494623002873,-0.0017711839757407234,-0.004105267691529819,0.008167110332920086,0.0038060171925236863,0.0071620460690875395,-0.005015809434252703,0.014732801689553827,-0.0018961640026009183,-0.013794370114546463,-0.00025641533796620306,-0.010032328453193986,0.011662310937570732,0.015067248653793944,0.009379457735938193,-0.004307069541428923,0.013309396818214168,0.014901374382881676,-0.0013575979094562658,0.0018494466276186526,0.006311912601311684,0.007818841677897419,0.0022848207387960555,-0.0051060138272430895,0.01381431858669404,-0.003479510944688031,-0.0034930783122458404,-0.006882553271192273,0.014985135047359606,0.004887472975873528,-0.0008224305353759266,0.014530609209311207
0.1450079384809092,0.002043289438486924,0.004635651013663956,0.014122213385578609,-0.009224242389219952,-0.0002872146465885371,-0.008138205361037761,-0.014334575827320565,-0.0029518705663488277,-0.014406636124540597,-0.007615357178171453,0.013671098512009514,0.007227164268294513,5.057070080888293e-06,0.005840157369991897,0.007528050824118931,0.01409452671139521,0.0052853568317854475,-0.011533637422627686,0.0028205934287325388,-0.0014972589961623761,-0.01555704039838069,0.008311350102657468,-0.003494602936089962,0.008821850287595724,0.0015856926382498727,-0.01499572657630354,0.014367681887477175,-0.009287033362189185,-0.013708086692957762,0.012118695320361281,0.009945120457305442,-0.010288658256960147,-0.004147723680491211,-0.004011189988116462,0.006307544692575884,-0.002494723555839795,-0.012825831152207038,-0.0030476725473083076,-0.007210905862301265,0.01252546501838702,0.013039284653664673,-0.0076569515021710395,-0.014370372786985334,0.014917169976497804,-0.0007685608221005592,0.006943488467059337,-0.0038680374303731654,0.0015519285478808181,0.015294343007385889,0.006532603441984308,0.014821017080956591,0.008666063190654692,0.0017548161949917512,-0.010714702424781695,-0.009595083318787584,-0.004174109024870629,0.01311446622044669,0.013116173890414855,0.0036534656216940797,-0.011714835662340599,-0.010441561826395402,-0.0070523136108153715,-0.006895792959267896,0.013056269912161238,0.010221727344489052,-0.006787894007474031,-0.011353549772443676,0.0030470730899835735,0.0029265454256739293,0.011507709492104778,0.00877026871337953,-0.0024088621942927706,0.0012612992955460013,-0.004292056855626822,0.0031836997089429477,0.004915171629622021,-0.009941160460255068,-0.015365042401225534,0.0012118068477076534,0.014336277839518269,-0.003296249371105321,0.0025271688116860827,0.014909743370870393,-0.014946879069239572,-0.009536033721125829,-0.010935805013691725,-0.013522151342078067,-0.005984570651114046,-0.004255844320441727,0.010158961750127215,0.009752097216958956,0.010483902049816838,-0.0023517429431792296,-0.008569280489358466,-0.00527723958940798,-0.008277890735377158,-0.013034239901445758,0.010348709276662527,-0.0007758380985840099,0.013992722124539603,0.006638274339307727,0.0048039927119203595,0.0034442231926268066,0.009146149893614904,0.003124360538605965,-0.011251914352395365,-0.011709650645156135,-0.01084916656824705,0.013565991025221762,0.015137429391843572,0.0029794203159865043,-0.008957271870587633,-0.003811141353763585,-0.012890470068901073,-0.011846986772893267,-0.007660226673258906,-0.005560225348021721,-0.01535665824452994,0.01174540576930163,-0.012135568002744276,-0.0004924817174704436,-0.008167293898254747,0.011059477262545588,-0.0033624744105655857,-0.010989773746653341,0.01178768877405368,-0.005538860768886808,0.010174812665936554,0.0023261219042434306,0.009379066223579521,-0.003362969298935304,0.009358113610445463,-0.008542659290682337,0.007227747528270052,0.010435880645210283,0.0017682686366067742,-0.011306005643028368,-0.00853928912536682,-0.011647711104532374,-0.006769671199238863,0.0058624028722414,0.004814048931936571,-0.0007189471242768676,0.0001526686343196748,-0.014998559404288816,-0.014512169934111498,-0.014442379900087132,-0.014889852950510325,0.012824583956003225,-0.011448600003865873,-0.006559993210594035,-0.004327998449705443,-0.0008812313894303835,-0.005739078109876811,0.01338869204711082,-0.007242268906867726,-0.011812400375060525,0.000779903886331243,-0.0009093404849529127,0.00900566090949315,-0.0018251130143118847,-0.012220137875169741,0.012357228835870804,-0.0045667607180653255,0.006921915014837635,-0.00603789921544964,-0.006049929985643698,0.014635318852722113,-0.009097637302828202,0.013834562005471021,-0.004788042982596205,-0.007923810686036648,-0.0022509524520930198,-0.001607041866228301,0.008337110323951742,-0.003938647413452252,-0.00229085289214959,-0.0012476732286524628,-0.01228474857620366,-0.012123116059514993,-0.01009645722502392,-0.0003231997418961831,-0.011635955851148686,-0.0004213132686674975,0.005873118049971815,-0.004333239215968218,0.006731139754967381,-0.01059581367893606,-0.008298536573516098,-0.013624672497773552,-0.012870530193633076,0.004610527913329339,-0.0056385943925219145,0.010654854693752436,-0.002226062330074545,0.013636753089246233,-0.014354229429134661,0.0054414135875564575,0.0057061644729244285,0.0019815741075832095,-0.00607351995133671,-0.012669324791046415,-0.004455767599095297,-0.0011331441107983523,0.008276963374990787,0.011879248202409053,0.0019331193190813556,-0.01350632163663399,0.014466767567767175,-0.013335890452352589,0.012437935883188814,-0.0017061765812072596,0.011713249208289454,-0.008480623876026435,-0.00520440682136027,-0.009701583313099487,-0.010266926414919011,0.002630202989085957,0.002972248909300923,0.01436933003854365,0.004073750315788119,-0.014201897728531601,0.009025639393459971,0.002306845430491533,0.00566170248845942,-0.01557862613072682,0.006384789051699227,-0.007775464528687243,-0.005814257825409237,0.0017282725917005734,-0.003790425300260934,-0.013007453884503906,-0.011772440455698373,0.006509827006228184,0.0113085935971424,0.007024486968672118,0.0018386087559547487,-0.011070497171378858,0.012982954526577759,-0.0019369072570813543,-0.010924475587934936,-0.004510619468505537,0.0072849133332484745,0.003112294136164647,0.0028223546428189257,0.004399634548102157,0.0043248897993038125,0.0003701145599289517,-0.007871621651352169,-0.0011073785369154106,0.014732331059884949,-0.011412058857353073,0.006662567619970937,-0.003649617333965134,-0.0065898500837950555,-0.0010756088050924463,0.010479606174986632,0.004984872541294899,-0.014521595646800299,-0.007886845488412422,0.0021780146445855957,0.00175237675455657,-0.013341849237428677,-0.002233335963076514,-0.005538667844290669,-0.004773886377453112,0.009231777899244849,0.007628326669269488,0.013185182563304403,0.012875412717352545,0.011324669232151731,0.008315126423224174,0.01070540381513237,-0.012642385978094771,-0.0030377861530620255,0.009795300347379663,0.013862220640102754,0.014387868470928385,-0.007316310410186749,0.013415210926348873,0.007082993821406192,-0.0007151211212840583,-0.012849512014395399,-0.01266970193836308,-0.014092493695039131,0.001930991633389615,0.015273587354043543,-0.003632644108675226,-0.012335530492156587,0.007542789065875102,-0.0032419336060440784,-0.014509673993509904,0.004303619917726771,0.009989709294346782,-0.012578217775877368,0.014334736837129738,0.014666385375548735,-0.006374034504876794,-0.012464454838259045,-0.008660254674586487,-0.0019008598246100829,-0.001238611397911496,0.005356741686426598,-0.013246916864948836,0.007166025397927718,0.014863506934244462,-0.007372097521399376,0.0031281537736886703,-0.010333889244634426,-0.013247997624661258,0.0016724329199628123,0.0035532922547785624,-0.0004510608266701799,0.01297997527467341,-0.0036920463984119987,-0.002993660189392962,0.00337949953419589,0.008156579862702008,0.0033963234820451778,0.011529891559246424,0.0019808377522120175,0.011762653285880581,-0.015086733141996277,-0.014992081452463831,0.0028736194619984508,-0.012776143860719118,-0.010659218537878958,-0.0048958808169155855,-0.0018375090847299533,0.009336509557370299,0.0072403736004763505,-0.015444324543184243,-0.010556519832220432,-0.009999236058228857,-0.013082186632342774,-0.009072574585573437,0.015341946130009072,0.0017193929660572066,0.01010360723478904,-0.009877475252758828,-0.004096775225713875,-0.007295614038565025,-0.010638460531751485,-0.014611311031249515,0.004753797428321872,-0.007627497398874913,-0.015263115870775428,0.008013101796800617,0.012749004317228797,0.0038560275304697633,-0.003981954356506244,0.008387224070683142,-0.015327198700267438,0.007974102523792211,0.004657989349579467,0.00495183112837206,-0.011852824360747156,-0.007407968433452566,-0.005594686102107758,0.012912573254075733,0.01333805353177053,0.0005298402181287375,-0.0044744300855879375,0.009394213244938207,0.01157009391979457,0.006273266011417387,-0.010218201687904355,-0.008696976714765551,-0.010009838215798247,0.011754415772971576,-0.01558660822933194,-0.011515400814216547,0.0021649007964555725,0.005556693586817027,-0.003998623377579107,0.011767273749848092,0.004452716171203429,-0.01160244319019868,0.012255304923617961,-0.01139750044134788,-0.012380176414438601,0.006890454136717013,0.015440837973470525,-0.0020026087222539436,0.015020707724664187,0.002308354993893036,-0.004120469227680158,-0.001469787001855849,-0.0025714940202374408,-0.014119432294045848,0.01122381020428059,-0.010565369240037249,-0.0005027311405027372,0.011176441517283316,-0.013825997704118902,0.00535022808790531,-0.0017135890015327233,-0.00678599320055983,0.008062286842280306,-0.011426574384784987,-0.013244582433350752,0.01545976422977673,-0.0017831961268148823,0.005967026749661857,0.01032087783260308,0.003893958785627965,0.009772467434117783,0.0030778276209376676,-0.009306022103799279,-0.010582306467432832,-0.0007466226451832841,-0.009357539589526745,-0.008022199729073781,0.009548788005905341,0.013596613726863348,0.004809677485106564,0.012327498753359412,0.007355461408139016,0.006416616763148475,-0.002605387391047532,-0.012634088024145462,0.005777268360572404,0.0014175258450620266,0.0019729644036581284,0.002848585824755976,0.00831732228973666,0.0025633131859621565,-0.009963934144574596,-0.012676930990133606,-0.009559469667480613,-0.011262734054668239,0.014293564309262069,0.008711071594298965,-0.005066630655680575,0.009517844257275237,0.014178974727325083,-0.012221460777643037,-0.007297305274244572,0.0041900089860346205,0.010506268790609508,0.0011779132515926868,0.005811764820638301,-0.008553853903709104,0.0011319741399781307,0.015040519491917193,0.005372366954049211,-0.01179701312943486,-0.011347835129851838,0.013932570968942053,-0.0047051004726350355,0.010938448250674741,-0.0002271365063017984,-0.000583826834103178,0.006291867900329085,0.00985025304892596,-0.006098333515114511,-0.003652870289446327,0.005449793380360092,0.00590102109664796,-0.0029014197559909215,-0.013331953971517253,-0.009474810723297474,0.011458585362644203,0.006933539810926096,-0.005229399348639141,-0.01111650251011493,-0.006685472184808142,-0.01255815840929973,0.012047169273154773,-0.014313030357278177,0.0015535859424610741,0.002309315319985336,0.00984967016568659,-0.005757309800817827,0.005822833928345553,-0.011625915363816942,-0.0022999968664162602,-0.0068167321910597226,0.014428161762057322,0.01032298424786255,-0.009260645344863112,-0.005385778268769046,0.002351959800510721,-0.012632253673906909,0.009128648214240774,-0.008302534522462924,0.0007202744844206632,-0.0024871688777479556,-0.015205242068351863,0.005367686004777945,0.002888840123780611,-0.011017827731457173,-0.005869575134484353,0.0012133688383654112,0.002478448760692569,0.004502286958163168,-0.003943892753758574,0.013775521020042005,-0.004610412887832472,0.00026343636004337936,0.003529718554157825,-0.009427881864102962,0.009271413724115586,-0.013159310445254372,0.014438953547044796,-0.0035252992644582634,-0.005756906941843661,-0.0014005217613504012,0.014126407765082852,-0.005193116697622676,0.009957053211615257,0.010849222435493907,-0.0021587964314634146,-0.008837322194266369,-0.00010525276674888326,0.0032995135859564158,-0.013784946066588626,-0.006776698510359513,-0.014817166227254985,0.011802851110234863,-0.014173952893479499,-0.01221100956786042,-0.00704540020477366,-0.009122909152357573,-0.011232097658204411,0.01471770554242404,-0.0141505486750452,0.013829816429940266,-0.011502989923153663,0.007249179330026782,0.008776222874036933,0.008263356830990772,0.0077450808180540565,-0.013254841429098257,-0.014031089551753268,-0.011340362138651233,-0.010890264540677555,0.0015753288339196252,0.004181572372694748,0.0021766915871906274,-0.0013691002688891937,-0.001189989389295952,0.0054679321049408355,0.011277780307211181,-0.005631591889562335,-0.010776459925530852,0.014080548017595142,-0.013993210942045795,-0.006131915960596448,-0.012088066960070795,0.007514946079817449,-0.0056545129423935594,-0.0006799139458273269,-0.0017412200057566676,0.009572699104000122,-0.0008383971590557662,-0.012848400219274133,-0.0010096402211315983,-0.01560822798902349,-0.014454649840060944,0.006687198794933392,0.004538620915882911,0.007270724949823844,0.003361920594223612,0.004250596510916135,-0.013401668127383262,0.00107773969130915,-0.002609988307106504,0.012872891825028442,0.0029606328805080358,0.0041727254026522435,-0.0135920967557841,0.014380373533337293,-0.009971789647229994,-0.002054334934162773,0.005770907601398794,0.012711678994840964,-0.0007587424142673285,0.010111316961372654,-0.007902188602092727,0.012637216218691065,0.010011149013679797,0.0009347171367992922,-0.011917866822576135,-0.0006307215112270892,-0.011376691533867386,0.0024182867454723804,0.0017056300372952672,-0.010371971041536917,0.014327988531388839,0.010236452080804273,0.002460497978832292,-0.014527244459941805,0.008326287339553484,0.009882108039564103,0.005297084532433834,0.010147950702909189,0.0019542168692080197,0.00015248895869392903,0.0022272820972656336,-0.012391997008423788,0.012477160193236577,0.01056191613079532,0.014794708135396906,0.00030485382191895033,-0.009485435663188872,0.0003770189701825036,0.013596100534882607,-0.014430395959598129,-0.009210310497135152,0.007056244989157901,-0.006881896807396499,0.007891346895980148,0.0038225382524098017,-0.007412883560698778,-0.011410793073599653,-0.005499130951295277,-0.005306540372628617,-0.005604211411849469,0.0038589912099077778,-0.011857859380011816,-0.006449134343480111,0.014351073651444377,-0.010370811379920651,0.01510043707095806,0.008126183303206712,0.015121757254603383,-0.006527337323700547,-0.008426107001925826,-0.011321290257928055,-0.014683397489893571,-0.012856825254544638,-0.007072043135318697,-0.0009080446110541762,0.0036510138146143047,0.009714146660424736,0.015160727246889386,-0.014333048453007667,-0.00869820691247138,-0.009734155985974026,-0.0017768360285843783,-0.004295893878207641,0.006403621945720934,0.004210484847231223,-0.0038646549284690086,0.011813303070165464,-0.006279246512307924,0.014352358436976593,0.012121896600326351,-0.005630530660398071,-0.0031921636789587864,-0.0017009639682470067,0.011400604657986473,-0.010555134864146453,-0.0015233378400184433,0.0036795570699308597,-0.0036470199125847036,-0.010070843641682942,0.004028379302115907,-0.003038509437193339,0.0016415133969027822,-0.007179838218972379,0.002527960558845268,0.007290031027275313,0.0054809350285846825,-0.00616217312697067,-0.004399798308806109,-0.0032646893167972493,0.004133605074871295,-0.015042864738543493,0.012776885237231854,0.013848390142142435,-0.010933691518143912,-0.0020129777513493777,-0.003825421322824457,-0.006939859052709777,0.010925477341690953,0.011597128635613487,-0.00794733486890966,0.010299142582464685,-0.004464487412456718,-0.00022748679324030227,0.013922526810669817,0.00019063164017245685,0.015006823885758858,-0.012190273528506896,0.008804949627036422,0.00508921680738279,-0.009411286684137193,0.0009136383254630016,0.009295198069714166,-0.012666965665123053,-0.008270609927059525,-0.00979650369177621,-0.004693306489300601,0.013685789019491228,0.011031115991140823,0.006629535383339415,0.006193526119870601,-0.008581375089635242,0.003960320397437239,0.006318479916082111,0.010004446027534995,-0.012087909073744334,-0.005709686449181548,0.006318276726823401,-0.015127441532013172,-0.009448010622957321,-0.00839040635689495,0.0033053680305722977,0.010159732275739072,-0.0026387476119651074,0.008411173537736134,-0.006822414304972144,-0.005374872104368829,-0.003457759176086681,0.008430946499529999,0.0007804541970245042,-0.0024139283815422727,-0.003786077121770738,0.005121195713680346,-0.008431361903239471,0.011599339210949619,0.010880314156642864,0.010887618967304783,-0.011887380054617303,-0.0027339798574781485,-0.013245017595531382,-0.010080539077300534,0.009131478036070086,0.005442095425419485,0.007418196640338222,0.001749305091123858,0.004097738497900849,0.010788701923067703,0.012180280370574743,0.009376134750880973,0.012221926779071506,0.004467824005811246,0.009255930951457592,0.014894664270922554,0.01124434497244918,-0.003467309535806741,0.005950429656255224,-0.005210631947849674,-0.0024219810617857017,-0.009321947155448717,0.006988191210777553,0.0019652748117805798,-0.003579498999128152,-0.002508124298286233,-0.008389315213456944,-0.012105522981340131,0.012838171084681438,0.013503524167615272,-0.007739856284359019,-0.008505591509041243,0.005229058665262014,0.0018211855027529915,-0.0074201286544244086,0.0033020188553600123,-0.009242263714193372,-0.009080919100330084,-0.006601859931051363,-0.01059298639117652,-0.0024223090308930356,0.005483310452791362,0.01412168751756886,-0.0030359662072720027,-0.007340710759031671,0.011476997992528729,0.013563061822942136,0.002410994219721005,-0.0064042231166691575,0.006776730984803199,-0.005488971735512788,-0.005321532608782417,-0.0056118633474167255,0.006014541137481101,0.013173952605084454,0.010647146291749704,-0.01327006753661331,0.01079236933598671,0.006167413267027806
