0.03744421661839621,0.0046683634356281395,-0.009093498519827256,0.003966241521863166,-0.0034352898713811628,-0.01174096766466044,0.0057539971959416104,0.011379292741989691,-0.00525075829171389,0.00370893264880591,0.005686963611487596,-0.014282441897990827,-0.011874011887828717,-0.011609400281932053,0.006949226475291323,0.0037414817983784134,-0.0022663482579332525,-0.012225466208988688,0.014473800901134346,0.009874996221943814,-0.0015492726704704023,-0.009793395024371977,0.009129482675218622,-0.004764000560319011,-9.717144248615195e-05,0.008795390717817566,-0.009981443428501605,0.0035399821998182424,0.015409039316388425,-0.013143117651870408,0.001070769176555214,0.01519883979955387,-0.007599490633070392,0.013069626161004402,0.009314332687030958,0.00841543403873864,0.008116866249016676,0.0067226828864866105,0.010477113007192243,-0.008617837327322127,0.014987334594314262,0.0018737602257405776,0.009160520658452947,-0.00757208250034036,0.004300351013087556,0.01188262198140239,0.01414750800795922,0.011049878309718795,0.01031613060209607,0.013212843048544622,0.00990004100772749,-0.006994832996255203,-0.012030439134334214,0.014524691072287915,0.0034619941951960914,-0.010829053505631715,0.004066868546401446,0.006764347686236197,-0.005219744759530645,-0.007542379627457657,-0.010470820587924597,0.0037720902438052283,-0.014856750130816422,0.005779580981439818,0.011791252271315025,0.0077729541460918004,0.014911717895366959,-0.014487642917093417,0.0038662890473305962,-0.011552544310936812,-0.007424097374191925,0.0067679262669947705,-0.012553772904086585,0.009631901324540688,0.011249225987653114,-0.009487684870105165,-0.012748772628262024,0.004597800963364533,1.2037997991466709e-05,-0.008067244091341554,-0.0034776949685794215,0.004983244565009811,-0.005621986505338759,-0.00631824588406597,-0.0014151452043742949,0.007005344652011431,0.0039408966092627125,-0.0034579226960350963,0.0045909452916172225,0.0003353270800372481,-0.0024055988266215096,0.014055703156164367,-0.012346149436312855,0.01155290419573473,-0.0029855827493662475,0.007458934459135162,-0.001974628614088043,0.0006638225813133843,-0.009202484383469222,-0.0009215136889724578,-0.011998918144026573,0.007887564120428112,-0.006397636278331156,-0.005567031022803215,0.01174760863164988,0.008267018037652032,0.008797741674162385,0.014859704422114837,-0.01279934361785836,0.005291216097775307,0.008390435188013388,0.008667044927908815,0.011428123459006852,0.0024634902091177704,-0.011280111676626351,0.007734144985150633,0.00895990379456096,0.013656914439984492,0.0022653786681369227,0.013690652900959357,0.005418018571858779,0.0018661755810604442,-0.010524177285496122,-0.005504875415455488,-0.014473875654804031,-0.0016891216657416803,0.012398397185425361,0.00807865015254312,-0.006657145279961314,-0.009237006885279281,0.015254282910327542,-0.007719687747542637,-0.0005265955187827376,0.007918710330278557,0.010096350251346546,-0.009742020464448468,-0.006854316998899845,0.009548734473058127,-0.007796007831739865,0.01009376763983219,-0.0018422948821337944,-0.0018424646303680722,-0.002454333394992868,-0.0018264848131303371,-0.013473067371008896,-0.0020719469310088363,0.012512165753883876,0.010779987321845583,0.00402450414243358,0.009981688334145162,0.003971797662279043,0.011372504505441382,8.678155764075934e-05,-0.011276659407125503,-0.001309056519571895,-0.01088231217826508,0.0042295475384551496,-0.011746883745228464,0.010954331783966216,-3.341401438377342e-05,-0.013640402955197434,0.006540478877963871,-0.001612527104265774,0.010730764409058135,0.015019473283707133,0.0014474443000300015,0.014282696828815868,0.004045499812374641,0.00449437712707567,-0.007218104360271836,0.0019112797941492066,-0.015371122991166955,-0.0012385773746812524,-0.0022833920799591235,-0.008012104180954768,-0.004845299732507572,-0.0039458173511514,-0.0034780448534774792,-0.01164218531298573,0.009174789825645688,-0.004534635088711521,0.014935722411258592,-0.0036207972569817126,-0.012838756341471077,-0.0035735756312174688,0.006630432123570628,0.010293745580168436,-0.013174947478258888,-0.008530814506394807,-0.012736960683971756,-0.005984809249064466,-0.010943044012880212,0.01054294025893072,-0.005835425993494396,0.00024082275653552337,-0.009721428670212542,-0.013376706468181381,-0.015189208558876895,0.009727354338372712,0.014167137980267405,0.010008076270723053,0.013247106237149966,-0.0033929659577104656,-0.00195713929806177,0.015221426880757893,0.004397157228541694,0.004115498971228222,0.001734470153765835,0.0008457514256929487,-0.00629844682374476,-0.00013307301255572048,-0.010631443141200469,0.014325152517316373,0.008129430201490958,0.012673284701434634,0.0023097414477973644,0.011473740743030944,0.005111702599793219,-0.0040678282935875994,0.005743285880547589,0.005383726103278615,-0.010301041493168293,0.0070850385014146755,-0.006759045057805009,0.00027613694182694604,-0.008696575716721597,-0.00706667245883609,-0.001653557451784322,0.005987874565814765,0.011632539445699506,-0.008641652252145632,0.01459367787661231,0.0018482146346355886,-0.014407084976629056,-0.008339513745064272,-0.0035792257740041014,0.010736088131649711,-0.001057349786686483,-0.0113641682351897,-0.006036571436341695,-0.014151278757559367,-0.0010658661015630277,-0.0038270811631910635,-0.006924350015870538,-0.005749705781517727,-0.0059511555645041375,0.005150327445116175,0.01003219422635656,-0.006486272110618759,-0.0066403778744705665,-0.015336913385303495,-0.0020223997740069707,0.002629316771506192,-0.011244455334315711,0.01017915757505623,-0.0016981680255068704,-0.00442251023642507,-0.010194332396797559,-0.005228423476556275,-0.014943529019001133,-0.008089695957688676,-0.0008092039810482147,0.015563978591823933,0.009899797755134183,0.002053641756794832,0.012604151512699184,0.009711277798180937,0.012987473653718608,0.00812154437212257,-0.013052321450449834,0.009873531709752213,-0.0010667923477441423,0.014955153945049465,-0.01164042177913898,-0.002652450853223003,-0.008467537280916175,0.0035092592369633624,-0.011562265866145232,0.00878696749537781,0.009895021180051342,-0.003976643541336571,-0.014842863649813753,0.006191029743614084,0.009972145405813886,0.007958149099234474,0.014662730848475627,-0.012390540687394177,0.012492046108150896,0.00814688956965623,-0.004668371466923698,-0.01458830825096415,0.01044130706547581,-0.012403715199165204,0.0014564421806805333,0.0074137959144522135,0.011138352168716564,0.00046943005536937,-0.006200423416214836,-0.00976234454457301,-0.006007655028871595,-0.014922967975305705,-0.0011530581267514132,-0.00997968601518568,-0.013970005486390274,-0.015040606127739357,-0.004441974214270108,0.006563425157503544,-0.011267706004354349,-0.010958892465004661,-0.0010226943778424077,0.009680288194551887,0.00936730558050181,-0.012014192432429011,0.011535733796835677,0.0029265329467704935,-0.013052194948476013,0.008577226231024988,0.009620818499335042,-0.00661935119787319,0.001163492512787018,-0.0120578053892093,-0.013095734573537021,0.00864642249072736,-0.0029192933547046236,-0.0014772884146128486,-0.009745589990695898,0.011902581686977737,-0.0060044677655464816,0.012471704291313633,-0.006418295861573429,0.015478758380887287,-0.015449690309081382,0.00403829843899275,0.007156000723310006,0.001614449901792938,0.009962850199697199,-0.004227468301460122,-0.008757400717539523,0.004223462311180884,0.003419307924898687,0.0011677094702975442,0.002390774137388673,0.004735984226705005,0.0007879711699603397,0.011675862326637447,-0.006011909728006245,-0.009012290055667213,0.007881964065512918,0.012942359332243341,0.0005097376992565908,0.0007654302813965297,-0.00010270599617274172,0.004137496243198608,-0.006176585348585835,0.013041781851310667,0.007433832392537091,-0.006059183145428866,0.014614411890424403,-0.013512103303283778,-0.009902307020619564,-0.011103096969024333,-0.0056139792843165484,-0.015338407446640827,0.014861359092557333,0.009264139952375256,0.012840673277214262,-0.005813912944986687,-0.004377027541090402,0.00016978618041849734,-0.007582460419658654,-0.009871897104318067,0.004978390898245249,0.008543613364002077,-0.01002598318887525,0.010299150446610573,-0.004452261622522157,0.012907781157375746,0.010528421629564366,0.014232184111084397,0.009632046840101036,0.004886824180279338,-0.0020214502639062863,-0.012577013262865588,-0.010539797573505398,-0.012763230152468337,0.007967758153659937,-0.00373294158776103,0.010438826115989754,-0.015812444954975035,-0.00126760387504194,0.005680455396269771,0.010186745528209841,0.01347843528541929,-0.01163784667565252,-0.0032574245097857085,-0.0022104616099841872,0.011488719552117773,-0.011272933995460676,0.00332643874449536,0.005033716338451363,-0.010057567625630438,-0.01493805047321125,-0.005905180863704619,-4.374713838240156e-05,0.002301516436764205,0.012407300630321527,0.006314687314897393,0.011013221276140347,-0.0019229383498844184,-0.008186895185464425,0.002969720697983066,0.015309136708567551,-0.00024745583397852664,0.011306201220383795,0.013301044731663129,-0.01205358014747308,0.00946617292994724,-0.0037690796422253665,0.0043060756569885525,0.006512563844141558,-0.011786664026980356,-0.011349239204900115,0.007775467337962517,-0.010485301296832788,-0.009700000687241996,0.008942685105354614,-0.006248520942118408,-0.01422187681684243,0.006859433333683449,0.007110956229342259,0.0056603549361089875,-0.014969541870757917,-0.0029942924783480512,-0.014129636570853131,0.011507169103641805,-0.013542573057102571,0.0016549770447135122,-0.010661168318163971,0.006195475820960485,0.010629779832371063,-0.007567242990200235,-0.011855586942199849,-0.0040235759871128565,-0.012302197269693388,0.010664775459106044,0.0075324747614214736,0.00978682092582034,0.005725645798897081,-0.00030383463519824855,0.003972910169661614,0.004948087000286085,-0.0019842066912788025,0.001386911451495645,-0.0025038534935662013,0.0056733832386565985,-0.0045160629468371915,0.004555715055426763,-0.001518696147045331,-0.0015927889584446146,0.012628511689567986,-0.005680831211627086,0.008462150304627176,0.00958178745804295,-0.009452200770861983,0.003156913594270265,0.006163278635321152,-0.006190299316763478,-0.004845639058003101,-0.0006065364316855754,-0.0009797000594729945,-0.004490022088717517,-0.0050138995540852755,-0.01153458903917374,-0.0025481507616641613,0.011137471943845704,0.00664665920362618,0.004051307911695338,-0.005917166074298732,0.011936011316087599,-0.0008305376963513351,-0.013828286058884288,0.0004497366984026496,-0.01305875614874786,0.012895543867301672,-0.01250777915248653,0.00460863058019944,-0.0017188269357472615,0.005503486231485746,-0.012275344790378263,-0.00612352462259009,-0.0008753568327905075,-0.01357602007515906,0.005717221114149479,-0.008126544949458355,0.00943448301338304,-0.014670723059223212,-0.011702115532879663,-0.00437897113095318,-0.014873337633374173,-0.008020890825881057,-0.011253402432963537,0.004462422110019009,-0.015192519203844018,0.003548174873202682,-0.010812348241786496,0.012534836987191506,-0.006603433639842138,-0.007200251104698194,0.006133672723417784,0.011433159628136985,-0.011605432573683823,0.009785661023350822,-0.012917713840716069,0.0022792094947541417,-0.006387493436870199,-0.0001273268458885157,-0.012330548001246057,-0.009220830846898105,-0.0028759357017167112,0.004422030309438734,0.008815580386020977,-0.011404443926601922,0.002100442677286354,-0.004858178925294268,0.01495402528072069,-0.012931257064813023,0.013256619648666947,-0.01097123315074912,-0.015613654819907796,0.010369466694621292,-0.005862183255495577,0.0035289981985569606,0.015378849024562578,0.007026750512161752,-0.012392979236189032,-0.011701209536468662,-0.005583540010550681,-0.010190379002498248,0.00186593458727177,0.011121367936317449,-0.012787915119983199,0.013642334506435795,0.004492333451034532,-0.014677441428679942,-0.013634158461655175,-0.0021425415274081384,-0.00903209619482737,-0.005074489924885937,0.007053292760486473,0.002222636661961235,0.002255539992483597,-0.012778871050673286,-0.006250201316351172,-0.012470978901812703,-0.014811073186788698,0.01002388714462688,-0.008888842682686984,-0.00011662752952968279,0.009501874521388173,-0.000490729951061069,0.014471377406815873,-0.004568841160508447,-0.002529050741805934,0.007793102889466115,0.011088105305527387,-0.001858988379429452,-0.005964533552383892,0.009648600250560295,0.0033615753964379167,0.004586360202224492,0.0005324004168075149,-0.0001320321244411845,-0.012879189865327255,-0.01052831085060525,0.003681148014582255,0.013923672844532982,-0.014776995221814035,-0.007024510513786477,0.015284973739431896,-0.012152755629881344,-0.010932545884211302,-0.005220033218191855,-0.0004603591181210828,0.008080958760695811,-0.01446839797331493,-0.009732751204212676,0.01099082308717554,-3.299313624804956e-06,0.01199602242093318,0.008839168467107316,0.013606875075861103,-0.009586655699071765,-0.007235284073859559,0.005135758540027497,-0.005848889372546609,0.013700361323279975,-0.006260863306351811,-0.0018533424889346296,0.0006284587626300525,0.005006384816241857,0.010046562276685343,0.0005375592040159235,0.012804002989249507,-0.010303819914551857,0.009799811504767558,0.01376941991293591,0.006266655323569347,0.012883489032865339,-0.0018249443359387124,0.006607736677394398,-0.010568011881555716,0.00230433455403599,0.0036121200160393416,-0.007127344162867443,-0.0031818338872948936,-0.014446302552094926,-0.009527517472763963,-0.011205564186366836,0.011101525672748053,-0.011377829585657105,0.01560198749964149,-0.008600339454420475,-0.0030834406444441693,-0.010859692673511433,0.0036827477947268253,-0.01372930234133421,-0.0033099096277652354,0.0008909638770918095,0.015463435845724037,-0.004711664688579,0.010148788553346569,-0.0029693605759984827,-0.011682987729878443,-0.008037321150375608,-0.014650445842468164,0.008529755953380222,0.007541165197785248,-0.01178239515229936,0.00864097197478201,-0.015462118931858355,0.0003674221229562271,0.015593737000400293,-0.010554522563624397,0.009543658245663944,0.0024516947387361945,-0.00559574392542192,0.009644626115218952,-0.006588224841362431,0.015098840168757524,-0.0005162241489169262,0.004779339923360457,0.01513115004077529,0.00399236591207605,0.013210096168758007,0.007316888764676517,-0.015255876261845823,0.010964285515545593,0.006592917236045142,-0.015568885857085643,0.009903657966577044,0.002689857128271878,0.012984721342123069,-0.012706148874135662,0.010695860180386225,0.007534259749365802,0.011397793320047008,0.010963379889719967,-0.009760763876467505,0.003001132068020922,-0.009148128225680055,0.014112729499750721,-0.0007369576493799143,0.0005195008048461611,-0.010682374880424884,-0.008697636348199346,-0.013641881573393279,-7.607476251260056e-05,0.010170710380377758,0.012492053841051523,-0.00627432915415658,0.0006168457526784873,-0.003335294149320304,-0.004117878757607479,-0.006808314505366647,-0.004090961342185285,-0.009698859971054427,0.006279659713895517,-0.0040886114617867736,0.002606302942402918,-0.0039021569863929473,-0.008724193513389577,-0.006283343431625462,-0.001557407557185176,0.007658245916362027,-0.0012617560985205781,-0.006725634157175339,0.011353543555597092,-0.0037990352413649607,-0.010073043048516968,-0.0020200123810641887,-0.004122248772553561,-0.006510329248198776,-0.006539483773758948,-0.012560867199504354,-0.0006461323990423137,0.014464366224854041,0.0026635286495489447,-0.013309186040843418,-0.0008100472082394123,0.012865119910633492,-0.013378084267653339,-0.0029260334939036924,0.00025119141605025057,-0.0006509878435409909,-0.006823971671783003,-0.006848016928675061,-0.0020701374310732905,0.011003512460976654,-0.01276229268446997,-0.012356284683346298,-0.0028580561590068705,0.0025079702474516416,-0.008660320017143494,-0.014705756238134256,-0.009602602763576223,-0.015007545231313877,-0.006475084183595242,0.0072804670164683775,-0.007616328083491802,0.00682015812480485,0.004136161739103583,-0.008182655446599983,0.013463726495025929,0.009373000515862824,-0.010080611966470513,0.012644302938029721,0.002249262219749029,0.008169658101514357,-0.0014778588684674476,-0.0013897319628910496,-0.01552730318337496,0.013623917078293309,-0.010553425404188362,-0.0024099384343850734,0.00064223260266821,0.01240698003412326,-0.0076041820532894025,0.009397178908693026,-0.006339719187899338,-0.008401606001145161,0.00793451260201583,-0.013110757775200738,0.011390332227559963,-0.005511901316170385,-0.014426145834929408,0.008286462894186504,-0.009808325269508252,0.011471253514906896,-0.004089737584920462,0.0047620824278676414,-0.012886964247552039,0.011009619464633268,-0.002553644420367221,0.008287994527048094,-0.012702604804540179,-0.009324226745029245,-0.0030946911813299442,-0.009425765750143221,0.0022899000446574037,0.002173941470387221,0.005759565905428275,-0.000367749656004699,-0.004716249486435158,-0.012024769663483082,0.0028354625304481207,-0.014698835020436854,0.006256470775158805,-0.009872631290599676,-0.004507768151620108,-0.0038300564772668737,-5.552617044425959e-05,0.004764657403962053,-0.00786085097524462,-0.01211539429141845,-0.011672459398607764
-0.21623843863660708,0.013362661328117264,-0.0022235577471500373,-0.006971060378334958,-0.0066708224051274315,-0.014716642710490717,-0.004380370048483927,0.006972805221448074,-0.008829285058445123,-0.013038987194535664,-0.007297112193758112,-0.00424962283054655,0.006491306683601823,-0.002386158904364475,0.0004088315816081628,0.012385693464226497,-0.013341527252062058,0.0013845497664890828,-0.010451101537726434,-0.001118470138866047,-0.00390834444363564,-0.005465635356529511,0.015222644829896534,-0.01348517962608007,-0.008864638063968557,-0.008880002963187198,-0.0074602434012957936,0.010487340683490325,-0.012221193811791927,-0.011805710803489054,0.012289986873577914,-0.012291694726949538,0.012041780823543256,-0.01540475539109375,-0.005232766708238416,0.007568208947151506,-0.010767765692594331,-0.0011011647688288252,0.010721075188859477,-0.004076375773228329,0.01198276143687924,-0.006780496140080718,0.007868815701456883,-0.012190820243922332,-0.0036084882249198293,0.003469520130519252,-0.00018227601818415068,-0.005807217988723381,-0.012374687480948898,-0.0008329749404700736,-0.013246296808590016,0.010557149889089401,0.013088023942961172,0.007529097252932049,-0.004832736562085004,0.0067742145411771315,0.011806103646099284,-0.0032769548166611748,0.012242008599135708,-0.015027776402249862,-0.01070453043851255,0.0012784561652188463,-0.002970157370878551,-0.0064236990733259995,-0.015161281474337644,0.004315866756103241,0.00039493452500015055,-0.010455494027874514,-0.0012638019793642236,-0.007232803597917958,-0.01557732609453314,-0.014961251820087392,0.007770569556062586,0.0029677402347052795,0.005577893881280979,-0.00414738942389117,0.00018545115818587726,0.007172422224886694,0.012740105730457852,-0.013890473362917339,0.01462070407313195,0.0006579295886071958,-0.00219699302767035,-0.012418765439734605,0.01480912485306015,-0.0035107516668868056,0.009328458655402213,-0.004973105616955402,0.005312062835063611,-0.009819027729790576,0.01080215917962057,-0.01075469995307098,-0.006432406763125557,0.004462051599696291,-0.015614321337357118,-0.010553338577678099,0.013953053847568397,0.00405116200705875,-0.004779881612640299,-0.0104209616551336,-0.005299876343640028,-0.014615967574929556,0.00412339161203314,-0.002507516646297746,0.009948273056994195,0.009609108561383438,-0.010275604699904815,0.0053271426054871986,0.01049593910097062,-0.0025722286003093085,0.004809595522580493,0.011967243500873803,0.0037767218509572806,0.00022513465125476376,-0.005076538328252684,-0.006833382619875351,-0.002921534247877059,0.009128746273058395,-0.003754907822171031,0.0009569581161766004,-0.0031111695548026765,-0.013282819776156814,-0.008219114511299037,0.000462719563887503,-0.0010712548985593283,0.005056619592142937,0.011469403144332296,0.011449577315880154,0.010992544444379887,0.012150689941048502,0.008098664930820884,0.00016992971146665217,-0.00814669989870652,0.006533578910321785,0.0013502452031874598,-0.002486753135599512,0.015525766793824457,-0.00980973146175275,-0.008957600046185274,0.01500319914375749,0.008450161789905913,0.012026822195233634,0.0014583061189999101,0.00733957677408759,0.006180816328590064,0.012869229157888629,-0.0022252451322915257,0.013552923359183879,0.01098489166225055,-0.013652264147356059,0.009527758295894723,-0.0029689224142824995,-0.0035255054606879548,0.011912507197208128,0.0012522349151922081,-0.009869208627771218,0.013962341110316825,0.011055341073709122,-0.006004308762922496,0.013121973769045801,-0.0073458927821857915,-0.014547783190049738,0.003628571975841547,-0.009832749286495735,0.013656054016536114,0.009383785258190516,0.007461030983857763,0.011314770170734137,-0.0036067461258889287,0.007377407087009787,0.011625565459469488,0.0017386594688156357,-0.0120160236207397,0.004538602611581833,0.0016087243166108406,-0.009136624903286109,-0.011068673437156836,-0.0008635639205175037,-0.003680487013298074,-0.007888235839528166,-0.006695347181091858,0.014522704433982698,-0.0031159407032973485,0.0047514505114474165,0.011364754330125106,-0.009129964288590472,-0.013761701428523735,-0.002656640045969671,-0.015076068703999718,0.012232449740394988,0.004963566277476305,-0.014397747312395296,-0.011422217549870523,0.010486064882456434,0.00013409718472506826,0.00884602493827695,-0.011665586394617428,0.014371107065254744,0.0035542350157607705,-0.010979976831556649,0.001733746318222082,-0.008086383537348567,0.011932691051875385,0.010478123392116907,0.0007183198698067078,-0.008919949688742695,-0.012633743302583232,0.0016068107432199788,0.00817505254412091,0.01288472734797656,0.00209712353556514,0.0021941426915769273,0.01449284977691815,0.00947520130951196,0.0033268314750031676,0.01172907774337818,0.004535714777180445,-0.0075583802679632765,-0.004980639792514764,0.0029814710784236177,0.011073356134122948,-0.006167214571625945,0.0025004017872763858,-0.0064917325912160866,-0.006144967547506642,0.002561690097856756,0.009377144845992336,0.012222375786104675,0.008916867441655152,0.011308880391902427,-0.008129745882688232,0.014569562268643282,0.009012792887165326,0.014230357776140925,0.0044917989815373115,-0.0036333044078003703,-0.006428956657281652,-0.0011405724155897669,-0.010424968123949847,-0.008444924987194097,-0.014607880525905823,0.009648173231422138,0.002471240385503129,-0.01402464751977514,0.002130481093455802,0.006252966165431112,-0.004230818168141533,0.014124019488442777,0.013174088869937754,-0.008826466548291244,0.005470560193835992,0.003581920228156798,0.003219986739839323,0.013719638958877452,0.013240295629150373,-0.010076969279685113,-0.011903734953761846,0.015140016586317213,-0.009957459303749517,0.0013337355102969219,0.015143344720892321,-0.0005945456701753442,-0.002120629562096684,-0.0007845212864225036,0.0012237102769759138,-0.001042491319242514,-0.0003786532327150656,-0.00819209283067901,-0.007330222578286513,-0.004516262713951152,0.014575300617745545,-0.010314361617515696,-0.003640889524092354,0.008390116399267074,-0.015573901592831674,-0.00256861699296973,-0.01390221387450457,0.009572725917928238,0.01317156985894365,0.00028525844436932957,0.00039841125220719045,-0.010355698587598605,0.013006526425068065,-0.01338088729409587,-0.013963175107289571,0.013757162297572931,0.0063603500482300665,0.010905697334446535,-0.007148254706633678,0.010704483368627126,-0.010825843460227993,-0.013032113276746554,-0.012252854494830542,0.007993096473656435,0.002694155605526438,0.002666783808924846,0.014855980434920021,0.014399482166915101,-0.014060731325228556,0.0031617259319761323,-0.0014809711149248138,-0.007237095396174866,-0.010371721280935428,-0.009696647270678215,0.006203923967004157,-0.0012482335970883697,-0.007927425578123763,0.013431849810380543,0.01396570050461957,-0.01005217183660434,-0.01184822210480611,-0.0007475213181193825,-0.009477767363009256,-0.014314939559795684,-0.002837080503580995,-0.01096143478104446,0.015444185633239089,-0.012480032498466301,0.007674379067029658,0.0026994566439348423,0.0019217957416732614,0.006865608325276062,-0.005251002423452989,0.001014603114596696,0.008739961272144506,0.013279039688867008,0.004555130591324862,-0.01507709759530057,-0.009848055411585514,0.002824349829327562,0.009971681057461719,-0.003397172407262186,0.009488930993637398,-0.0066128403079850975,0.008336891100149554,0.0003050785536610201,-0.0007121075687026579,0.014098364844679398,-0.00950640324579365,0.006238185637554242,-0.0026662489714292595,-0.006426457494947975,0.001066500130952417,0.014049041192718107,-0.008558034528055158,0.002543059303604246,-0.014146211255755957,0.0006321256986860507,0.00478949277785163,-0.015387945954011738,0.009074171380746291,0.0008984224871521757,0.01353704737200261,0.015518366708338727,-0.006886540241845644,-0.013130621274908078,-0.011978086188791332,-0.002432472242638574,-0.006261351490233068,-0.009270166657228879,-0.00481028372177076,-0.008449719229988776,-0.008934866754880939,-0.0028922469654454885,-0.010457600757334075,0.0008398625229931109,-0.003916233576635432,-0.0006651131710878506,0.012317629771869641,0.012299194884768355,-0.005229511806763624,0.006830392193524812,0.014261119887213333,0.0035704493948687174,-0.00522576244712639,0.014956293896022311,0.002462325726904961,0.0027860708526139463,-0.014119872764775741,0.002640974767115046,-0.005925718301691883,0.001667196135366058,-0.0014831032869881688,0.0016537731818645762,-0.00853813340284576,-0.00800282391114776,-0.00570871363166478,0.009160932571848284,0.010163465125654754,-0.002843598492020684,-0.009638430284149044,0.0026710272768382844,-0.012859239752955904,0.015165075612517256,-0.005359786336575148,-0.01517935066271377,0.002532823048949147,-0.012772661017172962,-0.010665071072022272,-0.00526375655097322,0.003864241819436117,-0.0033988941050457633,-0.004685592327318341,-0.014225549497070451,0.0027899649891821587,-0.013493591073435125,0.0071314612425441536,-6.284547129440862e-05,0.01151019638123391,0.003942904301776653,0.010653171365684798,-0.00795923888954999,0.00867615307223131,0.0069396740185716545,-0.0023080371905352982,0.003439867553164295,-0.0022618014761727583,0.012896016559797881,0.004955154820429325,-0.009921405887289202,-0.010176642684012145,0.003206384049935559,-0.013288340451279884,0.004885998748679312,-0.014651931216964901,-0.008901768025548307,0.010292725564854027,0.013723079344159759,-0.014224705968323939,0.0022086548887005897,-0.0038147328847964526,-0.013616851840559028,0.008107610936583479,0.009746157294026482,0.010024886680522774,-0.01405693066966118,-0.0029306932293958615,-0.0024198148165769616,-0.013201671150149117,0.011308119110832175,-0.005053302786241869,-1.537886794024043e-05,0.006207624938280691,-0.0012837438191774797,0.0023058487130110453,-0.0018875219392318968,-0.0037482662199383385,0.005965852413506993,-0.0002717904896468032,-0.013632081377710506,-0.005382608741652441,0.01311246826215268,-0.004562692313189523,0.013735737065088023,-0.012615544976528698,0.0007086241962760628,0.004899989700549081,-0.009986471143752947,-0.007950145086759161,-0.009463621603854885,0.014858736880067652,-0.0021053984505411023,0.011895876904941323,0.0019471479281736107,-0.010051055161100272,0.0019729161825425244,-0.010006381865581233,0.008195084088492854,0.0018026166814696064,-0.0008141754780018259,-0.006776120347293132,0.0025961146777156614,0.003773142137547855,-0.0022137267334823643,0.0034265930120425635,0.0010254786372708921,0.01241954930325316,0.015251176933592618,0.004400972440822139,-0.013360877994454411,-0.006691934060853007,-0.0044713438836775435,-0.006152535466749216,0.009848121956355513,0.004847121476648123,-0.005420814023688089,0.012655419977401449,-0.003121126858901327,-0.002629936270798036,-0.012683465768784367,0.0004235875992172275,-0.006277263555951169,-0.014855769138387463,-0.015461677447596148,0.006542291202724072,0.01185837161202808,0.0071759996852997845,0.004659917661013882,-0.004663068978363962,-0.0005795048102171865,0.0025150447136334034,-0.0029445845082032157,-0.006666903383878656,0.005230106125129214,0.009018773740671414,-0.006642158432371755,-0.010572910142852464,0.0039639593374023105,0.0024596348714229256,-0.004823548892757063,0.0031579862944304538,-0.0025105081032539382,0.0003394517210249144,0.009675731383884601,0.006423685815181466,-0.0025009410071834617,-0.005459433591096737,0.0065881266984272775,0.013373361151018816,-0.006208522949810301,-0.008084103192505722,-0.015523764978200724,0.004280933984271991,-0.014327867585260393,-0.005972536430117643,-0.0012484104384921958,-0.015354809900508824,-0.0010320106445135917,0.005445827529805273,-0.010034305280945992,0.009874070552487499,0.01122641487849995,-0.007374483934481646,0.003181146913101243,-0.014076551915575601,-0.0006038164312201187,-0.0009201376971393789,-0.002980670250044861,0.003085350002720623,0.009776780477975547,0.012103379868719424,-0.0001354156058248207,-0.0066229797546920495,-0.002642578605214045,-0.003632289458930408,-0.009759599468771332,0.005106981177821924,4.234880420156753e-05,-0.013377720367274498,0.010967431076079032,0.0018937438533339034,-0.006593367720494108,-0.00931400521920588,0.01358064236423237,-0.012738278783316261,0.013963923934908761,-0.0119788677746124,-0.007234287377598549,0.0052107524385508995,0.014394649176047769,-0.014612204328671007,-0.01124492432520062,0.006824956367786482,0.008082526875366907,0.008510240206811636,-0.0022477346408996783,-0.01516851536806306,-0.012473441273303243,0.008993640802430463,0.007019873329220518,0.010590876193926253,-0.01455294849690784,-0.00572005442044941,-0.0058469761210506906,0.005292595713752766,-0.003963484392832992,-0.0010055172054169795,-0.008117644643804066,-0.00043788410803656183,0.0027341521455523446,-0.003077740201403268,0.012966272001011456,-0.00035836842413608863,-0.008045418625446627,0.009214827006740402,0.0020496014388952204,-0.01169725953187142,0.001272374021416365,0.005160919007492038,-0.01089388718456898,-0.011307099686643129,0.009768180911341049,-0.00877381638959411,-0.014853984786412464,-0.012735142898115167,0.006598642902216699,-0.006305503244648427,0.0015567486306867669,-0.0006519982723660472,-0.0108562010039638,0.013444865023177821,-0.01314263223465387,-0.015475741796819424,0.010007935828079951,0.0027633468418107703,0.014015624425678653,0.001597807827381583,0.009669146674130859,0.004030929318034813,0.009698358012509917,0.0035579904027328198,0.008795183717187356,-0.004050745676214065,-0.009739542808653422,0.0009012044304567528,0.0004062600012516501,-0.008503691068385624,-0.006434877970946783,-0.00955482179481218,-0.011069419941829549,-0.013864099120618673,0.009082841774576422,-0.0008074993102444132,0.0011493360442850174,0.015328066007019091,-0.012197234127685773,0.0013524521587056845,-0.014046978812525007,0.0013520861026065714,-0.0032013700284072716,-0.010804640022890784,0.011637217086849148,0.001994286960518867,-0.004495371771406551,0.003642415998423028,0.011605566440603433,-0.007371181672293867,0.013208548921597264,-0.008503827288823797,-0.014037996828310702,0.01340981774225413,0.01117353851617179,0.007258481846580858,0.010351769917186907,-0.013275508943772142,0.008020250207735558,0.0006156278527944606,0.0009374876119288139,0.013870478172278957,0.00045960336208366454,0.015477351838559337,0.0029323607647372546,0.007856814416156249,-0.010985173817616607,-0.0033820444970366625,-0.005423476055838674,-0.010141624081725142,-0.0030077080277750787,-0.01357847717278714,0.010085565899733182,0.006738704917499179,-0.012337608797238296,-0.005826238989666367,-0.012516462710296758,0.003119211269668614,-0.010220973501850798,0.009664047851981768,-0.006379607293479313,-0.011948276871139231,-0.01148557329219297,-0.001239868145407278,0.0027074287241381605,-0.005086011174045373,0.0005251762915680497,0.013774383853864366,0.0061504049741097876,-0.0002019181781243648,-0.014069882681089888,-0.006181678335268663,0.0016676831150933616,-0.002389921804919249,-0.008669089186627673,0.005625748062556217,-0.008849970163190168,-0.01073439244678235,0.008696746721917163,-0.0031638659844705867,0.015603445938191345,0.006491449111702258,0.006990514525758981,0.009509442668658656,0.00969786787826456,-0.0027999830260897716,0.0038785052008787936,-0.007606850977184949,0.015042072938163533,-0.005521774407243465,0.003606499293014851,0.009686084126110536,-0.01034492434608545,-0.009034749604800992,0.010946852991250429,-0.014473646414470912,-0.0038298711508741035,0.012239318019485999,0.014586191060611202,-0.00015555459041547565,0.013998371280051308,-0.002636567634142741,-0.008179956956791409,-0.0032163340165728242,-0.0019020753707958346,-0.006367853351831175,0.007968036471728886,-0.0071275611410390426,-0.012345426452819188,0.00752867314659416,-0.001792330141572318,0.00688323048761447,0.007328613849766335,-0.009381082258091616,-0.011805830993221456,-0.013820516907907605,0.015518305180700936,-0.008910947552904076,0.012608357773625806,0.010093483041753813,-0.00923179571350042,-0.01479773364671073,-0.008243726242982037,0.005680501862622082,-0.004880718727869934,0.014882782013814752,-0.012703390066520145,0.008059169180265332,-0.01299328163363848,-0.010785555623124485,0.014495916005939847,-0.008421363570299063,0.0017147718664983005,-0.008856991406792452,-0.015452953049732269,-0.013524740777741476,0.011704258072351054,0.012882889690300322,0.014720981340888742,0.009096946583397977,0.011070767393849865,-0.0071203182104325885,-0.006233627643814858,-0.014184637405597122,-0.007308019247582488,0.012627094371613409,0.009018921291087077,-0.003685366742208925,0.012138789557938668,-0.0013857218082372995,-0.0044449731861452915,-0.012384579056061717,-0.015346458541844587,0.004477959826785453,-0.009224673677717433,0.0013047127857023187,-0.011135547006463482,0.01059386395769811,-0.014479254084865802,-0.0036700901979842514,0.0062834626868735165,0.0020905054160033285,-0.002882338199067032,-0.010932705432303867,0.008789429881868736,0.006445560758312829,0.01089395757786251,-0.01212282373490007,0.0012088408260748883,0.011078294472122819,0.0006196311824692227,-0.00696033937820615,0.0003971890486930696,-0.006991756858682634,-0.0011284454231487717,0.004555398353238347,-0.0016932027154219834,-0.01211162771058823
-0.6239456813934096,-0.01121537810727866,0.00839970998732088,-0.014287039671872708,0.006646188843561121,0.013462018458174106,-0.014557896549236567,-0.004605970058539632,-0.0035139872288393395,0.008703194418682218,0.008785234218578443,0.012025710104103145,-0.0073194717064948185,0.0010803921458596363,0.01338344286079549,-0.008505992739435711,-0.01309342865254232,0.008637479276199383,-0.012024066429973067,-2.458294702897823e-06,0.014145160011797608,0.008850823470813708,-0.0011402527330077322,0.008930521010304525,0.0028252405565214085,0.0026485122614440595,0.007764285077990454,0.012282978597002649,-0.0005300781656796608,-0.013065313414829544,-0.0019516098234690187,-0.00013951290430523275,-0.0028153121647883465,-0.012588502848292004,0.011050719266881951,0.014470121128300394,-0.011287898518695091,-0.01194327274522157,-0.003476464356817744,-0.00438345538253437,0.01098175884714618,-0.011679772737473167,-0.005527954387104968,-0.009489886768711826,-0.01115809814341414,-0.010343099650735182,0.0027992226589803985,-0.008953451937301495,0.0056441727208517145,-0.007813426097681937,-0.006693039031956487,0.0016301269514137004,0.015383362991417283,-0.013907503310067206,0.0049903490976699605,0.01440188916561477,-0.001154201046006064,0.006342075013725305,-0.01043981391010964,-0.007634031353382243,-0.0016358042125571327,-0.009390939628847624,-0.004622393028275221,0.010569709067890037,-0.011614550478832975,-0.011149578941907337,-0.003446395857838156,-0.0036244252654857034,0.010371407850004705,-0.009307031109091247,-0.006982818391245583,0.006585372829697313,0.012741010497229335,0.0038222558922677667,-0.0018350814362246108,0.0028540676880130927,-0.009039620207694242,0.012583187062806925,0.009388889129776354,-0.009937405326630032,-0.001061669755818933,-0.0025575408289064856,0.012487220699719814,-0.011150749379816756,0.007139063301755462,0.00048205601304709966,0.009363893944709972,-0.003325246575579102,-0.011990261301011936,-0.003552778702264288,-0.006690336005486731,-0.0036220606681339196,-0.002212703473208271,-0.0022163958560085135,0.011340574188053766,0.001979443035213555,0.006696267707673287,0.00867690058455373,0.015318377624414674,0.013961799723478455,0.009204274669140946,-0.011639268723594734,-0.004713194379854024,0.004891976111470853,0.014157015425519497,-0.0055241715510158836,0.005066608123749393,0.0037265067589549138,0.003233252669803531,0.0010693126192939696,0.003408538540963367,0.008109633026164333,0.013307161098871638,0.015464278340283383,0.012585307039709413,-0.003173490693355742,-0.007338446650482253,-0.014691158775169893,-0.008045217067133778,-0.010723980022992161,-0.004740607040293356,0.01104925439022425,-0.012569556620471989,0.00035933676687113086,-0.013326046963526059,-0.007445950086291297,-0.01507122738963948,-0.013884202614082155,-0.0021376435760917557,-0.0022919144431389864,-0.00574943920194599,0.0077370715018949855,0.002192596462914715,0.004639178600912272,0.004332013467962418,-0.009520485556493968,-0.004169474611954237,-0.004320130538312924,0.007131941860057112,-0.003024480878034353,0.0051756474248636705,0.01560333318055443,-0.007760292351102746,-0.013099886539226873,-0.013345755911037909,0.008127319511414006,0.008217410750080967,-0.004922485972888451,0.008044188019791981,0.005389307108984508,0.010274604707881566,0.01036469648586592,-0.0035167752935696614,-0.010326239350262594,0.002907501068155332,0.01089364765144353,-0.007779619498407581,0.006982402705082099,0.014280224457526115,0.001663007232151667,-0.014265563547074735,0.014370820511636,-0.007307065503858897,-0.00945545190751228,-0.0003408278991922399,0.009003601118101605,0.009372522194745738,-0.014253228685150238,-0.01293329606297754,-0.011528789515831157,-0.0023848690395223346,-0.004613708850123483,0.008857393994593347,-0.014458244784175449,0.00783112267067864,0.013614508027091791,-0.0008371856127118299,-0.006311630366195194,0.0019274707062410593,0.005752216715423322,-0.01318992247242759,-0.014165093485552428,0.0013672335387431324,0.008226704989354381,-0.010643344763779546,0.012201036061855592,-0.009879686785959414,-0.01413201869190061,0.0009435569435905511,0.004447134029858354,-0.006203501414450349,0.0017080897784367312,0.005097580759432615,-0.005029830531548481,0.009867390401402634,0.013147537902655736,-0.005612323042401567,-0.012994390061658992,0.00028027133378055735,-0.00546512918014188,0.009980002150129761,0.010094396675094024,0.0146640973394923,-0.0011730511157751027,-0.012563445913181311,-0.0004662154231330727,0.007052445642455933,-0.008412567454222156,0.00783018318435846,-0.002582417110066921,-0.0056018621897857,0.0028980347543229937,-0.014342964715130333,0.0012743416664584874,7.501535339977244e-06,0.0020628937877311126,0.005202361483077421,-0.005961981842548508,0.0019111505234900399,-0.004904143214606919,0.005260830215479007,-0.012725472357964295,0.010045225086823689,0.010191514858057603,0.000496734941279102,0.011284501778031954,-0.003373821495641905,-0.01525770002750839,0.010182088120951834,-0.002523670371745775,0.012090823025607895,0.011472979899255161,0.002466223638481174,-0.015008316266036197,-0.0035882419714467206,0.01215596323380597,0.001756197198307937,0.0040378376984215765,-0.0029209009352632286,-0.0001766928201759957,0.01490499965542932,0.0008637860846518082,0.007486308701257185,-0.0040707655091161525,-0.015335267805956565,-0.005194443419614041,-0.013029700264658103,0.0019088655099991844,-0.00905145144563494,0.006870414643118387,-0.004388092249932286,-0.007492102867546639,-0.013563023878854469,-0.013815447418310055,-0.01260860995171886,-0.011134517903675985,0.006981734211103933,-0.0010412006847846204,-0.004798901982331204,0.014173832363452234,0.006941325835608286,-0.014084642407885362,0.01181037517354563,-0.014866364717571402,-0.008586175964478276,-0.010536785865421797,-0.007474019187025803,-0.005736743920026877,0.005427446880755488,-0.006976598123564215,0.013998327893765362,-0.009115278986879617,0.007619083272865233,0.006202298600507403,0.003101970055334302,0.004652118962099484,-0.0037920337467274544,-0.0098068428876174,-0.008398322922297873,0.001917327800348298,0.015614970899272305,0.00245687606609038,0.011158022171351555,-0.010462874364186671,-0.009951166405169846,-0.010465841472805524,0.0014158191383692592,-0.008615155513726373,0.0033746301307014705,-0.008610599779893324,0.005902791804075682,0.0072157859573459375,-0.011530164460525173,0.014421603731274994,-0.014370031779141305,-0.009150193932324073,0.003815582047426644,-0.01559855895019372,0.0032313095071305337,-0.009068600941486146,0.01055076257530694,0.0040871789619922015,-0.009837596226248697,-0.009741243199571044,0.004737667513075965,-0.005775058743514871,0.006109920370050873,0.007177860739213237,0.0066931380490462995,0.0006143324245317869,0.001082162900253189,0.0069928160886789555,-0.010689206570862097,-0.0013528834508315692,0.00829589325315807,0.007042050034400785,0.0017708584105747827,0.011698837076955248,0.005844582681660368,0.009796657966530613,-0.001975106399827932,0.008193337371628133,4.802655115847265e-05,0.008406939879949324,0.011214541876544061,0.011462499276912261,-0.010947195314216718,-9.071802463688633e-05,0.004503902702423863,0.01122159484346438,3.8108487228186855e-05,0.010932094691667029,-0.0007191197868408987,-0.005442743771412295,0.013166604936051363,0.003891792578092329,0.0014415697762481215,-0.015257848351451591,0.003870581784049077,-0.015116706571932547,-0.014837100440241384,-0.007378350604829734,-0.014547903938393267,-0.003612086540484491,0.011492882392350946,-0.008252024672280384,-0.007432508305440445,-0.001191757771506572,-0.004605309012607368,-0.013392938907553886,-0.011773464543463074,-0.0034979070916787078,-0.006617794931819382,0.011806122603237764,-0.008111939194662146,-0.002578558851276263,-0.0019385179748768883,-0.00921181376424449,0.0002912623281569014,-0.006530489608796961,-0.008558126426790255,-0.0026641889915143997,-0.0009351162001182516,-0.01036057063568838,0.002874389035089943,-0.01517796330998443,-0.007876030294420341,0.0016306488342448695,0.004748131521617297,-0.00296787752306037,0.0019530474750392296,-0.010604916113771536,0.0016484981565477279,0.005000044769572748,0.009619897963781661,0.004134503621710826,0.014384746510647368,0.006138318028884076,0.015153028086846189,0.013969254466168791,-0.006615099143234934,0.009548166520488777,0.01354041880975591,-0.005280966356323736,0.006510018967128325,-0.0014807784080824692,0.013300997385057054,-0.005663439544117386,0.012110280260492493,-0.01387103192187569,-0.007527859739492885,-0.00774318402242629,-0.0007706939788964667,-0.004824177726743449,-0.00479814416827265,-0.0011707433342756056,-0.01458239321767674,-0.010156399825059281,-0.0066681492116227176,0.013086070173882965,-0.008137273296159736,0.012639687342214639,0.0003766896667929502,-0.010045734179871584,0.010912856925118522,-0.010617798918902632,0.00632123839703656,-0.007230622151367421,-0.008454636027899354,-0.008350022689648625,-0.01534540443783914,0.0014958095881022343,0.006880878305319957,-0.009397518015355134,0.008010383923016274,-0.015573175034326286,0.004575578891762844,0.011628643195877603,0.005023798969224308,-0.008624904055339347,0.007606070249683974,0.011978283713932468,-0.014843377484059596,-0.007905828801650017,0.0041315006716243705,0.010178567418823954,-0.006246888402793804,0.0032418965799325926,0.006638002377031878,-0.010185373388461476,0.011192074708345962,0.006876375123512052,0.013063998409358894,-0.00861005012820119,0.014966437448717274,0.0021892392584336,0.014550332803490114,-0.004426241073518678,0.0012179311234627697,-0.0012674894782117446,0.0023368377856272694,-0.013286107967361627,0.009797638196814763,-0.008449488093512592,0.012127292642156891,0.009125022924754585,0.005475225834979312,0.01509923460620791,0.013193381284304813,-0.01370996654995547,-0.005040769820517797,0.006271845003414111,0.004669288423167585,-0.014648852705047871,0.005417426079712091,0.005973685488824369,-0.009917669698464582,-0.003997505430086,-0.008353189846783265,-0.00782683434169144,0.008811604937110949,0.004204306357515512,-0.0010327024909506342,-0.0015016227060395473,-0.005561775669092373,-0.014993226014722617,0.0045622497954625855,0.0015431924249773715,-0.0061361516931492666,0.006612524154937474,0.008156559102558737,0.001997598033365411,-0.01258821618076874,0.012122130425116812,-0.007528919464032804,0.0037486700323923483,-0.01424074453657984,0.0055438169176144185,-0.00029004352185831375,0.006302967065602624,0.003693622704863283,0.004473631385700207,0.014983341258579638,-0.0006564445637054633,-0.014368542506796474,-0.01338793549858219,-0.009411622583754633,-0.007675049131819413,0.005237546880697854,-0.0007339114657485407,-0.008238074771243296,-0.005721339263742246,0.007909391797327286,0.007011983419562804,0.0043564286242508445,-0.0011935125202082314,0.006854546742864308,0.007967653451611184,-0.013122043031876574,-0.015487895401132542,-0.0055313964366285225,-0.008389388986772835,-0.010176293151927092,-0.007949076237043471,0.009932876789836346,-0.010766363420355848,0.011638303995031608,0.012796235038202035,0.011525774313357953,0.010479908293767552,0.006408117866723996,-0.009863670523692303,0.0009676360665567853,0.015569291238015204,-0.012314888243868408,-0.013684780700778654,0.00031136202328950827,0.0039971137782299805,-0.00383003322637427,-0.003915292830070499,0.0034210971915592525,-0.0014116307447132187,-0.013631714934490738,0.0013327000820685074,-0.0016264701881274733,-0.001466612292100957,0.004294324292468107,0.010557058250697682,0.008324430696270098,0.01314309144266592,-0.00785007442841882,0.0031063146130098016,-0.006931025869798747,-0.010897284236923443,0.00943420833010087,0.015144166759656946,-0.012906237935448227,-0.012899475065427914,0.012764611092858171,-0.006903405918218895,0.013452915908721472,0.006673540600671091,-0.005634358542871486,-0.0034757115503853964,-0.002466966618027814,0.0006787907856034697,0.0108835305206667,0.015417383352188525,0.005594270750310198,0.008450596992528994,0.012046832259971031,-0.009468361959317783,-0.006816183758394743,-0.004453710177913829,-0.008780504544834169,-0.010232935789403035,-0.0007630237378418309,0.008617948741843101,-0.003958013321027333,-0.0037314251244127856,-0.013074998315484341,-0.0044215956076165686,-0.007849755668453973,0.007906586282875605,-0.001277803452364782,0.00888145907528716,-0.012367117343908364,-0.006260308529718095,-0.01349090102915556,-0.00012502568940160955,-0.010599304911797731,0.013710777856520934,0.006868886394289998,0.005511560173929824,-0.0037212910615993973,-0.0123326141059562,0.004847540575179447,0.005974744029465406,-0.008350977778764174,-0.00803958806182296,-0.010235203978489076,0.008224162170029237,0.006608326167044758,-0.013011220044863554,-0.0019708279268068757,0.01255930191884352,-0.009742393080205584,0.0052521919856688935,0.011802724764853247,0.0007513625896582339,0.0107330422154976,0.015317000346463563,-0.011805745455246007,0.00010460487727380688,0.015048073838071538,-0.011223597757980989,-0.00603479585590113,0.014842298424751325,0.005316795917809255,0.010197507984135424,-0.0019328773496454059,0.010769590378546988,-0.0021343811494184822,-0.002818112850398017,0.012481092836113289,0.010059454029790794,0.0014453920007632334,-0.0075922095533897845,0.010308011956329514,-0.01268872321671665,-0.006533465905829799,0.01282046633726492,0.005800738535671306,0.0003399297084782614,0.00041079420147869736,-0.006218005569972578,-0.003030608904801623,0.003434882007026411,-0.006496507471517136,-0.015390332971286759,-0.011327406622632413,0.007599776704529788,0.005016429537800782,-0.00715641018360804,0.0005080291433959619,0.010641502311720823,0.008955536157108673,0.0016970821341662085,0.007362235014746695,-0.014236221176865679,0.01084828918368096,-0.007700938912160473,0.003223574940066757,-0.008704407907685265,0.01061992685933743,0.0034441061849960347,-0.008134570286084351,-0.014083247147137792,-0.010668063777061407,-0.002064797581777446,0.006201883342380688,-0.012717512999032728,-0.001114464157934935,0.013799948799336124,-0.01426171367709294,0.008272554375452677,0.006767092278114506,-0.0008196730993882961,0.010377336032671554,0.0007096238599244367,-0.015235662270828933,0.007059800513946651,0.0016597928237114014,0.015030973509138266,-0.008349635602242236,0.00558986500865713,0.001192770952928926,-0.0055310270371889715,0.008209131373778548,0.008847026011509222,-0.015283008165969475,-0.013018484431393425,0.009102573158977806,-0.01444654476581651,0.005708397069485505,-0.004380191500926858,0.01171865642617257,0.005990423776120558,-0.011187355750541587,0.014906508513864943,-0.007580765568410898,-0.01478071285460663,-0.012968574453747661,-0.009244850071679016,0.01301315662045615,-0.005743514972237185,0.014732605143968038,0.007643447928219655,0.0041313005387976325,0.0030529294915547026,0.015624679048065207,-0.00047655015805427026,-0.010751583520588318,-0.008979825030094039,0.002185477875771842,-0.015379495973739225,-0.005693572063972949,-0.013375841649006053,0.0013670645644936787,-0.007250143625934173,-0.013968924579784513,-0.01212429528253715,-0.013866876859078295,-0.012645384175096096,0.01363939898162618,0.0017924679597435648,-0.0013224009930765633,-0.006441349047905529,0.007387294814220187,-0.012000836267793843,0.01121940101193956,-0.012113293521220883,-0.0017613851812211014,-0.014137704984040288,0.010044882431774413,-0.010973425109102604,0.0013745329437000152,-0.010518173820494005,0.0001437847596579729,-0.0005651318322742113,0.0011062565754086824,0.004530278853913269,-0.011041534587343867,0.0061842640743784184,0.004740006505215819,0.01337639228044291,0.0031964545032298515,-0.01074199945737863,0.015269682910286884,-0.011649452634802802,-0.011488683401118065,-0.0046411509187640095,0.014288733871712322,0.002662970895944205,0.012036008982889972,-0.014194666153679716,0.013783050104922447,-0.011146541523365028,0.012822140755616239,0.012351377389411496,-0.0072383822535327345,0.00577044079649414,-0.011544160195360566,0.0107555687401505,0.014768555297399354,-0.009499076140137497,0.01522295426476791,-0.012489214615236315,0.01310860190058628,0.0056100305118631615,0.0027291393851314877,-0.014462764127569427,-0.005837360021766113,-0.004972321648843071,0.0021963055353231217,-0.007189396190546607,-0.010555876719162558,-0.0078990815604776,0.0006749921453094651,0.009162466776434914,0.012536880674959575,-0.013489554176881711,-0.0011841424516958673,-0.009877314132510077,0.00197311524307223,-0.001898695545124604,-0.008475695722448003,0.0007145221892409757,0.012647865003679096,0.0018520490875508847,-0.013761307234051636,-0.006242534801406803,0.011163482383618879,0.012957377205987768,-0.015282083596649343,0.00862208134272558,-0.0018371470623096825,0.01513059902003678,0.012780415155250687,0.010430618455498343,0.005970674929464532,0.003727641899060316,0.00460773550958599,0.004696588983216465,0.011327915087210573,-0.013958096198359405,-0.009716114871648092,-0.01011564456818577,-0.015392659930935741,-0.013230419885313038,-0.011933104321072079,-0.013063171789802663,0.008770689415721178,0.008397144144582421,-0.0065812171200541995
-0.3674817260053097,-0.0035598700617632054,-0.006175290785545084,0.002976284070284864,0.010844731843792796,0.008121463452229936,-0.008469704926768528,0.001229291880306134,-0.004478491269911643,-0.010699442234936733,-0.0008802014444233286,-0.005226770816987296,0.008356726986498253,-0.004170521529657575,0.0022895902552785945,0.008583622077961647,0.013831773855145828,0.010680353633040797,-0.0036839980658580802,-0.015522378055523655,-0.0051867099919837775,0.006250036838227439,0.0034296812704016563,-0.004859742229865037,0.005646598995576974,-0.0036724209006884917,-0.014176048414312234,-0.0075882074648704265,0.00406710867614362,0.011141147080913016,0.0006439811047176183,0.000809933167651402,-0.014271859037781772,-0.013742704337471393,-0.009341941571269129,0.0027106973779642586,0.00943754707643155,0.004533007984838029,-0.011953531368364453,0.005782637377365004,-0.0025042330872715665,-0.008752861657711282,0.010291330861101788,0.011024421386213259,-0.0014325564648758927,0.0054307803385115865,0.01374649956415435,-0.0012516439915096836,0.01175460636812272,0.013224459254125579,0.005164667855501539,0.0013624062682192038,-0.005182512736198828,-0.012701985069026332,0.008981022014628356,-0.010534344605272809,-0.0016660078334576195,-0.011108756203675664,-0.0032065120437696874,0.010098123257975676,-0.009753764682524483,0.009245914614525858,0.006831467985533,0.008369898617278378,-0.005901591011979474,-0.00010336250660743576,0.015316119726001477,0.011312746072880492,-0.0015289898970375984,-0.012986051492005855,0.013373828235428445,0.01260044375261287,-0.011675795826206672,0.00042507232481375085,-0.0009244794273456647,0.003745240156499883,-0.011532933238100427,-0.015336305729832696,0.0038314934351163787,-0.005237401888679095,-0.00872439579322494,-0.014902372422538817,0.012771553442433876,0.011283208066856149,-0.012758978306637508,-0.0034004963051727753,-0.002277651483689625,0.007374543373124071,-0.0011699818849734665,0.011932033615902699,-0.015271689062081564,0.0058137452925991415,-0.0043025352077355646,-0.01392781105330327,0.005935299812217652,-0.004921387684096019,-0.004381799501764573,0.009521188984156447,-0.015132607921420786,-0.0085685227760155,0.013651502169829861,0.0054462672272742214,-0.0039644522002516384,0.011196618808672155,-0.0023421271230065766,-0.0055860698414773,0.0038883476345883197,-0.011920083940275057,0.0032852725623033173,0.00650605269115679,0.011923486240974484,0.003980957914374698,-0.0005375316129080723,-0.0037428741444539247,0.005844325797547432,-0.012926432320661433,0.01136962574156996,0.014337649351829743,0.013464910167181918,0.012285211623409523,-0.0014374892536800736,0.013193512816767668,0.005603765067236321,-0.00825417147331571,-0.012212989623467604,-0.0003785685742811497,0.010965391518805146,-0.00897382634785383,-0.011331923479063921,0.011819643121380473,-0.01339994193853402,0.014829970844282073,0.0007492412479815323,-0.0072592981741984,0.0031022116947092386,-0.009792925952933032,0.011813050761593499,-0.01010380374754312,-0.012606240344894153,-0.003043375115804551,0.013830911841567612,0.005805526164563406,-0.00382489490482368,0.0004252203572139464,0.0009510406021161037,-0.00729166644208153,-0.012173341608769272,-0.004742497225785337,0.013479032396503512,-0.010914016402970288,-0.007690588728116024,0.015033771293065986,-0.010852611791421923,-0.011608211183308705,-0.008017126217769576,0.00890864050203308,0.00418788310318699,-0.0007348083663854775,0.007610809516135849,-0.009882090607538623,-0.011640751373168334,0.011901413462212115,-0.015438543448730906,-0.01321402356930729,0.00463424649321257,0.013891514610655818,-0.008133319103013643,0.013637304810678468,0.010969649833661898,-0.00022862681323591177,0.005827949819769664,0.006078514311565596,0.003645164822132639,0.004820367024845465,-0.0044561642183096675,-0.009074298202448785,0.0030817448021538164,-0.0026708396825315464,-0.013665135185995186,0.009986457142123716,-0.00835841511500758,-0.008116936431118004,-0.007405498964839472,-0.01531592696046646,0.004532092547163181,0.004211223219648272,0.005960945305704662,-0.015369281563805015,-0.014632260975397417,0.0017336738499197195,-0.001956598970954286,0.015316293917762343,0.0020167289909071053,0.0010952398869712686,0.0107594461852018,-0.009477924462737815,0.004516853153895609,0.009724947933865576,-0.003344200610556042,-0.007469920655157045,-0.002871410689313736,0.011043467228797642,0.003333339882468544,-0.00115308268031164,0.010647743864179843,-0.003945338615616568,-0.010948047342215276,-0.0064927099590978525,-0.011931401374511038,0.0010403465489074726,-0.015302372760173051,-0.012560245994181981,-0.005425564331568291,0.002674251743710325,-0.0007172348602381348,-0.015515446915852694,0.009425311842080265,0.014993928800104254,-0.014812564262532787,0.004665112047271235,0.0014990357050353696,0.013412572874124548,0.006358896551047485,0.003969805017479261,-0.004564352170985098,-0.0014935148069197893,-0.006128601236067861,0.005684915534835421,-0.006575567749268856,0.006204168331995625,-0.005812185754812023,0.0006419287232532038,0.014178901679000662,-0.015107132695477976,0.008229490407187751,-0.0029595311681590124,-0.01281626475917181,-0.0023204061504153543,0.00040826809906521766,-0.010000872924688108,-0.01236011623318544,0.009344758140990516,0.008650919660312967,-0.01090082585064183,0.005136124349222188,-0.006728163383960265,0.006305864742657357,0.001666631222306588,0.0006672304701364241,0.004142759053343374,0.001557740489332115,-0.007547094755181283,-0.014025870968194458,-0.0073352713954755525,0.009380547865016731,-0.00704981651480752,0.011467018897181842,-0.010747596404449285,0.004525564382168144,-0.004621065053736405,-0.003772536150315777,0.012092415606666698,0.012861225451356605,0.0065080721502008936,0.00881595038894914,-0.0023055800771545204,0.00750930640704928,-0.011776921863060945,0.0031469457759970773,-0.010853067934372716,-0.015121059335729013,0.01480106955580927,0.005219833375380387,0.0033907607026394115,-0.0015193189152322498,-0.01378590408716841,-0.005379882401510994,-0.0009309681593284297,0.006767761618211288,-0.0010212689714139273,0.014653877811317197,0.009778637623694523,-0.006040997265567165,0.009116851194511753,-0.005628388385666708,0.010966803065821304,0.004230089572002441,-0.01544924540488423,-0.006457904760622177,-0.006446084782190491,0.0022584029704117783,-0.003022009202881582,0.002914590135502961,0.015126502957878967,-0.00578012678669642,-0.01535245242444886,0.006077842341579466,0.010198760520016968,0.0018484615615081586,-0.008985504934286483,0.005123247269405443,-0.0013830516138123583,-0.0012112189450698835,-0.009747490192531759,-0.012952894238306919,-0.006176327902230282,0.008726855739585801,-0.013709508753491861,-0.012073380798688364,-0.0031274090400158945,0.01229226409597554,-0.00987476161728379,0.0035020851599365313,-0.01050553868336852,-0.0066169194300164415,0.0006498815374866226,0.0015823312040255944,-0.0017920809763274648,0.009033590344649053,0.010212377839140571,-0.002350880839515429,-0.009150965989063665,0.006471807101252558,0.005592636827930448,-0.004900661921485954,-0.011137078897327353,0.0032761611952697722,0.007666450840950953,-0.008664507646709108,0.011633772708299454,0.0022319757970485216,0.0017160740038312111,-0.015151671510118606,0.011691414014323335,0.008234587704014609,0.013973817352071271,0.00438009361613273,0.006846140808960052,0.000884703317641556,-0.00017693293793688558,-0.004063495537743409,-0.01298290116408023,-0.013821661182673913,-0.01516513933802641,-0.004847723691243366,-0.011827379707857424,0.009536257785689485,0.00033227216962923925,0.005835646929891549,0.012115802396835584,-0.007315691415571847,0.0014347705160530633,-0.0016203360057075906,0.004503798946431839,-0.006558440472257648,0.012716523250514276,0.009423555567724243,-0.009569707619060074,-0.0002929149910958148,-0.004010999653672281,-0.0029849406005131064,-0.0008225348198130367,-0.007106696730000913,-0.007344653974867211,0.003286030706058561,0.011104276876002728,0.008266139216158389,0.012538695559405646,-0.00781863225055375,0.014269803010900587,-0.007886482133337723,0.0006384061961314975,0.004627279128673688,0.01312156525628317,-0.014685195852326593,-0.012158143332071089,0.006501939161636688,-0.004883730043870594,-0.0037383617823643876,-0.0001070918675021501,0.01024059195260793,0.012791037960510704,0.008826061247461547,-0.003477587450632067,0.012061754128579152,-0.014525482792307958,-0.012405937115859893,-0.0033206753248353413,0.0005546957533328171,-0.010312791710936717,-0.010483663877662364,-0.002205900934791734,0.00014983870777495606,-0.012925254044585357,0.0007167541128067396,-0.011391163046364592,-0.003311946323683316,-0.0053322198486719825,0.006550858385704517,-0.003121016828257616,0.004441355901784266,-0.006230254566953031,0.013987887749614448,-0.002217310091558268,-0.01335978481503387,0.014917734616376351,-0.012783739699409453,0.0031548318175378225,-0.00848496667002437,0.0003098369225926073,-0.001846318830734394,0.002516408398123851,0.010300036003501628,0.005980570041197574,-0.006953683427628463,-0.013044338260444759,0.006915528573373037,0.006838530642904159,-0.010296756804171591,-0.00951739404024898,-0.0016688492953252573,0.00843224292515352,-0.010817081866541307,0.005190476556894013,0.014830261573607884,0.011965827054034029,0.002181080912895792,-0.0015951365881633726,0.014907835833230167,0.00044468578300959835,0.011254363300398269,0.007070160011322959,0.0020610811328092837,-0.014542291432510138,0.014296019685854883,0.003553291740335071,0.001445179730390496,0.005139858381693455,-0.011747689761365233,-0.011073773868906605,0.0032711994721753325,-0.011975179582514688,-0.005327215530354427,-0.004672805201097502,0.0070188472226820064,-0.003522656001780613,0.005933949716182298,-0.007019560358083012,0.014666979999206835,0.007965719560943354,-0.004149440146647955,0.007307078946895421,-0.01193744610830164,-0.014746173450421837,-0.013695713876955822,-0.014669416638424904,-0.015046324744023048,-0.013671056841308742,-0.0037887672182801077,0.009573773916274533,-0.014846083553378256,0.00443212931799471,-0.014529739597887541,-0.0038547772029292812,0.01208805810350597,0.00499532170701715,0.01315724551392718,-0.0020447372923571815,-0.012094032145924583,0.008680181575476311,-0.010839527219943208,-0.013157024447341306,-0.014630240081948784,-0.008873692378965865,0.00568440383519497,0.003464969006024228,-0.001268244970085649,0.0002936887966982528,-0.008886921296408359,-0.011514894198467893,0.011727853611331652,-0.0014517544283073579,-0.015003731815744333,-0.006441663254544084,-6.137535881204845e-05,-0.00468783212626946,0.013971208986298674,-0.013748081061202573,-0.004828948199003702,-0.0002278839258288562,0.015110647444420824,-0.0005280726681011899,0.013447552552055382,0.013423238553789983,-0.015414929188192147,0.01091407403522427,0.005978329726277903,-0.004416121724332183,-0.0035756034873750155,0.005295657509365236,-0.0006077982090914973,-0.01507567044989391,0.015553781052761218,-0.011545533742252992,-0.004096672311797153,0.012908665143667768,-0.007743754856052089,-0.012436571393307803,0.003162566093452432,0.009946960783069135,-0.013661757394198556,-0.0055705493388287924,0.0034184233789468534,0.003367838459156079,0.010013464199258335,-0.008146978788199366,0.01515738172239409,0.007226584780200961,-0.003642215411279872,-0.014355167150236332,-0.013574160118396343,-0.010174138811430134,-0.004754642553194143,0.005764510159043591,-0.0095774827003994,-0.004389719401413184,-0.003188892484279931,-0.008954245385676775,-0.007424583978425575,-0.010236460486815015,0.0027937776338286396,0.01493101537068613,-0.011532716575218274,0.009599001630496495,0.008559614784804496,-0.0032345291020830363,-0.0013040155418882274,-0.007933319497987788,-0.012029086882136563,-0.013981618163313374,-0.014985281259196445,-0.002637333979067926,-0.013434888879917964,0.006528202242057274,0.01350434475944277,-0.013030353334732236,-0.00390440131587156,-0.005632923939897911,0.009596278921968703,0.0022249016747213878,-0.010292336582993063,-0.010238709511851487,0.011972000166886761,0.00842213697646722,0.01501972243014386,-0.011487415138784846,-0.005308453915206266,0.013745480052289039,-0.008307610646351563,0.009117906502380032,0.011798891645010499,0.00843300981275312,0.012302469984480154,0.007531647641222886,0.009691329850444911,-0.0049069465498781314,0.006490439557830057,-0.014549965491587873,0.0022298217627287273,-0.0015252115222814493,-0.004238523102465929,-0.014280432809823353,-0.014050464814113879,-0.004524478514579062,0.015532935910646879,-0.01468455306736291,-0.004241237754667095,0.004427817781835548,0.0038373143816096585,0.012879397028786783,0.015134664386993634,0.015064402589841111,0.00991157707662978,-4.654284276576007e-05,0.005093456329823838,0.005634953204440223,0.006188279255419139,0.0033069896144958845,0.013965738705748604,0.014784695227538051,0.015579099366119752,0.005264016984065638,0.006078194668731437,-0.012751119677269013,-0.002519895714897462,0.005226788829402574,-0.0021173832967712677,-0.00961646303190292,0.0011935768549807858,0.009893785456462533,0.012671122710194379,-0.006336893328824901,0.005694357394823973,-0.006505076034301796,0.004066062413913794,-0.002760022107396322,-0.00036159631869963835,0.0014601853630982,-0.007858792193558586,0.013684044557439393,-0.007495086841866529,0.008751405264182433,-0.010721672573588654,0.010108383993768365,0.015263320213854532,0.007341011111991071,0.012386406028795035,0.015407149562775384,0.0006180368683594388,0.012946257907370386,-0.00012027542377469891,-0.015220233316437043,0.011391925036118609,0.014044029780252005,-0.002168036194682258,0.011072942630680715,-0.010757219566296744,-0.010934440367172622,-0.003906936189889111,0.0051656237551988594,0.0020151650037883613,-0.014166266328817803,-0.0029665978076609256,0.012373775795809994,0.008044635110286871,0.005549834281259457,-0.005353534086458878,-0.009690756673753811,-0.00735892234921362,-0.009038275868422214,0.004160606960663563,-0.006651500369382734,0.01264101994971372,-0.0034648188422846254,-0.013195033303202788,-0.0017723604387872433,0.007864428615839976,0.0014437328805852467,-0.007761574097569918,0.011626113551190656,-0.0041307142042229066,0.01182466189410995,0.007518177050864171,0.001991629021964897,0.0016605858630092604,0.003626644418205101,0.0011687556294884445,-0.00491915701524398,-0.012429288540913158,0.008227232260743088,0.0065123985818939314,-0.006087708013965867,-0.0004563835448879658,-0.002224491837511104,-0.013235658031550222,0.006263935273374172,0.014452352372888552,-0.0025959036046477764,0.013437427502653074,0.010782069296915504,-0.00999310673037333,-0.013309746753258054,-0.0025605736955355146,0.012102195104052034,-0.014642247812726796,0.00578473665769318,0.008425052313394549,0.004615901294971372,0.00016233214519413564,-0.00111471720823101,0.010970072254657834,-0.00040005477331555434,0.011550974283877736,0.0020319478210309785,0.009591348476841982,0.004489656160670839,0.000741892273963693,-0.0053832051508609716,5.378960232496274e-05,-0.0009536977197568165,0.008104187186268132,-0.014913502861404221,-0.006854891507488168,0.005825063375411558,0.013565305791401902,-0.014057532917816747,-0.010070265032601795,-0.010042266007253817,0.015417703034987594,0.008610797302463249,0.009332648345669145,0.014055393163452685,-0.009775075515846911,-0.0046893686059316965,-0.002278559806620343,0.006790893088236626,-0.003937878985286716,0.013037697055271906,0.006215324219973339,0.013544126075552693,0.0060839919237843515,0.00832664208638961,0.001270675918025859,-0.0067536232049690455,-0.008520159063302682,-0.009844024852844201,-0.004100870750963114,-0.008750326170787092,0.004846280633066597,-0.0025768187093452126,-0.0006728352639738255,0.00624956408031558,-0.0053687245116822956,-0.0017033536394983548,-0.004710651577304405,-0.01509366923469271,0.0013044087000213915,0.009730053878157514,-0.0007639645581194142,-0.0011051556178219742,0.008731539486010697,0.002396939939474943,-0.0120632465352329,0.008474368378264218,0.0035864641545329708,-0.00341727039654649,-0.014299098552419665,-0.006812465185253882,-0.012915738861950757,-0.003407960708046536,-0.009780220242125218,-0.004435008234398373,0.00690652197512499,0.002126372548510169,0.0015314887951641092,0.01418933342758421,0.012623702638467408,0.0038139672127583332,-0.01133152578559768,0.009417291793594344,-0.015350904665045656,-0.008929710068231119,0.015180231128663572,0.0036442461735157403,0.0026366929953303767,-0.003487558965214615,0.015396177849814608,-0.008611479254757248,0.006235215309125391,0.0076498626601652665,-0.007610038322630935,-0.012657358245472098,-0.006696900872488906,-0.009061393276992086,0.008078448375932766,-0.010414915482048214,-0.011535382387678157,-0.007127740693433145,-0.011344501335443902,-0.005483498486276866,0.010586125072356362,-0.009260195238851729,-0.015326407757678372,0.00891061245701311,0.0024433299626067592,-0.006927988693326812,0.00814823733311619,0.012487353436573988,0.0022621634086699045,0.01342068010947849,0.004751528534858929,0.006997543490220172,0.012931426703719405,-0.014507682856163773,-0.001975813985631708
-0.32704377791214934,-0.013734408700302837,0.0023302769492040583,-0.01436395689514361,-0.012883539899026429,-0.008102016996432742,-0.0006962667498462381,0.006770090408814416,0.012037345372401278,-0.00910645353435207,-0.0021981570273811347,0.007706675799559148,-0.009448136962782332,0.0003682750062618187,-0.010099082979367326,0.008292415977314758,-0.014966103935282825,0.0012868354735575786,0.009529274410011567,-0.004990794975337606,0.005112419095318944,0.005772282756630227,-0.0017399614159698887,-0.002093993637278746,-0.004232197151007082,-0.014038125900917894,-0.013963687392238522,-0.0028185297844090934,-0.01457427359454418,0.015372703970229162,0.014117623777720346,-0.009255525324114375,0.0013240245905773648,-0.0038965713483000188,0.013220951384607708,0.01193794886992627,-0.006904328756218579,0.008215083694053986,0.006088594858437237,-0.013661080472400361,-0.014388995917359985,0.00805255571023841,-0.015516498396279436,0.0016462408099352302,0.002768226085172718,-0.00981700840406459,0.0012898143994953884,0.012759028044925864,-0.012386670882284578,-0.008423558393673192,-0.015344823774340936,-0.0033277388037756747,-0.006139119210429315,-0.006650986225086933,-0.013068037415602526,-0.009777781144184674,-0.009570355121288638,0.0003536567609444437,-0.002945805763183519,0.014128430938724717,0.00863820316133504,0.012329952435590517,0.0029657476811600914,0.0060885315287462285,0.004660058809061635,0.00656113469149084,0.01528521829783027,0.0068685750785502375,0.012131425082778601,-0.01280994143110567,-0.01373051642950526,-0.0006464101551297945,-0.00018513418944698934,-0.001983194961586509,-0.0038474558273914813,0.0017240202183197821,-0.006125628589693493,0.010613978956598505,-0.014102830499072377,-0.014384694839627944,-0.008021747496697863,-0.0012796752330291906,-0.008353566805489612,0.005901216987005825,0.007514711402121486,0.007423303805160597,-0.007291993013312972,-0.012192662716413318,0.0048414979906075475,0.004309449649478093,0.003095204614877625,-0.005796434016927275,-0.006662314908688873,0.000940691245290913,-0.008816483143378979,-0.0017484981720046512,0.00842006388756603,0.004413234772794827,-0.00826504480023623,0.0011988948321499937,0.003554806118457224,-0.0034241845626530147,0.00966615183900946,0.01088733910942143,-0.013271572123546137,0.0027592193481507828,-0.0038194048109212765,0.008581822402322546,-0.00810728137549803,8.980899781252036e-05,-0.0011811223157628184,-0.0011411952445715967,0.007348986074759388,0.013494197982442516,0.014667638679682245,0.010789524611329104,0.005578795819760247,0.004535030167710709,-0.014143861618033784,-0.014631098723185479,-0.00397677714096931,0.0002827533671505393,-0.0050932107270299475,0.0016784358869350903,-0.006367872180466576,0.00933692493005362,0.0025844187694700933,0.012381341747355553,-0.01022100656608749,0.007223329479155074,-0.006344804092798889,0.009014241162811826,0.00821625723709922,0.010589386048184265,-0.015410249983158871,-0.011902693561063167,-0.01359591512420202,0.012775820056534826,0.007505533600646323,0.011360092453696673,-0.0018293839287033195,-0.00964684868552064,0.002706663959344647,-0.0016155669699948992,0.001741598164231372,-0.00282435273338711,0.0022935766009922268,-0.013909357215923977,-0.0036805731128561787,-0.0042908520385051205,-0.014329659146473848,0.015275754131226366,-0.007957579213415913,0.00905350280439016,0.007650396308854807,0.0055376256911843814,-0.0022028103979528507,0.011684712803871306,0.0061372817969649746,0.005103394922220703,0.002795299194075767,0.003967680096322403,0.01407319399401602,-0.014718750443574943,-0.013364618057502602,-0.010140662854472505,0.001986263376578,0.005118522224804415,-0.009324304555809054,0.007637412495108149,0.01467575721574383,0.013756435853942175,0.008060971202243541,-0.012808779088634807,-0.012606057264848675,-0.005678061269665777,0.014082361932575917,0.015064678344136297,-0.003015241772596485,0.014690502625911525,-0.003949112466097825,0.006130511770079044,-0.003311595289030366,-0.011110846538340654,-0.0021105708011661603,0.014181199198346928,0.010118400457850514,-0.00803259932796032,0.01356298464991456,-0.002456839376673965,-0.004192136556698818,0.003308173352313322,0.0034081965040104953,0.008287878970276125,-0.0032194793823189967,-0.013926243198462588,0.014885411892677891,-0.008011765121782519,-0.0019026496747756583,0.014832870387691665,-0.004603689162884752,-0.005148527112299493,0.002289838702927951,0.0014841106425395427,-0.0032576013964084848,-0.011479320733470348,0.013247945973522274,0.009047206935781704,-0.008021356692216122,0.015060907489019847,0.011814676218517731,-0.001035865462880807,0.006005906692344826,0.014606473690303531,0.015268765057478727,-0.005812881980687946,0.00720850897083114,0.0010962924201325074,-0.011088415876144762,0.0051273122428879825,0.015482663236537842,-0.002934390954643814,-0.0003924138283153168,0.007033383522983376,-0.012730391468968885,0.014811896130561695,0.002672955979525351,0.0008172812385221565,-0.006636828973413417,0.0048915170009969575,-0.014634193998042645,-0.0022814618442924574,0.014489883154405046,0.000811713788561777,0.015068288289878981,0.0048753557233522996,0.001512326814046179,-0.0048605136796858114,0.012609364163809453,0.006206692083520923,-0.010345423189703041,0.014997337475659307,0.009042660736153927,0.010911401422366983,-0.01306753863866075,0.004735020492459788,-0.013473328146731148,-0.008005471544116821,0.01004550249708376,0.0010715585775937196,0.0013685526440465022,0.001243364088436217,0.004307547901624274,0.008261860083630845,0.01133660421597081,-0.010956485842680525,-0.004156210927019167,0.007267343763308634,0.011747937367413086,-0.00023115054491306547,0.004203698694848407,-0.007043158624382841,-0.009871341147705302,0.009521067745251813,-0.0013704395628997036,0.005646844007716902,-0.015587646416018168,0.013899599418266101,3.0481578634063144e-05,0.012156826927500083,0.012667517265895122,0.010011706825971016,0.00010067673043677797,0.0007525931447191665,0.007294411539222563,-0.015070197890436326,-0.01325248059490982,0.006452955685622642,-0.005728367171540953,-0.008168085265720073,-0.009961600477035114,-0.004359910599006374,-0.006109724469995078,-0.011798250534830558,-0.005677789268541882,0.009189920306102748,-0.006351838004313024,0.013471819013257696,-0.004412473914562273,-0.011182081709977951,0.006123813290769203,0.01253503195889924,-0.005898910330548346,0.008996229786358684,-0.00490370996918256,-0.004777435996283982,0.011880503719847366,-0.009188432631037264,-0.012595626041145384,0.009129384617837417,-0.012776097863003062,0.0034120196065552423,0.006773854362034287,0.014793380331838128,0.010238793499663192,0.012007332219353246,0.0011617051457143111,0.012697812116586518,-0.012129110171471096,0.008163959404754409,-0.005898338359705234,-0.0030781515744212583,-0.01006107082511206,-0.007790583681779567,-0.0031351244545484713,-0.011503045022344217,-0.011082883286056004,0.001742448621881349,-0.01158833511645925,0.0029145072677217096,0.012880036715499955,-0.003702838748998981,0.006665861253219146,-0.008340383595357284,0.00150018749032765,0.011778122469605096,-0.003325338142196505,-0.0008198835056469761,0.012665081552543828,-0.009453550025910737,0.010633010835523371,-0.009421889031295577,0.010792108452666285,-0.008837705095392792,0.0007292775623619595,0.0032432091515285193,0.010875617440381891,-0.00561201951546756,0.01453583383701296,0.013225270923947686,-0.00045936918822684497,0.0018255843358855918,0.005190482315602901,-0.013400210880523903,-0.004936904984683584,-0.0031483061772194162,-0.0025924198049473504,0.0008369208432886036,0.004317836430977322,-0.005776803270245778,-0.0013368375247821383,-0.0017650600299256268,0.012104426748553325,0.005099333398080191,0.000502036141682035,-0.01075328930713235,0.01107514066406938,0.013510497360697107,-0.007700857593019934,-0.011187767036996504,-0.00740620213450072,0.006225312270498343,-0.010726047253913414,0.0031024856131999616,0.0035038390939643865,-0.009356534964705836,0.011277052348951683,-0.0033135742166609666,-0.011465813181030501,0.01092941671741169,0.0022866765546991526,0.014106882012841604,-0.014011587279098736,-0.005991747193074347,0.0017206960720290813,-0.011575823692154007,0.001412325727032912,-0.014253965794028385,0.012324994263240647,-0.007700145142694972,-0.010741672742101152,0.003794753665103224,-0.0023145001115275586,0.002569282617340192,-0.007621132687994116,0.007965288510614045,-0.00990040805392755,-0.004091796565634936,-0.0021780788903045453,-0.010094424768578199,-0.014758186682360029,-0.0009515560229576732,0.00645990851352856,0.01329455522222241,-0.004481819138885592,-0.008260598095346294,0.00855660349424343,0.001214953755038689,0.0037180535903655366,0.006996655408842454,0.014720265580061308,0.0007559298944407704,-0.007374223600649009,0.0066783715548849355,0.01527187775492424,-0.007091049267697724,0.00691211053390281,0.012426675858652536,-0.015279082402872367,-0.0017702907640156015,0.006408416792236721,0.011259857237035088,-0.005295920698425466,-0.0018267872218868837,-0.0007352219287501509,0.004314562411342496,-0.014719060536170166,0.0021362315188134147,-0.006218126291546878,-0.004705334686605521,0.00451833336449917,0.011987880745927944,-0.014054692913558462,0.010430562482017566,-0.01053911378003261,-0.009259442945540347,0.009498764213684934,-0.01104118687890309,0.0005716338353072073,0.0019425911470565306,0.00922693858111108,0.010007311964780857,0.009392129308340495,0.0031545008277468374,-0.01407943112250886,-0.005519018229416389,0.01332248964258543,-0.007369560791864897,0.0032512497589252745,0.0005335241511673708,0.012927567348132989,0.00479293268420912,-0.012465336316366493,-0.007031058358442102,0.01520249298809442,-0.008519770858707372,-0.001824014747353716,0.003951563044313211,0.011657938142324402,0.013761024728284374,0.009947788628521102,-0.0022086543394685444,-0.009069266862246413,-0.011541728282918762,0.013824803010095373,-0.009377837076932537,0.015511279562738949,0.009740552248190756,0.007339422787503182,0.013079767814581991,-0.010349019593686542,0.0032406842983430002,-0.004822904544851316,0.004312138166581141,-0.006124088831618971,-0.0007122581929865958,0.0020709515703773267,-0.009334158153308774,-0.011010951756427512,0.012026930540980346,0.012603851470192853,-0.008612575133957762,-0.013412426618088294,0.008300732704985197,0.008524680098201658,0.014912944745046654,-0.0019407999363243826,-0.00018099630114636403,-0.003219263259720599,-0.007413583609390515,0.002606699305932228,-0.006295419034289571,-0.010252112419411832,0.01502226387077903,0.004631770515226348,0.008431196881091268,-0.011534909995526345,-0.007908555407084402,0.009076397119515932,-0.0035637158733203417,-0.008604411189988517,-0.014436444037663344,0.003818837559246481,-0.002230890920341542,-0.00634016506466871,-0.010724713101200784,-0.005990650012084684,0.01510505044282931,0.014383836163143295,-0.008766623934827165,-0.004757276993522595,0.009517606162546172,-0.014160653871085102,0.0021922441716083485,-0.009949677541919714,0.013213132997593233,-0.007650586418574065,-0.006178897632975754,0.003081139225336177,0.0040651880150595135,-0.0015135814431782892,0.005398712117924451,-0.005601407446450202,-0.007558878637009572,-0.008227476783697493,-0.006253945183024166,-0.00790907572359046,-0.015047593476455134,-0.0062571328746468535,0.002289130409131406,-0.006793916693743619,-0.011099266673858441,0.0012627592668818521,-0.012102567489495921,0.008435240497743895,-0.005675083390959016,0.005234887962956843,-0.006136354581299543,-0.007847624955408337,-0.008574389013103555,0.006514784806674886,0.004742432724143476,0.0013078776739955007,-0.002606395948094472,0.011891348727374327,-0.009749608866836925,0.01286555164821429,0.003773557465122604,-0.005256985837121184,0.00014582511206693433,0.005164919641904287,-0.00622005689556375,0.00546956276754185,0.00702812922904341,0.014061460863728673,0.005307944057258037,-0.0008390961080266615,0.011561733782531902,-0.013351749302713982,0.013215310980277985,0.0045857250870073064,0.00852534061793667,-0.013488640662227477,0.0009756249395088436,-0.0055425374746321115,-0.015321882055578086,-0.007664858398749728,-0.00910725406718602,0.00399832065238976,0.005911705738880665,0.00010525478690721554,0.005580190094596212,0.011167170519162065,-0.000372058104295539,-0.013421514953457395,-0.008236437332789913,0.0010112938621123883,0.0046505285609244155,-0.006430527684519804,-0.001130245906343863,-0.00537680113639671,-0.012044301949112813,0.015371197587214298,0.009184789711604406,0.008509695426194341,0.01038750239273948,-0.013121717146473446,-0.007159558054625079,-0.007857952669341917,0.008118417830161012,-0.0008287786691191755,-0.010314118419489222,-0.005611482753091108,0.009725963166561408,-0.014983123863875084,0.00042811770179443723,0.0018608397270838094,0.004133092898688566,0.00997238488408126,-0.003079873643708604,-0.013181911679375265,-0.003093094069116571,0.007479739786641366,-0.0017213743476840702,-0.0030301037973903266,-0.0028436538269799166,0.006956781308003788,-0.010045714294154767,-0.0046009753106008855,0.007735776413795116,0.0071576614165181456,-0.012688221915488167,0.013887025301781306,-0.005916494518863419,-0.013493570683772157,0.00810190830100812,0.0036078481964937556,-0.014715655181511859,-0.012621674789111071,-0.0023101106742844275,0.007047053598189579,0.014261162963315966,-0.0034267321900215003,-0.006082191864188898,-0.015236145208577957,0.007150360201612811,0.014536068320898859,-0.0005662110554516819,0.002635678307424543,-0.015371020944102035,-0.011454333629069884,-0.012818501993558305,0.013188090701085824,0.006380491981164416,-0.0008109198701444637,-0.003548463378918794,0.004385815717222213,-0.002045721502138463,0.0021278847506436514,0.0007209224834326088,0.00977253252670858,-0.0027703712069140074,0.0022659874266872763,-0.0031591492327203603,-0.0026975350755209307,0.012329454259753597,-0.003147300536462151,0.01458934630410753,0.009967998199296228,-0.002994497303468714,0.006216118841828863,-0.010439573590419516,-0.0029291980999883727,-0.0012523919414575216,0.0002568217398831209,-0.006199497990885525,0.01050574732065438,-0.0063228562808491685,0.0067734098937164075,-0.006702786133476125,-0.008230527372817278,-0.00678379548659579,0.002469948306101675,0.011940442832643349,0.0017432694354637228,-0.003927798786133009,0.0018859670955787798,0.014615795328359878,0.009181236499569766,-0.013936048552636842,-0.015286799394552224,-0.008611018075748048,-0.0019179618480911452,-0.01048064435974394,0.007985888112960408,-0.015292524535154253,-0.009865736056648408,5.436172236104875e-05,0.01160218458035698,0.0049147892179563085,-0.005571623791213124,0.005240048336600207,-0.012402987829330706,0.004019888736309211,-0.00818066505757866,0.01560183694041441,0.0026699604106401355,0.010220440314035541,-0.014390873216115162,0.006335907358452252,0.00016602506627075297,0.014864281256497375,-0.0067853500729785285,0.007746915728175867,-0.007271541086060283,0.00776663276142326,0.015450810256591525,0.009776173547671674,-0.012381439404640437,0.012215069054978898,0.007925213609337796,-0.015018462934503232,0.01263204474558386,0.005932626621530948,0.002998105381814529,0.01436703445046985,0.00931131535043176,0.008145917621636842,-0.009107850318977668,0.015011471372582044,-0.011297540284189118,-0.010299235896791083,-0.010695446532191222,0.012381017856645735,-0.0005534894647986968,0.007436549181906622,0.014462144540736487,0.006967151087506333,-0.014827135999504398,-0.0111442152205735,-0.0060710808628237425,0.005721487262886522,-0.008133515548695555,0.004187202358410011,0.0073234096819913205,-0.012179027639440392,0.008304156141696401,0.012106106074363698,-0.011081068675419248,-0.009738801654276392,0.011886417273947514,-0.009444327609744327,0.004904801167874,-0.006387298634465126,0.0022507762796458823,-0.015294432722422868,-0.002529218134319732,-0.00653896978454745,-0.004610386997269095,0.013971824216085546,-0.012003159481670446,0.002908163085083789,-0.0034610928215092415,0.013922329326126852,0.007353374939838193,-0.008099668107915597,-0.013309278064320897,0.003672347864168056,0.010413122066108997,0.007762153709077728,0.014011706977898865,-0.009845173411654116,-0.015326689177933572,-0.000948552767964999,-0.01409813613144379,0.013919000983524315,-0.001019022930845579,0.009845737962348545,-0.01415533388637973,-0.0005368483359148093,-0.010738759565680763,-0.009193809571577324,0.011971404176241516,0.013200600226733115,0.011288174524737286,0.012513996063380474,-0.0035717118446187412,0.015187086028261344,0.0023465622389891826,-0.010442737040147233,-0.00962565318886956,-0.0008201165520872952,0.013995656693004815,0.012738647135037744,-0.002472495378111946,0.0030481331394605557,-0.009517625568700176,0.01404943634811549,-0.0062331005751575,0.015479310288126998,0.012425160413970442,0.007292412467798354,-0.008846680391356707,-0.012525125481347994,-0.0006657932130149993,-0.0035092864750388315,-0.014669975319237277,-0.005089114747347027,-0.009700016543997252,-0.0026057389625246605,0.0012577630348479425,0.009624447350057769,0.007774894056649238,-0.009369655686897554,-0.0008387532034724934
