-0.7471566996260277,-0.015006806041220642,0.003169766133817656,-0.0006208737069915843,0.005021962954477131,0.012955639418046849,0.011643037607671571,0.0010309358939820934,0.015409241787770516,-0.004876288898260483,0.008242698172295691,0.008509840027385206,-0.011991763493192899,0.01049964315437674,-0.0025356961503539693,-0.0015297596923005176,-0.00019685397398657226,0.0037952727170762687,0.002285948919351792,0.004961695945064185,0.006254828716799832,-0.015229708665079892,-0.011168029153348812,0.008715146764000727,0.01300878440985017,0.008714711047376061,-0.008459328006317914,-0.003559565385136288,-0.003078981011159207,-0.014019194571553584,0.015256791597909457,0.0030580230607840757,-0.0044473215733129845,0.0017255096007978456,-0.0018804576638897022,0.012970604647418522,-0.014489341586693915,-0.005893877238927155,0.0019667282603147394,-0.012684717913307483,-0.00930631524677392,0.009697720146210318,0.010075380054001208,0.0020332722183279625,0.005855415178885638,0.014307516490601496,0.012453563764630759,-0.013752476238198207,0.013467866210624908,0.013134021931642804,0.012760965012368522,-0.0046926117870334,0.012640202464541589,-0.011620822857444271,0.011329173168729143,0.008535544127658511,-0.0039707216819189345,0.0008037786425451159,0.0018208384622526233,0.008951365576512813,-0.008346184196715341,-0.012689594401691352,-0.0029608927892487737,0.0006024621865672632,-0.006414410394701288,-0.008744773750740086,0.010061089931781682,-0.00019670627628898263,0.01051538046327101,-0.0074475667730496894,0.009673810783562706,0.00812630498249986,0.007870419368148855,0.007054903723689009,0.011375701408586562,0.004929855644276154,-0.011374029675422098,-0.013969547682945595,-0.004401037099415504,0.007522223656320614,0.00413850383156544,-0.004539620244823333,0.0010372382083664138,-0.0028986704180649497,0.0013721249682339225,0.0008969058790536943,0.010513489637407378,-0.014586189961959498,-0.008353544958450462,-0.012686194189648652,-0.00023470389946213255,-0.0008399746661493443,-0.008912159418155846,0.010263693544269408,-0.00627057795291084,0.0036936984441636733,-0.009775446200487571,-0.0022851060587272196,0.00995395799760954,0.0023847299492261408,0.012082980691735287,-0.0010763147563149708,0.0068579988233257415,-0.005185958470547494,-0.0035408803396739796,-0.005640066138729392,-0.008053089721427476,-0.007707260439329892,-0.003293261510682377,0.011705349928339392,0.002058546583877663,-0.007856146772425451,0.010717356051404722,0.01192681115560839,-0.0108943353981313,0.009415250674089753,0.013661082162476378,-0.014531371349744224,0.011404478653269694,-0.009724236309415504,0.009393258991022668,0.010470732073227539,-0.000299150634928351,0.0020374536908701786,0.007267861924954457,0.011464179517930568,0.005010666805392923,0.012061877881443483,0.0008243186137140458,-0.0008058613293564255,-0.015057115309798277,-0.0035928505577381004,0.009422375237110942,0.0020572265630902885,-0.00687320206598465,-0.0048402896260033995,-0.003947233255487837,0.009909393402705701,0.014976096483474508,0.0006879498559907472,0.004391776629045576,0.0014505785603691028,0.0064468006281118186,-0.013655290106862204,-0.01448491673056303,0.01395890844349167,-0.00039730114135822295,0.009764492445026165,-0.0003966092376017534,0.012790977051615922,0.011842463028313082,0.0070680743740001335,0.008532095085780567,0.006054610921892651,0.010349536599473724,-0.015375787662353764,0.01104957721657996,-0.007386117779638959,0.0018070964567478177,0.0104671878492167,0.01350160840305771,-0.008628411249921072,0.009323387010635412,0.013319253123956959,0.006520197575949939,0.013673716481617474,-0.004349925173140496,-0.0023717988050567067,-0.011002154978907507,0.0012417793330213624,-0.0068061254641654245,-0.010022237333061713,0.002435204384418011,-0.0031159754550570753,0.007962117313304252,0.0007014071006408336,0.013278581647084724,0.009310881253048825,-0.002325033711187096,0.008526360843561256,-0.011242999909783481,-0.011567506449146451,-0.01454158003244298,-0.007286905493733346,-0.010124164441448914,-0.005664189449619647,0.0068474828575173854,0.0033788559319830012,-0.004016226720590304,-0.012742536545754541,0.00036574765508436136,-0.007460061228140611,-0.00710276697851717,0.005533219060328106,0.012812674024158345,-0.002437612500858992,0.0028898628092764965,0.012701196433860217,0.0005193121734750374,-0.007813875390665113,-0.0029179175176138397,0.005287277317383227,-0.008361641494369985,0.010369341579616817,-0.010128321533054988,0.010515776056677022,-0.015066718657726567,-0.002808139799812877,-0.0052830723526351535,-0.004690402546192258,0.01401939769359829,-0.011160883267581977,-0.013881289062222912,-0.00863811181518757,-0.010590284597566405,-0.000678670024734155,0.014285788845682497,-0.01517190839892709,0.006640276433896121,0.00837825853078324,-0.013626518813247952,-0.0016429392049950933,0.012140158052196884,-0.007879455572537896,0.015095360855376407,-0.0028761346183106377,0.006850142225222646,-0.010395080814666929,-0.005090214479429516,-0.014182693076242175,0.0004699553345669273,-0.0033850970793609,-0.010262948538632955,0.015242413150776943,0.002161184520647296,-0.00457929775907737,0.008130446353856687,-0.008748381435615939,0.002908180641260017,-0.011564913230304855,-0.014920830281838833,0.0041955162214286496,0.004264362264473583,0.010577974759417588,-0.0021109930570245294,0.0022006334677887977,0.0031724341497581174,0.0054736030881835165,-0.009652379196639086,0.008366716586452334,-0.005373918173361018,-0.01035779983016311,-0.007227104583318798,0.005291272442870119,0.01264248082909044,0.005719109134583723,0.01026769079033478,0.004504807423439405,-0.010200235401634821,0.0012696177113353316,0.010700026429215116,0.004599976921923946,-0.005239453860604551,0.004386117712708179,-0.008721809858999903,-0.014371705772152379,-0.0007851276927719371,0.009757500057984713,0.00956352846719367,0.0033519395498096786,-0.002145826840926044,0.0040160162918003,-0.0024547389968504786,0.011987187340894736,-0.0017015093002788646,-0.00493556246744524,-0.009905075172669787,0.0024036595757451866,-0.0007184741039206813,0.0027696278955263685,0.003060434965992214,-0.01253755174101413,-0.009709823291223281,0.007109632334607575,-0.0108452980292837,-0.011024631740003996,-0.004971649973336361,0.004245223178417256,-0.003974709608966238,0.011634419433857977,-0.013109666729752768,-0.01325682485543402,0.0005236800935277328,0.009243414490434459,-0.013980659988305319,-0.01300935242797456,-0.011283843034939862,-0.010912624219818482,-0.015459436891088196,0.0030910334681563227,-0.00989945374558962,-0.007265794536260525,-8.301196197689834e-05,0.012143259411344712,0.010273899925707188,-0.00898516451379474,0.00040921631816569215,-0.0004595732683659662,0.002560906899576807,-0.009903455822936044,-0.008982519085625782,-0.0034143140846647144,-0.015397643674139372,0.006223176439097814,0.006647670427159556,0.008205536111817235,-0.0025213291798729075,-0.010596152496793923,-0.009496404469887042,-0.0031309247813555152,0.01161085994753508,-0.009173060117759174,-0.014839302585970129,-0.015457503260378147,-0.007678645830659286,-0.014654940690032248,-0.007596853351801654,0.0018459788760314053,-0.0043144960992375254,-0.013720016207014206,0.00034348544202447706,-0.012897466159985597,0.007718897670426085,-0.002636337008671351,0.008767183797358725,0.0005400351571679118,-0.003986250930810731,0.007788756821175247,-0.013877444783418763,0.010255980798607765,-0.005977244170980351,-0.003501703103477999,-0.010670583285230451,-2.438264460781145e-05,-0.015488237392710883,-0.010060576740170444,-0.008732391788260657,-0.00851995084232357,-0.011941451270977888,-0.009189215512404082,-0.006599476682616654,-0.00984080323150615,-0.011309186787189899,-0.0068062926358470124,-0.014770938714116812,0.005466828213092374,0.003327530485616615,0.003501615405870854,0.005171258774937931,0.0013887602854151318,0.010437368129899285,-0.006354189276032603,0.013548543935699636,0.007406236995894926,-0.003114479354041192,0.011418900097353232,0.015435462058283118,0.015405657602497506,0.007796075263374183,0.012615271810949395,0.012218961498269933,-0.009019643408012739,-0.0016324529099831543,-0.0013867560138979308,0.007608424358583561,0.007502719130298579,0.014937310281498601,0.007484240281481952,0.002498130885521716,0.012090026393972612,0.00800764473410236,-0.0034430468662509997,0.0145205989878587,0.012372236429278132,-0.0026382531949511803,0.010290218812177825,0.005646034986485245,0.0017629100558914784,-0.01048792798780257,-0.004901488953144923,-0.0035652026929561924,-0.0002839836659737881,-0.011040707711845534,0.009431150433499427,0.005476449854518065,0.014754993050546922,-0.0022554099969307392,0.003407505623186112,0.012548873027267923,-0.009658694107788954,0.012991584659714991,-0.007600346918785736,-0.015596468921522801,0.00145940678139855,-0.006646085933282132,0.005557949089908858,0.0014305395813535744,-0.0061674097717448265,0.010139874779854029,0.007954878329430162,-0.008724458406976998,-0.0016301257307840614,-0.001338589110716975,0.00595744755829963,-0.0022921792424051048,-0.01075120135137226,0.015615514210412088,0.012499965741905785,0.012484625633302191,0.011906745996852656,0.011051124119085709,0.01099361991025348,-0.009373097678785629,0.003471254824208212,-0.002235524476436296,0.004847019892586582,0.015419082422479781,-0.009585062272177994,-0.011761446366150778,-0.0026874381496829955,-0.004669693065356386,0.0006699128677642024,0.0024805638590960737,0.01384964872686717,-0.012266562184320592,0.00314963205330512,0.007731551361405298,-0.0011185114967491583,-0.013605491471825569,0.001234331563644421,-0.011005271407566661,-0.005570650802721282,-0.005940832025345174,-0.006598747082724669,0.00461097865737705,0.012778458187118539,0.003750534019008215,0.011306474159671433,-0.004751390500072474,0.008637339543690455,-0.013774981345132466,0.010307270053610085,0.007452696032530848,0.01516592967748243,0.006771927350745673,-0.007211476652961776,-0.0031166179541140503,-0.008659484124680948,0.014927463995087629,-0.014607187734293078,-0.0021976013358319772,-0.001284433225897233,-0.014684481865223593,-0.008781938036273154,-0.007294264063909109,-0.002657132846875212,0.009135271587256799,0.014582500057569853,0.005052225445761678,0.0022451083214520343,-0.0009945996938728364,-0.0016957432617985754,-0.013036511846594035,0.008271824941705183,0.001012606495843709,-0.008348472618368935,0.0025316381435864788,-0.006456682738343683,0.010190705750792214,-0.006281511194206051,0.00576023979492165,-0.002826740852342847,-0.002611062648144244,-0.015425090975901126,-0.00014520957407160653,0.006528316787378734,-0.0036634950510877375,-0.006868669644762723,0.010063425427320527,-0.011022709332848567,-0.01362736919829691,0.012634951203220682,-0.00017468427329012798,-0.015050914948179346,0.009490027751677416,-0.004400623286946289,-0.006049311779383566,0.014500094754093598,-0.013112063632113199,0.0019517452445091815,-0.00618220534440523,-0.005326806207580928,-0.004185551297678378,0.0010086416179582447,-0.005681029153261699,-0.00663396796539471,-0.0008996108924681223,0.005252754576471733,0.007901123309429707,-0.008943306080860872,-0.015411532740915373,-0.012320487183108995,-0.009132633571454912,-0.01275385969325216,-0.005954666143033301,-0.0005491334738924811,-0.007491976576725616,-0.011360528384665697,-0.01391013670261957,0.0035411923302780084,0.009135436561633643,-0.013655226545923393,0.004261067573543772,-0.008712340909812929,0.00923506030158995,-0.0015818956497441403,0.01431208022884593,-0.008871585335619356,-0.00514918914931305,-0.007110030114930593,0.008061716184760526,-0.004888725749537033,-0.0021657648101281943,-0.00953207160086026,0.009086496395968143,0.0005625095907384851,0.015009132144067787,0.006551618068765235,-0.014431302896713114,0.009664461823346304,0.0010305060108892102,0.0003226352952097819,0.0013889682480567912,-0.0073912106031704325,0.011261062125808748,-0.005972176866789674,-0.004369955718763169,-0.0023067380643326182,0.004901375633372944,0.012839298809305125,-0.001107066650085524,0.0058615391040138555,0.014720717840074712,-0.009726941695806242,0.009584185579775528,-0.007259236775001322,-0.0013126336595236272,0.015201722843406911,-0.0013593822533171929,-0.0008370620250663825,-0.011779381862034914,0.011354103172560342,0.00075199871239277,0.013077422816678171,-0.0057387953362547026,-0.006689071081415442,-0.006400592618076802,0.005000227777352064,0.012623000601288483,-0.00274939038628412,-0.0045152625111561755,-0.01450845738716047,0.00026869591498996856,-0.006302810301464807,0.0005127375108464789,0.004890060204952074,0.010320951393226582,0.0011496684906590858,-0.013992922660318038,-0.014837630853368658,0.005338726241861928,0.004857517879331131,0.010707140226136096,-0.015215080882086427,-0.015174618862568223,0.005570449847653609,-0.005157173659200841,-0.0050579298786195374,0.004363749740557615,-0.0015850225872094358,0.00833154300209707,0.010562509885014313,-0.0062348450502954095,-0.015502265050818496,-0.0004825307192110502,-0.006327971594663386,0.002980300740301367,0.013791870436404702,0.0023474017120199663,-0.002141361936332513,0.0027499492686221608,-0.013006737263015117,0.014025969560369396,-0.010740827723914166,-0.007085987122923704,0.015475697852679986,-0.010707609077497186,0.01561721905920914,0.004384887854639936,0.0021092591084932062,0.012334406719763727,0.005874031768466369,0.009564106680684532,0.012715899808831761,-0.005654599264796754,0.007818084267491615,0.01005559890022761,-0.011174669737624182,-0.0025852308789202916,-0.006483906992363807,0.0133310568447386,0.006534047553768883,0.010766065641852542,0.00695836542536556,0.010615372475233514,-0.005201443893122076,0.01146402983777741,0.0023821552993132447,-0.015526520213609098,0.006959774740898109,-0.0015999265943386597,0.00010715459802335472,0.006035151693965724,-0.005318657644564819,0.0086095143121966,0.009943373747818004,-0.007921105912599452,0.0028268365879794873,0.0024550733275162176,0.012849798893657505,0.013439263214347356,-0.013332795903294923,0.014744828838181998,-0.015620051839592013,-0.0004322293051246852,0.008387715632466413,0.008562295540483933,-0.0069206797699983835,0.006208545978292741,-0.007805940803138522,-0.015481213840933181,-0.006639517242992086,0.01122093531962201,-0.008236313023893709,-0.01372778998653312,-0.002864625380290666,-0.01560382626704165,-0.01160252411278621,-0.015592565369191246,0.006711317404308005,-0.0013300808307839147,-0.015352430946567797,0.007111333217890887,0.003037556574707244,0.011643791388940627,-0.013937069846739092,0.012738611065299662,0.007518350005773802,0.006324422413723524,0.0013439980649016942,-0.009045694786806516,0.013171773314874981,-0.005608364084034537,0.0027731728522240873,0.015426310696755298,-0.003149235352073728,0.012714152863466947,-0.00694873284679056,-0.015145523204991795,-0.01248052047670557,0.008955662487314303,0.009038278802549104,0.01509896837562949,0.011657199268762884,0.0027266329585640438,-0.013577959843038969,-0.011811485278179289,-0.011856547162259565,0.0052459752495524654,-0.014382202412234906,0.01460958220389955,0.0019277139036961745,-0.008909643088414371,-0.000598236627566865,0.01040620065679606,0.00040962239005469525,0.0054332104699860405,-0.010034550853806858,0.0005714912874011449,-0.008398486136439978,-0.0064285892649586195,0.0073865812006635514,-0.011464490516928442,0.008473580882001678,-0.00013854373445140733,-0.0013192595621578547,-0.0038104271663394022,0.005641910385912188,0.008777847963605666,0.014363086204362576,0.009673692358885433,0.008714603321173839,-0.011100104492315833,-0.009984413385121193,-0.003924667885257256,0.00406211755785809,0.008003325104890765,0.015279320112646773,-0.007209957054168471,-0.003944414033257321,0.003137081748714722,-0.009246330274466117,-0.0008600227839958667,0.015136778549659856,-0.007268935081119095,0.000611267812278167,0.014827424835661619,0.008633285794698933,-0.01238436949205747,-0.002526859993446276,0.006828970289098395,-0.0021590133209884906,0.009370012037493814,0.010989674900849226,0.012024676317185085,0.014504059756863218,-0.01499398872860453,0.004202681673203791,-0.007444229319803566,0.006618743472866645,0.01373893222061695,-0.010937314664249177,-0.001136960803764256,-0.00028181631122931386,-0.00012561177092034262,0.014012134017521022,0.0008675209521015609,0.005695257704986866,0.011299882624655644,-0.01094368527165862,0.013740415361148887,-0.008819920054024436,0.0014241149578681812,0.002380326524026276,0.004583528758126464,-0.00852260669509751,-0.005197058610174162,0.013105410794609435,0.01100610178962496,0.011647314715206313,-0.011593822892397687,-0.004107273827160814,-0.013599314808242561,0.001899588604917457,0.002428398008086096,-0.015088336034624415,-0.008628961795899611,0.01410142100347822,0.010415614427345829,-0.0013410366057536073,0.007789280161235878,-0.0021841192182186983,-0.011556809706680861,0.011276594375444884,-0.0022060413905549935,0.005528920526131312,-0.0016311318183783695,-0.001431148617451819,-0.0005235146104767344,0.010319452988872546,0.0075095350569526036,0.01237227811505956,0.007714104626013119,0.004808491431741814,-0.007849536510177262
0.05235354649364007,-0.010028445560206673,-0.0004935726078704461,0.0047514253353671786,-0.007079431540697373,-0.0113319037700596,0.006275322631688604,0.00235698296553348,-0.0005207848358691446,-0.007900750520770758,-0.011626354837445155,0.005478935338380153,0.008928326771601585,0.005914854934860336,0.001764029912692467,0.005477418464007469,-0.008423124812720648,-0.003485052398947676,-0.0046517565702518665,-0.0069696172733531535,-0.011845127221022978,-0.006025360666148418,0.011068158161182673,0.010393965773515854,-0.00020207702413779088,-0.0035304821991758197,0.004300825994110791,-0.01191460284637414,0.009429881278579307,0.0011192475282573167,0.002332314262154734,0.0009404486962695802,0.0009729043181845864,-0.007141605944082044,0.010311363743485152,-0.006757313186694865,-0.006915925639285121,-0.008780577337430175,-0.010832498307734327,-0.014399399049538868,-0.0002895187445526852,-0.0015824322680734505,-0.004421715430161968,0.010824234435547184,-0.013668955269454056,0.006278418136996974,0.014680436157624231,0.0001186328507795549,-0.011951718851652953,-0.012366347648498373,-0.008668502096161566,0.007389235391267138,0.010870832055092657,-0.015623267838205685,-0.004343940125378462,0.006436413248095952,0.0055883816202661404,0.003233262219257526,-0.011366887691066314,0.0010324898110019125,0.015217847487352679,-0.007652664872285341,0.0019133216172609081,0.006209804566605722,0.003960632807522707,0.0032335800922466003,0.014379529492350511,-0.012623948538928937,0.005246146569801209,-0.008310083400276091,0.005727970044213007,0.015312318572087959,-0.006444721321995476,-0.007704292331146466,0.014233515483042709,-0.009177696249643513,0.013968405393245814,0.007593431100910873,0.00435033236800728,0.004005946200881626,0.001647589723513452,0.001694460539562858,-0.011880191423394838,-0.015452969792464872,0.012160244563668505,-0.0021746141903265896,-0.013321386223390245,-0.008295458379875036,-0.006876780387152524,0.0050244040417477265,-0.0036086971208251564,-0.004680477607981216,-0.005598873234896971,-0.014943790300117263,0.008049730179997936,-0.004361140198290481,-0.006044557750765774,-0.006336282592557642,0.015563539804641377,-0.0006975960793298425,0.011143709138584968,0.015417821234233525,0.0101000438561969,0.006076253824259868,-0.002504823811123249,0.0035168874895007297,0.011522645473550747,-0.01039008711055415,0.001346343337276075,-0.014415761551329724,-0.000943699044438532,-0.0049386002577427625,-0.011804388949495488,0.006544344501475497,-0.011215323527816692,-0.00145278886570031,0.0025463116965018743,-0.01552942046216952,-0.007768070525090927,0.004916040846830489,-0.0036879288849947876,0.0005887265846630779,0.0005954481772185094,-0.009647493924822606,0.009074280742709202,0.003785492457486284,-0.008977846335745504,-0.008567094688197914,-0.00874284766613189,-0.00045975076467187116,0.000558945259389549,-0.009967345821433191,-0.01348343914443559,0.0029886277241520597,-0.0016433157332698275,-0.0035273216784597007,0.011163901522287595,-0.013941850098331075,-0.001705933326598158,0.010112893643982164,0.0011139624145035248,-0.010555932373910684,-0.003308793702800284,-0.014876587201666226,0.00017839673091749115,-0.008806853958119094,0.007677634930819905,-0.0148961068463124,-0.0019435822710522975,0.00914472384701189,0.011838828983822393,-0.0031824865539540506,-0.010664463971702145,0.011645710683473002,-0.0037453980588712404,0.0008354402083336358,-0.0030165464218558295,0.005052939484224112,0.0066655494938829656,0.012757208612416134,0.00807445228634563,0.009259385574698086,-0.0004640652882180771,0.003851607500113067,0.005734649260627891,0.012360280221779008,-0.005744567213051607,0.0016883830727310936,-0.004488510121779667,-0.002741275202895077,-0.003048073842954486,-0.011226785552631876,-0.01269098785082916,-0.0027250538510791276,0.0020461169881153727,-0.011973027238493158,0.015308482039300868,-0.012933155030524284,-0.010128120555203159,-0.004792406729928154,0.011864086107597276,-0.01466520636312524,0.0035866870346363522,-7.784847533553823e-05,-0.00960205805082939,0.012284703141756422,0.014510632373634574,0.0037177880956575328,0.010675124020755884,-0.014416911899543075,-0.00583422409477997,-0.012050693055510058,0.00023093785539622156,-0.009625164954052844,0.013401848682018968,0.00019839795602603907,-0.0035268592587985514,-0.00888546284847816,0.004125786764495081,0.004367267891766928,-0.01064803038138128,-0.0077354948184212525,0.004440991563482788,-0.0067091493914742135,0.012228551178237694,0.012133455051648602,0.005747850574558848,0.01006153403259508,-0.008079936971852187,0.007434526014706845,-0.008897923315712849,0.005477868362930134,0.008912040152675405,0.013161541821520331,0.005104365751714474,0.00603971737268523,0.011656752796683507,-0.010956280796421573,0.013697387250330343,-0.011058389405956078,-0.003970220132089772,0.0015050879004585216,-0.009626362342492176,0.0008570248255017661,0.0009933290120968487,0.011969443989516444,0.014493078426414847,-0.009491323489137537,-0.007956828127377417,-0.002062019396481247,0.0020030443346735942,-0.0032976026587013046,0.0005643642725815217,-0.011788869383280684,-0.009746688005177266,-0.014148803969250745,0.00849543902308504,-0.01298383259788834,0.010420668838546074,0.0031594897313075234,0.012992186086947898,0.012917960515887202,0.00288742141350027,-0.00858756380686285,0.0019356216173270653,0.000562514622113652,0.003199022432846219,0.010830835354809781,0.0017716634027590147,-0.0130774868361939,0.010236845039721193,-0.01501044201740481,-0.007368144604680394,-0.00816772708889988,0.0017193522589577619,-0.011553908870168213,0.014973166976976246,0.011126652383918762,0.005251248345294161,-0.008642852249559446,-0.0009942946306621299,-0.002704512531819714,0.004204807002086799,0.015440515521362403,0.0014435272898091567,-0.003892877605438908,0.0016298208969279515,-0.009563786216970438,0.004976543019087798,0.005506602872265437,-0.012403580866552143,0.0031480414010858536,0.01034444144962808,-0.011553068729409303,0.010190069771823606,0.0038088122557084383,-0.007032765168191955,0.009152081838669992,-0.002947131227850149,0.005585217533941246,0.015130765567221819,-0.004296959328529706,-0.00015771517990117672,-0.0025875122429271785,-0.011670274628642844,-0.0029617358964615817,0.008339182694197011,-0.007382535976316028,0.016597133396335895,-0.014013265037431735,0.015601965013737186,0.01394097353467984,-0.007095701947860598,-0.012530328710587704,-0.011750131324726314,-0.0022057030713950416,0.006836047540299532,0.006710226194965908,0.01050336602760859,-0.01175995644491823,-0.006620852917991245,-0.010013879387098502,-0.014064665520332097,0.009486815297773484,-0.00010453628225004364,0.008939146297138175,0.010530465999869098,0.014932436858328211,-0.009285841438653273,-0.0014495335596887045,0.0058592470899801186,0.0008391701934296131,-0.01521118734951003,0.010129777355346724,-0.0010411333746738482,0.013803649487240364,0.014243722334159775,0.0033209144333003655,0.01588262171049841,0.015504921005026253,0.012649644870672567,-0.014167890527509745,-0.0020748888926533557,0.011672461338992333,-0.0009041388555854317,-0.008701829128959114,0.0005537856177905496,-0.011890605308865553,-0.009953246678389852,0.008809189463461634,-0.002389127379891135,-0.00718603656853748,-0.004256341272450233,0.013552400088733296,-0.008312251572302113,0.014029936152437958,0.0012475149708632719,0.010175516622681045,-0.001610263396844082,-0.009405145485860815,0.006201528362939903,0.0030246205582981365,0.012729561441011294,0.00046951411090544073,0.008960915058552002,-0.002199973660099792,0.014197627663498706,-0.006460065123006115,-0.004066181486625803,-0.010422099430440467,0.001291095118137511,0.0004254356534118931,0.0054304360906096945,0.007501251298361665,0.01430591534915229,0.00782631084196557,-0.007642331983099144,0.013134649176941484,-0.0016635974293025746,0.009308075815143693,0.003756953905216591,0.00498697028459841,0.01287944371501917,0.003275300567406775,0.014265884156979452,0.007207620195223974,-0.005493055055020914,0.012786960369207602,-0.010536871326915252,-0.0024971023745736227,-0.004391807383307169,-0.0027710421124368177,0.00026418141164555905,-0.002178570233563487,0.006620648308768437,0.005132978162598944,-0.0021658439633613926,0.004783392211631109,-0.010765105060380874,0.0026271045770706225,0.008399348424937692,0.01394534041102819,0.005931331777779754,-0.009003830792188855,-0.013358513313679187,-0.0016740840266873537,0.016156749510264783,0.007384360549290332,-0.008866429532746684,0.015511910004524652,0.013503279482529626,-0.00992032510043948,0.00015739138120061366,0.014490310980046928,0.00634817238392507,0.010591826183600312,0.002586485768574201,0.0057246935468214626,-0.009633884855613312,-0.013817080094015681,-0.009006566552291066,0.0012942961301836454,0.01213986768294766,0.015166942862205924,-0.005461334330623729,0.011057320263845033,-0.007068884878441512,-0.012455502425338978,-0.0028944537120238235,-0.003418706248800109,-0.009688667154137782,0.016389426171010687,-0.0052399986737226775,0.011158164331141779,0.004054081113312903,-0.002173950399466609,-0.003290541420287949,-0.014376491342131563,0.012546830691478683,0.008213444411404707,0.011716640973234705,-0.00869297832022926,-0.008282857673146278,-0.0062499400766037215,-0.009676372972873076,0.015664494902591357,-0.012013537993629154,0.013334240775793834,0.012130787482753239,0.008383868268641093,0.005771846863066081,-0.0013751860938797018,0.00039649265760277174,-0.005736492189849533,-0.013336757294697254,-0.011586685699507571,0.004828261105428325,-0.012413135978569237,-0.0074962400461869565,-0.0026541321824365533,0.0031274182753516975,-0.0016515103921577248,0.0090283991656046,-0.008378290893861296,-0.01292886391809461,0.0030406332403731134,-0.0028526439349330765,0.005832851999304141,-0.00741129684222997,-0.012478600956633269,0.006012372156822739,0.008420110364620124,-0.004075408309569898,-0.006170616740673366,0.014365461195367886,-0.010918419809922574,-0.01239123425261375,0.0007162056533805723,0.005471617042578663,-0.011136720712791646,0.005564900714390804,0.010619138823674252,0.01368437624003338,-0.013219918854222558,-0.011056038837291523,-0.006817140519060169,-0.007686852608604545,-0.008996038622862726,0.008303854501127673,-0.010866016878606286,0.01143297805835527,0.005842009631582419,0.008707916678267934,-0.0034897090909790443,-0.014201965569843567,0.013390927589251735,-0.0040570322200495215,-0.015513646305007331,-0.0056892217536999,0.005945968238374168,-0.00024518229362901415,-0.011117388855447791,0.0056881734062368,0.00901404328297325,-0.01427461413755185,0.011417631232981043,-0.005514795035440953,0.009413046160878302,0.016068403133971336,-0.013203490436087281,-0.0010931453327711134,0.013932303523908155,-0.008277728490263965,-0.012030762648506268,0.002666034688900099,-0.003063923220642702,0.016171235586552743,0.009742133628128112,0.00700490770592005,-0.0011755473236439214,0.007654300585326211,0.010202383832445823,0.01538378469255672,0.009160057513590223,0.010436044249036436,-0.01235915945489929,-0.009579304214592866,-0.009172800385246477,0.014453875257356991,-0.006004313881921769,0.014626395589620384,-0.007278081096380571,-0.002546439992906136,-0.009687682588115776,0.016548967857349526,-0.0033373964070146805,0.013860292981844371,-0.00832028303439562,-0.00768718596938139,-0.0030470768866512287,0.0032570575115099336,-0.011164287153951085,-0.009049165007188449,0.013143675179181814,-0.0017178234801395248,-0.0035648215161654825,0.009909985093085619,-0.0058280122996139825,-0.004192033174915345,-0.005045331307221928,-0.00496605098460685,-0.0010682266647218837,0.00850506019686349,-0.006246174190953753,0.007697565451411634,-0.002237834739622124,0.005994689544254027,-0.003846118046959191,-0.010503837863382683,-0.0011636655279164121,-0.011314469816405019,0.015213919409581715,-0.004551774353881175,-0.0026381541289361913,0.008761057380331934,0.011780047584800371,-0.008270599261931374,0.016054139337920676,0.003222212413773125,-0.00935943721541867,0.0105428999086019,-0.013124351981363249,0.0004886134185714505,0.016425644354143502,-0.0069708832270783195,0.0017380876146138146,0.006279191045025548,0.00041715874184604916,0.0030271516927349983,0.003243101663737074,-0.011319120216583248,0.013681979355948663,-0.009383303657641544,-0.002737943930180932,-0.005454166835766031,0.006251284232081204,0.010999361334894093,-0.00024974664052390374,0.00015511836484236467,-0.0035161786230618647,0.0022128377455073052,0.015101189017843053,0.01596588342288501,0.010033194321845325,0.014204473508848946,0.008687036938070864,0.0006069383519579736,-0.013684710764487571,0.010295293256355075,0.00243006810687623,-0.011362819112388055,0.005871204591705961,-0.010520596825608316,-0.002678686018091658,-0.005042025268679978,0.0077208303959847915,-0.004552403723088175,0.0127704476640982,0.00938994073520314,-0.01044112897176484,0.0029162029522342287,-0.012584031364438218,0.011439419954824169,0.015132087061819977,-0.009661548259805756,0.009570704823995805,0.005517828217932793,-0.005841371015435106,0.008424037984596846,0.007250850657073162,-0.00018977916119736982,0.001845867808965853,-0.0070656907198564205,-0.009910934980175007,-0.010412120206866384,0.015648671409636536,0.011456587408604182,0.011914181735276851,0.014156003413169924,-0.012878771148996472,0.013600781114591745,-0.010526604536790865,0.011416744915330424,-0.008931138672472295,0.007493586189386743,0.011776181358144906,0.011871807491533957,0.01264289327547988,0.012548914326686002,-0.0014734664259568985,0.01006073980442747,-0.0032711583682055513,0.014066679864109895,0.01362135356480261,0.01453499670874371,-0.011376007175699226,-0.008822736825738668,0.014315232245226909,-0.0004416077081131268,-0.0020608268393122907,0.0012201777348787542,0.011814659831330409,0.00999646535467516,0.014053764355213204,0.007228931976234846,0.003817482981783109,0.0032908480011534223,-0.01263638226341327,-0.012208469649860089,0.015504330169311407,-0.0003409212749439323,0.012268273143433778,-0.010023373235264997,-0.010468818223911816,-0.011728326404058229,-0.007623496328519417,-0.0025787014880786427,0.011175159236874318,-0.008650640290192996,-0.00015962301159614943,0.00447886939944043,0.0016298352716653784,-0.0025039029892842124,-0.002942458888393267,0.009728931179763478,0.009821765062844356,-0.011298240996524317,-0.007344844379725356,0.005917090810567618,-0.009530023573353301,-0.00780328269158141,0.012338240702514632,-0.002308261477478849,0.0024051675099033766,-0.008286116590516708,0.0016430990979583165,0.009784615796101612,-0.010132100300379992,-0.008328869504562162,-0.004877070319264241,-0.012724539574126156,-0.009556640276043256,0.00832878282941937,-0.005556470568448685,0.012574916420104651,-0.004288963139826242,0.009263519096646798,0.0062114154535610555,0.012387037143403466,-0.0010093365458178057,0.015228778868798847,-0.0024748689796924832,-0.00984532805114887,0.009380213370044124,-0.01030309739268935,-0.005291399844494317,0.003439915092535331,0.0018556941591803097,0.008929074062458638,-0.005917183469356064,-0.009798309901473068,-0.013037419529972333,0.012099176200899966,-0.01388135734374361,0.009305403788934493,0.005676060854872202,-0.00784050483835727,0.011405213293793053,-0.013996668692027144,-0.00798777177913006,-0.013742589727799001,0.007795387640015822,-0.00689907436878404,-0.014344679013200055,0.005401271325506003,0.009290688005169932,-0.010165900114336669,0.014462966113832238,-0.0003372640552016134,0.00774392027648732,-0.0034563259828959006,0.005706894597978773,-0.012559495856613727,-0.007504713090358663,-0.014349880283205893,-0.007955236768850257,0.0010846144049529223,0.0036634404327594216,0.005250431749286355,-0.015121108467076094,-0.014164697272286078,0.004232643857371628,0.014028452460321427,0.010145102517503267,0.005059817098000719,0.0036601839849111895,0.014862337372041175,0.007064905644117946,0.01513471870827372,-0.010509769129656975,0.004513397583431843,0.0024080170079472454,-0.00468170558133172,-0.012158140623335995,-0.004782023218660553,0.012998643625421207,-0.007495952256946383,0.002846070363624562,0.013128214892625242,-0.0008017612057037472,0.0027145081662587438,0.0012778544256740248,-0.00920405125348288,0.0009872589247388911,0.0025511399224824108,-0.0027388977981512817,0.013906145677851808,0.0002918071187845179,0.012356227361599309,0.0059336267011107936,-0.007615495060311846,-0.011720942309685598,-0.013332972584031523,-0.010182413359137187,0.0025584655405361395,0.013957711338556132,-0.014509519213792017,-0.015503660864296713,0.01470221840437166,0.009189732054370875,-0.011932964048848593,0.00535019766320733,0.013037494928247129,0.005078465918898791,0.014732792838807785,0.0020671292714074516,0.007781462683472917,-0.006913938345267975,-0.0025373996574704905,0.009731276983334494,0.011383017786500551,0.00935873858071766,0.007826695965246343,0.012118689669820083,-0.012091055445428316,0.00847027753275232,0.00013701446994942378,0.002070419878793906,-0.0011318225516516248,0.011821068453808817,-0.013688579816444096,-0.013099858349420956,-0.013316486259161209,0.003332607515217391,0.013211267176321206
-0.43074483347503667,-0.006123819146199975,-0.0008957656178024791,0.008043703950072902,0.0074761891261533805,0.005329162136297503,0.009872994039707584,0.0027734182625796834,0.011638935532481527,0.0013590247574018048,-0.0020294876188202103,-0.006083414800977259,0.01032323111951751,0.015500090846277403,0.005596799205225544,0.009581695865915313,-0.0048655214177694105,0.008022944681886707,-0.011928367727380138,0.0113943730259547,0.012870128184744038,0.002991654848898115,-0.004781457472517774,-0.006277054678723928,-0.005980938333053496,-0.005164791480430839,-0.00023143099479520923,0.007777082305485881,0.010331192411007512,-0.01297282403735639,0.007604373398690915,-0.007528884861160618,-0.0008213877791587269,0.011681571508271517,0.012712979083033742,-0.006773493226309501,-0.006135489846448704,-0.0003435300163926111,-0.0106787746222292,-0.009943604565698875,0.006470113008031235,-0.003866488158320018,0.004758061248339895,0.0017848007290923416,0.014262651183885321,-0.007281738608225761,-0.007699005099787895,-0.014005188921540485,-0.011606788545298105,0.002354434321337643,-0.0051015099479016675,-0.009369748470479965,-0.006619035484781568,0.006808262763363129,-0.006976394042173616,-0.002117244703493743,-0.012267617312923387,0.010210044145472632,0.007225659026128525,-0.007977375400898656,0.004592134025674037,-0.004858495372164012,-0.008170360837340202,0.004576861766922357,-0.0032068500716141805,-0.007095646030985656,0.0033159171032496083,-0.0020173054018962876,0.013965020180165544,-0.0023792117374835005,-0.0004248474962188879,-0.00613361390740769,-0.0009991038957970072,-0.014375482091063083,0.010478980654072493,-0.002516565681066389,0.0002366269753494854,0.009120256862092602,0.009846489294561094,-0.015287041740880514,0.008273150893097783,0.010959899609651477,0.007951036932372466,-0.00676612356510228,0.001438877567209066,0.015573300359645374,0.0016993631683374297,-0.005581572859262786,-0.004886599998635683,-0.01286345111138663,0.003906969891096637,0.006454046559941952,-0.002767022293493293,0.012784192402032764,0.0030117150781239638,0.01135308397000864,-0.0019375542496951753,-0.008192112498639496,-0.009300832614820141,-0.0022724465055530864,-0.006714493944291189,0.004366336374741212,-0.015252981308973783,0.004322681102167481,0.008856455340519424,-0.00012054978429123023,-0.01191256229028791,0.007430812641651956,-0.005936896455427939,-0.011964350570318891,0.006765181937989376,-0.0016479774794525871,0.0013878645081681802,-0.012819395811540988,-0.008771658769718842,-0.010126469297480425,0.006851525207801211,0.008974004821748729,-0.0022742182532482537,-0.01117236968164374,0.01237980977620471,-0.003074663789211906,0.0040808072784189325,-0.002465573752364888,0.0010465159560878769,0.002151619539909999,-0.0025680837694414746,-0.010232257547773651,0.004701548842644114,0.011944010613654799,-0.011053992064980225,0.0004536236268772101,-0.0013682876695630224,-0.010202396909457147,-0.009713504011024485,-0.006758137201352075,0.011036740316844613,-0.005723928112900387,0.011177123732455788,0.003718931528237584,0.011181186938871712,-0.00029669585314973795,-0.009286439026305774,0.0012787559083901334,-0.007556125777964429,0.005225167143808301,0.012973196991284248,0.004256578651426857,-0.001912231510586948,0.015421418927323963,-0.0112361394508795,0.001031327534625686,-0.014228007311412189,-0.011509864823145931,-0.00048669153839546106,0.0037689493160256056,0.011691710479946951,0.002737270685601565,0.0005113545507078876,0.0034328399282749743,-0.01421911086270158,0.0024645308689107658,-0.012453143875598916,-0.005744828877996464,-0.007358258924805135,-0.013495907208767102,0.006077192918868227,-0.004471318441302753,-0.006759999232662708,-0.011811417088331343,0.00833381712994231,-0.01320759961994486,-0.0037008967968108,0.009919992091509958,0.003311582895460699,-0.009280450148489758,-0.014714437675405256,0.007898335705729197,-0.0013021310769475991,0.004603957332076084,0.010138288851448407,0.010770216603930235,0.0011683653014630466,0.01344506707963318,0.0038107494310639436,-0.007302585370669676,-0.008980457012202119,0.0062485316923843424,-0.015011513575672427,0.014140643986201872,-0.009134939998739742,-0.011770254115379183,-0.00474755280928886,-0.0015895783671816474,-0.002758750059880438,0.006605415901847017,0.0005712637687191255,0.008796632592954361,0.005327703167004795,-0.006594980721880445,-0.0007125593709103525,-0.014664440083400176,0.005725497257553003,-0.009987431812762796,-0.0032051812766877436,-0.00876916849585891,0.004235255169339577,-0.008554633645660017,0.0032616990943887016,0.0029293596097945615,0.011186665370528617,-0.01516907907004883,0.012415816917821204,-0.0030797996275253314,0.008352772147546508,0.011556241866150698,0.015569107242859065,0.0011678842801827426,0.014513027746680646,-0.0008738758324227693,0.004670036228558633,0.014638706105017801,0.0061834853502652325,-0.015021157030936094,-0.0076667511653505695,0.008363782709936957,0.006575763544653626,-0.01038112820895445,-0.0002836083685493311,-0.00029139340549630063,-0.011768995446293652,0.013095581500465182,-0.008981243032408687,-0.006535817568730052,0.0005124448092206288,0.006698440355137586,-0.008981062174840671,0.006746265775324407,-0.012706319273369977,-0.006448845062901741,0.014346646534353833,0.001484781506439714,-0.012502804609595117,0.0024693959510707977,0.006048361355052788,0.014956223082630987,0.010715530344983015,-0.008235428278825611,-0.009244935549012286,-0.003361749918406074,-0.0069242463401295515,0.004036586283466738,0.012899296733250729,-0.008005758239977252,-0.003096104117829745,-0.002095023995073317,0.004456349230827637,0.007191389265289682,0.0029508693425098903,0.014618601549423509,0.002023252443169865,0.01169275862904353,-0.0008432062559105176,-0.010035437321462868,0.0063570666875476314,-0.008228161923815716,0.01453893831234876,0.007835950859101284,-0.01497724244282966,0.00015786983367358995,0.006286266966870423,-0.014046060698817614,-0.0056807514736462,-0.01440996417554509,0.009721530499108979,-0.007324101825764283,0.00032989379514460765,-0.008273956925293157,0.008386969614050055,0.008998154820309912,0.001603045332666253,0.008042159841404176,0.010190837752772172,0.0009987633324646805,-0.013218429186894528,-0.011570188667515725,0.015325266476929247,-0.01226684746101634,0.0009707759710415355,0.009270168162727615,0.00926515683475844,-0.010493664039101458,-0.00015989280558838595,-0.01536775294267756,0.004323802135562216,0.0017310843547618873,-0.01210279008718955,-0.0013452051065081447,-0.0039062163383654994,-0.014035531274893358,0.00769470840892595,-0.011541017198351194,0.013568539283168778,0.007399457278256312,0.001926160799846855,-0.004161048222668402,0.004040895890458845,-0.003984567801792831,-0.008602101567254505,0.004636126590491885,0.0126652180802681,0.009932938362908653,-0.0019186289354069137,0.0002025193973567603,0.005751330222861041,-0.012867620838270886,0.0032206635049118817,0.0019392363533400452,-0.001613711201214174,0.014612900692052757,-0.008900445431455697,-0.0118684609309887,0.011139592445198618,-0.012058289817468062,-0.0018539145402302198,-0.002021367079912708,0.003761515139054032,0.0030912025564639282,0.009191512850776032,0.004332543122056259,0.009081962685360857,-0.011838582111362829,-0.014168067529562591,0.0058189460043167225,-0.005255027394606031,-0.0100411737043457,0.007960170681283883,0.0028064852021104474,0.013118835936552383,0.007455301504830432,0.005971211285354508,0.010111480703618943,0.013585147065951528,-0.014625943844677917,-0.006210667265258565,-0.013340160341548241,0.0026876826524605824,0.0012339664771901897,0.013896470472769925,-0.007602802519891233,0.002338851949999325,-0.005992243047229121,0.008064510456223462,0.012184101441262907,-0.008124790946746532,-0.006754923654498871,0.009636671739406473,0.004238545423439058,-0.014474662648695517,0.012151030440905607,0.000705991372721395,-0.015387453963876415,-0.002473146124663775,-0.007370329540841828,0.014155223094938052,-0.007261323588359066,0.007862760233471443,-0.004969782844511102,-0.012071734906602495,0.0007099246134888854,0.005354724299719251,-0.014700159684325469,-0.003974125868834225,0.005535728654473045,0.007699069431814455,-0.002379750254774937,0.0029759426604370996,0.015164950545368365,-0.008396761647990643,0.005343158547441107,0.0013916594256594764,0.005795545431255461,-0.004250325117703655,-0.0049760929921067905,0.011369762588156754,-0.00858110392037292,0.006073449320359518,0.01552799805753799,-0.012215151725112956,0.0046544684258894645,0.006475210706393623,0.002505515150676537,0.0009300636269360535,0.0009891233910697891,0.0037233243707680795,-0.012073411287730491,-0.013180122249350761,0.00813451412846591,0.012159210526474697,0.010528378611520756,-0.009777202520126916,0.00886069088624166,-0.0030983649342720167,0.013267790762284414,0.006602695831899083,-0.01458880730329943,0.004278024814512421,0.0024131193100041387,-0.009363907015609272,-0.013553348881009435,-0.01042293684054417,0.01210558759835174,0.008329160527420543,-0.00498883674804395,-0.008895219691228543,-0.00742623181467094,0.00937040499199487,0.014557333803017658,0.0077462950463937745,0.0005280508959706956,0.0050443055306681195,-0.004273441366268921,-0.009617331350911792,0.008821868310361799,0.0028762918656500026,-0.0008155036533677266,0.012117539985541635,0.0051818031630328325,-0.01150773242059806,2.2971095135323333e-05,-0.014940931183194176,-0.006216200616964235,0.008613209660790946,-0.010128839783595512,-0.008953695783173003,-0.005401458033900176,0.0018808587941287688,0.0004460613747178238,-0.0007054056836645999,0.014835746209137659,-0.015253293243827262,-0.010054694135633233,0.009165114770319411,-0.00937720414480452,0.0006780668607803478,0.011152015515414518,0.004712513456533278,0.009566626081257953,0.010192463139608601,-0.0054988470826655075,0.005589704260406798,-0.006780976693571614,0.0021605171086938324,0.013703710377610104,0.009064026126479437,0.0023262676390334927,-0.015478352446002725,-0.008483799961919135,-0.010222058318854494,-0.014991620848840554,-0.009850484555270756,-0.0014906990375193642,-0.006045183563773895,-0.00975181347996154,0.004511344974067556,-0.012677183641155956,0.015239917366546386,0.013908546196424506,-0.008511011177099456,0.0025036534270332853,0.004676901721056708,-0.008416416216614476,-0.013843621308115277,-0.014678611027625854,-0.0002130427757934851,0.002337792467720194,-0.0013654423698077414,0.0014684331460522657,0.001733982846324443,0.002006493315534992,-0.013752631401620325,0.011742246120943208,-0.00570403046524098,0.01320655041093776,0.013672230844221762,-0.009450002850279488,-0.012401797885286118,-0.015175906968158983,0.01536356492987247,-0.011683212911767361,-0.0031372925997418324,-0.009844732811290322,-0.008520102626597133,0.009414800985475317,0.0064304202995370055,0.008425514042329958,-0.0015585400856902784,-0.002985288121491219,0.002883992431993377,-0.005154406650797697,0.01526177948878548,0.009330090268374652,8.908488465063022e-05,-0.01090042851378794,0.0034782059371453664,-0.005096111246628867,-0.007513693847642049,-0.012615027760429276,-0.015514776791703724,-0.00906166552132526,0.013631321837674602,0.0011033368159263542,0.008103871961449322,0.005006038462453174,0.008141757847675273,0.014813253391183685,0.012062986188228153,0.01040724229196966,-0.013213525823029499,0.009795134294936534,0.0036618189025249097,0.014009055304030297,0.008457785918737554,-0.0038854682272038525,-0.015097714577790786,-0.01000039137824708,0.00801045702277289,0.0004400047922154017,0.0076524060743679186,-0.008312071655526623,-0.0005025153796540185,0.007387839899278607,-0.013863762946434575,0.0018146611267751342,0.008248620304318718,0.009284239061454123,0.012508205594208534,0.012311562872744139,-0.01197294725577543,0.013869873039284313,-0.005218408994030831,0.011183838759348579,-0.000503780796553787,0.013002778542481639,-0.014258684536885446,-0.006667852622272145,-0.015131007376284457,-0.014732708511867091,0.0018594459898560699,-0.002987095525300784,-0.011549580208506837,-0.0048626047189727975,0.0144371291948266,0.012450800291638253,0.001503359611180484,0.005722217863955166,0.0086566393568904,-0.004238442078834316,-0.00619470318718171,-0.009607387290519458,0.015257490535187674,0.0007472829258263897,0.000929308255635565,0.009724504277188177,-0.0028444891627113812,-0.007392721556177595,0.007269291768028159,-0.009808681310694654,0.004999192626846411,0.007252902694294121,0.01122054143447055,-0.011749552325657026,0.0073156603400790846,0.015581733069128821,0.001735956264233774,0.0001003704501876812,-0.007500517236131203,0.01326145689205013,-0.01490858447560001,-0.014078386447874916,0.00583372449855183,-0.008413134481845889,0.002268846292166761,0.0027853822254535997,0.00787909607356577,0.004605584712523727,0.00016572991621536734,-0.004915616769263942,0.003024726733181861,0.014946616386160148,0.01380432170249412,0.009244105012718551,0.010197440766700552,-0.009987565660908738,-0.004121176541535619,0.001642601185867728,-0.009969219094500048,0.003341656925808182,-0.014851363065615502,-0.014123088158599952,-0.013853742033245579,-0.005134137020356682,-0.0023664429768918624,-0.0065287063827586395,0.007147927283745279,0.015531447058220082,-0.005475891697926061,-0.007234894096724835,-0.009743335195546782,0.002861493853190955,-0.011084076504236602,0.0028749569871406207,-0.004956559016198094,0.012969223125880835,0.004730873625111924,-0.005753145831614348,0.0006224947812742861,-0.004405956787937322,0.00344541516021616,0.01137042718965334,0.0006265744989659427,-0.004966284634003448,0.011021647102213424,-0.005028391410408027,0.008714702765124364,-0.002941800576585118,0.015200123881312807,0.004730934073916438,0.015032633202351639,-0.014929040069335792,0.015114334839771756,-0.00018250572057047082,-0.014343854582329698,-0.013492880572235664,-0.007195429568516459,0.006247679166974426,-0.009938350360582344,-0.004724839181734705,0.0006009673065740309,0.012510299792674342,0.0055350091111385676,0.015025443384086519,-0.009093653657135069,-0.0005376521691989149,-0.0026252618285883787,-0.001431504473762793,0.0055848112739970215,0.011317366462828961,0.011999221655863444,-0.0025636813839787706,-0.013994168971223738,-0.005882871818333142,-0.011574219738879836,-0.0006180647104789827,-0.003887409561376596,-0.007971269010724452,-0.00849735626639735,0.009364815766492323,0.0050486991932044145,0.0006578127045337931,0.015481528873709169,-0.001313905119326171,0.007010474642613337,0.014055296660600132,-0.003009305164702134,-0.008110191109871965,-0.010959498381266967,0.005377587958373654,0.0004083954286688528,0.012482386389984366,0.006683948884233411,0.012898639710847114,9.45772256728053e-05,-0.0013310202145943861,0.0038375840296813422,0.0067549145258411145,0.0012340956668467178,0.0014868710182421446,-0.012615480283902098,-0.0012430425857964042,0.007780587053520176,-0.014283158290358925,0.003929513966165674,-0.01187514083356701,0.009867258337553784,0.0015841047054782967,-0.0013671972126514179,-0.009847433592229334,-0.0016311373845150738,-0.00804772377826874,0.006765538032504036,0.00821603838446221,0.012665746080623267,-0.0006216463610848738,-0.0013739959654764274,-0.013131668613416726,-0.015543957506966227,-0.0033784907665714015,-0.0021842794151559104,0.010334200150001843,-0.004970614135831889,-0.0061307591763646516,-0.0025492948417030967,0.009788667923620927,0.011236992055522785,0.005171451736139782,-0.003956063788681328,-0.01348516343496449,-0.014662502417317983,-0.0029702388437160276,0.0064293367234592134,-0.013046003758993976,-0.012762566666822753,-0.003440982399952622,0.015200962932997511,-0.009284103568900103,0.006867273089594922,0.006548108979832646,-0.0038563765245238045,-0.00034428386482310974,-0.006012857428717169,0.011020861107428122,-0.011818804339164744,0.004944007884214636,0.0074376939771647645,-0.007981388705240271,-0.008453250182549523,0.005695483406772284,-0.013590237954841416,0.0036638781915182654,0.008122173863972567,0.013829141573555654,-0.0064137922974344536,0.012257545233220389,0.0076730494745559305,-0.014166298198080518,-0.014530308104686286,0.015345434067796912,0.004246648267321428,0.014386768807287884,-0.007112439847391929,0.00674867252150875,0.014682826685596072,-0.0041210575975001475,0.01077399018614418,0.01489260369264635,0.01363629909973791,0.00013769876529471856,-0.007673911012022118,-0.015565807941092968,-0.010679090430756481,0.012545239749937698,0.0065092366264811845,-0.008200864334892758,0.012915909055623127,-0.005711696313250188,-0.0013077996262316934,-0.011935850550859044,-0.012823787145927901,0.00010041306353354706,-0.013999874666452451,-0.008572854408771903,-0.0034663508041433318,-0.0033151893819140035,0.0037372468919565707,-0.00013993907331849922,0.005392210743347739,-0.006892745546168956,-0.006052292904587579,0.013878337004750902,0.013811571370321782,0.00022818736716718677,0.0051413147540371705,-0.01203193066188894,-0.0002651629416813017,-0.0027940066533222625,-0.006963246641507444,0.015003671470323568,-0.0012419414133199753,0.010318188217782097,0.01103875818566788,-0.0017349781094149613,0.004371816548303677,-0.005641950970016855,0.004165007353934064
-0.13582848936103065,-0.004613855976316767,-0.014191145196047666,0.009099090348843781,-0.004261187149940556,-0.0032566675788519503,0.0151959764721727,-0.013309030249918908,0.006727965870931909,-0.0062215024971708985,0.014202436667684573,0.003042243530330852,0.01064755331997851,-0.011508484287230732,-0.006886196750131104,-0.0060503831987768,-0.005235941900115358,0.007027016704578663,0.013512498333918207,0.005604102495801261,-0.01188474885381708,0.015053047761521405,0.0021657088775267758,0.015058758190588582,0.0008750652833773576,0.012483169081794337,0.001367486267618373,0.002034925805181751,-0.0015494397217386512,-0.01219077822186401,-0.001996614091448117,0.0014983633089420412,0.006333133327086508,0.005160075465641321,-3.7706796434559126e-05,0.0027724965003865717,0.015050368929850757,0.002311483526268636,-0.0013766711968346834,-0.0025352974965239146,0.011932989479690653,0.001763776327318247,0.015501728556176368,-0.00868603648217867,0.004112552613631255,-0.005504638099295252,-0.0049165711379139665,0.00833166152252389,0.013363873253060495,-0.010206913622909913,0.012926214377328379,-0.00462860377714229,-0.0028168603854339183,0.008888584615427322,0.011367939364388187,0.00954614596686016,-0.008021729805065762,-0.004486793645261115,0.0070913249540082955,-0.0030145802934294016,-0.013277999987956784,0.010278870110895351,-0.015206776638626272,0.01167838396708202,-0.014738854249961013,0.014366914897402685,0.005944255793297586,-0.0037433206379243987,-0.00663357221822972,0.009914500166128624,0.009246721590652346,-0.00945134833184047,0.0019373881940658658,0.015240908464220371,-0.011570670970546499,-0.012335731503363027,0.008118319014023833,-0.006393772762450723,0.008100490904345656,-0.012218359974416833,0.014793977401591319,-0.010740838338730616,0.0005128654162351379,0.008963821716583425,-0.0016004149269536506,-0.009839437863344427,0.011098096577126397,-0.004207234660358231,-0.011221692269205556,0.009810887413812426,-0.006163006775249013,0.0060073331746319965,0.005179339457570934,-0.0005674762818660868,0.007556804567556197,-0.00809381825681409,0.01234781611327974,0.00012047116943599348,0.007451620059911561,0.014829029448154576,0.005872150269418876,0.01227774659600819,0.009660948376598318,-0.0016936812527447893,0.013165862461325735,-0.011558583299708342,-0.011157261129507327,-0.0022732274182474255,-0.006073325816282227,-0.010278122948894734,-0.010467318427420106,0.010271878811398783,-0.013810134546072474,-0.00018033007199308795,0.009596811221989621,-0.007485167675347629,0.0035459253128924603,0.002451227776539819,0.0011739325587817942,0.014138037388013572,0.0033144703214588907,0.014371455132041897,-0.008998508575706787,-0.0014351955803724725,0.008216316294664707,0.00191882018414467,-0.00626959394293259,-0.01233429626849921,0.012575122553983728,-0.0003912611578473328,-0.0029287847358814047,-0.005688449666463459,-0.01319954435049633,-0.0012943884844368522,-0.0071851047648397795,-0.001860991757918224,0.006762922908102761,-0.000138561086729546,-0.004932377901925911,0.009827628461817554,-0.0028976701356324616,0.014817507108803783,-0.002885328151718422,0.01219956630649394,0.002468760776667401,-0.0020380687708741567,0.01148231396970939,0.015111168527560302,-0.006901273800576521,-0.0007522349764531554,0.01382095194502089,0.002167927809939723,0.011251856940148477,0.012481809268029866,-0.012084765365722006,0.006118840660703843,-0.0065009772816774815,0.006474006403515465,0.005549266830482017,-0.004001449321639244,0.014814689891413563,-0.013833612650804999,0.0034791045987140057,-0.013737377045497233,-0.007174138571123884,-0.00349970876574722,0.002965238743185144,0.005285936834498378,-0.006087701292361476,-0.011261908739562267,-0.005825065570949056,0.009728765046233757,0.010366779260054956,0.01546100492634873,-0.008950359133497322,-0.012766879001358606,0.01281849613307048,0.009849950062911863,0.0020723107312718286,0.014749880703105452,0.001609622394967692,-0.005500141859109457,0.01351954379103772,-0.011529368690633032,0.01061467183071474,-0.006442712545195239,0.009392603997580858,-0.00505446128190308,0.006446644123241991,-0.010878805901001046,-0.003751953341878795,0.008500808219585439,0.015288817716582529,-0.010607327062880503,-0.01515850226229646,-0.012201346803161813,-0.010309837152743504,0.012785517338339037,0.006258523586781813,-0.004273089641657003,0.01362178038916267,0.0059325000691950805,-0.005820577023350738,0.006071072202928775,0.005283087121143889,0.00648444420689721,0.010239942531232348,0.00047329422760817794,-0.010955395868470521,-0.003989017352223224,-0.001329011684964472,-0.000901573814313654,-0.01541799809474384,-0.0056596301680324895,0.0026133129390773155,-0.012056964325217794,-0.003343338389312025,-0.009491758048611514,-0.007678908406842714,0.00833510026845256,0.005418911691244522,-0.015465060845002713,-0.001881197239177134,0.01540162422149147,-0.01522416944732187,0.015418867865787549,-0.0032501448705767114,-0.00670448790728323,-0.0012084518325280388,-0.0026621551849033767,-0.015095572479684329,-0.004487432482820141,0.00039277869793298906,0.007859048522287963,-0.0006996516542754697,-0.014914658329315725,-0.007292675048277998,0.00643771685684856,-0.014813367957002256,-0.003024628603740684,0.005715015321548153,0.015257746733852162,-0.0008460175810857291,-0.000622671758872765,-0.007540387162554174,0.01331695625728832,0.0023110538185463422,0.015400007541831247,0.004633067057060888,0.006969629966885989,0.01289340067061576,-0.005395220304590328,-0.004867095387686909,0.0055665218354836385,0.006108091289270142,0.007265846737234179,0.007879124631226597,-0.004546874567175296,-0.005340285540783304,0.012089364843653153,-0.011395506016937819,0.009105773669988375,-0.0010869566167082297,0.0125325986342286,-0.012006688316414264,-0.008970025771090039,0.009083522041689912,0.009139182161802394,-0.013764630358778413,0.006874582690147915,-0.014809460075006872,-0.0010476810882775224,0.012849079922945837,0.013312028220025175,0.009485246413154826,-0.0038534439393659026,0.014468480464388426,0.0038724008997401936,-0.009761730587374059,-0.003645451571063083,0.003107675773153778,-0.005747756474339134,0.00175332097238318,-0.01127709122479302,-0.010824337853619682,0.008365262082736864,0.003108526034106402,-0.0074363845800018286,-0.013722072965783764,-0.0015094221470683747,0.005769557151066217,0.004946819139125487,0.013111652156893229,0.0008017749466124983,0.0006863606889444783,0.00891904611276021,0.00223283111641695,0.010276336425926045,-0.012577401640716853,0.007542866335436188,-0.0026159387130274443,0.009801327640536553,0.0014512640909032128,-0.002830171415212985,-3.848362189979096e-05,0.004763664107353481,0.01285796686047972,-0.007924709838012196,-0.0022476729907007394,-0.005810061427661002,-0.013695872218775683,0.010336636210562158,0.008166687391339234,-0.0017165006331173911,-0.012889854632243493,0.0011790709814641642,0.003693168939821582,0.005570975844458013,-0.0012724089346828268,-0.001401324495221741,0.009195421879266898,0.0069218202334886784,-0.0118550361829277,-0.015244887990327593,0.00025850412955971333,-0.011992241944946861,-0.001664659156060344,-0.008980026041509891,-0.013751336299734244,-0.011238918390733339,-0.015411559708553735,0.0038875933615628196,0.012265152162751751,-0.012280842805874395,0.015480596665304058,-0.012557358151858516,0.011520639161699653,-0.004846341606992759,0.005755157278281804,0.009964259212737796,-0.006813653359655485,-0.0008509013996486382,-0.012134697066670419,-0.010247106665972248,-0.0022362392811338325,-0.013332245736142632,-0.002226593195480485,0.0020173596432667244,-0.013193530482448531,-0.012952596488352425,0.006037146248828201,-0.010570317719041874,0.00032612580830019416,-0.003941132284789671,0.008346203361193637,-0.00468970553028587,0.002393521962106189,0.0029951959951472103,0.000947011181524883,-0.011503640571212816,-0.014472067296295334,-0.004713844131902595,0.003322554308334908,-0.00014739506470269267,-0.013932748068607764,-0.00840466626679488,0.01352406363623139,-0.008398462159985656,-0.008894581622053747,0.003540231152440187,0.006697126472376483,-0.00891145004972511,0.013003397675513322,-0.011001289027487,0.010937959266598199,0.012908134486868717,0.005906208899178547,0.005627257916688534,0.014826610996595362,-0.008868012113749088,0.004876054537521258,-0.013424832446773106,-0.005257798191739969,0.014101663855932707,0.005924476603820394,0.010533208517917291,-0.001076353373084902,0.006280222079397255,-0.000628604528381517,-0.012582646571633174,0.012298433614231823,-0.004502549247180524,-0.010386589606897857,0.010623457580276295,0.004740918145222293,-0.01209380459512032,-0.010791565311815562,0.002603153873711496,-0.012713386344401705,0.0025820450840535365,0.010162109953446678,-0.013192123660085452,0.003494582962170749,0.010692022166607047,-0.0030444380107190507,0.015317697663027686,-0.010778167337495731,-0.015149751104396186,-0.0024493879861193675,-0.005574470479101399,0.005236315921146675,0.010319504815590713,-0.015193529466310304,-0.01372323275551576,-0.011508535888853297,0.006101308269271868,0.007169528081179748,-7.69815905264544e-05,-0.006902527371649786,-0.001223325539768845,0.005201693923918203,-0.01023410964829419,0.007529211873794208,0.006578753379266434,-0.0026003587534751196,0.014068733110943563,-0.007214427686574831,-0.006483030694748159,0.013287543484457875,0.012805320494802635,-0.015278626477700057,-0.007861904475298675,0.0029452334540714525,-0.002431289858915456,-1.0167954610104668e-05,-0.006716777673691086,-0.00741116833789009,0.006206995777039193,-0.0014293478574543793,-0.011776137434715235,0.01371544254865805,0.0026704085631570618,-0.013427910899986871,0.013132825533333826,0.008400301727238192,-0.0058670628717697355,0.012961660466682314,0.0003343488707471566,0.0003305848932041999,-0.001348699396663048,-0.012098231176718214,-0.0033000238722295967,0.014136169847798388,0.0026698975262117834,0.0017546842169571877,0.0015151813642256713,-0.011890660297531747,0.005637674889906814,-0.0015055310057918228,0.0018948836148075208,-0.013735297302374268,-0.005115343957385696,-0.012313276710432825,-0.004587144583048264,-0.00834663731848852,0.0121600339460009,-0.014209359510035217,-0.0065037974013664145,-0.012171153553905082,0.006237931438968648,0.0028636342787931243,-0.0032827937101549305,0.0008768942168105309,-0.008599753635103981,-0.011275072867533528,-0.013145306400031972,0.005563788636778946,0.0007743382203198486,0.004743444098088915,0.00229190202474017,-0.004667450287147039,0.006618147097483176,0.004986648300872563,0.012678430685440042,-0.0012287665076888173,0.004896350057367105,0.006544899519912106,-0.00794982841084695,-0.006471610991911559,0.003250347876231241,0.010313047158564317,-0.002706949840713159,-0.014476299276809983,-0.005594189565582507,0.007327897436209169,0.009949482803387779,0.0012258922509873309,0.003489995347463526,0.012096025091307007,-0.0005108660229266523,-0.014130955773204858,0.011523607006730257,-0.0015569225221401597,0.0011338927642937265,0.008811168727668402,-0.002786702783697432,-0.0004761285033148578,0.0014565094191419346,0.011154996259591914,0.004088473057083215,-0.015327112875407924,0.0006750566003067802,0.013394387260250728,-0.0105524649335169,-0.009233111668589571,0.007245311263014476,-0.008213608853194415,-0.006582212789067836,0.003290980824870185,0.008095835298923125,-0.015543266422469885,-0.010081368184843585,-0.012240096487760505,0.0009626679954458407,-0.009342653958875749,-0.013175950977997671,0.003937606336650263,-0.007869001551051052,0.008006867730100016,0.015489587895348277,0.010661543905961711,0.013076263882834373,0.005310913816097117,0.009273354669486755,-0.002456967735294465,0.0022092351519187176,0.00621978237508199,-0.006576460960096273,0.008551298983746281,-0.0053343216800419944,0.012800533184959838,-0.013542842308501925,0.015017302515647812,-0.0022192904273163963,-8.884821574444562e-05,-0.006540676869808807,-0.004912122591679294,-0.008541976736803781,-0.010022805608986954,-0.007887547429127034,-0.006071751472351308,-0.01276670045820352,-0.0033709974915794028,-0.0057616014798252645,-0.0053316909306525065,0.012930107008270995,-0.008496059567556204,0.01180006790225193,0.007171311654558612,-0.014399977955769288,-0.008585234865881215,-0.01232468548459572,-0.001106439173577646,0.007365912565786743,0.004551694389858203,-0.014672597955817424,-0.00624650637620178,-0.011912672905509396,0.007328812427528555,-0.0032095694959270657,-0.013989912010372429,-0.014060657909352334,0.011644488281169305,-0.005978753728727967,0.003613880834230674,0.009691714832980456,-0.014985771404673467,-0.007847814515276014,0.0030223630088741203,0.010512988523417074,-0.01231046588460899,0.008160924378540699,0.0136216509839957,-0.0007352177044023106,0.014575827506340004,-0.0028133186569212626,0.01236462751810772,-0.012481820209229923,-0.00262922967733209,-0.00741930704525005,0.0006606437615023671,-0.008159982793757112,-0.002002678979104694,-0.01398916634848445,0.003929745575714259,0.001784650461661489,0.009342484027389054,-0.001410616608286331,0.008631337477266486,0.0032496770152637897,-0.015152255302933886,0.014279220742408734,-0.00012586193347634972,0.013778259046189591,-0.014969577484378115,-0.007286330062266432,-0.002328204284966537,-0.009519558576372125,-0.013419793432130116,0.013796843963818764,0.010568176166896332,0.009042901905488863,-0.0012567553577395585,-0.0019766793983938998,0.0012675733029474945,0.010619386847660391,0.006624662214415197,0.005195297673093881,0.010969611872982198,-0.015237362194395778,0.0035916985500940996,0.009329319251431493,0.0005955648763641651,-0.01256582690444303,5.742383046464239e-05,-0.00045343482922851827,0.006668873943772753,-0.009097579522251667,0.005600761651893181,0.00726218853868783,0.014758702912254645,0.0017886624912595538,-0.005747531617837594,0.007230338898212153,0.015239171822494204,-0.0022684493021399403,-0.007134785021848649,-0.013868635105213772,0.008058339522343121,-0.005939437290004242,-0.012974625857275431,0.0013988522826934198,0.004565816955354789,-0.01224027191431806,-0.011405027944429571,-0.003865260041195681,0.005091428948430909,-0.00025111499381680336,-0.012305221859663297,-0.010976933091885095,0.005859413766496641,0.013804877093489962,0.008198742777585918,0.007606489751189327,0.014122235472332118,0.013169648056933391,-0.003613188143754005,-0.0007547987520337696,-0.01245228933621344,-0.008658616117964316,-0.006213144492882999,-1.7035157149385832e-05,0.009570020851210347,-0.010421284913608511,0.010665150471697471,0.0009725408377934744,0.006826918481242214,-0.003139211275248459,0.007506574619691123,0.01291506015999051,0.003825402043224471,-0.0015867380362653664,-0.008323173578535015,0.011607067221399373,0.009960514636407642,0.009285636115782214,0.008523758425958525,-0.004361908657700444,-0.006856084613895658,0.015583846162138613,-0.006220748714033067,-0.0037269214763027067,0.006106591893813521,0.005766558844177941,-0.013189212161486243,0.014344583797121512,-0.008590015504303675,-0.008058196437096418,-0.01345385522350876,-3.352403223505496e-05,0.00854615641829301,0.008750744107863261,-0.011419030130967015,-0.001457339069971482,-0.014714330759306265,-0.0009601997688715898,-0.002753873847658836,0.0030305865527190216,0.0029761796162321233,0.0032019559306180473,0.003668403206838658,-0.007394655939830248,-0.007738223381362173,0.006357910838263446,0.008747843806339375,-0.002868586492163542,-0.011983579415191604,-0.012543153972426845,-0.01408959909076329,0.011169228123791279,0.01106318275988542,-0.006679749000755832,-0.012529283891887368,0.002471895790056189,-0.013115267221727435,-0.008735916428874134,-0.005613822131322249,-0.0020645501278902037,0.0038926276204044874,0.009593794553232421,-0.00616561082483956,-0.008670760280994321,-0.008110504901419749,-0.011397602408389673,0.010126472312615632,0.010512545068381129,0.012760419998890129,0.01516782380227549,0.0007366768803806108,-0.0007798106892885973,0.011074926200403026,-0.011496694268432046,-0.012229043745230345,-0.007478629963142788,0.005542863504340474,0.015508728326196791,0.011377820220755626,0.0034206898002779595,0.006985182710972759,-0.0077445803167234505,0.007498259810000671,0.009115703391931053,-0.006361594663657797,0.00590768874967398,-0.013107978900516314,0.0102508489692534,-0.003613542937567056,0.013435953864598362,0.009405968754345517,-0.014483750329126483,-0.010984209828470832,-0.011714019974374237,0.013936757038921124,-0.00871095325171933,-0.0014506047737148017,0.006421416357474313,7.05846758114817e-06,-0.012648602193755031,-0.0022083082692843092,0.010376886185029688,-0.0076484458094838205,-0.006318891916513417,-0.009915841939418066,-0.0025065041405335532,-0.004462329854768066,0.002936294679039969,0.00011880063941047472,-0.0074732181666539825,0.002578076626103088,0.005068920854213323,-0.0019788686427307627,-0.012342639176610534,-0.0008902849260109258,-0.00883794917868706,0.006238747648623248,-0.0014711319835164355,-0.0010015603651160332,0.005933112902589022,-0.012975083373260081,-0.00879799590832316,0.004038817612749223,-0.01001113972227682,0.011602250538048444,0.015041916028530642,-0.011257507215458387
-0.6081252621324525,-0.002712766378480346,0.0024075331917295557,0.0013984615653202873,0.004940026013108497,-0.005887690591467529,-0.014243128370992793,0.014851652576426285,-0.010903808199308255,0.0038609807638105044,0.00645304452244929,-0.013603314078338646,0.005837719154908619,-0.014009573201684174,-0.000305217420235461,-0.015093302311427585,-0.010874744012277088,-0.01147306024287659,-0.00542380157146451,0.015070375636755281,0.002153935726614521,-0.004141498093708309,-0.013863003694484809,-0.010988382279420783,-0.015087255448363913,0.00534965394839711,-0.011481185057148426,-0.01091525845842289,-0.01301890689410791,-0.003364598195141913,0.0019806665975756685,-0.006258503843374598,-0.004748062046298518,0.0003632502976278276,0.002208375637483117,0.00848780756451296,0.0031668054601693037,0.01134996803339998,-0.01372345329031915,0.008759892111831685,-0.00021026470004352135,0.013839480215844052,-0.01030462073097953,-0.005170728519427719,0.0032150977404881015,-0.0012074636737954697,0.0033849501143691715,0.012871507235544942,-0.0016875043705210056,-0.009948251069935458,0.0025100718586459625,-0.0026471149545744393,-0.0034523916532046978,-0.008120143449434122,-0.013979414415472242,-0.007393680933475741,0.009369175751562809,-0.004164361908435239,-0.007723670180747464,-0.009037019329541932,-0.007854277006476205,-0.014262514289101927,0.006224239750291717,-0.009625402468918517,0.005874331313398651,0.00934282894426906,0.0035072838984673803,-0.010560856614719335,0.013362036251560582,-0.010113868367604369,-0.004863662858288299,-0.000625637884684907,0.00479805891514426,-0.0106501455426555,0.0019173526372471897,0.0016368291673684796,0.014104762039039234,0.01001198252581878,-0.015143869577297877,-0.014332464221947429,0.008867220696381701,-0.006854170127084412,-0.0019988623265202836,0.00232834283513305,-0.006966245180950435,-0.01078994645336297,-0.0017053286487787207,-0.013517652513821511,-0.008619351996640778,0.006103826582185116,0.008151689073768516,0.007015419375024836,0.006313650649657887,0.00248863557891427,-0.008303225796906465,-0.008738198830915912,0.013112440309427851,-0.007153079306193157,-0.0002725513003409459,-0.011192665980940958,0.002785836388808756,-0.011824874716608692,0.01419634599204772,-0.011673045832560739,-0.011192024723984385,0.015081661286586619,0.005683036669442455,-0.00880338716413491,0.014871006091748535,-0.007269995498018635,0.01151116144800312,-0.014396203623062646,-0.004704829717705188,-0.0107366000454478,-0.0039304607719178805,-0.004869123263912634,-0.009670247690482844,0.00420585452642494,-0.007308959961780961,-0.015188479323844716,0.012878755758007045,-0.014271472881010154,-0.011533201049177367,0.013260819038107233,-0.006395451260538053,-0.01042539658195557,-0.0013459524518547768,0.00914210710257142,-0.008169956722374916,0.006173731576223383,-0.00732807175785305,0.00668363856399911,0.005181945505882253,0.012590886012416508,-0.0011021058657358467,-0.013542213120001565,0.0010243253130621972,-0.0014917944313853591,-0.009881227793238002,0.002747023699627104,-0.013628544486349942,0.0037291322482130296,-0.004153104792922583,0.004143947743488072,-0.013723103306468077,-0.006215530169532097,-0.00828175232367765,-0.00319636280506843,0.012056857392083998,0.00811991416349787,0.001830435998136825,-0.01027837220959706,-0.008974273654060175,-0.014743815925974447,-0.010753521836423346,0.009025771790024926,0.00885108385619909,0.006939061677824446,-0.014393744850117397,0.0025427191243371887,-0.00024221720633361976,-0.01348717464441902,0.009013765410235988,0.006763291606246367,-0.01116805746539832,-0.003878705328061078,0.004478464614360661,-0.009363505713045034,-0.0010232605562963126,-0.0019084277551354861,0.015553386878741537,-0.00613854320393668,-0.008646373377040373,0.007903238558121483,0.01071692349671443,0.008128572457068158,-0.013947094390370642,0.015171317977565487,0.0008097344710464582,0.006017356606444594,-0.014043618816145156,0.003945985478315251,0.002984507781330605,-0.005164679061517786,0.001937335621769027,-0.009334877033678093,-0.013520547493485423,-0.008736263264014114,0.013807106686873585,0.006403541432333484,0.009649874614349373,0.010149397246986484,-0.009625716820525428,0.010718573298372537,0.0042724789862337124,0.002832737729397329,-0.0007572937785550529,-0.01262469580938047,-0.012621262647136235,-0.0034552896062111545,0.015187904499959486,-0.000881698548161395,0.0059457226583898674,0.015549391165216614,-0.0019749660418873737,0.010085235530930957,-0.01480547774348144,0.015525480989033124,0.004610335531562908,0.0025159829678058215,0.0013708058450543313,-0.003763272068173472,0.015569848413757362,-0.0017503305176076386,0.01545966642699598,-0.006623287043406659,-0.013283566420117472,0.013349617483450794,0.010296950360545211,-0.011096191914131297,0.014078295040842414,0.004311555408030528,-0.0007983323892792049,0.013420623774117155,0.007889057931905644,0.0011004310125967004,-0.002803138411296431,-0.012779259664010643,-0.01290866395829492,0.009897667603300433,-0.003387755347531777,0.005140853251762199,0.009894109172768038,0.007243279083487222,0.003735996189732353,-0.007216792556581756,-0.00532711269484612,-0.00361773829823751,0.0005385625908041168,0.0011073791715251746,-0.006890309597511281,0.013054568664184394,0.003612702167205873,0.01340308855681414,0.015417051945538829,0.0009454221348700782,0.010824566110925238,-0.002445762718843305,-0.01135649960526565,0.010694941865155815,0.009973518268183032,0.002519530513709848,-0.007006733063574296,0.0005240718513997988,0.0028286188701414326,0.008441472337707139,0.0044473863595226905,0.006232358549187928,0.006755819337459709,-0.0023341373550367847,-0.01377949338421322,-0.006339507753725521,0.014914438046576346,0.0031313956153226317,0.004354839153760025,0.011411299332548044,-0.011157723150935696,-0.004971659483597665,-0.015443996135302764,0.00655536193915093,0.010922512148859784,0.012190584027503774,0.010134955064856122,-0.010102574625034107,-0.0007971355162497418,-0.0009558900421559567,0.00707551031089659,-0.005979761532488713,0.011296013826371326,-0.0009307757075233646,0.014840182220492791,0.007554433768175765,0.00567282031279406,0.012160647876952278,-0.011654122062179598,-0.0037552869436701074,-0.014939911544871187,0.005778408821610893,-0.01530812161552569,0.010471577568343462,-0.006739394115034873,1.4954897797785083e-05,-0.007660830692419716,-0.00393899803892395,-0.004553777576231509,0.007560570225130021,0.00867029579976181,0.004146927796824931,7.887119114063229e-05,0.01560677702291196,0.003830423509894019,-0.0005557309689584976,-0.015194809251979673,-0.004830376328234503,0.011672157848969123,-0.01115442484453696,-0.014055520111295666,0.010765454491892368,0.00949581756550064,0.010904973023109315,-0.006114861853855243,-0.007483393097103521,0.0009228624331574994,0.008551602233432393,0.014730101331114989,-0.015324683764319537,0.015280622650619989,-0.013179596996202948,-0.008393073006564965,-0.005565239684615236,-0.005204145726030486,0.006867078766650086,-0.003136303862481555,0.011950186636769274,-0.0072080907221308554,0.006169725482508881,-0.007593508778644564,0.0069467243708377716,-0.0037753724732563776,-0.0006811264477449806,0.005127733273559514,-0.007071079400231217,-0.014858474036750644,0.015213057559259297,0.006578797500441647,-0.006424348318944669,-0.0010954252292835094,0.005258946201777123,-0.004906116857994389,0.000541505401866163,0.014099785956275826,-0.003790139929440068,0.002615366561483718,-0.0038637287921569063,0.009643226894809183,0.0007259433683012816,0.006468369779114431,0.013900870955052047,-0.009656686604451934,0.013590704970518945,0.014876668195442574,0.014520343968215933,-0.011141699572175253,-0.011863153750268671,0.006334444174103927,0.001261462065670925,-0.009253577608054703,-0.0021205100662919883,0.0035546361219146,-0.011114231936761563,-0.013705000021177582,0.01485073320267834,0.004946968408189357,-0.013478755891865701,0.00688536046154381,-0.01187279374777837,-0.00722661201443945,0.012423575924553173,0.0037301580349854806,-0.00010490559230114452,-0.002736147475306625,0.007794663738803387,-0.005256527569921416,0.010660705151226132,0.0013846018576561293,0.013242895316459266,0.014422724406098191,-0.015393079031252352,-0.00032134932203795735,-0.01180876302251466,-0.01013779542727581,0.011062831679617764,-0.0026090305074826375,0.0022664489691890527,0.003612598881154068,0.015280766621542017,0.0022649889790564218,-0.0034161031276670924,0.014471656525440347,0.00802692481794478,0.014923352761477729,0.014305029772786717,0.01237290173299416,0.011314514984244229,-0.013852933900025313,-0.003188989341081,-0.005125524750658299,0.008129378565518132,0.00310155374417901,-0.0038620573951239495,-0.007625928202373997,0.004877605340148295,0.008076274051520824,-0.012438970704969129,-0.011804015965322247,-0.0017195720134600377,0.008510350137817355,0.007053855573047697,0.006067165690265351,0.00038520741612372775,-0.011237677778779664,-0.00763738326713358,0.005455055510595056,-0.004559646033161158,-0.006559195566534035,-0.010671120670776774,0.0009089619458211122,0.000832570801713544,-0.0020803506417110193,0.006561989864521774,0.0011810193201294318,-0.006819151970068268,-0.014609102577128212,-0.01462300835716246,-0.01191109292323635,0.014920251687414569,0.012967352334853674,-0.01421390750232785,0.0032065064470891795,0.014754106202986311,-0.0063335514798898845,-0.0009381399872790373,-0.003506547277786907,0.013220190990725737,-0.011775228365887912,-0.000563816910146727,0.006423895121315505,-0.015237333535811755,0.0036764874395000327,-0.004165757008899634,0.00554274719722074,-0.010826370851655918,0.014604794603073366,-0.010260175239264854,0.01403401232275657,-0.006776626224372327,0.013463187190991259,0.010423833926617113,0.004783934279626919,0.006614675945990203,-0.0034090764003725273,-0.00903986807888748,0.012247940327254708,-0.0009435471915285633,0.00010224282756583769,-0.011218540494907732,0.00921942998543571,0.010115561406897872,0.014258130629776919,0.0007073840099402831,0.010531046148805113,-0.008729040314712541,-0.01176521470337923,-0.01342109316142778,-0.013374595069170388,-0.015154394249892903,-0.0033137741334348,0.015337785366394574,0.008866612933514227,-0.011843775270010112,-0.0001056825818566004,-0.009332891549682688,-0.01528873703162393,-0.014609301347622231,-0.0024939403799944942,-0.0037082584239921113,-0.012354175278227963,-0.012571198441099767,-0.0005556901190095845,0.012526675324307231,-0.014371162417336898,-0.009860547560908591,0.011446591961121886,0.004257148835354628,-0.004524472890223143,-0.015486224015483625,-0.01494517619849382,-0.0026548100580916396,-0.01271290867095928,-0.01263970983681903,-0.005509041322569439,0.011387902927069943,-0.002670278398349213,0.008941466559624606,0.007572751147567908,0.005043222463431071,0.011374666415515048,0.009464279946339423,0.005514319592431049,0.006499193180659824,0.004737619237358225,0.009691882782676794,-0.01435514378588185,-0.011443314805610519,-0.014949893548466642,0.0027329060031760673,0.013718584811594332,0.013008105711554235,0.008737591169378105,-0.008854176886377272,-0.0037165600982548112,-0.009670883022070243,0.0032823441187185623,0.008660697467063445,-0.00695421392375405,0.001696807024815835,0.005248937631222486,-0.005004251183317526,-0.005738879741295659,0.006120650158202436,0.012038426763058115,-0.014081808109700486,0.014564718583099552,0.001545228221603561,0.010056128799420992,0.015246432825508936,-0.011336370561476891,0.0035042872716645607,-0.006578727171551103,-0.010578355599256874,-0.0021238277918345337,-0.006267751541686094,0.011659108757851564,-0.012281781776422428,0.008866422663903212,0.007066426582331316,-0.000861785675618263,-0.007187961969509615,-0.013598373249940645,0.006685481818451071,0.010904764116298642,0.004760859833944916,-0.004863036817549349,-0.004275335893678577,-6.362759865701645e-05,0.014365706935629129,-0.011379850255014066,0.006817505742387042,0.010855921135172593,-0.0035034391930787168,0.0021213688026786755,-0.0014354439305743205,-0.008506206332827358,0.0058513416343843605,-0.005846594695874084,-0.002111248631795598,0.009826274796767676,0.0028664186658881735,-0.010646628739723503,0.003546685148965615,0.002548973609165124,-0.009404498948548883,-0.008580781944912401,0.00023032905908158124,-0.006573652420723337,0.007217552279093861,0.008845278561611453,0.012947008547156826,0.015571382744543595,0.007542559284548941,-0.011807291298107089,0.006522781277013556,0.010718694170820522,-0.012610617358189028,0.0007990035634749468,0.015119183927080008,0.0030226141467223945,0.0002815314225462044,-0.006183809041553714,-0.002695932855452346,0.004474736717432901,0.0062833086470355515,-0.002809814332777178,0.0019444581324641122,-0.011782955744691799,-0.009203569943393629,0.0003657736973443522,0.0122102108539456,-0.01145326684473593,-0.0071710127849082955,-0.005736706841539301,0.014994080474446947,-0.0032263897202149013,0.011251277784728932,0.004554307208517357,-0.0018034416864157292,0.003340787101340472,-0.014704419819432438,0.0074753151987395,0.004332963447861261,0.0118890810433298,-0.01221930143970833,-0.0038289613147669058,-0.0018570959515235366,0.00881349218572405,0.012304941596792896,0.0070536866705694055,-0.006675915436597565,0.010105480028841554,-0.009371843536600782,0.005076859803241025,0.008509263107634897,0.009042598831333935,0.0016814035053031896,-0.011444171771061357,0.011511564022865652,0.008908721048303186,0.001244484140806166,-0.0035406803253000795,0.01193953600276643,0.010439949732026527,0.009767616225725407,-0.011174233350199701,-0.007367064663531788,-0.012192559166230556,-0.012232315057335845,-0.0037387349174600563,0.0017289331417877397,0.014894332373232996,0.015086471994037075,0.00982457474678405,-0.013239521487133987,0.008335111896417089,0.0037158188191245764,-0.014775479804738624,-0.01314985341455941,-0.0032451998308964426,0.014365743955794492,0.01044323741986768,-0.008386853975284148,-0.007395172485038001,-0.006252036386618247,-0.011760021024323337,0.012521924538464877,-0.003849736154070471,-0.013091922130085195,-0.0067262021589743,-0.006575070197981682,0.0010953298310505018,-0.006976663686574448,0.004573543956032804,-0.012112398520593717,0.012356635781879899,0.01473517668529211,-0.01229256129024979,-0.007540288783322659,-0.002213800488136051,0.014177540464868296,0.011061874105072863,0.012683756837361334,0.01138472831884152,-0.010022889949472088,0.01371221269289397,-0.01283200595039375,0.00999002876378425,-0.009024665670587826,-0.012766920333921607,0.004757414668272491,-0.010631560975716957,0.009579801482348771,0.008979442675556663,0.0005066261117238867,0.007146730489686795,-0.011884148261922273,-0.0018803790585804475,0.00012403430564328008,0.0070106305435375105,0.0023003056212145268,-0.01141673446030132,-0.006801113869217158,0.004194245829057818,-0.011431667975878183,0.0003885315368212655,0.0007701181368677916,0.009630489964989712,0.011095638254277531,-0.012616575098017401,0.015076257656603052,0.008318813515930178,0.012825085309487807,0.011339233840482046,0.011680177702746992,0.0011407852090348745,-0.011202543904738092,-0.0063530503414654105,-0.006061405490820439,-0.004421203734270979,-0.0018651488108095138,-0.00018811517788937943,0.00623519269795586,-0.015483410894555506,0.010454245940147083,-0.00852352608129709,-0.007604328713773895,0.013866577080963737,0.007635766890020844,0.007728099163682667,0.013972364139987582,0.011022643610927443,-0.010442390258193001,-0.0067875104471378615,-0.011226607453406777,0.015352630207803492,-0.006158002192103752,0.01137722643595921,0.007092246456438741,-0.01175187987546843,0.008215967384044804,0.0032177169525898497,0.0007505676911509947,-0.009488069127941551,-0.0009382913985453156,0.009451955534392025,-0.010536877377743174,-0.0007281439258624393,-0.006729804576541508,-0.004890907536551331,-0.009778358896546359,0.006766914374678825,0.0042485857606272305,-0.008125505606477151,-0.0034407860166748468,-0.011607008115576141,-0.01540928913135356,0.003132486546983712,-0.0003623356608914094,0.013688410283362186,-0.013595302351760936,0.0004922991543645505,0.003967676806720416,0.015471357534104238,0.006214453561067066,0.00026724233198049605,0.007995329741616035,-0.007164491553129371,-0.0018259347377110428,0.00026911381865378503,-0.0033449372564674333,0.000612324442217229,-0.002047854993127936,-0.01506224461749018,-0.00938555671109546,0.002983927882796278,-0.0072416876755174615,-0.0025022015422736313,0.007677469557428353,0.01271376462221704,-0.014386342166871732,0.0006815213095067267,0.01425111165364841,-0.0032949630816503928,0.0025491020835596706,0.013107761715237094,0.0013255618733651851,-0.013295656617764114,-0.007835542378376078,0.00910134344921144,-0.013179306599570097,0.0060606994970242925,-0.0027776487413183164,0.00042462078655695207,0.008820283141415988,0.0026625147308371594,-0.006518189589447294,0.002657246430249151,-0.00913532683836809,0.010224591900588269,-0.00599540320888875,0.0031488119857446817,0.0027974215595044163,-0.011075238891863407,-0.0063253575924038415,-0.015330126437768946,-0.011950723134764474,-0.010808624511059784
