0.08492418940207803,-0.007068403357232342,0.010995617175767518,-0.005244329906234212,-0.01134338285021802,0.011219716924578814,0.01456004714717794,-0.007260684006086645,0.011092684478649365,0.009452887099001848,-0.01277813615645095,-0.0001279680357425485,-0.01246322583022345,0.013419856841741101,-0.010018558289306898,0.002545931914544313,-0.0066286655638117704,0.0012325961320229992,0.010801131055152915,0.008298129871699107,0.011349109933736279,-0.011810184395708426,0.0022472790023419197,-0.0155340554320385,-0.015569758229044352,0.009135407162511641,-0.008426469212077153,-0.009404396180139784,0.008721934523864439,-0.0030223313885686387,-0.008759191759450419,0.0037626135057537077,0.0116189412582689,-0.008498101473385897,-0.0017644771522976749,0.001250893973178225,0.0037586753931041286,0.002522123836242826,-0.009484314544074637,0.010053589939672846,0.0023164520714657575,0.015111663929803388,0.01047208241007521,0.005156542229704627,-0.005671481815716924,0.007160629163299553,0.007369478769083813,0.0001923677748560844,0.006891340098887165,0.006241625345629026,-0.010697109057246298,-0.008829216334529877,0.011914211870669728,-0.0005391311826372508,-0.009241429772442827,-0.009691808875044873,0.006554942157211405,-0.008533394011064132,-0.014484321057229355,0.0094862622760933,0.0012324612805327262,0.0014574017103387155,0.010093430669296723,-0.0026236910845645472,-0.0016044319971056224,-0.009923674127894692,-0.005366879108606527,0.00352652998038714,0.00417464985852657,-0.003293544784679384,-0.013309420882176348,-0.005133041980978301,0.009690192798572937,8.499391591628574e-05,-0.0035316888151486897,0.002440205261736675,0.007769580932701008,0.0011289084066376243,-0.005380955259966354,-0.001880806217030264,-0.013632624162535988,-0.011512271162570954,-0.011819401315374005,-0.015034931379232626,0.0013659692454286512,-0.0027253955313126903,-7.192769405508365e-05,-0.014625869076238869,0.013033221557335804,0.002196428532490441,0.0026035513362866708,0.01510469239497169,0.01024658109822567,0.008398154636638375,0.008964800120456407,0.007800037760707172,-0.013576970759797323,-0.01262519411863352,-0.011551100938519264,-0.008221240302462674,0.0064129339153307565,-0.0004880380864030093,0.006608990530337764,-0.008502427419159275,-0.005080434145443636,0.01490953781568828,0.006167058040200762,0.010963583014249148,-0.002223336392673257,-0.002419830532371786,0.011465738753121728,-0.012943658648859858,-0.008933072368230297,-0.01427086612140794,0.014213613242664534,0.012673312027741655,0.0014640405050827393,-0.004470568547692816,-0.010091528520848601,-0.0032248704961797196,-0.007463838981284734,0.013790363882307833,-0.00490826009293766,0.008189706926859004,0.014140409456678547,0.008334903900557073,-0.007518012387133017,0.0007357611382052493,0.0086295323426593,0.012464165443791407,-0.009697883628608546,0.002594577964910477,-0.014169562358810185,0.010786370433458203,-0.006875513452010617,-0.008976740809999315,-0.003794142321382426,0.0013030177414570404,0.0031563767317183897,0.012363415718136272,-0.015531621137816722,-0.004181658647594445,-0.00809630232624272,0.01433836549812403,-0.00019967284524450462,0.015375336964307415,-0.004531287009298612,-0.011559222382781396,-0.008389364923144448,-0.015292391046589313,0.00034552890716575647,0.013968158700196102,0.0026687009395682925,0.005715359091459895,-0.011020041301164196,-0.007863484872733058,0.008268874279906302,0.0005310771447274311,0.0001554583980293146,-0.0024353587749682817,-0.005899783006441046,0.004541419655806324,0.011880754582880423,-0.0014337083650284104,-0.003537097163804887,0.001802397826477896,-0.005964825562006914,0.007665560513630373,-0.0013858704686704575,0.0006260889577911835,0.004985337148544544,-0.0005537748930616038,-0.010931833122564785,-0.008150142151855907,0.00835556347608787,-0.011196099806355699,0.0035274344185494055,-0.0012358299644550594,0.004075088870091994,-0.014833216610299885,-0.01411143061125438,-0.01072634819172338,-0.002961946263135335,0.0023749279688493954,-0.01364375224015536,0.0038503149508709307,-0.0114843047036463,0.008739863597716047,-0.008704243872392213,-0.006104398573690662,0.0074661278939539165,0.0011977055837223305,-0.005841209978327498,-0.004213576984949028,-0.011669678946236595,0.008520884091788162,-0.00736050825140493,0.013274591127969054,-0.011315087808632544,0.0028120457469560448,0.007462341402303141,-0.009954371619315465,-0.005195606425982114,0.0031829233985077136,-0.011032516237593963,0.0033713644498193944,-0.011633421353956692,0.005651068050026959,-0.0034410298799156082,0.008593333142281433,-0.0034786689918486044,0.009790209915871617,-0.009923866510882305,-0.011300836253002074,0.009170953038999523,-0.0037244641316723378,-0.011120734183210582,-0.007439642758601686,-0.014445212266438833,0.006120459249969171,-0.006252261752137353,-0.0015718232219656353,0.010855814174297209,-0.008195593250928147,-0.005814781336167595,0.0015079100330698016,0.009203974379313591,0.007123613267030215,-0.011430713986216095,-0.015051448331429455,-0.009951203432315373,-0.0010150694416140027,-0.01112280570580525,0.01291255568389371,0.005482392398289519,0.0056910280634177935,-0.01245033585040764,0.012210821129246112,0.0006695550795509389,-0.00647537027177106,-0.0021031614954716083,0.010688312440073606,-0.009096135811581505,0.00011521033610471221,-0.015452124975957599,0.012516166072728757,-0.010489141838561465,-0.0154207488520215,-0.0036537884460948462,0.0022363601349138333,0.008437282634481921,0.013992800515691791,0.006422845146270249,0.009425683727822855,0.010464618432936505,0.00460365296687221,-0.0025350009585182087,-0.014122962799011402,0.004536298433397462,0.007189363269121629,0.006663219668051318,0.011553408179813335,-0.005421438812812623,-0.001333272906265814,0.001665127035556054,-0.011881495979559606,-0.014550498675870356,0.008148674419227736,-0.014323041794615186,0.007056382629111999,0.009672534253528736,-0.015606895100060398,0.013494255186900887,-0.008216330374275403,-0.012639444544187677,0.01340451790133278,0.008279496702329383,-0.010798271303297188,0.0031489791242122348,0.008962042394200464,0.004853308274488381,-0.015275414427115403,-0.005123067063222485,-0.013350304572939885,-0.009687859416473958,0.014000881843832125,0.005468296575177407,-0.011291338539234936,0.013092340250316763,0.003908953767013489,0.013452132138622265,-0.0014193429035575986,0.011048101915871994,-0.0074973830048370394,-0.011474933292795057,-0.012474196647707474,0.008812494571393142,-0.013024161760879942,0.0014026082347108435,0.003146541099629366,-0.005645490256323303,-0.011101651955054153,0.010454307368191968,-0.006901563277061725,-0.010871657483171971,-0.014877975445430448,0.013186562722404734,0.001376573232394176,0.0023415263158247904,-0.003365638218355619,0.001574439664340793,-0.007702101981580547,0.0015490033793769326,0.005209055848178076,0.013062328622898443,0.011027976864721342,-0.012032364625953794,-0.002315784566251834,0.00949812987810016,-0.015836841354153128,0.012957379285893265,0.006499031225592868,-0.01419194809382998,-0.007997420295617924,0.000997743330467902,0.008801377505470172,0.013031832751015816,-0.012294447645754278,-0.0013338103840752908,-0.011556607451779638,0.01471009704109223,0.00037805153178332453,0.005544294031715143,-0.010199913143067089,0.0009381236217275924,-0.004637329517043547,-0.008130796559396808,0.0057669680306246425,-0.007994245321804266,0.0009470899068661999,0.0019032080676646488,0.006476835485052045,0.014719264896522222,0.004171532696933932,-0.0033412023657717225,-0.014306968464864706,0.001450698167077958,0.012919991154148425,0.013139952943892051,0.0015338928760468662,0.012648283885514498,-0.003932205979667764,-0.008490362428317707,-0.007685637266051405,-0.0090452218118251,-0.01509517552212877,-0.015518789557033433,-0.00836428117075376,0.006556315007977831,0.011801545056499522,-0.006189623729354297,0.011710623910085122,-0.009340914533209135,0.011851504630752623,-0.00981957472469564,-0.0023910780804041153,0.011184620327868901,0.009006633143013159,0.01223317531001379,0.006302293492577638,-0.013966209067235317,0.007633752610611231,0.011810659224157211,0.011936644289134558,0.009250706778498836,0.005792247832023844,-0.002799217884861099,-0.011118595004507415,0.012519878851425376,-0.0049942453170704615,-0.013816821733439413,-0.00860522390378005,-0.0077707813112455814,0.001252624288294162,0.014438293853627998,-0.003663442151303592,-0.0020723481123469966,-0.015216662014360102,0.007881019342374411,0.013215838955063137,0.005926339432071285,-0.0013534026587892762,-0.01543481202661749,0.006473712021102682,-0.015482766082611375,0.00048582696639359044,0.005412647243302739,0.002524414855018232,-0.012023774003290237,0.0016739989262345937,0.00479068668633086,-0.005336105449755732,0.004329023857734544,-0.012741777502557741,0.010506030723000713,-0.008630418853422708,-0.0009501733803598443,0.0026134601732535657,0.00472565573203376,0.0008393740371492799,-0.011338874283774053,0.0032626598696250475,0.002785099998616123,0.006950037545122545,-0.005092765656459689,-0.002490150710989146,0.003373203076884799,-0.011217890770872988,8.952377669547296e-05,0.006024950341222932,0.009322083687677939,0.007384780529941355,0.0012976405756835042,0.007756628508071461,0.010302844031745341,-0.006028898306289378,0.0011519321982245095,0.011340599771998994,-0.009592208789723267,0.004570450604128554,0.012110575417728954,-0.0067215318217677495,-0.01281082644202347,0.013842200375415866,0.006854001209333318,0.012417870027495469,0.014082710857267117,0.012217344744736463,-0.009370653619553908,-0.010544588418029693,0.010964430161503851,0.006653506160130715,-0.014011283013125852,-0.004021039741830241,-0.008410988687560395,-0.014177795647361567,0.004535569099702205,-0.013230993740537052,0.002997758718774445,0.0043763225809366375,-0.013793289543466574,-0.006172791707896044,0.013156372175715636,0.00553236316458663,0.00510981604224662,0.015378573306898274,-0.0036369030892690144,0.003915501449136148,0.010544980816813767,-0.005920522481769194,0.004038134181420132,-0.01265615943350266,0.011892690358164686,-0.006786026282779844,-0.0007562144224211948,0.006829078370415778,0.007827090700948522,-0.015082481374259169,0.013530581741222653,-0.002732383111046698,-0.014447749690185429,0.015446746260460833,0.009428563524849491,-0.007033030004023506,0.012400018803873753,0.0022661238206832333,-0.00696826507283582,-0.007767365601454652,-0.007545702571122026,-0.007703033214159079,0.013305630657746929,-0.006849464850192791,0.014042554010041276,-0.008194732520724658,-0.004192951633739236,0.0018235617669991708,-0.005890605590068214,0.003834113189447278,0.014294346833037068,-0.013758676255058992,-0.014690041308427371,-0.0002538351733008972,-0.010313321705265365,-0.005744745297959261,-0.0063254105337500355,-0.0036125888313231283,-0.014381305748885385,0.003586236965730733,0.0011980768183673452,0.013903731377777286,-0.003985579580253194,0.014516547387657796,0.006826975278235313,-0.012000836914269194,0.010552735281647253,0.004442080437234326,0.003336123202086042,0.009329742924494327,-0.0004976966876312477,-0.011363676103734704,0.0023839388849150283,0.015083358894499481,0.009373159263495212,0.010331167078243449,0.0017589908485275464,-0.0026593557542500157,-0.004585743921277547,-0.004771214791421361,0.00280949620802414,0.008303375034225562,-0.011181333696604533,-0.006848825475636298,0.00027413701370712336,0.004085142123410536,0.007002806346710991,-0.015005941617686968,0.006838041681580029,0.007478391171759779,-0.0014055401568320081,-0.007990382490511492,0.008606022833025426,-0.0021353802636870927,0.0012383384479277516,-0.006410140221394241,-0.004702747487166918,-0.008310392278036123,-0.004292833295584494,0.010620798633050462,-0.012905911026837448,0.004932341208423964,-0.0034627660303713677,0.0019055733064161449,-0.007712347561350266,0.0011408659172187688,0.014532788829156658,0.010505951164272423,0.0015049516747505515,-0.01513110493878787,-0.00822884413496529,-0.004619288416710804,-8.464890480027669e-05,-0.0075739951979496315,-0.014395246612758834,-0.008271835566503238,0.010525968860605101,0.012754076224782907,-0.01187356576601868,-0.0041318867327857466,0.001934924853629112,0.0013610168631691232,-0.010914536296709569,-0.005840259977099246,0.004369453667324212,-0.008338645123960282,-0.0037403488269349555,-0.0029654214677991516,0.00425474375613421,-0.0015908704883244717,-0.012917580143138358,-0.00038745813895322304,0.013590538201689213,-0.0015001897903749023,0.00537683699112589,-0.0011044867122321526,-0.011537953794290474,0.010242795015251924,0.014198525574577658,0.011043307768228724,-0.012000776249351378,0.007059859002391489,-0.005504832401681487,-0.0033359879838718272,-0.004220273060124037,-0.0014719561752758554,0.001665984360065015,0.004693119357484689,0.0041471750485606125,-0.012570407897099022,0.01273110588980186,-0.014573854470211364,-0.006872557089466061,0.0005436112330961043,0.00897408996832038,-0.013153893763973124,0.005324258909126198,0.01127607380520913,0.00050691354387453,0.007219676766393942,0.015481793557498635,-0.007140962199071552,-0.008574576486370009,0.002195178942699083,0.00692765306164766,-0.00021664657249343357,-9.87273462784504e-05,0.004298764375543848,-0.007505666268239879,0.005487982279323142,-0.006408332665716292,-0.001914458836028618,0.00018016200736123956,-0.013178530149517694,-0.00363690135447125,0.0149795095065464,-0.006170110435668139,0.007469745300311317,-0.014466609860402949,-0.005762151257820737,-0.012366742210586562,-0.008371575797657276,-0.006219326633846391,-0.014274154301002375,0.008502497679605295,-0.006534874145115114,0.00015389396715744622,-0.0026572732368125955,-0.006981555060408822,-0.009218739102895375,-0.012166869128452332,0.012468998035599919,0.0021580464501533866,-0.01164916990671618,-0.0022564841677301982,0.001072718765723299,0.011682139092246618,0.008979696261456189,-0.014345324470494986,0.012688426159866454,0.012424416945537121,-0.013195659687367144,-0.010054975897743398,0.015602440370067699,-0.012101349662950863,-0.003693280127615134,-0.0057347165673424655,0.0035055554188114617,0.011964626184751439,-0.00564872835294726,0.004374944436392159,0.0013529286191707496,-0.007762874634110878,-0.012312019298276536,-0.011932389885919732,0.004775394289527856,-0.009316241904399211,0.01409248529670165,0.014364163696023969,0.0069525565119852,-0.005821044175754263,-0.012429935506275806,-0.015360909030029749,-0.011592852486291902,-0.007532712354063197,0.006603835887019589,0.002143740023817412,0.012855283863181041,-0.005312762498142174,0.0033933675404268443,0.008687845248608293,0.0003400507016440165,0.0037225996897399002,-0.00048666837195416104,0.00940824828595773,0.0110740240339986,0.0020071801309096207,-0.00445270533473336,-0.0036455775711013473,-0.013031230838834174,-5.0457152808917505e-05,-0.006730014750219404,0.015468370943079748,-0.014308506011906722,0.0012233820775040276,-0.014429791442756808,-0.003005551304376055,0.0012296483742672882,0.0103635856338621,0.013084535164009823,0.00552262215145424,0.0015043143434295312,0.006546851528472597,0.007218731303141668,-0.008133178164768948,-0.0001336898331180376,0.00991870972870042,0.0059209465311175925,0.006426257568947087,-0.0003875322090071142,-0.011284762431418266,-0.011455347328469805,0.006881988663291514,-0.0037968281759670937,-0.012987409953340835,0.00799204182597429,-0.0071678395267446085,-0.012611302140937721,0.010804422233130972,-0.015527801841645724,-0.012871545373063013,0.011263527576658714,-0.0032274275134724986,0.011876273891646841,0.004878609577575305,-0.002343635527005077,0.011733482875018518,-0.0001264015223700715,0.006109847540742675,-0.008595625119706952,0.010408834083130255,0.004131902064697161,0.013650327603764565,-0.0019354253664873344,0.0002846417360968988,0.013631022554441588,-0.012218637128334592,0.0055522847170843374,9.636636237159504e-05,-0.013719003934903946,-0.00956953321600311,0.015159544164161109,-0.00940720380077454,0.00949419840542497,-0.004116640861233905,0.004839557689209203,0.014809439084435059,-0.01060664768745867,-0.005688011224433439,-0.014525876116829628,-0.011395389966451478,-0.01001377361998977,-0.014239294096976171,0.009160626391715417,0.009864198527555275,0.011181337259433974,-0.009893279371292259,0.005701782756784996,-0.0030107449049391415,-0.0019508732699499327,-0.0040050283486200095,-0.0031518024181007376,0.005296295871866662,-0.013226205556489255,0.01205069501057493,0.012743703225828431,0.008825967950285115,-0.009170093354254234,6.420795226038528e-05,0.0035732140969548867,-0.006954106653791297,0.008046073636636172,0.001534155832391356,0.0062914969813518615,0.00906574032340423,-0.005832387723521706,0.010086845311474617,-0.0039355909576712506,0.011557505009034554,-0.00600425503209084,-0.003796114178006682,0.004704933336301464,-0.014167581318935134,-0.003365285313357575,0.000587904811807257,0.008081244751692904,-0.006210849364671779,0.006828821738213142,0.002964864891904482,-0.0026295798039925634,0.012886996436519398,-0.003075187980824446,0.008736678971893522,0.010844852433080813,0.010871605317298406,-0.0017755541109535054,0.011173185957985363
-0.5053940326354364,-0.011461086528516816,-0.001986742795628011,0.005761964058250767,0.006905717326275849,0.007102146613343366,-0.014015183297517827,-0.002148702932774152,-0.011591276560010803,0.014997138729916686,0.00022889952579707024,-0.009280982820841083,-0.0034392502278855035,-0.010432420102641279,-0.0035223161176063146,-0.01330248306779467,0.011983661651566262,-0.008233294270537574,0.001409185447143274,9.407962704195e-05,-0.006544437171517575,0.007873245172777033,0.012346776322083645,0.006853661649763577,-0.011053578106581273,-0.0038670746930102237,-0.01126868089689486,-0.008506725577249994,0.002939994802110407,-0.0010242900564137528,-0.002577924338089666,0.0012451008322446333,-0.0036572180263209145,0.003964896493054853,0.014832086449796791,0.007998949821182287,-0.014037619049098959,0.004824978307050434,0.005734926737788512,-0.01467800010591628,0.0033464751322664008,-0.0029899460198935524,-0.011784184584986288,-0.007148701761681683,-0.009654835496632985,-0.003642746747829776,0.005439700553653341,0.011841467416205995,-0.013174209692608636,-0.011146075279440937,0.013605527340555871,0.0014514554713642089,0.0065370907112273224,-0.006939793283542696,-0.006563863071136385,0.003962189614695907,-0.004627763088073597,-0.004455326631340708,0.0006443561103364158,-0.008235680757530759,0.011101638978929778,-0.013923443164619177,0.009314800678624158,-0.0029519492797555995,-0.012744013262086028,-0.0021760524728984335,-0.012627802021965024,-0.005193008461164397,-0.00408059515174803,-0.01511611731907658,0.004537445854385955,0.014283421396162035,0.005083759032697536,0.012274432852280272,-0.012228372697073147,0.003987751616249854,0.008490692960372536,-0.0005509644633974985,-0.005465191323006446,-0.008879763782888787,-0.0012635380273542766,0.015390049488309684,-0.005904754881322728,-0.008172960933924701,2.3183283672095767e-05,-0.014004040958580332,-0.012157189829477496,-0.00026570815981237506,-0.001753405979577044,-0.008368812107946544,-0.013596004673496125,-0.008518123223650618,0.0062408228990489464,0.002782087678517401,0.00713928833629409,-0.014336716368245954,-0.006527853088076258,-0.015187033171110653,-0.010257794418254449,-0.007409566723795693,0.009480088957184486,0.014719324132864767,-0.00033364924702105475,0.013847582841988622,-0.012586382221390632,-0.00886869954093147,-0.004712730527428325,-0.005604886005187753,0.010482400524158882,-0.012400101720702102,-0.009165629940774706,0.0005107823835736845,-0.00347635123649688,0.011753881299261294,0.005608442474748343,-0.013383842341695783,-0.012383196509036676,0.0012216385440977189,0.00896361228217269,-0.0009640555253125627,0.010068264703009238,-0.010174251305772413,0.011447206146824151,-0.010855117432394028,0.0036430637638792153,0.0030137568069903177,-0.009527791116209303,0.0004178595086874806,0.01477704875758418,0.0025011886586879493,-0.001972308395389002,0.010263464611017223,-0.0021385965621920112,-0.015014794232886226,0.006225301968286308,-0.006727569878147519,0.00022879486027706925,-0.0015178117538321885,-0.007990794581222902,-0.005089064821015423,-0.00819855854153784,-0.014796926104758749,0.006351766936877629,-0.013224555558702566,-0.006548881923027265,-0.003116117612174764,-0.009858930756758155,0.008344606162243851,-0.005727054377556905,0.005136665330175101,-0.013241043757466778,0.008564784235411876,0.014839666151359749,0.0032623334181752714,0.007676132706126139,-0.009019910233381351,0.009787826711907827,-0.011898675576832989,-0.012913013082718673,0.01064431317899285,0.002251343632979297,0.013730137802223995,0.0010496332878759465,-0.002185768648285954,-5.553799913893959e-05,-0.011327004383058323,0.00027065726097588033,0.007220439522463828,-0.004758819505527999,-0.013167131811342703,0.011520017977782564,-0.013212943100801091,0.009410218366124996,-0.014414745016797861,0.012831174329630293,0.01486650133856448,-0.007188155460387431,0.0137243062598798,-0.012091322022495129,0.0019751688885225292,-0.006451861326082605,-0.012490096030560397,-0.004744494157532395,0.008710321259413952,0.0035939101672483598,-0.008115000418304655,-0.009540869548961984,-0.014491410707920524,0.013854421733159983,0.011230616039643853,0.010902938495675227,0.010516837005667343,-0.0006920597212382446,-0.014209602357901727,0.004836276071266295,-0.011887964155814928,-0.007596351891343608,-0.012664766452783562,0.011589566845271428,-0.0073789663988613925,0.014418683964388664,-0.012357510045126942,0.014899957690365465,-0.004836249379452685,0.005900463162804612,0.011039110498653953,0.0032728478540571676,-0.009906510276226323,0.0030118437738453907,-0.00496180786423887,0.004846674338733547,0.003006333645271319,-0.00545933138748823,0.003283969497064526,0.006940593934208102,0.007682404684509026,-0.007737922140721529,0.0026519025683160967,0.0037423816390775577,0.008793727052597813,-0.00942883865745639,0.008858887276058536,-0.01382907151518415,-0.007752151816478668,-0.005718281919742951,0.011648289245157775,-0.010309842488850352,0.005062225278610034,0.009409818275413939,-0.00040827911867271846,-0.009861540841889855,0.008146454152620584,0.0001490389863910216,0.005165351767621559,-0.004044010186404368,0.009770185573613383,-0.008827614171842576,-0.003958996478350189,0.0030179520985401075,-0.015264567680593765,-0.006472173540641665,-0.010785103815919017,-0.014591391817756798,0.011926841618930845,-0.014422259613768591,0.004964342808773212,-0.0016084230559135666,-0.006097514367007381,-0.007471315406685563,0.003968159390120005,0.007269016161563623,0.00013755346087609283,-0.002456286102954154,-0.015342251442660639,-0.006759932647413647,-0.0026815828196651743,0.0034505773855013425,0.0030359741233348114,-0.0018913969567025887,-0.00964687315597815,0.009807259948582416,0.002294998958010313,-0.001583541550855383,0.0023486922658905313,0.0019196307659238507,-0.008828357164977312,-0.0012127295625788646,0.0022628504161025555,0.0011926655664252217,-0.002000204722553252,0.012839745091874629,-0.006743288060691636,0.010126385947948107,0.007750781548515929,0.008666153688341869,-0.002203110395528937,0.004748747990802153,0.005118732056168234,-0.005189396548554728,-0.004327286040607309,-0.014734234301785974,0.006449616370217636,-0.011750975211461692,0.0010960063579038386,-0.008910281572326442,0.002777629017520919,-0.0010425362306588845,0.005834577226173188,-0.00879682392923187,0.01022309181809377,-0.00910461855905112,-0.013703808202426913,-0.010561850467921796,0.014577910423380653,0.009671804076162985,0.008464144235445115,0.014722952128041866,-0.0005059844167887885,0.01161398756013014,-0.00519124903311402,-0.008567970696094974,0.003459745973510793,0.01200419063312784,-0.002481521423074187,0.008847203760278692,0.005210192442263086,0.014984753926740032,0.005633261580944175,0.010606577156289175,0.009440157314203133,0.0030266969978714336,0.007433458351402859,0.0008747404371767867,0.011189818692044481,0.010321025232247778,-0.009954229719705058,-0.0025492977713494867,0.011541493387011173,0.006496982566326637,0.01488003682781933,-0.00484476879464275,-0.0018631689948811758,0.014869033038658528,0.0044070458164723325,0.013534631650588734,-0.008240802349442952,0.011007004880251314,-0.004357784874390903,-0.007829694428683004,-0.012888452640019046,0.003506385147051115,0.009901535677477792,-0.009885018609361702,-0.011398167579447362,-0.015182573546665197,0.014699469220161687,-0.005282685411189914,-0.008036486492828315,-0.010949347179153263,0.009721928654084729,0.005868620523336639,-0.0017528580204753293,0.010082610092978315,0.015159615344436776,-0.00630185447810102,0.011372442052567013,-0.002619052911230532,-0.007833166391169492,-0.006317063600830331,0.0055054541141653125,-0.006403130215715952,0.006859574575160319,-0.005997749657352731,-0.00617001630825716,-0.008178853960419636,0.011278667402126803,0.01282018461249904,-0.013977792009133148,-0.011902841126151028,0.002045183659815243,0.013823192411007667,0.005702829457612038,0.009061151883660225,0.013097457373914847,-0.009520829062043455,-0.012225457062557989,0.009464887881206484,0.001850878589664217,-0.005550403511581023,0.00460550259470505,-0.006969337455038808,0.009858585975276998,-0.014022510763356498,0.005482444077834034,0.0009232305620735862,0.009751579105277613,-0.007735814235999873,-0.0029303500070230713,0.00028936829576245784,-0.010102927194794956,0.00792644144947962,-0.00951066656939286,-0.005839800548365519,0.012938284569086682,0.0011965275604872774,-0.013507975190143753,-0.003689783340215448,-0.010232368348918514,-0.0008619575009421419,0.009982258923891502,-0.006106441682255808,-0.01469289908878875,-0.003697617260921049,0.007547139852182194,-0.008823564308097925,-0.00963351214513642,-0.005153933904487391,0.007018744952126971,-0.0011645441692726272,-0.007043427784505046,0.010969002305747586,0.005758567149189108,0.010905330129698292,0.006909822446146591,0.007911870381879401,0.014124535906144379,-0.011685117770219505,0.0008546777400250741,-0.002692046041758437,-0.010862697700277438,0.008814626210351485,-0.006721571880957407,-0.012135456616763535,-0.00039638135841130184,0.0002349930850065289,0.009403798195901921,0.005219633195811674,-0.01066046026474336,-0.002097624490029506,0.007991072621556749,-0.0011674610077733912,0.0047959417146674,-0.013253925120777187,-0.004344272883296679,0.0003122335818865826,-0.011335429903036064,-0.010294595062599513,-0.0011188539658810483,-0.0007101679972205642,0.009544345134395196,0.004866149330497654,-0.002893505892862521,-0.015511172410503947,-0.003864681522817645,-0.0016315180561582883,-0.003139646396877898,0.0042152661456394055,-0.01484854653141975,-0.007765834165586339,-0.005476021931396579,-0.015588646189899844,-0.0013348316053678755,0.0008998976293915564,-0.013655287034800633,0.007285987295490057,-0.007908570093944103,-0.009418385063040866,0.00800636505493808,-0.009595980543998829,-0.01337633622766219,-0.004142023456431179,0.009038910356085738,0.012569687490807696,-0.007641727717688833,-0.002973222108781381,-0.0070747862518852345,0.004668354161983319,-0.00980712923434457,-0.014399044722271222,0.010415787005102869,-0.015105516445445992,0.011422289477082528,-0.00020351570589135712,0.010554434693415628,-0.005150824653244929,0.0038180070580954954,-0.013644558303834795,0.010248838005798507,-0.010305161363022817,0.005223503063288067,0.013718522354965266,0.007460069235626126,0.0017918834817136006,-0.0019429866292303456,-0.0024361682818607976,-0.00584868402336149,0.006680440500263958,-0.0011825189409988973,0.009598139089231975,0.001128696469185255,-0.0025116085646708156,-0.004282231975917504,-0.005743242079237151,0.004541662731255676,-0.011834279662006973,-0.007430642302036269,-0.005338226750762863,-0.005558326359854218,-0.00933553786961994,-0.013012180067222108,0.008111757808878118,-0.0029144097438805784,0.006316237698962002,0.013705401453757447,-0.013900000459303851,-0.000845803283001656,0.0009914224659518314,0.011525865712911462,-0.009810992692449814,-0.012076351234755828,-0.009226989669579067,-0.004639158766409083,0.0006464955802210036,-0.0024347985531038216,-0.007512812632624169,0.009433387520163698,-0.014123191754968047,0.009862101909815277,0.006753626453219936,-0.005587258487775318,0.013733887572639873,-0.003689812790427495,-0.009240533480031215,0.0008182878132263795,0.012256187755498932,-0.0026011591431269188,-0.011497935162899504,0.004782493536700457,-0.005179996341307117,0.008383552974105764,-0.00965296758715296,-0.007350465739029571,0.004564309738616906,-0.008150772705237088,-0.0002637230537164102,0.00935052605570743,-0.011858798634253494,-0.012582600021364895,0.00926562030080677,-0.007363887807004671,-0.00853542345517402,0.006544557572375171,0.0005930842967867035,0.007414223238070099,-0.00847237742518191,-0.004917149247682554,-0.00163578511377176,-0.013923025442330577,0.0010039684738413351,0.014153799340861778,-0.002363577921595479,0.014146323539779859,0.012472821302808235,0.0032291433202205136,0.012444959681633512,0.015061416458857824,-0.005175396789841448,-0.00011899757656548549,-0.0029384519804188415,0.006846798363896789,-0.006366551314119024,-0.0026301151892435086,0.013340466296710776,0.010565284206934047,-0.011100841088788373,-0.010742991579284121,-0.011841932076961659,-0.007209232295176147,-0.0010628990502654125,0.012842849109514547,-0.0018136040666836134,0.006165381022372914,-0.013248892618821822,0.014887079280368063,0.007360098657614687,0.009427161939857358,0.0016730283289519247,0.009258993179330446,-0.0005939679792613985,-0.0019811345852431966,-0.011889897710257238,-0.013885997754146732,-0.0011550290594371862,0.009530542934349087,0.01484449991942816,0.009254299080559317,-0.005482984834015978,0.004399200365860979,-0.01352909652387212,0.012725687673792136,-0.011010333833764041,0.009410733833659264,0.009335529598603148,0.003431348203145463,0.003225548635259288,-0.008021075233667855,-0.006152297379139082,-0.0038427840508070132,-0.014384008137664779,-0.005291999641114736,0.0026137126901478076,-0.012491525066535381,-0.009919143185565926,-0.015104953398929265,-0.007678007268275729,0.0024784395926667584,0.014571185222570521,0.010596619956326814,0.00679588022183936,-0.007972258680745713,-0.0037396035395750697,-0.0015304289362094922,-0.009900305457716741,0.00637835472583196,-0.00946796069668773,0.01413812357767268,0.013430235681559523,-0.013343336113613095,0.004432687143754197,-0.010359393667909934,-0.007955156368261183,-0.011543207420698226,0.006726874047176357,-0.012852794971691762,0.00975747416800015,0.009808291724116847,0.002010201691900658,0.013537899543359256,-0.009168846003567339,0.0060965937080729275,0.014752132325188221,-0.0012022296574931285,-0.01514083001630406,-0.0047648535587169645,-0.007980065641697849,0.012443392909481463,0.005846664926220168,0.005478343281901211,0.0013827404084463674,-0.0013118786257699903,-0.01243464075416395,-0.008363553242916134,0.007061641648654332,0.009398522974570132,0.01127869435315797,-0.01311224947977635,-0.001269277093527657,-0.002617515404570867,0.002820547421067951,-0.014007236904009873,0.01551686552873939,-0.0015856390114433218,0.008590456417453651,-0.01212900584858222,0.002403268192173999,-0.006759458093769537,-0.001045669182041388,0.011864994497701582,-0.009267100153658638,-0.011264857717802477,0.012980823322034596,0.006382933281751657,0.004589676118658948,-0.00766968283485045,0.015418496207077602,-0.014282521039854019,-0.007125385034580035,0.0026573468487263996,0.007558514277884856,-0.009712795958022769,-0.004290688519037952,0.0017442023639263754,0.01388829746809974,0.013751904875118827,0.009215733850434327,0.008429314258431863,-0.007652436570992401,0.0011666025492409748,0.000539407540656317,0.0019476997653803778,0.01470037424746369,-0.0046634169737206944,0.008039055311842559,0.0010931179094810853,-0.0041920980068778264,0.007660359968145982,-0.006241435101132599,0.004504141676895876,-0.00673097671682895,0.00687273619181257,0.014604663960213524,0.015577826974303415,-0.00980678648805576,-0.012004420980824396,0.011278286396238908,-0.01291292021300968,-0.0014439479949170803,0.010860623846797663,0.010037952767268269,-0.004660076953835336,0.0057698645067914694,0.015282768863541185,-0.013154709807336004,0.013530551032466788,0.011726230962926389,-0.00906977641703131,0.010378912819819671,-0.00761177395989612,0.006157209602922379,0.011005911851159709,-0.002723388428495531,-0.01161906528031888,-0.0010462886448070821,-0.007955171644683182,0.002168642745715533,-0.010048252091932514,0.010839262425979934,-0.010972043399714623,0.007707468583376849,-0.00337864755491998,0.010349581753066182,0.0061516557003823275,0.005158900341017743,-0.009621266969580374,-0.00424523189807181,0.007221201533414691,0.005104545621804197,-0.009670065145718859,-0.0029829811118812152,-0.007835654298002294,-0.009499919108995364,-0.006076239694315311,-0.00027768908072777973,0.012317130894223722,0.006506366691741844,0.007351121242347044,0.001271427570695819,0.011544894798974574,0.014711086518592032,-0.009595503055783577,-0.011743462887306974,-0.004005951956501139,0.0014242714716049265,-0.013625825486369952,-0.003940951666328206,-0.010907418948841136,-0.011770311415897974,-0.010916192241248325,-0.00742365849995098,-0.007484635601991429,0.015290608750714318,0.010654357615123143,0.01490859217572563,-0.004321464260322542,0.0010128461775631183,-0.0005444792678522756,-0.012617758059114165,0.012980550682348182,0.014486792892371505,-0.0008062027321191559,-0.005843960946500363,-0.00998985287449499,-0.01250368499236772,0.0032228810484513926,0.015371685233381692,-0.011639429383960384,-0.0038082823959809387,0.003039987784619707,0.006496994985280325,-0.00011846050741414274,-0.015414466964022096,0.006097256046374767,-0.0030266302017585706,0.001015038465405873,0.013639102031035702,-0.005513093804681665,0.00045044866518689775,-0.013569929947277057,-0.010719617547892336,-0.0032508279285261184,0.011712527822931092,0.0007712245285269384,-0.007732775303013535,-0.005677668494755147,0.012276171351403527,-0.011522608699779908,-0.010714269039745754,0.003978101214229611,-0.007842249727862998,0.008711020899202473,-0.008598309110824702,-0.008969067822343139,0.0030524118138423907,0.001278073567798993,0.009935639665533468
0.1262398767536521,-0.012747883378917024,0.008722573715391709,-0.001563559089223978,0.010523017621808947,-0.003649207917633953,0.0012886336000703658,0.0012790347980332108,0.011934806883998866,-0.010455422832783823,0.006851134812703077,-0.008088501033411431,0.006309551971093737,0.006118555869939105,-0.0024871919234272823,-0.006963047410078461,-0.0022140126932443556,0.004393546937319085,-0.012063244395954655,-1.671779925911318e-05,0.010228211960281383,0.01179922732007331,0.0013576213029383097,0.0011208631501469848,-0.012853553816009129,-0.0031663724064669163,-0.015192199826175923,0.002925006287582004,0.008199599712292338,-0.009702199473683233,-0.006274150009287858,-0.0052020273949876066,0.005281696853277874,0.002914061823880317,0.003706558423313768,-0.015012829795448174,-0.0077284048602121215,0.008497796243343944,-0.006544355332724352,-0.003211042412661103,0.004674960321148415,0.0018414744407343267,-0.001524772137518109,-0.004042714441449401,-0.00797891760381176,0.007603445505845293,0.005175989943576379,0.009009523104435604,-0.00233776170006501,-0.003819695523047041,-0.014681928559317537,-0.006401948313504942,0.006871793779453548,-0.013350519469660083,0.00045288146034755394,0.012245445121752737,0.008065646916837328,-0.0049003381275591305,0.007089012590498621,-0.014698671142241482,-0.011055586063215793,-0.013617048175443125,0.005354914663510506,-0.012704635130448495,0.009828674114604377,0.011910696882330029,0.00615873877867767,0.004717683953027698,-0.0017030555327941519,0.0082662548865314,-0.005999425772053023,0.003067659067698767,-0.00737047438060991,0.01496684902534964,0.01000250524785366,-0.008800939473656934,3.821217761640697e-05,0.013159758886835335,0.015449042030586613,-0.005987759032740025,0.005129995549094702,0.007472094261340087,-0.01474961243289356,-0.013961017622312562,-0.006971857829972537,0.011804178894543944,0.00486741253932808,-0.013794301197887198,0.009696566879284184,-0.0005168646403124859,0.01110419238216355,0.008540316273269757,0.015185969276630733,-0.000987919565132367,-0.006371771465491821,-0.014046476078970402,0.005603331598399077,-0.012572810527978562,-0.0023114970317002796,0.013012733255382637,-0.003415538698236117,0.00692785193228545,-0.008288548966370173,-0.011407124473679179,0.0020115588124784045,-0.0138661144938402,0.003673765512697835,-0.005654018465960933,-0.0010584313366729997,-0.013645923999477887,-0.0023052757352466403,0.0016667379050890989,0.014600954399636209,-0.0002802731838916668,0.0018001753402262233,0.013080282267334143,-0.009630435358690553,0.005677176048520676,-0.008723288429973917,-0.012012343870629298,0.013617558996715943,-0.0003976885803594731,0.006747674906283393,-0.01505570200921036,-0.0030568362115280623,-0.005732972907117567,-0.006404261053974362,-0.013515813986481506,-0.002154963931241268,-0.0011748623156135599,-0.01426598888029209,-0.009851221887252596,0.015301543413624647,-0.0014322673865295589,-0.005899125550234787,-0.0052061342441001345,0.009647407659339167,0.002101566853612144,0.006072530987316451,-0.0005359125077256215,-0.013481496471658614,-0.007515650006341169,-0.011887968701192006,-0.006550133029048295,0.00602042388097099,0.010824663497297453,-0.0007797287653668189,-0.0036191216212803387,-0.0047348828535457655,0.010595040593137204,-0.005930283813118201,-0.00423777428146882,-0.006158049927642203,-0.0015425947396385151,-0.014191029545648583,-0.009638239560391528,0.013558612003585596,-0.015516368039004691,-0.0014647656102139924,-0.008771271882963054,-0.0008162977241735409,0.006011278631496751,0.010143893955501332,0.004212818347684137,-0.010367638757149501,-0.010443519185538916,-0.008520081780622005,-0.006582264785651496,0.009538636090211359,-0.0022797051780712937,0.005199331307757314,0.002587306797100261,0.002813078994506412,-0.008091056870034648,-0.007240216912285344,-0.008285273573079708,0.009023192752411336,-0.0068558328759153325,-0.003035463201414919,0.0006634056039165613,0.0029388391311717353,0.003514964277776924,0.002217693713075614,0.01423083857560752,0.00910528752554534,-0.006279620111220041,0.007388548302224038,0.008848040362870773,0.003907740540588239,-0.002943793681675054,0.00037932293710693347,-0.012169663996593047,0.0024637330175374087,-0.015549823377447453,-0.00682875503075558,0.008603816165084014,0.002058020648506565,-0.0005682342646007275,0.00438857562557151,-0.0007641378736269736,0.01388304241023646,0.010721157707063271,-0.014844843572864945,-0.004401765610725076,-0.0012451948435536718,0.002253266545770325,0.005573697958703195,-0.00881386048804056,0.007402901807489415,-0.009412302889672255,0.014126587131217531,0.00011363635583422741,0.014083766069029792,0.013717750490214191,-0.014398478715228799,-0.007868753679717948,0.0079078082755884,-0.006490771907013365,0.005967607457409623,-0.0026656096882325593,0.0030617367219468792,-0.007739107740594604,0.010407322072667253,0.010893651165658616,-0.003277893576615499,0.015446698122159843,-0.0025592435124869237,-0.0027448555346120842,-0.005824738255367888,-0.014945035050481432,0.007388184754995295,0.009384565747822794,-0.008657453213844847,0.0037243018622796797,-0.008201634392615117,-0.0007775035894105997,0.00934338556259503,0.01125027011566012,0.00877437029238472,0.004063241481530087,-0.006741458463814656,-0.006105993313525383,-0.012245908829516242,0.0014831579865977216,0.0007055700468560972,-0.015696484275182773,-0.006682170906504003,-0.008382471778095852,-0.015765969337711568,0.01015689464081092,-0.0022926406192611084,-0.0014577577391989393,0.012456013148777978,-0.007565986982403926,-0.015223213332153214,0.0051915432285884145,0.003069239257925306,0.0013255152030016333,-0.009711212604404336,0.010766975401631112,-0.006048809329173454,0.00535474563342491,-0.011411815732550536,0.007636747231089351,0.014779707391789593,0.007724907208754424,0.006670240091310857,-0.0006936485701430207,-0.012247172553843146,0.004634966919162559,-0.012535792030186779,-0.01208898556749262,-0.003007313283803698,0.011497175876886446,0.0026023725785912014,-0.006227733365452543,-0.010161422527404124,0.007172998194136483,-0.01426187142987857,-0.004678030000385022,0.010074451927513266,-0.0014240234913417277,-0.0057454981018724115,0.005361402687741772,0.00867526956824846,0.003620781978434022,-0.015371780658489908,0.0016509088935385094,-0.013613272382829623,0.011713297114759463,-0.015597188098825546,0.0046849780321451704,0.007153832468112246,0.010254375104735432,-0.00127477784933547,-0.011087046255302225,0.013696609518864731,-0.005781378993443185,0.008078777366283159,0.006967127428202696,-0.001931372905852493,0.006442289652667082,-0.008600694782679472,0.013303470961973967,0.0015511591132380648,-0.010164053369050467,0.008637670721177555,-0.007401609136465449,0.0005088758275409009,-0.013510131015508724,0.006132116038685056,-0.010487416308421215,-0.012379715993115468,-0.0054409865405600786,-0.0008453297787096109,0.003167033293369542,-0.002537501754499241,4.6294934179378955e-05,-0.013405461688372892,-0.00109366898740178,-0.01192977972750763,0.0061829905675871355,-0.006520832203504485,-0.008524437892306084,0.0065327426252382624,-0.007840244003920265,0.00011450219023403436,0.01419943193869035,0.013494014592477482,0.004180225855904546,-0.010555485551956161,0.009114222016766513,-0.00019739105221498144,0.009131510227594904,0.0011020685523538297,-0.012993698288036565,-0.012746488783312818,0.014813542727325973,0.01378735369979102,0.0002989022908324522,-0.007645805716739385,0.012010625096967488,0.0011483197388063645,-0.013989574504770669,0.006532832772888354,0.00900705671197069,-0.007492515917097916,0.0058821413731800585,0.007295944044587005,0.00879325144375602,0.0025472028208164215,0.007633313091160098,-0.0005905629909595603,-0.008939294319439291,-0.005650220976653592,-0.014078512537949901,0.01128597382711647,-0.0018071842191686983,-8.372028726350254e-05,0.011703245356458147,0.010044304117897794,0.006213729541491494,-0.012270092784948403,-0.006580660174562419,0.012761782502526789,0.0051777520024218135,-0.004644758492548714,0.014967468946076574,-0.00843891783308424,0.0018623126870719953,0.013099459311517035,-0.014759366546429979,0.011663833736066236,0.009971081860753394,0.011688741025491115,0.008079763364754567,0.009940156098827906,-0.014687281291389617,0.013441755588748192,0.014112855499203478,0.004674507736713914,0.01545883753379392,-0.010878244384586512,-0.0011728362642829645,-0.010146357031305482,-0.0011996750322560076,0.003714577631258675,-0.006458207456468118,-0.012826187523745713,-0.0061113731336371255,-0.006678844047007422,-0.010069944943328569,0.004921324660273799,-0.0014603113465490244,0.0019002000187552774,0.014768792550900755,-0.0026962560553849364,0.002503564674428696,-0.009214893868427443,-0.009395344885225733,0.010029142811321199,-0.002615793918551259,0.0013696116450130735,-0.0025612644033972377,0.004345522634930775,0.0007265335675402808,-0.013154519659742665,0.00025284509611522756,-0.007976060081860057,0.004725641797916162,0.0030396961545436697,0.0011340099864503392,0.011842143253861901,-0.009074247847283048,0.008552943707234664,0.00019177678284990288,0.010647688153564157,0.013899344922527326,-0.005185469793250989,-0.013933521342523706,-0.006816402876960845,-0.013190323062378967,0.013050366972388372,-0.008555807160308926,-0.0034415627040440704,-0.0009060078083092018,-0.0034675152556031025,-0.011807680710183944,-0.011136831480427776,-0.01371972527828146,0.010069231694366658,-0.002242735873459806,0.0017306472051514846,-0.011174601679774042,-0.005331704181148026,0.010990222282814828,-0.007767923199828611,-0.012006240403318233,-0.001457413701596908,-0.007474981205964054,0.006670896172109059,-0.00637127004802511,-0.008030087506971517,-0.009700582045426676,0.01124488106240982,-0.0017448560773871246,-0.0014274081659992257,0.0035359636637038046,-0.004635250871747625,-0.0024714438984761583,-0.012399083614623163,-0.008032444978196785,0.010723687450837648,-0.01550276729598645,0.011070415445452224,-0.005881830420067404,0.007696553724176733,-0.01435087107128719,0.0034766126910406336,-0.013839220572820379,0.0010237038484519204,-0.007146116568692092,-0.01506145144100415,-0.00688468548344217,0.014151921380410054,0.008393741656383846,0.011222093460035068,-0.00819131980607813,-0.008136414077969075,-0.01272025692020348,0.0010191166865647118,-0.013662576770359917,-0.00025474424069915847,-0.0009008634890368756,-0.01564872119040807,-0.0023950016028736606,0.009718885491895039,-0.01109656035419496,-0.014433844025191253,-0.014194811330148372,0.0072093224836638145,-0.010216416268156734,0.00019448279018511436,0.008592521043492032,0.012727013676059202,0.0120668632671815,0.013045665308287272,0.006296526702741307,-0.011406786075857153,-0.0018927861594167953,-0.0019461948152505093,-0.009353938696458208,0.0026446101949232433,0.011463340607695261,0.010206069590019717,-0.011496692565509316,-0.007962172722486269,-0.0025434390119677733,-0.014394788577035078,0.005906529932485643,0.0008676391431833766,0.0007322098829613036,0.008474202044895058,0.006882438497280451,-0.004738836106272538,0.004236319154856151,0.010982536078234875,-0.010634667761505248,-0.004357176741231555,0.0025017378673315295,-0.0062641148052707376,-0.0066140643269959176,0.0010237138674368625,0.01067890798439588,0.000510309476551468,0.0007538202708512325,0.00945396990935231,-0.0008584215719905449,-0.011481302717295725,-0.013355796215155697,0.011096778889979599,0.00404573196337909,0.0056287795469154725,0.005264018737179428,-0.0014076801821344448,-0.00852435902025617,0.002545340235765668,-0.011846777914435773,-0.004308180938347014,0.010634417327073056,0.01190628977308543,0.014398124519894832,0.007246160295916274,0.008502520448290429,0.007364013598392435,0.0010675219337891889,-0.004721324354278899,0.001885087882797702,-0.009717954767153468,0.01333311307130741,-0.002811150563762,-0.00020371701908532928,-0.009163570901156071,-0.012395762863871224,0.006070736536330445,-0.003504573881022943,-0.003191412356818779,0.010812616924335296,-0.010521125256092471,0.004190035191504059,-0.008130409850047768,0.0016787071439091873,0.003442957719906057,-0.012746476481875059,0.015055807426071592,-0.008966143180258518,0.013126812396231338,-0.014159573830302202,-0.01455198551995394,-0.006540193206597252,0.009169652967961343,-0.004854168350109652,-0.007984805553137995,-0.00460193117530948,0.008367983251720876,-0.013956178689326795,-0.008955611645917747,-0.00968034118721679,-0.003227970789787556,0.010745812520067882,0.011715986448608684,-0.012337765116870916,-0.0032447296739287978,-0.004251193728587116,-0.003191108885634699,0.0033308721793717474,0.01520273032596022,-0.015150171654955961,-0.004362897567950913,-0.01523849714872928,0.006731811751647947,0.004378626807788836,-0.0044304142472263944,-0.002956504461382017,-0.007361028068397874,-0.011276707827674847,-0.005611543679188025,-0.006618102950416411,-0.0049359057236994,-0.002361609806402154,-0.01178446522483613,-0.009823446789430076,0.011145148456746872,0.008962668642453854,-0.003087358232440204,0.012784748723051428,-0.012968794866321595,-0.011491958256323672,0.013923533380237338,0.005151199258878309,-0.0038143160426549255,0.013841394835625924,-0.011359503297396113,0.009538024535659023,-0.012757884802995372,0.007280563640167677,-0.0027487975157199527,-0.004311720054318352,0.005093727201689023,0.013042842052732909,0.006027812662313228,-0.0006179101644622488,0.0020778059436117563,-0.0018939424499418514,0.008330657847971427,-0.01337059474637918,0.013990746553403762,0.014165198992269458,-0.002069374336154107,-0.00317283941054395,-0.011998925696699742,0.012462701544901157,-0.01323491686082188,-0.014865059975447464,-0.01458088885419846,0.01132990256148961,0.007964307888291779,-0.011482213944519757,0.0012258443597063524,0.007261587394413554,0.0062269074819457345,-0.01326340842168927,-0.0024270262793805843,-0.008252327379170109,0.0019687344659927238,-0.0035738569110267755,0.015305370294642018,-0.0014965023969841366,0.002403970807740201,0.005413089275440349,0.011722155071738958,-0.00515328445056085,-0.007967050461372187,-0.015020428314623635,-0.009534316673829164,0.013886290844176082,-0.00969517652840408,-0.005960236246254178,0.013498095328364901,0.004443814516613637,-0.006400490953264951,-0.0005748957643718646,0.009040385856108122,-0.014823975692497009,0.013815880383583503,0.005127053931097278,-8.453076864104608e-05,0.005947308053856503,-0.00926670055723986,-0.012931401625736205,-0.0038568932823511135,-0.005059751409983067,0.009630038871199786,-0.010128357221509784,-0.006046934557095018,-0.012511991469271325,0.0069795433046542866,-0.009272675634398198,-0.014018320948765027,0.007598509379938666,-0.006079436648689644,-0.009105208515614822,0.008160850152457245,0.004902816332779506,0.006107935312069514,0.012604394587516462,-0.0070559191914854845,-0.008626707441678372,-0.004227265816448362,-0.0030322392824770083,-0.007711153250858979,0.012610647818057829,0.00786803588762535,0.001543055309756111,-0.008720386356308528,-0.004776052199148869,-0.004159088719027737,0.0009449779053280915,0.0010062822189776742,0.015499478078180974,-0.003479451679839355,-0.014799451041252402,0.004314741675090321,-0.010268617408974712,-0.015480834108493546,0.002709812503050975,-0.004533212939007947,-0.015257637331219239,0.01471330972021263,0.0005637323719161237,-0.0076739620271762295,0.01446360465205477,-0.006126490590178148,0.007451818491704981,0.0007826747327688288,0.007994479588655698,-0.004539553087201677,0.015023273744186764,0.003621702237590284,-0.008059289751162277,-0.0018180259641254225,0.006921218028077836,0.0015686504747940465,0.011841489081183926,0.0148025708228014,0.0038632300447135606,0.010834428801409595,-0.0007186358362029366,0.00691348021988748,0.002086548339116279,-0.013000699271802613,-0.011981448862531342,-0.014316835590651169,-0.009179146434363522,-0.003390147261301083,-0.006301943878632146,0.0010117871290878204,-0.009509407213067124,-0.008161767627775936,0.00027693969847158995,-0.00909769042345283,0.008032790632042198,-0.007253618997119422,0.007497766263797944,0.0005886388147929443,-0.005431803413974878,-0.008617189548297167,0.008081130891386365,0.00680011505877128,0.011026141182522133,-0.007350048459074515,0.007665778822120446,-0.0011219029048663252,-0.011115421015119146,-0.001139835237329836,0.009619889089718897,0.00017275717030238528,-0.005341933630157326,-6.60043765844085e-05,0.000894584570014672,-0.0006962564604611823,-0.01365068593032473,-0.0065075323883360715,0.013262171689477114,0.009133647046766391,0.0014531811241340342,-0.000432623549866569,-0.004435804891945623,-0.01019853124823969,0.01363760201783832,0.011260530210211093,0.011804358677752463,0.0127250293572134,-0.0031861669003068853,-0.013804192139419077,-0.014468666988248904,0.003285103212493229,-0.013292301496358436,-0.0047155292145008194,0.014383346383872592,-0.001084048898106909,0.0004301082733429856,0.006676092185902552,0.011544714103380297,-0.0024980993269064647,-0.0038579379984416615,-0.015365564238139784,0.00894450858412664,-0.0038502450131910927,0.006130692510607272,0.0018308086527804891,0.013842395318727913,0.008907577217920754,0.01468122708359227,-0.011463865887940874
0.1253805934963744,-0.0034859139129590835,-0.00021164194780195003,0.01105114538521254,-0.012633910117080423,0.01041499829028978,0.0071507242440345085,0.0045003986168378925,0.0052202928031559875,0.0003927972496694347,0.008438967173261544,0.015598617360314279,-0.009338011184647603,-0.014043174918983884,-0.014210369433040337,0.001558974375836096,-0.0019146912616697619,-0.01535339504576506,0.012488542022260695,0.00013145844935566822,-0.013190417736226045,0.0014006098098741891,0.010781896493540367,-0.0013269379470069072,-0.010894971542764854,0.01491468580556057,-8.888476343643995e-05,0.008230725031843304,-0.014486545891027634,0.006426634348378743,0.0011643744916362796,0.010971152147518128,-0.001948085960671534,0.005145920406315098,0.0032182017282894534,-0.01405402514663804,-0.003288479135110569,0.0090944516392485,0.00914114716034861,0.004516718501765373,-0.010626087561973196,-0.013787534355469644,0.006691165987495526,-0.012950278997621818,0.01275682413686156,-0.007575951575916066,0.0040250843501137105,0.014696906279277885,0.008188463916761469,0.007384234541377099,0.003832116154010204,-0.00720993821922403,0.0069358340287923,0.014120802729796478,0.013422120042563681,-0.0031787973147196537,-0.013540692194750951,-0.007427332828776615,-0.01449261062462696,-0.0068101828267463325,0.0027906265675214786,-0.008846554041687864,0.012280036981112151,0.00031299743835634317,0.0030779915298675942,0.010078120546078595,0.0076123528792698385,0.004334726074654891,-0.003657730203689204,0.003088857196362385,-0.002059551008282894,0.007883132301174262,-0.01529944119132388,-0.004565300802371514,-0.0064739906812573585,0.015022522908335608,0.0041721729544228064,-0.0006894468568025107,0.0003722389951633272,0.014500437910786871,-0.00321270593479233,0.015065837430232171,0.010199361585181251,-0.004645425983721484,-0.015245675925352,-0.01536311914855679,0.010717199786944812,0.0036898506231576797,-0.00010865688397029491,-0.004630622274351022,0.011476989941544367,0.005359489907355446,0.0029798354828643693,-0.002502282598180977,-0.009506824586062274,-0.006232954927896729,-0.001451445891790018,0.0031895920603650938,0.005988405820790731,-0.014453536244666875,-0.009301917788800023,0.006980014791373563,0.00620447015589242,-0.01325201718580322,0.004765587459941381,0.012552543782643517,0.0023852740024760616,0.004711742527627506,-0.001681634824998577,0.015294184518086605,0.00991617184169898,0.0074793654231606055,-0.013798994315332873,-0.002228380372855724,0.011580150047262375,-0.012056109153679915,-0.006749873491728734,-0.012132492575859709,0.00948582764426035,0.015071867910810765,0.0016827158779532925,-0.012236294513349176,-0.005622987671428859,0.002763292836025297,0.007907542727653956,-0.007039253444254765,-0.0068908299627378775,0.012957201490457265,-0.0051809083520202685,-0.0045259756534104766,-0.00788258168754903,-0.00031845514995107915,-0.007046635818716998,-0.01370562928960109,0.010410202227846749,0.006643797247422142,0.012614357907973538,0.005046985828872441,0.0015911214565904603,0.01539705125994745,0.005213406497495212,-0.0050016847707800675,0.014391653184986402,0.008444899271550763,-0.014250698770883436,-0.005114327158008799,0.014083894264181702,0.0028465111189104448,-0.002465648647859622,0.010105713857240375,-0.01299382769103051,0.010490032223324595,0.011087971724743382,0.009577104516063651,-0.007001138662055446,-0.00461851976919744,0.014741232808163843,-0.0016805124404876178,0.0031796356991171306,-0.001368135912603105,0.0025475778299578027,-0.0058696135555664835,0.014329215230742267,-0.0010062230524238906,-0.008968130459352635,-0.004574213072812967,-0.0014626108099196741,-0.013012647085167577,0.0033974553071288854,-0.006265700248898012,-0.005516353427816374,-0.011566169838798157,-0.0034351288862842005,-0.009386612391003739,-0.0029263660878390547,0.010278932507054594,-0.015126271089800013,-0.015326171340698094,-0.014032026589166493,0.010118121510823993,0.013260880868382358,-0.006892686371941868,-0.004339334250198504,-0.00574296146139286,-0.012190283376892173,-0.002377671276537534,0.0023904879351496606,-0.009839808522947566,0.013073089299740598,5.7351673023419486e-05,0.0020995399902592146,0.007830419089544788,-0.011928832768828182,-0.009722376040860488,-0.004682281961376711,-0.007673471871039374,-0.004033083988235889,0.006644132324273463,-0.015069773491383491,-0.0016871229755266077,0.009723125272256945,-0.006016868472205305,0.008432934622734287,0.008435360354820787,-0.004308720618709083,0.014642235229693339,0.00520875805429042,-0.004324081132553674,-0.00042368216293298995,0.004870183115473638,0.003769964391323599,0.010757754938500825,0.004088267797482197,-0.011836157699490034,-0.012807363629259622,-0.006325931851677734,0.0021854277044315467,0.015578970861489407,-0.006325757598505495,0.005324735270244082,0.0024818432031799204,0.013701802309854662,0.007306716260781498,-0.0025096629034481654,-0.000890778794404648,-0.004698891341812707,0.011695349088183177,-0.015286168299460955,-0.012761474341168885,-0.005569747526641975,-0.00860624632538608,-0.0019038107466855263,0.0022926329216744505,0.008675671070965625,0.013494748058763413,0.004821881314789132,9.324522613509788e-05,-0.010969092623825089,-0.011641614627629098,-0.005959088208437197,0.013249304426318175,-0.005516206477978248,-0.0018225219994317007,-0.0013814540081374205,-0.001840874054976453,0.01463803020269305,0.0088142779506819,-0.010453331325882175,-0.0022368778165875033,0.006658532620233044,-0.010353709187677862,-0.004233387242468407,-0.009081957355442889,-0.009093435605378074,0.015269182874326645,0.010388288873845724,-0.0046459292141001265,0.012839013440430872,-0.009309315106325256,0.0005201189828181224,-0.0002888906643196542,0.009084701115259245,-0.00488174850138081,0.009808868735297837,0.0006418643133636456,-0.01376749866102999,-0.002247778053874004,-0.008627194127853654,-0.0061766002029050434,0.009953775489854412,0.004622035608632627,-0.006732213298719103,-0.015235122582185357,0.006707173809336964,0.011781926561048142,0.014799162216475103,0.015829373443385895,-0.012624949922038596,-0.009163262975239,0.010090537526099059,-0.007942635679110757,0.010052825158482156,-0.00045240697783028097,0.013560888930343526,-0.008386605711495765,0.002899626560797578,0.011511440158451637,-0.004436810526551029,0.004051927911816106,0.0076161401416068525,-0.006745786296217819,0.008348934617600124,-0.0008643351134866133,0.010252890781597933,-0.006819110904437778,-0.013479840060597678,0.011773121564562368,2.603423365192302e-05,-0.011781179268911379,-0.008914960967741041,-0.015069460332426931,0.00898200245035864,0.0007743083637009089,-0.00960816997936457,-0.011826253305829882,0.014789940108723866,0.015019435475471824,0.006556841371430753,0.006734557011958547,0.010092970316726145,-0.005392866080724452,-0.0033874174818428926,-0.012390421013847274,0.01057523090914714,0.012677045187187281,0.0018801459137970386,0.006120666979706368,-0.004643332777751563,0.0043354749565476525,0.013039720411623868,0.014875124887659895,-0.014986931954964517,0.000687813361949501,0.01045488246635857,-0.009662573053453229,-0.005516236741118238,0.007756101342394096,0.0029692065959425543,-0.015078188662452547,0.0063324945987207155,-0.014873957403245108,-0.0007881093122843941,0.004961293377197536,0.006663864588054142,0.010969582983650191,0.007130152966957365,-0.007705065214052742,0.0044888413674848,0.009236983819588197,-0.01567173486129421,0.00186563183269266,0.0020100833648158925,0.004112797513265718,-0.009924842268747975,-0.008654171873706144,0.001031614776175059,0.009790779477216892,0.00011538336237371609,-0.0064715434615552495,-0.005353108084234699,-0.000522862229199999,-0.00015472668930500294,-0.013669179074385711,0.015610060337941762,-0.009063063099297781,0.0111565088909049,0.0003801546846059556,0.0030145426799813835,-0.011044368184021668,-0.005617511683341819,0.0003369612037835187,0.01515251859925243,-0.006107736902241722,-0.004071074055615017,-0.011305201214570971,3.755767839627375e-05,0.007547889171372214,-0.012348980950796047,0.009843951683788125,0.007094511282336043,0.011267865938723606,0.003274850519606667,0.0026715360364412853,-0.0109377639614757,-0.009031891569764664,0.00652218640928537,-0.004692770334797392,0.014495974773432488,0.008047990263746224,0.0071643515516686945,-0.011795836573148482,-0.006424129791947556,-0.007338593175443944,0.008626815251751069,0.0022167357220608474,0.01427413983995149,-0.008812766632418308,0.006277905325342478,-0.004567081590968844,-0.007897131924009815,-0.011867592131338516,-0.0026775584023964127,0.0018708489060317779,-0.014727653430914266,-0.008419766778752035,-0.005612278425925926,0.0023434352365205176,0.00763675633312289,0.004546046538957815,0.002982240386916491,-0.012007828264055564,-0.00782101044880995,0.01115570980137388,-0.009761217061832804,-0.012116891441581632,-0.0033002830996116997,0.01300327861610357,-0.008882753429730725,-0.012351680973234939,-0.0034694276817690026,-0.014118409857948763,-0.00023734550858213674,0.0003687819617987024,-0.001743129073799201,0.004174756352260428,0.008477087824767505,-0.00210429697956775,-0.0021620037942719867,-0.006225394425853915,0.012297379241399634,-0.006394652171659701,0.00796283185876491,-0.012179297880175865,0.014152729525550052,0.012508954711256366,-0.010478753258687811,0.011208166029303324,-0.010104500480109387,0.0018562752724384601,0.004884300422291551,-0.010136226721148337,-0.006435223730551588,0.005386213310753671,-0.01357333866079729,-0.009076837879417118,-0.005882382009060549,-0.009680349942031381,-0.012008712854378583,-0.004133068029891305,-0.0076218904098320295,0.005379408356953882,0.014875168136505244,-0.001750797531133069,0.0003990545059070777,0.0020372335043261206,0.010503197536128377,-0.002107583236390399,-0.009929399718423295,0.010632935912971845,0.01265160436641603,0.0005153200206476014,0.014338195828304515,-0.006685038078506213,-0.004137293976588592,-0.0005823286866883928,0.004816319533936874,-0.007122345661366936,0.012283592134354034,-0.0033485215527485675,-0.005163054777577982,-0.014859435053655695,0.0011963730522167593,-0.007806598967715856,0.010449072746228884,0.011861457292870222,-0.006369890940670377,-0.00183814074234248,0.005337936036245623,-0.0030942351271618374,0.014525166978559963,0.003593015630036473,0.015600459671875415,0.014500077138483997,0.0022184805617693868,0.006253252417668092,-0.009179629362272726,-0.0052884878934660925,-0.014893487195564274,-0.006617094154058423,0.0015947682402564375,-0.005166055168449046,-0.0025733249232418763,-0.009979736794236086,-0.0023616494853441632,-0.0025473911642802482,-0.008759818909572677,-0.004290127613832802,-0.011043271811677958,0.00909997259678066,0.009180969407669324,0.012680233027210984,0.009264121395145273,-0.0027825091078574186,-0.010100774824440498,0.014341527181284772,0.006729187609769239,0.004260477420101509,0.002007545033897246,0.010622740724963114,-0.003807551886991776,0.012939405865705099,-0.005040157126213292,0.009409069947926334,0.008697312948009062,0.003403940322126569,0.00993396809590225,-0.00618118598701968,0.012221533866057762,-0.013103084625669748,0.003052491539311366,-0.0054058577574706695,0.0025861484609978626,-0.0032003736778517147,-0.006666597329286056,0.012251249411070945,0.01485986602714745,0.008790025202369978,0.0029736149052728422,0.0007284668390441474,0.013146476748151907,-0.0024658996930522277,0.01592927357602385,-0.005602453258640414,-0.014845518762098057,-0.004929280363342779,-0.0018313164612099328,0.0059023443067445025,0.01168754899837121,0.009655074688159022,-0.006885653490777492,0.0009619130552870722,-0.011107573912427603,-0.013640551382659271,0.005769535694395849,-0.007215891779743487,-0.00976560833828613,-0.011290493802465367,-0.005545913112484883,0.013911812449547277,-0.0028075301271703306,0.013407986509352446,0.012170302095284713,-0.001281252126022709,-0.0021771933992329657,0.008910593271994515,0.003841768125117375,-0.012098128987317906,-0.004810574458514194,-0.005581439779961655,-0.01325532730528693,-0.006567338191383527,-0.013305318516132772,0.0037135695483360106,0.0002491745924142985,0.00794692801679656,0.01148188033758459,-0.010748300819601434,-0.0049815923914953665,-0.008706648083640337,0.0028795254861801213,-0.00713340443347657,-0.01322577399596378,0.01122153359290301,-0.0037620099681336225,-0.0013541180681969959,0.0016791404879453653,-0.0013481172801347353,-0.013203156008985388,0.007590850506341193,0.005211887379128149,0.0058573259255356004,0.013695123670885302,-0.008924012212232282,0.00510416222484037,-0.005008921851634346,0.015179488308238277,-0.01319473012432409,0.0086328559448793,-0.0033980063991878805,-0.012084211282533463,0.0050611186022757075,0.005322887668392439,-0.0007033816265026103,0.006276972365483791,-0.010092679953610156,-0.014028049934594583,0.0017036531310558255,-0.013933280818082578,0.0024241937295923083,0.0015006485688719567,0.010357269769740766,-0.00880415339815162,0.00718266160862368,0.014263140722834803,0.007066062171240803,0.0015320212398611706,0.01211278653672362,-0.0053120881468047805,0.010486712515134354,-0.0031100109473387997,-0.0029102348762065234,-0.012290148658395984,-0.001998303637049487,0.014074807345834973,-0.006587433630988557,-0.013700971604633278,-0.013237055332099837,-0.00567501022445662,0.008669484519784129,0.0023268109127616366,0.005497706373212375,-0.00967436349987301,0.008117815905545266,-0.01207475939960789,0.007217684479419948,0.0029644955345439344,0.0034400638191992954,-0.009237065266998506,-0.014381275642816386,-0.011747886006366845,0.009732358185856582,0.0005725438568310995,-0.011259893046795422,0.005197880177342435,0.00979328299808038,-0.0020525279105734944,0.012483726835417501,-0.00966780595044801,-0.011652800288833394,0.005153332345419391,0.00453828174308778,-0.011425076679336883,0.013893073709972524,-0.001979275798459628,0.005859058277661834,0.003982526574876716,-0.014261505191326612,0.007147592085501265,0.006550174589716917,-0.010937794496172739,-0.007919965299183825,-0.010928654048394534,-0.0104442407051946,-0.0023522558848071903,-0.01079341542324053,-0.007098684950887831,-0.0028678238547586547,-0.006384255143241184,-2.7742719910522424e-05,-0.0007993763826706573,0.005399256554086422,0.010986148627381865,-0.007426030753878277,-0.005182951488893274,-0.007051505413619018,-0.010550845122480914,0.0007900373868353638,0.011518769363751614,0.014640996576315938,-0.010984833163639383,-0.009600046337904119,-0.0010706111422762062,-0.007898483439747896,0.014434583001827385,-0.000880404698410345,0.015296669265696127,0.01342093248506038,-0.013363723463807082,0.006764786849126125,0.009909009960019357,0.014611720083332756,0.0010497795557222085,0.003545510463598519,-0.005286825237097233,0.003024194184397446,0.00020557151432214974,0.01514386753618001,0.010223212634909341,0.0133743996005871,-0.013304538790992708,0.007405331665812481,0.013855299861520806,-0.015174770083089357,0.00029903105767203057,-0.015361476738959304,0.010274642920970726,-0.004536548766129877,-0.012819624212659501,-0.011625817038331007,-0.01467226065643449,0.013102207979880588,-0.008926343552580337,0.003972184209128318,0.008852690302887326,-0.008505902886151176,0.014851949039646288,-0.010966855332312698,-0.014533469691955243,-0.004433432494149021,0.004232886765374602,0.01056510111089793,-0.013970687542019616,-0.013675281011858591,-0.001348574766571426,-0.007034009357284366,0.007011671350659032,-0.013338621084326124,0.010029965431069855,0.0030087687014361806,-0.01174265335536221,-0.012351303282890897,-0.005124400380014116,0.0077135107129609175,-0.00838199435483088,-0.011519284837856792,-0.013553376445207136,0.0042866841836160146,0.00756868736238098,-0.013389289537122618,-0.0056469023609215995,0.007837225735492314,-0.010489366465490278,0.006954897181939416,0.0055324162131377575,0.00984583624868361,-0.0017596196344502818,-0.01507959681817414,-0.011349153455362134,0.0020040700578719366,-0.00705236121972579,0.004551250050055612,-0.0017090244902117913,0.009299161191794067,0.009225270542322429,0.013435861418550918,-0.008497286037419338,0.0031749743220344895,-0.00795386139810677,0.0051210875971162365,0.006549283854864293,-0.008081313859572935,-0.006057871710789269,-0.001797924378230665,0.010918503288315125,-0.008280796164279363,0.0119285398664886,0.013597915613437185,0.003934476342701974,0.006843029467540062,0.00024109030740580135,0.008434124871154344,0.007033077223221981,-0.0022207500559292236,-0.013397354269567563,0.008562962917684689,0.011095069973256957,0.01120054908982241,0.0027615300678577696,-0.010087646716403963,0.005548850322416553,-0.0015188884747681236,-0.009184333711630435,0.001985981205246231,0.012801476234027512,0.011451523280890646,-0.015247318626317473,0.002637843606667377,0.004404202439597431,0.013568976486769867,-0.003765840139181846,-0.013162034282403076,0.006457578846592413,-0.011848501095579306,-0.01286835046218229,0.0010525761028732793,0.005940709367833058,0.005569379149154976,-0.014342896152749307,0.00672772065474192,0.004193858339026191,0.0032378247414508385,-0.013355066779753726,0.008779832500881508,-0.006300790587182126,-0.003941409463969078
0.20960092771586902,0.00017946430000113228,-0.013351099349226944,0.0011878346550787573,-0.00022121042286165488,-0.0011610325424980805,-0.014691509724704701,0.0012650469491237715,-0.006057293626434691,-0.0031177457602687073,0.012481130462533149,0.0039217930012014415,-0.00030729835684326177,0.010049853113666594,0.004940233029897465,0.01430147932926117,0.01440659617515578,0.007339406380599378,-0.0070087761621468285,0.0037219972380118337,-0.00928524784387156,-0.015182310609385588,0.012967656541085816,0.015036769141356831,0.002993609866719378,-0.013686653770905992,4.178889269254235e-05,0.009759436996985251,-0.0030746989515290923,-0.003187537651410253,0.008067200442475459,0.007657747396193345,0.014400534975986801,-0.005960203447029144,-0.014855703546818488,-0.002263365310054829,0.014127041164877837,-0.015375170024630094,-0.010329507475717793,0.0050568063850305114,-0.004400542351126784,0.014537861067964028,-0.0006231799826016867,0.002393965104709621,-0.0019242071862514247,-0.010077702893796763,0.00905076423986675,0.0012437235724902448,0.011652962669969714,0.014002125358320853,0.005077077515205756,0.004277284734359309,0.010366877510721805,0.011544729207607882,-0.0059942140065276095,-0.005285579491624542,-0.011391159183790207,-0.006623338129783923,0.011835313749834028,-0.001555252179532507,0.013169597746542302,0.008529552367405855,-0.007734983566652389,-0.002033961459573505,0.0015764762510187258,0.005005226780445799,-0.007534613455812173,-0.005496752723746364,0.012049936811887246,0.008246696505650903,-0.00033197914662465235,-0.01218619857715489,-0.0021165228152413597,-0.015435748253930286,-0.008432482947408549,0.008283410639475082,-0.0010203622480029415,0.006403778564440611,0.00976957999103464,-0.00921527975807802,0.004120709302775107,-0.005726790753504938,0.004996275781378585,-0.005024080901311935,0.001451024356407614,-0.0011007801103932353,-0.010075518505455613,-0.0056581969651010415,0.009668400759651453,0.009386836010117937,-0.014248580291491515,-0.010088429182181837,0.009171090576742395,0.0025590655748033942,-0.006860394773829762,0.000414171107660972,0.008648315382681165,0.0063107820368968085,-0.010086614152733946,-0.0019836037958817334,0.010184019367636592,-0.015353351447880194,-0.002589625027456797,0.0049784660854108875,-0.0076841379639205915,-0.00969928837653088,-0.006439503511448387,-0.003821793313658517,-0.014145381582722735,0.012370162156783162,-0.004165593735078046,-0.004251231575722464,0.005619545374236236,0.0017716683461642783,-0.014854971566486186,0.0059905492782848825,-0.009149697861765591,-0.014221779894354226,-0.003380730282579196,-0.0020563743289738847,-0.002426904775214889,-0.006234960761719287,-0.0020474689846194344,0.012679485319957141,-0.008718608390686918,0.010017895240728917,-0.013960363948390083,-0.00494267744225705,-0.0015977646549586502,0.013460124755235814,0.011990926436917484,-0.008373357900322648,0.008208321006925989,0.01022027750398782,-0.015267891686060533,0.004452638545530344,0.013481424395134355,0.012851376985228105,-0.003690263783661344,-0.007495182126026172,-0.013128356923543204,-0.015459852285979302,-0.0015100109591043714,-0.009377918435580005,-0.0014550795493866965,-0.015468161824355765,0.006466717759617416,-0.0020855925394091803,-0.0024405068453105957,0.013015180626727086,-0.005759732587034454,0.003700705913068535,-0.011699551150435724,0.007671854946882059,-0.005868879790525301,-0.008875467598090948,-0.005377524439084752,0.004715456741253022,-0.009071573283302844,0.0035211966900254954,-0.0008201600496423153,0.004312501756654802,0.013230552127732581,-0.010132299885327415,0.011193302110399518,-0.01420346696770213,-0.007578238181225005,0.0045661733235292865,0.00942213772743453,-0.001680414523563236,-0.012356683729299895,-0.0025676489008880504,-0.008567703967062586,-0.0005850174373695301,-0.014674816225861632,-0.014960545964181778,-0.004877753545282682,-0.015266991480839655,-0.009308916092215324,0.006272947465299844,-0.01111776737977444,-0.014132007625757117,-0.0023384746678632106,0.006911895140936441,0.014251772005063019,0.0005054414687285109,0.001316488256638411,0.013128083507027115,-0.011219918830657089,-0.0053381922374067334,-0.01056396620503335,0.011689393146037994,0.002782050613179802,-0.011822444157825079,-0.005299365462306353,-0.011552927856616792,-0.0050527365194111655,0.00097697880445171,-0.006119105771904481,-0.013378373472014819,0.010681556484733444,0.00210671630318885,-0.01074522414305291,0.001243875831862843,-0.013965753045702564,0.004298147836379636,-0.0038941561621942344,-0.0033596069411081847,0.005724925907387249,0.004285764605067044,-0.013418037572902821,-0.0001895108659452032,-0.012489220544527651,-0.004479533832243974,0.0083225809827165,-0.006386017123781748,-0.009003842141786808,-0.0037517150401183297,-0.007310754120462517,0.010618047960611972,-0.007900987958382557,-0.013910746776617125,0.00036407207045847066,0.013852630735113471,-0.004877306015422592,0.0018236456908372889,-0.003095783597408891,0.005092652957561615,-0.00535728897480286,0.013442127217205776,-0.003217942732425931,-0.006848570429216635,-0.010353286850521691,-0.008099387022707636,0.005515073616332732,0.004011464738831815,0.012589305844556318,-0.0014094788419223786,0.010597326713503163,-0.002831520982212644,-0.003989580913900367,0.014653685724749052,0.013662750766910935,-0.011735466720060607,-0.01554744164509625,0.0053722496351063615,-0.01223755359951902,0.01172718485696532,0.008435303857863738,0.004000049071691252,0.006415401090125174,0.005615559684667902,-0.011245707925057889,-0.00891172430056093,-0.0013443335520335366,-0.004961286285281188,0.0018569661498825751,0.00279022304779433,0.014671020187388365,0.010284551613938568,-0.0015525955235375605,-0.015143096968485585,-0.006206000663192078,-0.012940667401190434,0.012176782434007941,-0.0005826404626418878,-0.000457301395633124,-0.0021670463656494015,0.00013019865299189855,-0.005485641545878952,0.0005780230529380454,0.0071953489280126215,-0.012521706970575147,0.002952340954081915,0.014285829778039286,0.013996973033723725,-0.0050200752491616745,0.0016236884028603964,-0.011255806939262899,0.012533736390127581,0.004225389545101066,-0.014068213032269478,-0.0013456552947980463,0.011288953457344954,0.0027162458832115954,0.0020956963567668667,-0.009039307742221859,0.0036358194745190874,-0.008111937426371382,0.0042892308496314995,0.0073991255482107575,0.012981408767023622,-0.001599419001420176,-0.009142800444840069,-0.0037662550749425695,0.01462178724064813,-0.0016628194464149162,-0.0035211599480553433,-0.005787986875621432,-0.004470607103529232,0.003998680801759173,5.505980365911671e-06,0.014386299799354034,0.011484578759166126,0.009820999264545643,0.014976384971002194,0.00036903249059453606,0.005221721880688177,-0.011260460860324869,-0.01185985219256458,-0.004459709916843807,0.00631209713572833,-0.014031174110587075,-0.003574263357130042,-0.011759574376832576,0.0031730024742108415,-0.003974041463782755,0.0022915552928750044,0.005924447571969744,-0.0047772131112559174,-0.0029084874605453176,0.0034310332835442952,-0.007180414766890685,0.01180830677994911,-0.0021040069206690747,-0.003806406312515468,-0.0033813257929148142,0.006853219564751864,0.008823363613512783,0.015147303646246125,-0.010578836185161393,-0.0013559662382954744,-0.004596062529150835,0.004835408562027829,0.0022225806384198092,0.012756410547486188,-0.008658848881597575,-0.008742437074416954,-0.006300974617006978,0.011969048681732503,0.004808525719255249,0.014268241877592958,0.014126982524317235,-0.012077867645545663,0.0013130490133183637,-0.0020862046622030987,0.006294009960263555,-0.005701459613892661,-0.005545670865973525,-0.012641795198887647,-0.001155147745159177,-0.007151337543592949,0.011231241330799906,0.0016861775636009704,-0.012679996563541275,0.006309192798748297,-0.014720957735696868,-0.00640288000868082,0.013040105297757818,0.008322694300066704,-0.0011315038344579368,-0.009909149396400915,-0.009856205015915092,-0.015060632002493177,0.004754673959857688,0.015367838389761253,-0.00975232150117392,0.004386930469176395,0.00590948475459365,0.009026144017812158,0.006360604568931097,-0.00453344331755177,-0.01134701440757829,-0.009458570317315227,0.00506851691220684,0.003045565946323746,-0.0035515430994314634,0.005765203716538954,-0.009519942555973538,-0.006592145345624754,0.008907810197774962,0.015382140490638779,0.003069255926042246,-0.005705812582549493,-0.011920332398685533,0.010436347855686446,-0.0017084657022856946,0.0019429252010566278,0.01318844381822003,0.005594710583864013,-0.01452107406787524,-0.00022126641188563174,-0.005628967663462377,-0.014020896014361704,0.00511309385521184,-0.0021994406285549234,-0.01288041533095569,0.008291469043903849,0.00871060162225849,-0.012577981165347677,-0.0023320865179844706,0.003946746897570702,0.00394703091478805,0.011428390011217154,-0.015458095800976525,-0.006890491841611073,0.012559343316563814,0.013920075791305865,-0.0004960219417548643,0.006868314375580287,-0.014112947280455231,-0.0003028835299526382,0.0061722177767977076,-0.01343544596958271,-2.7505212980113616e-05,-0.0007509315134547923,0.0021043712639785502,-0.0022822926785687155,-0.006707534278135054,0.0015538767309910512,-0.010787815762161082,-0.004411364564788033,0.013227918467375628,0.009548504569217603,-0.00035754376591201067,0.009870659401564166,-0.015869744651645284,-0.007358410436920317,-0.005963868963016609,-0.0037626049307232707,-0.003684343246777277,0.012811343498326133,0.01104970669710015,0.0023853808445930655,-0.002419995012805911,0.007665192914784517,-0.001977842521303509,0.0013987663091046838,0.0041466889238423186,0.0017783468308975837,-0.013188774630341326,0.01563833660075483,0.0010668110278062662,0.008606247082372828,0.012563337638471794,-0.014185104140009126,-0.004760661574619335,-0.012081122965107915,-0.010976882493635001,0.0062607212947276385,0.0017063790041671363,-0.01023237640835872,-0.0033907239840470383,-0.0018043776027566413,0.011892938532377407,0.011208997537445815,0.006941498148651388,0.008503683557760497,-0.006617706810618024,0.01294358496396159,0.011601543817857097,0.005496452675441315,-0.006075075693134711,0.002149220184570423,0.006780650611226238,0.011656566529719768,0.0008878473868281018,0.014142266607055793,-0.00777928498693562,-0.007769640437109336,0.008583250077316367,0.008285379682403704,0.010232465253020788,-0.0026073073052274094,-0.010964264540765573,-0.011056369954998481,0.0035261981852021686,-0.002628699997985616,0.0028643261267068815,9.648152540154673e-05,-0.01160290870253476,-0.003589623545689108,0.009000864499921045,-0.014180089125864988,0.008460575916160106,0.010947079645251451,0.0037327519764166653,-0.015452678507286469,0.015382847542549784,0.014337508456122512,0.007420474701135681,0.0004494285932786723,-0.014202772231891748,-0.0005632622918338526,0.0038648061214648856,0.010488470215037618,-0.002205252003513067,-0.004810571172355139,0.0069581699781268444,-0.0037234099664948364,0.008484904187600662,-0.007815415977718993,-0.0036825523968422318,-0.00031699618241323995,-0.002585401835647021,0.01407789640788391,0.012861414475510008,-0.01541658751885284,0.015204883631428615,0.002403256568533887,0.010859054240004688,0.0031381143706434604,0.013577248876424303,-0.00490143999723387,-0.009732746428640759,0.0031992883299931676,0.014512300923545631,0.0011156005877418493,-0.007623750377972805,0.0054669335574712066,0.011297119195259704,0.0053236556262762115,0.0020738251753619464,0.00010594282584691235,0.0002406152248872913,0.005087457687572154,-0.012149123512152008,-0.004698882126731099,-0.002531626463363454,0.003873053387149686,0.006202364482867761,-0.006681824742374094,-0.0077317778639604305,-0.01550258479581567,0.008350622556303026,0.008082625391510969,0.01495139664554064,-0.00896957653118216,-0.0026212439042914404,-0.002276335943513088,0.012228878217085137,-0.002559443164716792,-0.011506811699649525,-0.006655408987799138,-0.010797851685803892,0.008629615228141357,-0.012333842517472871,-6.293576040042402e-05,0.014214178269474851,0.005058800656734692,0.013437664479978175,-0.003127073135437031,0.015511464781254099,0.003523468513301447,0.011209213475653908,0.008318804779689987,-0.00803924671000404,0.005308928638507213,0.00274520997295585,0.014074070467403358,0.010278639006188108,-0.015171773768377552,-0.015142289186716066,0.01110719766876155,-0.006913297647898429,0.014334601457626842,-0.013000501083280463,-0.0016583645521038273,0.009555141986933411,0.007912934994714503,-0.012613226138179069,-0.005319091427617467,0.00028038648688087956,-0.009241090904829097,0.008795951847090408,-0.013554358234671932,-0.00943229740617338,0.002098668266304077,0.014437593399043666,-0.010329350451176729,-0.014101588987806975,0.0001441753634964397,-0.009758601618637874,-0.015199091982652225,-0.01229313851022019,0.0033914080625727246,0.01064717264387363,0.002501422219907918,0.015429600145763462,0.0033545357194667523,-0.011872909608955793,-0.012086700705334975,-0.0030435498904549906,-0.00951776750275998,0.00980386206220426,-0.0064068849442570795,-0.00921281318816381,0.012906831362645966,-0.015482478714110345,0.011267833475717953,-0.0018813948564189295,0.013910381685105385,0.008284043667465848,0.013668756247188678,0.0033348589686170798,-0.008742993503247616,0.011254499110354066,0.009775719739204613,0.006760342362725708,-0.001529938999002448,-0.011567017988408996,0.010982209776360444,0.010666923511865947,-0.00010792540374255655,-0.010475260451989139,-0.012321927525461643,0.007377120878515945,-0.012386832338724785,-0.007803124142356819,-0.00023728782715995962,-0.008357538387716735,-0.005823523096696225,-0.005783263041622681,-0.00901689967263971,-0.01123856783308014,0.00625321904921864,0.013808192522813527,0.0005517171803626364,-0.014606216477822703,-0.006922057351232905,0.0032617194565705346,-0.015111583517140115,0.014491927676384714,0.008193351811026319,-0.0005397657501900074,-6.39848299947333e-05,-0.0017804609288380796,0.0035447163303910503,-0.00574159134144245,0.011850658029301324,-0.01107502670941768,-0.010208952734164344,0.012187572395817787,-0.0038566899965126362,0.012079478047746495,-0.01315114219579314,-0.010963950501880954,-0.005977582752864075,0.007260920310372289,0.012098759044931108,0.008090409728932034,-0.006604342915152254,0.011049502854945865,-0.0056640180893789355,0.004932583799298854,0.012305690541725887,-0.00459620789169735,0.01522276544744327,-0.013272107544543813,0.011076762703432833,-0.009799094325204427,-0.015316033341695826,-0.008117306931293025,-0.004872658269838445,-0.008208494962798405,0.006492581125552421,0.0007019468875422054,0.014437967869334182,-0.0006790580956500437,0.014024504505540677,0.012072791557082128,-0.0027566586454097278,0.003027924563984232,0.00851829985469275,-0.010998271357678138,0.015561921222904746,4.737748585176457e-05,0.00888251628932554,0.0156069745577511,0.002846390171112767,0.0008703762275744832,0.0037931125863710107,-0.00010243463701738322,0.005247602881686846,0.007800809805737205,0.0051444597003308746,-0.014297087905862003,0.00445745707850589,0.014242613223503954,-0.014280536835261844,-0.0027721271658324295,0.014891501326400887,0.002852497295022669,0.004462295542718347,0.005290701600937249,0.010616155490743372,0.00873134252448231,-0.015129285199109105,-0.014319362046702252,-0.008876837015994933,-0.014376401379467819,0.011763616664638557,-0.014547953929251033,0.01427484506092638,0.005260375346402481,0.012291220044734295,-0.012909977509292896,0.011941341873759215,0.010593142071065051,-0.005935171193676742,-0.013170695585607043,0.0008966496480115312,0.015308470021596373,-0.007967074185462974,0.0035086590909650045,-0.013340798733063298,-0.010430847828865702,0.005176702357533517,-0.013733118475152194,0.0037853703391812856,0.001270230411336893,0.008649269293764038,-0.005802988475207955,0.011349295184399763,-0.014887797823473228,-0.0009590091939821498,-0.0067120503026207555,0.001768351437751517,-0.004835695971511456,-0.010157275483197826,0.006883224102139981,0.004716575039603779,-0.006609990258304509,-0.005241613169847647,-0.004390808565729794,0.013008830092983436,0.005848299388842507,-0.01250799448597783,0.009460322082745474,-0.0022380406675691572,-0.01457598086708938,0.0017501519115415743,0.010107363150626027,-0.007450772807937947,-0.0019423887808094438,0.001113984502506184,0.005157882847214101,0.00846529864557194,-0.012889440101950709,-0.014779490245875986,-0.009335336244413208,0.007140092241168565,-0.004135523143494121,-0.01261382674135711,0.00037315859080386607,-0.010624308214020349,0.013257961022812532,-0.005009020662378266,-0.014290292066434722,0.007221630373156578,0.004161839901350838,0.008958326967222215,0.012359305779049198,-0.008409296856559612,0.0029246597078333054,0.0037162255123591413,0.0024981324644092542,0.0011563900900083933,0.013066965390411658,-0.0100696910989925,0.01227771440606194,-0.00010963505794626613,0.006543471205165154,-0.014542592130716282,-0.0035335476845625192,-0.01406003505641697,-0.011235685270437303,0.008816296229104546,-0.006935036076365794,0.0032836446979595778,0.015021141710852372,0.012284350377003032,-0.003572986177628898,-0.0010669655246083529,0.008255099788032797
