-0.6076512402721391,-0.001110074737435813,0.01491221202710272,-0.007194038297898022,0.0012348018220828608,-0.007508123337304745,-0.014699194668398842,-0.015145678921145107,0.010255544393552737,-0.005065506773964765,0.006371752790792811,-0.013217369076654311,0.003999634965822025,0.000732946504895339,-0.006942154209134951,0.00867545997623502,0.004903729215622481,-0.003898029205555681,-0.014328954102031426,0.0018303268123207872,0.009887308208727949,-0.010198007171922131,-0.009270170284916689,0.009968145158265641,0.01546032196449261,0.009904729258546026,0.004813330114632489,0.007882425838930278,-0.005712196371708202,3.9989588941823084e-05,-0.012642303614372321,-0.0049304368204059965,-0.0028683921817649373,0.013520719724150223,-0.003019240962740817,0.012982038121881034,-0.009488428753489805,-0.013199878038361656,0.003924180796728252,0.007027044611330857,0.01118391784225961,-0.008223324092560907,4.612353040312975e-05,-0.0026409996316715707,-0.014114771410883093,-0.00179635438561861,-0.014347579349989054,-0.002342202629421211,0.006938604005544569,-0.0021055368296277674,0.0125786840492095,-0.012366929097036242,0.007618278314863669,0.0020017173207243846,0.0026891629304296658,0.004049660932078744,-0.006495965578005192,0.0023543251768864994,-0.0006286925062180398,-0.004701226450520263,0.01544446286686129,-0.007052479566509718,-0.009930203606786377,-0.0032703856257969496,-0.00646284125408611,-0.006105722571959231,0.0029134531834546507,-0.00375193765459593,8.757936982235412e-05,0.007219660702321346,0.010951172318548252,-0.01284889039504199,-0.0024575479170285755,0.0005049959806538613,0.0125249462180212,0.008745369903576408,0.0024171009328784986,0.015086073591813676,0.003191149496066307,0.0032984676104445,-0.008767651180833239,-0.009530680832613828,-0.008964734104006677,0.009645524862460331,-0.00509682260127399,-0.012576478163483885,-0.007026596487187505,-0.012920807338368322,0.005708238808226823,-0.00868279740748085,0.01308470260895377,0.004551552986282469,0.005972833892000803,-0.012705629549803695,0.0022620583787345133,-0.011824484069471234,-0.007002283445726277,0.014712513893048638,-0.01459210404067985,0.015618301738470675,0.004843888801565721,-0.008824207757146214,0.004894028683122845,-0.013230884756827307,0.007403269697267959,-0.010240170971815763,0.0032222022630127196,-0.006366539428576137,-0.000343517222655413,0.015226833243424338,0.001834289826030136,0.0014707419856562175,-0.004389045633080537,0.0037039928030928627,-0.001634408636828448,-0.0052598730934948,0.0065626928169993624,0.00985881390613393,0.014670826819913826,0.003418597612943667,0.010253257586393661,-0.0048221371513882325,-0.014111794322817516,0.001980050300020939,0.005518238866591418,0.007552100413935978,0.010805172921907746,-0.00920374975381471,0.00859092899397806,0.010286434804938571,0.0004549499481330682,0.015608649159648363,-0.014726520924218656,-0.008499060397725324,-0.00020417888832057265,-0.005563338500058763,0.005561973924900321,0.013072759100770319,0.015458169337741984,0.002063860285656624,0.01236850353970102,-0.004801263437978098,-0.006602192986278219,0.010389518140281159,0.013379171621665027,0.012089246106490495,-0.007476399315471803,-0.01362243397746947,0.0016667665301688776,-0.011984407147137156,-0.0025693276085399577,-0.0037611006709710633,0.013325023826435134,0.011252698937995659,0.006819243808428473,-0.0016896889913676806,0.015228678201313284,-0.005738017139411317,-0.013555636108228387,-0.01247223659567031,-0.01100834587860812,0.0029803715081854754,0.01064932216746001,-0.013716027219030955,-0.0107774008913286,-0.0032748464303568453,-0.006718902222865145,-0.013380848076808869,-0.010802814182880895,0.012599530882955429,0.014118131355040038,-0.011661471609722859,0.003739169669682553,-0.0033187001073467226,0.004484752602419002,0.0009137108818886817,-0.0027682840506306275,-0.015261081458538186,-0.012579273473081201,-0.002678563548579767,0.002714870413793539,0.003162041031845718,-0.008835958069741603,-0.007122544861380822,-0.00048673738065730873,0.0001295006426478562,-0.004691842300748275,-0.014860850507107247,0.007791944915060502,0.0024840562470640204,0.01321785962865334,-0.006941462363868604,-0.002255501162507074,-0.013023322195567566,0.007586078104752012,-0.010695220682913068,-0.009092311692936533,-0.005755571253091226,0.006076257364705365,-0.009262276877717301,-0.009742908974393071,-0.007545289886582155,-0.013272785232605167,0.01345449563399178,-0.013637533003130087,0.008198444901887314,0.007052394212513236,0.007790504079306631,-0.013729548371795356,0.011841898013526034,0.014549389336508813,-0.00539700773394923,0.00011197981944345917,0.00891571635379109,-0.0060538375979838355,-0.006611354956909277,-0.014548726073640172,-0.007368507799172003,0.015200341450506284,0.01264486650994845,0.01002857917376554,0.0010909633175083637,0.0025624648214916702,-0.007977060849818286,0.006700357659918894,0.004868883088569042,0.014360951607006602,-0.003104096083820198,-0.01242393748571656,-0.003916972204895314,0.0027664857484254214,-0.005344404280654646,0.015073881168753734,-0.005601418801716829,-0.0005936081498071517,-0.0068330127090915176,-0.006873090423154874,-0.014889996392815855,0.0007444377521005525,-0.006208868760813037,0.013631380019715686,0.0024662438986461227,0.012955132222485528,0.014026227285165713,0.008303893227390967,-0.007270612226843557,0.013460036034489451,0.005833544723145172,0.004608783193210102,0.0018276443224217072,-0.00015269734300712295,0.013891298973282003,-0.011123744460130664,0.0014967258653358247,-0.010477421152376317,-0.008529491170007786,0.0127812164801606,-0.0031521752768971997,0.009214517988037258,0.01455853248155902,0.0024716918892094333,0.009200198704834382,-0.009636620007219862,-0.006447575443021086,0.014534153796295014,-0.004109710199432896,0.005167740482399548,0.011055859886040086,-0.0031524062887662366,-0.005255642358072979,-0.010230777910093847,-0.0038310254378036007,-0.0029295598839786316,-0.012845178694196806,-0.012528036714246474,0.012859149033652043,-0.006304425106126506,0.006439375406458336,0.0021408632919486074,-0.005696019944160059,-0.010171834433182102,0.012504425743040476,0.005072102790926104,-0.002662247750838665,-0.010257331896396452,0.002763274870874185,0.005958109106357301,-0.01111661275635777,0.0005156153232618935,-0.010957655904113815,0.014853654702668657,0.012103376698499431,0.0035918856439138593,0.010859346737500358,-0.0032037101514266267,0.012297903509977604,0.003713871220572613,0.006188874262336701,0.014601588770934391,-0.00804071722491953,0.005330890106652792,0.0028615128837174743,0.0003349994705293957,-0.0006408592431018031,0.005590037258741715,0.013445960518060077,0.008370559563882607,-0.002201608022168882,-0.007791805600848894,-0.013740147387234464,-0.010579109700570025,0.006317651635586102,-0.003628166846917181,-0.002016028043965206,0.013117118204034165,-0.000537382516745729,-0.009307526986724352,-0.011540587858953538,0.006004047938409231,-0.007368503300063087,0.010952616303669678,0.014156234990512075,0.0047531543281688765,-0.009452863973563642,-0.01331384634539011,-0.011319615580974478,-0.005405920162875798,0.009776979153616114,-0.004321544374357146,0.003249913814164406,-0.008446773941682115,-0.014985074349268615,-0.009568321960081679,-0.012551232599963838,-0.0012046384066899292,-0.0066208515259033145,0.008306461911174248,-0.002048599637799277,0.014223047158377779,-0.006441774286071355,0.011294091654241011,-0.015470352278344441,-0.014996636144869329,0.0051734734253388,0.009584651869952283,0.0006104065129764816,-0.010117199812891421,-0.0017329679459646384,0.011059861988035293,-0.010635797582473072,0.004995131216459097,0.01544004256755856,-0.008024090690961456,-0.015555853424108777,0.007179290060724045,-0.014487435479252523,0.003817398615951279,0.008075455584594247,0.011033331867052534,-0.0034385526855614003,0.01113291719360033,-0.004349300186440409,0.01483081876038755,-0.003418385336300102,0.010912368651991577,0.0013037783863714784,-0.0012638041905678257,0.006833319658967801,0.0041593933775029325,-0.006686276925125495,-0.006698014494791179,0.0016941767432784235,-0.009572520293303962,0.0072519251160427615,-0.005311947477632702,-0.004569880141746727,0.010102127010490358,-0.008285928353667791,-0.010115270045449296,-0.00852540611833933,-0.011189079760114639,0.0072214869074133,0.007786614179066197,0.008361579533781097,-0.009895190769425254,0.000272362090847654,0.015536061079569122,0.013586754224902527,0.000402648892082514,-0.013790644147559292,-0.008801210824048031,0.004100616021736697,-0.011836856710317836,-0.006483076686703008,0.014303792281372931,0.006557872104590273,-0.012794993099324761,0.013499083994280972,0.003499776619729493,0.012333395868249091,0.01215435950759889,0.015331955892791193,0.00976555954239007,-0.011190206974758598,-0.014065112442372723,-0.0002875550426636453,0.012077951934156853,-0.007862316434206859,-0.003726879583770642,0.01454870053578803,-0.005107809254266543,-0.011274292868067116,-0.009656443787070819,0.010461009108877414,0.015521080014431296,0.013617516752968996,-0.0155573549225713,-0.0028429568304040864,0.006247817744369232,0.0020033886240194178,-0.0033801859477112124,0.010547957608705427,0.0010525797504867401,-0.006581154472126233,-0.007694263425023204,-0.006119888996837467,-0.014838766276837122,-0.013533688034366394,0.014271868485512946,0.009767312465988522,-0.008977124092965867,0.010955863883177899,0.012565755248916084,-0.009959614380176503,0.012740956382448782,0.007280271867755057,-0.01245450912952318,0.006500478794513306,-0.014897976187918601,-0.004723562162493193,-0.0029296120623948964,0.0046362039592735965,-0.0052358271763612504,-0.005483412636240827,0.010444539922102758,-0.014357022751953323,0.001021641782320129,0.01486141564370137,0.013726850639007245,-0.00201232711021097,-0.013213265656173541,-0.004800008722989128,0.0008479283566326483,-0.009764144719143067,0.013101000784508751,-0.012481080511010559,0.0040295983788666105,0.0015596990514204594,0.005365159243260347,0.005171218393878255,0.011385251516285652,0.006744603845930126,0.015230074228881046,0.0011055764164061878,-0.007453775479476406,-0.00802453931189756,-0.014412460982254387,-0.0040262036740549255,0.006094946124898758,-0.004547210289161649,-0.011210861067171118,-0.006415341002822143,-0.004136307278158412,-0.01308391804777368,-0.0006271363817401399,0.01417579542724223,-0.013149990161790227,-0.01080359592493842,-0.007855349935786418,-0.01241526080119881,-0.012432585630683762,-0.011411479351527015,-0.008562645952844342,0.0001921673132579127,0.009110618373709106,-0.0024364646241264443,-0.013522063198454188,0.011496049232352819,0.008725405726258875,-0.00448614455509944,-0.0010870762773217656,-0.006712927155627001,0.006443728876743118,0.013394085245003195,0.001612291953632848,-0.002306501486659021,-0.00013499337741876977,-0.0023024755426085536,-0.009412545869092098,-0.006766749478098362,-0.0027202872938572285,-0.006318775257337601,-0.012126247985203953,0.012067692325738982,0.015435724882960664,0.007720296063640077,-0.01473824081489148,0.013413631636587216,-0.01085562296645879,-0.007263602814081872,-0.005701487463674118,-0.011221438587306329,-0.012556791567580956,-0.01516850855900206,-0.0030352506792702023,0.012702001889720128,-0.005595395312343671,0.014626761207708307,-0.01544322514857354,0.00875757855298238,-0.002412733028234547,0.0058835072619957095,-0.00330774551640093,0.015573533007535372,-0.013665876026660376,0.01234043135456036,0.008526908337677646,0.012698865827831914,0.0023032045286703884,-0.005895653548489914,0.010202583913508225,0.0070474224449119695,-0.014221508957766561,0.004951555849126283,-0.010874306062566886,-0.0029525472587484496,-0.006904322850651588,-0.013942761405682513,-0.0053315729337609745,0.006950167194733868,-0.000766274541405116,0.013959775381869613,-0.00033543942383254186,0.011760229756380986,0.0020927679461343364,0.008696045407097345,0.007855175115216887,0.008163679039855085,0.004943003776851758,-0.012742874744894571,0.00723666694822158,0.002170309697771263,0.005329634778665875,0.003973331263015276,0.014566984364262296,0.008091384151017861,-0.006590586593273641,0.013657996139127455,-0.00802364802886964,0.0013144644235682824,0.012847827492655815,-0.005561631471762491,-0.008731305371174024,-0.0017536995573119926,0.00367158083861217,-0.011370372662191541,-0.003495538163963769,0.0005759402332138792,-0.005442860276379715,-0.01009381722523493,0.0055771615920857595,-0.005836229807277014,-0.0014556390544545258,0.012799462807758413,-0.00633662859952186,0.0024873084227126294,0.014777109767932454,-0.008362433599444725,-0.013790774079335828,0.007768489056666279,-0.008572583042916866,0.010460131481210798,-0.001049930283676146,0.011341232419006697,0.008007927790040132,-0.014896546042647545,-0.015068711113977198,-0.012215847457180008,0.003107706158310731,-0.01021734466720705,-0.010654776591257673,0.013683995823267316,-0.015138638851400463,0.008677323903905038,-0.013769671489469747,0.0037454073488990824,0.01357617154466895,0.0033094403012167706,-0.011906161814624838,-0.0067569227425358334,-0.006182889429507243,0.005278490322985524,-0.006117998121220516,0.0059451118869867925,0.009647976230129609,-0.005633501729349361,-0.014200333296481345,0.012440761031073982,0.002044793506301334,0.012639892150348147,-0.009530231408058032,0.01323607976710824,-0.015227126596909293,0.012694216763944,0.010909458769433153,-0.006749963500289034,0.006677940192894624,-0.010515611760602978,-0.008122914299450432,0.001747071689400484,0.015152937612543296,-0.015299495248905597,0.00732154531758402,0.007508088069444904,-0.003632292709398556,-0.003433134649335482,0.007470779408460786,0.014172772799665542,-0.00824159670553527,-0.0053794091810744245,-0.0061619809993912755,0.003621519856948953,0.00047241041667643244,0.007167573702338472,-0.0013360836745174125,0.007014861072647694,0.0022345787939880013,0.002156887356643912,-0.003044854059345188,0.010065906247476983,0.0022890880334238382,0.009284293052385081,-0.015031158060824688,0.0053088324131796635,0.013911383458401733,0.007839827361145277,-0.005937841666600999,-0.01399095770770925,-0.0029553205324160704,0.004297341454567297,-0.008968355755828026,0.008421401574951345,0.015273898269817503,-0.014892795598038838,0.0011690824223769374,0.012821753884545175,0.007676257044202262,0.014177543941005212,-0.006685901939031149,0.007377983599538385,-0.008254633003635572,-0.006854442542266546,-0.0052642787461882196,0.013674821017799835,-0.01491231941446371,-0.003104395820023656,0.007760318494187828,0.010525991710162011,0.008271173637620748,0.011341303865076879,0.004062660770685202,0.006237561742135321,0.004638822666783563,0.006388202373057601,-0.011163288337098856,-0.0006614669222132011,0.00523961048967482,0.005287468202938499,0.0025201855906376407,0.0038010308981764884,0.011239484426865641,0.010867923072321314,0.009038844844893597,0.004467229606946933,-0.012414591470972146,0.0021347794836908372,0.015112836774440998,-0.0051951774210617675,0.004066208866331744,-0.010466519976615265,-0.0012341563684023608,-0.014067463243315648,0.0018755595615223969,0.014233396657603911,0.007798262622231482,-0.008559252039915765,-0.010012350188562037,-0.0016998427050850008,-4.9585439693002054e-05,0.011725371921430701,-0.00762205618512481,-0.0044579210605916915,0.0019753299799592228,0.011216853324371712,-0.0060040942621869126,0.015532716331918384,0.006113034427985241,-0.009897276135046013,0.013335030308626459,-0.00627491640716097,0.00028673253910505014,0.013724620334852278,0.0006128730800652529,0.005211108656173732,-0.009834015097282451,-0.0056403302880573825,-0.009655896517845621,0.00969070591403718,-0.0022262644863054633,0.0095633257173501,0.006361351111732198,0.012072156468861176,-0.007072197466890282,0.014120508772702052,0.013378374688085198,0.008837681211286808,0.006551393493631041,-0.002728188907599991,0.011037726010081253,-0.010037831739263613,0.004161648686905831,0.0008224195963038548,-0.00211572674780508,-3.464200001625922e-05,-0.013988603874676053,0.008449682579815935,0.004317072775516146,0.01371049192638674,-0.012915861710126434,-0.011714043860267441,-0.0018188611518070788,0.014464673610390888,-0.014822252683044768,-0.014825391882955029,-0.010971460361315136,0.0033773403864739635,0.0136971376127214,0.008616049404436641,-0.0020019662820624055,-0.014069494416861991,-0.01297216219213242,-0.010672669674565021,-0.0053137699139863305,0.006024118734177592,0.0008764386954742721,-0.013837908200573294,-0.008081200674734664,0.0013714565048497766,-0.014606307970326807,-0.01521881468782826,-0.0015463949141949276,0.0032865020231256856,0.002287729733926158,0.014609352816807218,-0.011203435958465707,0.0014715532544891524,-0.00397516143246137,0.007727970523945214,0.00712211300001326,0.007248934493812639,0.010633729475329767,-0.013376372892308516,0.01157261918595483,-0.002555648521305763,0.0070225661025106745,0.0017859205311651048,0.0022388820444486264,-0.01131618148051287,-0.013726573869334412,-0.005446378288383069,-0.008750446229985265,0.001681492040219331,0.012638992792469328,-0.010658150099343351,-0.010646898629507132
-0.12363916427976719,-0.0031334947639577275,-0.011292989046233996,-0.004398471564271207,-0.010949755584752138,-0.014638810944981786,0.007739367395918604,-0.015360709320350004,-0.0028406851353846886,0.012893374013669776,-0.01196670494431189,-0.011816319838034321,-0.005082237045257409,-0.005917887243214719,-0.006332587296324604,0.006429384263951288,0.0022306698155254608,-0.007435987340137781,0.013848546979875902,0.0108443929579192,-0.0010767639717324147,0.008808022657314254,-6.151525904244878e-05,-0.005234282511507503,-0.0014891755794691763,-0.015510499777274783,0.0096208811560047,0.003042851333693128,-0.00549630647254867,0.014342245137587861,-0.004269311973476551,0.012596968284390449,-0.005423978854659398,-0.012546609839841665,-0.0018247760955702984,0.010588676810563184,-0.005371303174237414,-0.00342953563541451,0.01417048487441569,-0.009546859104929951,0.006656497417522434,0.00874342629267142,-0.009229856088968001,-0.007670086895527374,0.004140797146113668,0.007521707714641793,-0.01018731477494627,-0.011801882622373694,0.012966536966171376,-0.010731594395357348,-0.00996988874717494,0.00940775804396814,-0.007643589669899219,0.013214561470477185,-0.008323464531663136,0.005648839627112236,-0.0015604816963589174,-0.009159270139757519,0.0017581585090499265,-0.004792555904765818,0.0017956622007869773,-0.008182729662690055,0.005181968214065139,-0.011384351352208655,-0.0024238580549742032,-0.011856848338811656,-6.014499903829809e-05,0.014885756112304142,0.007502542864844017,0.00908320086795416,-5.924582895662847e-05,0.00884665903068305,-0.0014604417721025865,-0.013599871873777515,-0.000572905217779144,0.01262077752736689,-0.01519483902195886,-0.005577745512676369,0.01364672438574582,-0.001266165934705188,0.011353721557422907,-0.013181388826274822,0.005339360375795684,0.011869092739683687,-0.0034331808986796906,-0.012970853531538849,-0.004998832639229917,-0.0006985514071665491,0.011494986181241833,-0.013406231555237434,-0.007740613844979462,0.007573011194569355,0.00783766837333973,-0.014839854610265619,0.0033590276255176313,-0.0027827949899309826,0.013877025977077483,0.012843910973656985,0.01070474323149962,0.014270511409047573,0.011689403240373666,0.003521734841372262,0.00771648771068684,0.008690169372802304,-0.014200132815640528,0.01379743031537805,-0.00032525908692077055,-0.004738908717000789,0.0046010676939199704,-0.0018005233011751491,-0.014217090794572843,-0.011309775736425047,0.008473842786314103,-0.014856767955770882,-0.012030070284100029,0.004487178829591664,0.012950764599629194,-0.012182152103734321,-0.004336177197506053,-0.006236406980110961,0.011777800146749515,-0.012792813784629658,0.011975701505299158,-0.014097415574902863,0.0017189175861055603,-0.002324598473244708,-0.012369199946337233,-0.0015836162553096076,-0.0033676746905616,0.008096809715762425,-0.0030062704799332643,0.00023796331556658388,0.010325449855817997,0.014257048653899014,-0.006955817878164315,-0.00964145184083155,-0.008167994067542341,0.008591099816149413,-0.0010441646985657055,0.014244915774968638,0.01178028653926223,0.01546143688419347,-0.012632622237714781,-0.006160465731815435,0.007779887133831154,-0.013922962670654297,-0.008016778006144996,-0.006167467841725623,0.008393804639264583,-0.006835311725979632,-0.008629239560372821,-0.002562124743998459,0.0034017053790556494,0.012217731267159226,-0.006963388885703903,0.0009222549409173786,0.0021280222542807317,-0.00195850724012098,-0.012293057689458237,-0.011298739903909975,-0.01520663601929325,0.005617964226571406,0.003924858730600602,0.006279382113837189,-0.01044602200236944,0.0011584669387906324,0.006348228652419477,0.008330036749706216,-0.005041938516419108,-0.0025865833015297976,-0.002050869649288526,-0.005149079105985071,0.007273917269061066,0.0004379678630252571,-0.008651030679403517,0.0026416066852157287,0.007157261050785562,0.007134917110596726,-0.007857710841670132,-0.01179494786314571,0.0015439621212757374,-0.013171998322312745,-0.010983307539938824,-0.011507826575597211,0.013386685758091946,-0.014206880225125453,-0.006002141524723819,-0.0011818571303681233,-0.00414628293576062,0.013168310505324646,-0.0001938828508286739,-0.012921315259084359,0.005106505907520017,-0.014906072270031882,0.013220407702271512,-0.008171295133478643,-0.01395210998397423,-0.00852017162828764,0.009130603679940258,0.006871132027316358,0.012663109137181642,0.013987226245839694,0.0145488350837981,-0.002346382492152109,0.015493388830088377,-0.01517546901648568,0.0029151312423425883,-0.010223857030362767,0.008462709064729937,0.0035743642784871886,0.005838635575268706,-0.010807746671418128,0.00830134283807229,-9.183905251032298e-05,0.009436859428330656,0.006062508989264934,0.01404202826203897,0.008714301172897563,-0.014835140884654907,-0.013884673170839384,0.00805838605457479,0.0034001118420685927,-0.0049466371800723635,0.009461459800642662,0.008695924248639804,-0.010705003631522467,-0.0022388457389838634,0.002567600368550171,0.015252989348245276,0.0034299668230506172,0.0008297847457661338,-0.014494255008463611,0.011753017298355041,0.0022069628827972583,0.01041029418933576,-0.0026359970163888657,-0.004723211589503228,0.003140994577527057,0.00521481566376536,0.01496402353821857,-0.008268478916667049,0.01018347912522735,0.0071481765803785135,-0.012352452251091897,0.012293832863358794,0.005153896709889278,-0.011520476529347316,-0.008235531939010683,0.0119883568837637,0.00140942469110358,0.002549245383028524,0.004325751368272488,0.008216330478056207,0.0013933799784903896,0.009051391087953976,0.015540850717302287,0.008052486565315762,0.0031626906791649345,0.00035521703826359565,-0.011514168162608208,0.003142895535288285,-0.005766987454281657,0.00988920202231395,-0.01215790590475932,0.003114295835434212,0.009914513630705227,-0.001354050849053895,-0.005300240614470026,-0.0009492189074949824,-0.0028948673693150566,0.0036560682570322568,0.005348541344864005,-0.006561406362997268,0.006246981990931033,0.0074313408126361665,0.010923757593100714,-0.009745574580405786,-0.01325726097424345,-0.012294875998857206,-0.0008177201662900105,-0.0010115468764615512,-0.014193090437575214,0.01394464504022305,-0.01370471602723222,0.0058774959686635694,0.0012206369907387619,-0.01222039340247717,-0.01455993192422908,-0.008681549399357684,-0.0019615250067073937,0.004566442196527043,0.0010313589367076615,-0.01335418334544971,-0.01456981977125953,-0.015378649124343531,-0.009025602976302071,0.00408623913002196,0.0020291884343365553,0.005464395645693619,0.009467111865927419,-0.005290718058148303,0.014107260245132616,0.0021968432898183403,0.00863736847739416,0.006562908070394252,0.011492134523594884,-0.0018055984819320588,0.006099983132317258,0.011743062832157806,-0.008368461516578527,0.014310083021483039,0.014963874007296709,-0.011658882923573713,0.006393062850949863,0.005850305490740728,0.004728075165192224,-0.007265812547442507,0.011755222510770035,0.011073458200270392,-0.015379152787276588,0.007572971577952948,0.012031299729621723,-0.007568800649825539,0.014247458220696603,-0.002801106546486711,0.014511807630826355,0.0014250054119380713,-0.011322608370586535,0.012190853491714814,-0.009398504577248345,-0.0097610298276246,-0.015106104550374207,-0.010160913151109062,0.0032715368940601335,0.013670446755767209,0.013192274285968964,0.0018663180834168902,0.0006082915458395649,0.003629676803045005,-0.011568030132720421,-0.004145425657837436,0.0019481205516487345,0.005993656735789391,-0.0014714409388200279,0.008769804335711019,0.0042719578695221555,0.002948024957076249,-0.004775085734627003,0.012302533970089864,0.0014789102485144824,0.010661965822256802,-0.00043445750542915715,0.015106685244991347,0.0012196712148626223,-0.0018140493225312323,-0.0047147226046513535,0.01285020868245465,0.007421558814127658,0.005316937431506749,-0.006356637614788341,-0.0074748633234486125,-0.007914622072403121,-0.014587630201349042,-0.013175916912969234,0.009016199853567879,-0.009258756424013859,-0.012407220098909861,0.014710092810525311,-0.015299555595330864,-0.009585051943356638,0.009694969640388759,0.0002517845319547065,0.0033462170415961222,-0.013568811381604816,-0.008606300119009378,-0.009512497004998649,-0.011034402730368473,-0.012887747973832705,0.0016270316413955982,-0.003259099758490173,-0.010089320445165171,0.01364558908160653,-0.005047333223951621,-0.0023644279165976768,0.014974787113672618,-0.015495452877611128,0.0012958886752662394,-0.0008954941715572499,0.00703018123523997,-0.01250770154756796,-0.002959796055537492,-8.24334159173351e-05,-0.004860105382634504,-0.012100751517405993,0.013318000363030942,0.013450617493153603,0.008194819586437115,0.0013592120849819037,-0.006456575167815337,0.0058451603137724024,0.00025011636959819736,0.008823926386586897,0.014406582832874895,-0.001045484650694474,-0.009778744769034705,-0.012986387120143652,-0.003634474574952846,-0.015555438180586217,0.0038358751863529416,0.0047423996523279525,-0.013431700976253388,-0.004816187676119808,0.009638363078844041,-0.010529070854022068,-0.008669842966979311,0.013452851871983416,-0.00252395773705541,-0.010310555680658785,-0.005041467417227323,-0.003899001251739434,-0.011824031308307989,0.001994601001502356,0.00051543153452572,0.001721240807076196,-0.008478310619067968,-0.011206676856316142,-0.0005309794196148506,0.0009753612406488453,-0.005810134559020659,-0.008666986779743546,0.003692612266079402,0.0015829513770355284,0.01293700791872129,0.006816485310910021,0.0019004040368170536,0.004948488776845244,0.003806638733640314,0.002500167328821163,-0.007177684119321675,0.006670152551614902,0.00863601883268172,-0.008154846873565191,-0.008356300457035231,0.012480533944035834,0.008063958082172938,0.0033690696549070484,0.004920441311571707,0.014770710598448589,-0.010819882035084712,0.009713823590173455,7.049637284294724e-05,-0.0013639033926675073,0.00121253517148677,0.00011584562487167963,0.007805004826065858,-0.013043440940231448,0.013780217355607501,-0.014833607706191325,-0.014514472712107759,-0.014037746199187368,-0.0068869277563940075,-0.009237926937784236,-0.006533444524991351,0.001993452645094447,0.012436766995515913,-0.009447630454296077,0.00570884771953442,-0.0026749607516270836,0.011522923661394855,-0.003346861929441096,-0.0014746953310615647,0.01378379399461448,0.00446411898333234,-0.0014251960578035086,-0.01474751412794037,-0.01289931736873657,0.009534044947020367,-0.00946893196690756,-0.009272162430541499,-0.011253739356846735,0.01108328749545877,0.007824552628291622,-0.010629101054496925,-0.008326594784671296,0.00879993223942138,0.010256076527274678,-0.008597809158163877,0.007439004303749071,0.012681868448437085,-0.007671301759222774,0.004492112169266566,0.005154464042568251,-0.009336054374077623,-0.011475452844759284,0.006053891222093096,0.01255440592003755,-0.01349868957433006,-0.006876657845394639,0.010644478616759354,-0.013362332270954905,-0.01318549844046071,-0.006820446582602822,-0.01055690949556017,-0.006788615678729206,0.00629545693402217,-0.0015025711804328226,-0.011039501232066335,0.004919926986831142,0.010385253206862236,-0.00771798391554999,0.008789877145419006,-0.012024424344442617,0.007404138372219203,0.0026106193121862614,-0.002402636890239323,0.0007964987711185696,-0.001422840920732564,-0.006314215097609956,0.011135451904879341,0.009296420093222377,0.0025303708163358887,-0.002254266895233845,-0.013334334263368025,0.005295064421385451,0.006513580137004903,-0.006699127606690259,-0.012358291861064893,0.010931961270811369,0.0033069791356979566,0.0035299378872733467,0.0031231724668411417,0.005483028379832083,0.009879000148803559,-0.008002258000134876,0.0037167945990088,-0.006588020989758195,0.004518499055128372,-0.005583051117644843,0.010870490910164768,0.010069984150970523,-0.013803720137757007,0.00489104033293207,-0.012649797882503134,0.011267628945350487,-0.013031195658913633,0.0037299297320542595,-0.0009662031805641939,-0.012373214298867521,0.007340411175362111,-0.013855397006558837,-0.015148937050590588,0.009116769495517891,0.009175800798602966,0.01339171043706228,-0.010712425441755246,-0.008984048107281558,0.013923044398604922,0.01424137831252315,-0.002432154300720759,0.004360701271036015,-0.004959963583755021,0.011038270037143805,0.009778336636129665,0.010891471128951816,-0.014937407478544634,0.0013629629112521925,-0.004298725164462371,-0.015209738738423332,-0.00417974545159516,-0.00759554873555605,0.009548506408355242,-0.011203144091969154,0.0029156685696704087,-0.005646646061611523,0.009761524393678377,-0.008129076026788064,0.005935953224764893,0.008611588663612089,0.013322701162425428,0.005930587389079738,0.002896085981915421,0.0010471637216691895,0.0017541304843427192,-0.008754836828419467,-0.01538805991725532,0.002919749921472359,0.011752278331929003,0.012326191394450108,-0.013989680196620089,-0.011758373884890077,0.003601862077172408,0.013631959101458195,-0.01274970265959454,0.011971112490523078,-0.007770571609178753,0.008057587160235562,-0.002936599174341211,-0.0010241626033277765,0.00506460266942563,0.006925152630638529,0.00844373266662092,0.014757618694490274,0.005243430540272399,-0.002393271795502646,-0.011279697304012133,-0.01048739601928212,-0.014815255808538867,-0.007932564034281397,0.0012262395707059051,-0.007518423133660124,0.014792279564391681,0.0074159400578971925,0.0016968419604558083,0.001069789452600783,-0.010654746709622895,-0.015125670903523982,-0.013495479040305666,0.014213404493520279,0.0010693407485144885,0.012715209946331667,-0.01500233511619059,0.015624352501384064,0.001467239750123085,0.014735747599103451,0.008813866708411344,0.0042943499353081,0.012648293624095183,-0.0008495540920273866,-0.00289940789320897,0.014255989567775976,0.0040714741050406475,-0.0007049143279127836,0.0008963104810197862,0.013381030468633353,-0.008531962921211772,-0.0076888303376253485,0.007347503584852378,0.0074962028564094325,0.008356308856123375,-0.010079233515213674,-0.0010018388363333694,0.003761367982910151,0.01073563358737194,-0.014066778726788437,-0.002969821062170308,0.006425516065944232,-0.010424321140424374,-0.014315333077336536,-0.005024648740312266,0.014913584450554879,0.009789255638423056,0.010295392653542151,0.010147294601579732,-6.887919908468422e-05,-0.012742498202940444,-0.0008693122022856487,-0.002897310435070118,-0.013082884814720117,-0.007234880806876717,0.008326491639910137,0.008299079984443479,0.015472864395737262,0.0046419577005397394,-0.01409000592776279,-0.004353391121223746,-0.006584033759981279,-0.000756866087531226,-0.00849748998392787,0.0020888300143641313,-0.009964883393883631,-0.002444408796841775,0.014229523720829678,0.0070137628666201435,0.014013893855229376,-0.0006367795550048065,-0.014386140656850215,0.0033573741989444857,0.0007946535111763471,-0.009364954764789029,0.009037232630040968,0.008901700423407098,0.006606892309848305,-0.013680020100209717,-0.0073146552489047525,-0.010621093342933407,-0.01154479762306001,-0.00614643894009531,-0.012831257244018767,4.452408429608899e-05,-0.00954281692630572,-0.013200751682466557,-0.0027334434585493525,0.0014393078024654813,0.008042502513657951,-0.0005411439774913331,-0.008627976024928138,0.012751986165076105,-0.0035172160859493554,-0.002685606227053692,0.009116831717962879,0.0048249832741886385,0.002356912465010519,0.004535033730571323,-0.00010995966675974439,0.006380553297211322,0.009067164480386601,0.0018739443436592957,0.0074612618624340914,-0.008092224190869832,-0.014185485389954676,-0.01230989492568418,0.008040118885645119,-0.010977024621024904,0.006268549164209954,0.001984746272849798,-0.0013855507447430365,-0.00766733616305308,0.0007800882837822112,-0.008809694339902432,0.004366588793164563,-0.0017453656476354822,-0.0005924815183741099,-0.0016367126941192987,-0.002536230618015615,-0.014672079225663964,0.009171108241314552,-0.004239185119417517,-0.0016297861586888965,0.013267881427212826,0.007639815326455687,-0.001010882264526277,0.002227947410425854,-0.006641512457252724,-0.014970886631254787,-0.005489196651280039,0.008999044996872738,0.00020445173841654798,-0.000708009559502152,0.007991342603833211,-0.006060737796827188,-0.0027654574635565393,-0.010168155757612752,0.000793437103742127,0.011405412690706277,-0.0131560235878223,-0.015203347055986926,-0.014725634590816342,0.0018229112040469425,0.004616140907458956,0.0059865925636132175,0.014322707610740826,0.0035501168269697,0.015518083602877153,-0.01521359033838756,-0.010513137186702874,-0.0009023134183544501,0.001330660393476936,0.00742088658786294,0.007831533214209305,0.0059170823234044635,-0.00616563056418715,0.012961962283859551,0.010740067847848919,-0.01537988228312297,0.01404735117318449,0.008179746324970861,-0.015592818087099891,0.0014618090714223243,0.004577368963470389,-0.0007153540835306629,0.00350802619909598,0.006579139729963497,-0.012089654235824632,-0.011755052634348482,-0.007806598316076194,0.01271096263793504,0.01023995001714886,-0.004946295300305388,-0.0027708171494752083,-0.005822625536608159,-0.009386045769374386,-0.007308787116643872,-0.0002758146942084226,0.006991097892772396,-0.014323591247404472
-0.12092849846426444,-0.00887511091683408,-0.014677559516032689,0.0007623123552578659,0.012013297297122232,-0.004435794252973271,0.0002497344936775864,-0.015304361061557664,0.012359340285961473,0.008543219023610316,0.002331519881019279,-0.010895774328370536,-0.004991128418530267,-0.009370435707187898,-0.004734236018572875,-0.003981859272165395,-0.002935490754950542,0.015507858384608199,-0.0014645099446368437,-0.0061372901866693745,0.0104982163579714,-0.004255595283659298,-0.011598900935577087,0.0072558552913974325,0.002353237081343721,0.005543776574282438,-0.001297665552597086,-0.012987368544827092,-0.004079864786373497,-0.010449393326486058,0.015406284738079486,-0.012729503713399329,-0.007849770758466199,0.0092099559566007,-0.002443490143254498,-0.0020824761539998994,-0.00331744171691754,-0.0016586509026197023,-0.0018079930833070842,0.012455990525970309,0.014432418733971556,-0.00461502961779181,0.007714911671776296,0.012113007868294879,0.006980499180611173,-0.015037518132803435,-0.014558082583351676,-0.008756307401286571,0.0030100583242466013,0.0007851583506185388,-0.008077494624063507,-0.006215150002535197,-0.012141700296696846,-0.001154834690807842,-0.012770986832626577,-0.0037735788864991064,0.0042763214360086906,0.015310291685955928,0.003449242196266449,-0.007241879505219713,0.0012429351293462634,-0.01332779724518341,0.010522842514695766,-0.01547598988177901,0.012800489608831733,-0.014883826487192216,-0.00696887079069481,0.015442703884962352,0.0024603093931978917,-0.009662924996197773,0.0005642015851774311,0.004705384956719513,-0.014321017408602303,-0.00041882235598833875,0.00024746856870347736,-0.0070045099354549695,-0.01200469783007298,-0.006914643003128714,-0.00990696261126019,0.007332978810199085,0.00821712868562072,-0.009618102522183345,-0.013313840920120258,0.0047693777446495556,-0.005896300339094475,0.00013905465727392236,-0.0036330055894808824,-0.01345321536898839,-0.01546961836228819,0.006816753724297478,-0.015033258569303636,-0.010724244421980975,-0.0008295975801616978,-0.010553689886639742,0.01036593716536758,0.0051041184475007495,-0.0023636256865346775,-0.012800025608176474,-0.007809979180754441,-0.009212240333604915,0.015419714364574733,0.002663016349960485,0.014127934114437921,-0.00810600494333492,0.005638045286013137,-0.008566468501438045,-0.00185579796323709,-0.007063917663986011,0.007984330287983482,-0.004627038644970299,-0.0081456787900651,0.014064757855383223,0.014580486115117742,0.013659625844671185,-0.0021334472697549407,-0.00857947812137097,0.007662233428128901,0.004096335323595018,-0.007792254270684876,0.011274997742285332,0.012319836112473087,0.005049332074167049,0.012777300315010807,0.0038897368292225495,-0.006406902909503891,0.012069471455342366,-0.005565152590764136,-0.015351743728863807,-0.010353208003344449,0.004579518131586514,0.013159859571648213,0.004034714614609871,-0.0119264888835382,-0.004032076965397874,0.014756493543680367,-0.009504635612201086,-0.007338885533708813,-0.0005657505998533582,0.008529849967782471,0.012710861332818152,0.007939382851288826,0.012630192643013273,0.0028014172894594014,-0.015010805362875877,-0.0015302518877418902,0.007575119031131401,0.00884290821394765,-0.008119821146302867,0.014209852254760343,0.008613480201501909,-0.006297789651267118,0.01234597633328128,-0.002732714715789286,0.006750508195616005,-0.006248418203698133,0.013793737891737965,0.00597084472574802,-0.010403804746089769,0.010971579884861494,-0.008596455792215445,0.005392910565481924,0.008622563346732212,-0.008183267270657473,0.011149349618695358,0.011196537831551374,0.0057566125222477185,-0.014744258115375018,-0.012981980048083725,-0.011608167885885656,-0.01075613311204272,0.0028306641699628182,-0.010287115312489062,-0.01179586016799904,-0.01241725307301059,-0.009369580323387222,-0.004512088225666402,0.0077361286274490225,-0.011241904253517773,-0.0011069174980884201,0.005382634876205852,0.0010920623295578719,0.008527680922440748,0.0024769159761339997,4.314796659865214e-05,0.012774375182430863,0.0062064883101379115,-0.0014074929992448084,-0.00358652132905385,0.009608424965407378,8.25604475033949e-06,-0.008964194832887724,-0.0055957699712144,0.005784550721450272,-0.01375134856568051,-0.01421692052983694,0.009702288567570373,0.010683641054293227,0.013376599510519342,-0.012206460413205035,0.006986308145141059,0.0006722215066560476,0.00934492791674504,0.002535168634873688,0.005768117341032342,0.0008784359065253194,0.008071439895245974,-0.010460438585567304,-0.00908502752323263,0.006567721958357121,-0.014783760457247946,0.007783893277206268,-0.01292570180701777,-0.011897252773554332,-0.014290345670820248,-0.001489282075816017,-0.0019953985551605102,-0.007574200410315446,-0.001950947037126419,0.00446066101919501,0.004477065288375643,-0.009422578712754084,-0.013580959256990557,0.012458731400140997,-0.006891904257463079,-0.00011061528135079476,-0.003761826336818319,-0.00014480468927049323,0.008483903948775032,0.010764161368058474,-0.0011999973762027818,-0.014553278357153542,0.012299870117078395,-0.007244280555072189,-0.004812423536751467,-0.014702012917847028,-0.005754884924415421,-0.010670614111116875,0.009914200190061213,0.007318765949595716,-0.005454354065275616,0.0009681154746717727,-0.006625569523084073,-0.002633797127147019,0.01036570870407239,0.006241074571574241,-0.006142450020934307,-0.0028767292462297646,0.013243580167362922,-0.0037742318829493025,0.006551100380615555,0.008090026349746315,0.0018819935722715342,0.015468743521594292,-0.004627030039378911,-0.004547722085248774,-0.00491808606079263,0.010851016421841126,0.003878094824817123,0.009276840377846943,0.005298507230825166,0.007259092020208174,-0.005259754545743833,-0.011079890972998635,-0.009648863136933587,-0.007594605973453805,0.004352215047053899,0.0007618776930339562,-0.007278258986055758,-0.011977451998082754,0.001538285234552007,-0.007984894806444638,-0.00034783261326133355,0.007825869977389044,0.0005808411265796886,0.010997365639823016,0.011819138392256906,0.01495047692250787,0.007930002978312367,-0.00429311622357029,-0.008010886115098842,-0.00883804029320931,0.013834470224381102,0.008113098317575063,-0.006547670515691349,-0.010620815053921099,-0.006410613014755069,-0.0005682916686262128,-0.010802832083925991,-0.0002318303456388901,-0.007323786887456131,0.00817363031374797,-0.010177564504026765,-0.007813084994083808,0.00494163340584499,0.012343485559981129,-0.012581532521497593,0.0037980155283020203,0.0024049639886522013,-0.013138639076167382,0.014290440949570061,0.002054389259593948,0.0052296983902695,0.013757482870474302,-0.004573866481442173,-0.0011965051813242597,-0.0053330966457804194,0.013256439080997072,-0.01113140630108796,0.010969827947835912,-0.011495373994457436,0.010589695126158344,0.0014203385318309059,0.0023203170940303583,0.014007495287809082,-0.009414999778145909,-0.0012951789820128056,-0.011024190134331344,0.007567337397384553,-0.0009421531596916199,0.004617572066434057,-5.7692680117484455e-05,-0.003813972247052492,-0.008642802216289946,-0.005456572615202755,0.008742481205992084,-7.53954138506453e-05,-0.008308425111907219,0.010376775872405257,-0.0019046402507348725,-0.002927610046630876,-0.012037767394719477,-0.007719793075523642,-0.013723537592061179,-0.014820268006546736,0.003671808997673706,-0.012100557333584568,0.012580685114663367,0.012973491066114052,-0.006355664855910825,0.0069293537728917914,-0.002104502253355314,0.006825492730887014,0.012592473743632206,0.003136948878212293,0.007488130398309633,-0.0018223721629918735,-0.0085361919199915,-0.008348042917907868,-0.00846356080939937,-0.004650146522281399,-0.0008095984563368159,-0.0017172157798950617,0.00382188677337801,-0.008264247268724118,0.009998209683589106,-0.012629241252743648,0.011748258937510499,-0.008680765637074579,-0.013945951005920889,-0.002251549107712698,-0.011202228112597343,0.008061752029151336,0.012804829385718981,0.006926979893976112,-0.01416583396144415,0.0027827412933438544,-0.006590907281793394,0.013562576372068355,0.0051605714306893645,-0.004371732042194646,0.00022228706811069785,0.009665208987053909,-0.006378056762334507,-0.0064429580737645036,-0.0052669471747699495,-0.00422971468256797,-0.010738983355931066,0.010609272285043575,-0.0009224894003581752,0.01213933092903332,-0.008490906483809946,0.0002235797311710152,0.00681403757909975,-0.005168409655855109,0.006293441482829707,0.00841988391207962,0.00830656362239756,-0.010454333069388212,0.014824849799480183,0.00833634432508563,0.013856635485262937,0.0017042281503004443,0.005258240479560257,-0.006369063413842076,-0.0029948293036401036,0.0067102739964178745,0.008205975291186229,0.0007732974287538838,0.009659358442853774,0.003470588829988079,-0.009745951528802213,0.004417337230468742,0.005373993066024149,-0.004348395109243099,0.003391159096394177,0.010556383124041889,-0.0040434950481054045,0.0091746906352407,0.00044560281912653653,0.001976286892826567,-0.009804876543874451,-0.013294999286448254,-0.01047294874129357,0.00534284639319134,0.0033288260428746643,0.01510269861444307,-0.0016660049855672266,0.008363120037998563,-0.002201413478486274,0.003583637273181204,0.008517074442901985,0.011104218155458784,0.0006713906146379248,-0.00294243364992371,-0.009396527628628613,-0.003644299028023957,0.0017635802213945527,-0.013590165979530494,-0.0014719596213402391,0.004392324018165414,0.010001577836535042,-0.01319440816048483,0.005033221532656057,0.0074715442671991735,0.014981552997931923,-0.01108038580424949,0.0036057504093504815,-0.005010853036228345,-0.013125764414265084,0.0018732802157954767,0.010702867644990396,-0.00034231553672678454,0.012657373906472565,-0.011387947233489617,-0.009106531784561982,0.013773247813899603,-0.0020949044825261387,0.01439855486220171,0.012302366968933241,-0.0020991241583630457,0.00015782689988210613,-0.004293949195010412,0.007083158082737013,-0.0007233644317675233,-0.012207578670903671,-0.014819908277197225,-0.003822573372960086,-0.0036201658113779412,-0.014214541994146202,0.0028202355926253662,-0.012891611193484824,0.014613262125655248,-0.004943286597977298,0.00818585177720198,-0.011501860400591426,0.0060484783264952695,-0.012892651013769088,0.008131570269421042,-0.0048673036367879,0.012556886506856373,-0.0104735209447543,0.013872631002756538,-0.005596014878730032,-0.011006044954750702,-0.009041919414814335,-0.008369291247147123,0.0115684128277002,0.0130842522732992,0.004095390800138661,0.0010675444792442833,-0.004111570544145745,-0.0030658650944343857,0.010819344584238267,0.0073934751899364356,0.013820208856156313,-0.004715384457781173,-0.006201043528955753,0.0025596370725056937,-0.008800482339297111,0.008938608497363625,0.008610221201170385,0.010734550535910277,0.011305335082426293,-0.005171945850177261,-0.008346164693354679,-0.007027989821975707,-0.014861784459312515,-0.012404144588667612,0.002974442859665641,0.009834383067818128,0.007103382624739125,0.010257967775692354,-0.007914208261910076,0.0106725728264399,-0.006442012478313077,-0.008330493246933055,-0.013193788900540057,-0.00273141863339749,0.005089941271859327,0.00289992507245444,0.0019505248155374333,0.006998818540523678,0.0049353253513317675,-0.010609580392635612,0.007310093576502082,-0.0030165809737940094,-0.015123296739590245,0.009379039406732587,-0.007910024537151263,-0.008097925211161174,-0.006408731115719292,0.014562558128628951,0.012123797346319458,-0.011881377208421643,0.01285136682702997,0.012589944137509836,0.011905810605730382,0.009939707187566904,-0.00567938696899723,0.012356614778276424,0.0014941656915953352,-0.0030452811301118904,-7.656255676124699e-05,-0.009613856805480058,-0.0038375433241581644,0.005240140710267814,0.00924418806867655,0.0036927297720670306,-0.009863859543251386,0.007572880576403016,-0.00869641629531696,0.01047175648428108,-0.004108090317366498,0.01094408009247527,0.00720059410117173,-0.0008142959969877481,-0.009705305198354825,-0.0035453919433263144,0.0038765926910324677,-0.009942198790305678,0.007246161070940096,-0.010366137193739652,0.0026993924845572243,-0.004867514338829687,-0.0041273021459825995,-0.008756313553061152,-0.012876158263773765,-0.00879358098258752,-0.007449538449129024,-0.007274387943090821,-0.01521093440695448,-0.0010421395293659132,-0.0023698380488693695,0.006134197438698977,0.004879854876140666,0.012385633358123612,0.0010131360124846834,-0.002777744322471121,-0.009391469505620389,0.011250190608731536,0.012593681912025347,0.013912411816901123,-0.012131619186151429,0.00746127779046507,-0.004399234834721448,-0.0090969376882718,-0.012879288192540986,0.009372292623627123,-0.0036723311084664832,0.00983988564740486,-0.005871546368979498,-0.01272200622647985,0.003617563876734362,-0.014107240256032398,0.015050229141661094,0.003726563844496031,-0.011982483080374993,-0.0015735292535980633,0.0033785121635382456,0.0035721819560248225,0.010370049574582766,-0.0004905666473865901,0.015416425345693385,0.00882047560274432,0.0005196746354624304,-0.007383082573165214,-0.00010394462822136481,0.00938135837590989,0.002736114442650889,0.010129284105153121,-0.0016451116369078204,-0.0013002753212450167,0.0024700174456075766,-0.007478812606763335,-0.0069808317697515505,-0.001987129855753049,-0.005353202583578503,-0.014454346017465643,0.0009271627755282874,-0.003913319243771963,-0.008132183585294335,-0.0024475682618989823,0.013886902214386036,-0.014016373821084206,-0.013519577652521871,-0.01447368601695656,0.0001358632673969587,0.001873588287679473,0.00721803996630958,-0.00035334157278506945,0.010648738241282745,0.013815795269853002,-0.011110449160631818,-0.0056983651280646565,0.000562277662665257,-0.01299693746618759,-0.0031331121158060635,0.011872422015216579,-0.011072880402902857,-0.0031795988977591644,-0.008074790467396759,-0.009250215928445368,0.01386143107671426,-0.0018414933854962144,0.004607643946234279,0.006941300796426739,-0.0031753671470896886,0.0021376416368377076,-0.006237830408498024,-0.015592381633924051,-0.012751845726731836,0.0010997163742595753,0.011113375350683602,0.008866187806143667,0.009711634090635413,-0.009538244934996162,-0.011989256902650233,-0.013227242420280842,0.014568877065195579,-0.011252744731816026,0.009504117407443457,-0.014272104023341437,-0.015503001896769494,-0.002557949373381614,-0.0074097822973723144,-0.007413558427530085,0.005420169774013637,-0.00040975622681818993,-0.002013985601383779,0.006531707046117382,-0.003593471550332069,-0.006477990591864088,0.002906361409290512,0.008941809629691688,0.006735873499332773,-0.00828670357921825,-0.006371610257744389,-0.013698520894368321,-0.013796649902404343,-0.015065550455320834,0.014900905105115044,-0.003702337432740732,0.008645097398931156,0.006539394977737537,-0.010573630864556007,-0.008200127193050657,0.001673539889910692,-0.0003250483552057551,0.009385032778361599,-0.0016560369674880372,0.015535332307567366,0.009246488059923577,-0.003908915215625357,-0.007508681792523151,-0.013440982967602263,-0.007919901353155422,-0.01185025740754855,-0.01325414857630288,0.005387858016333954,-0.011613411200393987,-0.009341278614569506,0.00962541362262564,0.0017620468728552726,0.011104197072251631,0.009395612489509667,-0.001093202855839387,0.005973037518778979,-0.00020616040854870912,-0.013849872169737813,0.007359493329691751,-0.0009458111493577427,0.013834933941418048,-0.012924856618344353,0.01456491242658265,-0.014115433106152441,-0.012334990997920826,-0.007313419722698951,-0.01375140359559266,0.004926130882622899,-0.004178790223839015,0.008889091294741733,-0.0135287507290872,-0.01424283098427585,-0.00847080417659922,0.014946522058988273,-0.007585676785092255,-0.004582928691066728,0.006426383914591913,-0.011217959291481571,-0.003517231157964495,0.015113277337145414,-0.003192408106761479,-0.000528038664837898,0.00952736341504061,0.007833665811354293,-0.011160933896074605,-0.0019674409183415772,0.004402427461044307,-0.0020695583051783192,0.003715992781672693,0.009998640631697208,0.0071850472341150155,-0.014987961760261403,-0.014762225724369596,0.007114676612219713,0.005873568052375561,-0.005873764163109592,0.014609894357832661,0.006137311215476081,-0.0022149247523142457,-0.005809749438999201,0.004420709740920726,0.009541851015569095,-0.007953371332010913,0.011336585761806236,-0.006630224533038444,0.013593876114148494,-0.013039418280618754,0.005448618842876864,-0.010804177163951833,0.011641900631250549,-0.012635956971897705,-0.004485064026412841,0.007664413313994211,-0.011336210992603592,0.004813883784400973,-0.005417312159894411,0.011127646433457733,0.0004830400460518261,0.015236042285718635,-0.005166108306787404,-0.007529325686691922,-0.004185763557267311,-0.0030003643567661532,0.004575435578149174,-0.0010354323518513703,0.00779485444127026,-0.006285388176079716,-0.013934371390270997,0.010535015781746614,-0.005025467994921654,-0.002377557027270185,0.012237844482027214,-0.0016843629264576415,-0.005115903680100002,0.003985504403104516,-0.014479746143718508,0.008582124725535583,-0.010475220335745827,0.015440946720675662,0.005774572990133422,-0.009849481112724375,0.003944650278646697,0.005905970918095027,-0.011405697010399698
0.12943146871800268,-0.0035658149656969534,-0.0016751049947647985,-0.007079279480144408,0.007719383944575442,0.010423409074772839,0.0009201172965182525,-0.012879469997742459,0.011337101163777775,-0.009484773639977236,0.004472423634158058,0.007832046973431032,0.003965982730819253,0.013758252557573857,0.009031820784687596,0.014938641149443474,-0.010599303722937221,-0.0010212378479435118,0.005663569243036466,0.007221295080982942,-0.003594479028929176,0.001180369503497456,-0.005133481884373809,-0.0016046036235655668,-0.01438034548455134,-0.012372105872015093,-0.006281846531795903,0.006557754102718218,-0.009974753468750475,0.0048006689244139734,-0.001016696808546106,0.008418058538374039,-0.01274448689032777,0.012707165690836738,-0.004821563125231933,0.010482495572792898,0.006744695707231002,-0.0022804895942494354,0.0025704136769787002,0.015442545033075185,-0.011221348510307557,-0.012484120834803068,0.011760619465953017,0.008036503959095255,-0.007906818552655116,0.004399848767953962,0.0077908899281167,0.0009055503624286823,-0.0016245206718419787,-0.0018924972086794244,0.004908232334734777,0.013769574028061334,0.009922025173549343,0.007221654727801979,-0.008302307592302736,0.0008241450716385545,0.012703805136962135,0.0015197797808240293,-0.0009337643038600275,0.0070883344220660435,0.01301212378692955,0.004049012804700998,-0.01359177088359477,-0.013500432850475528,0.009579301533899399,0.00578139153905175,-0.0029181691038520944,0.006795040951930378,0.004065060133061172,-0.002425719522553175,0.012228793616473261,0.005370836640758583,0.005033913257242124,0.011444934587170625,0.0029484191447357207,-0.014380936630157503,0.01302716159079952,0.009080987812022615,0.013921968176199858,0.0069637588425537,-0.005997786318963614,-0.002853680597275355,-0.013988601786355102,-0.013462208112636483,-0.007564641612354456,-0.009610312788664692,-0.01056357546024404,-0.010842853114462536,-0.009269159375329915,-0.010647546815264301,-0.00027580729326552003,-0.002194602898913676,0.010902218772997076,-0.008435568150779013,-0.0027258017411386317,-0.0030016617113788244,0.01511118835121184,0.004721493225551895,0.012294529590142706,-0.012746827226350198,-0.010130720692149684,0.005471108464427684,-0.009317782419192224,0.013013935602154221,-0.013803082294226443,0.0060279463175732274,0.004229183959604831,0.00898219897254943,-0.007071659168994878,0.004925585258624353,-0.011652127814696319,0.0004517061174410669,-0.010559415708434654,0.00859882636025873,0.008352749272512481,-0.005980820805354992,0.014501436614651374,-0.002125127731672075,-0.0031430848916905794,0.017959289685078775,0.0098266530753145,0.015976398619669444,-0.011168236138176931,0.013845001164657969,-0.01030787461140399,-0.005957242219484052,0.014518870439436999,0.013078894126508677,0.013979126067681525,0.0062646305163766335,-0.0032572111786248817,-0.003140112446535034,-0.01156941219003498,0.016559346902890026,-0.01346869022745256,0.015469068327145353,-0.008723956326566099,-0.01133906517118549,-0.008937204684088589,-3.431241493859205e-05,-0.005441562835412219,-0.011008942080882753,-0.00046030172668497585,0.002483456385694794,0.013168687565407998,0.00849699059094646,-0.008715236119810829,0.0019697558078233027,-0.0037460376392150175,-0.0010257144542365078,0.011985279977727782,-0.009472500790722614,0.012852203841400891,0.01492445543201742,0.005654830830266686,-0.008442443566696232,0.0005131705791205415,0.0036016751673629424,0.010223920201348448,0.0108953187099642,-0.007109953967778135,-0.004487969118013124,0.0020718715597867654,0.012394894923404547,-0.005185723943305142,-0.011127043731882133,-0.00715623988565063,-0.014360801340436078,-0.010053574190301964,-0.0033163077360113744,-0.01017283210893663,-0.01381001135890476,0.011282678693475516,0.005409176107469205,0.008456187298057319,0.012613183326356407,0.012650129896080891,-0.005502324912435791,-0.012289801712892678,0.0010022128062064468,-0.020130345196017953,0.012729840644195582,-0.009534211948592906,-0.008016830284684308,0.005746233409176675,0.012984490092973729,-0.00035320761995777606,0.00580516602708147,0.005585992422274407,-0.003293674895754977,0.007721873066068301,0.013373800436189754,-0.0015874541424986763,-0.008176700712797648,0.003868223912861793,-0.005446436274411879,0.0003830607221957452,-0.014244482238580793,-0.00911979957541018,0.006922566725535737,0.010107792222416357,-0.006151249129894534,-0.0011878126288428308,0.02392155164215187,0.023991712141377457,0.005969699999145294,0.0019348055180872332,0.0006777645103090524,-0.009060297235547623,0.008896799295126788,-0.011893364953108177,0.018751525403970744,1.798933910027161e-05,0.02050165906271441,-0.00853962021108481,-0.01845858005310616,0.006038190236003708,-6.679330963700254e-05,0.010954640011694087,0.020025636326182223,0.0005647897059060904,0.004232171849697394,0.014796286441098106,-0.006024054947809945,0.015533855717636814,-0.013184752588510186,0.0013563912429518828,0.0015296433325076746,0.0014457279693871137,0.013372348591321135,0.019113891261966758,-0.0006151345476661931,0.01235788090994909,-0.0024167156748590365,-0.020722244742106738,-0.007837969883533464,-0.010527352928479445,-0.007615893337092303,0.015298638313868662,0.02327355709366733,0.005023346500337689,0.015828716880166172,-0.022176680982367157,-0.026422903607115796,0.002372848178566238,-0.01402865525977769,-0.0047341917751493575,-0.00464890929392682,0.02130730888742292,0.009016604037931485,-0.00968222621024901,-0.0014797252397891045,-0.001450103710991378,0.009350468977130655,-0.006206775228007161,0.004959373529830896,0.007599948895384842,0.004980284033608635,0.0023547051230047673,0.006966859670531505,-0.0037708521566597,-0.002129858954619439,-0.011040235060175438,-0.022425281791339187,-0.015213134758610322,-0.006452983040069792,0.018585281172786003,0.025731515241407352,0.011513282331865845,0.006328334933999411,-0.0251801629502507,-0.02915915072322599,-0.005828136059731137,-0.0007275346743188969,-0.01046485641172115,0.009599526427365949,0.02542258318635748,0.01397803033988588,0.01626877316534041,-0.009203448028684834,0.002352105029877439,0.015327094354823882,-0.0005407530332790893,-0.0007847104483774322,0.0029086613815645884,-0.006584552692789111,0.005467007714115719,0.025848812353460548,0.020810800687568555,0.007187728958442054,-0.007018500413159515,-0.020384801544226755,-0.021173202333052334,0.0051596359838505974,0.024226435677878813,0.014369715480906547,0.016944715254439312,0.011808164060688773,-0.02861112322419815,-0.022811745217618314,-0.04368614383027166,-0.02313586500023609,-0.014279021672797472,0.01003654810644087,0.004261068749204137,0.010140316178856912,0.010689977802966473,0.007105087815410014,-0.0032329578445292263,0.005761961496648798,-0.0022879428738811435,-0.0003858499393158873,-0.011998018817759568,0.018068627974311365,0.0052073312706620665,0.019754987446279664,0.006495848548694353,-0.009407476093849064,-0.020671714606453093,-0.024438750290985176,-0.0016295655108586318,0.01904680636480566,0.0064137736794893175,0.017869422143204364,0.02228288347709453,-0.025670440063051855,-0.03982662800855204,-0.05163210292203176,-0.021988147414975682,-0.03595597835929688,-0.016710492135627985,-0.0011472976890578677,0.027909717776052362,0.023200627473452348,-0.0002585919696793629,0.0034690906914882904,-0.0021648524458926337,0.008211058463106845,0.009575188284096335,-0.015190173177041282,0.004448188770605599,0.005793500946711402,0.0009857462994755008,0.0053120200010622785,-0.017428660019989765,0.005880758044519087,0.0036672083553516404,0.007512699084638062,-0.006063639734357629,0.016935463860580084,-0.006175920577930117,0.00984184653737251,0.010790198071299054,-0.005319627620910933,-0.02940827793541024,-0.03916794315176794,-0.025251557636779384,-0.022604550119850114,-0.009584781047946767,-0.010423201539388489,0.022377030070084625,-0.005749151372455324,0.010746121545204658,-0.011061796262567628,-0.001964034102094079,-0.011637073917855761,0.0027485142294826925,-0.004417884074271348,-0.005347868465932439,0.010761909467166705,-0.003975919116664148,-0.007212182914603858,-0.005578801344151096,-0.018307559343809034,-0.011884004196619363,0.018626830021487937,0.005451769776272485,-0.011748837406686197,-0.024559601924930594,0.0008291774563986684,-0.02384344431178433,-0.01875137431383308,-0.02940914926948901,-0.018335861028434524,-0.025321991388007,-0.01678914221898676,0.004791049695750318,0.015105040178274746,-0.0013878208029032028,-0.007362525015205038,0.002172676239009241,0.014636185728861375,-0.01348941521017271,0.0070923645589484295,0.009214819009073682,-0.011701677576785929,0.009151924017507891,0.01248994623326194,0.00879081428217365,-0.004432311834351732,-0.014803309245516968,0.005103276532263033,0.014239590627698263,0.012661846975194473,-0.014760750511389665,-0.015930894871642697,-0.009121644137975258,-0.02030622685939649,-0.00010703221141621192,-0.0032383581846289716,-0.009824781089291263,-0.014254604779543562,0.0035334751554430017,-0.0035008501264658545,0.007406516602852885,0.017070788994261166,-0.0082350414251712,-0.001868524192787411,0.012922171374804454,0.001655025762740062,0.00354873689018497,-0.014915551416012512,0.008035298821789,-0.011048988521946941,-0.014270853856411431,-0.006437216061916214,-0.007849261408883222,-0.01150012125682533,-0.0009020111940107117,0.007742989465588667,0.025943507149278216,-0.0014799571174641817,-0.0037247607433913343,-0.0035192869565072653,-0.009760323696826702,-0.020971112654543028,0.008482094581876824,0.008296282729307337,0.011112334085726054,-0.0004584328408421463,-0.004607990658977654,0.011528706601096199,0.007217248522630779,-0.005506122383224305,0.01504272083690972,-0.008741918786334093,0.012618384617520711,0.011245143213750895,-0.0040997964300063,-0.0031481582966259927,0.007766340835236766,-0.010751285490236942,-0.0002805486373819077,-0.003176403445935453,-0.002161537007991325,0.0007769338119964825,-0.005843738064182543,0.016204547183445987,0.022190491095401593,0.0032851064135796908,-0.0034571163454315905,0.0021042534163778727,0.007440296720892983,0.020303051760850687,0.010050354668087241,0.01230892725280565,0.03415298233757828,0.010631353496980859,0.013575331186147694,0.005453216124421465,0.016841383856934376,-0.0044518586201807205,0.004929361838783734,-0.004041178553305442,0.007431899908999502,0.0021644323142039792,-0.008402998528548995,-0.009729991716371369,-0.009227153690670252,0.008979442622044788,0.013157318163549451,-0.011678245408482644,-0.01111843022135808,-0.003802807144934818,0.03042551856708136,0.03377192435874932,0.008923167444849533,0.013816765731580615,-0.007314593329908385,0.01734420254086023,0.02012512605712888,0.021260864983887365,0.03759419095620362,0.04407813388092122,0.01818198173195753,0.024928893277393328,-0.006832090671078266,-0.007075670006630149,0.009908949374092979,-0.007619690556157309,-0.006751647670280176,0.01314506395650629,-0.008233432645888036,0.01327095793915819,-0.014266245660191905,-0.01031507065147846,-0.014412680300045479,-0.006033173400718411,-0.012954799972786257,0.009705706729829044,-0.015663730482911562,0.007423938892835361,0.018127213254025578,0.011446466765786737,-0.0029530717417051242,0.00943212340131636,-0.020391596240536675,-0.018344723403892812,0.01578818641751884,0.00861722917201302,0.026575201834967144,0.03281173151098566,0.02863144388395014,0.01841040874923043,-0.006852179199972226,0.011831860674021387,0.013198090130738672,-0.009960342486258496,-0.016105156226463226,-0.014644274301362491,0.0050536859128214396,0.0080493834278637,-0.009129459289679185,0.014620627095785928,-0.011425805476200507,-0.0037903247711677935,0.012004589342242635,0.005590452290113487,0.0009837176760400465,-0.007929776251394238,0.013001436656210726,0.0010093593564281245,-0.011915889280287124,-0.011112566073365953,0.000857945078065186,-0.003980950243728818,-0.009539977244806694,0.026979061620250377,0.025938056570764104,0.013273966201200403,0.00022525520333824863,0.00919798933948523,-0.0017520528606951998,-0.0038050729312958964,0.0025088927769783605,-0.005491717968711456,0.001754573264263948,-0.010842075811556044,0.003780333831188186,-0.014677135304190752,-0.0042637823473104805,0.0017233692294040745,-0.013176154310350182,-0.008212458085000755,-0.006964896581753151,0.01314480332509865,0.013466917005200104,0.00900202416565922,0.018526899319357106,0.0031323428620580233,-0.017646891839284848,-0.012052382152142552,-0.004182846442470038,-0.010274010001150816,0.0035341573157313044,0.0012639671721753555,0.0011440117825641367,0.01610845041493295,0.009870951099489433,0.00831137975174161,0.016027498804491242,0.010540338837340546,0.010125095306465983,0.0004195773416865646,-0.002337200180832598,-0.009389937840256634,-0.004047048294129163,-0.0017438785296042547,-0.005809961817129479,-0.013236923044513741,-0.015188279835682827,0.006376877888788346,-0.011974270473736828,-0.0020741347348968596,0.013077498981717946,-0.005445646537744534,0.009413353408088975,-0.006284557378153331,-0.0005615915669024155,-0.017326663289452177,-0.001674373367263186,-0.016471103408326762,-0.0038014417715594604,0.007445609039297909,-0.0031061378155330184,0.004424645213739936,-0.0068269432987973925,-0.005215800574097753,0.005778278238998567,0.016591174867248617,0.0006004513968517229,0.008900391445186612,-0.010104560623810988,-0.007615348318420744,0.010684034577428869,0.01312667111838224,0.0060079540556765045,0.009235171367464778,0.0020538739088847326,-0.005628752377790829,-0.0064587283773646946,0.0009704607014901508,-0.0018909533591039947,0.012384150754625284,0.008991194071363914,0.016392763073036762,0.004827235263865563,-0.0013135114364626569,-0.024393259733965295,-0.02012478213575634,-0.016527699407159827,0.0027850931958464695,0.013328024820890854,-0.0080695578911132,-0.007457600590041047,-0.0037226532285225375,0.0069939114542145325,-0.0009014574498105226,0.001146715453600194,-0.0020471062086278432,0.0030387872913991355,-0.0055383756810229905,-0.001620810611712168,0.010785341484130868,0.008679611334155537,-0.0011267145265843395,0.014444195254684804,0.00010036896718322488,-0.00956303518704295,0.008352672757641169,0.0005827829992509603,-0.006069584026694774,0.009608473698377995,0.01824286853004229,0.01079499728004659,-0.016259626825739504,-0.01187985068751432,-0.019660155951797625,0.00019132381701443362,0.0008275216193704623,-0.0010046879727151773,0.006547539852400226,0.008798264582006582,0.007841270145538867,-0.005051886608080381,0.013934010934405156,-0.01374489979733271,-0.0004594346372075024,0.014705269566201292,0.014826490322982062,-0.013208181954931984,0.015514902033891519,0.011599541488347742,0.005130371015239027,0.014381917522568788,0.007465970990171565,-0.009852629833214341,0.00401902991886857,0.004958784208898706,0.0023200351600492614,0.010149605519637464,0.007238623965270873,0.015580178044499642,-0.012392948610889286,0.005679469049701294,0.010142503435377481,-0.0019738637556816546,0.004690422547406766,-0.006742401840107542,-0.01282823104652159,-0.016474584695807194,0.007606070237428692,0.01301690595090862,0.005167667880434995,-0.005120300771414032,0.005829599449103232,0.003955333117476214,-0.0009854545230787303,0.0054627523561622746,0.005712641156002812,0.0046609293158370105,-0.006730159512754311,-0.00202521960421927,0.0059438080242941345,0.0006382211607325485,0.002476854168391772,-0.0004093709620878503,-0.0018513880223832548,0.002315477668835713,-0.007573801573288259,0.0011886967704019492,-0.008790837447530113,0.010923813694789198,-0.00990639436250032,-0.014100945773506273,0.010736261701523258,0.0023320977278670726,-0.013937498953248278,0.011828762730544574,-0.000510719759719137,-0.014883982047642384,0.013412696196748149,-0.00817913899906449,0.002309306525615628,-0.014538755364567028,-0.01392724703771119,-0.013436019616849766,0.0026540264725035574,-0.011128080037700334,-0.0030792113328379778,0.009787547794802575,0.00872008937946437,0.00497727341430761,0.0155685435976915,0.0019544477162148515,0.013659182007694596,-0.008998732300318052,0.013412429700609489,-0.009334885267287889,-0.013896236535925794,0.005999802078836492,0.0017549207144893944,-0.011115033844056408,-0.015607210537208824,-0.011345097947849382,-0.00023094683632062448,-0.00558511461042739,-0.00673252252870413,0.0013490819451053336,6.386876315290558e-05,-0.001963750676095945,-0.0037377595129880585,-0.004446580997391179,0.005212183704793993,-0.005216569016312036,-0.005764999792701946,-0.003840452852818522,-0.013680732376680264,-0.007457299427988978,0.013080226807532444,0.013119049784642053,0.011778592944753835,-0.010835556200784822,0.0020437219747695364,-0.005129606492509257,0.010372037153847241,0.007154407824221922,0.007367211501708722,-0.0006711852976650605,0.014389289770646949,-0.0002673156183202602,0.010414746543920935,0.005522114529817903,-0.0120897482056851,0.010164400197164046,0.010835686313306003,-0.0050706272542103865,-0.009763760187222366,0.0036707751008761627,-0.008626021572350418,-0.0155165972161895,0.007229751312391498,0.010964613888571353,0.007780542571917067,0.008840024733796987
-0.05259987060733313,-0.005826708112806212,0.009248745724874451,-0.008534613401518901,0.003261407300576672,0.014080753069316252,0.01247223977172313,0.013653640513138176,-0.001489130027366406,0.012287243198783795,-0.0011838301687411741,-0.011030042686158766,0.01171439718872435,-0.0102766114579853,0.012467553183605352,0.007865724864807171,0.0015660096942592544,-0.005549907689934606,0.006002205475545773,-0.00649660007550517,0.005440293047952394,-0.011042442795706917,0.004799462719227873,0.012509698360755203,-0.004198784256665939,0.006651280709267838,-0.013718014657559976,-0.011795600613353933,-0.0012647056649376029,0.002452421662952002,-0.015571138241933447,0.007191541823654692,-0.006248645354203233,0.0035902964970405786,0.010233497297751845,-0.01309206584160898,-0.00824355553298322,0.00766939620603329,0.014924938204861678,-0.009425940266936435,-0.012081915842981645,0.011769745377609504,0.00825789975861941,0.011241818762933932,-0.0023733470772696053,-0.009129257528623532,-0.009542117377186687,0.006506531251914385,-0.015462801703439794,-0.014418249981514808,0.011800399289028738,-0.01116901745575756,0.010598413451792698,0.0004459972292361683,0.01188873119940043,0.013314040532277638,0.00189017798995169,-0.013051063672211972,-0.005329674381578144,-0.00895672279978892,0.011808317559256439,-0.00175271411284535,0.00802994838007872,0.00011646585472786797,0.005375464985746977,0.010951588529690148,0.003721812711302737,0.006314029658021247,-0.0045532751983385356,-0.0062597436952180376,-0.013199497007747613,0.00904138826541696,0.004475324158883381,0.00677599613217824,-0.004788703372606184,-0.005667475005477311,-0.006877915835236656,0.015332839740056833,-0.00539160162251907,-0.013063569788789555,-0.008530737680969198,0.003939439425650441,0.00693786489754028,-0.013359675175515638,0.012667933501126497,-0.0034073238873231736,0.00663754246489957,-0.01093212427281906,0.010508544863587106,-0.009753532529704931,0.008482905423732597,-0.008645779356264698,-0.006543258973678821,0.0007475728939875803,0.006855009446549456,0.013773100351475009,0.0020695652919196575,-0.005355498809625808,-0.0016878080486892252,0.0006424949722378115,-0.007342076962518228,0.0017578631680991823,-0.007526838399522732,-0.012087190453306997,-0.012493786117906011,-0.013116491562269485,0.004991196678774939,0.011278484977566353,0.013970884244796908,-0.0021211082349804414,0.002830634903737632,0.005836078309229949,0.007027981110288663,-0.0035659627664607965,0.0041232085606497035,-0.00455608432824087,-0.009360102583000761,0.015165815215733777,0.0046459808884286025,-0.006555522402357419,0.011472610198669329,-0.008175102163086041,0.002701660785381043,-0.003769494509407001,-0.008539284050350166,0.00936524117349401,0.010666303816683768,-0.010351733011752958,0.00560343443652778,0.0033943341578622672,0.01060865459087363,-0.005539029391477643,-0.012340496220694601,-0.012321181253335277,-0.004230720942594291,-0.009648909095705795,0.005231957062627593,0.001424361717086476,-0.006218944224955721,-0.002299778156106661,0.012535648503283203,0.011794073602271998,0.002557822375246894,0.010462084048057037,0.010050188610513336,0.0010335595374554307,-0.009733693259352492,0.009119058505444474,-0.009668748077196282,-0.013515230506121786,-0.014985596445391445,0.004017174237335436,-0.009414134854906837,0.003544937742404152,-0.011738242916121468,-0.007926732804313332,-0.007987100125667414,0.00988761665565051,0.013701080528851573,0.010165945034874424,0.008554797062891039,0.0031960028494175843,0.0027238893944645528,-0.010748242120268037,-0.00023474403117925563,-0.004661705507824951,-0.006248785145398859,0.004650701848286958,0.007032805916243268,-0.009912136042426727,-0.0011584295416414703,-0.003230049684005129,-0.01255413462255036,0.005876193591451133,-0.014303102492477907,-0.008420615743210992,-0.0066354621926264035,0.00018398451634620252,-0.014163580326621426,-0.003992396821940688,0.011100119332920717,0.00844960500323152,-0.014298520137356331,-0.012781667856417503,-0.012542605420693683,0.014079160549379723,-0.010113360189514819,-0.0026914402807492457,-0.015115011447995708,0.0023827670011817787,0.01300924748311308,0.009932941750296206,-0.002016592855306036,-0.007351138111983749,0.013716824034606893,7.087096830213357e-05,0.0057482039955163815,0.013610082299277411,0.013833249736748876,-0.0017410021800026917,-0.014197820492348232,0.0044834966034193735,0.005329100652753875,-0.014897307902907601,-0.008473616106357666,0.009918539924679167,-0.0033105707709846,0.004615722984345373,0.011056299644152825,0.008983579770642455,0.006344477490657647,0.01119653278957651,-0.0032656484721861876,-0.004752228565744458,-0.01041468163168935,-0.010744216882683197,0.006324880756725089,0.007222474690578931,-0.0013373844884782629,-0.011590044323318257,-0.002950659003728605,0.010407039498281066,-0.0002984201206992568,0.014515659139849556,-0.004937224170029557,-0.010763037999215956,-0.0027816926200334297,0.008056699508889344,0.014889237763274752,0.012137552507246269,0.015496864963880246,0.009252682452243732,0.008716901226121508,0.001683806514668201,0.013015257147892085,0.010550474559417287,-0.0033082440898600275,-0.0100157440795813,0.014306706250727273,-0.002647274529055862,0.0034825535149002468,-0.013849061398377835,-0.0011802857239216482,0.011790712387750703,0.004875842838031269,0.002090526085373696,-0.0070765057825676846,-0.004617498616176113,-0.007790023583730491,-0.010225282413886856,0.00237403943909029,0.001446739963010285,0.014652491024506754,0.007681821156636751,0.013832570056068184,-0.0013846975562119244,0.008358894762011272,-0.0029942141744924225,-0.010189062739183293,-0.005755338437395282,-0.007089370431496089,-0.0034178291490257165,-0.006129841118194127,-0.00550686163452535,-0.002853108013619991,-0.012321077348401979,-0.004074912674651638,0.0035939137842120315,-0.009931421783188201,0.0109017494660505,0.00694528238786187,0.0020564304425647077,0.009534521713281443,-0.003314308470326505,-0.011579776649382274,-0.003155826923425274,-0.009997844471622828,0.0036507319348943004,0.0067015252608782945,0.0020261659439713316,-0.01337158005633006,0.008291904938486722,-0.012356947157182285,-0.005158666966826767,-0.009067443544352294,-0.008788601352824157,0.0067045709008377976,-0.014795593643560461,0.004725766557197932,0.00292057358997429,-0.011529140325182902,0.009253029978255332,0.012115729503957607,0.013778271021657814,-0.007066227526384875,0.004439036543032416,0.014496080964631725,-0.01124712875417603,-0.013596816843535071,-0.0011016458049600269,-0.00517669215442232,0.0009082341112791821,0.007864624399313156,0.006410200874803973,-0.006075930822272176,0.01310975489855366,0.005735838912882973,-0.0005972459270610492,-0.011981462284682425,0.00940481951257912,-0.0013782035540041253,0.00519033816380339,-0.004799667583473659,-0.006500866630508718,0.014184517766406361,-0.01084536520168136,0.013033043991169346,0.009838548699979167,0.003975686495947492,-0.012576739139450269,-0.010353354708716886,-0.006581846786540624,-0.009003904766944189,-0.0055226725601581345,0.0016732668066747332,0.006923234378633386,0.013530933262432149,0.002645595717944408,0.008482232479338247,0.00519714048011028,-0.012006045724874688,-0.009710634623719036,-0.00320769897262098,-0.008409716107178937,0.0054153185520331585,0.0035158015928436065,0.0006755350216709755,-0.013934935507818994,-0.003901362294084304,0.00013491290499716146,-0.0033049588602263444,0.015027061621420493,-0.008250893128047401,-0.00023488422300447785,-0.009208766095086017,0.001746317212563951,-0.004034586841457047,0.005184452636723591,-0.006680092657857078,-0.005471669160346333,0.0025737524414501506,0.010331847440450294,-0.0019457705115205712,-0.0020613706500556654,-0.0130064002096466,-0.009772091456784766,-0.00198669526945754,-0.0005603314845324354,-0.013539767255019512,-0.010771350703655001,0.014022662270350796,0.0064247005899509945,-0.0008595654812164024,-0.015020697850997862,-0.0018613942485583151,0.014850799169935404,-0.0009985580831330387,-0.004066577063123987,0.0056617415585423,-0.005420516713170131,0.015195465258155124,-0.0012744956712305606,0.002426291016575579,-0.004167426086360105,-0.00929075167333316,-0.0005632616116423586,-0.0029624441978084947,-0.0070743930720222024,0.006142522252745392,-0.009767755032256588,0.003492903046111385,0.00784564555939769,-0.01112185414020855,0.007525419749901403,-0.012664092557456964,0.01448048000979906,-0.014830986209086261,-0.011342683136334115,-0.007482422562022641,0.01197841023694539,-0.01257593095228456,-0.0010631123065686122,0.015030568077019472,0.001487595957816775,0.004693438051821437,0.0006858458720203596,-0.009393206666290852,0.01010701885842339,0.007725828437819718,0.006799178548623087,0.0013971491174548719,0.00714530971652802,-0.011918089198830275,-0.014322471458691583,0.0029750636909633274,-0.007831987506443169,0.01081551507940162,-0.005195893129602453,-0.014039917184775938,0.0022105279352137054,-0.007663208782551427,0.015351614481419432,-0.0050347043815122715,-0.004178695373982779,-0.008334086011315281,-0.0012779678236837407,0.011732856028726523,0.008315802980081027,0.015418752294677785,-0.003768708194036234,0.006474363590907195,0.012298067044927672,-0.011106649559308165,-0.011990513023431296,0.0014861186804663164,-0.0034733644630655326,-0.0115217456763559,0.00712785936786121,-0.014163558714847143,0.01086196727414007,0.003870025209978569,-0.013754965494374523,0.009132874612676855,0.013330353781199376,-0.0015239894131977008,0.005292140834026809,-0.015111784569004251,-0.009596566796227751,-0.002347525030492,-0.007692364756404695,-0.012035457653900522,-0.0019150727945995072,-9.190145281323226e-05,0.010379194678237776,0.009080705285305255,-0.001385528277314286,-0.009583951248353277,0.00016332341262939934,0.01347883750048481,0.005302402631988296,0.003992945522317607,-0.006412812211963437,-0.00022098380541880701,0.011704002216782416,0.007051711352470029,0.009318055201339296,-0.00531870200412791,-0.004160847447200549,-0.0029715591885858222,-0.009974440363219114,0.0021491412480021278,0.006843881004950246,0.015200078815573935,0.00078358983890202,0.006700687505050823,0.0013659901537960899,0.004877793741925451,-0.009721446249378428,-0.010597715500136946,0.003785258518325007,-0.003881182739435885,0.003282214930421602,-0.004207050653883048,-0.00448777242702727,0.008274324059264536,0.006877870629948702,-0.005574620274934321,0.007013777349573681,0.0006480175194687812,-0.01243393789259652,0.009700662359428847,-0.01431540312190048,-0.0061980139298369865,-0.00047440541678970947,0.011413336746289672,0.0038651605986119164,-0.003014756934992119,-0.013602643262105009,-0.014307262717469175,-0.012439624408547428,0.0017530593788573693,0.009717289370083423,-0.005211585553687682,-0.007208803175059548,-0.00783479186898494,0.011556591348388264,-0.009215857443150958,0.012391799945544967,0.014323705508837593,0.0095237871935242,-0.0005248656572463794,0.0005294163641710212,0.009074351799282537,-0.0072699363213121985,-0.010550032510508452,-0.007866360062056741,-0.0031563301675769165,0.007820048570946425,-0.0018284593015261731,-0.004697583323880104,0.015447447000782502,0.008502546029466384,-0.014980065688234456,-0.005320146084755523,-0.006035599000649279,0.01304218099611057,-0.0028763786022342236,0.004065583576257992,0.011722331575446108,-0.00020645434381828665,-0.01308181137544736,-0.005837157088507296,-0.003255088431857883,-0.004184628236366773,-0.015576474935088264,-0.010750396010792019,0.0003762022541984895,-0.00017105791640991595,0.008556512612659106,0.011351308960204488,-0.004782549368665687,0.014422498376815834,-0.00919388236368334,0.000843762936198398,0.0038165821862213775,0.00852542879032265,0.0030176846057440657,0.01008916515835561,0.007239764758691867,0.0014840601005189165,-0.003392802241421104,-0.00543344326114069,0.00016028037596717002,-0.015538417016705748,-0.00537988843009468,-0.0038726213610303963,-0.015083903335601535,0.004214164633657248,-0.012474565228524328,0.013799616739717933,0.008462996256441955,-0.012562426319964097,-0.0026999103898605863,-0.015140427112522973,-0.008268880726160577,0.002947142294602037,-0.009650715228782879,0.0013774389404356837,0.008830120569492143,0.011865371814258624,0.008655856798163261,0.0035164520363379047,-0.011627875843679088,-0.0027318339168675397,-0.007410313446992806,-0.009612113066258234,-0.013609560500719597,0.006309875146360263,0.01082532930911799,0.0031219548029744588,0.015038261490619835,-0.0037968418091170538,-0.00010620070858338544,-0.00170480060417916,-0.0026162459072180317,-0.013835968913932642,0.010798011328665431,-0.0023559428164376182,-0.009377368717030264,-0.00044541016942288114,0.0010591661261944076,-0.010296820901044591,-0.006413942951655447,-0.011339549315644803,0.010748573512279806,-0.014072851459737652,0.014703443416836017,-0.014851839216888648,-0.015255931073310493,0.0030511723690284237,0.003452550040741461,-0.010100157680583942,-0.013324462213758208,-0.015000013999281019,0.0021279563765307353,-0.003930458149478215,0.002050641936235045,-0.011753213940985439,0.00731457844417646,0.011149737203340856,-0.015459291032358522,-0.014634602277129908,-0.005786267343924925,-0.01000733541330098,-0.009638919138073848,-0.011933384864633516,0.005652749826846878,-0.009417709518151376,-0.0026908943976203916,-0.014174305621823043,0.011326463188090415,-0.0071616108642677595,0.009252949771415886,0.004615282566653142,-0.015191903108448708,-0.001376596914345378,0.011401026825792922,0.014321030493029602,-0.014360328962093154,-0.01121464145076698,0.004603606552642789,0.004493535018162884,0.00903983785979017,-0.013194646842244329,0.011369976838613087,-0.01421181260263809,-0.00741420780200159,0.010356834991209216,0.00678922621482348,-0.0015580939171703867,-0.0007291658587776644,0.0077944219400587975,0.009004948512305653,0.01035573527746094,0.013583542924616382,0.0009756806117246186,-0.005169603634858746,-0.014381333233417585,0.0041957359828918355,-0.0059419018442828505,-0.006966473074880495,0.011804330918924431,0.0008854254001353021,0.004806326453830712,0.005018827068325928,-0.004605628011135898,0.006542521863761534,-0.011367579359627095,0.008517641609111712,0.003687319514251025,0.006253009276310017,-0.015025474700739606,0.006228913298674359,-0.005604924697848296,-0.005598351959213087,-0.008040259523708095,0.007280597307097349,0.0016031260213588935,0.013633872800218858,0.0055596318540976405,0.009018271312741981,0.014178537083029326,-0.003933559239340798,0.007875857347563998,0.010075894787131393,0.015433496490863417,0.004015369582411527,0.0076804026918287065,0.005705624735985668,0.0013233822516192997,0.00517620403550164,-0.00034706550751831267,-0.010019166015497582,-0.010523265677543577,-0.013192642539073405,0.014926869442391511,-0.003358107655205937,0.0024291341200544346,0.004178081673007102,-0.015323293760328843,-0.004010850543861778,-0.012864267876670638,-0.006036877788348296,-0.0029277232806596797,-0.004403465107534645,-0.0048656266836797565,-0.015425347081194158,-0.011467019624398321,-0.0015745882135351098,0.007874703242139222,-0.012122152375653769,0.01059642516895677,0.014853017367052686,-0.010327538166700458,-0.008831603699177279,0.013891300314059104,-0.0018403166807364202,0.005262827631725402,-0.004422797867531841,0.007630284356386782,0.015069232122752282,-0.014303990511585624,0.008802543413466576,-0.006653888952225635,-0.0010852843596927883,0.012143157027763165,-0.015295956776633535,-0.0023308750146471477,0.0015863705217049433,0.009280569162036883,-0.006402465287196121,-0.0061517464429724986,-0.005321161276422223,-0.0028124284882448843,0.013206447797349846,-0.003983273394635062,0.00990969442510938,-0.011231888740444394,0.008332733119689531,-0.01179407353337935,-0.0142517529832198,-0.006938781219149679,-0.013754112115862367,-0.0029737102257442714,-0.007889708649368596,-0.014565312770153521,0.013974377594915075,9.317171643120209e-05,0.008015905464142152,-0.00026032946175340993,0.002375683361159519,-0.0003464640897520854,-0.01403892245452083,0.0073234011149446235,0.011234698435806847,0.013079240245640701,-0.007664086967408685,-0.0015555176752604996,-0.0035219762696212797,6.978930147621618e-05,-0.004953295615465699,-0.0036142968328709835,0.014400154950323606,-0.01289744656416857,0.004024090219830297,0.011435445598939522,-0.00885548922159678,0.00961382456873449,0.003463193022054511,-0.009271512029438017,-0.006031007687384165,-0.00606702909805552,0.00592211484590326,-0.004208784016474371,0.01243525262124267,0.00820736969184727,-0.004459845360725002,-0.005081683549273502,0.014935983816903135,-0.013046705012357426,0.004354327826763909,-0.0018991389643219399,-0.005748537352417253,0.015121979315778439,-0.010792561468547467,0.005813291072825126,0.015047755766532594,0.011369783325596662,0.005175234346505967,-0.011910050654881904,-0.012527846096025832,-0.0006849248600841393,-0.007262700435394093,0.005804672722101743,-0.015454431983881946,0.00013675180095171213,0.012277120957824288,-0.01396456633988407,-0.015073027539236734,-0.013201208858399528,-0.011645511685217928,0.01286409116967294,-0.007823980083416105,0.007926880651466718,0.0021842286495683816
