-0.5361274593326619,-0.014698311611193615,0.005280979794213079,0.011274387742156403,0.004492393822563886,0.0035885391219306374,-0.010149704089963203,-0.012533176230947646,-0.001941288142771478,-0.004725477226311434,-0.01513785508153418,-0.014611559030656612,-0.005486693957658863,0.011411853678303076,-0.007556258896743696,0.007016186779032034,-0.010894141761323826,-0.013396225237131295,-0.0018815174553734673,0.005141823574762925,0.012261478235718607,-0.01191737393095671,-0.0020221675754580858,0.013956331418261195,0.003562492857941628,-0.012810301471901615,0.008330419532453816,-0.0017468728609780666,0.005270297472145604,0.007154753682314368,0.007903217343537352,0.011937595107215017,0.014706635741644058,-0.006809039525569348,0.0021682468604689795,0.0049459879935192,0.0009040190613449801,0.006477699328138553,-0.013583429628257804,0.0022768017609611922,-0.00846593850568074,-0.010556408236633154,0.011078391886596258,-0.0051002968406736945,-0.0070469448234659025,-0.011426288434377256,0.0016451549590853452,-0.002382542784228562,0.0015991886869210076,-0.009757418698990723,0.00655263290156435,-0.0020782856806033506,-0.0012879935928919832,0.012511592687200188,0.013871571529980514,0.01242862224247988,-0.0035886091455884506,0.010725386760528425,0.012204113103166513,0.008867264617747832,-0.008318224884214527,-0.015124842332607795,-0.007813134810449568,0.011136187531420334,0.005383209779454696,-0.0053673919857215435,-0.010136096642893661,0.007237125255310343,0.003978599888797311,-0.015064112366497559,0.005277467923411146,0.010017946720530774,-0.006584621737128087,-0.006070073679921628,0.01101867884015498,0.014244130329332742,-0.012546354059686897,-0.0022757669843493852,-0.0034970565830597516,-0.007251613693622171,0.0018979525761494628,-0.011220608805506935,-0.013578720231987949,-0.010454874019781294,0.015287440168348598,-0.011855842768818826,0.014390066822561838,-0.009774517674610673,-0.007258119881496505,-0.011761392559852799,-0.004134866118736684,0.011916036377446418,0.012727481567270658,-0.0007183873376164572,-0.006979289448246096,0.004805773019265008,-0.011724385119246212,-0.014643424112759188,6.206736059058872e-05,0.001408988610316627,-0.009762657650441967,0.007016551982773967,-0.01069824526795128,0.007608718873682478,0.015608632939141354,-0.012689865959928716,0.012335072354237121,0.003186036875305855,-0.006966616898204104,0.01039530353275666,0.006060254506002109,-0.01424228969295899,-0.010806256554168035,-0.005685134662774441,0.009621259945199828,-0.005928841225065384,0.002154781601398384,0.01329069968401062,0.014241666875207091,0.0047075140188048295,0.013184395707797954,0.009997974300279317,-0.008327103817281118,0.002721248816981217,-0.0019178919673340155,0.00018368221836245223,0.01259552380023882,0.008975003988099868,0.008862510718688885,0.0031021322094866334,0.007450045081099579,-0.0047826980884161,-0.015577949259582842,0.010374174544066049,0.003581492000983088,-0.012616264107486043,0.014206878281108852,0.0023031984561148757,0.013694940946470786,-0.0010075708822699127,-0.007380705023760845,0.01504324023083227,0.007474916704684382,-0.009601433930117278,0.01271988740441853,0.004802128411621339,0.0021394827291800235,-0.01214443990479253,0.004904611672306038,0.006362900679077228,-0.010226305050481518,0.005026135058401029,-0.0019869514839658555,0.003021232541569097,0.0039698351172597745,-0.014094514017084961,-0.00021212762493575698,7.774293878710986e-05,0.012936981856709454,0.008794169349388824,-0.0062216794343197945,-0.013968915813765784,-0.010751475071082853,0.01353634380552097,0.006864247491888577,0.00784540382635318,-0.012874591084588462,0.013857248724342797,0.0022497570723848635,-0.004010557398229409,0.01418097007768905,-0.007132159415677655,0.011469599005653273,-0.002738087046235316,0.013706863379773651,0.012144975931030219,0.008193413409950483,-0.014520124736181432,0.0028770699198346537,0.01174370270448089,0.015353309714443585,-0.007270087508407534,-0.010032182237252892,-0.012819699683987662,-0.01183022250948758,0.013120800758913262,-0.006896823829373781,0.014916846176480349,-0.0069460589571531195,0.011854242506207632,0.007859420540417989,-0.015513772025691788,-0.0011135781476267358,0.015058892963940565,0.004525566561551535,-0.0038620876870963175,-0.0025553564022178094,-0.0005813309186723445,0.0017588997344577875,-0.012219713761373657,0.0025928957668660325,0.015311525496325805,-0.0124016647640315,0.01188733113166844,0.007466383930029241,0.009486294619464234,-0.013060563004375945,-0.003281521374954617,-7.696968415931613e-05,-0.007190003887758433,-0.009779888186358807,0.001237391984866328,0.015354452226830006,-0.012042969291434858,0.009732471825871438,-0.007946537023371527,-0.012040493957750798,0.00911763109897162,0.0032029905612451248,-0.00542436331231425,-0.0148550188612966,-0.012645745388712396,-0.004680126826600346,0.010523020248796143,0.006614630513621048,-0.0024797342504276967,0.015136162180584414,0.006270714492590176,-0.0019761175951788605,0.013717490161114456,0.006394338942229879,-0.013555846850608701,-0.0033361593004199563,0.0027241358247157826,-0.0006036688482047339,-0.013625005170890147,-0.009602973959256907,-0.006125253869151084,-0.013825503617601109,0.010983444023907859,-0.009410043930829363,0.01352887876090461,0.005923013403783463,-0.005124704140815022,-0.007532568444385269,0.0028091605639100027,0.0074063687362860755,0.013843278842939039,-0.007602546734144973,-0.005942649482570461,-0.005639644468196991,-0.012556529921965617,0.007417682609511329,-0.01205197819480536,0.004440151365293919,0.009538754637387722,0.004828995828110653,-0.0028841936793338276,-0.003817436002890795,-0.009732401982303953,-0.008775734477182886,-0.011771486949217147,0.014968549857212776,-0.008933727692945518,0.012765236626052365,-0.010681073941074593,-0.005917715984239356,0.0016497480267167093,0.005034682245812282,0.0007318077130326174,-0.00015992381529366723,0.004286552488326789,-0.000583680096684325,0.006237941204281354,-0.005354737194537473,0.004568504638933718,0.0013830658608881042,0.006786155253006296,-0.00551277892048686,0.008225210169288883,0.007261999174631047,0.0032668976327418914,-0.0032675896201632567,0.009993473686923151,0.0011145010296848498,-0.014510866201758853,0.0042773823864437135,0.0023188236491943665,0.011043574898446007,-0.008814605317636674,-0.014052171711478347,0.01267715431385636,0.007546529424947692,-0.003569697216917377,0.010211196511730813,-0.001815831402202013,-0.005123008961578814,0.00811577994783043,-0.005584277585853401,-0.01052572475917416,0.0053054913907318165,0.0031803437618770974,0.0019312539761123224,-0.005097960375395287,-0.0014087510595187287,0.0067118849827489105,-0.015554150927114138,0.014556550156900645,-0.0028186361275784402,0.013984966607895888,-0.005621417686918226,0.01276912772622598,0.011787525203777986,0.0021941596611587426,0.012687569851075265,-0.003474361121893302,-0.011632131213023578,-0.008814597526050755,-0.0019680185021188294,0.0008419163822486135,-0.013792221815485207,0.014303782201507709,-0.004459796579032446,-0.00636817252365839,0.015213431831043131,-0.0013368333133157815,-0.004206332660317976,0.00041478940168968785,-0.0012842662294902962,-0.00448152822663937,0.00814095883923942,-0.0017166467359691683,-0.0030371211919752693,-0.012412630477846109,-0.007341559641897424,-0.007153742262726695,0.01295038326692316,0.008137918612752731,-0.013640443293109804,0.008684779570773833,0.004380526750972674,0.00027814476250710897,-0.010078220621985415,0.0014297172674083683,-0.010989123506953741,0.01281667365812674,0.0029227328200822226,-0.005780416672430231,-0.013735378733111992,-0.01131363159191384,-0.01042018728869432,-0.010393408211038544,0.014554712784998213,-0.008016531997983346,0.0013283622844576883,-0.012619202144447148,0.009703591494263475,-0.0011327213330860149,0.001053483802216878,-0.010329299418364064,-0.014650791316197299,0.0014207784126526212,-0.012585227589461132,0.003983160084577248,-0.0056713905538717715,0.011511071755113296,0.0018225149631343142,0.014190484705552255,0.013471398348955147,-0.006685584727381816,-0.0003111300282097671,0.0015889610933247339,0.008434564979206275,-0.008423872958455801,-0.009693037292594095,-0.005036663328833277,-0.0007195442358703415,-0.002375864784701372,0.001556074793240841,-0.009695722475414071,0.00873886277018684,-0.00147579734429976,0.009268036094007946,0.005228423029244842,-0.007931627455728162,-0.00982651842021336,-0.007283410240568707,0.0001419347961939416,-0.009822848913261345,0.01038305014357918,-0.0003304846449824298,-0.00894917071346943,0.01413577251140766,-0.010790008539949238,0.002172761912793022,-0.004183494164051622,-0.00782785343791921,0.015661749228542732,0.0022057139279248747,-0.01359951935147592,0.008248209266582996,0.010732255690115863,0.013833737839077896,0.0032467088083958768,-0.00041170876147720095,0.011462502928774094,0.01172267572708905,0.003943414584316502,0.012868261124013833,0.004572813142079451,0.00046896409992616786,-0.01184201530671456,-0.00819916403973778,0.008719573009940536,0.009522692877930863,0.006159081412692707,0.01186538932769149,-0.007063848803770898,0.0022801606181903013,-0.006693780084590705,0.002728874067886753,0.008609755471484074,-0.006224710513299691,0.013658417222658313,0.010290400873879575,0.014909560633959719,0.0008378059650855272,0.0013328718113899453,0.0014227512270752216,0.00558286462904484,-0.003306090094764979,-0.000631406734104885,-0.004727047331820722,0.013185962338699403,-0.011675297750694858,-0.011635888187382322,0.005913868096074103,-0.008075421768927353,-0.011413237445757353,0.014258354405079915,0.0041828849119322584,0.014719387994186508,0.00545816191291127,-0.012624647492816369,-0.009368287018613105,-0.0040637974215915066,0.006603693103487755,0.005276580850504075,-0.002502721407015873,-0.006300058766011907,-0.003214875718001091,-0.011899171646536722,-0.006868965155871056,-0.006638948142324548,-0.006954554170633139,-0.013618445488538515,0.00234858723246071,-0.00615707321953772,0.002023937278444252,0.011585628837822395,-0.013347447024725439,0.0008897089160012829,0.00601347782132175,0.013881990957888276,0.004856408706822477,0.012236506605982907,0.009607817723826725,-0.004774134893080847,0.01222994521251912,-0.0033703476306004266,-0.010553343378480136,0.0011082773266992462,-0.009105581819029545,0.011884881080943835,-0.0025021064787999615,0.01321472676077368,-0.010130281074681082,-0.01449764936652393,-0.009848205246204866,-0.007215710020720087,-0.010660927685291071,0.005992153395446212,0.006632479092907543,-0.0007337902307571702,-0.006337321145919209,-0.011661800117953168,0.0007382345763920913,0.01556680459673706,-0.011241891140522048,-0.004882464916142696,-0.006450149355244715,-0.015112207683540331,0.011163674527899887,0.001977530581701517,0.014665010924932567,-0.011878581692125634,0.008362084175239221,-0.0004669253585058241,0.003370281762753294,0.015383235226058932,-0.006630563495634467,-0.008051838197142551,-0.013860743993132075,3.9460625674903216e-05,-0.004276440411306764,0.0078046711116979035,-0.01546273903021682,-0.0064683131622784475,-0.008357034233460762,-0.01264223538982826,-0.01192941331553235,-0.013979890166787412,-0.0012783977143616884,0.015787585763954476,-0.007731191119445995,0.00735320748911762,0.0011112729581016759,-0.000567375578695364,0.008004206388760584,0.005543785351811994,-0.002634189109099165,-0.006093586291491729,-0.0038716216618250314,-0.0006612591555054977,-0.014268315440530433,0.012007789168076002,-0.001882554225416284,0.0008461914088788332,0.013847893892715672,0.004327045844536102,0.005481991304436744,0.009312191019062147,0.00038103847660402653,0.006272922984426388,-0.003040632152626767,0.011848243436811906,0.006107868925403252,0.008139110050798355,-0.01063661207974922,0.01133779650948897,0.0025829620530002924,0.011306261705757475,0.010178767540639292,-0.0038346625861991972,-0.010382644571836172,0.010570522130702888,0.008378593723450801,0.002195870443756112,0.01477397680449392,-0.003942579277688737,0.010756650122684498,0.009124076262340464,0.008830220247022277,-0.013583433085104495,0.0035366843016486145,-0.014898624844655062,0.0007595400661655084,-0.013974215838082376,0.0026558439249272417,0.004100028676994065,0.007524886267930841,0.002792670433372297,0.0012829535689075529,-0.0029659159797724797,-0.0039025420696673354,0.007593073476065575,0.0007261232126846661,-0.007409056722779249,0.003238763708594507,0.010795593591462016,0.014291436411753847,-0.010187879266463256,0.014468626284242439,0.005134076269914025,-0.009792870327093958,-0.008524808406822862,-0.0034297934967096157,0.011522322546049898,0.015552367556864554,0.0028717068558031552,0.005084122947901215,0.006390982187610449,0.012087812954189906,-0.012102895764751272,0.002725958096219464,0.0156348697175058,0.01563236916535193,3.703615625647423e-05,-0.0033902840148031317,-0.00806430692155376,0.012883756416062958,0.0015411447461087663,0.0081608485206996,-0.0014483221987329129,0.0006041349879596483,-0.012466502125894483,-0.014533079082299664,0.007984030308590198,0.0025154795957444973,-0.003487452207940105,0.0041406655034738745,-0.008120604657484248,-0.001847807168805018,0.010254625461012181,-0.0127472165518871,-0.012042676135593303,0.010191346924430257,-0.013522349597905135,-0.009630232848226892,0.0012410174229328633,-0.0001047675649058462,0.004356739025012857,0.0118031635478957,-0.0005500107322071872,0.007235675253003402,0.010396637706917103,-0.009877775460800348,-0.013629531495602122,0.012950102784294096,-0.005557447483057372,-0.014941967953737813,0.009043721536000077,0.012406606588385863,0.0010955212800075943,0.005992899508120416,0.004481550697804729,-0.010171451501929779,-0.007467231830723066,-0.015442047746565097,0.013049326239621128,-0.005682784566495562,0.008384899673127834,-0.01515428125103926,-0.008033659327620396,0.011394278137616726,0.010383436049846326,0.006684258196004077,-0.011837482542086124,0.009399340299868645,-0.0020042147207986532,0.0005359795439994458,0.008470979698651833,-0.0011581703832193703,0.013346613725903018,0.003551823612369727,0.006095714648603163,-0.008201630053734102,0.01283393877198116,0.01275422959556454,-0.009325960602127833,-0.004221757655925081,-0.009765470556683153,-0.0023927378376749618,0.004479671721367687,-0.0060238262680979045,0.0033007262956279704,0.012901629372027499,0.010058997287914082,-0.01209637830550944,-0.0016440293072612756,0.00039902492445902804,-7.293616332722227e-05,0.004129640895813999,-0.005967932578065633,-0.003724616462912988,0.0008389774729817022,0.015209329720831727,-0.0044856369327337334,-0.000845626053671733,-0.01283840112539095,-0.006467118079770646,-0.0015145531281296094,0.006466862655220219,0.010599228707508093,-0.014169713214433492,0.007249505729349088,-0.013197092842708875,0.013941058792548745,0.015499252797143483,0.003308928739179096,-0.0013405320359458858,0.005783402604574317,-0.005962052890063373,0.015263227965850515,0.004960999399932555,0.00329170505812388,-0.004913994833135175,-0.0027580465361017824,0.0023150629802714175,0.0025493181657568298,-0.013266207787379528,-0.010602881780415728,-0.008689498727713404,-0.011483595440380369,0.00660691888249461,-0.008460530836807829,-0.012081905341511908,-0.007602703557265254,-0.01410535136866815,0.012660508209022939,0.00558498247071141,0.009605758174138768,-0.008013367483808792,-0.007889261026195808,-0.0007166880434091107,0.008987221533745463,0.0008628747991374764,-0.012553715154230623,-0.007644459091397398,-2.6415392193176904e-06,-0.0005639464826080026,-0.007842008748610428,0.01093516842187359,0.006916391616095556,-0.005148996003783903,0.011289738421398469,-0.0008477230244163883,-0.0004137057871946821,-0.005767953022596893,-0.00586465062874615,0.0054623440970761475,-0.0077846688978669394,-0.01205714299004619,-0.006690551441436269,0.0034296444211784917,-0.0006791521578201724,0.01123868409319699,0.014009666307023796,0.015024576860231155,-0.00017963317290316944,0.012829213945034789,-0.000429571103044115,0.01416842854327105,0.011300179763415824,-0.009423779415543908,0.000695119644535017,0.012172058202567206,-0.012222856787259682,-0.01370774833728783,-0.013536474770254632,-0.0028362879258420006,0.00882645394472532,0.015018084685313942,-0.012706413130070614,-0.013948353482824426,0.008957840916641339,0.008360801841349151,-0.009732622359818144,-0.009975297051683773,0.015489145549367478,-0.0006895053675725418,-0.012378782405601488,0.007274717819751791,0.00848840862660821,-0.004916770912908212,-0.009479137974528335,-0.007861972739899862,-0.012791695928810808,0.0001374599718164428,-0.0015062648545527031,0.00934821841071938,-0.010655348858430818,-0.0014565576292185842,0.0023465376149920357,-0.0068814900637958094,-0.0045615613739841175,-0.006771086390752784,0.014186256472950912,-0.01357949554797254,-0.01248856584349916,-0.005845903277156079,0.0016161772771073162,-0.008475765819039357,0.006500388634529512,0.014119297414032679,0.004980590344235598,0.003047523589753298,-0.0011288591294891584,0.003594364244852207,0.012254406621838031,0.01312823128274503,0.011138552918869175,0.009003067662957435,0.014833199845976332,-0.00862663159621855
-0.6322502976422787,-0.008178462490643086,-0.004218342719842037,-0.00984796864734298,0.0018347521404039786,0.004715580465226472,0.009949245320552379,0.010494088156210744,0.01524160031237564,-0.004239460174842585,-0.012411751526279716,0.007042370948276661,0.0053655814916327114,0.005833198207539369,0.0031752977691030665,-0.009888585161230715,-0.01015633376053018,-0.003380361369748529,0.01125845022610298,0.0020194779204757533,-0.004381014540102965,0.005129641721452808,-0.007520502152591431,-0.007887887750657442,0.012059807483814435,0.011401676428658265,-0.014996085405081645,-0.010006005937908194,-0.011725426781259693,-0.012575397539761505,0.013704019711108646,0.012012543944168279,-0.011150096896457188,0.010349789419085847,-0.008109960527318067,0.009186892542074516,-0.0029595045752277144,-0.002352949499758896,0.0063086216201583,0.004508343145091249,-0.007698542816338884,-0.00045644788036161565,-0.005417816332287783,-0.01376242680282119,0.0007275644941087366,0.01210815414977489,0.0110259251090928,0.00947186143777862,0.003588277797609417,-0.01352061460606118,0.006653881575465554,-0.001057051731940449,-0.0007867170276396815,0.007753520499544458,0.009856999775150307,0.007752668662201482,-0.001120460086481305,0.011423176054851845,0.0010453777417064915,-0.004725468569329733,-0.0036722734330567747,0.007053510317018657,-0.005458942421743586,0.009814164276656913,0.010661529374492985,-0.00019232918458894564,0.0019845497386273806,-0.013518381396787486,-0.009380758659426383,0.005837022476184597,0.00018162502873086424,-0.011024555368735686,0.0026051663235252716,-0.0031333115136444045,0.014076546554814343,-0.010231425448563414,0.004986811561025241,0.0011153462648692755,-0.007195866023979515,0.006825843317477265,-0.007132464536575931,0.01436022653686498,-0.011285433638069421,-0.012986250516678375,-0.008354627783386633,-0.009779679812378626,-0.0019730016354776413,0.007981279999880277,0.00019524651044775312,-0.0027736889343486677,0.0014080236152773768,-0.012062552951208396,0.00642002282645128,-0.012547751273355093,-0.009619679805242245,0.007999382937675239,-0.0016162252017732908,-0.011845370321831656,0.010579407832599032,0.009933777383627197,0.012264533834937617,0.005758918123065676,0.0020097912080199553,0.0016775046309110665,-0.01459294331398831,0.008673315387551936,0.004976395684676424,-0.0029351876814438104,0.006706067202372035,-0.0029849133042501477,-0.00014405821651335138,-0.006196930010382653,0.0052500629895448,-0.006980997815419023,-0.0017739264076047263,0.009075047425663854,0.0012866123950171504,-0.001163209713392542,-0.01300015205565185,-0.004075436816079011,0.013362063599172073,-0.0143099003349161,-0.009876515554654323,-0.006466993683838211,-0.008686636389403016,0.008590186477591357,-0.002836727853033977,-0.0002319666990072646,-0.013177783641087466,-0.012210649991471412,0.0020024693673219144,0.00742923846737355,0.0032918217774648185,0.005039212957340301,-0.0074605012943440374,-0.010624602864428956,0.00037604264492043074,0.014365985367086878,-0.010923191050633222,-0.0006383547794767894,-0.008797866381106498,-0.00826438747732991,0.008953472091207705,0.009434473380867572,0.004518719487041043,0.001792932503358991,0.01321813209954356,0.00048758404092690753,0.00913175475694363,0.011256123176511795,0.0071649616926846675,8.821198416320708e-05,0.0014092364130739632,-0.014916955317055705,-0.00581190175301663,0.0022491764788881486,-0.003494052204342851,0.00910415974150595,0.0029559013875556737,0.0013896019284105393,-0.002527360354623489,-0.0012515915571298115,0.002479237029524148,-0.008709676711703003,-0.00846658020478298,0.004783598363974904,-0.008416121675639078,0.01477348477116468,-0.008565264129135435,-0.007434402656699941,-0.009354285223622059,0.004746053878215941,0.007999683298666748,-0.0151089592358778,0.014261827467398937,0.014432984090773099,-0.00022667337662436602,0.0074076096302187686,0.008428061073862519,-0.011229746853238269,-0.010260460062646887,-0.005015351676457509,0.008531661496444066,0.0006440342169970953,-0.012179408261201008,0.006786085364608244,0.014061346867380567,-0.0026162124670443057,-0.010786676784523573,0.0025647298641313186,0.012677972294323239,0.009044733260091548,0.00038741524516954125,-0.001207362962797815,-0.015219196065853978,-0.008898128524365051,-0.006286015214313427,0.01118073711746978,0.010515427481070486,0.008070941994776981,0.005204323589108305,-0.0006280283847949265,0.014597575062992241,-0.012691903808453952,-0.0022003450806509155,-0.015543035407645681,0.010265866907099724,-0.002982090674427257,0.011536752239173156,-0.011895736374901994,-0.0051224573812669255,0.011223534418700049,0.003682180728954957,-0.013903227072334486,-0.014388409960915158,0.003914073718376921,0.005579816756111171,0.002871140760059096,-0.014270098976582792,0.012622529934588868,-0.004987706957424408,-0.007459400345028422,-0.002405114375608901,0.009239434592432618,0.006497031314891388,-0.014022952995194585,-0.013728886855049333,-0.0022920947575834345,-0.0077660265712614605,-0.009644346351150216,0.012032994875746503,0.0048132351798124,-0.007105671333367969,-0.012043404586613803,-0.012866460630201752,-0.01477926999497309,-0.012817864125667046,-0.007644511483653928,0.01357904014648042,-0.01003075905345422,0.008062561058380803,-0.014180011362855264,0.0012028636316255884,0.0021566317800790426,-0.0007332387190118497,-0.013478660148238366,-0.01413194092609663,0.00343620545929903,0.015622530512257465,-0.01408357381914861,-0.014878629832306213,0.00899783738306687,-0.009313471930910637,0.014943345609479113,-0.012248345141457076,-0.003870050601218915,0.003870952144584019,0.0026711161543089166,0.01201132049006282,0.011034151195716425,0.00382257503351486,-0.010589537064452786,0.0018963680204552224,-0.004868356372699494,-0.011500696531934874,0.005719485316185312,0.012220124668937944,-0.001715296943966833,-5.616715076907832e-05,-0.004605214434457194,-0.00042378494878009113,-0.0033438470126375603,0.010011149559772168,0.010763188818810464,-0.0025386289127898283,-0.004647543474432684,-0.008780512973145865,0.014907185355584168,-0.003375702121836178,-0.009761292630189653,0.014118424632414184,-0.006157739289974699,0.007260703688254353,0.013224469356514116,0.004158436459546142,0.01555137648541456,0.007040760454270958,0.015325395864109243,-0.0012596921279315137,-0.008269308450909401,-0.015237713603947113,0.0005978393235022824,-0.006924033262353579,-0.005871449918852558,-0.001468455780994606,-0.015053480770764297,0.013855792216177467,0.0048972078137722065,-0.006660239259003597,-0.004199644950127945,-0.01266515570288586,3.0508698496349712e-05,0.01372192142124359,0.008242655229973372,0.01284417804627725,-0.008081810652925712,0.0005228302193256146,-0.004426457979962355,0.013553475973151152,-0.012000292108731908,0.003323611629332892,0.005054615267598166,-0.013554585467264195,-0.0024600148372165213,0.002581748133981088,0.008433340106665795,-0.0020075213155550916,-0.012311744405641879,-0.010280214138320361,-0.014143314049800694,-0.00035045675047698564,-0.004910336251624154,0.007942321623766777,0.00434035807041071,0.0035637697633874145,0.010789679567452536,-0.006276139555069847,0.014340981896127508,-0.0060615733405177214,-0.012256629544615417,0.006778699493305262,-0.004645152931170714,0.012663093377262891,0.007455905839718688,-0.008393854641229184,0.0020664609675121993,0.005752165010330346,-0.014713140559119715,0.005168657147288352,-0.002415489810690962,0.013028314281824062,0.006412790506473822,0.0038271810380751375,-0.0032218150433239606,0.014311158921232194,0.012148755431617511,0.008237738067184083,-0.0003706535043781373,0.0014299084448475329,-0.007588958017174279,0.0004856680102906422,-0.014508204044722101,-0.011348532167919156,-0.003002912133542481,0.010000695923679883,-0.005362065959320379,-0.005680185802203576,-0.000282484801481075,0.007349243240346843,0.0036758649077888424,-0.004520033929306239,0.010777071801226711,-0.012486973443046261,-0.009804449675826,0.005160792040602137,0.010087119632345862,0.0035215470509532883,-0.00039834288866809266,0.007431888923449378,0.002994510097972723,0.0023548306122995687,0.002244927991845414,-0.01170629888422648,0.014348213610889171,-0.0033462717280537675,0.0058445797400849256,-0.00805073798525266,-0.001255220228178749,-0.004880654876419276,0.009808764752731295,0.004551142305465641,0.0005533677096155652,0.01526380563929072,0.00839612307517886,-0.0019981988463795915,0.010812774615123024,-0.007731572156912795,0.009795684334082962,-0.0009531767884927191,-0.013566726443668114,-0.009553220646417079,-0.008116187758195585,-0.0035937212370357055,0.010789568691532761,-0.014235111360702159,-0.004276777698613137,-0.0015209703003969015,0.0001653230550622532,0.0026338354178099274,0.006534959431694405,-0.005449643981326155,-0.0004625154875976608,-0.0012120031460448285,0.008053771552365897,0.002195205103681163,0.0019634650359916764,-0.015006178276230098,0.007998845061232782,-0.005399175163866935,-9.090970480290435e-05,-0.0026026266009582426,0.0049335751738668575,-0.002430368132148699,0.0022678220656699136,-0.008265626309355359,-0.001247058569874649,-0.011800000297353746,0.006049223895512742,-0.009662692101042031,0.006723886436605391,0.012376012545228956,0.014390604389257673,-0.004097052544630658,0.007194165144661422,0.0019552280485885492,0.0008661609759563111,-0.01416157001711359,0.0037534860613211273,0.002915580065438043,0.013145446440013357,-0.00792974359185511,-0.014855158324474529,0.011160899690205228,-0.011925191299836603,0.0037673893915848387,-0.002015108905753738,-0.01443322221469029,0.013524888791377594,0.00882530832520587,-0.011845849463439697,0.007758397314657284,0.006241733792729166,0.015284887331697557,0.003468293299558451,0.01259299081570818,-0.002520106681465499,-0.01509164334134913,-0.012666412199553417,0.0004787782858601302,-0.00705297789393872,0.013350657231048392,0.008937418475142402,0.01084495596759644,-0.011636026282467841,0.005927748389499517,0.006489014455618022,0.013863097713769939,0.0141025901603344,-0.007213052211584405,0.014049323206767229,-0.005697454570165178,-0.004595213133377122,-0.013651602443230245,0.005111715806587847,-0.0035114644741539723,0.013341915453521492,-0.004553548930418963,0.015234582700811483,0.008191472085846604,0.005571465837063491,-0.012577671894168863,0.0004209942642926289,-0.012164609540993609,-0.0010734330040384021,-0.012881170051263699,0.0006390488506050674,-0.004453060768566925,0.007524247516533744,0.011689511652761742,0.01131986564818336,-0.0015127359025495946,-0.004691356225641512,0.0052080216257194565,-0.014965126714031541,-0.013726619770898656,0.010677651208109934,0.007017513798734107,-0.0011440190216893973,0.004395535233264027,0.003497119272975487,0.011705443592467203,-0.001666587816057625,0.003918392425931247,0.005219364847196033,-0.013004430498237936,-0.004103418086470149,-0.005431300940222444,0.012329591589233654,-0.0033659218259998592,-0.006050105523155233,-0.014327515996838222,-0.00903016292952311,-0.007704901426941223,0.0126141969940876,0.0008034036922598293,0.007057143631204105,-0.012991246579066402,0.001664207760836568,0.010731841695291504,-0.010161360104126733,0.004606741189212149,-0.0098059256416621,0.01084061368575066,0.0033954425324921175,-0.014991635078672972,0.008934643146971392,0.0119472351349208,0.0021750286737580063,-0.008690232574228317,-0.01121991467056011,0.005752404327216244,-0.012629774812279808,0.009220744837910307,-0.013726709701540364,-0.008196929086755678,0.013524148064157186,0.012120276508818398,-0.01252242461263394,-0.007191642608897017,1.7980898638081565e-05,-0.0024883047356392784,0.00032742156374143666,-0.01368519585049545,-0.00614053369327594,0.008517530473433219,-0.0005151350749085324,0.011055476698176208,-0.0044465006418100625,0.00904098149284697,-0.015081919696293434,0.000932504900306122,-0.003945978384329598,-0.013697789744331314,0.011416365952299333,0.011930978573365881,-0.005785874802649612,0.006712446453044661,0.0007660806605761685,0.005101821653676065,-0.006106915118173893,0.012592257019302389,0.0132060707836668,-0.012392951888072745,0.006146779006049631,-0.015316617462149735,0.001886802674717155,0.010123499174225052,-0.010423045362391017,0.011052198804349156,0.003604711765664205,-0.0033631700887354456,-0.0007471778969196478,-0.015015652952128224,-0.01005380497733339,0.002014327429884094,0.014703409785390515,0.014049045518010509,0.0034973419429450564,-0.000697298094981455,0.007756592490075785,-0.012076490291537118,0.004490435712627823,-0.0005534405416199183,0.004639108781081169,-0.002683552984819971,0.00030940797427275377,-0.0015490302238582007,0.007210261931289377,-0.0030962211177079494,0.009781103629466707,0.0015819508548241491,-0.014868335847431266,-0.011930071522455638,0.010937217431347186,-0.0014530309302811472,0.0007599539971926808,-0.01436517563134586,-0.00019590247394812502,0.007453997426890831,-0.010585476700129541,0.011578885182174883,-0.012489405899747189,-0.0026665056229840125,0.009230465678386488,0.004610067968519439,0.007650987094419698,0.010103676926641362,-0.014182610947980375,-0.010713322212617608,-0.0013364165268268567,-0.009912762846968737,0.002737439167543716,-0.006519289405760722,-0.00453784072317036,-0.002632383522658485,-0.0015070494934336434,-0.008392313797086081,-0.0006917159586154601,0.004258527669337443,-0.008116134061881879,-0.009112484963381353,0.015521247147619214,0.006821077126656648,-0.01406706299021226,-0.012017217616915389,0.01118585931245408,-0.01163182310972136,-0.0018839178376011435,-0.0054800765734090325,-0.013890682597765353,-0.012896243664581588,-0.012131473725097512,0.009419936237148093,-0.002228196915775869,-0.00832378995677707,-0.004039817616955313,-0.010290955867938335,0.0064917404844182765,0.0074740274192758105,-0.002593438989080109,-0.014714696854082516,0.006259734585765806,0.006130161794698373,-0.006442124381428741,-0.012778258270942337,0.008080744878015581,-0.002328294182843028,-0.013277895900163521,-0.00912049821812689,0.0154444717096999,0.01227845340180208,0.014048946497355923,0.0013680073642303755,-0.006491556249636005,0.00932507749497826,0.009881855749749365,0.006094355361992539,-0.009273502235705711,0.011210001556006835,0.0073444222016294065,0.011317637383044865,-0.009153137968127561,-0.01307019235757238,-0.01157398260530239,0.009081332283001488,-0.004244765637864548,-0.00025256356816270365,0.006410637727329499,-0.0033905900232795343,-0.012408470550358102,0.002059703874610718,0.0034518907909142837,0.011552763719484355,-0.006905443938406233,0.0007361869677650515,-0.0023281266886733326,-0.003920934149412705,0.00031020650733593546,-0.006059446136280925,0.005902139895538676,0.010713545482416247,-0.006847030352171914,0.0036247839950026006,0.0020840477012093774,0.006435204074886833,-0.007771822982014613,-0.012517435162492183,0.007810734448969707,-0.0005544178522073062,0.012245832003663243,-0.01207502603795902,0.010650018626896289,-0.0022827760287525652,-0.006581481152729764,-0.013461151088451945,-0.0026684794436012097,-0.002706108498734558,0.009293189117957125,-0.012885948077379642,-0.003243344093748135,-0.006438196593264446,-0.011376780417762251,0.011574700312270883,0.0018814150725862864,-0.0024711090537147254,0.011522476789493814,0.001228983983105606,-0.008165498690597232,0.01039374538153632,-0.014218044242689038,0.000925187498942874,0.0007026686140786456,-0.01030292981076995,0.014688854290382181,-0.012829999395399042,0.0011626718771432774,0.012855746691199339,0.009207846475643577,0.008555103530780475,-0.014805035355676692,-0.0005739362140035019,-0.012418027587480592,-0.00892351764114376,-0.006156417921636306,-0.004960597942943105,0.011443013789704845,-0.003275697866892812,0.012990701559360824,-0.012864184958823927,-0.003002878024386467,0.008550950498873994,-0.004153604114941919,-0.0013250426821603918,0.013853195329652727,-0.013446363899262556,-0.005337198361992035,0.0016323821071795655,-0.0007878133096030568,0.005959598912871691,0.008270412479140638,-0.00944136451266912,-0.010223099634204744,-0.01036820358064311,-0.00941325369536667,0.011498979439955596,0.009581391652389524,0.012569455844136632,-0.009633697441828216,-0.014861747519106091,0.0033142291328271496,0.005276543664524611,-0.011545384023229069,-0.004468487600276958,-0.006715591129193092,-0.015071850974393078,-0.004772601200004162,-0.01489031404716901,-0.006641805438591896,-0.004076175476978548,-0.0005824945519272186,0.01390781967577753,0.010038595431234903,0.012523582747292265,-0.01068981114083812,-0.0006686608049701372,0.009289194313032895,-0.007442330258701998,-0.0029387649762202747,0.0012523263797619977,0.013324047724789304,-0.008205818386334596,-0.0039660188345266335,-0.005075016755896059,0.010173417926699062,0.007197943148152946,0.005509697364218194,0.01532768540021305,0.0003010468189355679,-0.006257032846334953,0.011818282957101335,-0.014738572467402518,0.009679451742858478,-0.00030876920080374903,-0.004978997099173217,-0.014644058796509561,-0.0024869942497104183,0.012227995681930767,-0.004742646942784846,-0.005270674256591595,-0.002983692501139775,0.010126921668965158,0.002216004860820908,0.0008615443159298401,-0.008566919601532559,0.004934252398775284
-0.355895448643502,0.0008303837876704918,-0.0063062063960873105,-0.0052181557828249875,0.012085844859091636,-0.009306581536352825,0.0051233308972342025,0.00749781430245294,0.0011104340246051204,-0.004905711731690295,-0.00792569557303658,0.008236777765210021,-0.008227619357392923,0.001690813119365541,0.015015289597234704,0.0045409600171112605,-0.0068569017931341646,-0.007811425540925301,0.01263438225121358,0.006117285996025058,0.008062366743850774,0.006013582842247803,0.01236552393318906,0.01532425358788976,-0.01071894489108962,-0.0017308283498335755,0.014112375857803523,-0.01150535280075866,-0.006493553695814981,0.00763421314115148,-0.005273607533321355,-0.013498377102207498,-0.0001276744674443553,-0.0037814892976694332,0.0011595995172219917,0.01238776961275798,0.010966395803120827,0.0007995578079853849,-0.0003465689008635926,-0.0003634776306677551,-0.004061506468108219,0.0005271060410801318,-0.013715770350802504,-0.005952397721495511,0.008337186616867817,-0.004993831082709999,0.011647858652978203,-0.0035215455339950713,0.0030518629754969183,0.0060575691048852034,-3.604852335597347e-05,0.003931872519232292,0.012067703826993903,-0.0014086223772314145,-0.0036940566164454167,0.001606867582720408,0.000531426096004442,-0.012397165406543738,0.009173759690910908,0.0038369562358302016,0.013106694051059683,-0.0108314981163963,-0.0034568989399674406,0.0004790370762413447,-0.007901616604083485,0.009193543448668719,-0.009380743323573526,-0.007103709128002827,0.006768374085892806,0.0028661456688048913,-0.013129738339274576,-0.011086284269217237,-0.00845214370202206,0.008291836140847917,0.009426696811789315,0.0014477216817178236,0.01177623791741977,-0.014796349537179083,0.014900933491922903,-0.010819219916218481,-0.009795854702513509,-0.006365285293717736,0.0021647838694934217,0.00348403552868691,-0.01225985128394064,0.00046228289958693755,-0.006323083837755875,0.010603035169359516,0.0011078159486170233,-0.003911607320622026,0.013884487072567559,0.0038415869397098647,-0.014193747027325662,-0.010086767506196014,-0.00729553983180555,0.005488055077703493,0.002650963479716424,-6.467241347722165e-05,-0.0008988728698350162,-0.006229672499071727,-0.006382509777691232,0.006346123835767986,0.008315642800490311,-0.011415683770055663,-0.002901778335319169,-0.004014493265550882,-0.00542195202334028,-0.008698340915615506,0.015347918293132848,-0.003883851381519983,0.0007960413016883106,-0.015188392180066783,-0.011112137483543203,0.004842822121965018,-0.00025583580188928007,-0.00463081287410487,0.0006616275782340801,-0.008334720540559757,0.012268457901230337,-0.0005872329809419537,-0.0069980992941434785,0.0068333093575698636,-0.008363335705902147,-0.0011357350532400028,0.005234502011775545,0.001778366895459459,0.001931990079119769,0.015575310038272913,0.006578351258455891,0.010078720602848923,0.0008815472792623952,-0.010873001299192468,0.0054055210334876145,0.007028971983385457,0.007114207796609413,0.011244158117975104,0.010265093942357209,-0.006065943861838424,0.00495617915128866,0.007173863442427063,0.00758481897513727,-0.008405861484097093,0.0038884327344988617,-0.005768525113255481,0.0025501583174439343,-0.0031557808254814444,-0.006442246150855966,-0.015342859420540204,0.0019064250563827737,0.0026686241921200513,-0.0017479804839391397,0.0027014074610010293,0.015088274325525427,0.0064847851593727215,-0.013981609727092567,-0.012690559201660869,-0.004604333001027687,-0.015243371362285651,-0.014290466125450114,-0.012520764455669908,-0.00136764949284919,-0.01122252969600345,0.015252491070241845,-0.0021721485377814045,0.012056479630648084,0.011955647931523188,-0.014020012236686249,4.971804383887071e-05,-0.008254737826508592,0.00971066826160263,-0.014482140159149764,-0.013017347205123382,0.0047913648427904505,0.007844531907170797,-0.0050465120249083145,0.013425444253819264,-0.011110948754012277,-0.008215426572474075,0.002392005436826409,0.0039211984611546595,-0.0013805174959820772,-0.004931538420749154,-0.010960525293378135,0.0005342643796892569,-0.009426268956140212,0.0019077122664542835,0.012229809785323939,0.011228261483045085,-0.009585709376678514,-0.013312548756025968,0.0034695517567683034,4.4166170904010294e-05,-0.0010575472990663635,-0.009267980899521407,-0.0029193162628620628,0.0021829063551320363,-0.009594783730449846,0.006031521059899056,0.0014644890312825731,-0.00189985373096597,0.009800769173599785,0.012284729905806103,0.014404139961804428,-0.012395529770501368,0.008385509623707167,-0.010535491063631587,0.005295841719817747,0.01392182849250546,-0.000623261605151352,0.00951426447089453,-0.0010899531345739844,0.006642796836770312,0.009131799747628367,-0.008957547361427847,0.0003948416536278874,0.00035748196032184336,-0.0027366517582138824,0.011364779179702507,0.005000145515463073,-0.010066554713478398,0.00612319095622281,0.005616711858460648,-0.003519695983871016,0.000492267938574596,0.01271496920728481,0.007814962872781613,0.010781109786498697,0.008423007399268302,-0.002997231073114706,-0.010188170192585961,0.014577569543884821,0.004093098557895467,-0.0020861809017793847,-0.01247201077465857,-0.008167453887943701,-0.009798157231818228,0.00576226968765625,-0.009480390883254225,-0.0026778033176932414,-0.0011607799385162214,-0.012968145999850458,-0.011536291879418407,-0.002915011065714331,-0.012798064296858482,0.0010929721417851676,-0.009701478927015297,-0.014735070786129525,-0.0010082031859357584,-0.0006161253892186495,0.004594714680429491,0.006546283109712297,0.003079045148663023,0.01507266193832437,0.00810333832821137,-0.0033146658703055135,-0.006120150690323675,-0.002325820813523827,0.006842851229205513,0.006326071193710931,-0.006639072613220756,0.008034179155527916,5.0870928084039144e-05,0.0029520482631705254,0.013790683581005199,-0.012299702427894082,0.011718424807612364,0.0008310304360305485,-0.010892326448780765,0.013946299664821716,-0.007345225421394831,-0.008982173199671177,-0.0037500902606258666,0.007867744785939153,-0.000490974486185961,-0.002345089787714526,-0.011907626839461031,2.5298591205381614e-05,-0.0022769162522378594,-0.0013769799670691712,0.00667659156812391,-0.013562656926109262,0.007897990787620945,0.010765157425960991,-0.004402808215794828,-0.013781702480669575,0.009308901795003153,0.006803489873589665,0.008200191240345645,-0.0069088685879769495,-0.011002896459323107,-0.013731884253758183,0.014082579907528443,0.014838268919193074,-0.015046749904350643,0.0055422672324828785,-0.014258049250837852,0.003584304742948452,-0.006082258175717582,0.009006701689275512,0.0042373392721443,0.012481389672906715,-0.0032042630982030704,-0.009572021535630965,0.0008902406663505327,-0.005851330834286332,-0.014124906131343993,0.008482730668528171,0.014065798480814068,-0.010379875706861809,-0.013880343908221893,0.009773291550354548,0.009795258019958697,-0.009238396032274256,-0.006409565130774202,-0.01363145194931962,-0.0037519151210258575,0.014713894337806642,0.006162229172313147,0.0007652982780439211,0.012331069059447305,-0.008554368277693925,0.0037770010522556424,0.013168941404425937,-0.001919341273539658,0.0019362258592359896,0.003094928552380439,-0.004666750812791263,0.013640235390483643,-0.011172825717573297,0.009828047776938888,-0.013554738944134387,-0.007728787657368633,-0.0008298949140675419,0.002761347716111965,0.00983891343072763,-0.0025882416530016387,0.009080703065304487,-0.012120032666225099,-0.007316070653595059,0.005195100935428618,-0.012072380139121196,-0.013227027460765865,0.0030539802667747104,0.00650431437276214,0.0025538050160827126,-0.005794346312652557,-0.014215868689941232,0.013720401189511658,0.009145392591301496,0.004082154963099327,-0.005076557370313864,0.0012820584292036596,-0.00718144283242216,0.01574841298826679,0.0057084641659225326,-0.014547801991016459,0.011292764655853443,-0.002938214550281773,0.013022563976126814,-0.0132084677070602,-0.0061610511090968165,0.009453651239093388,-0.01504510406926591,-0.006896680561697241,0.015502171856514384,-0.0017833262813981635,-0.0015764569642345476,0.009583445368344792,-0.014020008033675358,-0.00435121923959066,0.006713730421965917,0.012350885678607667,0.01077544882021717,-0.014032747398784053,0.0005332116177040055,0.015377574384867426,0.007253684363161134,-0.0004244085378715656,0.006238112861424284,-0.01044709707401369,-0.0026213609469275504,0.0004964320333927689,0.006068656058617513,0.0019515439653600298,-0.005788443976645584,-0.006862150944526951,-0.005395297067236956,-0.013478020365300722,0.007841103318196199,-0.007041931317715896,-0.00024343366069432877,0.010782199539562427,-0.00035417175691606674,0.008171605315551361,-0.01492254876380904,0.008095932237249826,-0.013502546023131915,0.005994670522042803,-0.013150842221233498,-0.0003619644028752457,-0.0022560982762461434,-0.014358328732193417,0.0019042536811883233,-0.010598638013580363,-0.013408908341933505,0.0014997876225451487,-0.0021663891067804143,-0.003988957819299369,-0.000703229763134762,0.005587532487090923,-0.0008236366687763119,0.015872856915688842,-0.010467025879167003,0.007742232511487425,-0.01211260827950826,0.012339731968581891,-0.009406192405120323,0.011601509035170415,-0.007562841297731054,0.011290287197264789,-0.0007435227201741468,0.0040380492305953745,0.006799524124356735,-0.013573637278013551,0.006952097055349577,0.008100003393919584,0.012456708448615036,-0.0010533305439304058,0.014611756262595537,0.0036201776742891276,-0.013788471093597838,-0.003699044708434614,-0.014642322502800557,0.002261718922130486,0.014516711916846288,-0.013843629285204209,-0.014921015876880897,0.010937817749736992,-0.013396775474091804,-0.007110694223286928,-0.0033983198944037567,0.0009937522957359718,0.0050100467239068466,-0.009105203814847857,-0.01294956710554456,0.0003515897509624371,-0.0028020813215631807,0.009768601549736685,0.008305139419491592,0.00226705935562084,0.0033483935777460713,0.0005912599354817661,0.00980844252302887,0.0027760325611194104,0.0025867775525767493,-0.007103549751220225,0.010772613890733996,-0.014174119038635314,-0.01152738916617289,-0.010751468672194089,0.01005525432745767,-0.007038042608158302,0.004730029288097511,0.006111022235424056,0.002914190741157485,-0.007409167173247231,-0.0006992323369535652,0.006713867356790932,0.005062046423750732,0.0025404516169106077,-0.0024118837933346177,-0.008596850316630628,0.0015845200025707091,0.011851922137762608,-0.010083628900551686,0.0014091334008724686,0.008053278770175318,0.003529699074936603,-0.009978389865637418,0.005554676460103446,0.012059596884097426,-0.008401934144420095,-0.010077643008546714,-0.012004172206448902,0.01327074208477122,0.01022717008592987,-0.005050866732176638,-0.00984479303597873,0.008630206873267448,0.00493051818291496,-0.0008450906961253622,0.004278933735615252,0.009324338252315876,-0.014984283201395604,0.011345852386177404,0.010777659109534477,-0.004160454719407755,-0.013347732182402506,-0.01404464445896239,0.002656724264685632,0.0028180466655279486,0.011796192406845936,0.0030971507648199265,-0.0032529055303622337,0.0038331846882704527,0.004384278672960092,0.009412319916594181,0.0018459843918785667,-0.002856773800202917,0.001773749253968649,-0.003843424790339792,-0.01331443002941884,0.006551817558334507,-0.009591178794716632,-0.006569612711516314,0.008288865150998031,0.0054725874257006805,-0.0005604649212319269,0.006109594839993447,0.009086405677636912,-0.014029224995549573,-0.003936091037524618,-0.00939940305786483,-0.0034957582409884435,0.006629441056215808,0.0026986687069814564,-0.015288492453825712,0.0009552562336802182,0.0024944261135097247,0.015381363822276424,-0.011142733968956132,0.0025924636806841303,-0.0038954637832151833,0.01202276115384076,0.015344450851428111,0.013379510204619229,-0.010058194638337683,0.012046375770915128,0.000787320459149677,0.014163198818690331,-0.0008460323562579508,0.008977145307305775,0.007743422013740825,-0.012817133279245534,-0.0004647532729638331,0.0019296609937243176,0.0048392175597337,-0.004314908677405663,0.004283351512669001,0.01511439807482136,-0.0025208152839027993,0.010012590185894413,0.006379000435480301,0.011172769191469454,-0.015111005730392733,-0.01541222516095108,-0.004572708037115382,0.008907692865842658,0.008972489848150925,-0.0016070721601770825,-0.0012427331716553687,-0.00011813097482808732,-0.001724444517485213,0.0067844257095539835,0.008012851128175461,-0.00296623233424517,-0.013105214015319111,0.015117569483430023,0.003263684512528713,0.0034574592205885686,0.0011401691790628068,0.004677520970941635,-0.015196007377568184,0.00010671596081271064,0.0019830173838310664,-0.015218271466594954,-0.005975646849246411,0.002388662321612879,-0.009993609306638875,-0.013332634954594363,-0.010723901765658307,-0.007702507956027594,0.012455399462788105,0.006840732441673997,0.013597363979100517,0.011826276775036601,0.015057325026492012,0.012328899906063688,0.008259113610314945,-0.004369771403061048,-0.0021701501094016883,0.007452166515096385,-0.008987165547893363,-0.012601949791103184,0.0007936766643170791,-0.006695671091833682,-0.003558700942470523,0.008994612223421886,-0.01359303774923267,0.0005645871714284755,-0.013861904019078202,-0.0010667393693564015,-0.009072017137649241,-0.003287049129462764,-0.005108533236619982,0.007520325919119452,-0.004546618520760957,-0.0019846611916273385,-0.001872877720356834,0.010837292106360422,-0.004471077281648862,0.013824365396951603,0.00564662477526696,-0.01245837288476218,0.011879759963090276,-0.014050860774253847,0.005311014832281618,-0.0029456699138381837,0.010175611808922461,0.00827445773355458,-0.010353443068197674,-0.0006186242879867974,0.011319183445992052,0.00015194876003807564,-0.0008181674410890719,0.011397859467853102,-0.01246188747729789,-0.015371690611999674,-0.014853287297269611,-0.006316596165069926,-0.005715986353061971,-0.004668480491830945,0.013467982738607009,-0.0029382892253634035,0.008174077386419351,-0.014936909479568971,-0.002757076614925555,0.011656781329666995,0.013606537540657685,-0.015200246232113352,-0.011891119667369051,-0.005435184551192309,0.0033860181759772026,0.0016065368134456498,-0.01119367913109268,-0.01498127604620933,0.004133898102660405,-0.007271451706487658,-0.00520293856306564,-0.004464753180050369,-0.005378676891188389,-0.010775145132484374,0.013566408954826413,-0.006801205675965631,-0.009301629606417422,0.01119307736637101,0.0019857430721517315,-0.007055002319974476,0.0015295476724096195,0.015018499936408811,-0.0018751363236109648,0.0025991079201993735,0.0020170427500473525,-0.0036625596721961643,-0.008845273801071779,-0.0027823581238600203,0.00951461616875812,-0.0032808445390995274,-0.007173665832167897,-0.01465396576347265,0.0009690570546527916,-0.002075831654683502,-0.003105145292449877,0.002602868723941755,0.012860694976101726,0.0011440144539456888,-0.008700633170912641,0.0020140542263240783,-0.012028375263161296,0.011191109555127724,-0.0008386693155320426,-0.013586968744338953,0.011870249275052805,0.01395199259196485,-0.00239521806349173,-0.004099079184158716,0.01348437107152457,2.7151140847645584e-05,-0.002924023872154258,-0.0052009559128827305,0.002238338619079458,0.0025631814877494345,-0.010851119288014466,0.011598438974017487,-0.013167801647085704,0.005631763690627098,0.005047800568803116,-0.011272960295928284,-0.003855124339621964,-0.013783164564522533,-0.005331446237841667,0.01347730041651686,-0.014099379875801767,0.012777467433034723,0.006722090919133627,0.012464201473045876,0.001378924010624317,0.011931265352506559,-0.009585534755150968,0.004525388736292768,0.011255588838408945,-0.006632633975333522,0.009515514880642437,-0.009576645751029138,-0.015390574502000298,0.004504432695058146,-0.005390433242259369,0.0018865334044544744,-0.00648374850628287,-0.00810415015461489,-0.012588380460684416,0.009210676724578776,0.004915366543212447,0.013488452696031394,0.004409069627653824,-0.005288633531784683,0.010285349592181928,0.010824220683903044,-0.009209160403287318,0.01540389415793706,0.00802592409704499,0.0013328754611051374,0.011835511927563259,0.0019308498678349412,0.007842136376665438,0.014873322773764542,-0.013021099897866012,-0.012077831679922876,0.01250164834902846,0.0014947854878107044,0.009654628403825522,0.01246167492242973,-0.007074387519945236,-0.0011913330392741635,-2.044433384976182e-05,-0.007484797838102427,-0.002699856577071426,-0.008027752230232933,0.013947391197077247,0.00867723730878757,0.005850588300070365,-0.0075297851070321685,0.01135042657257778,0.009069496783649912,0.005111284830425396,-0.013622489534223372,-0.002010152632074165,0.008635068461393006,0.013719555885720488,-0.005731178795001783,-0.004408202712722742,-0.014232307263056701,-0.013720463993794292,0.0003418012055549681,-0.00318765587022567,-0.01314401259301911,-0.014116351622921583,-0.008586189549309339,-0.0062081116477061375,0.0081324443741835,-0.006521142111638987,-0.010770307251668332,0.007961326859096444,0.013272741055717095,-0.005068588217520906,-0.009411694090928013,-0.0021375558880196988,-0.012703134558818517,-0.011843437490614377,0.004010896827062536,0.005798984257192115,-0.0016047076965283527,-0.007535016180322294,-0.00238876534469196,-0.004329251520108251
0.1674153222098122,0.001134984897959511,-0.008820237258791108,0.007814446275472349,-0.01257165261089008,0.00779854358748033,-0.013944255711827502,-0.014891533636452507,-0.01427499576190162,-0.0023709914369056916,-0.005258466837449578,0.0107896317239824,0.014040943443350253,0.0039064605261546585,-0.0006616948143650832,-0.011757771718167769,-0.0018736655196348977,-0.003224175963282741,0.008955972887400736,0.003971971755525411,0.001349145819598694,0.011790291444806571,0.010345548681274953,-0.008843538755372329,0.015493030368041154,0.012953270726718182,0.014446360804434708,0.005979466884521171,-0.011955363195086218,0.006905424621965195,0.009020120597307106,-0.0018625361082156913,-0.004375135478437736,0.007680774953719084,-0.0019153922436345554,-0.0003691446039599672,0.009055269329633717,0.006325030451741672,-0.014546841275871648,0.006449654043620969,-0.013468036572914847,0.01331343393251307,-0.014620212208311827,-0.001734435374161472,-0.012601046021874156,0.0032136380314693146,0.0034079299831763464,-0.011682055150655526,-0.01292413351692601,0.011306995502245072,0.009750454133492771,-0.00864709324992716,0.009604878980023802,0.010694313387913483,0.011103118023358886,-0.007269962661113596,0.01006588835139709,-0.015362206096973804,-0.00018383092143838334,0.003738000025944488,-0.014212833634818327,0.0014315057354112141,-0.008333888218978378,0.013629043487979314,0.009115749482006285,0.0057363038661320965,0.015454277036053185,0.004802163221121287,-0.013195686758011848,-0.002385888665050842,-0.0003975012988754154,-0.01303182704249705,-0.014360228173380236,-0.008309055922505568,-0.006176100998610511,-0.006814590249183978,-0.014403857594354086,0.0055986423668054446,0.00728760000875529,-0.013826343436519235,-0.001733907140045808,0.009563496244645139,0.0042020947856154026,-0.01193437283749204,-0.007673704520083296,-0.003029581343735408,0.012215941056837792,0.004948728164463241,0.009058823165148864,0.009829302885621755,-0.003830105316606553,0.013953525229734868,0.0155826654748386,-0.0106326216477845,-0.0012752074143271674,-0.007964214100364837,-0.01359046961746088,-0.0007959227067644883,-0.007167749820747545,-0.013402918387297923,0.0015622624070478698,-0.012166273982393542,0.01096597938736636,9.536380765943575e-05,-0.0008677029926400813,0.007099506435856173,-0.00965511446099303,-0.009292360573631659,0.003911322444271845,-0.013025265962555281,-0.01024195639992984,0.01131723402808706,-0.015452953567074896,-0.012347603413685636,-0.0046753338747359575,0.0015664015073897607,-0.0028461618649994642,-0.004683549462514002,-0.0005249216103490662,0.009106631125434498,0.01410761611569574,0.011685485172334831,0.0009879121681007086,-0.006414937511842843,-0.00826976724579429,-0.01252148969062394,-0.014993471144283933,0.004599929161082376,-0.005697576746869675,0.00924653277996894,-0.00822837528871228,-0.014620969972185854,0.01422835844090195,-0.0006457358789381346,0.003729826894923386,0.006218985494955664,-0.014804529554999071,-0.004958825656092016,-0.002531965804711933,-0.0015482269575667652,-0.00022276653726875303,0.01502942009377195,0.001867349219220743,0.012569395305083584,-0.0010979268056081981,0.013025656185871422,0.012896027495099502,0.010017243764461692,0.008681491566880991,-0.012088591491326517,0.005281872333036611,-0.010310847395620971,0.013091861860274043,0.007087467728151324,-0.011846313979002831,-0.002147449163986145,0.008424613191842062,-0.0004896978909382902,-0.00904488110843612,0.0020184080033778633,0.013774214391698195,-0.0006488127374533301,0.007960501629909973,-0.006120027281965995,-0.011107900799874278,0.003224552976400119,-0.010950404759129067,0.005778291234259832,-0.013998750804162484,-0.014782242908235075,-0.0010850529006257575,-0.010054757621674213,0.0003378054940264517,0.010823926577147615,-0.01104556329155581,-0.003958765519901769,-0.0006204396445409245,-0.0002704891709063724,-0.012057239300582485,0.012559269216241781,-0.006262182921512389,-0.006406695950613812,0.013376792703334878,0.010758693218192082,-0.01480696338521729,0.012240799744413692,0.010949322924610752,0.006363352550187789,0.010081986604797855,-0.014738449733382623,0.011374999599426077,0.008126847728103103,0.002905035864670902,0.012742420072587433,-0.003376111606859598,-0.01499384360538541,-0.002496547936742456,-0.002626870336125759,-0.0033641717471525057,-0.0018285991574369565,0.007896338412333732,0.011922454731685045,-0.0023741508115094996,0.000982927596114159,-0.0038120053061151955,0.01003018744000019,0.014367055590463891,0.010250940616220916,-0.004697007386203927,-0.012703576512997146,-0.0054653103685732415,-0.005304008366528635,-0.005016189918795587,0.010224704909436126,-0.01262875919985768,-0.011521622279946613,0.009504328214647414,0.01437537102464268,-0.010168102212309753,0.011752216206000454,-0.0006000047251179464,-0.004199497304687637,0.009570283652887309,0.008132388844262982,0.0135002193145577,-0.002992773543750663,-0.0024154630339004203,-0.01028952482509689,0.01230942422013084,0.009839681378797998,0.0037383125225816712,0.00587442990085283,0.005315560228162218,0.012942852979997923,-0.0037622152715493205,0.004157097271945531,-0.0065891361192467034,-0.0053734743714081165,-0.008819218903041182,0.0038575849980477792,-0.009885306651839383,-0.011691478490246338,0.00885016691277368,-0.007762844125532154,0.0024162492582957685,-0.0012496473786210824,-0.013785241221717988,-0.004786297334690419,-0.009088484344193043,-0.014882432689533386,-0.012071879817123023,-0.0016545910355877111,0.009349960215391594,0.004984503559976077,-0.005227311276782483,0.005253053465738388,-0.00647819530712346,-0.0045776506493961176,-0.003446587086838103,0.01099599380385017,-0.00016844579083002224,-0.009006493858491131,0.0011143825079187816,-0.0086963678436789,0.011712209104736564,-0.004298104259923762,-0.013977075228994757,0.005705732902308928,0.001754900259141145,0.0026440445828410275,-0.008525311224951794,-0.007842614167291479,0.0128386996481514,0.0029653957932031074,-0.0019122346500490043,-0.004948195014982145,-0.009370831730599586,0.0011832157224956805,-0.006209009609401794,0.010441824665849704,-0.01336339706793276,0.009419532462267715,-0.006527402311153721,0.01317675039753101,0.011896183211883444,0.00941871914690305,0.01033091529236245,0.009907476844549224,-0.0054775586192334046,-0.011154614858196731,-0.0011264145253825962,-0.003317310304819147,0.011308466147211106,0.008033010907550816,-0.010466888766212615,0.0044596066976610544,0.011974466707806426,0.009290190685705942,-0.01432858964481865,0.0026450705760177546,0.01414395578427534,-0.012450960346005369,0.011899522912040456,0.013007762433297232,-0.014797238236780214,-0.010824583832801968,-0.005792695463943084,-0.0047359006901578566,-0.006423783175048891,0.0073434056593397745,0.01199652098030245,0.0010910290729685564,0.014140891151676296,0.004684428393094177,-0.009927363411686778,-0.013638291288081148,-0.0039670323999970725,-0.0006273906019497896,-0.0026363591021845967,0.0023025014034847246,0.0010740955842180302,0.007646257649848174,0.009712145579648678,0.001131175816058573,-0.00753051854434947,-0.005955053282151271,0.007662097591655676,0.015210458516543651,0.0023710864786252975,0.0007578571627552671,0.0033636508124523803,-0.011727628927834879,0.007182861953856355,0.01233797088142478,0.0014089159200675629,0.004731957499354616,0.009608155119317103,0.010756238983927729,0.0035342178691474824,-0.0003285935889900653,0.00624488737603135,-0.013757920625540952,-0.002466280649109944,0.00666915364705977,0.002809602391310838,0.005335321194988113,-0.010105465082934204,-0.009164746723734416,-0.002562499095671271,0.001175043964958791,0.009199772812626605,-0.010743668653759562,0.007712895613140927,0.007436083483939581,0.011411081225707472,0.011813617415821952,-0.004360714387372826,0.003958983338371889,-0.005392828609106446,-0.005336744457320238,0.0064038380621137155,-0.006980501465197195,-0.01205076916958828,-0.00761006175898132,0.011650185765124053,0.0018988760609256958,0.014447641287859489,0.013021344672368719,0.015224850228071084,-0.011120615459495223,-0.008921991424830262,-0.0013435897332178932,0.010748304552495896,-0.002313784453184025,0.010934349907554278,-0.010136670567144014,0.006055458877912216,0.006768613586670115,0.003285130052099635,-0.010305385157563685,-7.576957223070339e-05,-0.007050059026840882,0.004719395094338798,0.014322647350288759,0.008943719759077876,0.00012337028326014253,-0.006125188575984705,0.0018521779667089629,-0.0013508742486924006,0.004495841880531444,-0.004003387101854282,0.0001146853013078725,-0.00172241681020587,-0.002295729856211605,-0.01010419927884098,0.0022884742085160234,0.012798362133836328,0.0023936137515973024,0.0037740300760105453,-0.0007133443031682613,-0.002309498937670465,0.007797966684847645,0.005759625251272079,-0.006226855515027483,0.013760045131227971,-0.0066476737099949905,0.006459535508370075,0.007213089989252482,-0.00014028633732225394,-0.003407539275234586,-0.010384579980810105,-0.011743947714336485,-0.01196051544744676,0.011494631773589194,-0.014550274434388007,-0.009660142609384767,0.0037355334209570597,-0.006589469571485207,0.0035132532604460957,-0.008288791012983082,0.014227756826058724,0.008727484274462453,-0.013712098569884255,-0.012367820943207488,-0.009029755946633085,0.001906315134659527,-0.007864821462639235,-0.011615905140172574,0.009526541002701202,0.001454795463324946,0.005349349578852296,0.003952013062758644,-0.011337296062860134,-0.005594014857703105,0.011624769002417898,0.006849468906301866,0.016195879918577114,0.013334185771615893,-0.008126444965479561,-0.0022461552442625786,0.015633963362025875,-0.014142881755901627,0.002681162564168804,0.005770000479651324,0.004272127271907244,0.013620852793744084,0.0113592000254979,0.015133568429731197,0.010385325495328817,0.002385644551391796,-0.015117572837194532,-0.006973239793774597,0.0026505729202823897,-0.011218108367502899,-0.013167953860892498,6.640689063826453e-06,0.010246536858739802,-0.006086598253836537,0.01464737791097999,-0.007694094024827453,-0.006803847768205307,-0.013319336211495031,-0.0034585931588390403,-0.014146314516068558,-0.010164252653873104,0.0023031102495754156,0.014544556639010843,0.010829957687113473,0.009769973152005581,-0.00019525505651697258,-0.0019655379010187703,0.005780413480675402,-0.012198135233710753,0.009204838801048488,0.0031475385744575753,-0.00031602571357984235,-0.012241388381720874,-0.0009978549884433648,-0.015053925376463977,0.013974849783778309,-0.0025866241323252636,-0.010263685687318537,0.00984223274476812,0.006204383329154191,-0.004719942915805264,0.007187241031209114,0.014421064132917008,0.010078284564423615,0.0027414827659600683,0.013200746558432537,-0.006773468560784621,0.009716872765533064,-0.010051502232591462,0.015225051724926613,0.0023391205133490535,0.006302381583359036,-0.00625440648677716,-0.010724844788022134,0.00546775868491178,0.00041424068984644756,0.013506780256384757,0.0045907604903788896,-0.015023533667785388,0.014107539391787037,0.008348281783107545,0.008493347707460741,0.014110623220764694,-0.014028208536678079,0.012561875003373253,-0.002898692678525649,-0.00703260485645008,0.015562788239389577,0.011204249680791744,-0.007318809790249998,-0.012549479325972827,0.013368705469128384,0.007110417968830838,-0.010944150344180795,-0.0011319026742546874,0.010492687906471317,0.010839088193042218,0.010471143428809839,-0.012798280400479983,-0.011570462067556232,0.002509341769280726,-0.002949122396637269,-0.0059257736132286975,0.006783670158112966,0.012159723013746494,0.007396323708744032,-0.00756930013371983,-0.0016668458104232553,0.010085967649942117,-0.01015099228244059,-0.00900901194136745,0.012881071398099402,-0.0013740406557700166,-0.010006928103579792,0.0035346017488001986,0.0035892914007893376,-0.014268564502253434,-0.00479579550696846,-0.011225185333784148,0.0057167186102257605,0.007588674428347131,-0.0136150220592885,0.008967121688240601,-0.013111345221434869,0.005393573315873444,0.012356626543494896,0.014579125071042672,-0.006583445607238073,0.013869687582842358,0.011120544740987073,0.006805579783200582,-0.015344733120448673,-0.011634318087282042,0.01121042977430428,8.204838975738435e-05,-0.006409793092334013,0.011853610046708459,0.0032176629862956836,-0.006842252616410367,-0.009760197263771602,-0.006401784700456215,0.005689368388187065,0.007650092874799532,0.003931246116424594,0.007003620154493447,-0.006644502111757746,0.015299726623043153,0.000577623636588429,0.008529018629149626,-0.0027112973228865652,0.0061034038202344805,-0.01216973649496482,-0.0021237768111075058,-0.0027867747013054626,-0.006342260407934692,-0.011661564288597659,0.014891370393712482,0.004510883993435926,-0.013874432498377148,0.00621315711267633,-0.006604188588587281,0.0033203436518693817,-0.00978357969692452,-0.00391710287132237,-0.0017043634968364695,0.01308187065013523,0.00586764620368958,0.00033564507089450454,-0.01548934498821943,0.0015287421293664267,0.0071801737988538665,-0.00538677995703597,0.0033613398594583327,0.0031809848221714568,-0.010553725322321735,0.008096346016947403,-0.011888296494854664,-0.003866736154322266,0.008850380653845899,-0.001628436812875444,-0.002791661004548472,-0.005672380750367096,0.00030344470019164825,-0.0015177312377563056,0.014642089599492428,6.05076903136367e-05,-0.006354825992446223,-0.011093572559204555,-0.007573728112207937,0.003109106616509404,0.008635843975492254,0.013233503828713435,-0.011488127119767808,-0.009694890450692033,-0.0038074106353363883,0.007968368478005711,0.015108854003668895,-0.007762876536610444,-0.008728628312251496,0.00552263149552064,-0.002937153066374321,-0.0045212305795845845,0.006437939424197813,0.015567761319512027,0.006637161764148674,0.011515676328046176,-0.011539968918906678,0.007684039379983711,0.009467270467064696,-0.013990387297856434,-0.008634802939207521,-0.003040732728886338,-0.011936627181451128,0.01396567680183306,0.014359274647059403,-0.0019729723355090554,0.008482329703211201,-0.013945168095527545,-0.0039215238403909275,-0.0038189352038151304,-0.008343874008779971,0.012200637097467625,0.008487537166278172,-0.015584183567618003,0.012043054323311176,0.010049530062109275,-0.011157611783360982,-0.005245380757551558,0.004030811269437129,-0.004751831226683381,-0.013508231289942147,-0.013581590029848543,0.006591251815125219,-0.012381747740479574,0.00256418638961802,-0.0027720025759073053,-0.012323379159022221,-0.013044821880562846,0.004548768905808046,-0.00013462323440172584,-0.01503502596337074,0.014763533504761235,-0.004168977703949706,0.0048804713587145,0.0018122402192958169,0.009310928788893778,0.0037613104813505535,-0.013879649424504318,-0.0022503818082258153,0.00739106147319268,0.014376510079729284,0.01502129894312576,-0.00716996086316045,0.003784182429558987,-0.0018823937933997884,0.004143330106139588,0.00134244267506252,0.006726600549146138,-0.00014557311469226106,-0.013348880438418241,0.006822337435848751,0.009654745850785948,-0.0077626788122394826,-0.006467596748511633,-0.013821220734436906,-0.0017065740251391314,0.0003914629659650494,0.008141215546532608,-0.0046450926668212674,-0.006077452505041697,0.006508457219733826,-0.0038912708096213626,-0.006469056299173725,0.014911289922011153,-0.011583057525763205,6.52885565025213e-05,-0.013934896254147625,0.005399264867198814,-0.009816993359382822,0.012901203739680976,-0.007252748540153772,0.0016035702530170675,0.015085171276869307,0.006434162114797436,-0.011382958011403514,0.015024164841344714,0.010392020578548619,-0.014203412778020258,-0.0050478834176009395,0.014231279792333114,-0.007767612598938865,-0.006953118536207244,0.01450092402836709,-0.0009738629763901796,-0.0036835071563980134,0.004931029909715792,-0.005599997167708569,-0.00881175461638948,0.009444358786813363,-0.0061240530481449125,0.014511373053032902,-0.010029084541961948,0.00048448655249526754,0.006124143569431143,-0.014812660281611427,0.006713984926272603,0.0037734097524886427,0.009365431606762897,-0.004933404585315052,-0.0027792146131233493,0.005825008195767797,-0.00681707135137361,-0.0037483846978213797,-0.002503719661336136,-0.013524754033619567,-0.00900738293962834,0.01405867434189748,-0.013116902405714023,-0.011419627688146259,-0.006343899935880142,0.013990668760690425,0.005049962325795764,-0.004620512486702269,-0.008525619021002812,-0.014640589617987039,-0.0030210759781400913,0.009104554856291008,-0.013765615469712417,0.012759710831408751,0.009954681203619774,-0.0005816547483007244,0.0007252908583459776,-0.005212659835869257,0.005713179885243121,-0.004121293594225462,-0.0037885302314700046,-0.00370489101451954,0.01264076378307321,-0.013032921449908585,-0.009005357399526952,-0.013308622460960332,0.012562265530977314,0.010763816191369572,-0.0063667221334884165,0.00962035264110761,0.014967836321215133,-0.013334009123559212,0.001016388854130676,-0.01083371806618062,-0.0075431158270214925,0.01291016004900752,0.0019552661003580177,-0.007953420254852631,-0.015475951238194272,0.006388784625167218,-0.01384872126899631,0.013157094405209593,0.014093448501152052,-0.007483799777214074,-0.004714027306060919,-0.000917103699530103
0.2185430286327008,0.010911409682380371,-0.00197577299415869,0.014198165930476785,0.0007043251208449161,-0.00416365605770172,-0.009684617908047012,-0.010501285606548859,-0.0028444987327974278,-0.01294979477890303,-0.0015006827174619125,-0.011452379539531998,-0.0023048522315217423,0.0063867303404662665,-0.013443214232729681,0.011600707951370963,0.0024197341742717496,0.013492798406250554,-0.0008320929862696141,0.009695642811375811,0.015490099888458137,-0.002114034663297834,-0.005033685502541196,-0.011708434586061169,0.0040617174627688366,0.005202700112514842,-0.012155452767763003,-0.012079621321029209,0.014871228610225384,0.0011133924145574174,0.00945895025503099,0.00819453977198882,0.012316559075007644,-0.01246238003775527,0.007526466321031967,-0.0026922380872177083,-0.014468319269586603,0.010861291839969851,-0.005504342783057819,0.015524558932483227,-0.012441227709285924,0.013465833119000969,0.0009598152469074105,-0.004120284138659461,0.0129787651997063,-0.0029208500179877563,0.013158744775204508,-0.005969936485612559,-0.0023999912306552802,0.004057490638052122,-0.015416988179005893,-0.012644116485300637,0.0006381633887281093,-0.008787842992313083,-0.01216345431980663,-0.0109012807097431,0.011876580360297262,0.014551111579971146,-0.005341711764105198,-0.007855940100144277,0.004124039723061131,-0.012545655004117667,-0.01491287233070842,0.010687085931462725,-0.014235154235346482,0.010988991356301202,-0.005519675549621441,-0.009732607180511586,-0.0024251727921768746,-0.0064834939435671,0.01499949428636638,-0.014219622078681757,0.014243590551117857,-0.012220676076428079,-0.009268174635503352,-0.0005133611265761666,-0.01247848415554752,-0.004895409972006017,0.008896514222174762,-0.011935555523030002,0.001433259103232002,-0.008804267858843449,-0.006408633554021433,0.007827648949890968,-0.013118612154693086,0.006009489295065926,-0.00859607382497583,-0.004945430566381012,-0.006690494299895211,0.007550583571703091,0.0051565022165726785,-0.009137336013030975,0.004780608992582487,0.015271794855341154,-3.4789545784387115e-05,0.010365202157103926,-0.0019761629249820615,0.013229241053298244,0.0009466524595402687,-0.014970547827850119,0.012949646397890932,0.0038818473735774354,0.0107477109184163,0.00043798707200819355,0.0031768335500282495,-0.012245378426313534,0.0021889886621383747,-0.004911694989681381,-0.011172347354661414,-0.004866339795944454,-0.007957348803502629,0.014970710117754062,-0.0047425733991103385,0.010476546907774671,0.006157450527076742,0.006316121440617134,0.007293039024921781,-0.0004974266144514615,0.01238504904295781,0.013112321478371564,0.006268352781172738,-0.009599433855567966,-0.0021141975964634216,-0.009579227055278998,-0.005395391469847918,0.0010554450076486663,0.013627825043610901,-0.0077297263314712724,-0.0014042284929356142,0.002692309998557675,0.00509336873887247,6.19862127708637e-05,-0.012535868856839624,0.009242098472996193,-0.0040032240866640315,0.011196386285744571,0.011815228230608966,0.013497497172988352,0.0036525384371916166,-0.011294245233971555,0.00595091842752736,-0.0018030502116146811,-0.005689393875257978,-0.012079721451806209,-0.003763572941422913,0.014656840207854576,-0.014161114728947573,0.004604679150856608,0.0037422016753782383,-0.0017539804447445834,-0.003342424494677986,0.013952131890650034,-0.014853573554992821,-0.011335158205994001,-0.0060914108125036705,-0.010054020841571023,0.00014506820389809078,-0.008474388753264861,-0.010614651078900694,-0.0024673566539618083,0.005855980268448836,0.013668151174396735,0.0053537050793307246,0.015539036341723253,-0.0043945456680144195,-0.010211078372298954,-0.00043644784321256744,-0.00759473733684635,0.0006183631354560216,-0.012227099518473825,0.012307199451108562,-0.004433051060595519,-0.004402568752051894,-0.013908170987724837,0.006744317882625667,0.007760656865389285,0.002560827742994751,-0.005312159474073981,0.01462793957074674,0.0025165927679538934,-0.006232141559773073,0.011218308342189152,-0.0014019307597996167,-0.011640671117908152,0.01365003719694473,-0.008791618633741307,0.005954040603316605,-0.002026574928955133,-0.012242388850492107,-0.01355823754636408,0.0013274321787457158,0.009621360759877445,-0.004523529360201503,0.0014388460593508445,0.009015056339075116,0.008968371597040083,-0.0013272716020593725,0.013602586264957629,0.015022094588020746,0.005409020541473931,0.01163177583701874,0.0034501416547148777,0.003180662096253273,0.003310002723309649,-0.005082419801015812,0.015752166661719618,-0.0004723482783436246,0.003792173539105888,0.004380869238147334,0.01219087982099151,-0.0043725467876278646,0.006542435345116712,-0.015190252428842073,-0.015088034232449143,0.01373054557707283,0.004882874936075772,0.00034867623672339807,-0.0040785078410281094,0.014183785074288871,0.0008479455784384497,0.013627417552183801,-0.008104272541953802,-0.010782301090958802,0.003260982169380024,0.013153198805273783,-0.014865836942690381,-0.012493381626327162,-0.004890427309772491,0.0071992308214117885,0.012958823336691913,-0.0097833651754468,0.0014005649432748107,0.01114531956885887,-0.0077060293859555025,0.01617159164579821,0.01305531193751328,-0.0005148402882659637,-0.012720891635119571,-0.006134962234862757,0.010766307128520704,-0.003302771763194561,0.009378849559298042,0.01141526949415633,0.009351865256021557,0.01096264740461643,-0.0024767665160031153,-0.013836584015027558,0.01035943086900859,0.010295180973309932,0.010930993988788051,-0.013095424207258495,-0.011594138448536958,0.008030330251168533,0.006211487100179169,-0.003085907868460985,-0.012608141732064766,-0.006606686621300505,-0.005273158466197825,-0.0006386777577940847,-0.006324880531456523,-0.00708261149968675,0.001185771047639997,0.004971582513320152,0.001721361834589571,-0.011764466608599287,-0.014397724899144758,-0.002288894133632208,0.015053856244288575,-0.0003149813945047301,0.01601182601580383,-0.01322489310248482,0.003186515762833959,-0.012773868960389624,0.004094032409849024,0.012029774452224043,0.015546616019697673,-0.0026153048278410593,-0.004431950177923065,0.0008741211605628582,0.012254123274717827,-0.014630144029111104,0.0035714084574972084,-0.0012995406161241388,-0.01138908900918447,0.01347177689999788,-0.005624624972430512,-0.003264599551029641,-0.002314295387830156,-3.711717256981914e-05,-0.0054577468720834075,-0.01210640676922396,0.004407369089298256,0.0009313806314897377,-0.0076876822378162,0.011896736181066918,-0.014535842149473144,0.0032166338663337617,-0.003997293140481399,-0.006093254304115502,-0.003220590133244984,-0.0059742876075175606,-0.0008558354391042757,-0.01092245003011192,0.0029892301920051443,-0.005611109519268256,8.591744524339174e-05,-0.0015717168593527052,-0.0025229560857668878,0.0011197404007405772,0.011451842112446282,0.015231212035432378,-0.011218514483897567,0.005008563372610212,0.007541057900047446,0.015482254693952894,0.004494076366434832,-0.0012545231674350875,-0.005626281977093184,-0.014312208799743252,-0.007225419638135908,0.006438438423752485,-0.004571855646314023,0.010068612727080518,-0.009956178684932461,-0.00860200423385628,0.010326458965706527,-0.007357673218924109,0.011285112462275353,-0.013992147512578159,0.014316533709339704,-0.0134374119697474,-0.0006202564044114004,-0.0008792435369940338,0.0056617910816276935,0.002937699672006585,0.0014495379213252853,0.0010347883967968532,0.008733849326144124,-0.003639459146669949,0.008695349483182842,0.012315334156258613,0.0035091055487550225,0.003371325805348623,-0.004539954232149514,0.001339620862035642,-0.0013284983337531991,0.005210324904328963,-0.01245162491584075,0.0002933159516359767,0.007447474170362853,0.007808462693888762,0.014138070933321242,-0.0031787065750002786,-0.00857277661309339,-0.008257439841864205,-0.009786341101183451,0.0012131430907320964,-0.003622050789669314,0.013686909933996589,-0.01419807521799199,0.0024324148238215313,-0.004021494936225101,0.015616116808001092,0.0044856058972658755,0.006121794601840225,-0.009384017618108541,0.006894299665899575,-0.000654074202265817,0.0009810055721474222,0.015461198738991962,-0.014251521365752744,0.010494660210996602,0.004124036701581017,0.005890729801720373,0.0011974858144056075,-0.00025728212234054796,-0.0004980379746162684,-0.006675459762772989,0.009644475617614457,0.012760614163826572,-0.007910983757732538,-0.005546269795294184,0.005075681067789423,0.001394862200120861,0.003445848742482186,0.006012149718732339,0.003488239032487166,0.002195613446641205,0.0016749161920972082,0.007597215694955877,-0.014634581579856018,-0.006214195627738183,-0.009875237759014503,-0.015233080329271127,-0.0020033337148481884,0.0010199511064725754,-0.005038774069747021,-0.0015588238802283275,0.014567466236945503,0.0025646926580570333,-0.007695846947853519,0.002841702777129951,-0.005110013731748303,0.015204896401267574,0.015688096876391423,0.013271979678380974,0.014408829455721762,-0.007999876207436816,0.011173003503031796,-0.014539547084055872,0.008116435228215358,0.006963584650064103,-0.01149472609389209,0.004730439097053301,0.010197839457344609,-0.01030130636031621,-0.0010716744068955744,-0.007641191734786392,-0.015285134577952246,0.0009145791676522888,0.007628109725742007,0.0024165369912904563,0.004533882925270246,-0.011833309717106102,-0.00720573191702224,0.01554752129149352,-0.003289444436277027,0.004909902516167038,0.009734684956215161,-0.008528243978600001,-0.011812049455567792,-0.012942214311459609,-0.00682394679614561,-0.0033083226376863953,0.0027822369355291737,-0.0015016913976766777,-0.010142111460879588,0.004782464028780202,0.0035241968618686826,-0.0045879581656508295,0.007851931111311846,-0.0009715407866432429,-0.0014866598522020782,0.006382369019691541,-0.009032406578485216,-0.0074138676908205945,-0.012524714692094537,-0.00017473792653342293,-0.01484774594261777,0.013948945768644791,-0.006824707992411483,-0.012407316414501433,0.001956489880715484,-0.0025051042771725286,0.015565510851100813,0.010648429284760721,-0.013064443609685821,0.01548226106560575,-0.012014507225272825,0.006017493232325643,0.01291964553089145,-0.0076454918068694245,-0.003901488055072124,0.007461381753016988,-0.002614141641151082,-0.006605462051414249,0.008814570230331506,-0.00919628813536494,-0.000404869092061053,0.008334158439088954,0.016274405197116235,-0.011036523515859873,-0.011480569593953398,0.002984390747184883,-0.003572134588806365,0.015548128383936467,-0.0009011892610244134,-0.00634942638637908,-0.015372377380476344,-0.012967441864743136,0.011683780982674953,-0.006909797110795546,0.007195835635940534,-0.002290814437297231,-0.01241315405413528,-0.004025709501637026,0.005284627989110745,0.013387087573996035,0.008299394504495758,0.0029785044065760765,-0.00899641358207711,-0.008357598716609758,-0.010733323182462394,-0.013422917533092956,0.007909802233965767,-0.006622444669494325,0.011833609030938008,-0.010432010489384785,0.010375741464559099,0.012634112415130842,0.010968318698913774,0.012406706449576128,0.00540450459119563,-0.0063636300501014416,-0.013947153200783576,0.015106363680151988,-0.011970289078823727,-0.0011253633515557991,-0.0046264124141303644,0.011164144650085079,0.004406179081784661,0.003691781521396814,0.0066944481829187856,-0.00669561229527295,-0.007149618928209997,-0.01297065017432769,0.014402830961741378,0.015995136354941805,0.006445672160485082,-0.007999948001760083,0.015298173487492996,-0.00406108002688222,0.0012426670774367734,0.009656087752133447,0.007327427221651466,-0.003600285490699728,0.0091998745138277,-0.003361128318999845,-0.005761292256670847,0.013335766302820391,-0.010781055302145376,0.0034102105527427304,0.0011283746804554035,-0.010402385470599601,-0.006696480683891743,0.004641244314207198,0.014437059756929233,-0.015014860310053411,0.009964243132338273,-0.00200615200008812,-0.0076743325025308605,-0.009017476777796308,-0.014562049509896178,0.014146342447078969,0.0005629443924072165,0.0024298559647113814,-0.006794993231959196,-0.007114237789719699,0.007142188736742433,-0.0112459446205947,0.012966462070812446,0.01610190492923093,-0.011193549647215402,0.011464870952727522,0.0129992128884862,0.001138959920278469,-0.005744211091086067,0.013654816805310431,-0.005347551132711126,0.0003926806021938018,0.00013516427445405416,-0.003708326274480242,-0.005219988611596078,-0.01338681605900057,-0.012150534900376942,-0.009086910354166275,-0.012508291611771154,0.011481596253995223,-0.0032133480151356267,0.006317990504471741,0.010397928613275383,-0.010365981630737545,0.014406928525912922,0.008715908057989765,-0.010599244698271471,0.003157196373460202,0.010406657574173197,0.006326140216012812,-0.007543850959927486,-0.005112091212734575,0.011338144033058856,-0.013916444714824632,0.0141272461463283,0.010642235037982508,-0.01259529055230778,-0.00839041169771982,0.010542037477419724,-0.0005980077772833116,0.005683668933034832,-0.0015741550695863409,0.001094832217972571,-0.0032714706125500197,-0.004166135299191701,-0.001843234422019504,-0.0005461494030260436,-0.009212742127253365,0.001043723914108324,0.002647729120609187,-0.004273674671966165,-0.002627808468660719,-0.0024014345864445986,0.00943056275564508,0.013884536190603952,0.008483447993989356,0.011535671012613278,-0.010208171809032413,0.007418274857469632,-0.009429049616483352,0.009709545342273305,0.004364011583045695,0.01551566475955223,-0.009636016882140226,0.010250224304103262,-0.015054514484160174,-0.003727446270477153,-0.00620511129021118,0.003745268073005001,-0.014433976508972216,0.010057926059991455,0.0036541396863490824,-0.009096085818122837,-0.008660071557297483,0.002118098033421252,0.009008293167431168,-0.0035592437410160095,0.005908773953538138,-0.011054642677919842,-0.015092515315300615,0.009285740721288275,-0.006666020588502406,0.007596968985947426,0.0012945454621992856,0.006420592179220619,0.009125947064847387,-0.009436190299457376,-0.010875807862458347,-0.0071820807235020555,-0.008443921118173756,-0.013131163263165333,-0.006218924937884203,-0.011041562505819334,0.012955636956970292,0.001097613977491655,0.014339260438991894,-0.01507027584569915,-0.0011695490102049885,0.004337115123949888,-0.015171385231665998,0.012730545062071495,0.012727281033675226,-0.012191250435535747,-0.004543042456268724,0.01024789730862539,0.014242326207826228,0.012258471750595756,0.01145262333003491,-0.012125094971107595,-0.0005433886935370845,-0.0006408686808417533,-0.015392351855979338,0.003922991916440411,0.0016118691899168558,0.011331950242622,-0.00642050764815497,0.015530781231679365,-0.0015348715755829027,0.00586662100085226,-0.010852661170321116,0.01048724223314122,-0.01554397786364664,-0.009896052602260376,-0.009407408362503717,-0.004846182397377101,0.005748921217434914,0.00550843522172885,-0.0075939357457799825,0.011063034450159394,0.014905663915780498,-0.014536585780259764,0.012620518843732742,0.001658037449943285,-0.006760834843560486,0.0029990169715119457,0.004310534794085195,-0.013687701521041548,0.009850753758394436,-0.005589455445452326,0.0061260055586833265,0.00939208131508993,0.002212248433999898,-0.013801347096215265,-0.01143801776977648,-0.0053919989257015764,-0.009801932836905065,0.011523034929123313,-0.010126897957024645,0.010690666163636087,-0.00203601348876652,0.010885765057374389,0.011941544394143359,-0.008082362181806722,-0.009465851097454982,-0.013357522936415372,0.011742267421119952,-0.013648656715082724,-0.0031231641046489426,0.015227305201546595,0.002851578663935558,-0.000257153487319998,0.007248554335045437,0.0014134198095131045,0.011782717484635283,0.0018887346912492065,0.014635823110277968,-0.014446879515341937,0.011181777665193036,0.0019938353464234028,0.011218202468512024,-0.013074623899186325,0.0052898238616913415,0.0028284218603874117,0.005847174820270026,-0.011843280771982434,0.0038080800430054414,0.01457760547677602,-0.008719236722366644,-0.004001278127325852,-0.009726334331039293,-0.0006176528452942441,0.014866248007565919,0.003083814995419827,-0.006373920031880868,0.007822290865158517,0.0030016491529629985,-0.013225680540975102,0.014249182264196643,-0.015442208347963029,-0.0058317812939074265,-0.004706490851175643,0.008098813747976108,0.011339042685169913,0.00996542183114376,0.014570186588986237,0.014930168838349418,-0.015266742639405282,-0.004740483994511195,0.014763740404283725,-0.0005940642320089971,-0.009536584947684643,-0.008889692532537085,0.005255322512365105,-0.0007364438048953516,-0.0013300566433374454,0.0077705657336401834,-0.0013208273837458512,0.004820907724656029,-0.00640016824184696,-0.014052561435790957,0.014418762037650724,0.010837710656304615,0.013782313403370515,-0.005209184703239396,-0.005374094067257182,0.013347086273761431,0.004275401248875328,0.009797726728532612,-0.0036899978228054327,-0.00393358712066761,0.003820202060790579,0.003638847211409703,0.012551734116868156,0.0016601727830649997,-0.0035530210626412116,0.00848930217879047,-0.010687943891206544,-0.01060942300178655,-0.011197932298820303,0.013311210074065532,0.014426460790616682,0.014922868888483515,-0.011196716463368606,0.013554639317874127,0.011634803948675526,-0.0038932625206006717,0.006787778550696365
