-0.6076512402721391,-0.001110074737435813,0.01491221202710272,-0.007194038297898022,0.0012348018220828608,-0.007508123337304745,-0.014699194668398842,-0.015145678921145107,0.010255544393552737,-0.005065506773964765,0.006371752790792811,-0.013217369076654311,0.003999634965822025,0.000732946504895339,-0.006942154209134951,0.00867545997623502,0.004903729215622481,-0.003898029205555681,-0.014328954102031426,0.0018303268123207872,0.009887308208727949,-0.010198007171922131,-0.009270170284916689,0.009968145158265641,0.01546032196449261,0.009904729258546026,0.004813330114632489,0.007882425838930278,-0.005712196371708202,3.9989588941823084e-05,-0.012642303614372321,-0.0049304368204059965,-0.0028683921817649373,0.013520719724150223,-0.003019240962740817,0.012982038121881034,-0.009488428753489805,-0.013199878038361656,0.003924180796728252,0.007027044611330857,0.01118391784225961,-0.008223324092560907,4.612353040312975e-05,-0.0026409996316715707,-0.014114771410883093,-0.00179635438561861,-0.014347579349989054,-0.002342202629421211,0.006938604005544569,-0.0021055368296277674,0.0125786840492095,-0.012366929097036242,0.007618278314863669,0.0020017173207243846,0.0026891629304296658,0.004049660932078744,-0.006495965578005192,0.0023543251768864994,-0.0006286925062180398,-0.004701226450520263,0.01544446286686129,-0.007052479566509718,-0.009930203606786377,-0.0032703856257969496,-0.00646284125408611,-0.006105722571959231,0.0029134531834546507,-0.00375193765459593,8.757936982235412e-05,0.007219660702321346,0.010951172318548252,-0.01284889039504199,-0.0024575479170285755,0.0005049959806538613,0.0125249462180212,0.008745369903576408,0.0024171009328784986,0.015086073591813676,0.003191149496066307,0.0032984676104445,-0.008767651180833239,-0.009530680832613828,-0.008964734104006677,0.009645524862460331,-0.00509682260127399,-0.012576478163483885,-0.007026596487187505,-0.012920807338368322,0.005708238808226823,-0.00868279740748085,0.01308470260895377,0.004551552986282469,0.005972833892000803,-0.012705629549803695,0.0022620583787345133,-0.011824484069471234,-0.007002283445726277,0.014712513893048638,-0.01459210404067985,0.015618301738470675,0.004843888801565721,-0.008824207757146214,0.004894028683122845,-0.013230884756827307,0.007403269697267959,-0.010240170971815763,0.0032222022630127196,-0.006366539428576137,-0.000343517222655413,0.015226833243424338,0.001834289826030136,0.0014707419856562175,-0.004389045633080537,0.0037039928030928627,-0.001634408636828448,-0.0052598730934948,0.0065626928169993624,0.00985881390613393,0.014670826819913826,0.003418597612943667,0.010253257586393661,-0.0048221371513882325,-0.014111794322817516,0.001980050300020939,0.005518238866591418,0.007552100413935978,0.010805172921907746,-0.00920374975381471,0.00859092899397806,0.010286434804938571,0.0004549499481330682,0.015608649159648363,-0.014726520924218656,-0.008499060397725324,-0.00020417888832057265,-0.005563338500058763,0.005561973924900321,0.013072759100770319,0.015458169337741984,0.002063860285656624,0.01236850353970102,-0.004801263437978098,-0.006602192986278219,0.010389518140281159,0.013379171621665027,0.012089246106490495,-0.007476399315471803,-0.01362243397746947,0.0016667665301688776,-0.011984407147137156,-0.0025693276085399577,-0.0037611006709710633,0.013325023826435134,0.011252698937995659,0.006819243808428473,-0.0016896889913676806,0.015228678201313284,-0.005738017139411317,-0.013555636108228387,-0.01247223659567031,-0.01100834587860812,0.0029803715081854754,0.01064932216746001,-0.013716027219030955,-0.0107774008913286,-0.0032748464303568453,-0.006718902222865145,-0.013380848076808869,-0.010802814182880895,0.012599530882955429,0.014118131355040038,-0.011661471609722859,0.003739169669682553,-0.0033187001073467226,0.004484752602419002,0.0009137108818886817,-0.0027682840506306275,-0.015261081458538186,-0.012579273473081201,-0.002678563548579767,0.002714870413793539,0.003162041031845718,-0.008835958069741603,-0.007122544861380822,-0.00048673738065730873,0.0001295006426478562,-0.004691842300748275,-0.014860850507107247,0.007791944915060502,0.0024840562470640204,0.01321785962865334,-0.006941462363868604,-0.002255501162507074,-0.013023322195567566,0.007586078104752012,-0.010695220682913068,-0.009092311692936533,-0.005755571253091226,0.006076257364705365,-0.009262276877717301,-0.009742908974393071,-0.007545289886582155,-0.013272785232605167,0.01345449563399178,-0.013637533003130087,0.008198444901887314,0.007052394212513236,0.007790504079306631,-0.013729548371795356,0.011841898013526034,0.014549389336508813,-0.00539700773394923,0.00011197981944345917,0.00891571635379109,-0.0060538375979838355,-0.006611354956909277,-0.014548726073640172,-0.007368507799172003,0.015200341450506284,0.01264486650994845,0.01002857917376554,0.0010909633175083637,0.0025624648214916702,-0.007977060849818286,0.006700357659918894,0.004868883088569042,0.014360951607006602,-0.003104096083820198,-0.01242393748571656,-0.003916972204895314,0.0027664857484254214,-0.005344404280654646,0.015073881168753734,-0.005601418801716829,-0.0005936081498071517,-0.0068330127090915176,-0.006873090423154874,-0.014889996392815855,0.0007444377521005525,-0.006208868760813037,0.013631380019715686,0.0024662438986461227,0.012955132222485528,0.014026227285165713,0.008303893227390967,-0.007270612226843557,0.013460036034489451,0.005833544723145172,0.004608783193210102,0.0018276443224217072,-0.00015269734300712295,0.013891298973282003,-0.011123744460130664,0.0014967258653358247,-0.010477421152376317,-0.008529491170007786,0.0127812164801606,-0.0031521752768971997,0.009214517988037258,0.01455853248155902,0.0024716918892094333,0.009200198704834382,-0.009636620007219862,-0.006447575443021086,0.014534153796295014,-0.004109710199432896,0.005167740482399548,0.011055859886040086,-0.0031524062887662366,-0.005255642358072979,-0.010230777910093847,-0.0038310254378036007,-0.0029295598839786316,-0.012845178694196806,-0.012528036714246474,0.012859149033652043,-0.006304425106126506,0.006439375406458336,0.0021408632919486074,-0.005696019944160059,-0.010171834433182102,0.012504425743040476,0.005072102790926104,-0.002662247750838665,-0.010257331896396452,0.002763274870874185,0.005958109106357301,-0.01111661275635777,0.0005156153232618935,-0.010957655904113815,0.014853654702668657,0.012103376698499431,0.0035918856439138593,0.010859346737500358,-0.0032037101514266267,0.012297903509977604,0.003713871220572613,0.006188874262336701,0.014601588770934391,-0.00804071722491953,0.005330890106652792,0.0028615128837174743,0.0003349994705293957,-0.0006408592431018031,0.005590037258741715,0.013445960518060077,0.008370559563882607,-0.002201608022168882,-0.007791805600848894,-0.013740147387234464,-0.010579109700570025,0.006317651635586102,-0.003628166846917181,-0.002016028043965206,0.013117118204034165,-0.000537382516745729,-0.009307526986724352,-0.011540587858953538,0.006004047938409231,-0.007368503300063087,0.010952616303669678,0.014156234990512075,0.0047531543281688765,-0.009452863973563642,-0.01331384634539011,-0.011319615580974478,-0.005405920162875798,0.009776979153616114,-0.004321544374357146,0.003249913814164406,-0.008446773941682115,-0.014985074349268615,-0.009568321960081679,-0.012551232599963838,-0.0012046384066899292,-0.0066208515259033145,0.008306461911174248,-0.002048599637799277,0.014223047158377779,-0.006441774286071355,0.011294091654241011,-0.015470352278344441,-0.014996636144869329,0.0051734734253388,0.009584651869952283,0.0006104065129764816,-0.010117199812891421,-0.0017329679459646384,0.011059861988035293,-0.010635797582473072,0.004995131216459097,0.01544004256755856,-0.008024090690961456,-0.015555853424108777,0.007179290060724045,-0.014487435479252523,0.003817398615951279,0.008075455584594247,0.011033331867052534,-0.0034385526855614003,0.01113291719360033,-0.004349300186440409,0.01483081876038755,-0.003418385336300102,0.010912368651991577,0.0013037783863714784,-0.0012638041905678257,0.006833319658967801,0.0041593933775029325,-0.006686276925125495,-0.006698014494791179,0.0016941767432784235,-0.009572520293303962,0.0072519251160427615,-0.005311947477632702,-0.004569880141746727,0.010102127010490358,-0.008285928353667791,-0.010115270045449296,-0.00852540611833933,-0.011189079760114639,0.0072214869074133,0.007786614179066197,0.008361579533781097,-0.009895190769425254,0.000272362090847654,0.015536061079569122,0.013586754224902527,0.000402648892082514,-0.013790644147559292,-0.008801210824048031,0.004100616021736697,-0.011836856710317836,-0.006483076686703008,0.014303792281372931,0.006557872104590273,-0.012794993099324761,0.013499083994280972,0.003499776619729493,0.012333395868249091,0.01215435950759889,0.015331955892791193,0.00976555954239007,-0.011190206974758598,-0.014065112442372723,-0.0002875550426636453,0.012077951934156853,-0.007862316434206859,-0.003726879583770642,0.01454870053578803,-0.005107809254266543,-0.011274292868067116,-0.009656443787070819,0.010461009108877414,0.015521080014431296,0.013617516752968996,-0.0155573549225713,-0.0028429568304040864,0.006247817744369232,0.0020033886240194178,-0.0033801859477112124,0.010547957608705427,0.0010525797504867401,-0.006581154472126233,-0.007694263425023204,-0.006119888996837467,-0.014838766276837122,-0.013533688034366394,0.014271868485512946,0.009767312465988522,-0.008977124092965867,0.010955863883177899,0.012565755248916084,-0.009959614380176503,0.012740956382448782,0.007280271867755057,-0.01245450912952318,0.006500478794513306,-0.014897976187918601,-0.004723562162493193,-0.0029296120623948964,0.0046362039592735965,-0.0052358271763612504,-0.005483412636240827,0.010444539922102758,-0.014357022751953323,0.001021641782320129,0.01486141564370137,0.013726850639007245,-0.00201232711021097,-0.013213265656173541,-0.004800008722989128,0.0008479283566326483,-0.009764144719143067,0.013101000784508751,-0.012481080511010559,0.0040295983788666105,0.0015596990514204594,0.005365159243260347,0.005171218393878255,0.011385251516285652,0.006744603845930126,0.015230074228881046,0.0011055764164061878,-0.007453775479476406,-0.00802453931189756,-0.014412460982254387,-0.0040262036740549255,0.006094946124898758,-0.004547210289161649,-0.011210861067171118,-0.006415341002822143,-0.004136307278158412,-0.01308391804777368,-0.0006271363817401399,0.01417579542724223,-0.013149990161790227,-0.01080359592493842,-0.007855349935786418,-0.01241526080119881,-0.012432585630683762,-0.011411479351527015,-0.008562645952844342,0.0001921673132579127,0.009110618373709106,-0.0024364646241264443,-0.013522063198454188,0.011496049232352819,0.008725405726258875,-0.00448614455509944,-0.0010870762773217656,-0.006712927155627001,0.006443728876743118,0.013394085245003195,0.001612291953632848,-0.002306501486659021,-0.00013499337741876977,-0.0023024755426085536,-0.009412545869092098,-0.006766749478098362,-0.0027202872938572285,-0.006318775257337601,-0.012126247985203953,0.012067692325738982,0.015435724882960664,0.007720296063640077,-0.01473824081489148,0.013413631636587216,-0.01085562296645879,-0.007263602814081872,-0.005701487463674118,-0.011221438587306329,-0.012556791567580956,-0.01516850855900206,-0.0030352506792702023,0.012702001889720128,-0.005595395312343671,0.014626761207708307,-0.01544322514857354,0.00875757855298238,-0.002412733028234547,0.0058835072619957095,-0.00330774551640093,0.015573533007535372,-0.013665876026660376,0.01234043135456036,0.008526908337677646,0.012698865827831914,0.0023032045286703884,-0.005895653548489914,0.010202583913508225,0.0070474224449119695,-0.014221508957766561,0.004951555849126283,-0.010874306062566886,-0.0029525472587484496,-0.006904322850651588,-0.013942761405682513,-0.0053315729337609745,0.006950167194733868,-0.000766274541405116,0.013959775381869613,-0.00033543942383254186,0.011760229756380986,0.0020927679461343364,0.008696045407097345,0.007855175115216887,0.008163679039855085,0.004943003776851758,-0.012742874744894571,0.00723666694822158,0.002170309697771263,0.005329634778665875,0.003973331263015276,0.014566984364262296,0.008091384151017861,-0.006590586593273641,0.013657996139127455,-0.00802364802886964,0.0013144644235682824,0.012847827492655815,-0.005561631471762491,-0.008731305371174024,-0.0017536995573119926,0.00367158083861217,-0.011370372662191541,-0.003495538163963769,0.0005759402332138792,-0.005442860276379715,-0.01009381722523493,0.0055771615920857595,-0.005836229807277014,-0.0014556390544545258,0.012799462807758413,-0.00633662859952186,0.0024873084227126294,0.014777109767932454,-0.008362433599444725,-0.013790774079335828,0.007768489056666279,-0.008572583042916866,0.010460131481210798,-0.001049930283676146,0.011341232419006697,0.008007927790040132,-0.014896546042647545,-0.015068711113977198,-0.012215847457180008,0.003107706158310731,-0.01021734466720705,-0.010654776591257673,0.013683995823267316,-0.015138638851400463,0.008677323903905038,-0.013769671489469747,0.0037454073488990824,0.01357617154466895,0.0033094403012167706,-0.011906161814624838,-0.0067569227425358334,-0.006182889429507243,0.005278490322985524,-0.006117998121220516,0.0059451118869867925,0.009647976230129609,-0.005633501729349361,-0.014200333296481345,0.012440761031073982,0.002044793506301334,0.012639892150348147,-0.009530231408058032,0.01323607976710824,-0.015227126596909293,0.012694216763944,0.010909458769433153,-0.006749963500289034,0.006677940192894624,-0.010515611760602978,-0.008122914299450432,0.001747071689400484,0.015152937612543296,-0.015299495248905597,0.00732154531758402,0.007508088069444904,-0.003632292709398556,-0.003433134649335482,0.007470779408460786,0.014172772799665542,-0.00824159670553527,-0.0053794091810744245,-0.0061619809993912755,0.003621519856948953,0.00047241041667643244,0.007167573702338472,-0.0013360836745174125,0.007014861072647694,0.0022345787939880013,0.002156887356643912,-0.003044854059345188,0.010065906247476983,0.0022890880334238382,0.009284293052385081,-0.015031158060824688,0.0053088324131796635,0.013911383458401733,0.007839827361145277,-0.005937841666600999,-0.01399095770770925,-0.0029553205324160704,0.004297341454567297,-0.008968355755828026,0.008421401574951345,0.015273898269817503,-0.014892795598038838,0.0011690824223769374,0.012821753884545175,0.007676257044202262,0.014177543941005212,-0.006685901939031149,0.007377983599538385,-0.008254633003635572,-0.006854442542266546,-0.0052642787461882196,0.013674821017799835,-0.01491231941446371,-0.003104395820023656,0.007760318494187828,0.010525991710162011,0.008271173637620748,0.011341303865076879,0.004062660770685202,0.006237561742135321,0.004638822666783563,0.006388202373057601,-0.011163288337098856,-0.0006614669222132011,0.00523961048967482,0.005287468202938499,0.0025201855906376407,0.0038010308981764884,0.011239484426865641,0.010867923072321314,0.009038844844893597,0.004467229606946933,-0.012414591470972146,0.0021347794836908372,0.015112836774440998,-0.0051951774210617675,0.004066208866331744,-0.010466519976615265,-0.0012341563684023608,-0.014067463243315648,0.0018755595615223969,0.014233396657603911,0.007798262622231482,-0.008559252039915765,-0.010012350188562037,-0.0016998427050850008,-4.9585439693002054e-05,0.011725371921430701,-0.00762205618512481,-0.0044579210605916915,0.0019753299799592228,0.011216853324371712,-0.0060040942621869126,0.015532716331918384,0.006113034427985241,-0.009897276135046013,0.013335030308626459,-0.00627491640716097,0.00028673253910505014,0.013724620334852278,0.0006128730800652529,0.005211108656173732,-0.009834015097282451,-0.0056403302880573825,-0.009655896517845621,0.00969070591403718,-0.0022262644863054633,0.0095633257173501,0.006361351111732198,0.012072156468861176,-0.007072197466890282,0.014120508772702052,0.013378374688085198,0.008837681211286808,0.006551393493631041,-0.002728188907599991,0.011037726010081253,-0.010037831739263613,0.004161648686905831,0.0008224195963038548,-0.00211572674780508,-3.464200001625922e-05,-0.013988603874676053,0.008449682579815935,0.004317072775516146,0.01371049192638674,-0.012915861710126434,-0.011714043860267441,-0.0018188611518070788,0.014464673610390888,-0.014822252683044768,-0.014825391882955029,-0.010971460361315136,0.0033773403864739635,0.0136971376127214,0.008616049404436641,-0.0020019662820624055,-0.014069494416861991,-0.01297216219213242,-0.010672669674565021,-0.0053137699139863305,0.006024118734177592,0.0008764386954742721,-0.013837908200573294,-0.008081200674734664,0.0013714565048497766,-0.014606307970326807,-0.01521881468782826,-0.0015463949141949276,0.0032865020231256856,0.002287729733926158,0.014609352816807218,-0.011203435958465707,0.0014715532544891524,-0.00397516143246137,0.007727970523945214,0.00712211300001326,0.007248934493812639,0.010633729475329767,-0.013376372892308516,0.01157261918595483,-0.002555648521305763,0.0070225661025106745,0.0017859205311651048,0.0022388820444486264,-0.01131618148051287,-0.013726573869334412,-0.005446378288383069,-0.008750446229985265,0.001681492040219331,0.012638992792469328,-0.010658150099343351,-0.010646898629507132
-0.12349542577093614,-0.0031334947639577275,-0.011292989046233996,-0.004398471564271207,-0.010949755584752138,-0.014638810944981786,0.007739367395918604,-0.015360709320350004,-0.0028406851353846886,0.012893374013669776,-0.01196670494431189,-0.011816319838034321,-0.005082237045257409,-0.005917887243214719,-0.006332587296324604,0.006429384263951288,0.0022306698155254608,-0.007435987340137781,0.013848546979875902,0.0108443929579192,-0.0010767639717324147,0.008808022657314254,-6.151525904244878e-05,-0.005234282511507503,-0.0014891755794691763,-0.015510499777274783,0.0096208811560047,0.003042851333693128,-0.00549630647254867,0.014342245137587861,-0.004269311973476551,0.012596968284390449,-0.005423978854659398,-0.012546609839841665,-0.0018247760955702984,0.010588676810563184,-0.005371303174237414,-0.00342953563541451,0.01417048487441569,-0.009546859104929951,0.006656497417522434,0.00874342629267142,-0.009229856088968001,-0.007670086895527374,0.004140797146113668,0.007521707714641793,-0.01018731477494627,-0.011801882622373694,0.012966536966171376,-0.010731594395357348,-0.00996988874717494,0.00940775804396814,-0.007643589669899219,0.013214561470477185,-0.008323464531663136,0.005648839627112236,-0.0015604816963589174,-0.009159270139757519,0.0017581585090499265,-0.004792555904765818,0.0017956622007869773,-0.008182729662690055,0.005181968214065139,-0.011384351352208655,-0.0024238580549742032,-0.011856848338811656,-6.014499903829809e-05,0.014885756112304142,0.007502542864844017,0.00908320086795416,-5.924582895662847e-05,0.00884665903068305,-0.0014604417721025865,-0.013599871873777515,-0.000572905217779144,0.01262077752736689,-0.01519483902195886,-0.005577745512676369,0.01364672438574582,-0.001266165934705188,0.011353721557422907,-0.013181388826274822,0.005339360375795684,0.011869092739683687,-0.0034331808986796906,-0.012970853531538849,-0.004998832639229917,-0.0006985514071665491,0.011494986181241833,-0.013406231555237434,-0.007740613844979462,0.007573011194569355,0.00783766837333973,-0.014839854610265619,0.0033590276255176313,-0.0027827949899309826,0.013877025977077483,0.012843910973656985,0.01070474323149962,0.014270511409047573,0.011689403240373666,0.003521734841372262,0.00771648771068684,0.008690169372802304,-0.014200132815640528,0.01379743031537805,-0.00032525908692077055,-0.004738908717000789,0.0046010676939199704,-0.0018005233011751491,-0.014217090794572843,-0.011309775736425047,0.008473842786314103,-0.014856767955770882,-0.012030070284100029,0.004487178829591664,0.012950764599629194,-0.012182152103734321,-0.004336177197506053,-0.006236406980110961,0.011773980139700418,-0.012795440001428036,0.011975701505299158,-0.014097415574902863,0.0017189175861055603,-0.002324598473244708,-0.012373975414079252,-0.0015970322172053734,-0.0033810906524573657,0.008074863440510848,-0.0030193472009511814,0.00025279346420009835,0.010336885700079172,0.014257366765375498,-0.006955181655211348,-0.009641133729355067,-0.008167994067542341,0.008591099816149413,-0.0010441646985657055,0.014244915774968638,0.01178028653926223,0.01546143688419347,-0.012632622237714781,-0.006160465731815435,0.007779887133831154,-0.013922962670654297,-0.008016778006144996,-0.006167467841725623,0.008368260815235853,-0.006861092968773165,-0.008629239560372821,-0.002562124743998459,0.0034017053790556494,0.01220693064946704,-0.006989313267659822,0.0008933730743853445,0.0021011306997608774,-0.0019861129118219217,-0.012319575787194668,-0.011289567144271406,-0.015180810095369314,0.005630083569910884,0.003928023010578489,0.006280769948468936,-0.010445385779416474,0.0011584669387906324,0.006348228652419477,0.008330036749706216,-0.005041938516419108,-0.0025865833015297976,-0.002050869649288526,-0.005147476463103918,0.00727682118134134,0.0004408717753055297,-0.008647931592834009,0.0026478403619356215,0.007122521925799605,0.007110757580498135,-0.007827047344439992,-0.011764852956822803,0.0015579100316614693,-0.013172991645876974,-0.010963076526101057,-0.011482208759454706,0.01340516492962371,-0.014205462372368255,-0.005982207934099074,-0.0011621540652641182,-0.004125981885396045,0.013185636513392475,-0.00019503973433280495,-0.012918241265180125,0.0051077732839203485,-0.014906072270031882,0.013220407702271512,-0.008171295133478643,-0.01395210998397423,-0.00852017162828764,0.009130603679940258,0.006894812213148815,0.012697688151247855,0.014040258605214193,0.014609604982001319,-0.0022875987175387854,0.01550793371707555,-0.015130914456646652,0.002985196524306212,-0.010162311458342205,0.008525890065371343,0.0036620450603273643,0.005927296971050891,-0.010706489964975394,0.008402782884751476,-3.4794386980121266e-05,0.009514430915870184,0.006151316971746509,0.014152536751199454,0.008789410326193355,-0.014816344408710424,-0.013882281585870456,0.00805965343097512,0.0034001118420685927,-0.0049466371800723635,0.009461459800642662,0.008695924248639804,-0.010705003631522467,-0.0022388457389838634,0.0026012307244060017,0.015316748126809995,0.0035049907643463296,0.0009033235879820477,-0.014442436109248781,0.011768202285865262,0.0022459515609924495,0.010465095861006057,-0.002566951700553838,-0.004637729279263359,0.003288299739024754,0.005380996785644792,0.015096909505904107,-0.008137371772652904,0.010301046767418992,0.007305217000739018,-0.012187237313528785,0.012440693572055916,0.0052622964571725165,-0.011467470663001385,-0.008234081842154444,0.011988674995240183,0.00140942469110358,0.002549245383028524,0.004325751368272488,0.008216330478056207,0.0013933799784903896,0.009051391087953976,0.01555735413910224,0.008101535651965436,0.0032035053218454146,0.00039469668022584347,-0.011511437816435948,0.003132144579701223,-0.005724119146973312,0.009965536828696168,-0.01206205909776413,0.003251459905210265,0.010042739399446853,-0.0012460989497302588,-0.005205534925383707,-0.0009018378169672932,-0.002807835886712074,0.0038030700747750433,0.005454300953288048,-0.00647104005926617,0.0063873950637092815,0.0075437632686413845,0.010930477133741148,-0.009745574580405786,-0.01325726097424345,-0.012294875998857206,-0.0008177201662900105,-0.0010115468764615512,-0.014193090437575214,0.01394464504022305,-0.01370183358858243,0.005898694752517334,0.0012313081837578574,-0.012207464714081984,-0.01457165806536534,-0.00870701395127626,-0.0019549991752205544,0.00456679600868834,0.0010817275289173554,-0.01330022506181299,-0.014575263336236913,-0.01540261915163005,-0.009005127795243432,0.004083852026504765,0.0020545365771350676,0.005506996840252104,0.00951782262367343,-0.005241553455449654,0.01424051250821293,0.0023041727875622925,0.008662896991277027,0.006564058707479101,0.011492134523594884,-0.0018055984819320588,0.006099983132317258,0.011743062832157806,-0.008368461516578527,0.014310083021483039,0.014964774841158171,-0.01165306507042826,0.006406066640987124,0.00588500748840827,0.004727886742605983,-0.0072736178654739655,0.011765667960955389,0.011098854804479039,-0.015326239606906183,0.007555795785154776,0.012012929638646457,-0.0075813572079746925,0.014261284925891604,-0.0027569774113813967,0.014559288248477752,0.0014369976207758875,-0.011301580252374736,0.012250080687445729,-0.009283205625206693,-0.009659020321421383,-0.015075226707875616,-0.010152299421331482,0.0032715368940601335,0.013670446755767209,0.013192274285968964,0.0018663180834168902,0.0006082915458395649,0.00362977881011099,-0.011561356273896393,-0.004124147830048514,0.0019910617130357586,0.006062090817164988,-0.0014331878925730145,0.008804732548536915,0.004337212329820216,0.002999823946433931,-0.00479086524866422,0.0123034529136435,0.0015031030056524275,0.010690000303568621,-0.0004043761682623709,0.015208577953960193,0.0013114237793343784,-0.0017640048086226326,-0.004656234051757555,0.012954033218793142,0.007540633349687357,0.005388518053027412,-0.006324661594752875,-0.007450465161121278,-0.007914622072403121,-0.014587630201349042,-0.013175916912969234,0.009016199853567879,-0.009258756424013859,-0.01240389511591253,0.01473302993271161,-0.015280300187524106,-0.009535649673576545,0.00977338008159289,0.00027431238593335843,0.0033812029294529775,-0.013512025614225619,-0.008597896486002567,-0.009515097619393452,-0.011028005244285755,-0.012875944271226633,0.0016541959087649257,-0.0032020078205040564,-0.009981516649122094,0.01375452088393003,-0.004970881991809216,-0.002276614775835693,0.015104702990696998,-0.0153864182519432,0.0013535773412902622,-0.0008633502970752032,0.007055820954713208,-0.01250770154756796,-0.002959796055537492,-8.24334159173351e-05,-0.004860105382634504,-0.012100751517405993,0.013323181864225625,0.01346670031331311,0.008210558163053704,0.0014081666048601283,-0.006406129245125427,0.005847395323315366,0.0002554450905380782,0.008855673023504821,0.0143965536091754,-0.001040060086276237,-0.00977155654354893,-0.012975221032488403,-0.0036095769865972295,-0.015444898365296012,0.003976011048431156,0.004868139299071923,-0.01329589823574106,-0.004705904813732747,0.009761839286463866,-0.01044629994189365,-0.008617412997686268,0.013474717650702156,-0.0025091047637239685,-0.010317833412311773,-0.005041467417227323,-0.003899001251739434,-0.011824031308307989,0.001994601001502356,0.0005156559396673108,0.0017193523955195923,-0.00847502956625702,-0.011179029335490797,-0.0004940634745650938,0.0009615293221965977,-0.005836691886177576,-0.008630078170226138,0.0036827612623403397,0.0015945276477512171,0.012953296343606245,0.0068420543917464,0.0019707286027681697,0.005105124267291133,0.0039338660452186165,0.0025812607350197557,-0.007028357693823479,0.006780930142312551,0.00871677815551256,-0.008067605475067569,-0.008318252983413427,0.01248210739987848,0.00805747169983735,0.0033587213583853304,0.004920441311571707,0.014770710598448589,-0.010819882035084712,0.009713823590173455,7.049637284294724e-05,-0.0013548682352596993,0.0012237763392710275,0.00014765372940705513,0.007827835464084573,-0.013057981565358897,0.01375173712660615,-0.01481172424581685,-0.014507699480487617,-0.014019427707373482,-0.006858309876413489,-0.009175033067874474,-0.006406647105842722,0.002184726741482917,0.012536648342756213,-0.009399964497224635,0.005779077033107525,-0.0026470255999746974,0.011567854971353302,-0.0032657802813126926,-0.0014231499208477185,0.013800280930716717,0.004452552536198761,-0.0014466628485782541,-0.01474751412794037,-0.01289931736873657,0.009534044947020367,-0.00946893196690756,-0.009272162430541499,-0.011240773040330502,0.011097363596310406,0.00785808592835457,-0.010604954811312963,-0.008324511947837617,0.008776972497348323,0.010250634430463633,-0.008584280545283481,0.007465515496867087,0.012758972509549394,-0.007560791413615116,0.004675699975835186,0.005293833254122005,-0.00930167006880371,-0.011472532679139646,0.0060348034991183205,0.012512792920493003,-0.013466041402128844,-0.006785503842736724,0.010727568111466312,-0.013310148826590602,-0.01317962712386329,-0.006854348764684805,-0.010558341922107826,-0.006788615678729206,0.00629545693402217,-0.0015025711804328226,-0.011039501232066335,0.004932893303347376,0.010398198277629545,-0.007700463714061487,0.00881632496038611,-0.012002507148968737,0.007380530675997732,0.0026098036675277353,-0.002384693676676599,0.000850131290893866,-0.0013287310978592638,-0.006138030017280399,0.011303622260997213,0.009349967345365128,0.002512953754681864,-0.002280378717812544,-0.013350302868144091,0.005253158841178542,0.006544178931526868,-0.006607399168677774,-0.0122795840345706,0.010970364456523348,0.003309182160997295,0.003477657057731228,0.003098103480342021,0.005483028379832083,0.009879000148803559,-0.008002258000134876,0.0037167945990088,-0.00658046587470346,0.004529985329291533,-0.005580813838379715,0.010888424596710853,0.01009873017028717,-0.013826087536746854,0.004881469259377521,-0.01261127933837671,0.011332165870686915,-0.012883023450409732,0.003893834967196414,-0.0008908902212690055,-0.012387416844866963,0.007311931383247427,-0.01388256405599693,-0.0151583298328634,0.009134095058714244,0.009248614310787434,0.0134634459738897,-0.010659186065469575,-0.008973980812113863,0.013927336002950633,0.014193443248274233,-0.0024710666275061834,0.004360701271036015,-0.004959963583755021,0.011038270037143805,0.009778336636129665,0.010899945250076273,-0.014935109963370337,0.0013642302876525237,-0.004295325958143692,-0.01517900221278587,-0.004191771644377651,-0.007595405750716877,0.009602336976070894,-0.01108641494987398,0.0030866014485441116,-0.005530989315902164,0.009846201142887012,-0.008128676660165316,0.00592155012026644,0.008609249328481328,0.013382173626769503,0.006033968357398032,0.002948850399230725,0.0010453640488079657,0.0017354168602596845,-0.008763358297915183,-0.015400437026156512,0.002869697650991352,0.011693313251008537,0.012326191394450108,-0.013989680196620089,-0.011758373884890077,0.003601862077172408,0.013631959101458195,-0.01274970265959454,0.011972061755446926,-0.007769304232778422,0.0080549877752908,-0.002959530940109139,-0.001016487604749422,0.005148611747521764,0.0070470730929165035,0.00856130975079012,0.014883514132344716,0.005363012855366625,-0.002313390729395896,-0.011201568421715422,-0.010395041405282024,-0.014684678491338284,-0.007810481120758918,0.0012685602775233764,-0.0075575311162934715,0.014730085524163251,0.007355827477878829,0.001636959799864069,0.0010096589425939238,-0.0107122811902939,-0.015125670903523982,-0.013495479040305666,0.014213404493520279,0.0010693407485144885,0.012715209946331667,-0.01500233511619059,0.015624352501384064,0.0014507291944625411,0.014712961154568834,0.008832797550318362,0.004327078393628778,0.012717862610506257,-0.0007978219523791459,-0.002817244277564468,0.014386670487762912,0.004188175935791356,-0.0005964261523065151,0.0010089875315983368,0.01350009716075933,-0.008431483857038272,-0.007626712847065245,0.007387635133330595,0.007490424716539969,0.008319585364566045,-0.010126230769620576,-0.0010578379598433986,0.0037068055473102215,0.010721071903130586,-0.014066778726788437,-0.002969821062170308,0.006425516065944232,-0.010424321140424374,-0.014315333077336536,-0.005024648740312266,0.014913584450554879,0.009782083685808247,0.010317132123053612,0.010191966880803397,-3.932802532569196e-05,-0.012721016709554283,-0.0008388556428966762,-0.0028466333980457998,-0.013031092399043681,-0.007172002187487833,0.00840220818606104,0.008385884166207466,0.015550382088542451,0.004700301817673584,-0.014062274200013955,-0.004343564937228898,-0.006587398832520735,-0.0007673715962956164,-0.00849748998392787,0.0020888300143641313,-0.009964883393883631,-0.002444408796841775,0.014229523720829678,0.0070137628666201435,0.014013893855229376,-0.0006367795550048065,-0.014386140656850215,0.0033573741989444857,0.0007946535111763471,-0.009340965113455389,0.00910349274124887,0.008936304808402965,0.006610276163355521,-0.013680020100209717,-0.007309715146077295,-0.010600841219580067,-0.0115215359800431,-0.006120456897098101,-0.012801571781004963,8.316366641290242e-05,-0.009522735631483367,-0.013183543356317003,-0.0027307546809571563,0.0014432602323855587,0.008042719549706624,-0.0005453104618151489,-0.008627976024928138,0.012751986165076105,-0.0035172160859493554,-0.002685606227053692,0.009116831717962879,0.0048249832741886385,0.002356912465010519,0.004535033730571323,-0.00010995966675974439,0.006380553297211322,0.009067164480386601,0.0018986086909237505,0.00751649571728658,-0.008088111290356553,-0.014184489117639108,-0.01230989492568418,0.008040118885645119,-0.010967144415369988,0.006288561129007706,0.0020048483210336975,-0.0013754753647988878,-0.007662396060225622,0.0007800882837822112,-0.008809694339902432,0.004366588793164563,-0.0017453656476354822,-0.0005924815183741099,-0.0016367126941192987,-0.002536230618015615,-0.014672079225663964,0.009171108241314552,-0.004239185119417517,-0.0016297861586888965,0.013267881427212826,0.007639815326455687,-0.001010882264526277,0.002227947410425854,-0.006641512457252724,-0.014970886631254787,-0.005475210681899197,0.009037009643265814,0.00020445173841654798,-0.000708009559502152,0.007991342603833211,-0.006060737796827188,-0.0027654574635565393,-0.010168155757612752,0.000793437103742127,0.011405412690706277,-0.0131560235878223,-0.015203347055986926,-0.014725634590816342,0.0018229112040469425,0.004616140907458956,0.0059865925636132175,0.014322707610740826,0.0035501168269697,0.015518083602877153,-0.01521359033838756,-0.010513137186702874,-0.0009023134183544501,0.001330660393476936,0.00742088658786294,0.007831533214209305,0.0059170823234044635,-0.00616563056418715,0.012961962283859551,0.010740067847848919,-0.01537988228312297,0.01404735117318449,0.008179746324970861,-0.015592818087099891,0.0014618090714223243,0.004577368963470389,-0.0007153540835306629,0.00350802619909598,0.006579139729963497,-0.012089654235824632,-0.011755052634348482,-0.007806598316076194,0.01271096263793504,0.01023995001714886,-0.004946295300305388,-0.0027708171494752083,-0.005822625536608159,-0.009386045769374386,-0.007308787116643872,-0.0002758146942084226,0.006991097892772396,-0.014323591247404472
-0.12091887433523589,-0.00887511091683408,-0.014677559516032689,0.0007623123552578659,0.012013297297122232,-0.004435794252973271,0.0002497344936775864,-0.015304361061557664,0.012359340285961473,0.008543219023610316,0.002331519881019279,-0.010895774328370536,-0.004991128418530267,-0.009370435707187898,-0.004734236018572875,-0.003981859272165395,-0.002935490754950542,0.015507858384608199,-0.0014645099446368437,-0.0061372901866693745,0.0104982163579714,-0.004255595283659298,-0.011598900935577087,0.0072558552913974325,0.002353237081343721,0.005543776574282438,-0.001297665552597086,-0.012987368544827092,-0.004079864786373497,-0.010449393326486058,0.015406284738079486,-0.012729503713399329,-0.007849770758466199,0.0092099559566007,-0.002443490143254498,-0.0020824761539998994,-0.00331744171691754,-0.0016586509026197023,-0.0018079930833070842,0.012455990525970309,0.014432418733971556,-0.00461502961779181,0.007714911671776296,0.012113007868294879,0.006980499180611173,-0.015037518132803435,-0.014558082583351676,-0.008756307401286571,0.0030100583242466013,0.0007851583506185388,-0.008077494624063507,-0.006215150002535197,-0.012141700296696846,-0.001154834690807842,-0.012770986832626577,-0.0037735788864991064,0.0042763214360086906,0.015310291685955928,0.003449242196266449,-0.007241879505219713,0.0012429351293462634,-0.01332779724518341,0.010522842514695766,-0.01547598988177901,0.012800489608831733,-0.014883826487192216,-0.00696887079069481,0.015442703884962352,0.0024603093931978917,-0.009662924996197773,0.0005642015851774311,0.004705384956719513,-0.014321017408602303,-0.00041882235598833875,0.00024746856870347736,-0.0070045099354549695,-0.01200469783007298,-0.006914643003128714,-0.00990696261126019,0.007332978810199085,0.00821712868562072,-0.009618102522183345,-0.013313840920120258,0.0047693777446495556,-0.005896300339094475,0.00013905465727392236,-0.0036330055894808824,-0.01345321536898839,-0.01546961836228819,0.006816753724297478,-0.015033258569303636,-0.010724244421980975,-0.0008295975801616978,-0.010553689886639742,0.01036593716536758,0.0051041184475007495,-0.0023636256865346775,-0.012800025608176474,-0.007809979180754441,-0.009212240333604915,0.015419714364574733,0.002663016349960485,0.014127167448835791,-0.008110796725537703,0.005633752036842465,-0.008566468501438045,-0.00185579796323709,-0.007063917663986011,0.007984330287983482,-0.004627038644970299,-0.0081456787900651,0.014064757855383223,0.014580486115117742,0.013659625844671185,-0.0021334472697549407,-0.00857947812137097,0.007662233428128901,0.004096335323595018,-0.007792254270684876,0.011274997742285332,0.01231997755223568,0.0050494288477423675,0.012777300315010807,0.0038897368292225495,-0.006406902909503891,0.012069471455342366,-0.005565152590764136,-0.015351743728863807,-0.010353208003344449,0.004579518131586514,0.013159016268811344,0.004026625671784894,-0.011935000308341909,-0.00403351797808453,0.014761224565434421,-0.009503448125740818,-0.007338885533708813,-0.0005657505998533582,0.008529849967782471,0.012710861332818152,0.007939382851288826,0.012630192643013273,0.0028014172894594014,-0.015010805362875877,-0.0015302518877418902,0.007575119031131401,0.008841572296137589,-0.008123732937279655,0.014211452682405541,0.008614500139556426,-0.006297789651267118,0.01234597633328128,-0.002732714715789286,0.006750508195616005,-0.006248418203698133,0.013793737891737965,0.00597084472574802,-0.010403804746089769,0.010970123386395123,-0.008604813747046521,0.005387942675972004,0.00861763455785226,-0.008182561658758795,0.01115250401409461,0.011189353475554203,0.0057566125222477185,-0.014744258115375018,-0.012981980048083725,-0.011608167885885656,-0.01075613311204272,0.0028306641699628182,-0.010287115312489062,-0.01179586016799904,-0.01241725307301059,-0.009380777050436453,-0.004526281092986476,0.007730101824248357,-0.011242442888645173,-0.0011069174980884201,0.005382634876205852,0.0010920623295578719,0.008527680922440748,0.0024769159761339997,4.314796659865214e-05,0.012774375182430863,0.0062064883101379115,-0.0014136269105713,-0.0035926767050240387,0.009603473473004175,3.3194077338621897e-06,-0.008970084472363424,-0.00559385105927985,0.005778893002936563,-0.01375134856568051,-0.01421692052983694,0.009702288567570373,0.010683641054293227,0.013376599510519342,-0.012206460413205035,0.006986308145141059,0.0006722215066560476,0.009340919352192934,0.0025203530947211367,0.005749747228574239,0.0008695161797869222,0.008065821717279167,-0.010462276276048583,-0.00908502752323263,0.006567721958357121,-0.014783824081651721,0.007783829652802492,-0.01292570180701777,-0.011897252773554332,-0.014291955639259248,-0.0014974839985448796,-0.0020019053078552083,-0.007592153257093573,-0.0019729645817248144,0.004448817662351226,0.004471411946997217,-0.009436143867399768,-0.013586090986906219,0.012458731400140997,-0.006891904257463079,-0.00011061528135079476,-0.003761826336818319,-0.00014480468927049323,0.008483903948775032,0.010764161368058474,-0.0012070375082355277,-0.014571208435856329,0.012275464256405192,-0.007257175114988423,-0.004815945129139035,-0.014702012917847028,-0.005754884924415421,-0.01066427521665423,0.009910535608764849,0.007315373855045909,-0.005454354065275616,0.0009681154746717727,-0.006631884245394095,-0.0026438023479420786,0.010355012272248821,0.006227343523100474,-0.0061370561055302565,-0.002866373276746355,0.0132604730403951,-0.0037763993579262656,0.006541596181368167,0.008090026349746315,0.0018819935722715342,0.015468743521594292,-0.004627030039378911,-0.004547722085248774,-0.00491808606079263,0.010851016421841126,0.003867156192335481,0.009250595229103476,0.005277767852590848,0.007244746329479513,-0.0052633195456813185,-0.011069616054357776,-0.009607105599972094,-0.007543277341382472,0.004391435336066753,0.0007952368927244165,-0.007257499370296294,-0.011980038351074612,0.001525825354970551,-0.007995669533544279,-0.0003412667521618102,0.00784035700772802,0.0005931923458730622,0.010996719832220864,0.011819217046433721,0.014992993353616023,0.007933423340473214,-0.00429311622357029,-0.008010886115098842,-0.00883804029320931,0.013834470224381102,0.008113098317575063,-0.006547670515691349,-0.010620815053921099,-0.0064310011355935524,-0.0005950253074775251,-0.010821954165612106,-0.00023806236450270649,-0.007305687120815682,0.008223917761463945,-0.010122248311539194,-0.0077728336488816704,0.004970138342916593,0.012375116119489202,-0.012534048537144252,0.003789963217197878,0.002392180393290696,-0.013122121023898002,0.014317835173491382,0.002078514845853807,0.005214709615631516,0.013708561921038963,-0.004615830525420818,-0.001155285123137631,-0.005298553294777297,0.013256439080997072,-0.01113140630108796,0.010969827947835912,-0.011495373994457436,0.010589695126158344,0.0014203385318309059,0.0023199757990914303,0.013986544375446462,-0.009440625709416294,-0.0012891112396688116,-0.010980446498298681,0.00762248267534019,-0.0008929584325690319,0.0046453360896741396,-6.138765812664648e-05,-0.0038300681505272077,-0.008656987968741828,-0.00541945848563323,0.00874225286417305,-8.732799029833728e-05,-0.008284297445740323,0.010397038555429377,-0.0019196170460451904,-0.0029594624748682254,-0.012070654914086144,-0.007751337952683145,-0.013699978102236186,-0.014773041291513252,0.003671808997673706,-0.012100557333584568,0.012580685114663367,0.012973491066114052,-0.006355664855910825,0.0069293537728917914,-0.0021072591238113815,0.0068026263116922545,0.012570190973330373,0.003168318935644409,0.007538049098408703,-0.0017759844973111623,-0.008530070454626518,-0.008348042917907868,-0.008472784887927614,-0.004666368960776376,-0.0008326734814330057,-0.0017145728419056636,0.003841614442453413,-0.008243681591704157,0.010025533689834689,-0.012642723044659375,0.011734627527500194,-0.008693579167812132,-0.013972167600308429,-0.0022831588746261774,-0.011180438757053695,0.008106570298795319,0.012804829385718981,0.006926979893976112,-0.01416583396144415,0.0027827412933438544,-0.006590907281793394,0.013562576372068355,0.005159002046693565,-0.004398112959882471,0.00023595036998588434,0.009704413623818613,-0.0063320909900683175,-0.0064370540374971835,-0.0052669471747699495,-0.004229692654263647,-0.010748121106476386,0.010587455660796889,-0.0009621412239765948,0.012114836424032023,-0.008470127560590929,0.0002497655619987972,0.006817735514155571,-0.0051762465921729485,0.00629014838946561,0.008411241790672605,0.00828802597468499,-0.010482135470087403,0.014848654300971285,0.008379412011738169,0.013856635485262937,0.0017042281503004443,0.005258240479560257,-0.006369063413842076,-0.0029948293036401036,0.0067102739964178745,0.008202600870353311,0.0007530874724362251,0.00968832543480181,0.0035060736573316147,-0.009735661754774628,0.004417337230468742,0.005374034052258236,-0.004351170819673577,0.0033702921981787204,0.010518093664138247,-0.004095458719440865,0.009149207458642826,0.0004682373039954214,0.002009255520526317,-0.009809632579872269,-0.013297962489803654,-0.01047593899892887,0.005332504866005207,0.003308290182472636,0.015079935957557938,-0.001635021715693557,0.008389139053352274,-0.002201413478486274,0.003583637273181204,0.008517074442901985,0.011104218155458784,0.0006713906146379248,-0.00294243364992371,-0.009398439071339127,-0.003661943601815567,0.00178430488434771,-0.013588055522627585,-0.0014719432242335205,0.004392387045769247,0.009999607859165757,-0.013206511132177898,0.004991708964416631,0.007421628175481744,0.01493119481293894,-0.01109373398345788,0.0036334977921681534,-0.0049891716170362204,-0.013125824281353999,0.0018732802157954767,0.0106983143998997,-0.0003535523946270082,0.012646528127948302,-0.011369519034004603,-0.00907692219380542,0.013773903446255634,-0.0020949044825261387,0.01439855486220171,0.012302366968933241,-0.0020991241583630457,0.00015782689988210613,-0.004293949195010412,0.007081239000724757,-0.0007380955566043609,-0.012182213540061902,-0.014842494170515742,-0.003832100090346794,-0.003626678640708758,-0.014226615339611087,0.0027870618866537604,-0.012943661563963798,0.014568036197918247,-0.004976193660039228,0.008208994778514412,-0.011466924690893481,0.006061651671160696,-0.012892651013769088,0.008131570269421042,-0.004874536533258977,0.01255652403880977,-0.010466328284869916,0.013900433417796888,-0.0055756173647803775,-0.01100538932239467,-0.009041919414814335,-0.008369291247147123,0.0115684128277002,0.0130842522732992,0.004095390800138661,0.0010675444792442833,-0.00411135543346829,-0.0030761791120505443,0.010832792183326088,0.00736580881161366,0.013798088311560743,-0.004728813621209008,-0.006228285390696591,0.0025138915745999933,-0.008846793459260923,0.008913045238183731,0.008626674056206502,0.01077094425174645,0.011341276657218987,-0.0051332955628109155,-0.008311382294893605,-0.006998685227949639,-0.014828464824041085,-0.012362629880632754,0.0030057765690567236,0.009861971240783318,0.007109608158621654,0.010257967775692354,-0.007914208261910076,0.0106725728264399,-0.006442012478313077,-0.008330493246933055,-0.013193788900540057,-0.00273141863339749,0.005091474990963015,0.002890212943100764,0.001977488624130313,0.007009940686548425,0.0049340006928185465,-0.010644308257487254,0.007265525543351154,-0.00305771111680269,-0.015143808566247939,0.009405369737913385,-0.00785907657939321,-0.008063286521672788,-0.006413829348401113,0.014592155786293935,0.012170333955093548,-0.01182749233532173,0.012896413268213561,0.01262556086585542,0.011920180644174237,0.009932793771065814,-0.00569080128970775,0.012356614778276424,0.0014941656915953352,-0.0030452811301118904,-7.656255676124699e-05,-0.009613856805480058,-0.0038375433241581644,0.005240140710267814,0.009244318213361826,0.0036875640885099988,-0.009859352682263824,0.007596341434717658,-0.008704562734943017,0.010434005881385662,-0.0041392063031340035,0.010933849292684018,0.00722942570121461,-0.0007669414021121077,-0.009660704357808508,-0.0035376883296087402,0.003860561677311733,-0.009954140682994012,0.0072561520867611,-0.01034682249315735,0.0027120768899126825,-0.004869511246526823,-0.004153189668301749,-0.008776934142347117,-0.01287908479167826,-0.00879358098258752,-0.007449538449129024,-0.007274387943090821,-0.01521093440695448,-0.0010421395293659132,-0.0023698380488693695,0.006134197438698977,0.0048799696428222725,0.0123814520207014,0.0010017552961301918,-0.0027698819491757884,-0.009363520409163842,0.011261700865783951,0.012608799771991745,0.013943247607181785,-0.012092629700760821,0.007487290378108684,-0.004394643735697711,-0.0090969376882718,-0.012879288192540986,0.009360078749684256,-0.003688427011941199,0.009819619616462022,-0.005896588036619674,-0.012752639194980823,0.003589671517232034,-0.014117633230543762,0.015050229141661094,0.003726563844496031,-0.011982483080374993,-0.0015735292535980633,0.0033785121635382456,0.0035721819560248225,0.010370049574582766,-0.0004905666473865901,0.015416425345693385,0.008817751318155079,0.0005099705641858348,-0.007397952827470685,-9.485321362334016e-05,0.0093874384517428,0.002765842344640385,0.010162837586177271,-0.0016396458038988697,-0.0013002753212450167,0.0024700174456075766,-0.007478812606763335,-0.0069808317697515505,-0.001988084059585324,-0.0053646335032623525,-0.014474981770664815,0.000904526489364569,-0.003937623716978585,-0.008145829668892525,-0.002447269214304191,0.013886902214386036,-0.014016373821084206,-0.013519577652521871,-0.01447368601695656,0.0001358632673969587,0.001873588287679473,0.00721803996630958,-0.00035334157278506945,0.010648738241282745,0.013812592384412698,-0.011113622276641193,-0.005701628264556541,0.0005611945810324758,-0.012996624177487823,-0.0031279998059893926,0.011873296749201793,-0.011072880402902857,-0.0031795988977591644,-0.008074790467396759,-0.009250215928445368,0.01386143107671426,-0.0018414933854962144,0.00460633314016853,0.006932185361268908,-0.003185992892289765,0.0021288492383969397,-0.0062393795581423515,-0.015592381633924051,-0.012751845726731836,0.0010997163742595753,0.011113375350683602,0.008866187806143667,0.009711634090635413,-0.009538244934996162,-0.011989256902650233,-0.013227242420280842,0.014568877065195579,-0.011252744731816026,0.009504117407443457,-0.014272104023341437,-0.015503001896769494,-0.002557949373381614,-0.0074097822973723144,-0.007413558427530085,0.005420169774013637,-0.00040975622681818993,-0.002013985601383779,0.006531707046117382,-0.003593471550332069,-0.006477990591864088,0.0029044976095455657,0.008935299050482057,0.006729257813600169,-0.008289722881247599,-0.006371715297320533,-0.013698520894368321,-0.013796649902404343,-0.015065550455320834,0.014900905105115044,-0.003702337432740732,0.008645097398931156,0.006539394977737537,-0.010573630864556007,-0.008200127193050657,0.001673539889910692,-0.0003250483552057551,0.009385032778361599,-0.0016560369674880372,0.015535332307567366,0.009246488059923577,-0.003908915215625357,-0.007508681792523151,-0.013440982967602263,-0.007919901353155422,-0.01185025740754855,-0.01325414857630288,0.005387858016333954,-0.011613411200393987,-0.00934290609200484,0.009619978878972809,0.0017566121292024416,0.011103882020470034,0.009395612489509667,-0.001093202855839387,0.005973037518778979,-0.00020616040854870912,-0.013849872169737813,0.007359493329691751,-0.0009458111493577427,0.013834933941418048,-0.012924856618344353,0.01456491242658265,-0.014115433106152441,-0.012334990997920826,-0.007313419722698951,-0.01375140359559266,0.004926130882622899,-0.004178790223839015,0.008889091294741733,-0.0135287507290872,-0.01424283098427585,-0.00847080417659922,0.014946522058988273,-0.007585676785092255,-0.004582928691066728,0.006426383914591913,-0.011217959291481571,-0.003517231157964495,0.015113277337145414,-0.003192408106761479,-0.000528038664837898,0.00952736341504061,0.007833665811354293,-0.011160933896074605,-0.0019674409183415772,0.004402427461044307,-0.0020695583051783192,0.003715992781672693,0.009998640631697208,0.0071850472341150155,-0.014987961760261403,-0.014762225724369596,0.007114676612219713,0.005873568052375561,-0.005873764163109592,0.014609894357832661,0.006137311215476081,-0.0022149247523142457,-0.005809749438999201,0.004420709740920726,0.009541851015569095,-0.007953371332010913,0.011336585761806236,-0.006630224533038444,0.013593876114148494,-0.013039418280618754,0.005448618842876864,-0.010804177163951833,0.011641900631250549,-0.012635956971897705,-0.004485064026412841,0.007664413313994211,-0.011336210992603592,0.004813883784400973,-0.005417312159894411,0.011127646433457733,0.0004830400460518261,0.015236042285718635,-0.005166108306787404,-0.007529325686691922,-0.004185763557267311,-0.0030003643567661532,0.004575435578149174,-0.0010354323518513703,0.00779485444127026,-0.006285388176079716,-0.013934371390270997,0.010535015781746614,-0.005025467994921654,-0.002377557027270185,0.012237844482027214,-0.0016843629264576415,-0.005115903680100002,0.003985504403104516,-0.014479746143718508,0.008582124725535583,-0.010475220335745827,0.015440946720675662,0.005774572990133422,-0.009849481112724375,0.003944650278646697,0.005905970918095027,-0.011405697010399698
0.09122349590843999,-0.0035658149656969534,-0.0016751049947647985,-0.007079279480144408,0.007719383944575442,0.010423409074772839,0.0009201172965182525,-0.012879469997742459,0.011337101163777775,-0.009484773639977236,0.004474385785680095,0.007835445447297092,0.00396647004398968,0.013758252557573857,0.009031820784687596,0.014938641149443474,-0.010599303722937221,-0.0010212378479435118,0.005663569243036466,0.007221295080982942,-0.003594479028929176,0.001180369503497456,-0.005133481884373809,-0.0016046036235655668,-0.01438034548455134,-0.012372105872015093,-0.006281846531795903,0.006557754102718218,-0.009974753468750475,0.0048006689244139734,-0.001016696808546106,0.008418058538374039,-0.01274448689032777,0.012707165690836738,-0.004821563125231933,0.010482495572792898,0.006779137718828188,-0.0022082530755972688,0.0025985587650586236,0.01533524760434148,-0.011318173900174967,-0.012509535775948504,0.011808187730875799,0.008036503959095255,-0.007906818552655116,0.004399848767953962,0.0077908899281167,0.0009055503624286823,-0.0016245206718419787,-0.0018924972086794244,0.004908232334734777,0.013769574028061334,0.009922025173549343,0.007221654727801979,-0.008302307592302736,0.0008241450716385545,0.012703805136962135,0.0015197797808240293,-0.0009337643038600275,0.0070883344220660435,0.01301212378692955,0.004049012804700998,-0.013592048704048199,-0.013508124568789324,0.009638060554947803,0.005656295438954828,-0.003463320609185926,0.006372465937721364,0.0037845494702815436,-0.0026074510494091155,0.012199276547501497,0.005377088302037071,0.005033913257242124,0.011444934587170625,0.0029484191447357207,-0.014380936630157503,0.01302716159079952,0.00895957413216223,0.013738161649850526,0.006934640767016879,-0.005997786318963614,-0.002853680597275355,-0.013988601786355102,-0.013462208112636483,-0.007564641612354456,-0.009610312788664692,-0.01056357546024404,-0.010842853114462536,-0.009269159375329915,-0.01067275478083542,-0.000366259487352337,-0.003300111479980529,0.00911915511792339,-0.010936837800025514,-0.004524327750315537,-0.0030428104061204116,0.015547032291567186,0.004804172994735012,0.012043338170993413,-0.012803098933446458,-0.010228261049078737,0.005312943753765067,-0.009673676216994147,0.012577031859072831,-0.0144965779219238,0.0053369014785012514,0.0036121260894556857,0.008520572855967993,-0.00716553994147471,0.004922143478315225,-0.011652127814696319,0.0004517061174410669,-0.010559415708434654,0.00859882636025873,0.008352749272512481,-0.005980820805354992,0.014506772260461768,-0.002190010300565124,-0.00445316341292102,0.014107369318761434,0.004027378483112884,0.010497261321920977,-0.013781809504251107,0.01284262683977985,-0.01008506023350388,-0.006546341413119012,0.012886896713043286,0.011702717467020703,0.012543023430773166,0.004562721721229277,-0.00517503409839114,-0.0053317425712179145,-0.013008063679952594,0.015450116480154928,-0.014894793017071018,0.013813491879224933,-0.009963078447985076,-0.011791266579840422,-0.00908831601636986,-3.431241493859205e-05,-0.005441562835412219,-0.011008942080882753,-0.00046030172668497585,0.0024820376397600465,0.012933047447325562,0.007864800929032174,-0.012150876914129548,-0.005088630436933256,-0.01102676260554289,-0.007113534082981978,0.010901787464679312,-0.007095609328376422,0.01552204618944333,0.015505316061415197,0.003492353406201698,-0.012164209283490579,-0.0035040330958545185,0.0009738454632570833,0.008314422860737922,0.008857742375352709,-0.009683826386431938,-0.0074223977301254036,-0.0011957296055403557,0.009022973294252053,-0.007767572607417667,-0.012687799234451935,-0.0075076899875439335,-0.014360801340436078,-0.010053574190301964,-0.0033163077360113744,-0.01017283210893663,-0.013828182351904547,0.010800741065672371,0.003705816890284397,0.002700714286805874,0.004007432384490185,0.004349910261962914,-0.01008063166906581,-0.010536011689721,0.005231708869148483,-0.01552880891058601,0.013846021722907002,-0.012687041569175142,-0.013669582221600597,-0.00021183328661465663,0.009343544633721753,-0.0015968502172905542,0.004885801281079147,0.004126518513347331,-0.0043575398662434655,0.0025463277981398022,0.008577929387863305,-0.005898368944770223,-0.011861289016017455,0.002692565432462591,-0.005456632087833781,0.0003830607221957452,-0.014244482238580793,-0.00911979957541018,0.006871533726803927,0.009747846092329643,-0.009038484439025468,-0.00739548568973037,0.014905533802253483,0.014181258470637913,0.0032875001992124613,0.0058761959111351,0.007461629494483612,-0.0006768391813923101,0.012802338234232422,-0.014552764280678842,0.0112891354461226,-0.008638141573766408,0.01503920971414658,-0.007134317510115791,-0.013647819564815308,0.01043436810788871,0.0011526067946731205,0.005369871708749465,0.010247511504786819,-0.007122118328045717,-0.002251129702425426,0.011561724229361681,-0.006263217236069934,0.015533855717636814,-0.013184752588510186,0.0013563912429518828,0.00164551095827689,0.0009757689148467148,0.008968653380827014,0.012060049558450013,-0.01355121454259075,0.0024858270212396896,-0.0033668354606977762,-0.013669145448410823,0.0028661109821392513,-0.0009173940135629173,-0.007063971924179175,0.007609002351378296,0.009965066372857313,-0.0048317394965415005,0.014881234875157112,-0.015418995210238939,-0.013398144742081373,0.01474326307915437,-0.006486204826476959,-0.005935964887361452,-0.013004044791819686,0.009584544157470632,-0.0019539992767698597,-0.015023581295000062,-0.0019987800819805273,-0.001450103710991378,0.009350468977130655,-0.006196765041690193,0.005301023301043725,0.007396681740095758,-0.0007556821346069957,-0.009244775973906825,-0.010512457097128858,-0.012979010384139024,-0.005155594483344509,-0.0033217243699877404,-0.010366201136000413,-0.007834887105758033,-0.01041114849921168,0.0026760115582291546,0.0037918656525699206,-0.0027985010916453936,0.004423932257339925,-0.011727280833713844,-0.005072325779595923,0.014503551258024053,0.012436173203704496,-0.008155334234106004,0.0015710386604218713,0.01274128935167605,0.0019443027091643381,0.007989074514447634,-0.010219788203344893,0.0023517855378637413,0.015327094354823882,-0.0004817750299546432,-5.9320574597673005e-05,0.002834957269261586,-0.01438966513550973,-0.009045140061540197,0.008921455622769709,0.013406331595254877,0.008398000234052476,-0.0008617209667231688,-0.010577347658347551,-0.015266694934356877,0.0005040799824726626,0.007980088379468075,-0.008474177173923073,6.945955361761371e-05,0.01448386131221423,-0.006783359099799851,0.01197812468131487,-0.009788773243741049,-0.0032523170681948038,-0.007719916497609045,0.002104579971300565,-0.01006633059048458,-0.002964851449869375,0.0004021787903486532,0.005577397623295704,-0.0032377502247346963,0.005761961496648798,-0.0022057567773447794,0.001096843381641303,-0.012328958239209565,0.010522842565509755,-0.00788514050972467,0.009131829851558946,0.0030857603281628735,-0.0033887110044126647,-0.01258247220487316,-0.01310285121567212,0.004964303148419562,0.014191765905811683,-0.006619369406321236,-2.005456440815537e-05,0.014464009511123262,-0.015205226808134168,-0.012873966794077655,-0.0154034261945563,0.01214674597079931,-0.012450823681793385,-0.00656767392524477,-0.005457377345797592,0.013952331889163365,0.011463966857788598,-0.01152240627202703,0.0019927299160038096,-0.0022133203306735193,0.008211058463106845,0.009769677839872145,-0.013724163149585238,0.0029390835932582467,-0.000884375141839768,-0.003461341233462921,0.004691866550223401,-0.01231229715318792,0.01346313233622777,0.009230451797792487,0.012035007217903815,-0.0026706262590902477,0.014382671671628836,-0.013028189953553348,0.004548377877107018,0.01090070301826757,0.005287403512688775,-0.007085922190447911,-0.009344078417073857,0.004201781949139204,-0.0015004889992696973,0.0002452689839997404,-0.012954117461789028,0.012241413408468807,-0.014956163033294957,0.0002118931321954427,-0.012727837261191942,-0.002219310201005932,-0.011637073917855761,0.0029189112073264426,-0.003122256279005325,-0.005760490192000291,0.007414475122406783,5.7723314591121575e-05,-6.380457538489827e-05,0.0068684361300275975,-0.014061337671195934,-0.014538421844075224,0.014847253178248603,0.008422405586991914,-0.0034565657145814686,-0.01442986060264916,0.0135337233777977,-0.013801149182718454,-0.006360468080217172,-0.012374332088034795,0.0017365712199376568,-0.008346124613306444,-0.007306775751268101,0.008596285070120033,0.013786203639758816,-0.008372445914389974,-0.013970012197381308,-0.005077995439924258,0.01378937270891634,-0.01361576588875179,0.0070923645589484295,0.009299768082901616,-0.01070693771860944,0.010565508937535977,0.014728767652323073,0.0144206362027635,0.005857607187028659,-0.001903426491268279,0.00438662678595412,0.006157373451250732,0.00849700883833336,-0.007539570128259976,-0.00034695748990002073,0.010007505618672839,0.0014859503913975372,0.009162424855670296,0.0022459082767394044,-0.006985625322017902,-0.011774815955447,0.0037888209482295405,-0.005087782721081742,0.0009568667009914974,0.011909153809793111,-0.008163794458824668,-0.00609856588025784,0.007840208781224012,0.0006794860191462335,0.003355369397441735,-0.014915551416012512,0.00806445149399395,-0.010336571798729979,-0.01257000875734023,-0.0045268939514608066,0.002363802902661824,-0.004512267412971784,0.00284111333349146,0.0006207876305705777,0.011623745381977304,-0.008919678790800252,-0.0004575603013502755,0.008384222770600995,0.004748235546037307,-0.008732724325629375,0.006177561986094077,-0.004700809888592031,-0.003101321272720299,-0.011846473518703956,-0.01505029501698039,0.002527185874857371,-0.0031087189685501107,-0.01260034647395259,0.014709326128632242,-0.011427356242495907,0.010141069867625073,0.011314994028022555,-0.0042986081301839086,-0.0031481582966259927,0.00778523632774979,-0.010477488132972628,0.0012410503253588632,-0.0022721590617739507,0.0062030836840557884,0.004039787509054324,-0.013083100829926466,0.0011934390030703445,0.003530429174056459,-0.010163429298338224,-0.008113870805937614,-0.0011352702990326644,0.0015299847717042709,0.011179607791102232,-0.009390878804727,-0.01466616345783067,0.009285881585081071,-0.008599184804571341,0.0012679834449539809,-0.0065404737534791165,0.008388215515622754,-0.008006264974516885,0.007582803508222719,-0.0005725563713587974,0.009285129147895239,0.003921614600937127,-0.008614560788747467,-0.009729991716371369,-0.009203347687323685,0.009191832619093364,0.014223883017188478,-0.011046951706175303,-0.0036868461210525,-0.007118176670830189,0.013724817690099835,0.01386142164347204,-0.007340931793465878,0.0036788789821340048,-0.011603198143583404,0.014447572755621436,0.009738537804157506,0.0010934478227622177,0.011800734417392864,0.014352339582151439,-0.0016448434264350542,0.011425165125703945,-0.013805530532124785,-0.011991974723481616,0.003678975753880859,-0.009912500810808834,-0.003114216052238619,0.015452750950152642,-0.00521890527431362,0.015234311227954489,-0.014410129217686307,-0.01031507065147846,-0.014399617608373647,-0.005867883224331373,-0.01235754746026324,0.010532335944222525,-0.010912383418132249,0.0016700067217739823,0.0034272048943324767,-0.005063010382625037,-0.01466703408701328,0.007293348596739253,-0.015024420088096584,-0.014714606331263126,0.009449045178265522,-0.009858500208293439,0.0033211215683969565,0.007673062577265428,0.014054980131011094,0.014269397373248836,-0.00785882650440432,0.006798820891816531,0.007227343825485602,-0.012126622172334154,-0.014065407069650197,-0.01430883439865837,0.006361434369790315,0.009151713722758224,-0.009178378479916472,0.014620627095785928,-0.011425805476200507,-0.003778188074831999,0.012975990627600369,0.006739679057823462,0.003552171676251138,-0.011562127377328252,0.0030063580295600725,-0.008231172158171172,-0.014166126608313914,-0.004537520153492999,0.013009581535600341,0.0036252484542092273,-0.011812157235309966,0.01259869265807949,0.007588856112428974,-0.00334732289616415,-0.009183824712139578,0.007139083755236836,-0.0019351877351261918,-0.004635003544982373,0.0012840972231193584,-0.004683183689416088,0.0035991691437324163,-0.011378757632072438,0.004870651756021862,-0.014026533648677444,-0.00437471832929303,0.0017233692294040745,-0.013176154310350182,-0.008117424305891028,-0.0062689820328028015,0.013720273284347675,0.012184285079203985,0.006791904065280764,0.01313545534647877,0.0024469105249776187,-0.013124944154487707,-0.0031652025563924974,0.008586913847503643,-0.0012795881911612866,0.005557649852824104,-0.005401758248487439,-0.010263411602796311,0.007491372278797964,0.005493695539784059,0.005793743011924132,0.012724731261441809,0.007984838867938078,0.009398730430963934,0.0012567581057502345,-0.0020606954239758123,-0.00958892732569097,-0.0033165420773880686,-0.0013337713382417559,-0.005820122981597387,-0.013236923044513741,-0.015188279835682827,0.006447389148448229,-0.011852165276603856,-0.0025630421372394453,0.007695975608939255,-0.012818742777083492,0.006448043894481328,-0.005633838328717793,0.004999895224775586,-0.0072891484107454555,0.01138193497529698,-0.005542761779794336,0.0026324847382874104,0.008146061113318913,-0.005921635441138997,0.0026323277528476595,-0.008123068279671115,-0.00693685380000834,0.0012418511401646253,0.012065248698114067,-0.002408443063453502,0.010105125900836667,-0.009710397727122457,-0.007748221842878457,0.010973303560561752,0.013420750037873899,0.0060079540556765045,0.009235171367464778,0.0020538739088847326,-0.005596371410067299,-0.006448470805435314,0.00018013809066138938,-0.007286278245896071,0.003933818385691268,0.0030564368135251856,0.01515685025313858,0.007838592803935866,0.006800141518174894,-0.012253721030723827,-0.00996820175866088,-0.009802929403539865,0.006153449425958515,0.01363992030389869,-0.008670375319125475,-0.008850437591899966,-0.006007529936390843,0.00317885613810797,-0.005606369902763081,-0.0023020691171070392,-0.003267996487604858,0.00291970031686323,-0.0057749345180512085,-0.0013958553497795871,0.010914218107737492,0.008679611334155537,-0.0011267145265843395,0.014444195254684804,0.00012216866295212264,-0.009608605786470364,0.007587437087250129,-0.003676018760378573,-0.01285913345951296,0.0026849919672707425,0.014968160228500844,0.011024572422247487,-0.011946441424286382,-0.005946820940077029,-0.014456351131502777,0.004378554249479381,0.004445408499171305,0.000943314665209574,0.006967934912268735,0.00804710109490285,0.006180518222510834,-0.007388417271671686,0.012127375085598073,-0.014383635019204056,-0.00023532098055364248,0.01494671768306551,0.014938081379075003,-0.01318707471139174,0.015514902033891519,0.011599541488347742,0.005130371015239027,0.014381917522568788,0.007466608467108678,-0.009743481166759372,0.0037633288625399447,0.00277712073830678,-0.0027167525239534286,0.004892392490916268,0.003924073083642725,0.014379986263177108,-0.011239041768059468,0.008932844824795276,0.012433405275757767,0.000200784518613734,0.006456222935462238,-0.005254595582954172,-0.01121122073902913,-0.015300910704661918,0.007895108235306073,0.012394511888123776,0.005236530610826877,-0.004945817741634817,0.005834619197147097,0.0039842598620986255,-0.000967821882035078,0.0054627523561622746,0.005712641156002812,0.0046609293158370105,-0.006730159512754311,-0.00202521960421927,0.0059438080242941345,0.0006679498177140746,0.002349788787103783,-0.0011635618988286402,-0.0044736775518167925,-0.00039133262596414904,-0.009765168975762715,-0.0005233624059423674,-0.009460232873056409,0.011226312429862061,-0.009721296245232781,-0.013651417432255274,0.011299511169427637,0.0024979652267202944,-0.013482637980681516,0.012666928765097105,-9.65299226958503e-05,-0.014918093270955321,0.01334094418026019,-0.008230062277184048,0.002299882354270394,-0.014559569212168614,-0.013927618815111998,-0.013436019616849766,0.0026540264725035574,-0.011128080037700334,-0.0030792113328379778,0.009787547794802575,0.00872008937946437,0.00497727341430761,0.01542358688431394,0.0015522165255752963,0.012848471755671238,-0.009411842359520736,0.01236997314904366,-0.009986004419731374,-0.014427281661844274,0.005989665361583015,0.001755191621821632,-0.011076953716277215,-0.015616212061169962,-0.011542814393096592,-0.0003702245363177955,-0.005601869085325314,-0.00673252252870413,0.0012903285660211053,8.358420805201197e-05,-0.0019710538768401087,-0.0037413664308334374,-0.004446580997391179,0.005212183704793993,-0.005216569016312036,-0.005764999792701946,-0.003840452852818522,-0.013680732376680264,-0.007457299427988978,0.013080226807532444,0.013119049784642053,0.011778592944753835,-0.010835556200784822,0.001988708931261858,-0.005133086607711664,0.010283852953737647,0.007077499115159432,0.007214768275230342,-0.0006711852976650605,0.014389289770646949,-0.0002673156183202602,0.010414746543920935,0.005500063704729136,-0.012119644403412323,0.010137682541540322,0.010835686313306003,-0.0050706272542103865,-0.009763760187222366,0.0036707751008761627,-0.008626021572350418,-0.0155165972161895,0.007229751312391498,0.010964613888571353,0.007780542571917067,0.008840024733796987
-0.05260535472262079,-0.005826708112806212,0.009248745724874451,-0.008534613401518901,0.003261407300576672,0.014080753069316252,0.01247223977172313,0.013653640513138176,-0.001489130027366406,0.012287243198783795,-0.0011838301687411741,-0.011030042686158766,0.01171439718872435,-0.0102766114579853,0.012467553183605352,0.007865724864807171,0.0015660096942592544,-0.005549907689934606,0.006002205475545773,-0.00649660007550517,0.005440293047952394,-0.011042442795706917,0.004799462719227873,0.012509698360755203,-0.004198784256665939,0.006651280709267838,-0.013718014657559976,-0.011795600613353933,-0.0012647056649376029,0.002452421662952002,-0.015571138241933447,0.007191541823654692,-0.006248645354203233,0.0035902964970405786,0.010233497297751845,-0.01309206584160898,-0.00824355553298322,0.00766939620603329,0.014924938204861678,-0.009425940266936435,-0.012081915842981645,0.011769745377609504,0.00825789975861941,0.011241818762933932,-0.0023733470772696053,-0.009129257528623532,-0.009542117377186687,0.006506531251914385,-0.015462801703439794,-0.014418249981514808,0.011800399289028738,-0.01116901745575756,0.010598413451792698,0.0004459972292361683,0.01188873119940043,0.013314040532277638,0.00189017798995169,-0.013051063672211972,-0.005329674381578144,-0.00895672279978892,0.011808317559256439,-0.00175271411284535,0.00802994838007872,0.00011646585472786797,0.005375464985746977,0.010951588529690148,0.003721812711302737,0.006314029658021247,-0.0045532751983385356,-0.0062597436952180376,-0.013199497007747613,0.00904138826541696,0.004475324158883381,0.00677599613217824,-0.004788703372606184,-0.005667475005477311,-0.006877915835236656,0.015332839740056833,-0.00539160162251907,-0.013063569788789555,-0.008530737680969198,0.003939439425650441,0.00693786489754028,-0.013359675175515638,0.012667933501126497,-0.0034073238873231736,0.00663754246489957,-0.01093212427281906,0.010508544863587106,-0.009753532529704931,0.008482905423732597,-0.008645779356264698,-0.006543258973678821,0.0007475728939875803,0.006855009446549456,0.013773100351475009,0.0020695652919196575,-0.005355498809625808,-0.0016878080486892252,0.0006424949722378115,-0.007342076962518228,0.0017578631680991823,-0.007526838399522732,-0.012087190453306997,-0.012493786117906011,-0.013116491562269485,0.004991196678774939,0.011278484977566353,0.013970884244796908,-0.0021211082349804414,0.002830634903737632,0.005836078309229949,0.007027981110288663,-0.0035659627664607965,0.0041232085606497035,-0.00455608432824087,-0.009360102583000761,0.015165815215733777,0.0046459808884286025,-0.006555522402357419,0.011472610198669329,-0.008175102163086041,0.002701660785381043,-0.003769494509407001,-0.008539284050350166,0.00936524117349401,0.010666303816683768,-0.010351733011752958,0.00560343443652778,0.0033943341578622672,0.01060865459087363,-0.005539029391477643,-0.012340496220694601,-0.012321181253335277,-0.004230720942594291,-0.009648909095705795,0.005231957062627593,0.001424361717086476,-0.006218944224955721,-0.002299778156106661,0.012535648503283203,0.011794073602271998,0.002557822375246894,0.010462084048057037,0.010050188610513336,0.0010335595374554307,-0.009733693259352492,0.009119058505444474,-0.009668748077196282,-0.013515230506121786,-0.01498538202162028,0.00401841324412313,-0.009412855862351611,0.0035472060206278647,-0.011734098234447318,-0.00792294647325676,-0.007984466137768209,0.009890594781528234,0.013705095529757787,0.010167477423395556,0.008555314461612205,0.003194852648306861,0.002721566905581247,-0.010748975981754571,-0.00023474403117925563,-0.004661705507824951,-0.006248785145398859,0.004650701848286958,0.007032805916243268,-0.009912136042426727,-0.0011584295416414703,-0.003230049684005129,-0.01255413462255036,0.005876193591451133,-0.014303102492477907,-0.008423245560165039,-0.006659847965340665,0.0001521819601898733,-0.014193841764239289,-0.004000513171157641,0.011111132144983207,0.008455862428631385,-0.014297099963896363,-0.012783675422585671,-0.01254321528707941,0.014087762322687707,-0.01010477213492978,-0.0026844248254979594,-0.015109172280168285,0.0023887207408144796,0.013010780962556295,0.009929620382153812,-0.0020173267167925696,-0.007351138111983749,0.013716824034606893,7.087096830213357e-05,0.0057482039955163815,0.013610082299277411,0.013833249736748876,-0.0017410021800026917,-0.014197820492348232,0.0044834966034193735,0.005329100652753875,-0.014918167505077375,-0.008540766631632328,0.00984142758004066,-0.0033470903433826297,0.004628072699504965,0.011084432628662152,0.009010012992802767,0.006350398153131378,0.011206660970876485,-0.0032704436771460728,-0.004749045034721147,-0.01040567373966901,-0.010734758842849863,0.006318508030252912,0.007198951976682945,-0.0013603630009882788,-0.011593169038175716,-0.0029538257655661246,0.010407039498281066,-0.0002984201206992568,0.014515659139849556,-0.004937224170029557,-0.010763037999215956,-0.0027816926200334297,0.008056699508889344,0.014889237763274752,0.012137552507246269,0.015497066488774344,0.009203053682614945,0.008633287712920025,0.0016178858818995362,0.01302744746575091,0.010541075220419338,-0.0033448293434272885,-0.010068293914655052,0.014274274547101303,-0.002682121632620329,0.0034688660043267513,-0.013859069407509752,-0.001189356360788714,0.011794728705779849,0.0049092949818832915,0.0021095608523688317,-0.007080307397872288,-0.004627196421500508,-0.00779010595869066,-0.010226252531963003,0.00237403943909029,0.001446739963010285,0.014652491024506754,0.007681821156636751,0.013832570056068184,-0.0013846975562119244,0.008358894762011272,-0.0029942141744924225,-0.01018849535325516,-0.005819231924710604,-0.007158281688907983,-0.0034443459054439023,-0.006129983187989753,-0.0055401186295014416,-0.0029041803723270925,-0.012401440512350035,-0.004169406629704798,0.0035386909769365015,-0.009967446764975189,0.010896241551695196,0.006980499055123276,0.0021187195769610118,0.009606620209683628,-0.0032329809306986396,-0.011505799136211931,-0.0031143991238371665,-0.009968573096144037,0.003631660317642791,0.006685053168911409,0.0020261659439713316,-0.01337158005633006,0.008291904938486722,-0.012356947157182285,-0.005158666966826767,-0.009067443544352294,-0.00878895373955459,0.006700183461981181,-0.014869100135962588,0.004684103425471958,0.0029122457912804387,-0.011541319118973251,0.009231235096512039,0.012082209213195593,0.013746700593383223,-0.007142626803845494,0.004367941579031499,0.014470751821805657,-0.011182015681722958,-0.013521805974487766,-0.0010588740231257908,-0.00515461525799021,0.0009251353734778742,0.00791956340970909,0.006458822454274546,-0.006075743514343116,0.013085905226269692,0.005698374834037102,-0.0005972459270610492,-0.011981462284682425,0.00940481951257912,-0.0013782035540041253,0.00519033816380339,-0.004799667583473659,-0.006503074888734434,0.014162008535735673,-0.01093708812030991,0.012982621013023747,0.009849603101570877,0.003987744381357966,-0.01258968239323387,-0.010379922687041744,-0.006630986864993978,-0.009090091376781089,-0.005553858862489732,0.0016906484052635537,0.007018749001658352,0.013603046008750662,0.002689500455409277,0.008510228177491173,0.0052101041429528094,-0.01200416108749659,-0.009713685407173314,-0.0032500336254405317,-0.008448755790619007,0.0053618521998392045,0.0035158015928436065,0.0006755350216709755,-0.013934935507818994,-0.003901362294084304,0.00013491290499716146,-0.003305193824652858,0.015016872451519985,-0.008279291175145389,-0.0003112474596138653,-0.009195707579730681,0.0017811567009206565,-0.003992724708031073,0.0051975072389065305,-0.0066704659384052775,-0.005520723050385127,0.002510465095102986,0.010337647329534305,-0.001901606170120807,-0.001964702872026731,-0.01295175084499323,-0.009726862259815939,-0.0019670003001594875,-0.0005634975481931676,-0.013550143890195586,-0.010781786872713665,0.01399112376712631,0.006371898779026681,-0.0009101034065479262,-0.015020697850997862,-0.0018613942485583151,0.014850799169935404,-0.0009985580831330387,-0.004066577063123987,0.005659086975743018,-0.005436769529243379,0.015161661445344317,-0.0012763177754315873,0.0024666465463249374,-0.004180921309036888,-0.00930887394667063,-0.0005479927372871798,-0.002939776015892657,-0.007106221542773295,0.006102884628181447,-0.009737722742676059,0.0035918667040782315,0.007923274213825632,-0.011079331895654895,0.007551286031818618,-0.01264085747318906,0.014490662761567335,-0.01483877068169302,-0.011364833013171092,-0.007517463905758176,0.011941188962003177,-0.012620386428842043,-0.0010631123065686122,0.015030568077019472,0.001487595957816775,0.004693438051821437,0.0006858458720203596,-0.009399197600164205,0.010091810264260526,0.0077327449999390445,0.006818959905943721,0.0013955118130465195,0.0071268152276269085,-0.011936629236386928,-0.014322448344055754,0.0029751779637575714,-0.007839664842888255,0.010793081129573948,-0.005162769148719065,-0.013993302890568882,0.0022330759934805974,-0.007657331953868873,0.015373081564178308,-0.005010881946087422,-0.004157743677915486,-0.008353189108876268,-0.0013046382860202115,0.011697243448294991,0.008264389306815905,0.015377348668469959,-0.003768708194036234,0.006474363590907195,0.012298067044927672,-0.011106649559308165,-0.011990513023431296,0.0014801511112350722,-0.0034881399105730973,-0.011505255056822622,0.007126034155651462,-0.014220271715408763,0.010856985424540302,0.0038725026768327013,-0.013739182959632439,0.009165792229753777,0.01336566188479119,-0.0015418124386794075,0.005304058016243352,-0.015052396510181826,-0.009562884424933207,-0.002322205403308497,-0.007662642891238062,-0.011999545599750418,-0.0018829956396138627,-0.00010372664622459211,0.010365322351894628,0.009069291650025771,-0.0014559155294613414,-0.009597678658159484,0.00016332341262939934,0.01347883750048481,0.005302402631988296,0.003992945522317607,-0.006412812211963437,-0.00022194714758564174,0.01169273026313147,0.007081483050578113,0.009259958686622636,-0.00538665730758474,-0.004140903534484378,-0.0029252361556162177,-0.00991745369638003,0.0022334017810243236,0.006917113358531639,0.015169291883142913,0.0007525835642774133,0.006753506547913776,0.0014421189921411635,0.004943311668592205,-0.009657921793564428,-0.010541732671319274,0.0037892531803259775,-0.003902585683358247,0.0032859715352656182,-0.004221709329400145,-0.004517880817665185,0.008306358489200426,0.00687903890497692,-0.005574620274934321,0.007013777349573681,0.0006480175194687812,-0.01243393789259652,0.009700662359428847,-0.014326832196970805,-0.006184106113166158,-0.0005526921536921423,0.011359885619899139,0.0038930079325073994,-0.0029453596406295523,-0.013505948812326356,-0.014174761633301527,-0.012310712761052346,0.0017062601955118697,0.009676540668627463,-0.005212101720537591,-0.007201566840685047,-0.007825901742720536,0.011529630048580791,-0.009261076368022276,0.012362886367028507,0.014355786490337032,0.009566326506436636,-0.0005095361108529927,0.000549977217331003,0.009123631408826419,-0.0072510423778385505,-0.010550032510508452,-0.007866360062056741,-0.0031563301675769165,0.007820048570946425,-0.0018284593015261731,-0.004700736800102547,0.015479332465887669,0.008409355835626246,-0.015073636982926807,-0.005313295131169056,-0.005950849670356253,0.013126418199368219,-0.0027472907555148966,0.004134086235057863,0.011663634300037237,-0.0002682187594241605,-0.013087018550064094,-0.005858774033829494,-0.0032967549734658035,-0.004222946057907224,-0.015592298525228867,-0.010734478789358307,0.00040453771247659146,-0.00016614575962126612,0.008570852224604249,0.011362321846861508,-0.004745643897068512,0.014446857371195838,-0.00919388236368334,0.000843762936198398,0.0038165821862213775,0.00852542879032265,0.0030176846057440657,0.01008916515835561,0.007278030644478703,0.001438364556503601,-0.0034360793297676167,-0.005438179027165899,0.0001882879737527647,-0.01548057249487889,-0.0053069194764588865,-0.0038591584750586154,-0.015151757129785781,0.004132324136120927,-0.01252911008644758,0.01376016819170407,0.008456419987261056,-0.012567781399450329,-0.0027011677642765574,-0.015142681163589525,-0.008291857461818587,0.0029122773146155745,-0.009670239394177542,0.001384633255427123,0.008843259070825515,0.011876427725286845,0.008655856798163261,0.0035164520363379047,-0.011627875843679088,-0.0027318339168675397,-0.007410313446992806,-0.009612113066258234,-0.013576071656371053,0.006310772067583716,0.010853586856554638,0.003159650845096916,0.015061122733573351,-0.0037406464583116736,-9.167323448935893e-05,-0.001720383015932962,-0.0026660952294734887,-0.013877902303277114,0.010764965958904577,-0.0023736760434425303,-0.009381106140458041,-0.00046441427641021835,0.0010359558433616243,-0.01033727854555667,-0.006459158372039066,-0.01137972247517664,0.010725701411751965,-0.014062686345309551,0.014703988911345818,-0.014851839216888648,-0.015255931073310493,0.0030511723690284237,0.003452550040741461,-0.010100157680583942,-0.013324462213758208,-0.015000013999281019,0.002124117122382193,-0.003941050234654811,0.002058796848807956,-0.011760017892452287,0.007324597814787885,0.01119292276808537,-0.015456965074792134,-0.014647704838386084,-0.005815298353154624,-0.010047670948093246,-0.009677326451451737,-0.011972470062805109,0.00559922633169335,-0.009472766466435726,-0.0027438245372582125,-0.014218001104074136,0.011276320085756637,-0.007196520425567805,0.009249275787786405,0.004616076024708078,-0.015191903108448708,-0.001376596914345378,0.011401026825792922,0.014321030493029602,-0.014360328962093154,-0.01121464145076698,0.004603606552642789,0.004493535018162884,0.009038669866924764,-0.013195010021638212,0.011360642911177218,-0.014209745184199561,-0.007381118697952115,0.010394144701690852,0.006797093193347755,-0.0015631098507638585,-0.0007485187644644787,0.00776945919087651,0.0089651875937675,0.01030533680326634,0.013529764050026476,0.0009233880096967786,-0.0052071866942881104,-0.014416989323837486,0.004165104554312644,-0.0059489330874554665,-0.006966473074880495,0.011804330918924431,0.0008854254001353021,0.004806326453830712,0.005018827068325928,-0.004605628011135898,0.006542521863761534,-0.011367579359627095,0.008517641609111712,0.003687319514251025,0.006253009276310017,-0.015025474700739606,0.006228913298674359,-0.00560216333012083,-0.005586267966330605,-0.008035239672521875,0.007287035264013447,0.001610377042566844,0.013621152515680447,0.005544488433343957,0.008995823767228238,0.01414802000568725,-0.0039648557999869315,0.007853035144800645,0.010067615597396298,0.015434983623516807,0.004010523274444476,0.007680663930032777,0.005705624735985668,0.0013233822516192997,0.00517620403550164,-0.00034706550751831267,-0.010019166015497582,-0.010523265677543577,-0.013192642539073405,0.014926869442391511,-0.003358107655205937,0.0024291341200544346,0.004178081673007102,-0.015323293760328843,-0.004010850543861778,-0.012864267876670638,-0.006036877788348296,-0.0029277232806596797,-0.004403387498073952,-0.004865301601854399,-0.015433706446125153,-0.011488254929227205,-0.0015931426508613961,0.007856686711412354,-0.012126656950966692,0.010599109683834419,0.014854652570986726,-0.01032690172961075,-0.008831603699177279,0.013891300314059104,-0.0018403166807364202,0.005262827631725402,-0.004422797867531841,0.007630284356386782,0.015069232122752282,-0.014303990511585624,0.008802543413466576,-0.006653888952225635,-0.0010852843596927883,0.012143157027763165,-0.015295956776633535,-0.0023308750146471477,0.0015863705217049433,0.009280569162036883,-0.006402465287196121,-0.0061517464429724986,-0.005321161276422223,-0.0028124284882448843,0.013205474069949007,-0.003990886706000451,0.00989818755842075,-0.011235606239353019,0.008332378975440131,-0.01179407353337935,-0.0142517529832198,-0.006938781219149679,-0.013754112115862367,-0.0029737102257442714,-0.007889708649368596,-0.014565312770153521,0.013974377594915075,9.317171643120209e-05,0.008015905464142152,-0.00026032946175340993,0.002375683361159519,-0.0003464640897520854,-0.01403892245452083,0.0073234011149446235,0.011234698435806847,0.013079240245640701,-0.007664086967408685,-0.0015555176752604996,-0.0035219762696212797,6.978930147621618e-05,-0.004953295615465699,-0.0036142968328709835,0.014400154950323606,-0.01289744656416857,0.004024090219830297,0.011435445598939522,-0.00885548922159678,0.00961382456873449,0.003463193022054511,-0.009271512029438017,-0.006031007687384165,-0.00606702909805552,0.00592211484590326,-0.004208784016474371,0.01243525262124267,0.00820736969184727,-0.004459845360725002,-0.005081683549273502,0.014935983816903135,-0.013046705012357426,0.004354327826763909,-0.0018991389643219399,-0.005748537352417253,0.015121979315778439,-0.010792561468547467,0.005813291072825126,0.015047755766532594,0.011369783325596662,0.005175234346505967,-0.011910050654881904,-0.012527846096025832,-0.0006849248600841393,-0.007262700435394093,0.005804672722101743,-0.015454431983881946,0.00013675180095171213,0.012277120957824288,-0.01396456633988407,-0.015073027539236734,-0.013201208858399528,-0.011645511685217928,0.01286409116967294,-0.007823980083416105,0.007926880651466718,0.0021842286495683816
