-0.6621116830940348,-0.010346823442850133,0.015117850818446119,-0.010936675029251886,-0.011150369040149474,0.01044879821537956,0.011043772915404447,-0.01095359448638165,0.00628011510132738,-0.005804265146242927,0.0003311982435190153,0.003008597444676627,0.012783127270180203,0.012827293762032056,0.0047406139113682876,-0.004602833773090065,-0.0032775504810286203,0.011148430187954354,0.0008661379714074435,-0.009263269308630483,-0.006597396265099788,0.0005322850537911039,-0.0055072453589138474,0.008011783772978578,0.009520921960960303,-0.0043801431430943415,-0.005009812398916031,0.01294672956860508,0.005595173643060863,0.015013973464208009,0.005344722965493067,-0.0029574286078005475,-0.001890801628326045,-0.01369090480149876,0.0037593375255756435,0.014103671670310555,-0.006868212150849293,0.006976660994323487,0.01289803137826593,0.008139054975749592,-0.006182406523987424,0.00974260863188699,-0.0061782864982394825,0.015380982587320142,-0.009106086631580388,0.005891455681420653,0.013160631175613391,-0.01540572074705495,0.00476095253497227,-0.01426990263928372,-0.014829155289303748,-0.01217254728082276,0.005315481692184567,-0.014571154121616449,-0.009792285459392834,-0.005581254548765301,0.0014897970972255446,-0.013904568956612216,-0.005423716376421615,-0.01380215863918928,-0.010118775755344537,-0.014710204317288509,-4.023475838729751e-05,-0.013777808388045529,0.005775213709653778,-0.01152358708966875,0.0074954386834666445,0.009216255215176525,-0.012384935066094414,0.014935330377108973,-0.013215827343693452,0.012338693647195868,0.0015755351748915382,-0.01028413894938257,0.00027134357550902266,-0.008368885945489506,-0.001962369016684607,-0.013419868238129656,0.012075639821866057,-0.007109568736537775,0.005237911588422104,-0.012641028619209693,0.012008916481409119,-0.008390629748868242,0.004801363951989587,0.006812280192756478,0.0037943952879600958,-0.0065901010370566955,0.006208090547569208,0.00546515550320072,-0.0014384697942637428,-0.0017604678034283325,0.01358119420645906,0.013860423094368114,0.006607768548379186,0.01157021339875958,0.013025467400780935,-0.009315807334323661,0.00515223108655603,0.0009199310544566013,-0.011945543450604435,0.011844455140489995,0.0069921332940622305,0.0032000775514488093,0.011123101348245672,0.01511178210616249,0.0033766000441588576,0.008898328361859508,0.004993935324217165,0.0002810385749907329,-0.012908580637174896,0.0073392455737937845,-0.0004933246630671323,-0.005184128207096638,3.975752512890007e-05,0.0069734976331314,-0.0014870771858454396,0.012234986339408626,-0.004443794708117007,0.015558066815676931,-0.01371313180626509,0.005274226328670754,-0.014517265161398556,0.0076807533453614185,-0.012010526693459232,-0.008325482195378823,0.008261562584716532,-0.008004149797673013,0.01407984892540376,0.011932355503292153,-0.01250188585736214,0.01219572594755449,-0.0045907535446271,-0.01040973848331797,-0.011492357167252467,0.002557041144044349,0.0029257759252343737,0.010341839875223073,-0.0056584590157333255,0.003976723457986442,-0.012830327795581947,-0.008870373273258146,0.0047225752651630475,0.01109994013502574,-0.009095570346157308,-0.005488008919650341,-0.0025272318326327,-5.1331641258541005e-05,0.009889370261650713,0.004486813207616947,0.007095023999412711,-0.014300253352179233,-0.011971076687853965,0.009613613047792093,0.015113790425819125,-0.005995333397371273,-0.005414467304885453,-0.006441214782113871,-0.011407281775440349,0.005354050477707095,-0.013441496887241056,0.014145029994605998,0.0018427936447778445,-0.0020631455740144217,0.0005852331424540114,-0.01112766154414149,0.01376829751630217,-0.012825808360234378,-0.009973165745764189,0.007803132372766492,0.003270456641859907,0.0006222739916609508,-0.003661209570909353,0.007670454652171369,0.005927787645588923,-0.0011459698992015467,-0.006890401760834185,-0.004522383826828333,0.004211731443630139,-0.002591341858810922,0.0004777077062536744,-0.0054893296753085186,0.014629263735227532,-0.013298081726173947,-0.003776651722494792,0.00945123786716397,0.00035592291051743385,-0.014460538612786168,-0.008552004954992233,0.0007428624651277978,0.00789470219709957,-0.012621881956288768,-0.004030301005070815,-0.010507544877387184,-0.009991824963721248,-0.005365007355101377,-0.012070122672690177,-0.010218396492230088,0.008545810357508201,0.011165581001038465,-0.005827596268439365,0.015511105672834563,0.0032268696392622163,0.0013243081105910187,-0.008703919659990234,0.009532195973270693,-0.014526993468723472,0.007390371855668272,-0.004520588227258118,-0.014813274293445516,-0.015123619618913831,0.015449813909703056,-0.003473722648081542,-0.005324960652510376,-0.013108227609754358,0.00995454121383198,0.0074014109564416765,0.005168905821584285,0.013268873116434855,0.004813105721010208,0.00980095104765889,-0.010059612418834067,-0.0027957129896560642,-0.009642513839396398,-0.00392667303541875,0.014789849591855291,-0.0002642026573921874,0.012557707009199334,-0.010009387642795863,0.0015596751665566053,-0.0021776808101864123,0.012648981532734416,-0.009355212136260165,0.008156220139627978,-0.005602060965849427,0.01229116445165394,0.008731918773500064,0.000608716763426588,0.0123847665271066,-0.003686290397335399,-0.013542814285136078,0.008466372569450209,0.005311421169245177,0.0009472660994468626,-0.003645212176396906,0.011863833182157179,-0.007692510410396713,-0.0023184915210686004,0.0011014116866687046,-0.014213482083969244,-0.006127174172022205,0.003767381194642438,-0.0021855401407253096,0.0020013852367825463,-0.0002982648691615304,0.009668537236262889,-0.005532025049913909,-0.014630264915237261,-0.012258842882883394,-0.008353827897048537,-0.0020826694400469803,-0.002672110234548275,0.008158159043865812,0.014803492051868077,0.008073873558216791,-0.0142996768437237,-0.012642869471900492,-0.012497772061225678,0.011452770421243423,0.013784703959235704,0.01015313547530234,-0.0014830623727329177,-0.0029688810598622467,-0.0010776133237909748,0.0007741349430509525,-0.007826634550916374,0.008199214761166525,-0.009654319824600938,0.014468974559556858,-0.015623634199595626,0.013787381515557619,0.007525967264841532,0.008880214399171266,-0.006410353830674714,-0.014575318435508265,-0.005974140608325136,-0.0013420170751688096,-0.010128027089617835,0.0016892483847296864,-0.007245466916585539,-0.0006767513633447499,-0.011796620255893515,0.010098229438954626,0.009049628215388985,0.01182257582047111,0.0036221598168605963,0.014154369450073551,0.012244229755559336,-0.013789358173598408,-0.0039059511711650556,-0.009451168163507169,0.0031704053336319912,-0.006739771640533566,-0.006641209814182685,0.0031613310589850736,-0.0079052499390895,-0.006026871382754557,-0.015573860350634783,0.001634894151436611,-0.014759439972891364,0.008531515054268139,0.010099639818143557,0.013928715905740893,-0.009281304958212638,-0.009803841334793905,0.0021588402667481535,-0.0033518876174454364,0.0025590946790979216,0.009438169130910216,-0.011319943151491426,-0.010039651208087322,0.0011784556368539638,0.00041951540169234136,0.009341937860235083,0.013801380989022928,0.014129061076818127,-0.003898481484263628,-0.012463894648531777,0.01495827888724327,0.0019812780356382037,0.013070295523133175,-0.006854156498389594,-0.006528888477014976,-0.007317420641313421,0.003459193419556101,0.014452833818528198,-0.011409943485903577,0.005770363102265429,-0.01047296393023044,-0.010173403714411368,0.013885346496414604,-0.013855965748556576,-0.0025747830661029154,0.009406603951180311,-0.0021100891414825088,0.007520487786312802,-4.653912781306391e-05,-0.0018948602516024975,0.014431485950523813,-0.00235406664805227,0.014160650454523416,-0.013139085730599735,0.006080613017646369,-0.012036963299760475,-0.003549360825487482,-0.0004889915816696337,0.011299061638245272,-0.007625163591401307,0.0033995059730065127,0.0017672460882955689,0.01356980813744036,0.009431291893184843,-0.005852507882120439,-0.010055264205802005,0.00019988970645961127,0.0053809307193693895,0.0066816109370313875,0.0033768028576309644,0.010591320264761013,0.006529010574149861,0.010819321478227433,-0.008197632138284457,-0.0058602327335384695,0.013980759353385223,-0.010170786975013602,-0.013681970594690788,0.0067507528929951904,-0.014334964693381247,0.012316572221987801,0.015009030510815698,0.01297682449912485,-0.002475153252973445,0.0030942060189341064,-0.005925204663247915,-0.00609782342979957,-0.014657397067103273,0.009243609562909774,-0.015430993754591008,0.01138626967213072,0.0048967697991895084,-0.004663688586701947,0.012352060623917645,-0.008807375179389267,-0.015163245192401684,0.002523749592575744,0.007760407841597924,0.0064972441056717345,0.013885042025764415,0.007158551198796648,-0.010901175338351641,0.014206320934080988,0.008843413653554916,-0.013999523836776308,-0.0017154964165966742,-0.006970641140308632,0.002161095438130735,-0.014194386380732556,-0.007811379675783714,-0.006176671469260472,0.005177069486599094,-0.001632753034763186,-0.013872474905012616,0.004734939256130766,-0.008332825881381126,0.011305977095153165,-0.010355451799837597,0.008828919609153208,0.0018999523577097298,0.005280087466842248,0.005229220652295655,-0.012850268747407356,0.0037986825283364244,0.007234574144528983,-0.011035001290154712,-0.010022311676557163,-0.007009113877423454,-0.010103594404911573,0.014715574505352474,-0.009812033494865861,-0.007406809452303483,0.014514668657885605,0.012665190705471407,-0.005148489937334411,0.010309223564185968,-0.012713272688328055,-0.00865186382558059,0.01277056599625672,-0.014026945694757376,-0.013073428804945317,0.01452642625962472,-0.0031381030917312473,0.007902852826989507,-0.006950236188185563,0.015164514397334624,-0.003598798925201905,0.006002481655687692,-0.0056657886964256166,-0.006647439753704687,0.0035928444019540755,-0.01216582206693085,-0.010964435170585617,-0.0047299755537175,-0.001103238922461551,-0.006453378957138663,-0.0032493276855514105,0.01000529414793919,0.0008500283328309148,-0.013095853851282563,0.015163492679499953,0.006261436571041355,0.00020702381947842324,-0.005194853493952163,0.01382657702020523,-0.0004759107920362174,0.002799986208906053,-0.011890847384478192,0.008539789987181974,-0.005964574094574002,-0.013759461689531426,0.011197615843877844,-0.010355177453456425,0.006637275436065144,0.0043193739188174055,0.0014539779137544527,-0.0087417233244855,0.011325928538566305,0.0074281867634511355,-0.0018723916486502526,0.010959731710424785,-0.011272038916515938,-0.0023068780036838397,-0.015599706204065936,-0.004869472225814561,-0.012333442579668796,0.004893349379847412,-0.012906002894132872,-0.009862622199943473,0.00027245541183386346,-0.008942756861292395,-0.0017042437774989934,0.012844998451156869,0.009139876436691355,0.004998423658114572,-0.001744294161944212,0.010131699275931647,0.013281298400452196,0.005881237103966933,-0.006837653939861094,0.0029064890982138034,0.008079825181125884,-0.009457834698167255,-0.002461244389320553,0.0129110234737389,0.012477814122832127,-0.0042584031547036605,-0.011812317257968646,0.0061913195141760705,0.01430547736798857,0.01033076685257072,0.012635352296404976,-0.00949128687037016,0.0008391843493860442,0.0096321743783781,0.008351903130686834,0.0014805216875212225,0.00016348267152210133,-0.007790006082014744,-0.003237197032038005,0.00974455542334415,0.015346772877107902,0.006106867721728668,-0.004697047791272557,0.00746998892331379,-0.009005368990184302,-0.0029732586548192677,0.0041593663715501425,0.01431278288876809,0.006914637805198912,0.009489771453902,-0.0034059919430925525,0.010036180466364328,0.013418735601674097,0.0008671272314395469,-0.0016926365585159947,0.006425913507382964,-0.013072743232862512,-0.013339128554241169,0.01415245016271989,-0.004765607661758157,-0.003198777846338742,-0.0030608393419376823,-0.0012728180087306397,-0.006179308548482379,-0.015219409024072598,0.01360871461627488,-0.005395964409612177,0.0016679149767333985,-0.007841500527859105,0.00765652810365448,-0.008995173958307116,0.013120982202364566,-0.00857880007312228,-0.013308565618063168,0.006419794573034321,-0.004687445197998141,0.004507353052188388,-0.00655523646332655,0.011785881996430856,-0.008540156799839577,0.002145344860542995,0.014168832741996235,-0.0018644045712440417,-0.006826883240169432,0.000900277634117267,-0.001767073104468428,0.012653788559116044,0.0013914910512267085,0.003774983879864406,-0.00022437198641504091,-0.010562160290748517,-0.009348513762850879,0.007517242959657645,-0.010669052674524351,-0.0036342079344300407,-0.014597612546790498,0.013486598616620448,0.008476424835051566,-0.007413498640614094,0.011570395440158084,-0.0068867023773757224,-0.0009687780411546214,0.007186204463574271,-0.006651171574286272,-0.006052486081965586,-0.011309337356955183,-0.012208896287953443,0.004119529364387399,-0.01314035094554333,0.010255044003190234,0.012385176609247022,-0.0052410570344653545,-0.003243922733957655,-0.009661745630090729,0.015186478711656477,0.006383962993432964,0.00733766975240881,-0.012234412399782721,-0.0022712444789137233,0.0005698172993671667,-0.01300588857546977,0.00031357602510010546,0.002462210949024324,-0.010567481206577474,0.005743510575086,-0.006206927318545604,-0.0021433333959955114,-0.0007174575999024241,0.004925812677182808,0.012930891884729807,-0.007256403709957247,0.01323557419255278,-0.00930484329973795,0.008401090801435068,0.010514897495055235,0.0013274413369726012,0.01363646385645138,-0.007207398607020653,0.01521615038232681,-0.00824466427452875,0.007710872939152225,-0.00398969009884069,0.009084022004083255,-0.0013691548205147577,0.004000783999287293,-0.003985450727987297,0.0055996614540043885,-0.009640174918245089,0.00875697518137154,0.009026929691453776,0.007469284530585603,-0.0031874277252700763,-0.000404935073290362,0.008809976404442258,0.002305244193413273,0.0068263578322875565,-0.009985509208817848,-0.013781510111031698,-0.009242791900218164,-0.0030511226659517034,0.005143157754410287,0.0034591466115197304,-0.008214760374474255,0.015103597563258912,-0.008170609058109166,-0.0052879718631578775,0.0020697841805197917,0.0029385372630373746,-0.0006690309235902608,0.01336213581063269,-0.014082500220245618,-0.011532546197853155,0.015022864561324817,0.003019935395174856,0.012663229195934454,-0.011471509829244119,-0.009708020556562794,-0.013372847662422381,-0.01054921419600029,0.00031935082808673756,0.014822783840147132,0.00797229501890907,-0.008044794791009273,0.0081207306981615,0.012754283913397592,0.007155215677151418,0.011382576173212929,-0.005617180060858956,-0.0036678684941061253,0.009704213114941965,0.007565177067063084,-0.014691196301267452,-0.008346548841153656,0.008984545853810692,-0.0005911590110947613,0.007355785886697167,-0.013346268132951398,-0.011843949307983027,0.01188255836814776,0.007841209511658887,0.013834473455415237,-0.007559145716723774,0.008503545287266295,0.002101854286758964,-0.004324269305198421,-0.010645574387707461,0.009711539553791965,0.012734808351921569,0.0021367245381567167,-0.004123890751969405,0.012759169410818456,0.002428265863938673,-0.013071185271981436,-0.008804975457085445,0.008839682971187948,-0.003111276269199704,0.0018658619348050909,0.007432098540460265,-0.007100077496539906,-0.010119078724683591,0.01200391094140004,0.005343298995382835,-0.002281020637571282,0.0013900931828349297,0.009020278943733407,0.012009641134519158,0.014562398820830751,0.006453908837255634,-0.003833559828369259,-0.015302018929763291,-0.011954817490343259,-0.014221530979114862,-0.00746875364357575,-0.007977856609303877,0.006569929819458576,0.009012918016342054,0.012723154598369944,0.007524849842730195,0.014306535592815074,-0.008895611551033758,0.007635807149644985,-0.01154914194479666,0.012545900629174284,-0.0038493861805105854,-0.003686440431625814,-0.00014228714661686584,0.006269669842886419,0.008706614251748679,0.0034890852848654882,0.009651173925798139,0.01449226552107849,0.0012274195797827188,0.007071626652183069,-0.005717603808518615,0.012222078616441784,0.00883109647516913,0.00034890623405596163,-0.01003091286454108,-0.009775135704732239,0.01440547466247644,-0.004232011384217173,0.004468613808329108,-0.0054377616811994225,0.012441347632159174,0.00982964099105069,-0.0031397766083156274,0.007489453018943781,-0.005007716408588353,-0.006076937317830697,0.0053359887218360075,0.006598240816103797,-0.00772069731030341,-0.0003797106621586527,0.010362573174764137,-0.004476856410975238,0.0030149363033972476,0.0030621996262273944,-0.013578148763675333,-0.0022894232391287087,-0.015214708991301222,0.014030732411266893,-0.00535056410813297,0.013932735217019751,0.006022450580626722,0.006991269543559574,-0.008513113884621323,0.011246263532700657,0.0018397931623238273,-0.003101248913100485,0.007209773757511646,-0.00408108946797537,-0.009612786676568431,-0.003807761372105131,0.010738624169053385,-0.006183410567355198,0.006666548220388237,-0.005212350899318173,-0.013023956402587775,0.002622772117353421,-0.01198548344590571,-0.0005269260104976102,-0.006328177723536971,-0.008933683522030268,-0.0045309464702519425,0.01530593326140339,-0.007054351734146532
0.11588448607059448,0.011734408405974874,0.0060995793773735395,-0.01217794747944699,0.01004962134913305,-0.014284395084121784,-0.013050764425193605,0.011064969883080061,0.007540880864317943,-0.0038485453061667986,-0.0019916224394897204,0.0071364904545947756,0.003587984591509634,-0.01149722086264315,0.011331238734726159,0.014186904294566666,-0.014483112711471752,0.0063289817111014494,0.0018510725845310716,-0.006720634262031372,0.014348415898301808,-0.012746100313626933,-0.014462128054762165,-0.0101345461034004,-0.013567140398896085,0.009404414651343444,-0.006875732265097304,0.004065176624914159,-0.011385490817386865,-0.0034793547005636284,-0.0042772569455371105,0.0038275719613394717,-0.013137420866494755,0.010103145361059405,0.008406223210862106,0.006506205264224598,-0.01332952558613283,0.009186146074997903,0.01001665878270644,0.007184956154811582,0.012058608055534823,0.013988201752512787,-0.00032024947442932134,0.014319020260558809,-0.014787889055197574,-0.006777943910543642,-0.015032357823030296,0.011533021676779293,-0.0001583393480704652,-0.012991573204830457,-0.010799080988799902,0.00020370984878909787,-0.005557438981124135,-0.012993426096330779,-0.0005512222023461716,-0.0037897321070009156,0.014757848179816156,-0.00425149427507579,-0.012404832941783902,-0.003564607039907637,-0.011004772876535774,0.008317409909484038,0.0038859687885667332,-0.0072739049272943996,0.009797637775088481,0.008306494423856205,-0.0036802012407549686,-0.013350070113037177,-0.0075099946851531485,-0.003127815087938117,0.007875267328205766,-0.007860503318023971,-0.007513464546736875,0.007613091010546194,-0.009270826930618448,-0.0034138730258412666,-0.014068144785868453,0.011143535886944663,-0.000857487310555732,0.01323102730047355,-0.0008661960839168974,-0.0030253010577741303,-0.001742053144345567,0.005914119554457559,-0.0027621482155572447,-0.010601115867628377,-0.014977114252775748,-0.015383686370903201,0.011366766597488608,-0.01113590245013612,-0.0033011572994820428,0.015871636727097335,0.003886367157662727,-9.034899190508244e-05,0.02875529168039283,0.010635491513128276,0.027010665879486445,-0.007468704709566105,-0.011506990115427655,-0.01637623539908782,-0.006333368462645642,-0.0024542479456547465,0.015541343008540112,0.011497267175963598,0.006607840737201547,-0.010973323843880374,0.00774967738936978,0.0006277501230177102,-0.004809721605143214,-0.009393891661760322,-0.002136155741077214,-0.0017902240331216651,0.007003170864365207,0.01275073867884043,0.007384706031052964,0.01485994875474617,0.011075025300194007,0.01602127930647782,0.017122626357782292,0.029763331168140703,0.028595095145883702,0.007934023894833508,0.03307059183805104,0.04358159308461821,-0.0037058483614948777,-0.005702247053857905,0.005704753686615556,-0.018081919634476622,-0.006446519771802467,0.0037142152657878283,0.008346135253256561,-0.0009226226454653914,0.02227294610471154,0.0011126855931129862,0.003296758019753441,0.022144372678365748,-0.0051160887424943945,0.007451803929636966,0.00973059772466968,0.005013252223127953,-0.007318907458176337,0.0071739011828290435,-0.005036596091077185,-0.007945492328564363,-0.008548309250551502,-0.00057375001789132,0.0012610242313605738,0.026641332125086455,0.03744349210197377,0.0067040666721848025,0.011246998864356178,0.00950797170436274,0.004676256404403082,-0.008224020343885375,-0.014839929052898921,-0.030269789019009542,-0.0010146235985071979,-0.0074004697394533196,-0.0281260657648748,-0.007665918821575098,0.020859801316154204,0.01229487637277232,0.035555920962108384,0.006833995955631896,0.02127275984177453,-0.002357987320427517,0.01862279373741515,-0.0036254793183668624,-0.015236288206882546,-0.01008858651021759,-0.0023334333581806616,-0.008299201909023737,-2.595663160505712e-05,-0.0021903081501162772,3.7432191695112775e-06,0.036648427831480444,0.03882517941237475,0.016497209148467123,0.006979352442061127,0.004362106086849138,-0.005561952275759559,-0.03556966592813482,-0.02380312022530438,-0.04919100044852572,-0.026599508251631356,-0.0533306779625308,-0.04062305365519146,-0.023608657677133417,0.0022075585683386336,-0.0023743119214445526,0.01980401018711384,0.007619571573983714,-0.00021814626375156094,0.022925978582150886,0.002783402451080245,0.008504183724810828,0.012966541246998628,-0.012152136358865237,-0.005116599204628879,-0.009218044133948795,0.004525064003419833,0.015416774400664038,0.02871225617704524,0.00827289667267285,0.03102017451408715,0.004427483059581911,0.013026259843397881,-0.0016491019400373085,-0.020661987897282536,-0.041193878980376325,-0.0579977128777644,-0.0297827487505047,-0.020721174109052314,-0.043699963512306816,-0.029741283223342147,-0.03724420136459818,-0.02574414208011605,0.020811484184036277,0.012091503329424652,0.03720505707844955,0.01648292052046265,0.006720972839307229,0.01077414760985254,-0.005685410919486975,-0.010745786191490882,-0.0084177983406114,0.0017565221120573074,-0.002723578441411179,-0.0002808718987965766,0.01765997623349476,0.01567651974970512,0.02251155844100421,-0.0040856200265031875,0.0351302270866155,0.004421053579058885,-0.021084723927513333,-0.04357896245316931,-0.0729330191854149,-0.039701080847257486,0.013331570896414582,-0.01616380398667164,-0.08342744562579882,-0.09141173637205299,-0.0633616295875214,-0.00794667500421215,-0.013051709761670822,0.010904264644497562,0.051130398906897405,0.04790241594560673,0.029445666382599822,0.03848367621233205,-0.005242421566258585,-0.010808790529423191,-0.006053747228858732,0.006632615201228471,0.009027837937987065,0.007778856111591755,0.047807435331031954,0.04531183056386874,0.018855572452853624,-0.0037301073928025586,0.02257465774501717,0.010399422108108517,-0.062490150966025504,-0.0785616255834984,-0.07152929815068322,-0.0066321281696121335,-0.003393792306578937,-0.016156680873785745,-0.08092262823550787,-0.07847579655743668,-0.05598593890448941,0.009287276961422494,0.02516340828866537,0.003961359650147098,0.05680162419141126,0.023764453019867075,0.009622360086856813,0.035914917006235406,0.014571502195754725,0.007148942043910245,0.007801634069414785,0.0020226692395824814,-0.007181817722914193,-0.007062820139950662,0.038330678988106805,0.010906490906254129,0.020872743847311324,0.035356734932124045,0.03149509686259152,-0.020561856410591977,-0.06642823917682332,-0.06227743411763649,-0.04923814695369854,-0.012990378250056618,-0.007370184439945799,-0.028659640133479294,-0.05347646791073521,-0.05741889807415365,-0.04981436816013504,-0.024661147093228974,0.045818691289112,0.009072450493133679,0.04788453055727542,0.04492539687068888,0.030653698049152134,0.013626502710829727,-0.0010381432074681092,-0.009135807770442025,-0.002445488172330791,0.002845336754250657,0.0026054282999771693,-0.0060855730345628105,0.030770954645848978,0.029171179838824283,0.033516038071965404,0.03570212800380911,0.036589237783198766,-0.051805311707604995,-0.10581846721019895,-0.07151313029886552,-0.06958102851799448,-0.02982670573192187,-0.006171087128963636,-0.010834084230264775,-0.035643801468637736,-0.1048920447687506,-0.07326538897246784,0.0016945413631412603,0.04777021945037452,0.04003495133942526,0.055960117490389046,0.05876908356360218,0.018180151702660068,-0.0007198918566170709,-0.0018381172861297234,-0.016030239250098485,-0.013160054822979703,-0.00442497085764471,0.017052948471342578,0.023484794343743287,0.031178120652880413,0.003118989096217683,-0.004140933824145191,0.04566358567859825,0.03391099176647377,-0.0415819461168909,-0.08633470338358186,-0.05038474112871852,-0.03389188106074492,0.0033295835534654173,-0.041278237045923274,-0.032400133971047,-0.011961048150240136,-0.035652582901862684,-0.0807713107661596,-0.04421527402533486,0.032807204302445374,0.03182401682306144,0.051657322195367165,0.029676523738128176,-0.007410662063433214,0.03066866068779455,-0.007732979732493771,-0.002724163460832166,8.05650781905004e-06,-0.008264870169497089,-0.002088661934039388,0.0065574358924931995,0.04694468001165878,0.012512406911232928,0.021862837848527,0.05022093842909644,0.0621225627950964,-0.010487066240629981,-0.052282364844824826,-0.05399744342666304,0.0011644504700955495,0.029908045718707678,-0.005316615204951635,0.00872253828802361,-0.012419734523497181,-0.04104673700333936,-0.08909585342408068,-0.017636269260429577,0.05029226620356597,0.04824508488367419,0.01639121906952677,0.007483413297762499,0.016643888765505405,0.0254548159766591,0.0028944404595017182,0.005902340751078025,-0.008077691084079075,-0.015748185246856592,0.013538021693390044,0.012870504463264152,0.0220427089611472,0.03842085252212134,0.04226783552087584,0.03656929585410017,0.04391378846070252,-0.0072987294833301115,-0.03149638465452667,-0.04724545082595684,-0.05368578596476288,-0.001313006886228274,-0.03906884962492816,0.008718654772965939,-0.012161438057833785,-0.031160897107202955,-0.05057200107788147,0.00028913266384466456,0.03965771908548959,0.048744122357961814,0.029965551320697233,0.029196999528456228,0.03770315580516284,-0.013185397874646414,-0.013108854795776653,0.011543813912162783,0.0027641645249528203,0.011157323878332478,0.013264564133691856,0.0016387997028816685,0.00787617123101681,0.024602997864036285,0.01627091065489212,0.016120880851861388,0.03333972045155542,0.027208152778022493,-0.01821007896842777,-0.028665719898073923,-0.03268162491767963,-0.02521930965229146,-0.032969596942444564,-0.00018718353701554916,-0.036625960460843016,-0.04155599310109647,-0.05443958376142128,-0.007557931962319322,0.04990746362294602,0.04723325854995637,0.032063241587587145,0.02386537222715151,0.022319657436233917,-0.01635148391494036,-0.008840631765654344,0.0009528181389233761,0.005382433273889313,0.007191089795308122,-0.017556631475966922,-0.013007198000418631,0.040730073696559774,0.013682732892483201,0.014227471715677542,0.02754310709678168,0.00039074339298212013,-0.004358946479486419,0.02120907933537168,0.04767929483562924,0.03149901885919616,0.03218801458803239,-0.005182319501930354,-0.044199356609966385,-0.08343448058859751,-0.05662472952903963,-0.037406654619313626,0.006952804059267476,0.06836673113376941,0.0359436100540174,0.018694976173304352,0.0013556820000954395,-0.003061017036697938,-0.01174215718137652,-0.004669807809872845,0.014070969769376619,-0.005955309001402072,0.008165587084001464,0.001842717268189852,-0.013896677906771113,0.037133967835062155,-0.007326484088950146,0.02789018684020649,0.035566356807444514,0.01556103391073529,-0.0263112168955354,-0.01631670482609635,-0.014931023814796222,0.012205905428554258,-0.0037320818086727537,-0.019429548064240135,-0.026452348562410598,-0.038842021432586374,-0.03792474128073245,-0.013253588700123916,0.029015290518456083,0.03510211770045338,0.010875084207853292,0.033309478165006144,-0.0038236393684724554,-0.008863720560632725,-0.0006183526600905317,0.0017405862976767033,0.013462453455967558,0.0022436093702900284,0.009886232290718514,0.002163868775376018,-0.013249394028605083,-0.00025172440520756134,0.02005301180563762,0.052956548001166275,-0.002625865619014934,0.0037528687015091957,-0.011476331946702625,-0.030929889081127798,-0.02062485809315469,-0.0028767020471794375,-0.025093010800181094,-0.03076779967374805,-0.013615416295447273,0.019933372910641654,0.013927818894301551,-2.9229889675348994e-05,0.02480805503943719,0.05926328638518865,0.027848307544173712,0.047574073128396004,0.0032086292340108855,0.006106123222861873,-0.0018938309553400586,0.006364182271478523,0.010208346873149166,-0.003096451301079769,-0.013656171698083662,-0.008260867741837624,0.0017413848040572322,0.011084614804071998,5.089001992438038e-05,0.02142443641172339,0.03605681333309826,-0.018699806983561457,-0.0495391075213083,-0.04159365784043695,-0.020194169042983857,-0.016868923960224023,-0.024966177808487134,-0.046713155273468,-0.03187514204002032,-0.025558494607790225,0.020909335164947092,0.008460769150532428,0.02209406738211091,-0.0017789365257306847,0.04403424313223473,0.02789353828143291,-0.005929623400499135,0.01964197142876109,-0.010862121250782314,-0.014017889493019083,0.014808451632367606,0.006236963572304379,0.010548390248874991,-0.01532037055602635,0.003983744689549822,0.0025416625010368514,-0.010836777095470209,0.008818493054239563,0.012216512998613174,0.006358689707120453,-0.006740449820396073,-0.016819622450031373,-0.015810138864236333,-0.02939024460728784,-0.004425725970733307,0.021061956769396466,-0.01625057357679874,0.0029322619366557476,0.00685812850660217,0.0014722910577009292,0.025061581088839338,-0.00507815770863741,0.011054240626002484,0.020054525525257945,-0.0010584548679414346,0.010636997586728293,-0.001101951140311621,-0.00835579870330129,0.0042663011289825505,-0.01173646419261783,-0.006647572580853019,-0.004423143870684848,0.00556697973267329,0.0046019810392684294,-0.008572449607642744,0.004492870557598828,-0.01759535480114707,-0.016461793622080435,-0.00402970335428518,-0.022085435868610028,-0.015727591063516642,-0.020062800724396302,-0.013829272107960358,0.010895042916952686,0.0021754033665538695,0.011179106914154064,0.013714277048832121,-0.009595573590795959,-0.0037639456268321048,0.03002975190433343,0.031217225793542705,0.008060999838157829,-0.00471937118171295,0.013031133754697638,-0.011120027453053178,-0.006844058868949013,-0.014300474550175444,0.001781232430564588,0.005544549294658391,-0.0027249233925119333,-0.01804138960151263,0.004186688512741122,0.02058936085153836,0.025876798475036947,0.026807480332300692,0.0032105168265656,0.025211549579949633,-0.0006163378273647355,-0.021854157957133816,-0.029764237229571205,-0.03662535404380974,-0.02641226691022622,-0.01033763424316358,0.012713459216972244,-0.007057936944676387,-0.0158211484841783,0.009878565894697107,0.05382666324245065,0.030997362253152128,0.005158133924663249,0.012520265388338177,0.008878703756345292,-0.00015431823106676936,-0.008968582167367626,0.0020396495889923767,-0.0039199908433023185,-0.01200523427897763,0.004385481970272234,-0.0034943485441136794,0.007566982086171146,-0.009320689777273712,0.012934130340391732,-0.0025590931837101414,-0.006682341381434553,-0.0003139871270721745,-0.011233012052931254,-0.017108904465909038,0.002844230940883215,-0.004364760443639608,-0.03555649207861794,-0.007758978111229693,-0.004378024668180133,-0.0148360217140537,0.014185650762019362,0.03706472366026877,0.011736921357391053,0.0012613321092872192,0.007224909811978466,-0.003166362822254546,-0.0020063897740643984,-0.013930726775013141,0.0028507415409889623,-0.004369274800809241,0.00044842170611537543,-0.014999377846694115,-0.01135241059487101,0.009478768921841104,-0.014209388882120207,-0.001218956574204249,0.0008843519880258544,0.009619354987886183,-0.005882998257941767,0.006760215678913514,-0.01088681653346912,0.006175037130205714,-0.00775345129742226,0.004109792794668969,0.007081501912297599,-0.007016409587724057,-0.020998395274264038,-0.004198547584939547,0.014003276471391646,0.016584534935601268,0.023053292850617194,0.008294792360507794,0.008452731065659667,-0.008029326759488266,0.004160720837696997,-0.0013539550994522732,-0.0033216051755083076,0.005225777707267173,-0.001369840721659115,-0.005431796707248929,-0.00045242712181549,-0.003320403595926728,0.014341002360039656,-0.004677825641540038,0.003733401498080245,-0.00722777738016338,0.01380906858947542,0.005410891399591085,-0.009099512132036504,0.00695608313167913,0.015635821672394586,0.003969186873157598,0.0026363025473867536,0.00574731630527779,0.005957956510902657,0.012861312164007195,0.011878834656504259,0.02198116702738416,0.011075217621276147,0.014272769408254143,-0.0021867384532037503,0.0016661281166943651,0.009123207247524051,-0.010251618542908635,-0.0146664768061682,0.0034295285947611616,-0.0060155774926625785,0.0016009138593891352,-0.008961030171329695,-0.0018054824942160541,-0.0070529573099713605,0.011917840367500513,-0.008503292380796987,0.00713133663751263,0.0018363410134268092,-0.009307166251002799,0.01028183382836934,-0.014096222926817718,0.015573504656473508,0.009352354972625281,0.003012312146913629,0.00500177707613336,-0.008541550379137506,-0.005153573924984709,0.008427122230001683,-0.0033561841899675195,0.01600931108065741,0.009043075167207747,-0.014012179006375608,0.015461486076464567,-0.004907581821543688,-0.0031531304112866025,-0.005940988547507426,-0.00965175706473968,-0.0067422253713529355,-0.00603106283224502,-0.00045800048900467363,0.0014779599238687012,-0.011664258376842523,-0.013929309275799624,0.007154654142184001,0.006733195378884196,-0.0010904937052778508,-0.005269031181143046,-0.0030638810053110373,-0.013103794806808202,0.012197826700367714,-0.014692168413577754,-0.013992861379123742,-0.006931683601286125,0.004066913231007966,0.001589601729819499,0.0039011964174186595,-0.0072480747378598455,0.002680179439699875,-0.004999992364993992,-0.004143600334616686,0.010513608510136833,-0.009350232192441025,0.013997391351953256,-0.012026981748120925,-0.0033106114020061174
0.03254066019154799,-0.0013259860979956163,0.004883468970032966,-0.003343151923725387,0.004888687803254504,0.015607420470167707,0.004188863072749769,0.006782632690077818,0.015180849903957482,0.004176072209550973,-0.007413447696578242,-0.013859429798672539,0.01140887423142712,-0.011170871330613397,0.013044690421269496,-0.008813818102152714,0.004573958598283873,-0.009619694439172103,0.005921051866806738,-0.0031709090718719836,-0.007878340535429799,-0.009221225425985684,0.006900884207497283,0.006453819247426815,0.014913657410702011,0.01441714867947376,-0.007998188114176488,-0.015348064941839233,-0.0005996897464439488,0.004382020301559382,0.0003361070030067949,0.012548202218722618,0.007783922061364988,0.012788573706849847,-0.00966725467984134,0.011311743658787815,-0.007883914610402378,0.003381416125853939,-0.0019292695045358091,-0.010817526336119777,0.000239272495918518,-0.00572413443887978,0.003533389874137929,-0.001585074265304201,0.004174087728928331,0.012606030150327123,0.006333811495307786,-0.00770237529661702,-0.009130983453786663,-0.010678887884139177,0.010018285981219285,0.0008288939492731955,-0.014973898394631632,-0.012337433495820657,0.005303975536418808,0.0134058289447179,0.007455013105656223,0.013839895984984724,-0.001481774989734657,0.011801353648374889,-0.0002839716529156114,0.002545095682231692,0.013847353201214435,-0.0015720724345337689,-0.0029487613798029654,0.01161049599061063,-0.009619795484975328,0.01407831106752436,0.014624563680066961,-0.0056855279880356786,-0.0032305665877296933,-0.010704174602684541,-0.012875041889528573,-0.014223007251578336,0.0068811940096892375,-0.013576499375194678,-0.006537854689412801,0.004084576261675507,0.013976210018579653,0.013993202641971044,-0.008411134193645937,0.013391940171977968,0.015179406959181487,-0.003714623155976038,0.01385836489204708,-0.007637852776372519,0.011715674125163042,0.010280939477466812,-0.0003068000796013562,0.009018055243537926,-0.006610546361931495,-0.010571350124723171,-0.00336558318681732,0.010074672479800149,-0.012843175263693656,0.008699777486685326,0.003569940962978433,-0.004870832656031176,-0.01392969921858366,0.0077893258449664715,-0.006332953230199811,0.009227256819880698,0.011971919052385597,0.0018213364285273117,-0.006920661507015328,0.01619144442804113,-0.0131795331553223,-0.008268227013009916,0.014487080310383245,-0.0008862691771708946,-9.596935187057912e-05,0.004345346880516583,0.013133173326778852,-0.004397775136517332,-0.012168767847159038,-0.0055410270328448835,-0.014597838688412544,-0.0010375287365074959,0.016881251125997233,0.0051433531494736095,0.008517991388463987,0.0006272948266584022,-0.0019513424003225108,0.010907791356503766,-0.0089242807585973,-0.022812258312355612,-0.020147866980271132,-0.015711915462598036,-0.007695980998175333,0.010372254246474219,-0.004634922629226002,0.003186672306345874,-0.005989571852719191,0.015489163529046562,0.014368305923223483,-0.013600760515966826,-0.006999311800463664,-0.0036739096096560543,-0.010903987250802246,-0.003032528041504936,0.01182789921341923,-0.0006351682287418572,0.006641475975458104,0.013267400638243564,0.0035246649472254242,0.014925770640788885,-0.0010739925021113858,0.0021297847527546334,0.02474182737259876,0.0015773217563817908,0.012078243955550468,-0.0029644665243433663,-0.026829756648244794,-0.03463657630386045,-0.052966936471819624,-0.035261855252245955,0.002099805085435169,-0.00891824738474911,0.007269153789759402,0.004567848424862938,0.012246074525575261,0.03305079730640587,0.017520554190418536,-0.004180457186731727,-0.019436787976900644,0.006828009011646601,-0.014760880427561077,-0.012560796844243393,-0.0028833166403153462,0.013006695116718266,-0.004082365200464025,0.006225758230647264,0.0026779121952128023,0.00819355580875407,-0.008230463074699794,0.01725814878357981,0.020496361731175923,-0.0028530578618238714,0.0011674762149893262,-0.013412850492969737,-0.045924982947778845,-0.07270729428442252,-0.06922398639336734,-0.057803767141326394,-0.019681333780874825,-0.00501966758095635,-0.0024767108952402864,0.007015704813887283,0.010347162200796789,0.0022502324789559227,0.025650933487955153,0.015137346336248013,0.009162703167895308,-0.0032210607802980996,-0.00717737179329797,0.00831379039337756,-0.011534741850649082,-0.01229177047975135,-0.001555445316611049,-0.011054616079587815,-0.01560520879300257,-0.009344007597966972,-0.00412955601641127,0.007687645674066247,0.000882643250820226,-0.004162737849029353,0.013789358845306738,-0.014492417388526023,-0.03263954121622907,-0.07175998753108491,-0.08506748117628977,-0.05373742704206677,-0.011966526162076531,0.0295151483590425,0.02130178031625481,0.01677609635602321,0.006939913725753619,0.008759310516944771,0.018110992570741734,0.03959978689785289,0.023960511281482886,0.023598637153200392,0.026421859124949463,0.005843880533697278,-0.006866891020774769,0.014147053368659901,0.0005137141021478598,-0.0019818298589284068,-0.014339909668225676,0.0065290784790420185,0.017536123279633345,0.011985474767780106,0.04094306020522955,0.03191983616360526,0.011773227192510992,-0.02892173361545649,-0.06511754438982265,-0.12162532803415974,-0.09611607434160713,-0.08129804561151516,0.014067202455426728,0.038098442571655296,0.018467924801580785,0.032484134356574774,0.039845040939787885,-0.00630103608400232,0.026654377496818538,-0.007307629695451359,0.01827486278084847,0.018985739752247478,0.006675591906823355,0.006642782420845979,-0.0023163357150233154,0.006031436355143735,-0.01344513240243871,-0.0034754810652759516,0.011815298597690108,0.025438680970687175,0.012476828439375035,0.014874251230646398,0.00775655197140809,0.03343685660864906,-0.007703924971431666,-0.01747265649492959,-0.0708764425399275,-0.1185753118904419,-0.09444835697426657,-0.04510210915691128,0.06004460112133414,0.05917625138741133,0.02425067158967949,0.03627627216606274,0.025772975418065367,-0.009365869825523954,-0.018367540622004942,0.006114865742367022,0.009672860076034606,-0.022876434293745893,0.022754643453521347,0.0019801804037004427,-0.013973534693976532,0.012586265577848022,-0.013373978658837658,0.008463984220668604,0.020273311765690392,0.009401161673017007,0.026756678925677957,0.017251564068321793,0.023746123636774946,-0.0017650904645027344,-0.02149402847498937,-0.032430214521505386,-0.09419863511492028,-0.10992073514738045,-0.059558519431854265,0.027631400425272304,0.0885646948285343,0.00816717006140433,0.012710100605302286,0.006469871449965656,0.008696065798935013,-0.0024544328029799884,-0.03583856133467914,-0.01759698741991893,-0.019844893811548046,0.013837871235164776,0.026834155850364562,0.0009168873680363309,-0.010740790199449065,-0.01506963330920627,-0.008075643471203273,0.004151589804872713,0.023421568420355223,-0.00418455365199909,-0.0027014817956000866,0.026984657332884826,0.052623119157150136,0.0034678190975481024,-0.009617685623487688,-0.0662852724470604,-0.1069287423538185,-0.10760698083741056,-0.06495123131334846,0.005769478893989634,0.058575810254871276,0.05108391058336105,0.028811766204759358,0.027410752617659854,0.01928741992286673,0.04263707892760512,0.018080590888889164,0.01805038039521777,0.02823128361172088,0.0261318513118361,0.017619774295702655,0.005206681204005485,0.00667217443864107,0.002796942969505521,0.011492562064418795,0.01751104550992166,0.019492694133900593,0.018927304543395567,-0.008170616619276995,0.012739617754294032,0.044458149084134264,0.019492319494352078,-0.02756190002782796,-0.10834969284359418,-0.12295373284716306,-0.08853008047688028,-0.06212219426519624,0.025221435998178297,0.03550230745120972,0.04799432376376166,0.04219423055099932,0.027670364483276512,0.01858478571902657,0.026419757771277603,0.02807598043132306,0.022452849476372952,0.02504074962324704,0.006826586750959015,-0.004532731329964864,-0.0013044199483439609,-0.0011552267276272229,-0.001629459016963531,0.0026437196717379015,0.021687035409023794,0.02744313296316691,0.043452600991867145,-0.003876968899935326,0.03096864084159882,0.039988716144481,0.0035919784741970016,-0.061758535788376465,-0.09838443950986214,-0.1008384184727608,-0.0646621448764249,-0.031231164855205648,0.003171889221333088,0.006404962532993516,-0.0021568662429069948,0.015483379340227341,0.060247692317720765,0.032011939853770335,0.015659728511263606,-0.008487542695710969,0.01376997487164899,0.015294812425337785,-0.022820426600260197,0.006558039833171542,-0.015798521239415456,-0.0012773624573290785,-0.011287084967039944,-0.008666614918762559,0.022606190355058665,0.031777954643795944,0.018348819129284953,0.0005347180566929663,0.02115805537125503,0.0410330395500826,0.04870039777567467,-0.015912518563992735,-0.07300559263502727,-0.05301991516087499,-0.06033224619664239,-0.03605443382682711,-0.02962468177640988,0.009759201023427143,0.014625473813304441,0.02170463994365208,0.05033328573910011,0.007904386688476057,-0.013312283638628221,0.006780995198569585,0.03295717695427931,-0.0034783390217768815,0.0005019677160149503,-0.01157756630315642,-0.00897071418853052,-0.012915393333598417,0.009830698610112938,0.004886110327483375,0.004394725506854122,0.034809749984062215,0.027640202742993333,0.013731790457317967,0.03380894254242788,0.041445971541310814,0.05090906748363554,0.03750808890246968,0.006063408803019842,0.002752792787060494,-0.039068743238058916,-0.006076793865604479,-0.015647213803098234,-0.010038574323705036,-0.02152169431293842,0.02848057818103279,-0.02160287448425934,-0.0726640882704878,-0.016553300106073112,-0.030728195040925128,-0.03234448735462914,-0.01676387212745221,-0.02407777701774828,-0.01974922128270986,0.011132463638068503,-0.0010749581354943618,0.006640853605830985,-0.008825682318471913,0.004273317547064077,0.03279506393534501,0.04003601726700377,0.011849062521992793,-0.013857694082894714,0.050310333239396016,0.05271226138515592,0.03766571819380991,0.008625482911574497,0.028008391420221896,0.0002426368517131403,-0.0017683716882879968,0.008882806574717473,-0.003255866819995375,-0.016140185056612508,0.012332374496269397,-0.033727430629978405,-0.06794649403840666,-0.026910538918250883,-0.028806197830920366,-0.02408669298971238,0.017735130855380754,-0.01740736910058495,-0.012727127940533026,0.0013830773750161175,-0.008164503587096661,-0.01179757356372639,-0.004307671848521316,-0.010491746544827903,0.02526431909002719,0.041614566591368585,-0.007324823687300575,0.021552359683119658,0.038765854234297174,0.015695675297195347,0.004091744202858653,0.03261988412284159,0.024024879247566643,0.006762179969440375,-0.00575093265110805,0.03034865637344566,0.01110341302480189,0.008785791375772796,-0.003281512435593684,-0.020730778982614263,-0.01732845025384321,-0.04523489875978978,-0.027135450983475883,0.011215811633201277,0.012087331878881996,-0.017582707060322614,-0.016253680658188347,0.007757497719162348,-0.012458989918978078,0.010126164986134292,-0.007105115951024754,-0.007664004848974716,-0.012530110333416434,0.011409392171775714,-0.008203630503654111,0.05662404779316744,0.01492282055671843,0.00201960069835224,0.016374130578729638,0.027092946125578228,0.004050824016555534,0.009796631502892807,-0.0107607275975063,-0.009213286324251321,0.007335121147938335,-0.03251910902304279,-0.024528877390488646,-0.020271662153337828,-0.0032904174594863924,-0.01835090881633682,-0.02773112687561092,-0.008631517964355356,0.003985585924046207,0.0023099304630843187,-0.0035692172932421844,-0.015892486653281232,0.005730594965151176,0.008190088021614972,0.013404718961874475,0.0012311626115031546,-0.01497335899520603,-0.015580624049789516,-0.03479262990838902,0.041859392573388235,0.07076309895657645,0.020416481465460056,0.0014658311304464042,-0.011061813540747388,-0.018706357018235652,-0.03046289608859254,-0.010951754560873439,-0.009501245916559972,-0.02110587750028432,-0.020345634732164164,0.0012556681748820745,0.009639373030389909,0.013130510747962246,-0.01742976184918938,0.002400948534078389,-0.019509370062949657,-0.007217703402548964,-0.01503491071170488,-0.016592862262958478,-0.0011870672607180058,0.011871229468053074,0.010705211995764578,-0.011884948342964663,-0.0035466313001471204,-0.02094957773865277,-0.030018120923159156,-0.026995090635617974,0.014419001089536473,0.020605144848633808,-0.005756364131395783,0.004237664353329033,0.0021420366304677565,-0.028147924346522288,-0.03321494385524812,-0.0054494975728890255,0.0035971117442373216,-0.021290394688020742,-0.019749691053567855,-0.029943391864489625,-0.005010302069594836,-0.01631470753465744,-0.022722072660776974,-0.006018603364010252,-0.005169082119144467,-0.004576185832530884,-0.004927481692529706,-0.002326573534419211,-0.010419134707652678,-0.005231321221048132,0.01362328773221124,-0.01025561173614302,0.003787546167349321,-0.026076469132413134,-0.012403546865964845,0.003797158874721698,0.005700302130425619,-0.011660861655065156,-0.014735365770146168,0.013239316509510388,-0.002324366280804685,0.010898436169851646,0.0018583044964878633,0.0036909411688058097,0.017055301528642777,0.0060837487003081465,0.01656687753878354,0.005616432475456354,0.008239276837578849,-0.018700614139698767,0.011521500813793675,-0.003515701023171759,-0.01085161206437822,-0.004512298433035898,0.006497462105743942,-0.0038768864346590028,-0.014335887341358378,-0.0040102185890201845,-0.014931046235325887,0.0006211245843246796,0.012627644989902098,0.0009229714638303445,-0.009431013472997499,0.0026635677354626204,-0.0013713724934312052,-0.012811722256696129,-0.016395857303461315,0.0022889110065248642,-0.006282361974403512,-0.030036983977953905,-0.020523985835093687,-0.020168565972145683,0.0007418455035165945,-0.005942247175091402,-0.01575141569992518,0.005944728464213968,0.013102195508260334,0.02041624049579001,0.008799074878519244,0.016027835512699602,-0.02277406322611692,0.011689623525698497,0.011113169960311406,-0.0049207761680524174,-0.010490920400164225,0.004721460455199045,-0.0005704077727172602,-0.012229221723399988,0.005074396265218065,-0.017755228042167948,-0.006922541611848393,0.00875295422329329,0.0033447609114091144,-0.009114631641970709,0.008185414976254312,-0.008807522571418168,0.006945607052278782,-0.025627924225741852,0.0037481421870999266,-0.0025507065984437366,-0.011081255418197789,-0.0010496061449102518,-0.007238706547614064,-0.00868114656627376,0.02902382070865337,0.00573245852570858,-0.0029998957876671986,0.00020667672516080463,0.016152881705799666,0.014937514391096944,-0.010725523618719406,0.005935249363637889,-0.009273536888777582,0.0053071051808594415,0.010992088713209888,-0.008821716188726639,-0.008871337984455063,0.005025732645959263,0.004711474431059832,-0.0017875827735108212,-0.012116843072698991,0.0017570880992158608,0.011696026685948126,-0.0028368264287320227,-0.012465248708716488,0.00047499504189775,-0.004364642116780485,-0.015714780516954685,0.002963864733793591,0.007323092596585862,0.020879104803944244,0.009915294496486949,0.028683499708679883,0.010702627915071417,0.0018915198550327646,-0.013043164111178075,-0.012088727182952353,-0.010449460431033286,-0.005182744492310085,0.003048114427155607,0.007851175506054478,-0.0025479134053799472,0.004042270322723165,-0.013109539530890078,-0.004276471233717747,-0.013321892437643833,-0.0077792755803269146,0.012432887889496006,-0.0018492725207140388,-0.014968249466241042,-0.003333190539599887,-0.0032334034141150245,0.0023373451356853998,1.3917059661658944e-06,0.00893010204605871,-0.009093102451217255,0.016920106426566058,-0.013714085054183554,-0.0013057955644149469,0.0059898535583552456,0.0020060980684248743,0.01950802107525427,0.005079193326224772,0.0005780350505061451,-0.005279008048704166,-0.013916246242440769,-0.01049282068422156,-0.013755916968271994,0.003530273016067193,-0.005722644283914738,-0.0005898286301176878,0.014041534831727352,-0.009607352439248599,0.0031112847177190324,-0.013689402155215696,0.006979379589225023,-0.015451511073245184,-0.012373077421569357,-0.005594322791839594,0.01044876405627435,-0.015523903575801534,0.010197318857854902,-0.015572218970923962,0.004402135166630781,0.0015690934226180915,0.001805793748096958,0.0040751339843354845,-0.009919240791188612,0.0027378847274384774,0.008184763284347025,0.014872556491754825,0.004489566509510392,0.010734231414237367,0.004561552142859245,0.0150736573921144,-0.0049355729119080274,0.012519179840646977,-0.0068485846335299555,-0.012630311205154659,-0.0009463788026439039,-0.012662130391411626,-0.008622139835791312,-0.002455166060578485,0.00917923350484385,0.006118459445547113,-0.014391500116364538,0.005208555198777657,-0.005729033094085298,-0.0011785915324196293,-0.0021718786969178554,-0.012223529930330337,0.0028504364134680285,-0.014224790726201395,0.007481516803316919,-0.010948373601586696,0.012463960559263932,0.010558079814274148,0.00967010716210587,-0.012691342542527951,0.012732390092176315,0.0020358428426011203,0.0137972440660122,-0.013687402104824855,0.007190576872973531,-0.00720315949711502,0.012582097206860644
-0.2187302292502714,-0.00888993465548197,0.007821433808596002,0.013157842473241001,-0.011262845712541322,-0.009331614838009542,-0.0007231872974368669,0.014247483782016825,-0.012171388280124505,-0.012724356249729531,0.00879234323455344,0.01052486779495385,0.0064781639844519005,0.00991988907023851,0.0060598141530851905,-0.011542873236360256,-0.015185043066837479,0.012698694825813116,-0.010957032910049978,0.0010958961758180223,-0.00916887712858313,-0.012844756443739145,-0.0018008610172357033,0.0008227683522253962,0.004202806480841228,-0.0015429901881605194,0.007046322586819507,-0.015272292145319399,-0.0028917878170502988,-0.001260195868808104,-0.0018573837979469383,-0.002113888134875813,-0.006399999360356838,0.010927274435148498,-0.010363321985107945,0.014660843011582058,-0.0017850501543226482,0.014403620924428383,0.01393542603172494,0.011617381061502546,0.00207678985370267,0.00018258001942439428,0.00968904415973143,0.0018042042707099928,0.008597604267527363,0.0047302383206593475,-0.009865922031833119,-0.008459071400590448,-0.003365538014750022,0.0136054597350031,0.0028058105757127576,-0.013886008625326171,0.011161177108507725,0.009063760431043417,-0.007163934407240061,-0.0059223219100587,0.0030912608580813683,0.004519529591259154,-0.00389535342901131,-0.009187170227721673,-0.015618695502962424,0.015124185250495019,0.006447873550681549,-0.00047422437415000143,-0.006343154679131113,-0.0022212882235371975,-0.0128284195466031,0.009909299440762912,-0.0011309642894441856,0.007862082059950887,0.011200240600631156,0.006849301359998512,-0.011768304703718774,0.0013403076870105689,-0.0070960763535462615,-0.009109913788381867,-0.013886550468597006,0.012586061936424836,0.00010366133709112033,0.005251068929437972,0.014992082496592209,0.013961384964002756,-0.012988275486574226,-0.002045495974813568,-0.00019065988142647275,0.006445821141989591,-0.012626096460688088,-0.006200769975467396,-0.0024007750931892592,-0.011425314310598716,-0.011697321020482904,-0.005821582446889077,0.011530417773938848,-0.008156557521902218,-0.006835284932766011,0.00985306325211839,0.004510379654366604,0.0021048445065396278,-0.010854058691439981,0.013114124995509159,-0.009836564206962342,-0.015172725662032,0.008656825458660929,-0.005726561942971404,-0.00013494532567812426,-0.011874106067976783,0.014530838551547687,0.004354887788036631,0.010027278420209437,0.003351242898105608,0.015435783520514182,-0.001113543677521027,-0.013526045933803427,0.0012380082159948007,0.011326663732901147,0.00299516969777288,-0.008529715733530847,0.014812032623483646,0.0009466900516201665,0.0005044100107760227,-0.008122992678707502,-0.001494962383499613,0.0007152077611283468,0.006934756897650728,-0.001751100762015078,-0.015068304008944197,-0.011850728784859346,-0.012079671836073353,0.004785493787669393,0.0030037896154041857,0.01402335335769709,0.011358134513448716,-0.00318724726048409,-0.005687185659412262,0.008285693006521617,-0.007895226708517222,-0.009724254882302451,-0.005994884827038912,-0.013561505096437894,-0.0043040012418520054,0.005500446926917483,-0.012075224813926855,0.0143378944786699,-0.005030082078607178,0.004417681305911934,-0.0002623521593009097,0.015227683012807757,0.0009465992982460002,-0.014420472074894136,-0.007308997110250858,-0.014690188316978228,0.003074442015525876,-0.005261068241579656,-0.012172283384253468,0.0092021452735442,0.011093144140968035,-0.009164774242762647,1.2272353786993428e-05,0.0020949403300704675,0.003321458831858217,-0.003808381159336117,-0.01068703685332224,0.01511594653143199,0.00965621836477842,-0.010937598538933432,-0.0029125342775453977,4.072466593626686e-05,0.0018598294971948967,0.015356949569916917,0.007399965820258085,-0.0095920239294064,-0.013539148070748207,-0.0003305010658829974,0.0011924846281158481,0.01013044723553181,0.005214539574844686,-0.0007108814699977282,-0.0024765923711844336,0.007360305197460254,-0.008022053463512452,-0.013010952659235547,0.001342715280303844,-0.007952600593331981,-0.0092205433271664,-0.014693899714275618,-0.011483183254702645,-0.005594384177033798,-0.003163965314711664,0.013116844520071419,0.010946243108016132,-0.014084209190303343,0.011137267797151205,0.014543642804536967,0.00045095028336972903,0.004751428977798261,-0.013845048183656228,0.009891486966535204,-0.0056922888948874595,0.007683538479086149,-5.846767469734268e-05,0.01045991009727796,-0.004626967171692611,-0.007679163958082307,0.00880392788440253,0.0035378202842700976,0.009573507386807675,0.0007670229423531634,-0.007314230053627583,0.0037166593101560508,-0.005024523120694627,0.0011011907880024187,0.0033205439469087793,-0.011417070522726072,-0.015247103330357746,-0.002973250588975268,0.01472770327978356,-0.015549081764025724,0.0014186087421043901,0.006953275953843367,0.011200094086511337,-0.003725870392046849,0.006295239544298829,-0.008857454883608434,-0.011551901314470637,0.0011573757393961853,0.002877014265045521,0.012909836948128077,-0.012031077712885488,0.007403220533145533,-0.012522397034218577,-0.004289357848294182,0.005059115741878516,0.01379170608300621,0.006421217867269777,0.0014896781869820803,-0.006945559263703747,0.0016746064264356424,-0.0035417805783734997,0.011007845481403173,-0.010548898650216923,0.0009462552550952366,-0.00616102441494764,-0.001402936701455068,0.001950986331048371,-0.008484116092331798,-0.009252227852083617,0.012397584353723571,0.010666241566015425,0.0023878595979724346,-0.0007890282486555829,-0.011257163443226924,0.004954495028466382,-0.002562068501597941,-0.009323773094251465,0.011284042818060974,0.009876292336458228,-0.006116633948255703,0.012874875918300544,-0.009247157613289429,0.013634206138294691,-0.00892859263369318,-0.01205976836180624,-0.015549497231627789,0.003541574813724996,4.63475341726631e-05,0.013577496356980922,0.009468265432719048,0.012274478895940827,0.004379048265347924,0.00198968057848313,0.0076251940762954995,-0.0051311033754133685,0.006214304206777082,-0.0001877303526205791,0.004958651500548011,0.011817687150732167,0.002816385232340256,-0.010083007084552956,0.003492152598214355,0.01316983999727597,-0.011611088644145649,-0.009856564489355495,0.0032264835100124546,0.003847327140631636,0.012174587215617472,0.005814649116202879,0.004896248817503265,-0.0153415866145581,0.006094410206384442,0.005689276946935436,-0.007579560399930529,-0.005493993499957973,-0.015060844374020565,-0.012045160020471214,0.0029420668030350067,-0.004744489168510037,0.007904839763571453,0.008338625167290396,-0.0036327193791463076,-0.003550192649592724,0.0063565645100696795,0.009841155630968428,0.014081406304553946,0.015527787560365835,0.0036858301387171152,0.011824774777173482,-0.00559885991557035,-0.014172830485157575,0.0043677115194160135,0.00788896572029732,0.0018312751972236994,-0.005694363100877418,0.00010134912242691294,-0.007930936759239091,0.00926617133366258,0.0013678917819423542,0.0004405460624371006,-0.0026117219600697537,-0.014604864153570402,0.006606970849248633,-0.004429545245097914,0.006046624801258393,0.01368289303490794,-0.0014791519542417184,-0.009481114245738002,0.0027210312715332426,0.010594986847640417,0.0003864115469657467,-0.0027633845526516126,0.012493340542113027,0.01220729972674707,0.005939492225635445,-0.004479432294760978,-0.010643457350713832,0.004364563233078499,-0.0004912141872127941,0.013960261068688005,-0.010525944395034136,0.0009153159842744431,0.008192280062002125,-0.00652910150240767,-0.0038057576318267887,-0.004434801501216459,-0.0015513050591078603,-0.00876260689290144,-0.006206315532046414,0.008554173866082856,-0.010696691576171796,-0.0038905926460247875,-0.008993244209159045,0.0058981359808719935,0.00409106538080407,-0.004877779487140153,-0.0035066713195377325,-0.013851643121970559,0.00043292481850862666,-0.010211169569432434,-0.00196102588446425,-0.009074017129767305,0.004578049043566717,-0.0033075533020189563,0.0021235157646593006,-0.005349659789114395,-0.0102860470836211,-0.0009723544196277127,-0.012810532766058237,0.010936595714481481,0.0076742959994720965,0.00322559637273925,-0.009237606232485495,0.01135475419074471,-0.01040431104724927,-0.008644369784400072,0.006923967937657916,0.0038841817413628396,-0.00950200110816906,0.0031447007645455383,0.00035349918213305534,-0.009722267916431312,0.011854939699067285,0.006241335271451213,0.0074481024407355954,0.012617008450172437,0.007827588012751525,0.005654234780670911,-0.000467588932443648,-0.01465876374993682,-0.010537421717644484,0.004766771003625572,-0.012264582453453719,-0.010628473718666605,-0.011710655879694915,-0.0018646424338053975,0.0019019743360727676,-0.004861435993880357,0.0144104992456737,-0.009457871281336322,-0.003349561041038774,0.0003609685243530364,0.0017923544710983785,-0.009203945674822168,0.005260948541009735,-0.0014482076591601188,0.014067471669775351,-0.011320165428267921,-0.010030931914483534,0.001887550626866092,0.012348679221035445,0.014089033557441583,-0.009158050524077727,0.011636033445731536,-0.00048018713472844365,0.014271860415830454,-0.009692764849198041,-0.008259839579112038,-0.011983080347542321,-0.012940722331965818,-0.009075931529446489,-0.006719118881431074,0.009997981271133796,-0.0010543722070992315,0.002550716895301841,0.0025684603121094544,0.006143251367240955,0.0070501472077951,-0.007853158713154371,-0.00408758566586968,0.014404312261418528,-0.004222860921019395,-0.002577005069941851,0.0007499414405140042,0.013903217319608092,-0.012784684002662056,-0.007179971388743565,-0.0136593501265855,0.01435671128142985,-0.015307805196657639,0.006110322452295331,-0.005515600386487907,-0.0069260420058969326,0.009170351331212113,0.008448967315602983,-0.015575780499475188,-0.010805977087158108,0.006914932088985363,-0.007751432391940302,0.007310917469240168,0.004414116856291041,0.001837981280375621,0.0022958060095644196,0.00038419737558439623,0.01000202327131925,-0.012424300330782914,-0.0025876305330439636,0.00032767053244914246,-0.007111536289860547,-0.010834929827143795,0.004669186652344479,-0.014564273255913238,0.010186327130805754,0.0036741035948652245,-0.0057661644249868485,-0.011957369059796073,-0.004144841353053475,0.01094437301309217,0.004273545387184111,-0.0027984313064386528,0.0014953654465308872,0.006652346073537253,0.011446822359101359,-0.0062244951529682735,-0.01187620201701338,0.0109609601071309,-0.008970149443750311,-0.0004042309293885264,0.014681557248377077,0.0013613924121397697,-0.008734759933045712,0.0036180092692571914,-0.01244124233680663,0.012069575590369488,0.0024390006925221336,0.009386252789565338,-0.0068249537287109995,0.006425312113616237,-0.011168509097902998,0.0055095543341761345,-0.0040894515030458906,0.015404480478236938,-0.0038866193979386343,-0.014907728034155021,-0.003990664665696076,-0.0031837768803790398,-0.01229216700228037,0.014462030468564088,0.010075147722269067,0.004073611616605466,-0.007782595137561708,0.01325217292755523,0.009546050227063924,-0.014270189705034398,0.002370408076551995,0.008820601965242782,-0.014017332818905544,0.015298023405876552,0.00909479127120542,0.008102990953203586,0.00972535126855912,-0.01310088056377487,0.005821475867513928,-0.014693289573527342,0.0059802139061708864,-0.001106763564102227,-0.007741392224509917,0.007677728755092341,0.014265676507325166,-0.006344482235117639,-0.009240186244629349,0.014405448896044198,-0.0018916366453322203,0.00173130187631396,-0.006015450182172925,-0.0064176884004629,0.001742796936994452,0.015003855732608894,-0.0037490874652291555,-0.01029663268126221,-0.0060123107358952925,-0.011083328349967399,-0.005919418852813066,0.00591667430291876,-0.004164254557127857,0.0014403165516322543,-0.011674807574398628,-0.00616964086072341,-0.0034309494977645613,-0.015134732158662713,0.0050207020778810715,-0.0031120958682914895,0.0077595056160089035,-0.011868682276822543,-0.006057366573639606,0.007922530731926083,-0.0005909179594904869,-0.003531600221429239,-0.00035180270882019873,0.00011568209068870197,-0.003642879082053352,-0.008857733155275903,0.009929347375815526,0.005035186325460132,-0.008005472704345762,-0.015009635002046984,-0.013525792979895333,0.0034613269715355784,-0.0048216408431934026,-0.00286025281900381,0.004204976980221754,0.003765851404164973,0.0011990501319730645,-0.006860856034262064,0.0015843868884977234,0.009076110800416336,0.014329733745649938,-0.009552227616762016,0.010277471291698401,0.0061898464561433095,-0.012578763387587313,-0.009443091730732295,0.012751605990561316,-0.012998406359475499,-0.00983096539864689,0.010971262705937106,0.0089235169171131,0.00449207701853167,-0.01077949135874046,-0.014261884207108864,0.008420407488491512,-0.0069264288632649405,0.011602410822049512,0.008143948880995087,-0.015255234917927355,0.004292271600679701,-0.01315836053750664,0.012839814947142768,0.011280087931151313,-0.0013723362454510744,0.008931097799664913,0.014641282166881944,-0.01452844055412952,0.0051496908370137415,0.013620270178967421,0.013992971431500828,-0.0010698429188373756,0.0014291942844253391,-0.012694127385786087,0.011071770591218905,0.010416773225645114,-0.010118314990346159,-0.00845480686028812,0.010486897267215058,-0.009189453659967966,-0.004630669180318202,-2.5735245184968503e-06,-0.015328615738533686,-0.007613937375186786,0.004350817235443973,-0.0007655741444459949,0.015384387238297458,-0.0072069577623135005,-0.013273715659685853,-0.01387485837924305,0.010551906725945318,0.011937185378187408,0.012526093927596973,-0.005187113748511,0.01174072286556085,0.0052667130278818,-0.00875900181187866,-0.006126994014425336,-0.00864520216148286,0.008616844608563795,-0.01162964742674285,-0.014522914491969716,-0.008117245627441538,0.0006993440168905005,-0.000353811316614161,-0.01243870943794665,-0.0018209643998624084,-0.0113560216676354,0.010254725742025277,0.00218390685435629,-0.014677634234137097,0.014813099620492536,-0.011560820898411647,0.0006691091543524069,-0.007742873941692704,0.01176143289398611,-0.014942708661720712,-0.0044441217439787385,0.010593530859468476,0.0023793860498680826,-0.014074700315963095,-0.00865244165189891,-0.012101866935310925,0.013186133072400515,-0.007718596220067608,-0.002943204384497019,-0.012328095408366532,0.013065888126322443,-0.003209939022604018,0.011752075835731023,0.004890738048110837,0.010876738427248442,0.011234494885748014,0.010824777794055624,-0.005225344886795921,-0.005298261349138793,0.008945198098391477,-0.008674830635184209,0.005574994817092709,-0.0035983642879451536,0.00821743434441918,0.015249610582085411,-0.0021583780450695096,0.014200093247051113,0.002974991562806655,0.012785451594088493,0.0009312936218368109,0.00282059027388179,-0.007106801864430336,-0.00721111946247939,-0.011070171369711109,0.0029939675652565813,0.00521563868397085,-0.010778012456554954,0.009077290452675416,0.012862051995705781,0.004752117360734505,0.006890106554680621,-0.00998493805569474,0.0011049590751008066,-0.013256631437042775,-0.0014346462652897428,0.013228684167094225,-0.008946976339744044,-0.005384331934476131,0.0017697589779570276,0.01242946776768199,0.003510872665530674,-0.007540951308907501,-0.0014169378813383912,0.015527952874538484,-0.0051877729418078194,-0.001538887115513029,0.011312684498545028,-0.010883234336765087,0.010978049350265893,0.004963473120601747,-0.008201825324516656,-0.005054302751380267,-0.0060347313743578275,0.012397162863896364,0.0030303679261081858,0.013326058511371613,-0.012145605809784146,0.010099988443829599,0.013102371855707166,-0.00804604015227817,0.0047751548948691686,-0.00401626716898798,0.013960760691274107,0.0048186879153237425,0.004351481101892662,-0.011784174852442833,0.0036582119220263734,-0.00315871855682142,0.002202301718332963,0.014632710198457268,0.013084257260591321,-0.01122217723710997,-0.0031374794318077444,-0.002271914753007715,0.010032512090931853,-0.012870554767769452,-0.014340873545324338,0.0031362460482722426,-0.007387631884010797,0.015375857309065148,0.003927326260322338,0.0004936939408365058,0.0019729842906805913,0.0030529051490454998,-0.011759939368991116,-0.0024423416794820685,-0.010166477764473592,0.009470878969059897,0.00902675585282062,0.002770259964862059,0.011108623947726111,-0.01542383624289495,0.000726226069180911,-0.01169371514634731,0.0137232122560384,0.005025733347412381,-0.006108663131665578,0.004884744114761797,0.011482917431338526,0.008797226150470995,-0.014123203500213562,0.012403337018661215,0.007338120739795562,0.004581537698492066,0.009668510255641766,-0.01260617339792421,-0.00817971546516295,-0.01076171193348744,0.013215540528330755,-0.0057202140591196896,-0.00864072163867401,0.013882859902965831,0.0059667594694544634,-0.0019485245174212552,0.00826335279488663,-0.0022209356677489016,-0.009973745582498545,0.008536220481402491,0.0036246035240790793,-0.00044887020485355825,0.006252272118016069,0.014862620268674905,0.012398649089305106,0.005821895411467989,0.015372756497234887,0.009136450169132823,-0.009831526517346378,0.009836902688239075,-9.756149671401315e-05,-0.004723382253667752,0.009645687491571957,0.006386285700369341,0.010457365911186296,0.00490229260722513,0.0001497052687593932,-0.011651447899853926
0.2097832270189705,0.008765528507606448,-0.0020554622192787003,-0.0029077985316462995,-0.012089000283088937,-0.009490558186229747,0.001264352022513491,0.014410289300837365,-0.011982935754756608,0.006534937200054849,-0.007483570240648219,0.007120621056605034,0.014009555311378841,-0.014651381386231309,-0.014193164008037301,0.005818202059514315,-0.011661992149892702,6.415974503627686e-05,0.010391032765171986,-0.01447600497984202,0.005915893817392066,-0.012740618239506639,0.0016505353551205387,0.0006858598633868243,-0.010138233985374667,0.009364796818186343,0.01374046713418273,0.0011950643000677476,0.0105336586207284,0.0019772004254841984,-0.012346139000468711,-0.012667977877713944,-0.01087267250054795,-0.00161202742013445,-0.006061841867708785,-0.01000810307953805,0.008786621756446124,0.009741709422409385,-0.015490384230863087,0.0077351924505904765,-0.006352181976509183,-0.011287858928603012,0.009786988998537442,-0.006098613968019584,0.011950907712517379,-0.0002293740638655284,-0.0027665795237849823,-0.007938452075168738,-0.013870281743744522,-0.0018850501025299317,-0.0022807541501300467,0.012660369806145558,-0.012804900743109918,0.0017152526067023728,0.004038438891099467,-0.014961890377372389,-0.009687468124335238,0.008338035885583437,0.015386042947231181,0.0056397196522434065,-0.012718009706994614,0.012319339515690853,-0.014998803863016713,-0.014034197042672222,-0.00902501470192457,0.013571045316217601,0.008772303182185645,-0.0010233237497534562,0.005833303446226483,-0.016022193266943277,0.012769644294659217,0.01421061618519948,-0.006806624646474557,-0.005944865137191143,0.002999769864759003,0.015317733986450099,-0.011752220019081277,0.014000239256217836,0.005549570944524877,-0.0003681153426868295,0.0027173837202081295,-0.004896429107055362,0.0002682380780439468,0.0040166588701508014,-0.004496085573298909,-0.007307890256843343,0.0014295669808498807,2.2548873852095558e-05,0.008206895733690094,-0.0150948948405356,0.011992616477678653,0.01329117578656574,0.0021285885359076345,0.01363762097836945,-0.005746701501530369,-0.010971654585582186,0.0011237190605177534,-0.015949199617526406,0.00011412573603303505,0.00743100803281245,-0.011602106929595509,-0.0038976504902477976,-0.010165911383429113,-0.00918395391096242,-0.003904264698435157,-0.0015948837650928225,-0.003391493884408404,0.014179316394230517,-0.010136051049606297,0.006091886381218072,-0.005785960813494473,-0.009046421628895216,-0.0038653925948808274,-0.011618378822409996,0.0018066472997111047,0.008163694016997607,-0.0010516011928585383,-0.003683616918604365,0.014163657770872065,0.002748421596430316,-0.002491653659832411,0.002318868145998023,-0.015215235434513832,0.004523215016181459,0.004936853688270602,-0.009809357239992694,0.012203738681789795,0.009306760329073918,0.0024938940832226857,-0.0008489330164501494,0.0017751572275325233,-0.029638028690353074,-0.027794411374471636,0.00015270678825589565,0.01276882197465581,0.018887469229752697,0.0136611249126234,0.003926932724939679,0.004704235283339526,0.007761729091397694,0.0026882265055001783,0.005092018622105926,-0.0015027890932965311,-0.010270074606089167,0.003062470679724208,-0.007221986351973969,0.008945973198484407,0.009247872369974791,-0.03577791995502605,-0.04278172918690234,-0.04252550013154496,-0.03359810072392937,0.0009247454923125942,0.0012546839534122703,0.02491690011599034,0.011539252093329008,0.006742016553173377,-0.020812960865852385,-0.01743258803508576,-0.013796939018705342,-0.030462911359426838,-0.018062361017656882,-0.008977187638063456,-0.005689690757614032,-0.004107006209100602,0.013777890395353942,0.010749696457673158,-0.013977141359372832,-0.0038779311488614243,-0.005567388636815954,-0.009057273169753438,0.0002475752825615118,-0.0018123241577093206,0.004046747129731991,-0.00398395882685993,-0.003399212397046332,-0.01427830107972747,-0.00446504588405058,-0.015118701619015042,-0.01342062243603043,0.0044620535485399545,-0.0021749937877861823,0.007085772823911327,0.011308425011743966,-0.0018964193751746373,0.005451248146712092,0.0007793799606113791,-0.02560196132968326,-0.03177591438296401,-0.061949654282743946,-0.054007723209573734,-0.009848024689624273,0.006416262285359386,0.004502491073218483,-0.007064909636104398,0.009606269974886537,0.009566336075309241,-0.005241031070682939,-0.0014018092796356761,0.0059711703693220725,0.009911408844521668,0.01979151716592896,0.0046262738018186195,0.02407425722149374,-0.004945718016533166,-0.008584882537111697,-0.030994935522050737,-0.0058005898876117516,-0.004158585662356193,-0.002434921466252923,0.011493644497639547,0.009395054544003101,0.023760764031504643,0.0436985034346769,0.011797228261162885,-0.0024299587005000923,-0.04353467739063366,-0.05260626376562793,-0.03944449810243666,-0.025433872052123708,-0.018058460719948707,0.02672975517957788,-5.137306000310052e-05,0.006396402670046271,-0.0025111033075264134,-0.009516546707369712,-0.002044849099477435,-0.0034091560019753942,0.03322076074223321,0.02543946969182886,0.008184662248478136,0.006458209082612119,0.014765917731273467,-0.006804195437955203,-0.029220214292955824,0.01833869390284053,0.014859955190302745,-0.006697083789368771,-0.012237186122142474,0.009218511149029992,0.025087162580936153,0.028052942649134046,0.01120913110804767,-0.018416954892501204,-0.041633566489713475,-0.05329925850179022,-0.06146154427001941,-0.024235090191559044,-0.0039589168457335715,0.030446460600046677,0.02648676564086372,0.003679501491369199,0.002618408600093385,0.0110890712403534,-0.00874808899466767,-0.0011390210744426934,-0.00704143302778733,0.007349270157258423,-0.014789451675267328,0.013953227157557303,0.00561986063554603,-0.024561703839636184,0.0026400575161102755,0.00597856487425789,-0.003528622425993817,0.006022401442311668,0.003322447098620191,0.005452566634991265,0.022577033860783774,0.012424001666342638,0.005278132169872749,0.0045339822046668735,-0.02416896299515595,-0.024288007367775064,-0.03101972080082612,-0.00573906377033373,-0.00030629095206263096,0.01695799331555353,0.022130437738858696,0.012155994196143983,0.006401631832746224,0.010317559067853897,0.014349288757857726,0.0027944403231173944,0.0047408289401450875,-0.0030558325844450437,-0.0030379889919845923,0.0233277054425472,0.008544231908857197,-0.010534044616648471,0.02443707817694466,0.0030466188356799103,-0.016032499052599607,-0.006374440268095424,0.03821802268284271,0.03337477311643222,0.032862717348585965,0.027558715500150023,0.019443545089137256,-0.0021812898612209577,-0.02831362291697075,-0.013546447724603318,0.014554094379260618,-0.028166442895401912,-0.026688596188916048,0.049717833545741066,0.0268552892322753,0.003968425247359742,0.006107246457572338,0.0053736698804810815,-0.003594124913810425,-0.011830669648963376,0.016953154143883337,-0.026742985598847677,-0.013293789049458498,0.009214567371994756,-0.008820279435651618,0.007655588580745693,0.01822154782997603,-0.001411957605925062,-0.01649509355083372,-0.0049753919724617665,0.06137603780773289,0.039447919134185896,0.032240640525922584,0.04548444223759248,0.023568298543669087,-0.022948093670560527,-0.0086561106063067,0.011375071395288693,0.02662668965011926,0.001520241599568574,-0.05221955700015569,0.03711386700955728,0.01723346074110682,0.01188156676942125,2.521481496017587e-05,0.007603507096733544,-0.0027250467326911674,0.008877163599841342,0.006215341340821958,-0.02588120565767525,-0.011281273649850244,-0.02163776301825833,-0.015301688857138441,0.004467135366741337,-0.0031762441613101024,-0.014490997904761178,0.00774276591297957,0.007381056796737421,0.03740130115464406,0.022396777379206482,0.00112060953925778,0.01112080478914025,-0.008988269194410899,0.020955673966240256,0.0017902102589208758,0.021646129619595333,0.05486438397823121,-0.01220587683540709,-0.043651744791563765,0.00489457367358412,0.01217522932373653,-0.01000073924043293,0.012840239921552296,0.0024179863416545905,0.012758426921792783,-0.015429824327745792,0.017100048878605632,-0.033225934732958824,-0.06243957378738337,-0.009503191404180442,-0.03565101970764024,0.010428615160638227,-0.00638767376625549,0.0017060970207320384,0.006987702150345394,-0.006579381471433591,0.011305353630391268,0.008751713617090106,-0.0326906631494203,-0.0321110893407018,0.006501983143856913,-0.006189833264881337,0.005960009674461159,0.05062943313138302,0.058192620916012766,0.009641900660569351,-0.02352147209949133,-0.006796971970955262,0.008295168791091222,-0.0109626371289061,0.013835744766514092,-0.00953431434191647,0.0010340117464395745,0.003907514094849483,-0.00895761584640989,-0.022152273271908097,-0.05816804017599284,-0.04475679885390657,-0.04194241397594956,-0.019658686439990643,0.009881224281050264,-0.018145518642352244,0.022299434060881793,0.0005307569960538648,-0.0008350169941521028,-0.018570052031000015,-3.5401019031041516e-06,-0.015087944958311547,0.015797664499018555,0.0024131093775276516,-0.022308469274081522,0.03847253007570229,0.04365655548797581,-0.008850427421410774,-0.06397063459927375,0.020796144188173472,0.028911439008299292,0.0012272559033026018,-0.006394688647254117,0.014293148758107513,-0.005170642340373298,0.005153752235089568,0.03003850306657211,-0.0018765271817530605,-0.03481584332000349,-0.010383538966067472,-0.004429246281214318,-0.036157424571470566,-0.028497473888821866,-0.006613896356068825,0.021046715717316367,0.010910104210511829,0.031531044525078954,0.018474680023990043,0.03132530981630498,0.04007515434403625,-0.012991747888670982,-0.032146760700726744,-0.010613216698553918,0.010559072573059372,-0.00283503265702977,-0.034416397950317625,-0.03625805514251969,-0.016684969268090086,-0.002894107453828675,-0.011911108941617612,0.012773947329112013,-0.010624271449980238,-0.007568617129738132,-0.01145077834059091,0.007154438943457681,-0.005513987702646616,-0.03017170193696049,-0.007199459725913183,0.011038589234624856,-0.016727602029288673,-0.021126725717035832,-0.0020553058003940036,0.030626065183686886,0.017628219037146516,-8.774717264651518e-05,0.02012190490618441,0.032913780148254586,0.023968397349791077,0.012675159299183007,0.01376295889968867,-0.0046529299868421055,0.01246058135206292,0.009159489156264269,-0.019696669708173083,-0.05817844462819612,-0.01701186459934651,0.004603905905075291,0.0012513912459620803,-0.009126325133938863,0.0024478990932141585,-0.0020048279642325734,0.010456816814833889,0.010313352145243619,-0.009721375677199225,-0.03551134681325494,-0.014925421532988543,-0.025441648223004053,-0.02348245316839092,-0.03988554936152791,0.005544552094404348,0.008747570749138733,0.01655151295645879,-0.002152830668530433,0.02611380731275274,0.022225999140259845,-0.007080958246828478,0.0035554895417853004,0.016470705673068867,-0.009101887788997412,-0.030678294678063288,-0.03099855639288611,-0.034756916382845546,-0.0648079700679025,-0.012676690045802,0.00224386116270219,-0.008085857483464092,-0.002117933591045528,0.0006878719571083505,-0.0028261781054981488,0.015706997551649456,-0.003295283797266189,0.030738560888230262,-0.03864836023969069,-0.017086680462207588,0.011368580889214757,0.019159932928302873,-0.0029182635583341345,-0.02660715712944191,0.03209424875703492,0.0211077466858494,0.0014531707651194554,0.0008534202522495659,-0.0053786026458203925,0.0070018723409691515,-0.015978964818280976,-0.044191896886421056,-0.0364073926337578,-0.03686355848119766,-0.010715224238890953,-0.01753553493153697,-0.014957366182694297,-0.01506784560615396,0.005006462834908998,-0.0049561159265858,-0.015167584263756948,0.011892752992625287,-0.0018079880165771736,-0.0010307024450047853,0.007433064072110194,0.022729614211968997,-0.0178313917128677,-0.018404462748545413,0.0028142741048973632,-0.03997296945210692,-0.022541334271781035,0.0007120969927673144,0.01803605295865038,-0.01552012417960764,-0.00521591202513821,0.009829414489802239,0.005477601185656163,-0.0005173397925306251,-0.012520834629051927,-0.018776097917217408,-0.03506575474111543,-0.014158427374737189,-0.032998101444896656,-0.05866673369384121,-0.03627776148649976,-0.0021866354520510343,-0.003270541455316938,0.007644340513098939,-0.007728779524522942,0.0013661132346462941,0.008994573623759963,0.0033996427811085186,0.014361039074988544,0.02933760481500874,-0.014603045727753367,-0.0026041524015553547,-0.022362250558650064,-0.026253142760539482,-0.007162903325249159,0.020806893703729224,0.019988167871191467,-0.019230721858989865,0.003378315245108578,0.019765300505278142,0.027802966329949257,0.04506022018896892,0.010383787805703188,-0.021770499071917866,-0.035909027152077166,-0.00757278270714416,-0.024018405941098955,-0.03536288092832127,-0.022454761224174717,-0.013299755678885463,0.010121124355004155,0.007727839074881188,-0.007994521395958201,2.232472996241755e-05,-0.0010575602554061467,0.015555775561610169,0.021807861854581688,0.02156984571741255,-0.010424470265173992,-0.0373205433396536,-0.04709315953741334,-0.008118260836828614,0.005888296759833428,0.0197214768800801,0.04837667922927792,0.012244714909523278,0.03148461921765003,0.032576495083815514,0.023673969673796497,0.01236789190838895,-0.018865102388971426,-0.02486462157333609,-0.005778352898947392,-0.012167278379692153,-0.01973964185472586,-0.011759053696022896,0.0018215069431116266,-0.008942922683240038,0.010098083697631242,-0.003876186511764089,0.015605074034450973,-0.007075732589875157,0.0027660137933706204,0.008285639561944409,0.025756112636799992,0.02236607109059568,0.014745868846471244,0.0002051982251736391,-0.03002753723437312,-0.023239480128667164,0.0029023417387903767,0.015952260817102014,0.030948315098533134,0.020805978073643084,0.0128717320766064,0.03936102873906994,0.015259886242851378,0.01968779724536005,-0.020754483696235882,-0.017291280522193073,-0.003636185963120542,-0.014795956762325752,-0.022534377728431712,0.006370721221211722,-0.004366153964308046,-0.00974000427519619,-0.012263371116943159,-0.010738308204860898,-0.007530977436225463,-0.004262532216746551,0.008918688032950095,0.014358538233102455,0.0024858590325129055,0.007692527182761928,-0.013770855058121416,-0.015366391276047232,-0.024181164847129278,-0.01400459706227675,-0.03198912118345626,-0.0037064676411405115,0.005748331952571262,-0.00034894980521611973,0.010246035546441741,-0.0026189340007035885,-0.012109023569905213,-0.0006653216267620385,-0.01154232881393507,-0.035688780024908696,-0.014322228451109361,-0.02267955569070451,-0.023372823638924702,0.00807404946720546,-0.0055957404338671714,-0.01541496770991932,-0.009405425399569962,-0.013512219542502035,0.012194209641888758,0.006050858130173871,0.012645033905158507,-0.0007887222159926252,-0.011182659186233351,0.013068002550387581,-0.020160135311485985,-0.0065208408695343134,-0.012159288077058539,-0.03122165200637771,-0.036803897843931004,-0.014961857808995732,0.0073406411283314255,0.00460119709433213,0.003186533424273416,-0.005201121729892981,-0.0022300212122098252,-0.029861459679762566,-0.008533839488903733,-0.017705741441445575,-0.015626254818100573,-0.004060137950619721,-0.006590716507499302,-0.012760985809755163,0.003529278939027491,-0.009108679227601498,0.007395071571283277,0.009115143853365607,-0.01527821103936319,-0.00023903285691014367,0.011382750423568129,-0.002290986368658078,-0.003372086988979053,-0.0142142505377838,0.0056835337668235,0.0016372253041224056,-0.01665302355747699,-0.007759193236417596,-0.0023305658788270274,-0.003259511311114839,-0.0018279555091001434,-0.003127824955887968,-0.012721123987529667,0.008767481231891534,-0.023363225721457343,-0.022731713575824736,0.003568776448357866,-0.015195502671805708,0.0059909896020921075,0.008489759628236625,0.006765476815981656,-0.00919959971304006,0.005820948549625117,0.009853432511422877,-0.010281499754405371,0.005716307925357985,-0.0012506450418563707,-0.006935115722536564,0.012488132409941385,-0.013109456920271899,-0.01458500552971997,-0.0019816715119328507,-0.01017380553332103,-0.013970540318862142,0.009340564796796527,0.0005533077642250712,0.010089016559351726,0.011170108488542864,0.007190779129160982,-0.0017080900673404644,-0.010472462433531657,0.011895058328038607,0.008515270332307775,0.0046069001168869295,-0.009859579952252432,-0.010506731378941406,-0.007466209147734769,0.01099690206223175,0.010406079405524498,-0.006421680224688708,-0.0015839504660039479,-0.01350277233103999,0.012559114826992318,0.00198506663244382,0.01466501553956974,-0.011405872054818494,0.015319158023283038,-9.523058235253942e-05,-0.008644023287416099,0.014026457446043014,0.005878241102963061,0.0008797246275029086,-0.006224056884334126,0.0063047993242232375,0.008254511354675543,-0.01034177547948435,-0.012105679291208208,0.006309758534498874,-0.005400237201315862,-0.013898225109514273,-0.0071929541882442116,-0.012258648116339607,-9.32015081637982e-05,0.01408356147130045,0.005415027786022296,-0.005651992063872374,-0.013305527682828958,0.00954717727485678,-0.011168771631824309,0.005684824580579104,0.0036621888017449554,0.014395912425890004,0.013708590868174188
