-0.6621116830940348,-0.010346823442850133,0.015117850818446119,-0.010936675029251886,-0.011150369040149474,0.01044879821537956,0.011043772915404447,-0.01095359448638165,0.00628011510132738,-0.005804265146242927,0.0003311982435190153,0.003008597444676627,0.012783127270180203,0.012827293762032056,0.0047406139113682876,-0.004602833773090065,-0.0032775504810286203,0.011148430187954354,0.0008661379714074435,-0.009263269308630483,-0.006597396265099788,0.0005322850537911039,-0.0055072453589138474,0.008011783772978578,0.009520921960960303,-0.0043801431430943415,-0.005009812398916031,0.01294672956860508,0.005595173643060863,0.015013973464208009,0.005344722965493067,-0.0029574286078005475,-0.001890801628326045,-0.01369090480149876,0.0037593375255756435,0.014103671670310555,-0.006868212150849293,0.006976660994323487,0.01289803137826593,0.008139054975749592,-0.006182406523987424,0.00974260863188699,-0.0061782864982394825,0.015380982587320142,-0.009106086631580388,0.005891455681420653,0.013160631175613391,-0.01540572074705495,0.00476095253497227,-0.01426990263928372,-0.014829155289303748,-0.01217254728082276,0.005315481692184567,-0.014571154121616449,-0.009792285459392834,-0.005581254548765301,0.0014897970972255446,-0.013904568956612216,-0.005423716376421615,-0.01380215863918928,-0.010118775755344537,-0.014710204317288509,-4.023475838729751e-05,-0.013777808388045529,0.005775213709653778,-0.01152358708966875,0.0074954386834666445,0.009216255215176525,-0.012384935066094414,0.014935330377108973,-0.013215827343693452,0.012338693647195868,0.0015755351748915382,-0.01028413894938257,0.00027134357550902266,-0.008368885945489506,-0.001962369016684607,-0.013419868238129656,0.012075639821866057,-0.007109568736537775,0.005237911588422104,-0.012641028619209693,0.012008916481409119,-0.008390629748868242,0.004801363951989587,0.006812280192756478,0.0037943952879600958,-0.0065901010370566955,0.006208090547569208,0.00546515550320072,-0.0014384697942637428,-0.0017604678034283325,0.01358119420645906,0.013860423094368114,0.006607768548379186,0.01157021339875958,0.013025467400780935,-0.009315807334323661,0.00515223108655603,0.0009199310544566013,-0.011945543450604435,0.011844455140489995,0.0069921332940622305,0.0032000775514488093,0.011123101348245672,0.01511178210616249,0.0033766000441588576,0.008898328361859508,0.004993935324217165,0.0002810385749907329,-0.012908580637174896,0.0073392455737937845,-0.0004933246630671323,-0.005184128207096638,3.975752512890007e-05,0.0069734976331314,-0.0014870771858454396,0.012234986339408626,-0.004443794708117007,0.015558066815676931,-0.01371313180626509,0.005274226328670754,-0.014517265161398556,0.0076807533453614185,-0.012010526693459232,-0.008325482195378823,0.008261562584716532,-0.008004149797673013,0.01407984892540376,0.011932355503292153,-0.01250188585736214,0.01219572594755449,-0.0045907535446271,-0.01040973848331797,-0.011492357167252467,0.002557041144044349,0.0029257759252343737,0.010341839875223073,-0.0056584590157333255,0.003976723457986442,-0.012830327795581947,-0.008870373273258146,0.0047225752651630475,0.01109994013502574,-0.009095570346157308,-0.005488008919650341,-0.0025272318326327,-5.1331641258541005e-05,0.009889370261650713,0.004486813207616947,0.007095023999412711,-0.014300253352179233,-0.011971076687853965,0.009613613047792093,0.015113790425819125,-0.005995333397371273,-0.005414467304885453,-0.006441214782113871,-0.011407281775440349,0.005354050477707095,-0.013441496887241056,0.014145029994605998,0.0018427936447778445,-0.0020631455740144217,0.0005852331424540114,-0.01112766154414149,0.01376829751630217,-0.012825808360234378,-0.009973165745764189,0.007803132372766492,0.003270456641859907,0.0006222739916609508,-0.003661209570909353,0.007670454652171369,0.005927787645588923,-0.0011459698992015467,-0.006890401760834185,-0.004522383826828333,0.004211731443630139,-0.002591341858810922,0.0004777077062536744,-0.0054893296753085186,0.014629263735227532,-0.013298081726173947,-0.003776651722494792,0.00945123786716397,0.00035592291051743385,-0.014460538612786168,-0.008552004954992233,0.0007428624651277978,0.00789470219709957,-0.012621881956288768,-0.004030301005070815,-0.010507544877387184,-0.009991824963721248,-0.005365007355101377,-0.012070122672690177,-0.010218396492230088,0.008545810357508201,0.011165581001038465,-0.005827596268439365,0.015511105672834563,0.0032268696392622163,0.0013243081105910187,-0.008703919659990234,0.009532195973270693,-0.014526993468723472,0.007390371855668272,-0.004520588227258118,-0.014813274293445516,-0.015123619618913831,0.015449813909703056,-0.003473722648081542,-0.005324960652510376,-0.013108227609754358,0.00995454121383198,0.0074014109564416765,0.005168905821584285,0.013268873116434855,0.004813105721010208,0.00980095104765889,-0.010059612418834067,-0.0027957129896560642,-0.009642513839396398,-0.00392667303541875,0.014789849591855291,-0.0002642026573921874,0.012557707009199334,-0.010009387642795863,0.0015596751665566053,-0.0021776808101864123,0.012648981532734416,-0.009355212136260165,0.008156220139627978,-0.005602060965849427,0.01229116445165394,0.008731918773500064,0.000608716763426588,0.0123847665271066,-0.003686290397335399,-0.013542814285136078,0.008466372569450209,0.005311421169245177,0.0009472660994468626,-0.003645212176396906,0.011863833182157179,-0.007692510410396713,-0.0023184915210686004,0.0011014116866687046,-0.014213482083969244,-0.006127174172022205,0.003767381194642438,-0.0021855401407253096,0.0020013852367825463,-0.0002982648691615304,0.009668537236262889,-0.005532025049913909,-0.014630264915237261,-0.012258842882883394,-0.008353827897048537,-0.0020826694400469803,-0.002672110234548275,0.008158159043865812,0.014803492051868077,0.008073873558216791,-0.0142996768437237,-0.012642869471900492,-0.012497772061225678,0.011452770421243423,0.013784703959235704,0.01015313547530234,-0.0014830623727329177,-0.0029688810598622467,-0.0010776133237909748,0.0007741349430509525,-0.007826634550916374,0.008199214761166525,-0.009654319824600938,0.014468974559556858,-0.015623634199595626,0.013787381515557619,0.007525967264841532,0.008880214399171266,-0.006410353830674714,-0.014575318435508265,-0.005974140608325136,-0.0013420170751688096,-0.010128027089617835,0.0016892483847296864,-0.007245466916585539,-0.0006767513633447499,-0.011796620255893515,0.010098229438954626,0.009049628215388985,0.01182257582047111,0.0036221598168605963,0.014154369450073551,0.012244229755559336,-0.013789358173598408,-0.0039059511711650556,-0.009451168163507169,0.0031704053336319912,-0.006739771640533566,-0.006641209814182685,0.0031613310589850736,-0.0079052499390895,-0.006026871382754557,-0.015573860350634783,0.001634894151436611,-0.014759439972891364,0.008531515054268139,0.010099639818143557,0.013928715905740893,-0.009281304958212638,-0.009803841334793905,0.0021588402667481535,-0.0033518876174454364,0.0025590946790979216,0.009438169130910216,-0.011319943151491426,-0.010039651208087322,0.0011784556368539638,0.00041951540169234136,0.009341937860235083,0.013801380989022928,0.014129061076818127,-0.003898481484263628,-0.012463894648531777,0.01495827888724327,0.0019812780356382037,0.013070295523133175,-0.006854156498389594,-0.006528888477014976,-0.007317420641313421,0.003459193419556101,0.014452833818528198,-0.011409943485903577,0.005770363102265429,-0.01047296393023044,-0.010173403714411368,0.013885346496414604,-0.013855965748556576,-0.0025747830661029154,0.009406603951180311,-0.0021100891414825088,0.007520487786312802,-4.653912781306391e-05,-0.0018948602516024975,0.014431485950523813,-0.00235406664805227,0.014160650454523416,-0.013139085730599735,0.006080613017646369,-0.012036963299760475,-0.003549360825487482,-0.0004889915816696337,0.011299061638245272,-0.007625163591401307,0.0033995059730065127,0.0017672460882955689,0.01356980813744036,0.009431291893184843,-0.005852507882120439,-0.010055264205802005,0.00019988970645961127,0.0053809307193693895,0.0066816109370313875,0.0033768028576309644,0.010591320264761013,0.006529010574149861,0.010819321478227433,-0.008197632138284457,-0.0058602327335384695,0.013980759353385223,-0.010170786975013602,-0.013681970594690788,0.0067507528929951904,-0.014334964693381247,0.012316572221987801,0.015009030510815698,0.01297682449912485,-0.002475153252973445,0.0030942060189341064,-0.005925204663247915,-0.00609782342979957,-0.014657397067103273,0.009243609562909774,-0.015430993754591008,0.01138626967213072,0.0048967697991895084,-0.004663688586701947,0.012352060623917645,-0.008807375179389267,-0.015163245192401684,0.002523749592575744,0.007760407841597924,0.0064972441056717345,0.013885042025764415,0.007158551198796648,-0.010901175338351641,0.014206320934080988,0.008843413653554916,-0.013999523836776308,-0.0017154964165966742,-0.006970641140308632,0.002161095438130735,-0.014194386380732556,-0.007811379675783714,-0.006176671469260472,0.005177069486599094,-0.001632753034763186,-0.013872474905012616,0.004734939256130766,-0.008332825881381126,0.011305977095153165,-0.010355451799837597,0.008828919609153208,0.0018999523577097298,0.005280087466842248,0.005229220652295655,-0.012850268747407356,0.0037986825283364244,0.007234574144528983,-0.011035001290154712,-0.010022311676557163,-0.007009113877423454,-0.010103594404911573,0.014715574505352474,-0.009812033494865861,-0.007406809452303483,0.014514668657885605,0.012665190705471407,-0.005148489937334411,0.010309223564185968,-0.012713272688328055,-0.00865186382558059,0.01277056599625672,-0.014026945694757376,-0.013073428804945317,0.01452642625962472,-0.0031381030917312473,0.007902852826989507,-0.006950236188185563,0.015164514397334624,-0.003598798925201905,0.006002481655687692,-0.0056657886964256166,-0.006647439753704687,0.0035928444019540755,-0.01216582206693085,-0.010964435170585617,-0.0047299755537175,-0.001103238922461551,-0.006453378957138663,-0.0032493276855514105,0.01000529414793919,0.0008500283328309148,-0.013095853851282563,0.015163492679499953,0.006261436571041355,0.00020702381947842324,-0.005194853493952163,0.01382657702020523,-0.0004759107920362174,0.002799986208906053,-0.011890847384478192,0.008539789987181974,-0.005964574094574002,-0.013759461689531426,0.011197615843877844,-0.010355177453456425,0.006637275436065144,0.0043193739188174055,0.0014539779137544527,-0.0087417233244855,0.011325928538566305,0.0074281867634511355,-0.0018723916486502526,0.010959731710424785,-0.011272038916515938,-0.0023068780036838397,-0.015599706204065936,-0.004869472225814561,-0.012333442579668796,0.004893349379847412,-0.012906002894132872,-0.009862622199943473,0.00027245541183386346,-0.008942756861292395,-0.0017042437774989934,0.012844998451156869,0.009139876436691355,0.004998423658114572,-0.001744294161944212,0.010131699275931647,0.013281298400452196,0.005881237103966933,-0.006837653939861094,0.0029064890982138034,0.008079825181125884,-0.009457834698167255,-0.002461244389320553,0.0129110234737389,0.012477814122832127,-0.0042584031547036605,-0.011812317257968646,0.0061913195141760705,0.01430547736798857,0.01033076685257072,0.012635352296404976,-0.00949128687037016,0.0008391843493860442,0.0096321743783781,0.008351903130686834,0.0014805216875212225,0.00016348267152210133,-0.007790006082014744,-0.003237197032038005,0.00974455542334415,0.015346772877107902,0.006106867721728668,-0.004697047791272557,0.00746998892331379,-0.009005368990184302,-0.0029732586548192677,0.0041593663715501425,0.01431278288876809,0.006914637805198912,0.009489771453902,-0.0034059919430925525,0.010036180466364328,0.013418735601674097,0.0008671272314395469,-0.0016926365585159947,0.006425913507382964,-0.013072743232862512,-0.013339128554241169,0.01415245016271989,-0.004765607661758157,-0.003198777846338742,-0.0030608393419376823,-0.0012728180087306397,-0.006179308548482379,-0.015219409024072598,0.01360871461627488,-0.005395964409612177,0.0016679149767333985,-0.007841500527859105,0.00765652810365448,-0.008995173958307116,0.013120982202364566,-0.00857880007312228,-0.013308565618063168,0.006419794573034321,-0.004687445197998141,0.004507353052188388,-0.00655523646332655,0.011785881996430856,-0.008540156799839577,0.002145344860542995,0.014168832741996235,-0.0018644045712440417,-0.006826883240169432,0.000900277634117267,-0.001767073104468428,0.012653788559116044,0.0013914910512267085,0.003774983879864406,-0.00022437198641504091,-0.010562160290748517,-0.009348513762850879,0.007517242959657645,-0.010669052674524351,-0.0036342079344300407,-0.014597612546790498,0.013486598616620448,0.008476424835051566,-0.007413498640614094,0.011570395440158084,-0.0068867023773757224,-0.0009687780411546214,0.007186204463574271,-0.006651171574286272,-0.006052486081965586,-0.011309337356955183,-0.012208896287953443,0.004119529364387399,-0.01314035094554333,0.010255044003190234,0.012385176609247022,-0.0052410570344653545,-0.003243922733957655,-0.009661745630090729,0.015186478711656477,0.006383962993432964,0.00733766975240881,-0.012234412399782721,-0.0022712444789137233,0.0005698172993671667,-0.01300588857546977,0.00031357602510010546,0.002462210949024324,-0.010567481206577474,0.005743510575086,-0.006206927318545604,-0.0021433333959955114,-0.0007174575999024241,0.004925812677182808,0.012930891884729807,-0.007256403709957247,0.01323557419255278,-0.00930484329973795,0.008401090801435068,0.010514897495055235,0.0013274413369726012,0.01363646385645138,-0.007207398607020653,0.01521615038232681,-0.00824466427452875,0.007710872939152225,-0.00398969009884069,0.009084022004083255,-0.0013691548205147577,0.004000783999287293,-0.003985450727987297,0.0055996614540043885,-0.009640174918245089,0.00875697518137154,0.009026929691453776,0.007469284530585603,-0.0031874277252700763,-0.000404935073290362,0.008809976404442258,0.002305244193413273,0.0068263578322875565,-0.009985509208817848,-0.013781510111031698,-0.009242791900218164,-0.0030511226659517034,0.005143157754410287,0.0034591466115197304,-0.008214760374474255,0.015103597563258912,-0.008170609058109166,-0.0052879718631578775,0.0020697841805197917,0.0029385372630373746,-0.0006690309235902608,0.01336213581063269,-0.014082500220245618,-0.011532546197853155,0.015022864561324817,0.003019935395174856,0.012663229195934454,-0.011471509829244119,-0.009708020556562794,-0.013372847662422381,-0.01054921419600029,0.00031935082808673756,0.014822783840147132,0.00797229501890907,-0.008044794791009273,0.0081207306981615,0.012754283913397592,0.007155215677151418,0.011382576173212929,-0.005617180060858956,-0.0036678684941061253,0.009704213114941965,0.007565177067063084,-0.014691196301267452,-0.008346548841153656,0.008984545853810692,-0.0005911590110947613,0.007355785886697167,-0.013346268132951398,-0.011843949307983027,0.01188255836814776,0.007841209511658887,0.013834473455415237,-0.007559145716723774,0.008503545287266295,0.002101854286758964,-0.004324269305198421,-0.010645574387707461,0.009711539553791965,0.012734808351921569,0.0021367245381567167,-0.004123890751969405,0.012759169410818456,0.002428265863938673,-0.013071185271981436,-0.008804975457085445,0.008839682971187948,-0.003111276269199704,0.0018658619348050909,0.007432098540460265,-0.007100077496539906,-0.010119078724683591,0.01200391094140004,0.005343298995382835,-0.002281020637571282,0.0013900931828349297,0.009020278943733407,0.012009641134519158,0.014562398820830751,0.006453908837255634,-0.003833559828369259,-0.015302018929763291,-0.011954817490343259,-0.014221530979114862,-0.00746875364357575,-0.007977856609303877,0.006569929819458576,0.009012918016342054,0.012723154598369944,0.007524849842730195,0.014306535592815074,-0.008895611551033758,0.007635807149644985,-0.01154914194479666,0.012545900629174284,-0.0038493861805105854,-0.003686440431625814,-0.00014228714661686584,0.006269669842886419,0.008706614251748679,0.0034890852848654882,0.009651173925798139,0.01449226552107849,0.0012274195797827188,0.007071626652183069,-0.005717603808518615,0.012222078616441784,0.00883109647516913,0.00034890623405596163,-0.01003091286454108,-0.009775135704732239,0.01440547466247644,-0.004232011384217173,0.004468613808329108,-0.0054377616811994225,0.012441347632159174,0.00982964099105069,-0.0031397766083156274,0.007489453018943781,-0.005007716408588353,-0.006076937317830697,0.0053359887218360075,0.006598240816103797,-0.00772069731030341,-0.0003797106621586527,0.010362573174764137,-0.004476856410975238,0.0030149363033972476,0.0030621996262273944,-0.013578148763675333,-0.0022894232391287087,-0.015214708991301222,0.014030732411266893,-0.00535056410813297,0.013932735217019751,0.006022450580626722,0.006991269543559574,-0.008513113884621323,0.011246263532700657,0.0018397931623238273,-0.003101248913100485,0.007209773757511646,-0.00408108946797537,-0.009612786676568431,-0.003807761372105131,0.010738624169053385,-0.006183410567355198,0.006666548220388237,-0.005212350899318173,-0.013023956402587775,0.002622772117353421,-0.01198548344590571,-0.0005269260104976102,-0.006328177723536971,-0.008933683522030268,-0.0045309464702519425,0.01530593326140339,-0.007054351734146532
0.11479291300614194,0.011734408405974874,0.0060995793773735395,-0.01217794747944699,0.01004962134913305,-0.014284395084121784,-0.013050764425193605,0.011064969883080061,0.007540880864317943,-0.0038485453061667986,-0.001996070267756707,0.0071293099260100225,0.0035867774395756066,-0.01149722086264315,0.011331238734726159,0.014186904294566666,-0.014483112711471752,0.0063289817111014494,0.0018510725845310716,-0.006720634262031372,0.014348415898301808,-0.012746100313626933,-0.014462128054762165,-0.0101345461034004,-0.013567140398896085,0.009404414651343444,-0.006875732265097304,0.004065176624914159,-0.011385490817386865,-0.0034793547005636284,-0.0042772569455371105,0.0038275719613394717,-0.013137420866494755,0.010103145361059405,0.008406223210862106,0.006506205264224598,-0.01332667397177575,0.009189611323037578,0.010000203330569706,0.007174441582591467,0.012040708713214835,0.013856261199455417,-0.0004513379523800074,0.014319020260558809,-0.014787889055197574,-0.006777943910543642,-0.015032357823030296,0.011533021676779293,-0.0001583393480704652,-0.012991573204830457,-0.010799080988799902,0.00020370984878909787,-0.005557438981124135,-0.012993426096330779,-0.0005512222023461716,-0.0037897321070009156,0.014757848179816156,-0.00425149427507579,-0.012404832941783902,-0.003564607039907637,-0.011004772876535774,0.008317409909484038,0.0038859687885667332,-0.0072739049272943996,0.009821808956757081,0.0083227938641935,-0.0035606711996526087,-0.01332521452276625,-0.007670206653288544,-0.0033437178111228967,0.007723619807296481,-0.00787455452329863,-0.0076339329684298966,0.007474641985488177,-0.009414807597441946,-0.003555949180319273,-0.01410597450720389,0.011139967076627226,-0.0008620106255155204,0.013229491839014515,-0.0008661960839168974,-0.0030253010577741303,-0.001742053144345567,0.005914119554457559,-0.0027621482155572447,-0.010601115867628377,-0.014977114252775748,-0.015383686370903201,0.011366766597488608,-0.011134481623476706,-0.00330470012505449,0.01590342009951918,0.003930537316223835,0.0003629923671633831,0.02967382692490746,0.010749167028956813,0.0265777561649627,-0.0077049193107708485,-0.01154976881102149,-0.016436738235917524,-0.006383071157381883,-0.0024109027300739825,0.016177711818883694,0.01218741711752232,0.007052013623921578,-0.010831769470350435,0.007703843659109418,0.0005938126646157451,-0.004786203732084475,-0.009392571907248954,-0.002136155741077214,-0.0017902240331216651,0.007003170864365207,0.01275073867884043,0.007384706031052964,0.01485994875474617,0.011075025300194007,0.016051635110922086,0.017080528772812246,0.030132353153334,0.029155803361673942,0.008222903593294778,0.03345245537816496,0.043277876110464776,-0.004454015582324229,-0.00646463306258515,0.00534152480951404,-0.018500797294369157,-0.006969407446440642,0.0037652723103758345,0.008146948588477362,-0.0009259969007374583,0.02275523772158431,0.0019762524337937817,0.0038676189040878555,0.02218123238682621,-0.004894088128265517,0.007525208444723552,0.00973059772466968,0.005013252223127953,-0.007318907458176337,0.0071739011828290435,-0.005036596091077185,-0.007945492328564363,-0.008371231685030452,-0.0003013080247327158,0.0009292443820555112,0.027104837783764595,0.03912073672381844,0.007127302061790879,0.009675139217409291,0.0075976621210996215,0.0035204563445176244,-0.009352728861606025,-0.016223677307661652,-0.03165599441085946,-0.0018291455365547354,-0.008782656958848325,-0.029928945838145888,-0.009109638833426758,0.019976653397685368,0.012302199791354412,0.03670440445033973,0.007015038218099816,0.02130665252367286,-0.002159815588337309,0.018648034030735245,-0.0036254793183668624,-0.015236288206882546,-0.01008858651021759,-0.0023334333581806616,-0.008145664579892553,0.0003642599606624286,-0.0017684570147030003,-8.014764593199591e-05,0.03742512178242702,0.040868939436584935,0.016672213961773513,0.004344047567739806,0.002248659756142707,-0.008000823533952992,-0.038043640914076866,-0.025755809683362215,-0.05029626669464206,-0.026621897676912892,-0.053642627059295914,-0.04092507637626431,-0.024735171071224544,0.0014014024138640606,-0.0031601127289957137,0.021125720474883928,0.008055074641040808,-3.87442416527383e-05,0.023534676623279963,0.00293813780512512,0.008504183724810828,0.012966541246998628,-0.012152136358865237,-0.005116599204628879,-0.009044394067258384,0.004939369147738679,0.015899180523889157,0.028451769949988905,0.00926859444021802,0.031650627120061336,0.003793991868856414,0.01224164726726698,-0.0033439958480730456,-0.023889981811193804,-0.04527689039632409,-0.06148739973953174,-0.031134151868255158,-0.019607313463191393,-0.041971629779048024,-0.027303455568286394,-0.03593888049008133,-0.024756094493245326,0.021681172312782084,0.012583518567614362,0.03850396812723208,0.017674348518101353,0.007982544415460553,0.011277424781279551,-0.005656405856054937,-0.010745786191490882,-0.0084177983406114,0.0017565221120573074,-0.0026020164030462357,-0.0003038839854446241,0.01690267397487732,0.015138513126462812,0.023146001386360738,-0.0033109647487060217,0.034353278032469736,0.004112375482026918,-0.023502197234764776,-0.04720283235593198,-0.07733254143509613,-0.043576221641427715,0.011878078512615886,-0.014343208470617572,-0.08265391500073914,-0.08994606113653372,-0.06178315670093899,-0.005688126335361952,-0.011883555358513355,0.011918916851904065,0.05249223091337901,0.04904744006784034,0.031354279824803606,0.039674563872291777,-0.005061259725390625,-0.010808790529423191,-0.006053747228858732,0.006632615201228471,0.00913436029540632,0.008308780675899083,0.04734752513223475,0.04529613719487281,0.01896650342155438,-0.0032337912546652153,0.02505412606123135,0.01309463839397692,-0.06312310658814171,-0.08059907393532578,-0.07528955733796651,-0.00908533498797072,-0.0029742740923134683,-0.015648149726498667,-0.08111614540944856,-0.07891295057487818,-0.05690975141401414,0.00782625581246081,0.023078227836639757,0.0042494724316930995,0.05781912582011843,0.021488032091122482,0.00972766988782513,0.036225746977580776,0.014937313405782793,0.007148942043910245,0.007801634069414785,0.0020226692395824814,-0.0070615236792341924,-0.006486190483251266,0.03790862554985864,0.010597170212504961,0.02031264190889,0.037029621829709404,0.03252614414663879,-0.018589609342618024,-0.06477476527763108,-0.061700481446743484,-0.048579925237958406,-0.01508867484727028,-0.007711317264935738,-0.029137919890969557,-0.05337520754315392,-0.058608315284027004,-0.05282077891071516,-0.02824877035998534,0.043284689198776406,0.007534309606255776,0.0472666927876116,0.04370766208636663,0.029832031155477185,0.012994453520045794,-0.0007133556749244774,-0.009135807770442025,-0.002445488172330791,0.002845336754250657,0.002701021965351902,-0.005425106343535688,0.03086796166140325,0.029775199568292915,0.03363909758412593,0.03607317636712296,0.035219135655875505,-0.052050012022119486,-0.10568200094828761,-0.07090372271868546,-0.0696684143830437,-0.03160083252219956,-0.006545908581492437,-0.008533725537600755,-0.034307777633434046,-0.10717521601497682,-0.07785923054096443,-0.0018909334413795055,0.04684964024599702,0.03827718620084807,0.053400058275969976,0.0581458717429236,0.017387529311507163,-0.0011192556212102655,-0.0015919671453710278,-0.016065255390306843,-0.013160054822979703,-0.00442497085764471,0.01712777282963435,0.024360467010697454,0.032563413580922115,0.003872033494239933,-0.005127571541296111,0.04448427028109032,0.034539205356967584,-0.03895628280262273,-0.08660680757424964,-0.052244479053037716,-0.03258998384088366,0.005923504560249885,-0.03902721290280199,-0.029277087356900044,-0.010066034302657286,-0.03761738777828329,-0.08448625317983778,-0.04602525827029249,0.03292027921413628,0.031882221925470376,0.04964006843894121,0.026994622169715418,-0.008470599549473885,0.031051571309865685,-0.0074361683514272804,-0.002789475633393091,8.05650781905004e-06,-0.008264870169497089,-0.0021059432776432004,0.007079708220414222,0.048630532189478444,0.013765907409546042,0.019633121575736122,0.04652273371713349,0.061484024579610635,-0.009616687126999543,-0.0539367634283684,-0.05583781467296461,0.0030585855336433664,0.034904382751451225,-0.0017031774093210854,0.008846100876997576,-0.013925428348924905,-0.044840847583128965,-0.09374274431829088,-0.019581273208060582,0.05136694696986245,0.04808869913697025,0.01386438883572835,0.006840421519616686,0.01638531106094914,0.025644918480245055,0.002942891402090818,0.005867318849599698,-0.008077691084079075,-0.015748185246856592,0.013415255063988961,0.01387684959379947,0.023761726268205583,0.0399245697007404,0.04052288643307729,0.031576775381037724,0.043067388191284674,-0.00972631726410103,-0.03443577077636103,-0.04769342277789069,-0.052043279923122736,0.0007703838848603357,-0.03932955584931812,0.007916849753813791,-0.0137298089772032,-0.0342717436314529,-0.052851215953466854,-0.0007227220940321775,0.038947387990231175,0.048594616887214136,0.029052036458434703,0.031474594362114715,0.03900636761266192,-0.013449157232464743,-0.013128531803308885,0.011509819015666051,0.0027641645249528203,0.011157323878332478,0.013262546350721858,0.0027440482397374693,0.008385252737121051,0.02307444001477592,0.01637347249769575,0.013179422114052939,0.03294770007068618,0.024516461521209294,-0.0213762050282392,-0.03048632273514537,-0.032215554270597135,-0.026590373127815065,-0.035009952397789965,0.0006794593091421909,-0.03600617302880256,-0.042861803405227085,-0.05697516239515267,-0.006634596501349605,0.04926793683147971,0.04754560150751761,0.03313295515961534,0.025845528869934086,0.022438027065374126,-0.017457415720148816,-0.008777919944323127,0.0009492288412882676,0.005382433273889313,0.007191089795308122,-0.01755819957367406,-0.01204362073737516,0.04013950596700047,0.011298707778664801,0.014155929103879514,0.027357309226293196,0.00047869164518491765,-0.006983562715523668,0.019576395246979236,0.0476681917300263,0.032211486724171866,0.032918023721763216,-0.005652637473670043,-0.043223798403646894,-0.08090900857128702,-0.05769308398106824,-0.03693965675944185,0.007930080957951136,0.06805219145912107,0.0386312419627987,0.021025651590849855,0.0013871366840449964,-0.003813589117328014,-0.01257847241702235,-0.004547275271276861,0.014063484760474566,-0.005955309001402072,0.008165587084001464,0.0017584557527731213,-0.012504634041585734,0.0359442067409845,-0.012579815581983449,0.02732617907508282,0.037534652129954604,0.016293695999031445,-0.026691619521023346,-0.016912511958989747,-0.015077744965300087,0.013078809581421337,-0.0010695205253163963,-0.01814990037392261,-0.02639850086688352,-0.03734588574373286,-0.038826653129274344,-0.013550465489824566,0.027821516685049702,0.03504875657820262,0.012791339130722746,0.035960073961747045,-0.0041479183088497205,-0.008721681258342787,-0.00028030197473318615,0.0019787536570615486,0.013448853586483662,0.0022436093702900284,0.009886232290718514,0.00215485396255359,-0.01176234981425675,-0.0006834545593122928,0.016154146634439953,0.0521066715905706,-0.0015748515607514049,0.002668004119011786,-0.011431546357097703,-0.03101150947712377,-0.020640319392667996,-0.002282771449570398,-0.025420828052221348,-0.0325596171394155,-0.014434748226424328,0.021076995711510633,0.014802436629911764,-0.0007865985836327195,0.0210177073798106,0.06058719177949808,0.030406654134047913,0.048852162347213894,0.002836463231797081,0.006782380783701095,-0.0018336800399790245,0.006327694808310874,0.010190786998744835,-0.003096451301079769,-0.013656171698083662,-0.008260867741837624,0.0026233556303807168,0.011872543811324184,-0.003011535871015092,0.01942290901385749,0.037372159952394506,-0.017492571595327324,-0.04672380755284428,-0.03852285264284762,-0.017190210448019938,-0.0165858419997367,-0.028435900993908834,-0.04868365915860278,-0.03406511631638603,-0.025323037846278464,0.021503621645985804,0.006929792992802775,0.020475754604182193,-0.0002940634873655236,0.04452469700003444,0.027519980782387075,-0.005480020160407104,0.020991776397904102,-0.011029716981202966,-0.014079750828041351,0.014799567277448262,0.006236963572304379,0.010548390248874991,-0.01532037055602635,0.003996476003213674,0.0023906246582398754,-0.011526573338428376,0.008089378931497726,0.014452033905139819,0.009782178366636762,-0.0027121179471609044,-0.012928166673334454,-0.012353932767466125,-0.029803951624188703,-0.005809523355777449,0.020018255030020672,-0.017765615710277054,0.0007777470257940229,0.0056174796806084375,0.0009373538399053247,0.025920787247377567,-0.0035768504750388302,0.010548430327714561,0.02088252655846858,-0.00026913301647810785,0.011208403944611029,-0.001054360426242086,-0.00835579870330129,0.0042663011289825505,-0.01173646419261783,-0.006647572580853019,-0.004423143870684848,0.005341229804523638,0.004236734452850693,-0.008651059443948233,0.0047729587140978745,-0.018084381185344185,-0.016570152952455043,-0.0031735874914738055,-0.019986037398656613,-0.01390944921473184,-0.01944445174485831,-0.013183881652462964,0.01074030485512355,0.0009612231939216821,0.008945579457153992,0.01277023530659821,-0.010987866490255389,-0.005806444648110643,0.029722143299278143,0.03189900832657879,0.008567943844058687,-0.004062972092968025,0.013684193635560034,-0.010875858925113772,-0.006844058868949013,-0.014300474550175444,0.001781232430564588,0.005544549294658391,-0.0027249233925119333,-0.01807963014671782,0.004082156572098927,0.020362504665252575,0.026115078591161914,0.027327406910268054,0.0026490959022525823,0.025447426053495436,-0.00033424691197595505,-0.02178501943718761,-0.02985621753805088,-0.037188063799697815,-0.026958055197050815,-0.01049349218694554,0.011347418073097694,-0.009280248550398391,-0.018907696798898522,0.007867058041519862,0.05341524398904782,0.03149962771055391,0.005492922693455398,0.013006965118011955,0.009280520316303354,0.00011089097899007609,-0.008968582167367626,0.0020396495889923767,-0.0039199908433023185,-0.01200523427897763,0.004385481970272234,-0.003571602221464641,0.0072490988237298845,-0.009566750459351934,0.01323948267196814,-0.002344746232731959,-0.007293110081290193,-0.0007729957513036168,-0.011158275423772885,-0.017325733144218224,0.002372831500988995,-0.005112859336977959,-0.03672607488842116,-0.008445518016535125,-0.00511510923454184,-0.014902617740482437,0.013635803840853205,0.0361618076576125,0.01109196781035575,0.001052864127137013,0.007141404991606659,-0.0026799609999483874,-0.0019327419834575283,-0.013817069518932315,0.0028507415409889623,-0.004369274800809241,0.00044842170611537543,-0.014999377846694115,-0.01135241059487101,0.009420948624333658,-0.014210170494079976,-0.001215722382968806,0.0011291309065410374,0.009433776917533665,-0.006421693954912291,0.006256324812048773,-0.01110270492685894,0.006095010696590361,-0.007774267179252652,0.004064724244757071,0.007045275136238951,-0.00740425186334241,-0.02134510571794077,-0.004932488635530621,0.012567437717492622,0.015998134070879654,0.02280553812575834,0.00831715756812011,0.008347204391262334,-0.008005094472529934,0.004195959694271307,-0.0013539550994522732,-0.0033216051755083076,0.005225777707267173,-0.001369840721659115,-0.005431796707248929,-0.00045242712181549,-0.003320403595926728,0.014364265964390508,-0.004500805818040324,0.003990097894671374,-0.007149970077168323,0.01373402487088557,0.005498431228816887,-0.009001917855079035,0.007002934535072943,0.01569696257356736,0.0040315857665535896,0.0027126122719387273,0.005837525377810421,0.005846084449248965,0.012122991675786262,0.011164334740763298,0.02171558274940048,0.01092191427307982,0.014258394948529771,-0.0021957966820557178,0.0016661281166943651,0.009123207247524051,-0.010251618542908635,-0.0146664768061682,0.0034295285947611616,-0.0060155774926625785,0.0016009138593891352,-0.008961030171329695,-0.0018054824942160541,-0.0070350706424369535,0.012048381878147392,-0.008366544595667623,0.007209590349949389,0.0018333287462119852,-0.00918614913761878,0.01030195161427858,-0.0141004366100574,0.015573504656473508,0.009352354972625281,0.003012312146913629,0.00500177707613336,-0.008541550379137506,-0.005089174028658991,0.008815043496053242,-0.003111752690730515,0.015976418033777785,0.009033954609478914,-0.014012179006375608,0.015461486076464567,-0.004907581821543688,-0.0031531304112866025,-0.005940988547507426,-0.00965175706473968,-0.0067422253713529355,-0.00603106283224502,-0.00045800048900467363,0.0014779599238687012,-0.011664258376842523,-0.013929309275799624,0.007154654142184001,0.006733195378884196,-0.0010904937052778508,-0.005269031181143046,-0.0030638810053110373,-0.013103794806808202,0.012197826700367714,-0.014692168413577754,-0.013992861379123742,-0.006931683601286125,0.004066913231007966,0.0016100190601347052,0.004059833226713543,-0.00721666376852635,0.002680179439699875,-0.004999992364993992,-0.004143600334616686,0.010513608510136833,-0.009350232192441025,0.013997391351953256,-0.012026981748120925,-0.0033106114020061174
0.03312081647192203,-0.0013259860979956163,0.004883468970032966,-0.003343151923725387,0.004888687803254504,0.015607420470167707,0.004188863072749769,0.006782632690077818,0.015180849903957482,0.004176072209550973,-0.007413447696578242,-0.013859429798672539,0.01140887423142712,-0.011170871330613397,0.013044690421269496,-0.008813818102152714,0.004573958598283873,-0.009619694439172103,0.005921051866806738,-0.0031709090718719836,-0.007878340535429799,-0.009221225425985684,0.006900884207497283,0.006453819247426815,0.014913657410702011,0.01441714867947376,-0.007998188114176488,-0.015348064941839233,-0.0005996897464439488,0.004382020301559382,0.0003361070030067949,0.012548202218722618,0.007783922061364988,0.012788573706849847,-0.00966725467984134,0.011311743658787815,-0.007932964003496235,0.003283708171483694,-0.0020471041902313768,-0.010889140494695967,0.00016821692777922197,-0.005795190007019075,0.0035246815924550663,-0.001585074265304201,0.004174087728928331,0.012606030150327123,0.006333811495307786,-0.00770237529661702,-0.009130983453786663,-0.010678887884139177,0.010018285981219285,0.0008288939492731955,-0.014973898394631632,-0.012337433495820657,0.005303975536418808,0.0134058289447179,0.007455013105656223,0.013839895984984724,-0.001481774989734657,0.011801353648374889,-0.0002839716529156114,0.002545095682231692,0.013847353201214435,-0.0015720724345337689,-0.0030439979162492697,0.011430938117412918,-0.009740150576740292,0.014060615208940185,0.014573731950309582,-0.005751806891797941,-0.0032858885252297996,-0.010729733695880386,-0.012875041889528573,-0.014223500601665637,0.006878480780762885,-0.013580399789191675,-0.006539812365456445,0.004084576261675507,0.013976210018579653,0.013993202641971044,-0.008411134193645937,0.013391940171977968,0.015179406959181487,-0.003714623155976038,0.01385836489204708,-0.007637852776372519,0.011715674125163042,0.010280939477466812,-0.0003068000796013562,0.009018055243537926,-0.006610546361931495,-0.010625631541798092,-0.003426919717959205,0.00984084592478121,-0.012770059924746233,0.009121212228164352,0.003810942162876826,-0.004732821028279047,-0.013999871827219098,0.007718836028679925,-0.006332953230199811,0.009232684625982243,0.012103724922283171,0.002166755168114794,-0.006712514553328119,0.016226254462214332,-0.013204881846353465,-0.008297345932957853,0.014464760227728359,-0.0008891325326590357,-9.596935187057912e-05,0.004345346880516583,0.013133173326778852,-0.004397775136517332,-0.012168767847159038,-0.0055410270328448835,-0.014597838688412544,-0.0010549590400504186,0.016553372725601014,0.004716925293223473,0.008349109679609498,0.0016835473709440408,-0.0015824102445222332,0.01156588820196163,-0.00910850270813941,-0.023538783024767956,-0.021437340637883082,-0.01702433656351784,-0.008455115748025597,0.010375391320740347,-0.004274440250521955,0.003898835308284626,-0.0061631153852615425,0.014324287395014424,0.013732395353946394,-0.013785998353439126,-0.007440640629644093,-0.0037691296010085853,-0.01075350746221574,-0.003032528041504936,0.01182789921341923,-0.0006351682287418572,0.006641475975458104,0.013267400638243564,0.0035347827225948223,0.014904762231304937,-0.0016354263128051426,0.0011779740149564014,0.024836738252192857,0.0025748422753270714,0.012402966789866554,-0.004247995051245237,-0.028345450290298224,-0.0359586908171606,-0.05462683870642091,-0.03699677834509699,0.0009481918503862465,-0.008473218067011522,0.008235617487908152,0.004596114874817312,0.010736119069462279,0.03104888949327428,0.01599381018252299,-0.004711360744161987,-0.020181191500282133,0.006837010277125129,-0.014795032698004681,-0.012560796844243393,-0.0028833166403153462,0.013006695116718266,-0.004082365200464025,0.006385560073484803,0.002748680271165718,0.008257539123929684,-0.009006076197395666,0.0163196791657461,0.02144726482186913,-0.0024232370105500885,0.0010832029668389129,-0.014080615311003918,-0.04704221580178161,-0.07417505790590662,-0.07053232517505804,-0.059268648108322386,-0.020650373913652136,-0.0032987263450048984,-0.0014658750924566642,0.006813704083100192,0.009631943886044181,0.0010684592343581545,0.025023246968449604,0.01564617792438994,0.009902975903878904,-0.0021585925015107743,-0.007305220545620527,0.008327187678790338,-0.011534741850649082,-0.01229177047975135,-0.001555445316611049,-0.010874975503825459,-0.015423888586227986,-0.008804431816494228,-0.0043140592494682346,0.007326959935121611,0.0012926571594167244,-0.004860286286443082,0.013288271532429233,-0.013855053790486594,-0.033488643820165705,-0.0743172611585699,-0.0874212376206261,-0.05516499915518751,-0.01044535575293292,0.03305538856382728,0.021603240669304986,0.016264345166041503,0.005471541286840201,0.007343723035817194,0.0174153077367629,0.04051674865054611,0.025064987646543756,0.02584720264888293,0.02671021439032226,0.005939900458659705,-0.006866891020774769,0.014147053368659901,0.0005137141021478598,-0.0018504830873058414,-0.014248318703491525,0.006729973762314002,0.017345917553614268,0.012473642889850584,0.04073979012952202,0.03348664039734787,0.014319424823923944,-0.027349508302483387,-0.0655628572939945,-0.12492517409213649,-0.0998085804294304,-0.08335514563248354,0.016921797688445255,0.041440698055271445,0.018255682625522417,0.030638573067664387,0.038298676905274595,-0.007531506335377495,0.027155685681609636,-0.0067041416767406456,0.01882720743703551,0.021284423818467457,0.006521753351193158,0.006771996701161825,-0.0023163357150233154,0.006031436355143735,-0.01344513240243871,-0.0033606794025910305,0.01200166043967274,0.025634728406098047,0.01220702663505142,0.013317898072902951,0.006087055108576123,0.036749063336601544,-0.0024871572439566086,-0.014424880619415709,-0.06915147272525769,-0.12222118470330533,-0.09936908783075149,-0.04683141222913445,0.06246689472415292,0.06256987006882432,0.022849892069365062,0.034485730474345576,0.023646996549314257,-0.010167694954867853,-0.019026633879443953,0.005140827569948531,0.007600153645089811,-0.023477020282844846,0.023537191035194794,0.001836094655237273,-0.013973534693976532,0.012586265577848022,-0.013373978658837658,0.00839404125585247,0.020109487917750347,0.00888971136900392,0.026604668075189308,0.016171116882731335,0.02338219865360316,0.0002836699340641455,-0.017020222059869354,-0.028970878911468167,-0.09369825240319306,-0.11257231984012765,-0.06200583635487513,0.026950846349910948,0.09087456732110874,0.007098589923802224,0.00852508199690667,0.004143215540978052,0.008007309616366792,-0.0029671449883085176,-0.038541857722045776,-0.02067855314484961,-0.0223770094699359,0.01258049032498419,0.028083303400554826,0.000873821421690357,-0.010740790199449065,-0.01506963330920627,-0.008075643471203273,0.004129526047449965,0.02318809072149318,-0.005835061706479545,-0.003702083432573024,0.029244653763004884,0.054668116097690976,0.004389362280405368,-0.00672506821106386,-0.06618335953484457,-0.10960939734879456,-0.11100858700564967,-0.06736217697995756,0.0055651618037744835,0.05987305595350809,0.051723494134003026,0.026325579698140884,0.02788332467581654,0.018518642047874335,0.04118328944685023,0.014375055066621203,0.01669063012161719,0.029025624030807294,0.027014643180213994,0.017137035957932496,0.0047734221070980815,0.006782078868962512,0.002796942969505521,0.011492562064418795,0.01794957288056866,0.019387568663965387,0.016421574541904002,-0.010174440933576607,0.016321911092693035,0.04647655729666522,0.02120283295372566,-0.023562810456644996,-0.11042238450372592,-0.12691393484030908,-0.09130116497019508,-0.06339114664851418,0.026922971754359305,0.0388135850778108,0.05001207049148462,0.042147642191208506,0.029441403432998385,0.018796893043313067,0.02346477605720679,0.0247959347643967,0.019520407238567107,0.022959632320455295,0.0059274310325107115,-0.004300088284441323,-0.002032657132180398,-0.0008983701805887442,-0.001629459016963531,0.0026437196717379015,0.0220313583214535,0.027288129518581988,0.040350535141330066,-0.004092299097994418,0.034431616949776526,0.041386827061003544,0.005572793686564073,-0.06207345900036312,-0.10266437607036671,-0.10489623559543763,-0.06731100055863619,-0.029697672900189907,0.0036666692062634764,0.008017112396919136,-0.0003440519255392386,0.015800334373579424,0.06113601080728187,0.031790525843318485,0.015116483098023891,-0.009458935859553309,0.01281404144769792,0.014125615861359287,-0.0247950498598305,0.0075259633534989195,-0.015783163680052188,-0.0012421804992076792,-0.011287084967039944,-0.008582835939488338,0.0231815419273851,0.03139891200412206,0.01456215664873834,0.00160322862266641,0.022910053324962987,0.040011558847968094,0.05113047524213764,-0.01533531632090516,-0.07741480032369273,-0.055364912663870315,-0.06024788962665596,-0.03544403850165059,-0.030524939820232126,0.00996615515060405,0.014994397210878193,0.01993693129732742,0.04854776896227113,0.005171665096404166,-0.014944630573252574,0.005752902345051738,0.032233351658997864,-0.0019176090385698546,0.0008244074240461229,-0.012643280511507883,-0.008049054199595002,-0.012915393333598417,0.009830698610112938,0.005014808356145934,0.004822311717661856,0.0338318337528802,0.025272953234454425,0.014135942181221772,0.03356230587783799,0.03742287343748786,0.05053463821735351,0.03781886673887268,0.005489651499371932,0.0031057643699109517,-0.03928418764496549,-0.00948875017059245,-0.021291819353280377,-0.012923247483109895,-0.0227554278254941,0.027236424592277445,-0.02266023772323654,-0.07403226858368807,-0.017013601770808934,-0.031543619535877275,-0.033896785566397455,-0.017420746181434826,-0.023498153910614175,-0.019825671375958732,0.012497597244737329,-0.0010749581354943618,0.006640853605830985,-0.008798260918672383,0.003939554659744129,0.031811431148708845,0.03746393102990756,0.010366023446837127,-0.016427470450355343,0.04569959630382795,0.05053020571085167,0.036011209569889076,0.006198988737478606,0.025821954064927946,-0.003807005336224956,-0.008007925381542417,0.0051532298157853755,-0.00522853395437299,-0.017000716855977326,0.012596280281187642,-0.03392524407313282,-0.0686300091624726,-0.030469833847257776,-0.030943808078497094,-0.025528435183153706,0.018395705689204674,-0.015559926764138868,-0.01097907534731966,0.001918561961674394,-0.008164503587096661,-0.01179757356372639,-0.004307671848521316,-0.010895823941051585,0.024715458075594145,0.0403482490466701,-0.01060299262629506,0.020778754964282123,0.03558882646970768,0.01374170670909937,0.005793681624599403,0.0317003934455283,0.02035521096423411,0.0019104403467747522,-0.007679949465647698,0.032105277031575834,0.014653030434593678,0.012332749483199013,-0.0006629904305270548,-0.018968365653233975,-0.01878066712432295,-0.04896718020701036,-0.028571509874644754,0.01120603573535664,0.012855532849637256,-0.016025179224261794,-0.014667499430270368,0.007942433939079608,-0.012458989918978078,0.010126164986134292,-0.007105115951024754,-0.007669507090723251,-0.012302482898725889,0.011659415994680846,-0.011619347216132688,0.05322096885187091,0.011936020544255825,0.0019350146230732704,0.019019794583475687,0.02871688738589546,0.004180998921142988,0.010362678535022433,-0.008821941249242939,-0.005838355277493481,0.01204020468446963,-0.029405645911670115,-0.019935936080453714,-0.01657307702853864,-0.0025814956517875762,-0.019461135965182622,-0.02820356203972747,-0.009350288601411058,0.0035517980384593257,0.003037851919246374,-0.002581743552791122,-0.01595039511361413,0.005730594965151176,0.008190088021614972,0.013404718961874475,0.0012311626115031546,-0.014440552928209373,-0.015842015014738236,-0.03710821942890249,0.039254968858812134,0.06927246861265787,0.020407963119952095,0.00431454786147096,-0.008461378002464989,-0.016626771855732133,-0.029073549777949455,-0.006653065321857254,-0.004459917096376009,-0.018598421178860448,-0.019573906064567135,0.00495759265069503,0.012194352914721722,0.012285698448837623,-0.019754143672273784,0.00032866078089787294,-0.021484878505917727,-0.006354973905602628,-0.014198214283603785,-0.016496957793329464,-0.001313154289595655,0.011871229468053074,0.010705211995764578,-0.011884948342964663,-0.0035466313001471204,-0.02098107732154953,-0.030746202830350355,-0.029430945227010816,0.011761245958948677,0.01960358457892701,-0.005028331574629452,0.0076199117779607705,0.004674365156808338,-0.028072636488476296,-0.032544080271190316,-0.002761112881250259,0.0047952065668950715,-0.020775362964340793,-0.019938598766309292,-0.029095303707076175,-0.004238808560158835,-0.017789486360196727,-0.025590643903192076,-0.008714092670350488,-0.0068042341855831835,-0.005747614326362596,-0.005913238092565141,-0.0030428088038411865,-0.010478476176431896,-0.005231321221048132,0.01362328773221124,-0.01025561173614302,0.003787546167349321,-0.02630700836725976,-0.013296252065128354,0.0020626029040932306,0.003409227094653446,-0.015026013671271427,-0.015485334413699283,0.013754406380175636,-0.0022708782279209777,0.009413444901963603,0.0017922285882457881,0.004844933238603403,0.018994291169222716,0.007571947618912237,0.017025622329642543,0.006197024569663552,0.007082837467097749,-0.02153368073307798,0.008927375307235249,-0.005363738459460988,-0.01297468596340291,-0.006470261064935961,0.005283276037330519,-0.004676028997052241,-0.014335887341358378,-0.0040102185890201845,-0.014931046235325887,0.0006211245843246796,0.012627644989902098,0.0007803444026058076,-0.010121634885490944,0.0022024755764248043,-0.0031936125505081913,-0.014421807380064289,-0.016777876668365332,0.0023336649433032975,-0.006598073879679773,-0.030072635824974728,-0.019879756470257654,-0.019641508148600377,0.0016645366405690929,-0.005977715568256335,-0.016690520635235906,0.004839350576484054,0.011904856130951949,0.01833326005565923,0.006338728993348802,0.014286073335022364,-0.024625619600753424,0.01039396827701272,0.010159139594075009,-0.005333499860311057,-0.010490920400164225,0.004721460455199045,-0.0005704077727172602,-0.012229221723399988,0.005074396265218065,-0.017897439623714127,-0.008026449089004269,0.007678108752662542,0.0024791798383253056,-0.010637837362413359,0.007491102408019152,-0.007933798909386027,0.007749330500604027,-0.025210097654948936,0.003970611526347461,-0.00279035329167602,-0.010718041376112873,-0.0006632292028359269,-0.007451359800049939,-0.009218948775093515,0.028364620772927063,0.004411059893402675,-0.004589247184729437,-0.0006394092006936821,0.015457053948368,0.014464556375226955,-0.011236311599209957,0.005921718747502291,-0.009273536888777582,0.0053071051808594415,0.010992088713209888,-0.008821716188726639,-0.008871337984455063,0.004914231262984327,0.004562729136401301,-0.002144597602103383,-0.01272844450548549,0.0010622106396507667,0.01139883774452598,-0.0015543133665330835,-0.011749795983610796,0.0002540776814411566,-0.004224845031924434,-0.015682891714418477,0.0033255630360730835,0.008100963497137648,0.021869619883954,0.010609446411599974,0.028207147065287482,0.01002615354283349,0.0013327026919493577,-0.013383232002538051,-0.012247036380533255,-0.01053056767492027,-0.005231269931247377,0.003048114427155607,0.007851175506054478,-0.0025479134053799472,0.004042270322723165,-0.013109539530890078,-0.004276471233717747,-0.013364037072409478,-0.007825808182377592,0.01239448002017141,-0.0019203514775591852,-0.015275592262677393,-0.0034182685274954565,-0.002698370569984816,0.002573198928197692,-8.646957811332753e-05,0.00892506205929716,-0.009134327243027596,0.017081122148863717,-0.013048848365094528,-0.0003403392385248984,0.006951020092044849,0.0024890760758795485,0.019971183774855565,0.0049902871420333715,0.0004428024752447953,-0.0052951229378279535,-0.013916246242440769,-0.01049282068422156,-0.013755916968271994,0.003530273016067193,-0.005722644283914738,-0.0005898286301176878,0.014041534831727352,-0.009607352439248599,0.0031112847177190324,-0.013689402155215696,0.006979379589225023,-0.015451511073245184,-0.012727952639252771,-0.005608660981237877,0.010570697621180493,-0.015501927343010048,0.010197318857854902,-0.015572218970923962,0.0044130434021527444,0.0017181625979000696,0.002233569452580592,0.0047210905759171844,-0.009372140257609938,0.0027194976344755363,0.008163558577491537,0.014818417616686286,0.0043692295472784175,0.01072320065231051,0.004561552142859245,0.0150736573921144,-0.0049355729119080274,0.012519179840646977,-0.0068485846335299555,-0.012630311205154659,-0.0009463788026439039,-0.012662130391411626,-0.008622139835791312,-0.002455166060578485,0.00917923350484385,0.006118459445547113,-0.014391500116364538,0.005208555198777657,-0.005729033094085298,-0.0011785915324196293,-0.0021718786969178554,-0.012223529930330337,0.0028504364134680285,-0.014224790726201395,0.0074896219620851565,-0.010504774786083243,0.012928043542043683,0.010558079814274148,0.00967010716210587,-0.012691342542527951,0.012732390092176315,0.0020358428426011203,0.0137972440660122,-0.013687402104824855,0.007190576872973531,-0.00720315949711502,0.012582097206860644
-0.2187302292502714,-0.00888993465548197,0.007821433808596002,0.013157842473241001,-0.011262845712541322,-0.009331614838009542,-0.0007231872974368669,0.014247483782016825,-0.012171388280124505,-0.012724356249729531,0.00879234323455344,0.01052486779495385,0.0064781639844519005,0.00991988907023851,0.0060598141530851905,-0.011542873236360256,-0.015185043066837479,0.012698694825813116,-0.010957032910049978,0.0010958961758180223,-0.00916887712858313,-0.012844756443739145,-0.0018008610172357033,0.0008227683522253962,0.004202806480841228,-0.0015429901881605194,0.007046322586819507,-0.015272292145319399,-0.0028917878170502988,-0.001260195868808104,-0.0018573837979469383,-0.002113888134875813,-0.006399999360356838,0.010927274435148498,-0.010363321985107945,0.014660843011582058,-0.0017850501543226482,0.014403620924428383,0.01393542603172494,0.011617381061502546,0.00207678985370267,0.00018258001942439428,0.00968904415973143,0.0018042042707099928,0.008597604267527363,0.0047302383206593475,-0.009865922031833119,-0.008459071400590448,-0.003365538014750022,0.0136054597350031,0.0028058105757127576,-0.013886008625326171,0.011161177108507725,0.009063760431043417,-0.007163934407240061,-0.0059223219100587,0.0030912608580813683,0.004519529591259154,-0.00389535342901131,-0.009187170227721673,-0.015618695502962424,0.015124185250495019,0.006447873550681549,-0.00047422437415000143,-0.006343154679131113,-0.0022212882235371975,-0.0128284195466031,0.009909299440762912,-0.0011309642894441856,0.007862082059950887,0.011200240600631156,0.006849301359998512,-0.011768304703718774,0.0013403076870105689,-0.0070960763535462615,-0.009109913788381867,-0.013886550468597006,0.012586061936424836,0.00010366133709112033,0.005251068929437972,0.014992082496592209,0.013961384964002756,-0.012988275486574226,-0.002045495974813568,-0.00019065988142647275,0.006445821141989591,-0.012626096460688088,-0.006200769975467396,-0.0024007750931892592,-0.011425314310598716,-0.011697321020482904,-0.005821582446889077,0.011530417773938848,-0.008156557521902218,-0.006835284932766011,0.00985306325211839,0.004510379654366604,0.0021048445065396278,-0.010854058691439981,0.013114124995509159,-0.009836564206962342,-0.015172725662032,0.008656825458660929,-0.005726561942971404,-0.00013494532567812426,-0.011874106067976783,0.014530838551547687,0.004354887788036631,0.010027278420209437,0.003351242898105608,0.015435783520514182,-0.001113543677521027,-0.013526045933803427,0.0012380082159948007,0.011326663732901147,0.00299516969777288,-0.008529715733530847,0.014812032623483646,0.0009466900516201665,0.0005044100107760227,-0.008122992678707502,-0.001494962383499613,0.0007152077611283468,0.006934756897650728,-0.001751100762015078,-0.015068304008944197,-0.011850728784859346,-0.012079671836073353,0.004785493787669393,0.0030037896154041857,0.01402335335769709,0.011358134513448716,-0.00318724726048409,-0.005687185659412262,0.008285693006521617,-0.007895226708517222,-0.009724254882302451,-0.005994884827038912,-0.013561505096437894,-0.0043040012418520054,0.005500446926917483,-0.012075224813926855,0.0143378944786699,-0.005030082078607178,0.004417681305911934,-0.0002623521593009097,0.015227683012807757,0.0009465992982460002,-0.014420472074894136,-0.007308997110250858,-0.014690188316978228,0.003074442015525876,-0.005261068241579656,-0.012172283384253468,0.0092021452735442,0.011093144140968035,-0.009164774242762647,1.2272353786993428e-05,0.0020949403300704675,0.003321458831858217,-0.003808381159336117,-0.01068703685332224,0.01511594653143199,0.00965621836477842,-0.010937598538933432,-0.0029125342775453977,4.072466593626686e-05,0.0018598294971948967,0.015356949569916917,0.007399965820258085,-0.0095920239294064,-0.013539148070748207,-0.0003305010658829974,0.0011924846281158481,0.01013044723553181,0.005214539574844686,-0.0007108814699977282,-0.0024765923711844336,0.007360305197460254,-0.008022053463512452,-0.013010952659235547,0.001342715280303844,-0.007952600593331981,-0.0092205433271664,-0.014693899714275618,-0.011483183254702645,-0.005594384177033798,-0.003163965314711664,0.013116844520071419,0.010946243108016132,-0.014084209190303343,0.011137267797151205,0.014543642804536967,0.00045095028336972903,0.004751428977798261,-0.013845048183656228,0.009891486966535204,-0.0056922888948874595,0.007683538479086149,-5.846767469734268e-05,0.01045991009727796,-0.004626967171692611,-0.007679163958082307,0.00880392788440253,0.0035378202842700976,0.009573507386807675,0.0007670229423531634,-0.007314230053627583,0.0037166593101560508,-0.005024523120694627,0.0011011907880024187,0.0033205439469087793,-0.011417070522726072,-0.015247103330357746,-0.002973250588975268,0.01472770327978356,-0.015549081764025724,0.0014186087421043901,0.006953275953843367,0.011200094086511337,-0.003725870392046849,0.006295239544298829,-0.008857454883608434,-0.011551901314470637,0.0011573757393961853,0.002877014265045521,0.012909836948128077,-0.012031077712885488,0.007403220533145533,-0.012522397034218577,-0.004289357848294182,0.005059115741878516,0.01379170608300621,0.006421217867269777,0.0014896781869820803,-0.006945559263703747,0.0016746064264356424,-0.0035417805783734997,0.011007845481403173,-0.010548898650216923,0.0009462552550952366,-0.00616102441494764,-0.001402936701455068,0.001950986331048371,-0.008484116092331798,-0.009252227852083617,0.012397584353723571,0.010666241566015425,0.0023878595979724346,-0.0007890282486555829,-0.011257163443226924,0.004954495028466382,-0.002562068501597941,-0.009323773094251465,0.011284042818060974,0.009876292336458228,-0.006116633948255703,0.012874875918300544,-0.009247157613289429,0.013634206138294691,-0.00892859263369318,-0.01205976836180624,-0.015549497231627789,0.003541574813724996,4.63475341726631e-05,0.013577496356980922,0.009468265432719048,0.012274478895940827,0.004379048265347924,0.00198968057848313,0.0076251940762954995,-0.0051311033754133685,0.006214304206777082,-0.0001877303526205791,0.004958651500548011,0.011817687150732167,0.002816385232340256,-0.010083007084552956,0.003492152598214355,0.01316983999727597,-0.011611088644145649,-0.009856564489355495,0.0032264835100124546,0.003847327140631636,0.012174587215617472,0.005814649116202879,0.004896248817503265,-0.0153415866145581,0.006094410206384442,0.005689276946935436,-0.007579560399930529,-0.005493993499957973,-0.015060844374020565,-0.012045160020471214,0.0029420668030350067,-0.004744489168510037,0.007904839763571453,0.008338625167290396,-0.0036327193791463076,-0.003550192649592724,0.0063565645100696795,0.009841155630968428,0.014081406304553946,0.015527787560365835,0.0036858301387171152,0.011824774777173482,-0.00559885991557035,-0.014172830485157575,0.0043677115194160135,0.00788896572029732,0.0018312751972236994,-0.005694363100877418,0.00010134912242691294,-0.007930936759239091,0.00926617133366258,0.0013678917819423542,0.0004405460624371006,-0.0026117219600697537,-0.014604864153570402,0.006606970849248633,-0.004429545245097914,0.006046624801258393,0.01368289303490794,-0.0014791519542417184,-0.009481114245738002,0.0027210312715332426,0.010594986847640417,0.0003864115469657467,-0.0027633845526516126,0.012493340542113027,0.01220729972674707,0.005939492225635445,-0.004479432294760978,-0.010643457350713832,0.004364563233078499,-0.0004912141872127941,0.013960261068688005,-0.010525944395034136,0.0009153159842744431,0.008192280062002125,-0.00652910150240767,-0.0038057576318267887,-0.004434801501216459,-0.0015513050591078603,-0.00876260689290144,-0.006206315532046414,0.008554173866082856,-0.010696691576171796,-0.0038905926460247875,-0.008993244209159045,0.0058981359808719935,0.00409106538080407,-0.004877779487140153,-0.0035066713195377325,-0.013851643121970559,0.00043292481850862666,-0.010211169569432434,-0.00196102588446425,-0.009074017129767305,0.004578049043566717,-0.0033075533020189563,0.0021235157646593006,-0.005349659789114395,-0.0102860470836211,-0.0009723544196277127,-0.012810532766058237,0.010936595714481481,0.0076742959994720965,0.00322559637273925,-0.009237606232485495,0.01135475419074471,-0.01040431104724927,-0.008644369784400072,0.006923967937657916,0.0038841817413628396,-0.00950200110816906,0.0031447007645455383,0.00035349918213305534,-0.009722267916431312,0.011854939699067285,0.006241335271451213,0.0074481024407355954,0.012617008450172437,0.007827588012751525,0.005654234780670911,-0.000467588932443648,-0.01465876374993682,-0.010537421717644484,0.004766771003625572,-0.012264582453453719,-0.010628473718666605,-0.011710655879694915,-0.0018646424338053975,0.0019019743360727676,-0.004861435993880357,0.0144104992456737,-0.009457871281336322,-0.003349561041038774,0.0003609685243530364,0.0017923544710983785,-0.009203945674822168,0.005260948541009735,-0.0014482076591601188,0.014067471669775351,-0.011320165428267921,-0.010030931914483534,0.001887550626866092,0.012348679221035445,0.014089033557441583,-0.009158050524077727,0.011636033445731536,-0.00048018713472844365,0.014271860415830454,-0.009692764849198041,-0.008259839579112038,-0.011983080347542321,-0.012940722331965818,-0.009075931529446489,-0.006719118881431074,0.009997981271133796,-0.0010543722070992315,0.002550716895301841,0.0025684603121094544,0.006143251367240955,0.0070501472077951,-0.007853158713154371,-0.00408758566586968,0.014404312261418528,-0.004222860921019395,-0.002577005069941851,0.0007499414405140042,0.013903217319608092,-0.012784684002662056,-0.007179971388743565,-0.0136593501265855,0.01435671128142985,-0.015307805196657639,0.006110322452295331,-0.005515600386487907,-0.0069260420058969326,0.009170351331212113,0.008448967315602983,-0.015575780499475188,-0.010805977087158108,0.006914932088985363,-0.007751432391940302,0.007310917469240168,0.004414116856291041,0.001837981280375621,0.0022958060095644196,0.00038419737558439623,0.01000202327131925,-0.012424300330782914,-0.0025876305330439636,0.00032767053244914246,-0.007111536289860547,-0.010834929827143795,0.004669186652344479,-0.014564273255913238,0.010186327130805754,0.0036741035948652245,-0.0057661644249868485,-0.011957369059796073,-0.004144841353053475,0.01094437301309217,0.004273545387184111,-0.0027984313064386528,0.0014953654465308872,0.006652346073537253,0.011446822359101359,-0.0062244951529682735,-0.01187620201701338,0.0109609601071309,-0.008970149443750311,-0.0004042309293885264,0.014681557248377077,0.0013613924121397697,-0.008734759933045712,0.0036180092692571914,-0.01244124233680663,0.012069575590369488,0.0024390006925221336,0.009386252789565338,-0.0068249537287109995,0.006425312113616237,-0.011168509097902998,0.0055095543341761345,-0.0040894515030458906,0.015404480478236938,-0.0038866193979386343,-0.014907728034155021,-0.003990664665696076,-0.0031837768803790398,-0.01229216700228037,0.014462030468564088,0.010075147722269067,0.004073611616605466,-0.007782595137561708,0.01325217292755523,0.009546050227063924,-0.014270189705034398,0.002370408076551995,0.008820601965242782,-0.014017332818905544,0.015298023405876552,0.00909479127120542,0.008102990953203586,0.00972535126855912,-0.01310088056377487,0.005821475867513928,-0.014693289573527342,0.0059802139061708864,-0.001106763564102227,-0.007741392224509917,0.007677728755092341,0.014265676507325166,-0.006344482235117639,-0.009240186244629349,0.014405448896044198,-0.0018916366453322203,0.00173130187631396,-0.006015450182172925,-0.0064176884004629,0.001742796936994452,0.015003855732608894,-0.0037490874652291555,-0.01029663268126221,-0.0060123107358952925,-0.011083328349967399,-0.005919418852813066,0.00591667430291876,-0.004164254557127857,0.0014403165516322543,-0.011674807574398628,-0.00616964086072341,-0.0034309494977645613,-0.015134732158662713,0.0050207020778810715,-0.0031120958682914895,0.0077595056160089035,-0.011868682276822543,-0.006057366573639606,0.007922530731926083,-0.0005909179594904869,-0.003531600221429239,-0.00035180270882019873,0.00011568209068870197,-0.003642879082053352,-0.008857733155275903,0.009929347375815526,0.005035186325460132,-0.008005472704345762,-0.015009635002046984,-0.013525792979895333,0.0034613269715355784,-0.0048216408431934026,-0.00286025281900381,0.004204976980221754,0.003765851404164973,0.0011990501319730645,-0.006860856034262064,0.0015843868884977234,0.009076110800416336,0.014329733745649938,-0.009552227616762016,0.010277471291698401,0.0061898464561433095,-0.012578763387587313,-0.009443091730732295,0.012751605990561316,-0.012998406359475499,-0.00983096539864689,0.010971262705937106,0.0089235169171131,0.00449207701853167,-0.01077949135874046,-0.014261884207108864,0.008420407488491512,-0.0069264288632649405,0.011602410822049512,0.008143948880995087,-0.015255234917927355,0.004292271600679701,-0.01315836053750664,0.012839814947142768,0.011280087931151313,-0.0013723362454510744,0.008931097799664913,0.014641282166881944,-0.01452844055412952,0.0051496908370137415,0.013620270178967421,0.013992971431500828,-0.0010698429188373756,0.0014291942844253391,-0.012694127385786087,0.011071770591218905,0.010416773225645114,-0.010118314990346159,-0.00845480686028812,0.010486897267215058,-0.009189453659967966,-0.004630669180318202,-2.5735245184968503e-06,-0.015328615738533686,-0.007613937375186786,0.004350817235443973,-0.0007655741444459949,0.015384387238297458,-0.0072069577623135005,-0.013273715659685853,-0.01387485837924305,0.010551906725945318,0.011937185378187408,0.012526093927596973,-0.005187113748511,0.01174072286556085,0.0052667130278818,-0.00875900181187866,-0.006126994014425336,-0.00864520216148286,0.008616844608563795,-0.01162964742674285,-0.014522914491969716,-0.008117245627441538,0.0006993440168905005,-0.000353811316614161,-0.01243870943794665,-0.0018209643998624084,-0.0113560216676354,0.010254725742025277,0.00218390685435629,-0.014677634234137097,0.014813099620492536,-0.011560820898411647,0.0006691091543524069,-0.007742873941692704,0.01176143289398611,-0.014942708661720712,-0.0044441217439787385,0.010593530859468476,0.0023793860498680826,-0.014074700315963095,-0.00865244165189891,-0.012101866935310925,0.013186133072400515,-0.007718596220067608,-0.002943204384497019,-0.012328095408366532,0.013065888126322443,-0.003209939022604018,0.011752075835731023,0.004890738048110837,0.010876738427248442,0.011234494885748014,0.010824777794055624,-0.005225344886795921,-0.005298261349138793,0.008945198098391477,-0.008674830635184209,0.005574994817092709,-0.0035983642879451536,0.00821743434441918,0.015249610582085411,-0.0021583780450695096,0.014200093247051113,0.002974991562806655,0.012785451594088493,0.0009312936218368109,0.00282059027388179,-0.007106801864430336,-0.00721111946247939,-0.011070171369711109,0.0029939675652565813,0.00521563868397085,-0.010778012456554954,0.009077290452675416,0.012862051995705781,0.004752117360734505,0.006890106554680621,-0.00998493805569474,0.0011049590751008066,-0.013256631437042775,-0.0014346462652897428,0.013228684167094225,-0.008946976339744044,-0.005384331934476131,0.0017697589779570276,0.01242946776768199,0.003510872665530674,-0.007540951308907501,-0.0014169378813383912,0.015527952874538484,-0.0051877729418078194,-0.001538887115513029,0.011312684498545028,-0.010883234336765087,0.010978049350265893,0.004963473120601747,-0.008201825324516656,-0.005054302751380267,-0.0060347313743578275,0.012397162863896364,0.0030303679261081858,0.013326058511371613,-0.012145605809784146,0.010099988443829599,0.013102371855707166,-0.00804604015227817,0.0047751548948691686,-0.00401626716898798,0.013960760691274107,0.0048186879153237425,0.004351481101892662,-0.011784174852442833,0.0036582119220263734,-0.00315871855682142,0.002202301718332963,0.014632710198457268,0.013084257260591321,-0.01122217723710997,-0.0031374794318077444,-0.002271914753007715,0.010032512090931853,-0.012870554767769452,-0.014340873545324338,0.0031362460482722426,-0.007387631884010797,0.015375857309065148,0.003927326260322338,0.0004936939408365058,0.0019729842906805913,0.0030529051490454998,-0.011759939368991116,-0.0024423416794820685,-0.010166477764473592,0.009470878969059897,0.00902675585282062,0.002770259964862059,0.011108623947726111,-0.01542383624289495,0.000726226069180911,-0.01169371514634731,0.0137232122560384,0.005025733347412381,-0.006108663131665578,0.004884744114761797,0.011482917431338526,0.008797226150470995,-0.014123203500213562,0.012403337018661215,0.007338120739795562,0.004581537698492066,0.009668510255641766,-0.01260617339792421,-0.00817971546516295,-0.01076171193348744,0.013215540528330755,-0.0057202140591196896,-0.00864072163867401,0.013882859902965831,0.0059667594694544634,-0.0019485245174212552,0.00826335279488663,-0.0022209356677489016,-0.009973745582498545,0.008536220481402491,0.0036246035240790793,-0.00044887020485355825,0.006252272118016069,0.014862620268674905,0.012398649089305106,0.005821895411467989,0.015372756497234887,0.009136450169132823,-0.009831526517346378,0.009836902688239075,-9.756149671401315e-05,-0.004723382253667752,0.009645687491571957,0.006386285700369341,0.010457365911186296,0.00490229260722513,0.0001497052687593932,-0.011651447899853926
0.21145255550995218,0.008765528507606448,-0.0020554622192787003,-0.0029077985316462995,-0.012089000283088937,-0.009490558186229747,0.001264352022513491,0.014410289300837365,-0.011982935754756608,0.006534937200054849,-0.007483570240648219,0.007120621056605034,0.014009555311378841,-0.014651381386231309,-0.014193164008037301,0.005818202059514315,-0.011661992149892702,6.415974503627686e-05,0.010391032765171986,-0.01447600497984202,0.005915893817392066,-0.012740618239506639,0.0016505353551205387,0.0006858598633868243,-0.010138233985374667,0.009364796818186343,0.01374046713418273,0.0011950643000677476,0.0105336586207284,0.0019772004254841984,-0.012346139000468711,-0.012667977877713944,-0.01087267250054795,-0.00161202742013445,-0.006061841867708785,-0.01000810307953805,0.008786621756446124,0.009741709422409385,-0.015571057916559626,0.007605804021245581,-0.006480941674703579,-0.01141632825804652,0.009771255365529101,-0.006098613968019584,0.011950907712517379,-0.0002293740638655284,-0.0027665795237849823,-0.007938452075168738,-0.013870281743744522,-0.0018850501025299317,-0.0022807541501300467,0.012660369806145558,-0.012804900743109918,0.0017152526067023728,0.004038438891099467,-0.014961890377372389,-0.009687468124335238,0.008338035885583437,0.015386042947231181,0.0056397196522434065,-0.012718009706994614,0.012319339515690853,-0.014998803863016713,-0.014034197042672222,-0.009025528768580966,0.013563975635175094,0.00888816904966888,-0.000845138034160481,0.005765430610762543,-0.01614219428197185,0.012669702183726594,0.014164437454766289,-0.006806624646474557,-0.005944865137191143,0.002999769864759003,0.015317733986450099,-0.011752220019081277,0.014000239256217836,0.005549570944524877,-0.0003681153426868295,0.0027173837202081295,-0.004896429107055362,0.0002682380780439468,0.0040166588701508014,-0.004496085573298909,-0.007307890256843343,0.0014295669808498807,2.2548873852095558e-05,0.008206895733690094,-0.0150948948405356,0.011992616477678653,0.013291846322412985,0.002043198835833758,0.013545259373564655,-0.005604489787949115,-0.01119452212997484,0.0011472492503405373,-0.016131616218377692,-0.0002295116118644837,0.007277350105956438,-0.011554037915023688,-0.003890115143501913,-0.010518974668801877,-0.00967049366035285,-0.0042069618909425675,-0.001766195053145441,-0.0034147371738521004,0.014211385630817374,-0.010128621305253481,0.006091886381218072,-0.005785960813494473,-0.009046421628895216,-0.0038653925948808274,-0.011618378822409996,0.0018066472997111047,0.008163694016997607,-0.0010283406505468351,-0.003666798880361734,0.014265706075922306,0.002749416868260562,-0.0026094168941068092,0.0017878165523630418,-0.015277262837771631,0.005387079534140507,0.00526086407509591,-0.009995247809630969,0.012042090153070725,0.009132467985822427,0.0023006383673701137,-0.0015361175357374959,0.0009468544843296307,-0.030205787238634353,-0.02878990550215159,-0.001017386300518451,0.012244947523963504,0.019203376259213128,0.013777284201062579,0.003927657876677708,0.004704235283339526,0.007761729091397694,0.0026882265055001783,0.005092018622105926,-0.0015027890932965311,-0.01025015922114227,0.003188014557380736,-0.007120459620409315,0.009336212967484454,0.009270212548119106,-0.036608004175856544,-0.04355797183122255,-0.041619816169931954,-0.0314999831172298,0.0021672189678778714,0.0021233934054929503,0.02607899981179965,0.012144339346612382,0.006548467340878531,-0.021074356344922416,-0.01775580614646929,-0.014441537315062722,-0.031493982705020664,-0.019359572696322335,-0.010134084666131239,-0.005684050981362692,-0.004010893786553427,0.013725204000142443,0.010664838611836676,-0.013976456981961516,-0.0038779311488614243,-0.005567388636815954,-0.009057273169753438,0.00023655883199978379,-0.001566168304084582,0.0044970869501030205,-0.0033602662060582557,-0.0031035296065521716,-0.01441910225792249,-0.004117788316519779,-0.012303287975315689,-0.010314672575407685,0.0066385916061300985,-0.0013964902684923829,0.006813071327654797,0.011056047612544825,-0.002088455936223278,0.006536998887965142,0.000765133796629629,-0.026157887935378037,-0.031859424063561625,-0.062666634336346,-0.055483674651036576,-0.010278674974676426,0.006616174744146587,0.0044050994819233675,-0.007282999429930016,0.009671865356584517,0.009566868411946837,-0.005241031070682939,-0.0014018092796356761,0.005937963330901975,0.01006770135547735,0.02048995593899916,0.005755418872261515,0.024796058790602312,-0.004713671592660549,-0.007984811639055926,-0.027841172674272215,-0.002413831993817656,-0.0018554737561308574,-0.002194386458291802,0.010767991954208005,0.008897085572243254,0.0231302429226203,0.04438559625070276,0.011440440000009213,-0.0023116490775486596,-0.04384546054328605,-0.05428334493293573,-0.04136219772822366,-0.02616768884328474,-0.018058630906988962,0.02689446073146368,6.083612312886781e-05,0.0064364714348745305,-0.002500607839829973,-0.009516546707369712,-0.001927367566260179,-0.0033380266758716954,0.034040980098917074,0.026670734463288454,0.009013497864162822,0.007436813619810864,0.01621654862660254,-0.005462997411116747,-0.026721854399369475,0.02153153221676816,0.017964919156903698,-0.005474562363461488,-0.013323765487669609,0.007522902253155198,0.023673954457708257,0.028338038896265967,0.011211477378708187,-0.01978104474719768,-0.04210671724430064,-0.0544309266761402,-0.06352753104788142,-0.024391872910098533,-0.0036792026486222795,0.031030467964124914,0.02656567253814903,0.00366273655173519,0.0026263946193051265,0.0110890712403534,-0.008609202812880391,-0.0010301655400851777,-0.007260453982214939,0.007544634419638403,-0.013774240430249381,0.016041551100558955,0.006374737467873912,-0.0231379372116768,0.00521058496415232,0.00766882315469791,-0.0016774804051077588,0.006853671544147308,0.001119581803981176,0.0012363915115001934,0.020412681956755222,0.01177513496305691,0.005573780416954295,0.004165104238200052,-0.025374475513884515,-0.02684781945059462,-0.03248535730487285,-0.005148249241988673,0.0018176514505698514,0.0186387176671501,0.023017025152232886,0.012417196893364056,0.006417081278732852,0.010317559067853897,0.014344180579776296,0.0027280486932055917,0.0040782166302297425,-0.0022684832762669064,-0.001131046840995975,0.02699081076529293,0.009345279860403956,-0.010188136648980094,0.026404336226570492,0.004607933884135198,-0.01719926366328542,-0.007348992094566978,0.03710072826980031,0.03164443483793176,0.0320367965457982,0.02932481811637655,0.02071750932214634,-0.0023638571221993275,-0.030750497474937268,-0.015447619359572017,0.014021703588143733,-0.02757906572919988,-0.024366636450560978,0.05307998912443801,0.028940358076255265,0.004612858697402049,0.00633898814737175,0.0053736698804810815,-0.003417779891443839,-0.011568084588410051,0.01641810342717201,-0.02619449375629495,-0.011926288396142636,0.010415841135593167,-0.009293855240534022,0.007018703857544946,0.01916048977430379,-0.0009177408353767945,-0.019239128830340835,-0.00754563792704346,0.06182379039919062,0.04115823906292369,0.034453048397103274,0.048099423540799484,0.02416551904131822,-0.023941660804032688,-0.010591444745618434,0.010125332962706157,0.027705180943446022,0.003391819516342211,-0.05094446201802411,0.03938569731687493,0.018807704016433766,0.01202748733768073,0.00023210144772564778,0.007603507096733544,-0.0026126109718506902,0.008973896007119243,0.004657044100545156,-0.027042721479063704,-0.010604800764752733,-0.02223241277149005,-0.017628660627987253,0.0023252237737712796,-0.00258657322807848,-0.01438412329588962,0.007000466246231465,0.007403100661722084,0.0398352985047666,0.025120325157747578,0.0036445793694368507,0.013909105956712988,-0.007790811723422413,0.02119146748398177,0.0016397257288909165,0.020656840741040235,0.055038621632564774,-0.010864544398456863,-0.04341103261910143,0.003930783328306808,0.012951104383629751,-0.01020147528666109,0.012939283992433083,0.0024179863416545905,0.012798209148326904,-0.016088977940050674,0.014302886617552914,-0.034264790605088385,-0.06327787912978677,-0.010376718041868679,-0.03893035837200673,0.009013348769182424,-0.00623254755446886,0.00293997103773995,0.008456604796942989,-0.0034442569888622192,0.014383281749747227,0.010611793236257256,-0.03132089030625309,-0.030387634827275682,0.008140434278503514,-0.006014682658111749,0.0058643009551191,0.050731773579783444,0.06028467057245461,0.011100020037418695,-0.022561743618769455,-0.009459341804527488,0.008769799870589136,-0.010891499335101036,0.013776991341355018,-0.00953431434191647,0.0010423334829045155,0.0033454286867284624,-0.009983614238842739,-0.022651149175587255,-0.0592209701911197,-0.046335999109518085,-0.04301065851510383,-0.018661598180943987,0.011231139570708655,-0.016916844706947834,0.023392479764647443,0.0029058489373490985,-0.0012565032758348046,-0.018437837376019447,0.00026405571501034403,-0.01405315452804834,0.01713401035954464,0.001493893029796446,-0.023882412342385348,0.03657280530550853,0.043333153968735494,-0.0086364531125689,-0.06396558122543042,0.020342070756179303,0.0293262394389587,0.0018247539561530132,-0.006430388570601944,0.014293148758107513,-0.005212094854451834,0.004485938797617282,0.029900934025828933,-0.0019122538977941086,-0.03529024796893336,-0.00977074427465351,-0.0033697808701248456,-0.0358469911049746,-0.028784144428318916,-0.005994667461780367,0.022081888553097596,0.010962472115445272,0.03047491754235546,0.017277769990738687,0.031070267575247803,0.041149089635517416,-0.012556714360288747,-0.03302786631064293,-0.01206595524952923,0.00935363863503185,-0.003263191709412486,-0.034100887689002886,-0.03770295073791697,-0.016958095219402832,-0.0035664122530789147,-0.011366846063672637,0.012777899566699573,-0.010624271449980238,-0.007585885154260007,-0.0123776688824619,0.0071580085012318065,-0.004338946702058726,-0.03121067845881707,-0.008001456714327825,0.00951196502146952,-0.0193315867179617,-0.02204025212956683,-0.001277114511020309,0.033137297030749864,0.017456810353266274,-0.0022624466567047,0.018868144491925243,0.03106026699649642,0.02359150350966521,0.012212916048576012,0.014101921645467369,-0.004925397448975087,0.012794594202897969,0.009704080861713468,-0.019780817017913944,-0.060568145673473274,-0.01773208239938951,0.0036102401865562134,0.0012610390798845105,-0.009113083992865003,0.0024478990932141585,-0.0019693668342932497,0.009994829833555612,0.008527563563199956,-0.010167959895566568,-0.03719977423422234,-0.016562777427862725,-0.028376417512014328,-0.024956240715899615,-0.03725615726659688,0.007920400152901307,0.009268906551472599,0.014938108803733903,-0.0029815808261121827,0.025707646983211232,0.02161301015656006,-0.008909024877178425,0.003431548047965005,0.014312890868754292,-0.010317334708504601,-0.029988885329572633,-0.02956929745839848,-0.03442261764897879,-0.06569072499587303,-0.013582961186120518,0.0019150744853574369,-0.008139522635434729,-0.0020721511208778498,0.0006878719571083505,-0.002722775284791457,0.015531213141498528,-0.005347118672685742,0.029540309186477008,-0.04015500283984595,-0.01601409034336176,0.012587904642965986,0.021856074277927975,0.001985399057630986,-0.023887133242897787,0.03305365276745211,0.02153829627977735,0.0018176727186363143,0.0006494371686500873,-0.0070488405006941006,0.00580387930319851,-0.018633577552191517,-0.04671102978622315,-0.03771679490417182,-0.03603114199764709,-0.009983066028767883,-0.017196579439948977,-0.014954469704750735,-0.0157060136968079,0.004588400078104111,-0.005098747076908002,-0.015166709808910162,0.011892752992625287,-0.0018079880165771736,-0.001171398588186471,0.006085492621994092,0.020662499558276964,-0.019520247079853746,-0.0172416177038097,0.005103490557138514,-0.03873502848264525,-0.02015178221816972,0.0036573687981833235,0.01950951177310233,-0.015545804504487712,-0.0070423454848382045,0.006350486167734047,0.0037100947118745963,-0.0009226529102812452,-0.011044476243512711,-0.01748226938363999,-0.03456657209830021,-0.01445837964278861,-0.034249705235177424,-0.0594469810329119,-0.03646324054639412,-0.0018782766961110081,-0.003153411131220464,0.00748130446886733,-0.00785146890946275,0.0013661132346462941,0.008994573623759963,0.003284515930871159,0.013847139176660958,0.02772110891897445,-0.016013002295633946,-0.0030667733034958696,-0.022884214455709533,-0.02599678605094533,-0.005768511111182815,0.02326107629118837,0.020345673338507224,-0.02035694574859869,0.0001942011368354357,0.016408990869186214,0.027070896480543612,0.04670703933125457,0.012802096738404344,-0.020337515028459985,-0.03559451180725463,-0.008083392813712065,-0.024975141761654007,-0.03501375371745026,-0.02247503232657201,-0.01302598378096041,0.010048545903128463,0.0076881050870040765,-0.008004503704367208,2.232472996241755e-05,-0.0010575602554061467,0.015658277410331344,0.02178979740144009,0.02146343113432573,-0.010546303395609804,-0.03821523684327702,-0.04907718947730031,-0.008221453872547177,0.0060828694907642,0.020771876327012457,0.04937294985176496,0.012381602851535233,0.029473915741515533,0.031005292750744512,0.023129225278790348,0.013395914752625268,-0.018557731140545892,-0.024498852210153722,-0.005500087568266979,-0.012758532622652235,-0.020314492480043606,-0.011989369199180186,0.0016279446162755652,-0.008877695970533825,0.010285074414892873,-0.003836975632111038,0.015605393081290391,-0.007075732589875157,0.0027660137933706204,0.008438474046497543,0.025599621357007597,0.0224254051257881,0.015006003650083212,0.00030549785371826503,-0.03040693270754232,-0.023824638812423842,0.003313523640159968,0.01683918808438709,0.03238151222163445,0.02290230677601391,0.014386072281837647,0.040533980318428614,0.015688925688741424,0.020090599612750355,-0.021275483555126058,-0.017611812217883487,-0.0027350704394562934,-0.013697327055885578,-0.02247298452384063,0.006012663343172852,-0.0044680589979124285,-0.009658239336471709,-0.012236603274111128,-0.010733317848016814,-0.007530977436225463,-0.004262532216746551,0.008918688032950095,0.014461430317573224,0.002375418236663093,0.007980865315007335,-0.013186840637951011,-0.014503523792661838,-0.02459880837098369,-0.014086136383292435,-0.031227252933364712,-0.0024424527278067635,0.007011840089700719,0.0008839779772232793,0.011900148725008296,-0.001721144528745446,-0.011406622269310421,0.000616420222551452,-0.011435151256738623,-0.035557332485232324,-0.01351854752409927,-0.021983009919035332,-0.023064213663203267,0.008049024011977813,-0.005559593150610209,-0.01534386010232111,-0.009379017317585277,-0.013512219542502035,0.012194209641888758,0.006050858130173871,0.012645033905158507,-0.0007857133973578629,-0.010985897889438764,0.013268148908667452,-0.019986293278954417,-0.006086992864792143,-0.012160785997033748,-0.031561664577673114,-0.0368566258697938,-0.014988413168740708,0.006685948014241894,0.004740044964856756,0.004017191577918141,-0.004835553161346403,-0.0014641873927385193,-0.0294609731098997,-0.008630849332866506,-0.017536487838574897,-0.015444889731000685,-0.0042401273755618245,-0.006755779506583674,-0.012713219098770852,0.0035305099643011748,-0.009104734579553535,0.007398397630236218,0.009115143853365607,-0.01527821103936319,-0.00023903285691014367,0.011382750423568129,-0.002290986368658078,-0.0032893738458941286,-0.014193608988907888,0.005602123385599685,0.0013179011902438207,-0.0170088065629516,-0.008192165584517729,-0.0023885183162128585,-0.003512085185496944,-0.0024000719927154655,-0.0032468410074258597,-0.012477012233143906,0.00915607076382357,-0.023368799546081172,-0.023064247916276516,0.003124675415534798,-0.015227385391923589,0.005975144090883593,0.008455681392360668,0.006767109207485211,-0.009141253941517172,0.005863376163082737,0.009853432511422877,-0.010281499754405371,0.005716307925357985,-0.0012506450418563707,-0.006935115722536564,0.012488132409941385,-0.013109456920271899,-0.01458500552971997,-0.0021208476349770865,-0.010354901968038541,-0.014326663196220748,0.009097729335789869,0.00045891117388832697,0.010079633859616074,0.010992978985906239,0.006922361545215712,-0.0016285194479137737,-0.010092483240850854,0.012037619135299051,0.00862243857839539,0.004356730786850378,-0.010195294203744642,-0.010499896967887497,-0.007466209147734769,0.01099690206223175,0.010406079405524498,-0.006421680224688708,-0.0015839504660039479,-0.01350277233103999,0.012559114826992318,0.00198506663244382,0.01466501553956974,-0.011405872054818494,0.015319158023283038,-9.523058235253942e-05,-0.008644023287416099,0.014026457446043014,0.005878241102963061,0.000872738558301678,-0.006224322075340605,0.0063047993242232375,0.008245245930703598,-0.010348355500476667,-0.012105679291208208,0.006309758534498874,-0.005400237201315862,-0.013898225109514273,-0.007208361415520724,-0.012529089646986607,-0.0003569745890911928,0.01408356147130045,0.005415027786022296,-0.005651992063872374,-0.013305527682828958,0.00954717727485678,-0.011168771631824309,0.005684824580579104,0.0036621888017449554,0.014395912425890004,0.013708590868174188
