-0.42718852952007824,-0.007964066776276904,0.023919231725586357,-0.002114079029674146,0.0071094893067647665,0.006503140873846824,0.002221601169293739,-0.006460487171164333,-0.0016597618932916796,-0.0012373206502233995,0.011711121440668215,-0.011261924097473206,0.011897918390662128,0.009867787266039117,-0.00901237523378648,-0.005260092439157222,-0.009146868333281937,-0.006211623520025779,0.011265727456072374,-0.008780956195464732,0.023282269063588774,-0.01506581914794734,-0.010231008824277596,0.011696144340177616,0.009237155229903836,0.0006599538615815985,-0.002218715939759141,-0.00906219974915342,-0.002396046382458036,0.01375121875343871,0.02534660447622887,-0.012244095714451068,-0.0010356025810405504,0.0065195630924695,0.021326206837952857,-0.004014786602467044,0.009005155610315292,-0.011804418895367284,-0.01332187204606115,-0.0030912415726250184,-0.004791065246804248,-0.010873047779925721,-0.010270580774238848,0.0001681834220115877,0.01117884497862875,0.013031318045719761,-0.009594006498499074,-0.00792238015381377,-0.0013154936534291168,-0.012110867408129368,0.02996028264216416,-0.007395665332995005,-0.013033990108456434,0.01251039087365935,0.008610565046132074,-0.002320462169514162,-0.006403099055092543,-0.007451296529315685,0.010693895178854834,0.015436174495131152,0.018613748038814378,0.006994529828741483,0.021948937786622522,-0.007312608819235857,-0.015297189880155822,0.010434200628519824,0.029166152338643635,0.020460850313269916,0.006177228113469213,0.0004854781862934955,-0.013611428126771385,0.023992061845797965,0.012725918343092864,-0.005925914303194134,-0.012842506258930035,0.03323063541429281,-0.008482901029304015,-0.0014783278855676348,0.0020372642097604547,-0.01123556092263355,-0.013590089848532187,0.004949413969828359,-0.0072019830419856705,-0.001419321412550172,-0.013360912929677147,-0.004749767887901805,0.011369533039548987,-0.009900463226604032,0.006167815483093905,-0.002785035478479308,-0.006664575248308419,0.023570734664903083,0.019141464644710553,0.0007155247412258438,-0.004781895688229478,0.015063433881974623,0.004697948752855222,0.0068516719792703,-0.007199906079557686,0.015329559052823672,-0.011931884390152624,-0.007463203065898051,-0.010576245129050702,-0.0069711352059373954,-0.012200868601344905,0.020524810489222084,-0.00627526270701642,-0.0045450003688471624,-0.005005645361877474,0.0028127816364376724,0.008701651468058673,0.003203783396120579,-0.026689301919357422,-0.009295065001115932,0.013402553501371536,-0.0062817592457251395,0.010786340829280101,0.005677661358867464,0.006682763199429502,0.020094056833698408,-0.013587801248660028,-0.009663813407856485,-0.010545397143402828,-0.0016449425768640703,-0.00012977496769768504,-0.0043639875842032445,-0.010415492345305487,0.01317627698778093,0.01241295057277874,0.009045261502810674,-0.00974807342384243,0.007971477044946027,-0.0027906705990053404,-0.014939802049439403,0.008437715950102592,0.02345087351418851,0.0057479462196381795,0.014833366846338687,0.014681408975247622,-0.002515500944704535,-0.0034721600741269066,-0.0005559890879210556,-0.002652804814470905,-0.009694228633913764,0.010429707658006802,-0.006802177433693154,0.0009598499858498519,0.01152509919371985,-0.0055650177904171885,0.007191766598419836,0.0079369880592849,0.032441182619037376,0.008173536119427213,-0.004174473635705563,-0.010322926310579333,0.01320576732394941,0.014717707269484228,-0.013615919943771057,0.002473914536547484,0.022281554883122473,-0.008226000655228442,0.0014616977339223188,0.0029217477680071736,-0.0020899227016179522,0.0007141127602169317,0.007384201257289245,0.011819613936282322,0.019258727811547888,-0.007359479020119978,-0.002947453987372086,0.020262869653956236,-0.00026778213354396033,0.008338336249945896,-0.003716475350490939,0.022629264605710096,-0.009969848110830518
0.11754640982239956,-0.004944721833070538,-0.00865926536396108,0.012643089705375086,-0.013574311211823838,-0.0011229768243315624,0.014093370589142687,0.0023879817216918265,0.0015321803004089156,0.014435248076048544,0.01338899064246776,0.000642154648168216,-0.0024703003625670154,-0.01294933733744327,0.004262628389571886,0.007332144744507326,0.00194270267896036,-0.004162978730147551,-0.015350525776681424,0.006944506436148162,-0.009210538950221137,0.005465233519130419,0.0021360722462127613,-0.0032013324575678997,-0.004710780487517029,-0.0154369773905066,0.0008678711208188924,0.003536262620649281,0.001974060829707102,-0.008097333207822348,-0.006020520742217499,-0.0004960491181913301,0.002433681549518139,0.011015502506708203,-0.00478301885735838,0.008635655202187995,0.005095260413847627,-0.001674150331876647,0.005710317256400085,0.009457201551390307,-0.012045486342674574,0.012100986286109942,0.00526683293350666,-0.00032126677639587875,-0.001390227387713263,-0.004085344567510074,0.005172890472984474,-0.004446461153527783,0.0013472068477031944,0.011522538878969639,-0.007631213075143295,0.00342917095284249,-0.002591413318648747,-0.003694333919671861,-0.0027878015088650837,-0.01264156941767126,0.0010399727471997913,0.001042282730885781,-0.006598006967563717,-0.013240057682556702,-0.007048011592334491,-0.0011892681762744903,-0.010399004989621357,0.0030349144496454768,-0.006736286517293907,0.009680072986966142,-0.009974922725229244,-0.007267276697755472,0.006282957411107345,-0.005616654300671986,0.004329325073606184,-0.006761209848413607,-0.0032352586186555556,-0.011092824676987249,0.012488023985944986,-0.01194023985886984,-0.010559125310502546,0.0014541687680679916,0.004259951241044473,0.002693523764845288,-0.00575656988900015,0.0014045833636713732,-0.009987050683261372,-0.003922319134925558,0.0036112701535485903,0.0005452355200448226,-0.005514945579969238,0.004330675978077968,-0.006137704439450491,0.000289792400374236,0.005129053829429493,-0.007750914741976675,-0.005753876616039971,0.0004135645940261403,-0.009145939417802128,-0.007214155206420485,0.00019448802861853832,0.01078839873451896,-0.011415397236312595,-0.0012472979618206523,0.0020053837253495373,0.0019160241427391975,0.0073414378742051025,-0.005350131209281465,0.014440088635497363,-0.006413700562979168,-0.00584851570710278,-0.006478071165930744,0.0026172093350971338,-0.0021975719184480374,0.007671453874426422,0.0039810004251117255,0.008184897046652862,0.011865557492992545,-0.002500073774621185,0.0037364377419507287,0.013230168702462696,-0.009726765074437562,-0.005048298795184052,-0.005835942309061422,0.0016518959272861806,0.007489655747387809,0.0007232514738525589,0.010741600041702867,0.003358681269496646,-0.012200863452061419,0.0038143761164827344,0.0029118589490028483,-0.013224686904231571,-0.003338913994949418,-0.01495452124618693,-0.005688660589804405,0.0034932911942967687,0.005248160177572309,-0.00569750720585244,-0.007612192646285256,0.00010822124709118068,-0.008739808499606767,0.005427496293858223,-0.0004917977592001143,0.0007352714454781112,-0.008431246808287707,-0.000377022343612626,0.0034653495183168776,-0.0023270286521394836,-0.003590805657451592,0.011335084098782536,0.0042155280941566335,0.0031728753869627764,0.012723497189105693,-0.0013187556049088645,-0.011950722931809717,-0.0004689858715673548,0.0017305540110496838,0.0023247494235676155,-0.002373930320470591,-0.003315382893348731,0.004151045351023759,-0.0041593849947715415,-0.009550361601465255,0.008369875034230138,-0.003978670424528938,-0.0012931306004285575,-0.00329491308328686,-0.0033995313821331185,0.012632150406039318,-0.003484994973744805,-0.005927901845804816,0.0007489757866793382,0.0019666590688988406,-0.007175441540143889,0.00014051268088277922,0.006385082787052104,0.012326696683165527,-0.005932451863691361,-0.007006892538713103
-0.011980849812320522,-0.012259254875257395,0.0020628896219762284,-0.0038188506815901714,-0.015234144884145456,-0.0001471542021114787,-0.009463137806276924,-0.0005245061808683035,-0.0010965100577214348,0.006385510189976625,-0.0008050401959586104,0.007534592582774061,0.00042016915765013467,0.001258840728615259,-0.0006845683609523028,0.00766189513634986,-0.0010006235031620105,0.013095583443633731,-0.012686926118517843,0.009476215842673255,0.0005484771199073066,0.005212973433542822,-0.00048629648254334095,-0.0021361624662233247,-0.001959584227246096,0.015195336888993268,-0.00016513693664771788,0.00151614970386563,-0.00044518264740902604,-0.0010547163268745281,0.0010892001927315413,-0.013439020903443365,0.0024730099196261634,0.008554160687204996,-1.1469271976639892e-05,0.002969512259164333,0.005747774952473764,0.015112974757295585,-0.006090515238319993,0.00986613326097198,0.0005134640784195642,-0.007862061153288268,-0.010625427955698815,0.013446963306512797,-0.0010662226673412267,-0.00022269126028449568,-0.005287796915527415,0.008492881368902843,0.00037528977857430697,-0.011710026141171146,0.0011652539039259929,-0.0012143781240009188,0.012281712906645786,0.0006703377906254324,-0.0018931411583297973,0.00971072823482974,0.0009513246187748438,0.004324226747760378,0.005520468084339866,0.00046078568356350616,0.0009537737065325127,0.0002319029732899614,-0.000514822851844652,0.0014907523248842366,-0.0029830370099354075,-0.005198501021417733,0.0028627463796431062,0.0009439505476535197,0.0022551761278692753,0.010109870902282488,9.50566135078793e-05,-0.0025222965032335805,-0.0028414403532346978,-0.009071854198466761,-0.004313775323009715,0.0007107309278400355,-0.0029810425844983383,-0.0013711752977619738,0.008039826856450077,0.0013809984900419571,-0.012902910644048976,0.00038148706588252536,0.007590308348123381,-0.0019599080990183758,-0.0015306916825286916,-0.00034030585463043294,0.0033835597295919255,-0.012308413354572757,-0.009176061915692618,0.0030610510892581802,0.0026595541826982755,0.0021470520438412154,-0.0027913219197815355,-0.00034695196643818926,-0.015232919878681587,0.00226861081370695,-0.000613653608450857,0.014934865938770577,-0.005196381980327222,0.01475285172402507,0.00012933632803236562,0.0008282973118814226,-0.0009874824964019738,0.015274360885221272,0.0029888299088021084,-0.0008506117945767074,9.735476721740184e-06,-0.005165814765155024,0.0020434589714327335,-0.0018210377753104438,-0.004092453597803681,-0.013864923405907115,0.0005065297626074336,0.00312650322348838,-0.0018625748455349048,0.009652184472968634,-0.006013245572807083,-0.004682966826099599,-0.0005374752349786541,-0.0007958602303531151,0.001141322966604785,0.0023366993475656753,0.0013697277584515607,0.0051299259061875005,0.0005883826334009516,-0.0034552228289967124,0.0018143437115371388,0.014379416489556384,-0.006392147949695972,0.00027519774009900457,0.011085209752274535,-0.01426415391500259,-0.0016907580129525354,-0.010127096877966962,0.0041232078249282544,-0.0018456184339688828,-0.0018722066378192258,0.002784514028427724,0.009976388782042319,0.001908314759222559,-0.0021620537936717066,0.007259550763843554,-0.001545865656485768,-0.0008702495047969162,0.0008878863775598153,-0.013059691435132678,-0.0032441749396835,0.014452822502977518,-0.014002924569560427,0.005939477444538198,0.00020229087677111005,-0.0009755814690425429,0.0026125795511099284,0.0024326979089262014,0.0009092501068630875,0.00021048272216248748,-0.0012616451461606496,-0.0014128588999923351,0.013741477245569997,0.002194299063308844,0.005649073218603109,-0.004733520502273491,-0.00027047633454022757,0.008340632677979232,0.00012246061084588732,0.004236869865624913,0.0030403678113120787,-0.001124614138538441,-0.0002760665994918901,0.00872308356151796,0.0014352401906585904,0.00028782227507041525,-0.010207502246795168,0.003925248017455129,0.0006406316865588431,-0.007732695094988657
0.1964229541406199,-0.013622009010818576,-0.015084763157495667,-0.010427042643783725,-0.0004318655175242492,-0.0013146255443145188,0.004411477574575825,0.003358649383278398,-0.0005285039687898055,-0.010034145941547182,0.007347381660346781,0.012468795176847357,-0.0033485202076915365,0.00713180754012727,0.006404378455979954,0.0030943380854238714,0.004605808002149451,0.012621767248776509,0.00023655026912234103,-0.008863222253346539,-0.012551844149867548,0.012105588712385266,0.004577782283734656,-0.007080195508168106,-0.006212982615637805,0.012165753531568723,0.0026354112021575752,0.004699745325126101,0.002607608169142422,-0.005004079587370341,-0.011264592416981883,-0.0012959313688801627,0.005712109245679518,0.013562619786253938,-0.009340048421822822,0.0075008053330432554,0.00034527628365176033,-0.008281024024153573,0.01078575549421849,0.0030256735659012005,0.011132502988448468,-0.009563355687225477,-0.01544884528515707,0.007476403106322034,0.003910104589948073,-0.007955614852802039,-0.005849356064748009,0.0027500523500795376,0.0012327434794258804,-0.005878536588441185,-0.01663889756979398,0.005299212778297573,-0.014339456332102842,-0.006916354785683481,-0.004320558754707227,0.005985683104482064,0.0064816929046844895,-0.0019896668933191107,0.015351274177270502,-0.003862038940608055,-0.011586649393089943,-0.0023352930247663817,-0.015376421166321473,0.004160045765055966,-0.0048743951839140785,0.005899520337892993,-0.015450423423356037,-0.010071169761306443,0.01170429883578649,-0.013652061053898691,0.009320165565160719,-0.01344753839744015,-0.008218960526012935,-0.003808106265720451,0.0030083590581037496,-0.018956428968516993,0.003805341489909325,0.0019479053051220628,-0.006109436069070565,0.003317706988010472,-0.0006356448125839177,-0.0014243876773284748,0.0050243116300882976,-0.002395246996980161,0.0072928817009850775,0.003106379108256156,-0.00817342713257172,-0.00038428019829701843,-0.009507318870309842,0.001685634054773561,-0.0010334486766690907,-0.012104432925619678,-0.008581432499290291,-0.0024934391735952645,0.0005327221151553742,0.0024051817927021324,-0.0015095839715131652,0.015448933981458246,-0.0021829701401590296,-0.013867485182671915,0.004431565553561822,0.004492427627394392,0.007811162462755462,0.011938813357447942,7.200839195538669e-05,-0.012104544343183732,-0.003710504715757979,-0.013391499442345387,0.0041578278029254755,-0.00243154864691261,0.004626152369159801,0.013058354906858943,0.012883040857907306,0.007092249141752233,-0.005728407354836675,0.014718294153458406,-0.008015861010887838,-0.007049225499407917,-0.005460620681548421,-0.011600591968145972,0.0073622639788935886,0.000568457756240752,0.0019224061500820694,0.0005949247520608929,-0.005569487183460047,-0.010290835333323853,0.007520642099843487,-0.00701656478768389,0.002563398210944187,-0.0063879958670358845,-0.011731027891471109,-0.008420380623554661,-0.014867053467110133,-0.014129199103996272,-0.004082474519666542,-0.01367532017721495,-0.0022753578313957244,0.006929306834122906,0.00137387592863333,0.002974917017619694,0.0020630899154653612,0.0014326892251616229,0.001040279786997349,0.0050857466251704635,-0.007062441880551428,0.00873537609534741,-0.002024119969382565,0.00859732276813609,0.010865500849296272,0.006907013565778374,-0.0036553218641712406,-0.01902371166355557,-0.0002751088458684005,0.0027403895066782412,0.005488034384838617,0.011469994580262384,-0.006393223823043378,0.005037200311148601,0.010926287829301676,-0.013198071740960219,-0.014185885077502309,0.0031265910516341294,-0.0005981838543438473,0.009235118506410366,-0.0017623280005828548,-0.00906044227585195,0.005019044486278143,-0.008959912875490158,0.0015813085562469292,0.012288662155358808,-0.0116527654247663,0.0020291075658707258,0.004155281982730581,0.005283544231400905,-0.011399658161296887,-0.006729083523585699
0.03857533699023369,0.008188768074984476,-0.0050580357576762176,0.00250604740712912,-0.013214505664284708,0.0020325108132983037,0.0021092116052432025,0.002290981341552637,0.0005606076154570117,0.013707448450623081,0.009080962498963872,-0.0015631339607049127,0.0005513170894014289,-0.0029920103522095634,-0.007278176639181268,-0.013696763941694286,8.291904262844871e-05,-0.012067505032381541,-0.013581167548821632,-0.013363697816759196,-0.005069897436108477,-0.0043170433574546,0.0012132126716649704,0.0011983626143299072,-0.0026213128003877767,-0.00254084463902729,0.003287058540847489,0.0003800355960195041,0.00205060447424261,0.003606435071142812,-0.002216067946793447,0.009282454583536975,0.0020288618296374836,0.00664329267495847,-0.0018130987312268134,-0.009233269279734262,-0.0018434862294962363,0.0010085498258187824,0.0005429102055504453,-0.01551210712749385,-0.010798675948553292,-0.007757897510754258,-0.006834251687175073,-0.010387560884665206,0.009454421371438043,-0.0002918123296672399,-0.007719374983596358,-0.007761522377603889,0.0019945073626290197,-0.015047728134158413,-0.005534667279680116,0.0014971851615378463,0.010290148512781282,-0.0013899772592867404,-0.002560052591656436,-0.008836638524611546,0.0014911424552576681,-0.015233209539812512,0.005472121895302435,0.010142711792088956,-0.0027036419791564535,-0.0018787026019467076,-0.005361998836811605,-0.0009170792755026228,0.004327110085358174,0.0115213401738157,-0.005111388474335363,-0.0032259861459934475,0.012734681579119469,0.0048122745701807655,0.001310667595684291,-0.004358232593628188,-0.0027527100043433866,0.011307668608903292,-0.008906749632298224,-0.0051001857516666926,-0.00806438805005055,0.002594024591901933,-0.011755416436514746,0.0029873787956808434,-0.009127333620668941,-0.009681900056760557,-0.011022448662284471,-0.001892571929233523,0.002479145356680667,-0.0001382967664726961,-0.002158610276642954,-0.006162810620990233,0.0013876760605116938,-0.0012969454376204298,0.0051401180061129105,-0.0037435350006518103,-0.0020775253505074106,0.0005082486549051792,-0.008769437002576382,0.01164322318787539,0.002934857885618397,0.010085181038214732,-0.00955487434590781,-0.007397625583895399,0.0017913078156641237,-0.002243290051406529,0.0038345216901452947,0.0027527033543938845,0.01389990738336555,-0.0025741308835851287,0.0018423770276884638,-0.012493476357627827,-0.0019430220222407606,0.000507786660370218,0.014708948124104216,0.00501644456644065,0.004525610317053291,0.014976655656131335,-0.009816528675355058,0.0024749210772511757,-0.007107464889780413,0.0017463419720598373,-0.0020051996127808227,-0.003182296379355866,0.0004026499744198179,0.01365999503008421,0.0011659043172248546,0.015096342822475552,-0.00926762683542131,0.008694518528942641,0.00029544466626103404,0.009638500687067557,-0.014714946509197468,-0.00023535191014167705,0.0011608737277038566,0.00959716720398577,-0.008060863931404604,0.002402606419652814,-0.009746251445162245,-0.003805366907497201,0.00035407378229030664,-0.011020078121927995,-0.008882725912018948,0.0017351405020040378,0.00044384786518721796,-0.015281318169927168,0.0009538573636162678,0.0035842522993008584,-0.0016517904949432394,0.008616406102668984,-0.009101986702718067,0.006695484335943379,-0.005793218032729815,-0.007803715133647152,-0.0005379069427031606,-0.002758466685705672,-0.00176713482688787,0.0031275484208310306,0.002409916849353535,-0.007453031541075964,-0.002197165521371955,0.002594448604102854,0.008877524412568946,-0.003077322769340545,0.011731937169375307,-0.007547180947893865,-3.685673925924998e-05,-0.005509315960947909,-0.0007272722446786682,-0.013862606363547289,-0.015508054971664215,0.0006777206829579613,0.0008194803991150716,-0.006986140750826958,-0.0013592629116831875,-6.530886868482166e-06,0.013660335113024807,0.0029598651010902133,-0.0021030547062371244,-0.008819877038079814
-0.24825960456004523,0.011472553275664567,0.011257048835557264,-0.005160466885381757,-0.015560933732532475,0.003580328315935226,0.0010607525244900433,-0.004576662065591692,-0.0010410314841620915,0.010381274761368815,0.01208368473309981,0.0003153155547796424,0.007725431064780418,0.0013367097621900248,-0.009458285679525141,0.010699618296742694,-0.007930956946426464,-0.006463934724364351,-0.010553923093290497,-0.011789671297492735,0.01219584485322358,-0.003973351608798782,-0.006855011399359535,0.007173857514613826,0.005673866716962551,-0.014286966928754719,-0.0008677852081731885,-0.004101964854343701,-0.0016124880908485206,-0.010052404463582548,0.015571169506862359,-0.0010894190178681665,-0.0011742888025055936,-0.011611167940518363,0.012130414304425746,-0.013769446628582083,0.0010256876507819257,-0.014029974724094067,0.013904489537928486,0.013541638927825759,-0.01376207267455461,0.002934371598487563,-0.01340151738382498,-0.008445871314192888,-0.0019809283978287416,0.00981661909579101,0.0041028324886136225,-0.01040992807685916,-0.00266846282724475,0.00844517095600271,0.017484066752289376,-0.003077835525067547,0.010077438554516406,0.0066684348322032265,0.0053378653293828255,-0.000770234868693126,-0.004488423728612833,-0.004997162700558926,-0.011983767992832677,0.014055110823697016,0.011497664258346857,0.00461211368986389,0.013692155204704362,-0.003862029504838083,-0.0002620371604448307,-0.013814390356479765,0.015575287777274734,0.009198295579812074,0.0008768728179397098,0.012788493830461899,-0.0056460781356291725,0.01510413601741433,0.007280709324410723,0.0024331231813212,0.00042596251362087196,0.02055301986740795,0.003512475346148028,-0.0034805075005156527,-0.011298773520383195,-0.006387543267932652,0.010235408588997843,0.005301691595212468,0.005702323818152898,-0.0024973770532253493,-0.007313141004387198,-0.0036020813882867925,0.006701312298558099,0.0034907156415602512,0.009082819873795184,-0.002200066667621299,-0.0022318351382448914,0.013028304100360318,0.012078093915694386,-0.00048571473871039704,-0.0005768686721794626,-0.0052327478266292506,0.00122077179747048,-0.004853246289186198,-0.005949625183519949,-0.0015207799147137144,-0.0060080334820259065,-0.002119507840803758,-0.005779815510258096,-0.00519858863727499,-0.003333436564108557,0.013094477582607653,-0.009223985909880671,0.008445906241492412,-0.004091124787452294,0.003949385781064923,0.006563821129459562,-0.010032569239133822,-0.014790378120805114,-0.00777658233322312,0.005315139631353459,0.002128857544086628,0.010733760753130636,0.007252510537247511,0.003997350862828778,0.011692356018944415,-0.009826538180554326,-0.01508333210824413,-0.007137470356325394,-0.008559599388331469,0.0030664122894468633,9.364858128366182e-05,-0.003594124432038451,0.013593525851330016,0.012079704770414618,0.005433983162518124,0.004997427195236752,0.007567759185952313,-0.003554040642557762,0.005622322286701634,-0.005325357204614082,0.013348176447990707,0.0041998297802422185,0.015333678479698139,-0.0005370629216103588,-0.0008250236722819955,-0.003227886783987197,0.012165228250954688,0.0006932347989937396,-0.0029525065634134757,0.005939206968641531,-0.0023990475515151405,0.002708082659220408,0.008594397581242544,-0.014198898376205787,-0.012756381559560272,0.003963873911619318,0.017092149256426735,0.003752256199759316,-0.0034096211340933205,-0.004232002388872934,-0.007240778542874329,0.00752918667368266,-0.006910001088633454,0.009006386704428392,0.012935631115714196,-0.009397952405344072,0.005764600493862037,0.002674551233603419,-0.005321051799884149,0.0023577719921555277,-0.009379089898478892,0.009071167449051825,0.01112564211553314,-0.005165374964367706,-0.012054490896802952,0.012309937703326149,-0.0004880654325836596,0.008469724690806094,-0.006861949401611364,0.01349949709993262,0.002380312299065636
-0.545296304276926,-4.997313614144501e-05,0.03083821363812058,-0.010402144237216686,-0.01260683604297479,0.007619536246508713,0.009455047713131826,-0.008153349491082406,-0.0009467950534253759,0.004767295051607754,0.005323543399600915,-0.007726240313660929,0.012734307376995404,0.014821023367947762,-0.0057034405855817885,0.013808178128481827,-0.011646690871749698,-0.009137935459945904,0.009223738211718159,-0.008396579377851375,0.029672875957079684,-0.0024488276924022542,-0.010078609529232615,0.016823557172456417,0.012027877712225594,-0.008966913165426683,-0.0019930086246501264,-0.013473083982508207,-0.004876042698471065,0.005807528680039371,0.034807758432495804,-0.007435021972391896,-0.0030231276849024755,-0.0024987160907654106,0.024723062751534974,0.004929766424228908,0.0007097127001953023,-0.001791810712356002,-0.008678714171382232,0.012790686466895736,0.01507268296422368,-0.013745126971790332,-0.0038118497867057864,-0.004163524397036482,-0.0004329191183851795,0.01600746590527203,-0.010542733883162542,-0.0011010965398284903,-0.00027686827183690075,-0.010802539347249215,0.03735321400581246,-0.0065211229505231635,-0.0014346843562330937,0.013282238287128064,0.009822954043280959,-0.012590473413702688,-0.008103878925509483,0.012543129971723004,-0.01342700348214305,0.012079495188559566,0.028262781437610497,0.011283208883480781,0.03184194172990746,-0.007631656195996017,0.009380928768687423,0.0039976299020455935,0.0389558124400593,0.023569253530548458,-0.012857662714502706,-0.005350166713778734,-0.017599054425499572,0.031057907145705207,0.01220944929045895,-0.004584934354941641,-0.009747717342217202,0.0435952322277067,-0.011334241726666142,-0.006962977228361334,-0.008662497673541793,-0.013071302394688027,0.011200363676819564,-0.007585590773598045,-0.008098521042998713,-0.00785900851574028,-0.016109870919237004,-0.00815715037670033,0.017822568921309644,0.001260037878967734,0.012070829823868166,-0.0031820102039527747,-0.010286931354704978,0.029889704964447147,0.025411719120013592,0.0021636579412119615,-0.005066436643663807,-0.0009739042003986433,0.0004246103938114863,-0.01555059383630314,-0.006553937140458457,-0.013733213294408603,-0.009754971293073792,-0.0028933048427796917,-0.017914815978243417,-0.011797740211720077,0.007511467079413522,0.02893456962985663,-0.000122062871454172,0.012224163584951892,-0.007148418995997099,0.00554017251782671,-0.012319407174995044,0.0025291207413289316,-0.030157278662016,0.012349404430632469,-0.0033881080919197157,0.010122300829173848,-0.004072509560737032,-2.265302841204797e-06,0.005952844650440921,0.026759967949644765,-0.014761356930270106,-0.003788304109360114,-0.010312518291755095,-0.0026196913668516363,0.01241212475118669,-0.008595790325075278,-0.01023637044345272,0.0009372882238467377,0.00604503922729125,0.01392902168515781,0.002576401070251231,-0.011614699409520639,-0.009812976234750827,-0.010565357774279329,0.006772082005623018,0.029052328389613,0.007231569718300208,-0.015017191386566087,0.001271902522787121,-0.0032104801673325067,-0.004954819376103753,-0.006835648645777896,-0.004715085242126143,-0.013139992747485882,0.01629890869853042,-0.0075067107752118875,-0.014870782597582476,-0.00697630668993221,0.00805866092787575,0.00872780568274329,0.010972667895544824,0.03874064583605016,0.009505205559271862,-0.006582980219944887,-0.013201681284679714,-0.008007260753348504,0.01675048673893795,-0.014045895836979185,-0.01556767966252168,0.029816290638054698,0.0028552323162400646,-0.011305099237767216,0.0008513966811688094,-0.014764982697768037,0.00345064462139824,0.010082755004634361,0.006486217778086046,0.020702316105522724,-0.009571409034931087,0.0008296827942002906,0.024400156196157652,-0.001195598728756643,0.013288111395995266,-0.00048526897808057564,0.030434842180605062,-0.012556907605410464
-0.48567857669363734,0.006858551006206038,0.02917691588822902,-0.0028573006373026483,-0.010902659630475695,0.00225284248181788,-0.010834893514881316,-0.008767022753336646,-0.003049751967839736,-0.012673898378976534,-0.0004785490260691104,-0.008439477556108972,0.01029004685119785,-0.005653979898354224,0.013139770345164777,0.010132264672827514,-0.013025987562644385,0.006371590881256217,0.014985553162048328,-0.014917695324818696,0.02563962495032124,0.004632596546096872,-0.010409891778519965,0.014966654719228699,0.011442388750655253,-0.0030867887868740364,-0.006010328157310861,-0.005203223414150129,0.00016099274623602894,-0.011053771716516437,0.02964777182498281,-0.013993328733015477,-0.005973294083310305,-0.0004541463238343889,0.020748003745174853,0.013520055634762156,-0.014427837728640452,-0.00436919700303123,0.006812812794429142,0.008838501684314434,-0.006671519591593712,-0.0010647434088118628,-0.005668258117738471,-0.011752262979863457,-0.003054462902681482,0.017775955206109126,0.012127153873372088,0.006880704614907744,-0.0015633108520034425,-0.007745703333741524,0.03473163624484726,-0.010362565798627174,0.012699213383758803,0.0115911579625516,0.009199081001873919,-0.00036905484369339353,-0.0056568340616427095,0.002479037346784483,-0.015476510291589666,-0.004230131250066389,0.025058434304383977,0.008656698780962424,0.026092304305071208,-0.004367754541074787,0.0060387690299871614,-0.010187360678071154,0.0335610364875402,0.019889680454524217,-0.000965332751503168,-0.005858374644451464,-0.012627089329606947,0.029540124028093803,0.013259183979615983,-0.0026396750800044763,-0.008950291332129677,0.03639475357606396,0.011977115089244584,-0.007886606999550653,-0.014645452629491183,-0.009171114528101418,-0.004282458845483809,0.005056484502698512,0.006712917368879263,-0.010059863680899632,-0.015424288659128718,-0.005482773885331329,0.018735928479946058,-0.015549344911566579,0.012119166566789848,-0.002100483605830764,-0.012567769523559964,0.026008639416419767,0.021619730316756645,0.0025214825638540154,-0.0033761619700649927,0.0042785304279729375,0.001785472609474431,-0.009808963941533324,0.007739859742500799,0.00974980474896768,-0.009032366164087353,0.0008538044866321519,-0.019356813970770204,-0.006034670731597733,-0.012457526544912088,0.029037451042727612,0.0020065419699913387,0.013978401426295459,-0.00588712508511668,0.0034254855122995793,-0.008886763513085282,-0.004470137612477609,-0.028633767520945066,0.015532179133265323,0.003884704711408459,-0.01386063924627276,0.005344923541387148,-0.009681038239992664,0.007768546538138541,0.02164552229130588,-0.016930852320923184,-0.002422673073257612,-0.008427495238862588,0.007412827914275277,-0.00046258008359266467,0.0074941208508894006,-0.008316456036796604,0.01361281379618371,-0.015458280134561384,0.01201380077258184,-0.005092480096809339,-0.007763269090202422,0.0002516031981337555,-0.00788122868242453,0.01378245145775115,0.02568574009551139,0.008286188461431494,0.015016711465689527,0.009357739935016908,-0.006165010257727794,-0.00393319074660219,-0.002807319632333379,-0.0032913843734190154,-0.013762048547225148,0.015773493527055486,0.015324912046579237,0.004063496937895733,0.007727851819437397,-0.010173648924100661,0.013421891360526675,0.010844813561314174,0.03431434472727663,0.009272835130342025,-0.009228267773555296,-0.009084007896333228,0.006142143848452072,0.013759085594002157,-0.01623739302418373,0.010740393172590377,0.029402830094103508,-0.0012853639011839377,-0.0009645078127500634,0.0015537240847422861,0.001449124384166254,0.004697400533363255,0.0012356316970825558,-0.01491664412658045,0.01589861328937595,-0.0070524853206992855,0.01533437295673705,0.02405211733341378,-0.0011310080797609918,-0.007888160984638338,-0.009833345563256593,0.025058936667082036,0.007040356784752507
-0.26779311007252216,0.0002979440115030626,0.014857729884408016,0.013108882719356809,-0.005797587951054117,0.004143726607311223,-0.006975839390490936,-0.005864452720844418,1.8473042569309674e-05,0.002754747369033788,0.0013095454609810611,-0.012086600553560551,0.002805233828369417,-0.015007154719103712,0.0020402848625421834,0.0024824996195444704,-0.008063407257721204,0.013996532260592137,-0.0008640917011279864,0.0018377828450225593,0.01715659505995553,0.009338030392538936,-0.004921177952802916,0.007943782620578323,0.009520643419764321,0.000655620987922845,-0.0020815039092116436,-0.005928525265372284,-0.00477902393409622,0.002108209639533655,0.01611325072719589,-0.0038480335536668145,-0.004591851469028255,-0.013708265261861526,0.009808399107337653,-0.01337606831561923,0.011340614921382997,0.01007532957256678,0.005977372895472125,0.008373747234717389,-0.009092028173915034,0.006894314703264719,-0.007338582539312421,-0.006528561613030354,-0.0005228583417386776,0.005019560632342341,-0.00872455531886265,-0.007878906259812971,0.000433812570822445,-0.006819314319556912,0.019614985519556885,-0.0038729077658694894,-0.015482461615665404,0.0065794291034595494,0.004673150374570217,0.013953767192764754,-0.005580642322742769,-0.002260262675218068,-0.015453205123376633,0.0012222817059936442,0.012527029040429937,0.006728904493552338,0.016447152725719196,-0.005023677732261191,-0.0030191559478572987,-0.001371142581318617,0.020045285768427627,0.012469195243381099,-0.007181825092212643,0.003872167360978899,-0.009233385906453374,0.017024105768629064,0.007261487198790088,-0.008657635723090744,0.010273905140587533,0.022025334683177637,-0.012004013992162808,-0.003917341846438067,-0.013070626571986422,-0.004856224754208739,0.0017413733957938344,-0.012771759608047063,0.008228129671355427,-0.0020023491298368687,-0.008807441288892583,-0.003742591402226922,0.008482179723218713,-0.01310460210334434,0.005608918006291996,-0.0021464986380676843,-0.0025980728268274536,0.015000672664308557,0.013016970320161258,-0.000505336972221144,0.009604849622684156,0.009792750722732588,-0.002881733771799074,-0.008329433967674965,0.007863891568784354,-0.0012689043626208964,-0.004933083126529583,0.0024262568254972542,-0.008890737214212267,-0.006792424687759854,0.008616100352576692,0.014681112813593767,0.005446231048945616,-0.009556533840425416,-0.0034703268507364033,0.003482619780110861,-0.010685214883054378,-0.011947675597115237,-0.017490507614935157,-0.014701730945805014,0.0010329880344479223,-0.001860715066049578,0.00705189961988233,-4.900816994123092e-05,0.003142740871050424,0.016330658563927448,-0.006565224451786176,0.015350825957794311,-0.0018792492316239637,0.014655848285620238,0.0064709089779124325,0.01504899111929692,-0.006063143810536528,-0.010207514851696617,0.009623836830104118,0.006112541048441435,0.00024349967927233396,0.008894219049623196,0.014115014987045368,-0.011893116265245203,-0.008637420582481223,0.015349616423471246,0.0015630627473196305,0.005564177623315951,0.004493060499335226,0.0001033173875049721,-0.0028352422298303544,0.0010545698889414222,-0.006985855441104402,-0.006954050628507512,0.008476516052252255,-0.00014251018843853755,0.0032965024248369362,0.0001429521639499387,0.015345676762890979,0.009688381294295438,0.005252441854971265,0.01997045029102579,0.002193311001311268,-0.0029231466261849244,-0.0069334140890390614,0.0020828045445751772,0.007652522476911252,-0.005145798218687727,0.007911300285781232,0.01642590670114023,-0.0001748556905440679,0.0023901893243290346,-0.002444009343541021,-0.0014382070414682008,-7.522915464900567e-05,0.0005641604507078228,0.0030467820312814684,0.009130431432676729,-0.005114073978096536,0.008633794083220916,0.01054620191661466,-0.0023551830731228882,-0.0020044355338883976,0.009252630908911178,0.01608514364260504,-0.003233799743273997
-0.08438830387937554,0.015498458915571561,0.007759796902311494,-0.011626879549906892,-0.0031367416192452716,0.0003448559050169988,0.01402936631952455,0.00090000552936846,-9.779847991283715e-05,-0.01366876511135972,0.0056221769569027615,0.006728309989124465,-0.000537936693229439,-0.00650624676040748,-0.011015138987543274,-0.006899119565479284,-0.0042526342616515675,-0.0037831749566474664,-0.0009599811556434898,0.014033280153097157,-0.0009662334295247274,0.014543894654503266,-0.0039039171879206194,-0.0037399408283051287,0.003201985957081097,-0.01521411310666773,0.002195126013162448,-0.004568012331036175,0.0009015978569721546,0.010391028227722587,0.005348851815398959,-0.012860959953891925,0.0017133350777584285,0.004907254472503713,7.432065242649353e-05,0.014881977541115216,-0.0040150514142311515,0.011786957599159816,-0.010671453886478218,0.006383379675047526,0.0076558545878042325,0.010768426305531615,-0.0043205564636624415,-0.0020009736328383577,-0.0032233987210928427,0.006025513712434526,0.004942615853818708,-0.015041262801988357,0.001314363038664039,0.006901701082916774,0.007171208530553383,0.0017668764441105165,-0.005689699304806541,0.004599248227295227,0.0015963972656285101,-0.004978127809299529,-0.005661784714795081,0.004096089158424885,-0.006797447599649544,0.009119347825204464,0.00372675770303596,-0.004375713617865452,0.0006259214361744118,-0.002758682096577529,0.008345702582985372,0.0038960105901063927,0.00700666606627149,0.0006038552786650644,-0.004353510411448359,-0.007660250340144222,-0.0013765113260597254,0.008431428976465922,0.004571127538409017,0.010406604789605423,-0.0010259735324658933,0.00585415353262403,0.008742319470172004,-0.001344760575681982,0.003966993358169675,0.0024639664104986296,0.0006515859243043727,0.010399716794247208,-0.0030410387118460537,-0.004050767366570979,-0.0051902499986364115,0.004705383934798354,-0.0005867138038283826,-0.006677586839868958,0.004970591829910911,0.0020155199093574504,0.0005890953982984433,0.001115048060067896,0.0064361756978874776,0.0006396440612402586,0.0007418741259892399,0.011794481398398917,-5.2862253513827515e-05,0.00285961147209245,0.015597103390719218,0.015429671775008185,0.002025148964804367,0.0019545847713923654,-0.00013502678136415345,-0.008888915097962163,0.003330302388029463,0.010291533912335758,-0.0007583487554247711,0.01290024553549377,0.0006765621653465196,-0.002156687966963857,0.0059524653506450725,-0.0006359710806222996,-0.008654357027679128,0.015290920844654783,0.011624789528914648,-0.0015440632059220971,0.0075874983850211415,-0.014031700782231538,0.00017251217271635713,0.0016143013397265035,-0.006675083708288821,0.009333633607412486,-0.002916050186044677,0.005511395345517329,0.002803986755310073,-0.0050209099631704085,0.0033885856670182127,0.010611901653986806,-0.013396637508384584,0.0013641477475269846,-0.0012558263589762533,0.0033392199289196504,0.012623719524383337,-0.0046645325586271436,-0.0037754855639717116,0.0013065215715060993,0.003368706887475116,0.00200333337278695,0.008286843849146117,-0.005362052044218873,0.004851557438112618,-0.010805973274435367,-0.00029286846547425506,-0.0025609718755444134,0.006731930948035525,-0.01312198915652318,-0.0023256754225227383,-0.011283529639469356,0.002873485324482554,-0.008100617725177157,0.004454246762046811,0.0021581027077073665,6.184569067459272e-05,-0.004176635948800632,-0.006812387052206886,0.0014174047117488237,0.002297619195237601,-0.00798835712832664,0.01333727269223027,0.007971597243207,0.006888471461052027,-0.0016475785620554166,-0.0020133464762975652,-0.012179736931065832,-0.002995707222519655,0.010411253890204919,0.00938345181664971,-0.0010974849800078014,0.0010356516883559335,-0.011381890686184584,0.0025895484791685465,-0.0006102202492340767,-0.005747293398942067,0.015225224072367356,0.005761972302940188,-0.00968026925038959
0.030578691902932442,-0.010904599542757404,0.0039001587713688203,-0.012905832161737373,0.007500604663478235,0.0025035590910726705,-0.01381007262824149,0.005905066394448994,0.000674617039529833,0.0029391156749913917,0.012939991516665458,-0.0077802908567543155,-0.0034027826901275315,0.005153786614479683,-0.01443577330304159,0.0034733267605569426,-0.00039390954182453306,-0.01359217807472212,-0.0017660777134526039,-0.01211146576214568,-0.013139891469353324,-0.003553871620725981,-0.0018531442186935948,-0.006796525287958381,0.0003447911936022456,-0.00901743468374002,0.008454577086672741,-0.0018439780189281154,0.00451189005278377,0.0051286063441286014,-0.001019902857099587,0.0064486856731461005,0.006009117121260253,-0.013474368706644025,-0.007445789974638606,-0.011214715594711648,0.004163668163572921,-0.006214531101012395,-0.008880127614618958,-0.0004034476324372392,-0.003721937717331626,-0.010960424636403319,-0.00521215659398018,-0.010363684251173063,0.0016963521778311555,0.0026019904383052105,-0.012479494182340196,0.00967706812947301,0.0056350309907572125,-0.005850929786095544,0.0021750924604450016,0.007822903152654208,0.0031300878613247825,0.0012971893245708234,-0.0014918529258807433,0.010449373569756414,-0.007545903371635518,-0.015120349355704117,-0.002252591520666579,-0.014015217969380291,-0.0026576906330690307,-0.006069050531130427,-0.012911014124555125,-0.003056915085774567,0.0024136498204907104,0.0003988136961941939,-0.0015064310974537397,-0.008364053458336922,-0.004937556462850889,0.009603165407684265,0.0021894354150583314,0.0037438070106531,0.005394633512213301,-0.003861657943337673,0.01616220481537987,-0.006965210516993993,0.013772870341657348,0.0020158521988212956,0.0032711565539024386,0.0023153074091152993,0.006208720528105389,0.002703675163777832,0.015404703744739585,-0.0005098994817043021,-0.0008954496191174484,0.0011849052161481302,-0.010673596229232455,0.009696971644702651,0.007348138476923977,0.0011960284930842822,-0.0028626250241965963,-0.00843081752258982,0.0015104255547437814,0.0025228178441317347,0.005654350420801063,0.008928558248643234,0.0009782144739201714,0.0077953701387961614,-0.011585445566220102,0.0030795424115857076,0.004322659818981985,0.008050810107506348,0.00515545523956787,-0.0017335245127870803,0.01076360817507907,0.008547605161259693,0.0032939097073771155,-0.01500174686482647,0.002795932908549324,-0.003945914919874033,-0.008103520897237267,-0.00026713080688355387,-0.003185848253385122,-0.010065399838352456,0.0022394658090731795,-0.009687170464753887,-0.015254891624258592,0.009906090195175243,-0.005249781935462655,-0.002127217904482049,-0.007838130717044632,-0.006276810169544209,0.0005615534657266953,0.0017983757229142056,0.004804976762702789,-0.003185067593357925,0.007150860744094821,-0.015341035749730409,-0.007409274467595591,-0.00091924913227987,-0.013548933711658145,-0.0013878382169423172,-0.002399092771291321,0.0058906996179383525,-0.003762799685508314,-0.006189664132025963,0.00795628141259415,0.00587294765091877,-0.010187922631101642,-0.009750807387043462,0.009408297239603132,0.014726181790470604,0.0017414929973963134,-0.00047949563252864955,0.0025635977189922277,-0.0024624130693404397,-0.01105112696968983,0.0128556664084956,-0.003036346788288534,-0.0031577701857254566,0.004695180268887565,-0.008320742686776713,-0.0040677577529459755,-0.0072372830448396135,-0.0072240477631595615,0.015482114173406596,-0.002256737869567393,-0.005252257358260921,-0.006423518768963743,0.0016555133402107558,0.0024684798984864094,-0.009714985952877337,-0.003445728400847633,0.01139448992865363,-0.006359836232477939,0.010109010236347232,-0.009860033161266525,-0.010942048552140572,0.0026382067738449223,-0.007485516387177149,-0.006930082399645703,-0.0009682423614916754,0.010543820936858572,0.005658666620784306,-0.0003634257066239652,-0.0002814356948935108
0.1596706815137925,-0.002181942487194909,-0.011139459794865764,-0.014502849087945881,0.01546493972921361,-0.0032035369116245114,0.006172026097742474,0.003314983058367169,0.0003253933247820869,0.00043408155431964857,-0.009637168193861276,0.008189368442879673,-0.003468906686495859,0.0034200681905903925,0.007267154413810331,-0.006745624959192488,0.005992362133069976,-0.003135229556769991,0.009996281083664339,0.012954861829458915,-0.010287418990769176,-0.008985215316154354,0.0034008132540338234,-0.00703628504288284,-0.005785619738951123,0.012016438842503153,0.0028044209690790602,0.0012998046382889322,0.003148000408288162,0.010731271658059791,-0.009056040751578183,-0.008764868415116919,0.003380721620924784,-0.014387247189023872,-0.008320822755462844,0.015500393594136137,0.009921812211611664,0.007241174948274708,0.0004918585092206287,-0.01481071438620233,-0.002029174393860491,-0.009221820236257894,0.0002825018753377373,0.011308096184049123,-0.001657916933749112,-0.004180904333947397,0.0046718647457736,0.004562883718849074,0.0013418382233837019,-0.005299691100275856,-0.014899955871699429,0.004226971037336861,0.006081188396185117,-0.004889981174788756,-0.0048958064604500105,0.011409446797797245,0.0024736831948644947,0.012904956649582681,0.014252537408119118,-0.011486045657922724,-0.00765193965779034,-0.0012988047210432258,-0.012066552418665706,0.0031311316332638768,-0.007325369939340319,-0.010724400875508976,-0.012448534406162262,-0.009518428362085357,0.0014233463676448406,0.0032943598173837928,0.007822823120382332,-0.010021379054834502,-0.0060955799485970475,-0.01062312652602742,0.0016629810903364412,-0.01491814464772298,-0.003526913341653136,-0.0016281000058367282,-0.003092031732888793,0.0046860916825045215,0.005605150721664204,-0.012459625580929007,0.00542308882807396,-0.0025167611171677557,0.0038939788452012915,0.0032828621540429755,-0.0043556277956330255,-0.010064870202352721,0.010020948848658551,0.0031562809849209274,0.00020671608769332427,-0.011254006994672855,-0.007975860973620469,-0.0005172161036270266,0.006311810101066854,0.011931881199108419,-0.0006042829271913098,-0.0007724406454836345,0.003000265690979196,-0.011496972080515259,0.004752250197181602,-0.0011132684969148582,0.00750669117525901,0.0027661666828974335,-0.008917504980492277,-0.008893273679665848,-0.007007379160511673,-0.01259681956577252,0.0016557773287085623,-0.001768900546096698,0.009865188590477775,0.0021943400541323717,0.012416548167612106,-0.008742856130814266,-0.01229572169694329,0.0015567591237053667,-0.0003551630467799778,-0.009542812807277375,-0.004713049747732904,-0.009440854921308129,0.004091685675528419,0.0028587375630549465,0.001770239946764229,0.014547256197592014,0.004883605828618503,0.004650816277479628,0.005023300992096151,0.006464213918147842,0.010206592090092986,-0.005212302465263258,0.005379354108843004,-0.0008891714418428308,-0.010131790484251009,0.005296852070635745,-0.0016662443075370868,-0.009933866262725568,-0.0012467014922049274,0.013068759968112447,-0.01233647987394788,0.004131501306325789,0.001716247404399451,0.013013716134906574,0.0020197024239901125,0.005561667301321253,-0.004398320336950156,0.008721615222721076,0.014011776069016137,-0.01437831817787157,-0.006509839934730553,0.014242969158517462,-0.0016537110460862964,-0.014577564344892205,-0.0023095375618548473,0.0021614035862152314,0.0060554014113042755,0.014838633378355781,-0.0060565955427828305,0.00498010584817215,-0.01204352556760353,-0.010219460542513641,-0.007741401003680377,0.0009901980786401411,-0.00018164794109051135,-0.0020656827000988635,-0.0024235193481642017,-0.005563066128484291,0.014667449625584875,-0.008478881344492787,0.002512418955956873,0.004364374507599335,-0.010163954697448777,0.0009498594639601656,-0.003491496253457925,0.005455126007722223,-0.01104961912798584,-0.011663950695761625
0.06702464995615731,0.0076411582636731114,-0.003035460827264753,0.007754508910122986,0.006422611725648172,0.00046316960617439224,0.008491145730823785,0.002372890241258264,0.0008442690220430955,0.005600165381888855,-0.009634466891395632,-0.0009942837506391848,-0.0011173812551572068,0.006980869056392416,-0.012792914152437749,0.011036631470297622,0.0019427686982297066,-0.0032988056250103995,-0.012521749092031048,0.007626298233740336,-0.005909724381179068,-0.0005324690691655004,0.001467260496245998,-0.003424155687211996,-0.0029865229325843545,0.006211919405509352,0.0008492061333795508,0.0061450584245628746,-0.0009543503596397192,0.015444762967317088,-0.0032490819055560906,0.00939996815758776,0.003075592483189266,0.0010286665651050922,-0.0021813177327141857,0.009783238293581093,-0.009789880276130251,0.010017912621238651,-0.0029547224650773238,-0.0121944326596449,0.014732956470996397,-0.013810754030314846,0.013156048582728702,-0.01073865684450808,-0.0036486427149136796,-0.0017180160076366272,0.0107446605825492,0.005448718632056367,-0.0011924245412438667,-0.003518143766071409,-0.0036155901838569736,-0.0005099595185128536,-0.00804764715985195,-0.001234612995194972,-0.00028161475335997934,4.5412865624969156e-05,0.0016189173046815238,-0.006282092339255748,0.014037217206302771,0.009823008769193134,-0.003959232964748554,-0.0019139751406677858,-0.0037459704339085254,0.0015200217137732951,0.004064440577355576,0.009694341808437281,-0.006468338692291479,-0.003938238754960773,0.01161838898582011,-0.014517650760207838,0.004095524172711634,-0.006229767631322262,-0.004688746993651988,0.013890461124512275,0.0005668612575683889,-0.006166738969146321,-0.012281784029038324,0.001163982474786969,0.0071910247941760486,0.004483720002444979,0.008957891470829966,0.013222867672949539,0.008603783049644369,-0.0020811712674214567,0.0032675424163544093,0.0016039420343046994,-0.003130558803165999,-0.011271202852782925,-0.01319829774311472,0.0015212991996937772,0.0008242342470864005,-0.0038971378699942465,-0.003054233975871092,-0.0004425384157147572,0.006760143858948568,0.00952111168598475,-0.00012601156417961043,0.01338089100835926,0.0033916119737136888,0.005503460538216171,0.0032835870213217596,-0.002785577757132103,0.0015753402856383354,-0.00041949543289858393,0.013823387624406918,-0.005295574070860734,-0.0007688115122038028,0.0039182077154068925,0.003807893969521506,-0.004156959614082193,-0.010178309413255694,0.00128628718281271,0.0037519305403249034,0.005026249157834253,-0.0010095837861104524,0.007795599686684401,0.004079970316949545,0.005091130720775411,-0.002377849729435187,-0.005376997406951127,0.0015624987197373188,0.0036082699078383157,-0.00010627619499343521,-0.011957942000008642,0.0029156037682206773,0.004099532546822181,-0.00020523657885445346,0.011107427170533285,0.009932582879451268,-0.0006002904774226008,0.007462070249224062,-0.00171672555598857,-0.0006789464222807691,-0.0036088758995258576,0.006941843157870851,-0.0044255302657068415,-0.0030620833959810285,-0.014244692562394086,-0.0029388129316371935,0.002689645550717785,-0.0005964076585187094,-0.011089400975752266,0.0017758371918365047,0.0019976985581537004,-0.002829771876413259,-0.010896262024440363,0.015187104900335101,-0.006285660234513744,0.00268456049748092,-0.01215359074676835,-0.00398241049263922,-0.009366593599418604,0.0005912727970548113,0.0030724459809951996,0.0010740744579869847,0.007304765176009389,-0.0035509951550868873,0.002093785934278818,0.010831258798755777,-0.00489069775521597,-0.014500300534959657,-0.004763432160226844,0.00019837177063267077,0.007508558574383237,-0.002418750836093199,-0.007921222167100651,-0.012997608121704262,-0.0036127133757982745,0.0014568537980391301,-0.009720738425913707,-0.0036290124170974946,0.0009617946996670927,0.0019190527044532814,0.013793752955421023,-0.0039456648381884455,-0.010175106361960902
-0.4528980247923016,-0.012555867021571458,0.025927555831817745,-0.003357257167970962,0.004625734955194225,0.005930546547611492,0.008319571528830644,-0.007355578427604249,-0.004463625556042415,0.006444582504092182,-0.0029895606149587424,-0.014951998400450656,0.008396156965002953,-0.00040286663127903424,0.012306733228878545,0.0009024250447795326,-0.010368694176366614,0.0066523976476511905,-0.008245880702568795,-0.014202794189926465,0.02409478844657868,0.011445243477453335,-0.009522540569339896,0.01075276519316779,0.010683865003090012,-0.007577802122554989,-0.0007493943422752651,-0.010391146435333683,-0.00358750624368877,0.014695829179247034,0.02616593186805956,-0.00021271462239649472,-0.003668707318631086,-0.01421152127211522,0.01936744010563085,-0.004307954883236778,0.015463175825749853,0.0004552326595076289,-0.0005533521131397892,0.0016440831077922068,0.004476598361347905,-0.0023757298024644317,-0.004765474189446135,0.001177263441881779,0.006602130594518756,0.013696534053266114,0.0009640674117631816,-0.01410386473321364,-0.002840841121483031,0.0021353556610679905,0.03230171918485166,-0.00799782634851243,0.011781551551784019,0.014114766030068603,0.009840509014484751,-0.0002805812629726248,-0.005735637715870585,0.011106873005003102,-0.014785134950855339,0.015523953766030867,0.019686828965300468,0.0051826574305124115,0.025503016644372004,-0.004398296499616204,-0.01150770176447775,0.008503721497171095,0.0338143317201231,0.0225177135087644,-0.0029024573632219046,0.013377795408826765,-0.014005698197690897,0.025359086083497646,0.01065905593803744,-0.0019275991288353299,-0.00240891369711838,0.03512908457059637,0.010533688803577444,-0.0037063432706627873,-0.013390043731115266,-0.011919696625311489,0.004943300236116725,0.002587667629721563,-0.00731260261652103,-0.005957676436719184,-0.013725399250208194,-0.0013612385693954545,0.011891518665397473,0.007555612028994255,0.013953929286533256,-0.003158025990210994,-0.013817762360994057,0.02411992085010833,0.019390371102953496,0.0005582482886200299,-0.011382105657729083,0.013534375287817802,0.0013086084707202227,-0.002965653395463494,-0.008010424685609464,-0.0025170489595111242,-0.010626773064340473,0.0007527170510758444,-0.01798082573702523,0.013786337310098474,0.009535525741308885,0.02544252122130739,0.0025634504973319487,0.013380601019349344,-0.00485640638661659,0.003683896542595208,-0.014000804764822412,-0.013283564672388063,-0.027104820268454767,0.010158054602140431,-0.00013818565166572733,0.012314017772635685,-0.0026447609093156535,8.89749277480055e-05,0.00823790378724094,0.025198687615149172,-0.012126326123120784,0.012044884979081232,-0.009342678019429248,-0.010786232978502775,-0.009096258724693895,-0.004056669881253264,-0.00565101327401669,-0.007730731680976495,0.0011815703576177096,0.010791231385321688,0.0046662568727423555,0.012134806494995893,-0.005243441448500797,-0.0035818810727666246,0.01059552712839867,0.025096701797158574,0.006909791476128232,-0.015162615303597974,-0.0004503874114682102,-0.006529640086324966,-0.004529479613403235,0.005747525820368318,-0.002908891760789799,-0.008055200648120762,0.011772275538346647,0.0013467654923840743,0.010246402884383218,-0.009712612524190659,0.01545603303554802,-0.01332676301334631,0.006696183304197604,0.03157360635077766,0.00880225895886709,-0.005436705570305025,-0.010115181774107333,-0.01448942498914152,0.015646113329787093,-0.017200336143920435,-0.012830031439475111,0.027499215084851328,-0.01346530958464108,0.002799911385838226,0.002611373453941034,-0.007577120441709068,0.004468576971466262,-0.006534348287937256,0.0011550832955245609,0.01678498816039802,-0.007921618757442364,0.005033613999748089,0.021566919353565462,-0.0014903809621195792,0.0029875552417383162,0.014144769995069632,0.02674030005447596,0.006451450347415774
-0.0424240155083471,-0.01250519211460776,0.0024074346824462137,-0.013811858172893527,-0.01331311841843862,0.0009246982204121353,-0.009948929813321194,-0.00012566274105332785,4.814311828086931e-06,0.003987952669903171,0.001990670017682484,-0.0038846895466763016,0.001369946834299749,0.015052290694558757,-0.012385859677626104,0.0024000179280587175,0.001559545359043957,0.007515334963340628,0.013422962612485673,-0.001687809797408043,0.0002969169116956284,-0.013297062777292798,0.00010852951325129578,0.00035689953644702774,0.0007209930631924946,0.01161173737969887,-0.00039542594744101397,0.0008869926633094473,0.0022065839279168695,-0.014397155656467014,0.002589912717970012,-0.010901403250384824,-0.0005478085376225692,0.0060738141252782984,0.0024848157188348593,0.014948984286302949,-0.01508927103827059,-0.01332016951360284,0.008830175033144903,0.006292898427802871,0.00976234863581938,-0.010467983369478007,0.0012356144492735657,-0.004293604831337328,-0.007388608044996985,0.0018148091080165268,0.003147905643071002,0.005354374011581668,0.00038329551534301904,0.00563569430597512,0.0025336575322604878,0.0012644566011416102,-0.0007839619123278102,0.00021068571256209758,0.00021196543321142083,0.0051394734268869514,0.00018528493221081543,-0.007375232451628227,0.010976188630332824,0.007282064365721468,0.0010242807365449485,0.00017798177449228423,-0.00017127156066358402,0.00042284734642103727,0.011897206191821691,0.0035338443537959625,0.003590001121246933,0.002166776164280684,0.012036976704525588,-0.013425387132379452,1.695390516204423e-05,0.0018147441091252506,0.0032992755511851287,-0.010574598049982599,-0.011805994059016363,0.0017760536084551674,0.004352411195966754,0.0006363959068628645,-0.005967607872734411,-0.003005163778909036,-0.008258631044384146,-0.000851989988304194,0.008065212413480016,-0.004316534359601079,-0.0009151939582787245,0.0021354511417463963,0.0031044122712315624,-0.007631253226817399,-0.0029367318787773163,0.0019648301434243543,-0.003532168860003505,0.0014256596546584433,0.0014691216270292559,0.00032040893010678684,-0.010285889353706262,-0.009454435550368307,-0.0008361155499740562,-0.014740542570831086,-0.0005553650810533189,-0.0054784351585897145,-0.0025682259940386226,0.0022698782962119004,0.000990286768375705,-0.013195373648775627,0.008178361875064506,0.0019986147535428914,-0.0060285073493088525,0.003073308317110261,-3.082608283101114e-05,-0.0007609911763563039,-0.00838952715280027,-0.0037267185205890237,-0.0008545972722447774,-0.0022818115987607752,-0.01424954605985499,0.0035017365180754906,-0.004647211683028781,0.0003435554425895125,0.0006633544122394213,0.0017018921998659749,0.00047497918416106064,0.012073018406846419,-0.0011443184897940051,0.007749927240373353,0.008294334900677044,0.008850634746492413,-0.00015639027901446617,-0.0025900078848910477,-0.014801262971516096,0.0003173629752314646,0.01437188795412147,0.008270284430294525,-0.0029778225194528607,0.005569500322206652,-0.009314992026214424,-0.00130630558138439,0.00014734083750249076,0.004310711878580391,-0.0008183175755569379,-0.0006354615393856404,0.0002124008353812226,0.0005522304460039464,-0.0007052923535807841,-0.002213888265241023,0.0015776213734398255,-0.010089785930993706,0.0011431154214153402,0.007761824330382229,-0.009948748455280817,0.006960742690916214,-0.00022519416822481013,0.0025418702188820803,0.0020883800916250824,0.002474818888166183,-0.0007412697914267833,-0.011177424409943779,0.0020558819571095555,-0.001371046949180112,0.0013688862602116818,0.0010637824166396658,-0.0034502875970615736,0.0011854856482150311,-0.0005525051855786542,-0.0024598410587590956,0.0006764781239309669,-0.013174168790902926,-0.012209880718178672,0.0008750504219748548,0.0009608201547924504,0.0014810482164011735,0.0004940700134991784,0.0003763476837153021,0.007693607481735906,-0.013863894688988996,0.002095786674887136,-0.005824999493077368
-0.4818199120088737,-0.01326013672326345,0.026775804651619523,0.0028800378797086816,-0.005912940432073608,0.006712248953117713,-0.009855410249692203,-0.007948537980209513,-0.000984527627106847,8.36396869805904e-05,-0.0045662109454856145,0.010269493413397019,0.010642042953997817,0.00966760866390412,0.004748538075868058,0.0019996433293587752,-0.011346448293414507,-0.009078850421979288,0.010351732882486767,-0.01401078350348484,0.02613257535897314,0.0011107537994889324,-0.00717585519236854,0.015154850651318554,0.009224569404964482,0.002767480757748213,-0.005440502703820333,-0.013204117287525019,-0.0022145048845828223,-0.007397886453535795,0.027117462512757495,-0.0010641076310722065,4.469456151279069e-05,0.012199079411181136,0.02134784768083121,0.005106009326084564,-0.008033130336516658,0.006146706774073699,0.0030922270763941682,0.015019871071646908,-0.0025053344927872118,0.010066662712460567,0.009396016058195695,-0.013239676161713544,0.007039236670764475,0.0139229013996568,-0.0031738179706073157,0.012468994278843876,-0.00042229377955646676,0.007592311777272983,0.03515118838102417,-0.007870524019220285,-0.006033027287129691,0.014626051619445423,0.00922945160422164,0.01238001956628505,-0.007000260952633309,0.00425997036790738,0.009860838964241506,0.0016167255936990442,0.023004355286180937,0.011202634416210146,0.027995145094880537,-0.0020434507196742447,0.01046362229566225,0.013439132368289832,0.03307020951984904,0.02344015835510488,-0.0007748359683148257,-0.0109434051109959,-0.016516065842324665,0.029027114930413725,0.013418841059979182,0.007117175014201442,-0.00832591459760287,0.03857276811268638,0.011773165895164434,-0.006334210384092281,0.003043995804435922,-0.010106068390131527,0.007790431278260915,-0.016221277247185993,-0.011367573838172211,0.001508534884532805,-0.014068238676669953,-0.006745922012023105,0.01172821924989654,0.004703604675945959,-0.008295938327126284,-0.007469272554037768,-0.0067351956147011895,0.023487766248310286,0.020007349128650244,0.0008542147803945971,-0.0020722771879459444,0.0047267450588890335,1.6059563404072338e-05,0.01452818436457503,-0.0014722144200861181,0.010620890102894243,-0.011835178472115291,-0.005225906664382487,-0.011871188964555062,-0.012617250158898828,0.012717936659314678,0.024557058372231107,0.0007320877716358561,0.007860132597882147,-0.006432212246743085,0.00499560124401141,-0.010648166172174199,0.0024217912884178447,-0.030892234970753923,-0.005155625706334637,0.013466830121481848,-0.004446531916938411,0.0049607918724446365,0.002023160477218875,0.007134280754529901,0.024273998597419306,-0.016195480602441,-0.0033051020157743374,-0.010519058668521904,0.006669478334616487,-0.0043570192984763965,0.0066937417013263716,-0.007771211507938769,-0.015599018719906769,0.006509052771965861,0.013258828974403303,0.001343018357151261,0.01419096676164576,-0.004437343565648413,-0.002158864790096776,0.00548923798491004,0.02654298324781877,0.00955362428077985,0.0007703918896429726,-0.0023415004679168787,-0.004191511428542099,-0.005909265129866828,-0.015064648888168952,-0.007329442024671592,-0.007567953583106553,0.015332763554751579,-0.014902010406657864,0.014395442383501246,-0.0007094642028101089,0.01357760854685404,-0.0056452206364166506,0.010820075511313825,0.0351322848686608,0.0072510127805293515,-0.009525292546296539,-0.0119228309700352,0.003369936533483133,0.015229937767884389,-0.015567685138364668,-0.005329563547977239,0.028719402240219332,-0.007933178580237368,0.0024645750424875388,0.0025891375191884496,0.01314781373180245,0.004392010725955382,-0.006728126820413752,0.0037793090003592766,0.01889823936152564,-0.00751322944329639,-0.005535120140561678,0.023008962295797884,-8.692673324616714e-05,-0.011914486133884131,-0.0012471846236046505,0.027006910299726492,-0.013823521224598928
-0.6241029093322261,0.013453279359760898,0.03550514990730773,0.008018427228063858,-0.008297314242543877,0.005326588711074562,-0.0016816362969361634,-0.01225427718923122,-0.005472071109538912,-0.0021236748146233227,0.006062551577245282,0.0031565436247189167,0.01330163271631025,-0.012924190163481758,0.014140867143870552,0.011123149445984575,-0.014363966104944479,0.010252289865503611,0.008262452752685164,0.0051597317263890495,0.034318908257558664,-0.007978753316761875,-0.012613944362052805,0.019097053127393984,0.01618509803046981,0.010501483811827016,-0.004000763854451299,-0.01689581817124334,-0.003118798446117556,0.0076354536035588005,0.035301173929715504,0.0010614768527201883,-0.008114500950835865,-0.002607050589391584,0.02822797586568553,0.009321142135840767,-0.008473675378977346,-0.005344130426613816,0.007230025303001444,-0.010682588872369492,0.004240737517550972,0.012117861407467238,-0.0062728807526012224,-0.010637844675255203,0.00915698495403417,0.02113982336492996,-0.0005260070156494212,0.0024376660647157725,-0.001546857872125904,-0.0029007964668940033,0.04458606770528912,-0.01064893844588673,-0.004726233862972825,0.016895987745582083,0.012976457600957284,0.0018343476486441142,-0.006997364568194774,-0.0013576169011562667,0.0007227056553826244,0.005454362833911482,0.02900099293362543,0.010416170750413373,0.035909787102420564,-0.007189082800316532,0.003405603521513822,0.007448011345247009,0.04223512367237782,0.030803336638189308,-0.0155013612497771,-0.011379709477534035,-0.02080651349947074,0.03836293589584098,0.01697719241520929,-0.003968394040784095,-0.00025365812307801575,0.04750967765860857,0.0027511448274590254,-0.008303885375371415,0.012733107252276001,-0.016088551670122363,0.001003221770169461,-0.00039915889239333695,0.007798413283040543,-0.006932548679142048,-0.0181699185554339,-0.00717507038652115,0.015837849548775394,0.003815853783862729,0.00976957215847317,-0.00572527430517894,-0.011974414359894592,0.030830805671679243,0.02973885599245672,0.003123849358944845,0.01280252515063975,-0.00020633697451234376,0.003117666868919441,-0.007723932984580916,0.0056612426338590975,-0.004352013936835691,-0.015663168845107333,-0.006452386770095446,-0.022752693012842974,-0.011001682530976001,-0.010111183839223294,0.03689767960645594,-0.002574696721440917,0.0015039121929521127,-0.009131993980978173,0.004787033488436354,-0.010331133716511641,0.010500741229468303,-0.038460105416991866,-0.01082431329278662,-0.012403417442741309,0.00033142747709290557,0.002014839415087462,-0.0019892192540267063,0.00920719720201719,0.03266868422952785,-0.019155240255428415,-0.0025661127076593154,-0.011424328724785904,-0.010499503827914265,-0.00041905822261599154,0.0013961084924117954,-0.01021518103141197,-0.00972903646768105,0.013199563754649424,0.01679432720913615,-0.0049577481205869845,-0.010950125499056568,0.011064384795798615,-0.007913066382784984,-0.005543998067591045,0.035685432835353324,0.008944164591625201,-0.012204743178657832,-0.004414712365957557,-0.008024673781243786,-0.004898959803639508,-0.009988514637356321,-0.006589177979405335,-0.012369601526757328,0.017036852927830887,-0.0048460087511170424,-0.007332285089136328,0.008101053620190462,0.010198530677481138,0.008984256883864145,0.012633522039127555,0.04409611910139673,0.010261283048690546,-0.014022839671786745,-0.013807718123530328,0.013440064761100733,0.02325471398680413,-0.021715491456110382,0.003027545476278072,0.03567930203587126,0.00480176394446433,0.0028534356988927537,0.0031971025782709566,0.009773889820058352,0.004803191406939547,-0.01180918668585787,-0.009114766055630965,0.024619169304407194,-0.008986522529756633,-0.0017081807614754592,0.028200089829088545,-0.00037483430162172797,-0.01215624564970312,0.0024975609260641223,0.03524808916966512,-0.002219595673439226
-0.06385393908806113,0.009564293436664149,0.0035619151563224577,-0.004996676000088692,0.009065144342960164,0.0003822399761475605,0.0015601352733508982,-0.0016483680226452736,-0.0007483443742503746,-0.00757197320914299,-0.0024715983296753202,-0.011664084519363623,0.0015233264215213395,-0.009371814662889322,0.0011041376934210652,0.009603210577257087,-0.0009326078535763391,0.0072574284470713485,-0.008200089718498078,0.011321758102293272,0.002333023588455421,0.0030658153969856383,-0.00038188165686138217,0.0032212609399247627,-0.0007558244659022957,-0.00888754331242403,0.0018606903682821365,0.0042758887676935305,-0.0003665042898550733,0.003940764719840308,0.0025760799285627785,0.010079934435983429,-0.00027799126581981495,-0.010560830850157174,0.002084590446378066,-0.012225450238004337,0.0041470891209872615,0.013953324198703126,-0.012667433697873695,-0.0053835166516690985,0.004153900757658542,-0.007232622692780331,-0.004875382462521904,-0.004798905753343942,0.002542788280849632,0.001507048411925373,-0.010051393675983636,0.006038233789100442,0.0011474305934807858,0.007761773875708356,0.005266879780258041,-0.001188095256411393,0.013147232840957746,0.002886249381442129,0.0007846437255126486,-0.011640544017135428,-0.003012845316905074,-0.005653838843716827,-0.013124395338827418,-0.0064452313709663575,0.0012070812652991763,0.0004004401713956851,0.0030345052154055886,-0.0023313176035936137,-0.010564669279556682,0.0062201303766731275,0.004550359150889565,0.0035688802549666953,0.010741579954427177,-0.0029292017635733497,-0.003308017228247759,0.0018004643790220558,0.0004556519002243929,0.014878924878427374,-0.012753463542351927,0.003091370860747911,-0.011369907886840124,0.0007055788680360094,0.011482120174744573,4.8613918624890566e-06,-0.014698726489322257,-0.007054418413565565,0.005140416498662662,-0.004670085033105105,-0.00042670751071182176,-0.0022784950663574284,0.002176924216195447,-0.015365579322646605,0.009813756573796305,-0.0012393648916375303,0.00023674819175866814,0.003816248140816029,0.001023920170575917,-0.0013260238522667255,-0.00800432930302689,-0.0016217851621048197,0.000896547984203466,-0.007270959658888094,-0.009235472970252855,0.014819140845705597,-0.0027377197805369753,0.0009812659884924188,0.0001614533516469079,0.0019317118022046664,-0.003859360834966366,0.004746805974580662,0.007639742130240026,-0.011351787145634206,-0.0008397573645921597,-0.00032858482666359623,-0.001166287189843216,0.005181432459745377,-0.002549752013887825,-0.008946317815704718,-0.00659442736054959,0.006347986607923069,0.005697297182426748,-0.010178528401265867,0.0009469953743275864,0.0035159878654949595,-0.0018862410303868134,-0.011740995542390938,-9.368045670224733e-05,0.003708507853018541,-0.011273501584560353,0.012531392077933634,-0.002015464291059681,0.003612162348159101,-0.009235791705471955,0.0003007442248038686,-0.012459018972790704,0.0014156559339622357,-0.009358653328082892,0.008553481650066804,0.008609144176959828,0.003241737980352002,-0.0015530666111409006,0.014923356570731142,-0.013337669328045688,-0.0007356792203435789,-0.0013966147854307936,-0.00029904973302401563,-0.0006987568021386153,-0.0011945664828862277,0.0013802224000170657,0.0010348883654030284,0.007890013609943434,0.009302281797450115,0.014172818431604488,0.012831452496665011,-1.0432872722212563e-05,0.003322708444590282,0.0029593798497195537,0.0017139462755397876,-1.6918056437475007e-05,0.004822662629270048,0.0027355700913038383,-0.003005447860068426,-0.004174722915212047,0.005060152663150483,-0.012343355385934878,-0.004398044831621803,-0.0011419322417274569,0.01459231183634534,0.0001903508203441391,-0.005485711002891341,0.011739939666956231,0.003761319172029545,-0.0004353082664641324,0.00741790307937322,0.0027890540908980317,0.0008590334472381969,0.007657250453785177,0.011537654773397256,0.002975526895028157,0.005265861249038484
-0.39623671198347565,-0.004136776645180669,0.02173008349183358,0.010236912935231815,-0.007524696126229236,0.006274106939739858,-0.01142698109236218,-0.006749500244843522,-0.004263548804218594,0.013857397842079587,-0.013745901946385308,0.01535603477102122,0.007848736185886614,-0.005976286325654858,-0.015026127428935238,-0.004500438608384522,-0.008444219894801852,-0.009244472217358045,0.0033044385809764577,-0.001218728669199593,0.023806928591699535,-0.006495922180165446,-0.009486157305143291,0.011267767576427288,0.010842490791944964,0.012904168705024744,-0.0011141148431328463,-0.013362010416729408,-0.006076976021178126,0.008681369900169118,0.023806093529900395,-0.01173114456810237,-0.003429962304132143,-0.0033298998934480142,0.018822723298615226,-0.012629307995471128,0.008475102187591444,0.014235904019671088,0.012708411647077533,-0.011491630399522567,0.007547618983836966,0.008886741394364173,0.0006475316517613496,0.0011283525289948852,-0.0027093825670257816,0.009897437055462269,-0.010138825511307212,0.0009698237089442903,-0.0008327093531393432,-0.0014035860721194927,0.026491293183399982,-0.006565683115420905,0.0011294216450764977,0.012827623407692196,0.008892087270527208,0.005088714942799798,-0.003006842557647431,-0.008352502958773059,-0.007590073400684057,0.008062206627557997,0.01935198909467285,0.006801280580303096,0.025502950858950286,-0.0073589341599829645,0.010165951544887114,0.0018035304827298607,0.02759403177098877,0.01699685605726122,-0.0073400970530549045,-0.0040445931498158845,-0.01441272419006516,0.020813737725915413,0.009594411414910358,-0.00694214264103318,0.004694502708506447,0.03249098098953396,-0.011215191471790353,-0.003324389578267911,0.000919403940730512,-0.008101894980359665,0.0064149941388455456,0.004471231177325302,-0.010712609369570834,-0.005682255608617203,-0.011042649976436933,-0.0022199810758797636,0.010436285133264321,0.0059169202280587065,-0.0066741765009523946,-0.0032796804048575725,-0.005762123287023701,0.022475084523077147,0.019346526916666218,-0.0009485531636224682,0.0026207535345336673,0.0017895629549523097,0.0009621579096658286,-0.010215027928056643,0.00011689604287119446,0.015329742722191765,-0.007538440231037945,-0.00018890878783309962,-0.016059625613224965,-0.0012388717788997458,-0.013271131099593526,0.018455884976732412,0.000745830431917974,0.004888987632686513,-0.004778015193799248,0.004238910405281406,-0.005080743035917976,-0.005608627186939063,-0.022761201774042644,0.0037729170982416724,-0.008057012220346924,-0.010532083452308338,0.008741192495041166,0.005743480292028064,0.006035371646782647,0.02063971460985035,-0.01045571638240696,-0.012207720583855663,-0.0066742386218577475,0.008839468621325806,-0.003976813615721903,0.013876583606046,-0.008307801542821895,-0.007061717679940474,0.0020260787142847604,0.010051496757727083,0.0021627668067706577,-0.013052055794903851,0.012277449611483818,-0.007750902492554952,0.00713673263620972,0.02077407859702957,0.00401195390875256,-0.005406674967913052,-0.010122749236630781,-0.002519622534708671,-0.001107809501301246,-0.005944497101831384,-0.002803078279670286,-0.00857849675328654,0.009689590609311962,-0.009588110557167948,-0.010201609660342462,0.00121242917860611,0.005815898726578592,-0.011554636829081973,0.006557631412587726,0.02745460691432218,0.007623572610990415,-0.006892567227503834,-0.008181584350940933,0.005203211325708355,0.012470367674240108,-0.011023669201076494,0.004987759833298945,0.02122491474707961,-0.013083547587862464,-0.0008564588884489658,0.001745484044629202,0.012246541776458796,0.00046267886818394764,-0.0011358838269719188,0.01201662138061163,0.01585924473944336,-0.007054921002507803,0.005474733470376664,0.019450023137486342,-4.907467426733169e-05,-0.00023122527093066142,-0.0033643611035141497,0.023198321655472712,0.005879646263815846
-0.6066712820511986,-0.005176473287997955,0.03605603188153255,-0.01301315085531164,0.00017953453416817006,0.006477544661836816,-0.0034797325325141605,-0.010459737851851406,-0.0027384182123377752,0.008416187436150059,0.011981142685637474,0.014384452200152015,0.01165734159704757,0.007003566085454445,0.007921142375215757,0.010264732670267143,-0.011364297077097343,-0.004891616668500107,0.0013354735513198546,0.011017957153986058,0.03401086901978209,0.010081898185648905,-0.015605536799654342,0.01971306152025672,0.0154625509387696,-0.005976647031883543,-0.005639472671376146,-0.011766598428081745,-0.0044203053166972294,0.006130865737167628,0.03661724650533993,0.013149156827072881,-0.006104682465805281,0.00518518817565982,0.028833560851824192,-0.015375506780999918,0.010102777439252343,-0.0002955973388271936,-0.0094339635826996,-0.0072074050114684755,0.008052173449532175,0.01401871351699804,0.002974591331213427,-0.007324867681801763,0.0022303689656833045,0.020394969234332885,-0.0009062054126790196,-0.008737987616333237,0.0005482113620542876,0.012519101301258564,0.04510519145517759,-0.011039300569170124,0.008092358370279634,0.01508287461746453,0.009856567117726693,0.004211355746622028,-0.010978251539458472,0.0013917507536440124,-0.0020973644657583243,-0.003227568343471588,0.03283854040609575,0.014100207357752203,0.035986133319496016,-0.005968348684843289,-0.008586144375489192,0.0020269727642071717,0.04121480550130463,0.028912589249663,-0.002671519605912904,0.013725953166950196,-0.01856694882158335,0.03714894994816681,0.017579767044715162,-0.012649152283697628,0.003919366000214218,0.04773704855768292,-0.01246944226740461,-0.008158683886103215,0.009625947745150269,-0.01327320694437575,0.011147349642562232,-0.0019040946563504023,-0.012121325769527722,-0.00785852446824475,-0.01691097617227538,-0.007453677637348524,0.01740410505878127,0.00243779974669512,-0.002914007864863597,-0.006559000713593911,-0.012300602720430336,0.031711003120158995,0.028810261136819695,0.0044175675246347435,0.008582543982451337,0.0020684074199574763,-0.001913506384151361,-0.004198628015889286,0.013523174687760459,0.0007157188419369964,-0.013473104991211713,-0.0023689022360345556,-0.017329760099057588,-0.009345013805233216,0.004095682832688664,0.032480745989167156,-0.004780354662168404,0.012363483609713165,-0.007504196904156014,0.0038867576883198553,-0.015587616150668723,0.014463229270135918,-0.03537754219333279,-0.006166725689889178,0.008027509022197295,-0.013782038193218861,-0.0069843746430276465,0.0028374413036887716,0.0070034972934915314,0.029743785666565766,-0.02095634459495306,-0.009173877668262328,-0.011061759152320414,0.002552042978725997,0.00807121142778729,0.0010006883526842737,-0.013928668846816776,0.004014694414697914,0.012610226549394924,0.016962896004426218,0.002796480959285081,-0.0027298744136515923,0.0008440698740557924,-0.002240413986482802,0.010773908687562925,0.031679883084291184,0.008813007570043664,-0.006074978817014055,0.012085845306767286,-0.004464815493340458,-0.006657148128272258,0.009065678795677802,-0.006832472499956424,-0.015750448653120645,0.0165166318284106,0.01030992398027386,0.012641140153105454,-0.01288969332953856,0.011757375037392954,0.011919357812809171,0.01302304385769803,0.046105881878697505,0.009731460067050189,-0.012595096206809183,-0.016696168745376397,0.011167301186619145,0.02132411859100882,-0.0166860356561056,-0.01250652463356679,0.03371742190398679,0.006945719012065921,-0.014914844784275839,0.0008943926938117944,-0.011999354257764196,0.0009337444504282508,0.0010946209478140713,0.004095990891822096,0.021297717784445783,-0.009300487090596447,-0.006124832368419014,0.0286575663874576,-0.0008701483270771673,0.009288294524695762,-0.013301252830602378,0.0347389464958854,-0.010156697598512478
0.12739750833659458,-0.008396675825533285,-0.007973732995240524,-0.014197748090400761,0.015103485251679132,-0.0025670485521148358,0.013808130634359612,0.0026703556782671275,0.0010133356523140376,-0.013264995708401315,0.0032283885236545524,0.014306056525424,-0.0031012077240822784,-0.014216785159925357,0.012340855932753865,-0.0015073605420726846,0.0030486704179128288,-0.01277774855596647,0.011888363320101809,-0.010985066489415617,-0.008751375956305986,0.00695595691676924,0.002459891070610298,-0.0054771564356592365,-0.004330401061742582,0.0078019564309361215,0.0012723093606988192,0.0012274171351009326,0.0027029193610052173,0.0034405863823067998,-0.008464952595498036,0.005459545737217741,0.003099688334676834,-0.012736940609429252,-0.0057880219392502175,0.006147088512978759,-0.00779444062338213,0.011971928164780852,0.00835293090783791,0.0007739522471787823,-0.002859034577704707,-0.005701076469318063,-0.005046745002845694,-0.0133962818104475,-0.009554097375011492,-0.004837099311302471,-0.0028844333363176634,-0.014445259161394539,0.00214103846319078,-0.011858700220217136,-0.010454400665065524,0.0018773466220523391,0.009723323071000378,-0.0027684993432708946,-0.0017690073877914842,-0.00651910986350375,0.005480761401858803,0.012675626599691528,0.012412395623427405,0.008809920794449169,-0.005598943801562308,-0.003174123798097627,-0.009792758660313653,0.0026033177846776267,0.01366558734229301,-0.013437522410194504,-0.011386359499596628,-0.006320525118905273,-0.007058269500980326,-0.011085846937536968,0.004441546895056681,-0.009724157280997302,-0.00397129428217735,-0.005771433488168328,0.0007546525492273235,-0.012598895739086895,0.00822402672968954,-0.00010548928248106262,0.011988470103656949,0.003481953008547954,0.014176802978191906,0.008022670994916109,-0.01331628944800661,-0.0006196063116629849,0.004748422096843332,0.004340639608633975,-0.006518370544369383,0.015527884046589741,-0.0012069082576012698,0.000694520811948165,0.004319072557214115,-0.007037647537783561,-0.00470163868232416,-0.0014908988545690245,-0.01421229843299978,-0.009029397623105624,5.440107284956004e-05,0.011632155205362468,-0.00878738244833992,0.010969257404273892,0.0032303179289122656,-0.0004060625623645741,0.005073107749633166,-0.00359307189604249,-0.014092802715873855,-0.010665961298077559,0.006592011755054305,0.0123344826472886,0.004183350297505374,-0.0037750471742631652,0.007746661184365452,-0.002367896659565785,0.008929083593013858,-0.005130073771663104,0.009384554046401136,0.004266046955137017,-0.007112429889934192,0.013899502615788747,-0.002918202584211225,-0.008485036710933841,0.004402826647792263,-0.0030384592999842357,0.0007195573390285305,-0.014446588778290578,0.01508948946424175,-0.011767680042887904,0.0025416215984552376,-0.006860569284216342,0.010247733371015123,-0.002830569693676874,0.011271980834437919,0.015547249483451275,-0.011034885213123128,0.004937331016753425,0.002691062738333288,-0.009005497230956871,-0.00048091905472776475,0.003045948718999946,-0.0013602145950320256,0.0016723743298944994,2.1231759222909456e-05,-0.0066589893026390845,0.0012524651784579096,0.0019907352504296375,-0.0055975795524557835,-0.012777596521952345,0.0059304419030305165,0.009528339243317467,-0.0069342471804896486,-0.008364273572504754,-0.0034943462701853755,-0.013152814720052237,-0.00015280965366280225,0.0036195856216115203,0.004297377807509692,-0.009204965084111897,-0.006582455846015699,0.005111698958196815,-0.015613870670481929,-0.008380409124043253,0.007248145115191822,-0.0011685853774821646,-0.0009706869121874506,-0.002728820163106379,-0.0009218590014885145,-0.012934465406439132,0.008335469288251511,-0.005571851096624368,0.0021011641157639882,-0.015596066570099189,-0.00660845672102451,0.0019106596662901345,0.005881777283984944,0.0007026553504001962,-0.007790987597502098,-0.011233181434770076
-0.5325433041812055,0.0010974067879052178,0.03232936436435692,-0.004304074649042428,0.002359228978120881,0.007272064429660666,-0.0013620565831323449,-0.007202575223215223,-0.001985861102535739,-0.0007121071703037676,-0.00402584961475165,-0.004917580622215863,0.009503709084827316,0.006265147128581238,0.00561368149562293,0.015267779857613965,-0.015639136711487384,-0.011101624712286779,-0.0033330627420954766,0.014826789374666905,0.026892713285405136,0.001840910518866229,-0.010151161659378195,0.012568601110965541,0.01348511678528426,-0.013832776274983189,-0.004899111301372819,-0.01063647418537672,-0.002217539137509918,0.006832186265528933,0.033758579289972834,-0.006651592596473622,-0.0031439972824798875,0.005402383601588959,0.022066090966968283,-0.001854622148570028,-0.007269367467822266,-0.002572932583179064,0.01018461666846453,-0.010845666037810352,0.007064381888199255,0.005130737540649716,-0.005649223261571138,0.003956260583393285,0.006581401125155826,0.01786756234600591,0.0028652223365237817,0.007101407661494048,-0.001262105982894799,-0.009019498054816003,0.03639797954739177,-0.008763353341642719,0.0024943280827131667,0.015374926144931763,0.009861488504174093,-0.0014333108741772273,-0.007261958419630226,0.01346362036571229,-0.007073385761471796,-0.011476517141241642,0.026089953731921016,0.010939916242079888,0.031251371829881386,-0.005049533457641185,-0.012929683889953733,-0.0029360114328489915,0.03838098962596725,0.022645902931275143,-0.0033560096290194408,0.0034063975103467876,-0.01703939466688281,0.030948224774934373,0.011527757302130605,0.0028748412738032435,0.012122291397453307,0.044012166138976266,0.0025075212746434143,-0.004067550461906977,0.01135457269536079,-0.011878741712685787,0.00209256995233533,-0.015124808633185154,-0.007698053479248054,-0.010171893827433087,-0.017898057222659497,-0.0026630127117669815,0.015062039496590771,0.006293634565446238,0.0005961161547387191,-0.0044927431553696455,-0.014403464209221813,0.02960608084537935,0.023809313382177028,0.0030368256087595857,-0.006189241108732091,0.007573261195221535,0.000831405604201722,-0.01186237813947736,0.0052049915653215005,-0.004045728467520274,-0.010904209339419003,0.0005362151442338822,-0.020072918965208627,-0.014882328966559055,-0.00024708308856510874,0.027422810740044965,-0.0010534016286321668,-0.002874356694581671,-0.003515075900488348,0.004125092176008637,0.01012779087676684,0.0017187773145353052,-0.030705775063627504,0.004240446762852214,-0.012470099143245091,-0.012719859361030133,-0.014470257317726377,0.01266935313319575,0.008133114496861766,0.027913136882696275,-0.017551734979956834,0.011849885554875365,-0.007400992285356494,-0.004607438216082782,-0.0022542720467238556,-0.012736816430936087,-0.007671497887730757,-0.004844873294910717,0.007423151746048167,0.012132674849214667,-0.008182791589892211,-0.004887749284710311,0.0002105559308059335,-0.007038617109620282,-0.003081619436376068,0.027744355743910473,0.009682418559790665,-0.013793529243534167,-0.010892755486135965,-0.005054771782104229,-0.0044973652220988035,-0.00563123004929577,-0.005322154503165297,-0.012222738889817108,0.018116268350661394,0.012316264327341581,0.007322957474160521,0.012872727965125536,-0.015194363638015216,-0.009765360087523564,0.009976319767998275,0.03922489855106373,0.01166176217063288,-0.009842483873528738,-0.012074721542709374,-0.0016811684623178579,0.017133328789381834,-0.017247204851859054,0.006423811703029331,0.031802165441705305,0.007744733877450168,-0.010685532458147053,0.002500343418028205,0.0022907456535101525,0.002778249177750725,-0.006747477781354042,-0.008234776418121117,0.019372123962882546,-0.00834453092472597,-0.0017675223574810661,0.023510260042902076,-0.002007447569259874,-0.010000700288791877,-0.004403145590476173,0.029677519001510312,0.003210530147882893
-0.4475201303877991,0.014334732984301088,0.024508792197147505,0.002487217834279474,0.0014434110468597022,0.005523593907965817,0.00900441040838849,-0.008011838112962152,-0.0024889116294991034,0.006725800372917583,0.006905185319554485,-0.001411046567783774,0.010505029024397832,0.010344916544264195,0.005467479302454958,0.009869443377702895,-0.011251453805231548,-0.00653883610562089,0.006375848536003703,-0.008449419595722532,0.025694794430950584,0.009974196899700635,-0.01149255492391523,0.014059656633361874,0.011350370692713944,-0.015067116056749158,-0.002079110247216379,-0.011626039650123926,-0.0027755860934822476,0.014984881779676568,0.027002389733015476,-0.01351705344832953,-0.005444668603981247,-0.013320071554320932,0.020184470969348896,-0.00934306960467473,0.005581950768841271,0.00759900271528988,-0.013693971782173148,-0.005458163906347829,0.01294787437115549,-0.014757399959331601,-0.007081854335063895,-0.013798978453496133,0.003197823482027339,0.01654468507455862,0.005607002844201722,0.01224019541167208,-0.002208427581855454,-0.014286098658083564,0.029339994932962854,-0.006551640310916346,0.01425732956178119,0.009944363275891148,0.009598350113739506,0.010185855787004816,-0.006279082567833997,-0.001015179866770747,-0.013808173838328833,0.010344731048725277,0.02219597393719765,0.009124759767918133,0.024620670431357326,-0.0045262008195128475,0.006536315179754483,0.007339728235625856,0.02812669254066941,0.019421583533038283,0.0012178428552831778,-0.009168218931100647,-0.01118767568344163,0.028785191114185735,0.012791776278096367,-0.007274686108147015,-0.0038632606390022273,0.03260300405424048,-0.007244515988826059,-0.0049719082672804865,0.013781729025758891,-0.010394093179300694,-0.0042000891154414886,0.0024084472751402593,-0.004019857459878418,-0.007047694647120532,-0.012393498493166934,-0.005442527932384694,0.01157804935458456,0.003231962163230958,0.0037530827964937993,-0.004483167225034155,-0.012389109963886716,0.021863101929644663,0.022152400202555565,0.003568317286987544,0.009389179224452336,0.00409937876142559,0.0026915251515565804,0.012055812905472918,-0.006085720192590339,0.006680815919069785,-0.010031245167266296,-0.002637601955175327,-0.011586296317034577,0.011655323764406873,-0.004999214226811339,0.02588810629014356,6.810205913573355e-05,-0.005575734052624168,-0.006729400307816805,0.004766723759813464,0.0015594372887331384,-0.005024252511273045,-0.025282243016722494,0.00043666738409432054,0.002296005524167314,-0.011980199943014982,-0.005271585139585162,0.013405636883380357,0.004340607029835421,0.022067045556593407,-0.012439770663063862,-0.01104155684367077,-0.009047785046010233,0.010348816108560394,-0.01545810185674024,-0.011276612364171334,-0.009050554757925138,0.006610223918085446,0.013940748509243837,0.013062465272273536,-0.0002338444353904165,-0.0024852498674154608,-0.009405796872149135,0.0024129544227796153,-0.01449238871599312,0.02653474433522828,0.008307063470549495,0.013233506483942788,0.004151127413769547,-0.004705625122589673,-0.0038928502689914105,-0.007897377623731789,-0.0035301251123249886,-0.00958164261044439,0.012538237093939754,0.012030725523213517,-0.01069113816167212,-0.015010729484297488,-0.001689889787006335,-0.0041164364421285736,0.009346110466497082,0.03176916915605903,0.007153016720848228,-0.009893595341543524,-0.011796309909156717,-0.005014594247243789,0.015314954017719503,-0.011954524917673806,-0.012108241120901649,0.023638014874815445,0.008582565196418753,0.006523964802230895,0.0025781466994666056,0.008453872786049931,0.00215216993928258,-0.01315419061272331,0.011109828762959451,0.01493218745222815,-0.006138260794647756,-0.0004825506468274232,0.020185453808923923,-0.0025099606913776885,-0.003632410027009491,-0.002058964560348387,0.024727349298223626,-0.010833389023259987
-0.02573469832288497,0.004302890580882294,0.0003745924029066839,-0.014006979637004893,-0.007112159205423137,-0.0007384070304033163,0.011461773566182176,-0.0027021352957244684,-0.0008074105998396425,-0.01515429084552079,0.014293045769014499,-0.003181322878245005,0.002636903561372681,0.0011088549245781183,0.00015672762546753427,0.003613006918121227,-0.001307617522408799,0.008703775206801819,-0.0012549886862035613,-0.007431589696526683,0.0016165014894046275,-0.0024020410172109,-0.0006140132806295317,0.0018601784965791165,-0.0002957684586620752,0.015044866014585382,0.0005115084109769246,0.002726165309400281,-2.836732009847228e-05,-0.012617473684958629,-0.00019599551497355715,-0.008793580790005223,-0.0005590719633171032,-0.002312930148607513,0.0011406299736690501,-0.0037618056591993514,-0.0035303457285999866,0.012788455950840966,0.014441962252805276,0.0027401138581689827,-0.011429713161223154,-0.005104753131826786,0.0012556468168405006,-0.012694085109375416,-0.00036311323350742675,0.0007625395746106409,0.007812965424756537,0.013823058032274668,9.0423562213892e-05,-0.012350798542873229,0.0017280405892495842,-0.000496236363452905,0.0011732220444430896,0.0006817926697785412,0.001655360139529433,-0.01467729949776125,-0.0009158094039767339,-0.011720407275630833,-0.0027015419835448654,0.012108530567540448,0.0005459423653828566,-0.00010299367765590107,0.00034361063149142333,-0.0015703665379147266,-0.004098328305315046,-0.006971832399208785,-3.0029065476691455e-05,0.0017990450133916643,-0.010301465306436521,-0.0004922898009610509,-0.0009697654731692136,-0.0001493229033213694,0.00038483882602264707,0.0014430036689499666,-0.012958550636240178,0.0007099302556836033,0.007842142489216025,0.002763518697104363,-9.883253941240018e-05,0.0010418554933359374,0.004930972634087337,0.004651127474234583,-0.012595511390164387,0.004614292534153188,-2.2957763792906916e-05,-0.0002127349478035288,0.00017535505684527892,0.006019832534955704,0.003677856831133683,-0.0016441698705456293,-7.860373630036692e-05,-0.000171395576293182,0.002145192517139553,-0.0006064759297475034,-0.0008028725613149629,0.003872884357454854,0.0021126222923158766,0.011854615013200565,-0.011578203499955069,-0.008998894438078716,-0.002708732647513176,-0.0014811467962738945,-0.0002597446555737996,0.003570304827675643,0.006558711126629712,-0.00013259968950510612,0.00612915249030836,-0.001824814178735098,0.00018308507753009298,-0.0011961610949584407,0.014885431253235087,0.014152275930231713,0.0004893492784294777,-0.0040755534056715614,0.013136871877937408,0.003221816130571469,-0.0102899908798249,0.01184565656165186,-0.000701193708322991,0.001112757777012944,-0.002130197020111173,0.0032507295205801805,0.0010523663047771106,0.014057850137600452,-0.008015767576080086,-0.0007937445427865786,-0.0018863693597099814,0.01507659570025889,0.0018894970321085593,0.001659611559832414,-0.004303695849970079,-0.0038160507543565543,-0.010407274124457463,0.005368281631908483,-0.0015965304804367794,0.0018740495558622118,-3.4459215239774215e-05,-0.006276634395713913,-0.005595972565828208,2.41279494668094e-06,-0.0015965329301392622,0.0033655103281131638,0.00020330265211937072,0.001218197737573981,0.0010642596767963105,-0.006941927560330338,-0.014188897804802331,0.014133651623574515,0.011988101391533567,-0.013018642610154767,-0.0006941651401582035,0.001436569824863005,0.001189630215607649,-0.0004949834238861567,-0.0009837681251873328,-0.01158180993814836,-0.00023269336438295614,-0.0016305213301497205,0.001947910473659411,0.0015393941329012513,-0.0005146890649398023,0.005872472623456584,-5.625695813032897e-05,0.00198158764986623,-0.0017630716295112812,0.0016284401801369489,0.008900039432411324,0.0015645022243961789,0.0004931500028663705,-0.009142321253442803,0.0027799660322300173,4.0072991941580096e-05,0.014769648307529686,-0.01544674971601098,0.0012217459557598176,-0.005881485122772978
-0.5885552757909547,-0.003714935115342911,0.03467872820032526,0.006279624271033301,-0.01556102342938031,0.006118301622637928,-0.007878184045011314,-0.009332340391468534,-0.0018641143999914515,0.004369675727801139,-0.0101595089337909,0.009356204757973375,0.011097138068525345,0.005323162652205667,0.008072628769750054,-0.013750631950729439,-0.014751693094735797,-0.01365792732260937,0.003682884716506539,0.005743755234666133,0.03196122724807683,0.0034984075634139147,-0.012606145969529577,0.018130711269087996,0.014113305236047672,0.013907463523054659,-0.006215808641875819,-0.01143656293675909,-0.0023691976923718946,0.011356700252412203,0.0333091503452736,0.008542063451865842,-0.005011050663345405,0.014464595557209699,0.02584039015922259,0.012424551278575807,-0.015600150995994943,0.006710491071606414,-0.007934122715634699,-0.00857045433374071,0.007320711647777728,-0.00916045123592324,0.006938974344881135,0.013570789049625213,-0.015108158297430216,0.018303391180253276,0.011566910180476574,0.01220412749949714,0.0006662788221826219,-0.01182785514701145,0.04248554368380018,-0.010930842316430435,0.008814028207635563,0.017988366473677384,0.01106481013851738,0.007037435836906546,-0.00837534056767357,-0.0019530233440868405,0.01442618249067782,0.012036564625731723,0.03342223519701871,0.012546696080356393,0.0333182448592354,-0.006377902257903006,0.015485494208086752,-0.007372707822601073,0.04008079841047552,0.024422104090261205,0.0027721413852953986,-0.0013636425992879786,-0.020003941994266427,0.03588031622043067,0.017398214008981023,0.0034872713926062324,0.0031985137149474208,0.0470705363272267,0.015279442049692973,-0.0063184335886585005,-0.002031624197974798,-0.009508984445432642,-0.0044457799032617045,-0.01091796797371524,-0.0032188848990567717,-0.0013759581222852848,-0.014994163141715434,-0.008772274981591843,0.01800940817404439,-0.015386572772823695,0.01485130088737674,-0.006759505323539473,-0.009484051108045252,0.032329578247878216,0.026007315729734023,0.002199697197106872,-0.00768780332444953,0.008357950566722939,0.0005036207603263517,-0.013175388396864222,-0.0010683011096159108,0.004464251830356116,-0.012288605049239619,-0.0024124971454219987,-0.01682901879617121,-0.005129064197119039,-0.010474754372927438,0.029342533209458527,0.004972424333231701,-0.0073202392113304385,-0.006108401548427058,0.005658942169294247,-0.0016163849341588703,-0.013229948911050227,-0.03425309010482064,-0.007705526189591187,0.0016608943987795402,-0.013310862858085939,0.00727570857088362,-0.006039078929406215,0.007479865049478606,0.02867914682402068,-0.016884157754818486,0.0010843025606466737,-0.008514043335196762,0.011718023503926686,-0.011823721602570194,0.005425057588868406,-0.013010146130543479,-0.01480845847722237,-0.006764335144781482,0.017550681988072865,-0.014696095336042051,0.01267724955975585,0.009079544390235592,-0.004152463851432531,0.0038359300267220182,0.032269294515967335,0.010575977885917087,-0.013633997400451334,0.002112335476063404,-0.005488091531161949,-0.00407080163674211,-0.003357041577706627,-0.005937219454239113,-0.013294362335386145,0.017067088147696682,-0.00282217451661982,0.0039289981073376105,0.015093751405477283,-0.008697454296743512,-0.013610833439483477,0.012275251234450437,0.040325701465643585,0.009055402117953859,-0.01196300687699679,-0.012203284266899997,-0.013119760751033039,0.016585149000938507,-0.013493668589601597,0.0027735993354620417,0.034751229380227795,-0.007618838288935743,-0.009533785337957245,0.002165314159057184,-0.01206633843913105,0.0028070845717320875,0.00529545533033908,0.010762295855568954,0.02110543784596359,-0.008401902170401439,0.005441312043132272,0.027905922770942285,-0.0018034092892836755,0.013710113219445184,0.012440100747997833,0.03297173890756852,0.011712217780881145
-0.17846771438082862,-0.014156675807301374,0.010248393900114252,-0.010554025878831962,0.004077611141980929,0.001813471332591314,0.0026439158120289304,-0.003358197755356347,-0.003606810681741772,0.0014139896031712812,0.010601240663625337,-0.002966098005491309,0.0017036119144906226,-0.003519806947779699,-0.013442873396114465,0.012506988194421836,-0.002144169585553268,0.0104126511789636,-0.014756602711667292,-0.000515016594325518,0.010777552330564993,0.002469281213945105,-0.0044246942118163135,0.005020857301435678,0.004829332975538609,-0.00414893215332564,-0.003769544824002113,-0.008921547155765795,-0.0013606559983525945,0.00978648304016956,0.009804327926969069,-0.011765016657161627,-0.0005470370346753551,-0.004016296470544151,0.008308337783068907,0.01499084833241578,-0.007237705150368045,0.010064471798536364,0.008585446514781773,0.006292855983959615,0.00021150514338462434,0.005211696123561378,0.010986205707435366,-0.005605535913299122,0.00391296948398476,0.00584579330151671,0.0022411896328230346,0.007636048700508279,0.0013544337589144056,0.012412277336719867,0.013202421518923094,-0.002630485476416895,-0.00808562116318319,0.006635496612404006,0.003169472830882576,-0.008371290932509039,0.0003989486694560536,-0.006192745137284031,-0.002489459069491523,-0.011144846157671962,0.007835009161747309,0.003743601268668085,0.01167724342258319,-9.696373718285897e-05,-0.0045580637614762755,0.005604786907254227,0.010241163176204209,0.011567031211126271,0.009199874583068375,0.0025693263124437794,-0.005966806218422452,0.010683464900644644,0.004398575309199267,-0.01333822865122429,0.009777446792315458,0.013729268233261751,-0.006205918411262879,-0.0033986730382854955,-0.0028567269955670094,-0.00616175879473874,-0.004421334802887727,0.007334501407984635,-0.010854530849484737,0.004845230819550071,-0.0046915388733093505,0.0016724502924569014,0.0025070827132041553,-0.0076601105695825004,-0.002840398535211803,-0.0027344100189344088,-0.007556988299898371,0.006429731823635605,0.009223167295313736,-0.0006538935972855892,0.006933674808058461,-0.01113851446553335,-0.00033135224828099535,-0.004040101599477163,-0.014459345394283635,-0.009836604271435286,-0.00450824686371039,-0.00024367518420864717,-0.007805717531146795,0.0007475699012229851,0.012645266617030079,0.009334214537524078,-0.004374022177919779,0.008503135318022777,-0.0028977628146614736,-0.00042952769616026135,-0.01463181990526161,0.014339217499596848,-0.01163338321740513,-0.007167341772827837,-0.008779792635773956,-0.012845181469273052,0.011634787518600056,-0.015281289944015682,0.0035716528132125258,0.006478837391907447,-0.006388420838188775,-0.0017355473882356316,-0.0023835839625807546,0.00885821035569656,0.012698496558224914,-0.013264500909521026,-0.0017906475380714156,-0.011292438346859796,-0.015609043612053251,0.003913169382286133,-0.003150071134490697,0.01509389729931869,0.013557391847436446,-0.011284980394953199,0.010577802343429324,0.007761116820527279,0.003104379177928605,0.011884498697296547,0.007037619165611488,-0.0005839905796956417,0.0007586877060149831,0.00479677651028803,-0.00221656617520567,-0.0017501710673895633,0.0026267529437864843,0.0031827116764191754,0.007067520412532984,-0.014851855289923152,0.004329303621674652,-0.011498954222445169,0.004404622624275531,0.014357726693623568,0.0020058671859082017,-0.0049846638084675545,-0.0026705266606004154,0.010905926902814621,0.005746748533274041,-0.004962707066397605,-0.004464018225602752,0.010257452534719434,-0.004048209980727243,0.0011376544867143985,0.0013885081221921463,-0.0024401481663488753,0.0023540606046529955,-0.01237233082203236,-0.015224235782969803,0.005802013668739169,-0.0023928148084847545,-0.014481927139465663,0.00788280349961865,0.0010961896778642218,-0.0046346467210761876,0.013721532789989636,0.00901300366182574,0.009227866995282545
