0.09861973885464795,0.010874407115700743,0.1374559030316205,0.015287949572433745,-0.0018502463396404753,-0.1810469052426476,-0.007361323930275068,-0.026433364054283405,0.029179681776425288,-0.004337961778121187,0.0038733057665489984,-0.0029589600164824613,0.017817931503748774,-0.009511087993432865,0.013606897735552344,-0.013045138228075567,-0.022963392285468686,0.012846944931087217,-0.012710745932679481,-0.009896002764333745,-0.12973307704700132,0.009184918487143874,-0.06617670031531923,0.09640565930132856,0.0794094539078648,-0.01037697163237913,0.032713414234627265,-0.04483884259350429,0.020043294813393425,-0.0034822391639689233,-0.15440126565053616,0.006806132134576714,-0.1523166938672166,-0.012872364929743887,-0.063918226735364,0.014597700340279116,-0.005149436962154575,-0.009928398824362947,0.0039788062464518395,-0.00817482255076889,-0.007874945222830124,0.013062057484490908,0.007694145749588058,0.004544721984863224,-0.0177475929143092,0.005579264099104032,-0.015278260030370899,-0.004540293032367974,-0.07258397760404257,0.006519309313157171,-0.13115788877089551,0.13739704335088873,-0.015034720833066686,0.14486275425687284,0.09143293575297366,-0.0008177266862155232,-0.016239730693884742,-0.0007505311640113518,-0.0033012735328040335,0.003832693409218383,0.047731939680695744,0.12940626062047916,0.12225141430110348,0.07443205304278387,0.0011144565053632857,-0.011436408917700525,0.1920397842381023,-0.04659217357317165,0.012499287129605248,-0.0046074987404326265,0.010315992505044225,0.15029688831861399,0.10954225256629438,0.015358829576763402,-0.028087661867068514,-0.07831574350338931,-0.010792811837556902,0.0104497125271214,-0.005928385224957353,-0.038899595927222336,-0.0212672103175144,-0.05645378030231108,-0.00346343254200715,-0.017452723990290773,-0.11026032404225856,-0.08470513602741021,-0.106376895967217,0.01271955999967734,-0.006659584054798134,0.01629398933748534,-0.11103116206243101,-0.19652037073108325,-0.22684175279385624,-0.23305409677939087,0.006819390256017573,0.00904671220953256,0.08234846501596625,-0.005947342433128278,0.003399348422133009,0.00242228884619795,-0.0014195850173103356,-0.03786531278805302,-0.0020363137544155245,-0.003987603686876225,-0.0035900799214958097,0.056448416707105195,0.02353043684739448,-0.07283093565573594,0.042686807456110414,-0.026315290935781672,0.013961475500728706,0.012517071301388901,-0.08612302700028014,0.008022478418260755,0.0007395560154156919,-0.0028488229179562743,-0.012881889717380062,-0.008734994379555931,0.04170471473236033,0.22173655358533906,-0.05972671307207335,0.01504097374402889,0.1264077179541111,0.0021851409124354487,0.011261835366008974,0.002537380616217562,-0.06829937443803165,0.009285409502117085,-0.0007140410541001778,0.04463465824723537,0.0031357442760159455,0.015580956388473038,-0.005021295899149559,-0.007829421342500822,-0.014420058840363844,-0.022816014139303162,0.046773913460100784,-0.005952970479440416,-0.0028355912555149965,0.015400961954775375,-0.07438180082368576,-0.0055413549187818545,-0.04833781901645569,-0.03150336008151411,-0.24472453913982706,-0.00810554043076607,0.008149537286406942,0.015437315223121587,-0.007631574841841137,-0.020921874530471438,0.2103595705382307,0.03720958397636248,0.02453298097159864,-0.11048771696115144,-0.09799841241845093,-0.0018373585355199867,-0.13187142459565573,-0.1029125131193355,-0.005169997971248466,-0.034354470351014216,0.0064445549089214085,0.0031334080263121364,-0.03372383665869727,0.0015672640217494899,0.05927602735733211,-0.0006104929052997837,-0.0030031527096824676,0.14866527512001435,-0.026145134419418136,-0.01343358293261809,0.15061476035410445,-0.17650400244623982,0.00681071621869098,-0.05287339222939779,0.09546294312002358,-0.001749599993044089
0.07580206756030029,0.0010328421722925162,-0.1768817253458391,0.005592116675249715,-0.01540884915978321,-0.08807060511639356,-0.003461710254705982,-0.04751403586709966,-0.0511337541790729,-0.0120227559484107,-0.013232068613923925,-0.0036824852580706335,-0.09267570561994809,0.012539511249066118,-0.007198868644427453,0.011405198435538264,-0.0480312462261365,0.011040020205961197,-0.0017156105731488715,-0.009438941732370035,-0.05227490891867026,0.011139513021041821,-0.16108914082713766,-0.07747292797040366,-0.053945108883547095,-0.01470065491150396,-0.004777439929788673,0.03795154800901314,-0.224502734009293,-0.0008291123328495707,0.20654451957310663,0.0028231753040043606,-0.09264655217918574,-0.002927306768864598,0.10302819210829381,0.003383232259027296,0.009355627545825428,0.01041801851951931,0.0041664847135218196,-0.01113626675300744,0.008575963597661461,-0.006423200530466189,-0.011268279778010384,-0.007570681873114139,-0.0666781331455337,0.06154318553968679,0.011262591150936974,0.006721490580736698,0.043444949899808225,0.003729420469864575,0.19457477727100114,0.0012020386917174978,0.014995369410336561,0.013562004597903531,-0.03900548825316621,-0.0018596067851488,-0.036441885519854826,0.00903232097543595,-0.0015763686261999331,0.013236523859360569,0.0917891289309004,-0.04657981517204196,0.021977817467707057,-0.149427905655658,-0.005736208239464979,-0.0011678082387040767,-0.13237210776342212,0.14162579693603547,0.0043269972431829035,-0.004091935849412892,-0.06486641870404669,-0.06723435198605841,-0.00818218014794143,0.007060980125031868,-0.017284295904088195,-0.07750536315407419,0.012679667485634517,-0.01996194883476261,0.012028103092562246,0.11530111345208317,-0.02189683449602761,-0.027793808092157677,-0.00905396110992877,-0.02118341353874388,-0.14288493268419272,0.07986499668808027,-0.0446800790493824,0.00608301659021088,-0.004344175801924491,0.05605231891768566,0.01859907735639841,0.18732043328713074,0.22971919863727272,0.15593869806408214,-0.004693993992773732,-0.014458043962171763,0.002791306047949052,0.013140694473608834,-0.005335447083320025,-0.010468574639507951,-0.10423385739446768,0.00811825982485576,0.00455507234603646,-0.013380995096418668,-0.0055429951922086294,-0.11509582397592065,-0.017138972824870185,-0.012607761391687932,0.06658230533685763,0.11742779276711955,-0.015512857547689888,0.005179336385728976,-0.09067550733790045,-0.013149695448072256,0.010469146592752523,-0.008559815344724508,-0.007260137379588416,-0.006813118237436317,-0.019035667212433403,0.03373108202131767,0.022198080427788477,0.009807706125657158,-0.11848358962090917,0.007230837006364146,-0.011722093482424992,-0.004261594076387203,-0.09879710217362143,0.012752952057372344,0.011508139889420389,-0.02509867156990014,-0.01140566596891551,-0.005377185348282385,-0.015302993933932803,0.0018700521248134067,0.006738545602633209,-0.04487318316508231,-0.011664736645220818,-0.01524611819240071,-0.006936963351505773,-0.0828603700558958,-0.00621134785503498,-0.014317655373824147,-0.08565077598417972,0.008353394984998784,0.17997701555523285,0.0024804547142307683,0.010337036096821295,-0.004039205219913831,0.005188741244227708,-0.030464670069102563,0.041193707183539686,0.010110857268206484,-0.09434573247096344,0.0776852017014095,0.09908934719420764,-0.004860100334105052,0.25399493263932377,-0.019124671146917696,0.00687313981436773,-0.03795029198742863,0.010364812686121942,-0.1055375758948444,0.054646656582365366,0.0018768078829192597,-0.13894976647058882,-0.010030333197450014,0.00724816892746797,-0.049072748830334995,-0.12381557501313308,0.006552115105148339,-0.2452114695600214,0.08871454483065304,0.007273204936068641,-0.007308602056430993,0.055489745502708555,0.010617620297331234
0.02349228656905438,-0.005966940356896593,-0.09107187487613866,0.00771414932582638,-0.0006199480123988722,0.12221105078933601,-0.0044756409978732176,-0.002064572865070237,0.09838501695124834,0.002751848902009725,0.007944193302090573,0.00113039023468808,-0.21700904469197355,-0.01293595135454181,-0.006541115084958776,0.0010086947470413395,0.0675636531436111,-0.004492476101486252,-0.011578006254334708,0.011603306369921185,0.0571414445587347,-0.013306216202834707,0.04844119792136985,0.05621980844481705,0.1568930125837329,0.001647463270151632,0.09259548655610692,-0.03933920490513032,-0.11142294245986663,0.015260033058882336,-0.012175672547817297,0.002602890272377905,-0.03783424735044845,-0.013169691859099632,-0.12064763879221835,0.005922994222633038,-0.011939700344319331,-0.012883621105657637,-7.801368498874806e-05,0.00405045954013283,-0.004111635042009509,0.0011607555104070182,0.011114498831742432,-0.006354810132968878,-0.06423478055348338,-0.024817329750494395,0.012483994678889766,0.006079253228064237,-0.003016377567811284,-0.011959169378611606,0.017267352815725102,0.012861168098272473,7.356410363320437e-05,0.028171229058106532,0.013231534295750424,0.013725817261715244,-0.01765408525161516,-0.00796768959527025,-0.003640887161513128,0.01141862164903901,0.19620297172944057,-0.10191907297936235,-0.03400953011473866,0.05656217085157574,0.0035409182331199544,0.010834151007276305,0.02261325926495843,0.059403565209106425,-0.010379414082569254,0.0085760330279743,-0.14075533655741096,0.07604766012798138,-0.14172687724469227,0.003214169450712432,0.015535097921264625,0.11971342234718028,-0.001793619363147158,0.008382107545286845,0.012345033589912667,-0.0065257623926253255,-0.05002595849743889,-0.06151302913357618,-0.004685751312082282,-0.07806187228862017,0.03064619945066178,-0.04911102981062528,0.15835032342094518,0.006685458486241861,-0.00905028239470685,-0.08750500750332636,-0.048576686341089886,-0.00019658698479375493,-0.07129637326286196,-0.06968762474363768,0.012501225075057777,0.005726027969821211,0.010051461440993063,-0.011269325699261503,0.008633578849440472,0.009292127545444298,0.038708076670293065,0.020733844621816364,-0.0018159604466126435,-0.009056239116666517,-0.0015038257611031738,0.16771712820335885,-0.05198919230764049,0.03959657028746119,0.012214964017595828,0.20234962051521269,-0.014301347135383422,0.011073185543616946,-0.030797041024612757,-0.006448821599100103,0.0124272998679993,0.011979987739215957,0.005846219585264403,0.009418867935037285,-0.047755378789208144,-0.05223227209110555,-0.054976133012599224,-0.00547173395700043,0.02863333007606545,-0.0038003405061744072,-0.0008145904264664459,0.005595493599104856,0.1252822505210586,0.010263012980342157,-0.002955775865883293,0.12561350908035648,-0.014074050528628545,-0.006020376063607412,0.011637637589922641,0.004310989766781296,0.006678280505565896,-0.09287434048723432,0.015791346463700826,-0.011513581139638112,0.005219577126441905,-0.1200693160362323,0.07996702118935092,0.00786165048094736,-0.04763611346103211,-0.13110511184477663,-0.07729424146562609,-0.00020843321948207233,0.003395175372832203,0.0006778495748384177,-0.0063624033467751286,-0.03371018859391662,-0.03655384741100735,-0.13577395374085957,0.09188159338411289,-0.07318846516006591,-0.02162482251772315,0.004446953536552729,-0.09503340663523317,0.035862983980264294,0.012722686068571944,0.058284950238456326,-0.0065008507032832015,-0.056693312466369494,0.10812658078084675,0.0031926330780746963,-0.09783764142273796,0.0023068705807274756,0.015293892947147336,-0.05482385946970725,0.05886486140233209,-0.009268126694864515,-0.050382726172132235,0.10446825350546933,0.007807923986663558,-0.0037484388388171956,-0.10612696006287559,-0.003609715424958835
0.024448398501699244,0.006423915952855713,0.16136055790535375,0.003258297403905007,-0.000661855207751999,-0.03439299352439388,-0.00833726893807641,-0.09422310932018917,0.15284777923161602,-0.003379978696880989,0.0023063450388769273,0.009742660888642916,-0.022792592908535966,-0.014256377579306558,0.010476160696401445,0.0028899316830702827,0.09929374781817996,-0.004161033122095946,0.0027589500787526984,-0.0800647206182055,0.005246671956817975,0.011345383143910533,-0.032821021968392323,-0.12170987346358482,-0.13635486954374126,-0.008016435471046503,-0.0247019623267713,0.09609829575371864,-0.14496532725181246,0.001994193656668832,0.16690902432572688,-0.0066958793272231774,0.046130964079946365,0.0009687543546672214,-0.07588427443598977,0.008452740273103599,0.0020401975529175803,0.009055824379997995,-0.015516662369005056,-0.009828453515383414,-0.004566504385408638,0.013880602614324774,-0.011069691302256691,-0.013161348259595342,-0.020156948769769943,0.07983447942378623,-0.010740120975453054,-0.010162109592543662,0.06360142228442317,0.006573725984957032,-0.13564677402378664,0.018603344145762365,-0.0044735588431642215,-0.11145936334251806,-0.22204703614896934,0.00455756918961259,-0.03544962969403729,-0.008579536570631433,0.005443519472179769,-0.0014237616262288769,0.05790957095405654,0.20102482723047965,-0.011547585449809793,-0.12513718054559503,-0.015354152740292365,-0.0024795304183811914,0.007998897530874962,0.18233776122967257,-0.0024911993881307146,0.013218682148271932,-0.11147176953154427,0.04040915376705212,0.13428907707286064,0.009737221636413704,0.043684193744931,0.003736810290239508,0.0006782544646240264,-0.03858988804745525,0.006450792731933807,-0.11200734758631695,-0.062151253144398184,-0.12118071621695199,0.010999448600593473,0.07890300821534627,-0.0409264833599491,-0.09130034488219442,-0.1503042002076621,0.01234868099361033,0.008804721159194624,0.058773334334098155,-0.07067724054066579,0.043790719697098975,-0.12489835819905348,0.1460104602300604,-0.0017884890745130666,-0.007639389095683759,0.07386113866595528,0.005381857715769003,-0.008834857357948419,-0.008966431871908018,0.15179876493411804,0.06821660201572777,-0.04183043616736472,0.01291960587209361,-0.008214324436969945,0.05335673381882817,0.07826549154224052,-0.01695108936990677,-0.05680921518746247,-0.07552224764031333,-0.008463892700851478,-0.0012427647007546526,0.004251810616403562,-0.012503593016758852,-0.004004221386098284,-0.006797527092610212,0.011337926402241294,0.00018990164322831016,0.08789479385206565,-0.043394242855387226,-0.012427648945634036,0.008726422993767344,0.0017234181197242856,-0.0029130896649409016,-0.005266483103349311,-0.005896649386714938,0.03227913381890216,0.008052155229101906,0.000821980761467566,0.0571437776272038,-0.015061729777991958,0.01123654087989339,0.012066923819778645,0.0066025198621722375,-0.013327374087546869,0.04075987130747923,-0.011899321310263142,0.014854375522050458,-0.005419274341867945,0.2104913123009784,-0.06302064699881363,0.013528269659784146,-0.07284060923478816,-0.046729291639477456,0.03939647874481861,-0.015200911677233982,0.011347042310751697,0.015166654342180168,0.0133014598233668,-0.06855095279752321,-0.389423933796134,0.019754019425828346,-0.22153495109347465,-0.19069185726235624,0.04261513885740563,0.010580581241377052,0.022768886910351928,-0.04253561192531414,-0.010327839512808471,-0.006670508417619203,-0.0038298340250192547,0.09975126699707185,0.20592052640525688,-0.013471160821568181,-0.1458959296861915,-0.007025613882517337,0.0015481783113934534,0.12350482822502919,0.09938766583778635,0.0010026784914090245,-0.21553888284947947,0.007499298576738676,-0.01221529459442939,-0.06406647151700039,-0.0034044953100902035,-0.004498685103274336
0.10742097111374548,-0.010579258735334156,-0.12800248547363455,-0.0021625297263461636,-1.2078865248513898e-05,0.24715748391189143,-0.007861857041032181,-0.04931799444063732,-0.18839447387137986,-0.008337587447319154,-0.012255380368350607,-0.007548470407562468,0.14313284885174507,-0.011726201949451318,0.0034284297384532016,-0.01055746749041506,-0.025641431265256035,0.012395506864329105,0.012295629502628354,-0.021789206758279174,0.2949726788254288,0.010899105247819965,-0.0164874527916435,0.012043212259976472,0.06851940245720135,0.007794196002480488,-0.059836518564383774,-0.15839192248870074,0.182658465125108,-0.0006028887363849246,-0.10192408721653821,0.004214690719272621,-0.15537436247063183,0.0005674905780545074,0.3649158353471668,-0.0016278819353341828,-0.014355036479709007,0.002446524399436281,-0.0018047444577756824,-0.0025706219789834936,-0.009005694694603824,0.008115233497737129,-0.00397398282324142,-0.009944465554140698,-0.13133405846668486,0.0331819369561775,0.012051018956391435,0.010930423802615115,-0.08410842457803983,0.005354623334414003,-0.01236169106307659,-0.09582511807742417,0.008640461806304615,-0.11687870288436329,0.03834905841737441,0.002273678237926166,0.05427159280705069,-0.000619309258222598,-0.01466434176356699,0.003422572291646317,-0.28598220673562097,0.09754765937960196,-0.006762381175919077,-0.009740742289511795,-0.014035633371063165,-0.00812720796198315,0.09156220547252686,0.0395969982815243,0.0009946706049561195,-0.010084504650339617,-0.031833892603423834,-0.09785276367901678,0.1185100596928906,0.014218919669029214,-0.042538569545356564,0.2030852872550527,0.006990026734721634,-0.14427377760513496,0.007120798187554269,-0.04785107755637064,-0.008805483668583532,-0.01000267749237882,-0.010481327848179761,0.04978156772061693,0.06967569098092334,-0.05433716671049477,0.1184343691971745,0.014245734599032632,-0.011510060581611584,0.058720095495718466,-0.04153737315026727,0.09070934847521736,0.06706571094493785,0.09812588906619478,0.014913505603370646,0.010081259854576797,-0.07779012093165569,-0.009224099414496145,-0.00933613022820301,0.012065712592744703,0.18153647915330018,-0.0021278022351500434,-0.09616529490434268,-0.01307248009757973,0.01496361215647099,-0.022959469451092892,-0.041843515478059125,0.012235120412849939,-0.10050575062843155,0.03366882407829903,-0.0019442317335611158,0.0028073716303314913,-0.11693950122582089,-0.015396707573387524,-0.015146847084125368,-0.002880282609637231,-0.005751956992560307,-0.006048240324235982,-0.01041926415987131,-0.2519031717108056,-0.09588383661097415,0.005419693516849188,-0.023246446849740306,-0.004593540506545122,-0.013028969730897063,-0.009041525167140445,-0.07956140524897652,0.014526715033209226,-0.011353052502228032,-0.3099366554493084,0.015285536621993702,0.007348706676105002,-0.00641115225819042,0.00526994744691868,0.013479434144578466,0.19955098411928146,0.12406377567780874,0.00386787027054436,-0.008519321918915405,-0.2035509471106515,0.00040425004047837216,0.013121268330296611,0.05830592991992161,0.17002565211012655,-0.024986424528940718,-0.00806577916812469,-0.0030117068794840683,0.010093327567866368,-0.008115882208612615,0.009862314379812514,0.14069403025593574,-0.05544750141932934,-0.13019245777482144,0.16002542616629453,-0.02859641068691995,0.0019247986089546004,0.06716802121054337,-0.15220827888535185,-0.01261722442546731,0.04592272350375709,0.004703136528818857,-0.13823842444717724,-0.1939498122738018,-0.013465907757216185,0.020478075330381432,0.01434169393055617,-8.838609377001538e-05,-0.08398237870160305,0.09343628821345462,-0.010389727359286362,-0.09425272843769368,-0.15292833527200048,0.012790297993891534,0.001143090723299886,-0.04408193982986868,-0.0035100912832771065
0.08914536869465298,0.014155901150718457,-0.013704605697255587,0.011104582060481327,0.006588600778621875,0.0427457158775834,-0.0030161799079359113,0.10964299975142855,-0.23431952805495113,0.00970369447469794,0.008786069283026478,-0.0014370308421413798,0.055290885898304123,-0.010359396844538335,0.005555984794842313,-0.007238585398789538,-0.17392395735323843,0.005442027740940578,-0.014295174453142951,-0.06976908730556568,-0.10369272983912838,0.00714344767657157,-0.011936815824463154,-0.09410845629310262,-0.04387207190625969,0.006653961346040158,-0.2145877598532404,0.026531591324848496,-0.07943464975828168,-0.010183648438177349,-0.05988381728499542,-0.004973689223716691,0.14205902927586891,0.00616280836302089,-0.10790236325704969,-0.004582350685386826,0.004427293215004655,0.003385496330673938,0.010372889235409848,0.01332352776030666,0.004207030249076624,0.014716611991044123,0.0008889493774123132,0.003125002900502657,-0.0717985455858532,0.05696530592252375,-0.013556542019272044,-0.003891369066580181,0.0976575046658941,-0.008278439122613241,0.013464266594335954,-0.08018320661720951,-0.011212440406431597,0.020729702883661938,-0.20732211973350512,0.015602195401337463,0.0943618247970677,0.002350452474299849,0.011628398027978623,-0.009711346614894888,0.043194714717663694,0.07503621690148059,0.17287641226547887,-0.0021320778983168623,-0.001128850575580407,-0.013041238483207186,-0.006595981459892432,-0.003070419174123025,-0.0052309831612046866,0.0008514440614741485,-0.10129762526239275,0.08046914954707873,0.11770014397471806,0.011938679052025013,-0.04255511809351015,-0.06436258829614924,-0.003469658034555699,-0.04520392117670944,-0.00116937160138926,-0.046205152907610327,-0.13279388596199856,-0.05416104536314003,-0.008428197528803149,-0.051701300615209826,-0.14436158205623223,-0.06819128885548187,-0.1586956539276076,-0.008459785776904129,-0.0027090369130996945,-0.27658341836597805,-0.10001675376068214,-0.1106648599992493,-0.10637730190762722,-0.006801494312760197,0.015304671457761296,0.005954029104830966,-0.2237751267003015,0.0037151166625936753,-0.0069074353210718704,-0.012827489907370572,0.09807541991048555,-0.16041137117822543,0.0015204838471941943,0.01474647933710757,-0.005797060433324522,0.0803424896446704,-0.04520169765245943,-0.078178979263943,0.08379967355580838,0.05654118440379044,-0.007989511207756445,0.003338683060814425,0.022027309849285033,0.014944170319636928,-0.00033551697557427165,0.006812073125651415,-0.00479925857942614,0.0015685814088200849,-0.03434601499370192,-0.05805621291358779,0.03669286717929248,0.012511328504427422,0.039894970217077455,-0.0025161090205433646,-0.010713718648337069,-0.002928414422569324,0.006661545885895879,0.007830806457999658,-0.012155637383588835,0.02124701117809161,-0.011310832919130816,0.00529427239730439,-0.008048878702161588,-0.002661295335122587,0.008864536340044676,0.15293087107590725,-0.03457051973483515,-0.0012423400803071617,0.009128452945609444,0.07685250506087662,-0.026170869593257158,0.005688026568333112,0.2531288580798917,-0.10345587743338937,0.022173245216702803,0.007837033591665186,-0.006477056233268708,0.007922846150394978,0.0065168379848798905,0.1531588709131902,-0.0444171453956396,0.25118376563797784,0.05728272371340961,-0.05622131740752072,0.08554945769882198,-0.0037648501564734108,0.16351269024822063,0.054764949512425325,0.014840272319387563,-0.025134012393484735,-0.005613767131631309,-0.004479609440866236,-0.06536939053098488,0.0063299188850635055,0.0938599725867214,0.003918023314617224,-0.010539499978770746,0.15050826790358113,0.0032764901266145252,0.014002725520585756,-0.06536667479047857,-0.025745293979622823,0.0033695595108711313,0.14949648437451726,0.16966339157816035,0.01225557664963911
0.08415853439753948,-0.007965861506833202,-0.05424784897661399,-0.010222162829667578,-0.009599154730904256,0.06784750842571168,-0.0090943986600471,0.05139592351127974,-0.06909860729540258,0.0040676971577156,0.0019656884397060703,0.005446406829105223,0.1175330306902286,0.004285203277784526,-0.003581316929511545,0.007610217235600864,-0.14183909431565764,0.001153201035480219,-0.007224124263565116,0.044338183698840475,-0.004576595860234944,-0.005773456017269859,0.022317645209130963,-0.06434861282340952,0.03871291310501901,-0.001032710168629155,-0.10030835554487352,-0.05941670461684116,0.0703556986607514,-0.009172936155386297,-0.03926150026304883,-0.012658646373266934,0.0580939963391929,0.0005561305240012297,0.18383657610414378,0.01135773712579773,-0.010443853460442857,-0.0104824058925207,-0.008386276472403007,0.015443942209841407,-0.005513338888047545,0.012420620055633533,-0.007753716889610442,-0.009361632709214494,0.08668763728632843,0.09551020388637087,-0.014532964981087984,0.005443790642062608,-0.060726753734976366,-0.0077255472347154755,0.4307472626061882,-0.07601943835448909,0.010923254433761277,-0.0018302178408583652,0.0026179705109997367,0.007826136500310117,0.04337470953685636,-0.0068172053376024215,0.012492905442189377,0.00535990999092165,0.051598741077978676,-0.07812628393975425,-0.20112392720760458,0.007271664853089212,-0.013146183035035206,0.013879980396704506,-0.16047792638135985,-0.03964642965390331,-0.005670683008561089,-0.01358482954674094,0.07599137500972564,0.06103369223371118,-0.08248822631125362,0.004397733746514459,-0.048241995877541737,0.25076534349236834,0.002521409864603811,-0.0921534345340498,-0.008187898151389083,-0.005414472203599529,-0.06189413661000476,0.04786236195998641,0.003366172270603797,-0.04190332700520001,-0.07086961119925962,0.06062330724061875,0.013749259755559904,-0.0021084165945398255,-0.011539881513297705,0.04206318899969739,-0.00654791490826598,-0.10329073324979533,0.036783581900288166,-0.04215496473723725,-0.008632025093437447,-0.009146507477215113,-0.03657291105558351,0.007816496555230569,-0.00899008475824252,0.004573280491790701,-0.04823172843089698,0.002755848929042501,-0.1103918960430583,0.009851382366639596,0.008813085328666002,-0.019302350021561165,0.03471711203427508,-0.04657937254339699,-0.05152186597161112,-0.04696688298161623,0.0023783607091943243,0.008046366157134291,0.11518720486230982,0.00906412801031593,0.001337874665824492,-0.0028964940093959904,-0.0031108104817940893,0.013905102571419251,-0.04858470638062181,0.09493447304156225,0.19204899261949263,0.0011688977979472104,-0.003283289573762162,0.01540453329900952,0.014783583202011532,0.009745798523369976,-0.06790987540367799,-0.00018627721249612691,0.002286047191961533,-0.08219201291474766,-0.010807274360918679,0.002810337872331394,-0.01235973036614179,-0.0026893052213564465,0.001747200248884015,-0.10352113055182996,-0.02116006491501234,0.004291938101624759,-0.010533730342662855,-0.06829300555195622,-0.006189927435902287,-0.004473215430226565,-0.15087753171387336,0.03711180924162953,0.008926852597428373,0.010982034754014759,-0.01096705965534138,-0.010493268899809616,0.014440554449603966,-0.09813153550308486,0.1662443866843972,-0.06757514143968261,0.11547736968617012,-0.007949599672145721,-0.07898841469121741,0.006811396456376906,-0.0070151538463561515,-0.1644272457362823,-0.004205312866236578,-0.0381474618467906,-0.01399397440747974,-0.1894677119445101,-0.09019576949322061,-0.009490949441780642,-0.005065623856939759,-0.006157602269245038,-0.013589679032518141,0.01852845899619317,0.027806288404914288,-0.0012868421257689402,0.08686633732801743,-0.08070223324360065,0.005921985949290595,0.0028892464414069217,-0.1516002052489575,-0.014956943472729276
0.1000423964345819,0.008919176996223799,0.05359087009097889,-0.013172001717144118,-0.009515220011117955,-0.20229995214632407,-0.007621114272632196,-0.0759770366363554,-0.026105067360084923,0.014470338433276362,-0.010293862465718638,-0.0002660724397707502,-0.19663408878600705,0.015285298613113327,-0.0005734876077491298,-0.004128303229282544,-0.1312252321623588,0.011206046884128903,0.008094430092603914,-0.003482275928182891,0.12657282135147638,0.010606931303572983,0.037386321676961945,0.04172131251286991,-0.1229460463405567,-0.0016121471373692423,0.047177185817224486,-0.051589296982838775,0.02857574615853623,-0.012789800158703821,0.04459935077551137,-0.012017653463743162,0.07876213556979239,0.0033540261750456928,0.04793360858522259,-0.003323615316323164,-0.003140927697281002,0.011757701427383284,-0.011118153773308423,-0.011448877474419545,-0.007868092479226839,0.0048799427435475065,-0.013739605955896569,0.011716456435152574,-0.13432844349592576,-0.09832770093783397,-0.0033057972616737027,-0.012135791263029098,0.056799567006176124,0.014998906031430302,-0.09548049484805148,-0.032221406652280994,-0.011629861441959669,-0.210848426785562,0.0781463042394262,-0.0004589950186459045,0.007627276877456795,-8.565937623260245e-05,-0.004281153922326131,-0.0036060677628896795,-0.00901435879396544,-0.010942757809092162,-0.09266118634519296,0.12016083162149396,0.009009666225042057,0.014541671878883656,0.05228969663611641,0.2083953907563229,0.008994834985088504,-0.009647547528340763,-0.17922027520941333,-0.08626375776164862,-0.011223302834808067,-0.0099333729424553,-0.009546817278429123,-0.0678770488059169,-0.0064380743030932885,-0.03550093440220492,-0.014791244851753305,0.06094000862094837,-0.09260779173543252,-0.010029776076212214,0.015128927250993792,-0.01446380116083253,0.11600144696710883,0.011153473210825347,0.05570869263822114,0.012950399333984532,0.014108940975904764,0.18202533314242958,-0.06780913828807121,0.12728979782699376,0.06892163310263014,0.02241598157143872,0.001784790829361161,0.010627540733967218,0.05497590040040468,-0.009020854290524117,0.011692762747622206,0.008525516894528063,-0.09974088438965334,-0.020515338296152544,-0.007607261656233231,-0.006835662985014125,-0.0030420601344551684,0.10541616812187855,0.1434967634465759,-0.010203816134084344,0.029680525656405412,0.06907399673677936,0.0035547102448145566,0.005934667255364297,-0.09656047234495044,-0.001142225635001659,-0.0028060156879269743,0.015475938976410811,0.004819468417458533,0.005499407000570319,-0.08122442974451594,0.053442358437469875,-0.11527504315446074,0.01384605248687091,-0.060417087493815566,0.0021011959366430202,-0.009795724697768442,-0.002768029741916013,-0.081382825211557,-0.0007587238943771481,-0.004597426663226104,-0.0878148209763596,-0.011147198239515089,0.0017535111541082324,-0.00569883927148622,-0.00210060050766004,-0.015302395472356418,0.13628559176056648,-0.23147317944346002,0.008754943575945147,-0.004038616453215422,0.1049846218575184,-0.007391921087466157,0.0015016565880979806,-0.15677232862603535,0.04638730658134475,0.12851053888450728,0.012321900221019418,0.004085480279040914,0.0011673328476487117,-0.010779659075143163,-0.09569734584423076,-0.011099650286944332,0.15026953352775574,-0.23929113056878548,0.015168247507774263,-0.1977560731412259,0.0011282397435840412,-0.21900210456992705,-0.040204694758880284,-0.0018013520946801621,0.12213461165153673,0.00873092210789149,-0.06853571367191481,0.07288385551322947,-0.0012360542536254161,0.031421113902002584,0.013389066952402957,-0.0050129005045748305,-0.005573342038989777,-0.10014255930554979,-0.005632482184148611,0.2840313612617751,-0.010143672511161664,-0.014176631303643834,-0.03247105254342433,0.10172152642652724,-0.008679332151264037
-0.1401801724596143,-0.008832702716648627,-0.09423600910175661,0.01185959402469345,-0.005214681455138689,0.047888458914277836,0.015508265016098446,-0.01531366394115801,0.050122556842667504,0.0005456986059534617,-0.015495900370556679,0.004631867045469973,-0.04731891737070692,0.007311806977910028,-0.009569949807600862,0.0015117567974574989,0.027498306987748217,-0.0067030481263422904,0.00461214821248079,0.008971111159347695,-0.06811011807766083,0.015079041510364575,0.06678456762631337,-0.06294567637451484,-0.0434549256050519,0.012965543623827486,-0.08965940302317486,-0.023543018213528347,-0.05697418556718202,0.0045122935164399955,-0.022493580703584856,-0.004843189326105335,-0.08920532976312091,0.010871100276674858,0.027404550511827632,0.008122286207756617,-0.0017588107521712103,0.01226548186600529,-0.01136365343914511,0.0019278207244597181,-0.0055031075712044,0.0038933872868639335,-0.01359515185521738,-0.00300564908880073,-0.04361221131349376,0.18737954384222053,0.010800229107422208,-0.0006101765259253142,-0.07731588140871477,-0.0051167719407789365,-0.036447002600816285,-0.05325445574387256,0.013773658175866718,0.1951652465763869,-0.015197957220371884,-0.0028749328349480067,0.006931031802812437,0.006274350216359699,0.00972549222586857,-0.01412170845677635,-0.07406033046000197,-0.07130455269055634,-0.017280221854597436,-0.003909928553848797,-0.001649102835996355,0.01234831581091006,0.02156743749000429,-0.029324163388592242,0.005464089864890172,-0.013243377172697014,-0.04252873935321852,-0.15666233086958767,-0.006278032146546762,0.015040751368435638,0.05331149971145719,-0.12557622279838238,0.009161687630943736,0.047985957215195454,0.010413907510702246,0.06755466050929153,0.1120729798910987,0.10768622121157537,0.003192507701288861,0.015234257030657717,0.03718585117638001,-0.032337567301415265,-0.025208463885959157,0.009951771929959073,0.004645553153731143,-0.05518856575790318,0.15945193610081462,-0.1150055082872193,0.022097094221021206,-0.09241126054941153,-0.00739087479556071,0.002881375396420204,0.09414575586448022,0.013085338410237152,0.004227009026292132,-0.008961552793185442,-0.045939191097281416,0.0913423953599317,0.004778258140689161,-0.0029858892025562654,0.009449575128139438,-0.10813006694996394,-0.025525814478572113,0.01822768042684008,0.13834745488467462,0.04788065200640711,0.0006048784595791175,-0.004428399407834412,0.07628867561960537,0.007923777181372809,0.0016295958509772827,-0.010104485748208398,0.011802877613718895,-0.009832550602758103,-0.022340896721829397,-0.12579415772894234,0.05029989898960654,-0.006993221999577911,-0.014553244199226129,-0.011332407303849368,-0.0023367458190129455,-0.010590802559865428,0.13094353408822634,-0.004143638729972376,0.0009169906520547499,0.012466419821095597,-0.0005643018269291811,-0.007688855312414977,0.009062348829156349,0.012069385727754806,0.0011033337192900214,-0.05941817969973587,0.10685751412469685,-0.003409550114182161,0.007970390030089432,0.09666198186265802,-0.03975713951204865,0.009920189729700293,0.14837540392556126,0.012305948585646886,0.1101767496889755,0.004096387583644893,-0.004725900373030053,0.007665804189698849,0.008541058306033293,-0.008722676261207003,-0.14205869842512914,0.10736640368555841,-0.042564329856127056,0.11464056420308229,-0.07051518258152473,-0.014303944202154497,0.20633515417356466,0.05821045851721341,-0.009108604590931439,-0.023215321108782324,0.010250811210222522,-0.03720595824381422,-0.023092613859806464,-0.01364774328049221,0.08221341035908061,0.0036707092455249835,0.010022099120907738,-0.07487514944263092,-0.05538846105750446,0.011490511985932872,0.030123565861427504,0.0071072359440833635,-0.0021502460161329194,-0.0013553875443317977,-0.18193867654767462,0.011841591021159743
-0.027751206287213823,-0.010610480827372256,-0.015331331664587227,-0.0044174725727760475,0.014694868984751648,-0.023122453325856156,-8.866553826144402e-06,-0.0834475783089442,0.0907505258249956,0.010780041121398465,0.010060529642037564,-0.0042744660243067695,0.26653531243450496,0.01367330738466524,0.003890145669727979,-0.009648536825684007,-0.045816935576509676,0.009317985599484026,0.012117139777887732,0.03282249978458199,-0.01642715680757846,0.007172097422238795,-0.08703723993006633,0.06258925308039893,0.004616471564494962,0.01167791889576059,0.01658507318903079,-0.053397073910764786,0.11576057770225456,0.011859664493726229,0.0532384198073394,0.0020210871550111996,0.09565831544747147,-0.0076713086037638704,0.14028798453562788,-0.003504163945177396,0.012860659454612351,0.01181868168329201,0.009617708319220382,-0.009083008384404796,-0.007000508017970829,-0.0002848956219977383,0.00401498061211486,0.005920631434466039,0.1413913929756768,0.02701260647288145,-0.01500612038729824,-0.010888207857799731,-0.01592520427221115,-0.005740736519901219,-0.01424163476925313,-0.03212645499173715,0.006356709013160874,-0.056014541420395386,0.1150947920395913,-0.00555701587124174,0.03963237516118828,0.007841635061190289,-0.0056392176029711255,0.012569762887317457,-0.11035308853192569,-0.0033681573255065164,0.026581980999239033,-0.002672441140722885,-0.004876117135172643,0.0011351240339142928,0.04693487193020247,0.03821123566210403,0.012002837775854803,0.015347096169883001,0.08697070445061408,-0.03292031091358398,-0.04332782779480329,0.005118630632024324,0.19200862181756873,-0.10860482096103506,0.011481873922887447,0.1101271097069941,0.008006531143066806,-0.04847743957390719,0.039610258095640186,0.06845334633524838,-0.008098620758726985,0.042245448949891566,-0.0371000269047396,-0.033594688301617055,0.18090284760885175,-0.004979738723943777,-0.01024123298802598,-0.11192076630554838,-0.015955048151353336,-0.0608716984148179,0.03858036496064531,-0.09873826780671129,0.008438066626514213,-0.013400781221060136,0.1796517796013147,-0.010033671322844776,0.010933059839215178,2.7748474330353823e-05,0.01724092540955471,0.03985406700044099,-0.10690364206442149,-0.009454551387936501,-0.011507786503420502,-0.2489043765415571,-0.0552245165115226,0.03078377719919124,-0.22823617801039,-0.04494176101997898,-0.011728612628640733,0.00020826153867478311,-0.09694144922715897,-0.0031288673495245417,-0.0037588814259040815,0.014255798181560302,0.0016309374774086428,-0.009040066195498263,-0.11901125747008276,-0.06777230797879959,-0.08674968402911427,0.006769117365416393,-0.053107212843943916,0.00494407139621213,0.010806459992600943,-0.008751711858390153,0.05133510550908106,-0.01285571118092126,-0.0022531470552091676,-0.18759241399753507,0.0010044969108092168,-0.009918118672166677,0.007213081725617486,0.0075914232905967445,0.0028155138328945332,-0.01916828409809225,-0.08521933506215654,-0.014791019623318899,-0.00018307243781477342,-0.028250442711308117,-0.10592044109061904,0.004846682214630565,0.010222889192704204,-0.10274699646041911,0.09706971578295776,0.0034878087391500175,-0.012102686452135927,0.005310913292830895,0.008315069093889998,0.022251693589107304,-0.22996939867416283,0.018148739404801644,-0.0400263421198238,-0.014226479993637003,-0.060894047432582206,-0.008981960043923928,-0.07322287204683033,0.06202110276194767,0.009592970189276361,0.14830591260255435,0.011775145800850817,0.053191893191330226,-0.030797632411999256,0.010505802084692862,0.11856066898589661,0.0027426929161129127,0.004389349840475669,-0.01128548363862755,-0.04761071614860357,-0.011386772441334098,0.07667981995713433,0.0016518913915374012,0.014259509014583404,-0.013106470409951757,0.14609757359323694,0.014225752517258869
